svm_type epsilon_svr
kernel_type rbf
gamma 0.5
nr_class 2
total_sv 2324
rho -3.09421
SV
2 1:-0.883359 2:-0.816874 3:-0.779468 4:-0.779468 5:-0.911383 6:0.820636 7:-0.867228 8:-0.967742 9:-0.967742 10:-1 11:-0.867228 12:-1 13:-0.82186 14:-0.809888 15:-1 16:-1 17:-1 18:-1 19:-1 20:-1 21:-0.4375 22:-0.775862 23:-0.973866 24:-0.982461 25:-0.791045 26:-0.93871 27:-0.976048 28:-0.983558 29:-0.896601 30:-0.98048 31:-0.507722 32:-0.976263 33:-0.848739 34:-1 35:-1 36:-1 37:-0.851852 38:-1 39:-0.980198 40:-0.85034 41:-1 42:-0.906977 43:-1 44:-0.182625 45:-0.828704 
0.1205505846331661 1:-0.878054 2:-0.813425 3:0.262357 4:0.262357 5:-0.91505 6:0.837931 7:-0.886771 8:-0.580645 9:-0.580645 10:-1 11:-0.886771 12:-1 13:-0.700356 14:-0.48036 15:-0.991288 16:-0.910889 17:-0.991288 18:-1 19:-1 20:-1 21:-0.5 22:-0.189655 23:-0.810631 24:-0.771989 25:-0.223881 26:-0.409677 27:-0.0299401 28:-0.858279 29:-0.293201 30:-0.861747 31:-0.332143 32:-0.932075 33:-0.411765 34:-1 35:-0.6 36:-0.428571 37:0.333333 38:-1 39:-0.60396 40:-0.52381 41:-1 42:-0.465116 43:-1 44:-0.0656 45:0.152778 
2 1:-0.982832 2:-0.968625 3:-1 4:-1 5:-0.984856 6:0.947334 7:-0.985556 8:-1 9:-1 10:-1 11:-0.985556 12:-1 13:-0.452803 14:-0.984469 15:-1 16:-1 17:-1 18:-1 19:-1 20:-1 21:-1 22:-1 23:-0.999927 24:-1 25:-1 26:-1 27:-1 28:-1 29:-0.998584 30:-0.99975 31:-1 32:-0.997809 33:-1 34:-1 35:-1 36:-1 37:-1 38:-1 39:-1 40:-1 41:-1 42:-1 43:-1 44:0.0428571 45:-1 
-0.6829992057569135 1:-0.895191 2:-0.835132 3:-0.91635 4:-0.91635 5:-0.926826 6:0.854788 7:-0.890006 8:-0.967742 9:-0.967742 10:-1 11:-0.890006 12:-1 13:-0.831847 14:-0.799675 15:-0.999944 16:-0.996185 17:-0.999944 18:-1 19:-1 20:-1 21:-0.5625 22:-0.918103 23:-0.971828 24:-0.963374 25:-0.820896 26:-0.93871 27:-0.844311 28:-0.976535 29:-0.879603 30:-0.978417 31:-0.188123 32:-0.970177 33:-0.714286 34:-1 35:-1 36:-1 37:-0.925926 38:-0.647059 39:-0.980198 40:-0.904762 41:-0.529412 42:-0.930233 43:-1 44:0.0186047 45:-0.921296 
2 1:-0.891321 2:-0.780366 3:-0.946768 4:-0.946768 5:-0.946981 6:0.868955 7:-0.914624 8:-0.741935 9:-0.741935 10:-1 11:-0.914624 12:-1 13:-0.76882 14:-0.667941 15:-0.996426 16:-0.918467 17:-0.996426 18:-1 19:-1 20:-1 21:-0.5 22:-0.818966 23:-0.915209 24:-0.906629 25:-0.731343 26:-0.790323 27:-0.88024 28:-0.939919 29:-0.558074 30:-0.942536 31:-0.340484 32:-0.958004 33:-0.630252 34:-1 35:-0.733333 36:-0.428571 37:-0.777778 38:-0.882353 39:-0.485149 40:-0.795918 41:-0.882353 42:-0.604651 43:-1 44:-0.00712004 45:-0.439815 
1.73219768409462 1:-0.468669 2:-0.88019 3:-0.771863 4:-0.771863 5:-0.488304 6:0.459759 7:-0.445907 8:-0.709677 9:-0.709677 10:-1 11:-0.445907 12:-1 13:-0.959273 14:0.0944146 15:-0.441249 16:0.755127 17:-0.441249 18:-1 19:-1 20:-1 22:-0.762931 23:-0.382879 24:-0.385092 25:-0.61194 26:-0.293548 27:-0.712575 28:-0.761109 29:-0.46034 30:-0.396954 31:-0.705965 32:0.0819233 33:-0.411765 34:-1 35:-0.933333 36:-1 37:-0.481481 38:-1 39:-0.762376 40:-0.877551 41:-1 42:-0.906977 43:-1 44:0.883695 45:-0.555556 
-2 1:-0.867226 2:-0.822442 3:-0.961977 4:-0.961977 5:-0.894289 6:0.809506 7:-0.860825 8:-1 9:-1 10:-1 11:-0.860825 12:-1 13:-0.669518 14:-0.894319 15:-0.999777 16:-0.950019 17:-0.999777 18:-1 19:-1 20:-1 21:-0.6875 22:-0.969828 23:-0.991551 24:-0.988135 25:-1 26:-0.993548 27:-0.988024 28:-0.994624 29:-0.973088 30:-0.993573 31:-0.544643 32:-0.982471 33:-0.983193 34:-1 35:-1 36:-1 37:-1 38:-1 39:-0.920792 40:-0.945578 41:-1 42:-0.953488 43:-1 44:0.0428571 45:-0.953704 
0.4448535752140088 1:-0.931004 2:-0.863042 3:-1 4:-1 5:-0.949034 6:0.865517 7:-0.948665 8:-1 9:-1 10:-1 11:-0.948665 12:-1 13:-0.683549 14:-0.959698 15:-1 16:-1 17:-1 18:-1 19:-1 20:-1 21:-0.9375 22:-1 23:-0.99871 24:-0.999484 25:-1 26:-0.993548 27:-1 28:-0.998208 29:-0.991501 30:-0.998855 31:-0.132653 32:-0.994766 33:-1 34:-1 35:-1 36:-1 37:-1 38:-1 39:-1 40:-0.986395 41:-1 42:-1 43:-1 44:0.191837 45:-0.990741 
-2 1:-0.894643 2:-0.863024 3:-1 4:-1 5:-0.925159 6:0.8745 7:-0.890443 8:-1 9:-1 10:-1 11:-0.890443 12:-1 13:-0.696603 14:-0.836916 15:-1 16:-1 17:-1 18:-1 19:-1 20:-1 21:-0.8125 22:-0.961207 23:-0.982123 24:-0.971628 25:-0.880597 26:-0.951613 27:-0.94012 28:-0.964036 29:-0.930595 30:-0.98544 31:-0.271429 32:-0.969446 33:-0.983193 34:-1 35:-0.933333 36:-1 37:-1 38:-1 39:-0.90099 40:-0.931973 41:-1 42:-0.930233 43:-1 44:-0.0405714 45:-0.935185 
-2 1:-0.948711 2:-0.8772 3:-0.992395 4:-0.992395 5:-0.963788 6:0.874678 7:-0.93312 8:-1 9:-1 10:-1 11:-0.93312 12:-1 13:-0.711142 14:-0.936417 15:-1 16:-1 17:-1 18:-1 19:-1 20:-1 21:-0.9375 22:-0.987069 23:-0.996913 24:-0.997421 25:-0.970149 26:-1 27:-0.976048 28:-0.995447 29:-0.970255 30:-0.99746 31:-0.448052 32:-0.99294 33:-0.983193 34:-1 35:-1 36:-1 37:-1 38:-1 39:-1 40:-0.959184 41:-1 42:-1 43:-1 44:0.0428571 45:-0.976852 
2 1:-0.89567 2:-0.839051 3:-0.992395 4:-0.992395 5:-0.930422 6:0.866903 7:-0.894761 8:-0.903226 9:-0.903226 10:-1 11:-0.894761 12:-1 13:-0.851293 14:-0.811957 15:-0.998325 16:-0.870803 17:-0.998325 18:-1 19:-1 20:-1 21:-0.6875 22:-0.831897 23:-0.975071 24:-0.973691 25:-0.850746 26:-0.964516 27:-0.916168 28:-0.97395 29:-0.895184 30:-0.980885 31:-0.595238 32:-0.974315 33:-0.865546 34:-1 35:-1 36:-1 37:-0.925926 38:-1 39:-0.80198 40:-0.945578 41:-1 42:-0.930233 43:-1 44:-0.276952 45:-0.787037 
-2 1:-0.895179 2:-0.845656 3:-0.847909 4:-0.847909 5:-0.920866 6:0.847489 7:-0.884615 8:-1 9:-1 10:-1 11:-0.884615 12:-1 13:-0.77317 14:-0.777943 15:-0.997934 16:-0.882232 17:-0.997934 18:-1 19:-1 20:-1 21:-0.5625 22:-0.75431 23:-0.966194 24:-0.96131 25:-0.820896 26:-0.925806 27:-0.784431 28:-0.973726 29:-0.86119 30:-0.973683 31:-0.356061 32:-0.968229 33:-0.966387 34:-0.875 35:-0.866667 36:-1 37:-1 38:-0.764706 39:-0.90099 40:-0.918367 41:-0.882353 42:-0.953488 43:-1 44:-0.0730159 45:-0.773148 
2 1:-0.860114 2:-0.83939 3:-0.673004 4:-0.673004 5:-0.893761 6:0.834821 7:-0.854917 8:-0.83871 9:-0.83871 10:-1 11:-0.854917 12:-1 13:-0.854362 14:-0.700307 15:-0.998716 16:-0.958925 17:-0.998716 18:-1 19:-1 20:-1 21:-0.5 22:-0.525862 23:-0.939577 24:-0.929327 25:-0.850746 26:-0.816129 27:-0.688623 28:-0.955068 29:-0.820113 30:-0.952946 31:-0.407087 32:-0.957273 33:-0.848739 34:-1 35:-0.8 36:-1 37:-0.62963 38:-0.647059 39:-0.80198 40:-0.782313 41:-0.764706 42:-0.767442 43:-1 44:0.173214 45:-0.689815 
-2 1:-0.896792 2:-0.827609 3:-0.764259 4:-0.764259 5:-0.917813 6:0.820793 7:-0.891396 8:-0.709677 9:-0.709677 10:-1 11:-0.891396 12:-1 13:-0.788706 14:-0.643895 15:-0.988942 16:-0.757683 17:-0.988942 18:-1 19:-1 20:-1 21:-0.1875 22:-0.211207 23:-0.911728 24:-0.883415 25:-0.61194 26:-0.845161 27:-0.844311 28:-0.960922 29:-0.604816 30:-0.934129 31:-0.544643 32:-0.944614 33:-0.647059 34:-1 35:-0.866667 36:-0.714286 37:-0.407407 38:-1 39:-0.663366 40:-0.755102 41:-1 42:-0.651163 43:-1 44:-0.0688776 45:-0.523148 
2 1:-0.949494 2:-0.891905 3:-0.969582 4:-0.969582 5:-0.975126 6:0.92161 7:-0.944048 8:-0.967742 9:-0.967742 10:-1 11:-0.944048 12:-1 13:-0.930452 14:-0.910532 15:-1 16:-1 17:-1 18:-1 19:-1 20:-1 21:-0.625 22:-0.978448 23:-0.994498 24:-0.994841 25:-1 26:-0.987097 27:-0.976048 28:-0.994446 29:-0.954674 30:-0.995278 31:-0.540043 32:-0.990262 33:-0.932773 34:-1 35:-1 36:-1 37:-1 38:-0.882353 39:-0.90099 40:-0.972789 41:-0.882353 42:-0.953488 43:-1 44:-0.494372 45:-0.976852 
-2 1:-0.876278 2:-0.844455 3:-0.961977 4:-0.961977 5:-0.909495 6:0.85155 7:-0.872374 8:-0.967742 9:-0.967742 10:-1 11:-0.872374 12:-1 13:-0.858634 14:-0.722446 15:-0.998548 16:-0.946206 17:-0.998548 18:-1 19:-1 20:-1 21:-0.625 22:-0.762931 23:-0.947876 24:-0.912303 25:-0.850746 26:-0.880645 27:-0.748503 28:-0.947146 29:-0.824363 30:-0.959469 31:-0.247143 32:-0.960925 33:-0.882353 34:-1 35:-1 36:-0.714286 37:-0.62963 38:-0.882353 39:-0.663366 40:-0.768707 41:-0.882353 42:-0.813953 43:-1 44:-0.165714 45:-0.773148 
0.9003212788058046 1:-0.872214 2:-0.764521 3:-0.961977 4:-0.961977 5:-0.911842 6:0.799338 7:-0.922405 8:-1 9:-1 10:-1 11:-0.922405 12:-1 13:-0.531571 14:-0.956131 15:-1 16:-1 17:-1 18:-1 19:-1 20:-1 21:-1 22:-1 23:-0.99818 24:-0.998968 25:-1 26:-0.996774 27:-1 28:-1 29:-0.992918 30:-0.998676 31:0.0119048 32:-0.994279 33:-1 34:-1 35:-1 36:-1 37:-1 38:-1 39:-1 40:-1 41:-1 42:-1 43:-1 44:0.0428571 45:-1 
2 1:-0.882367 2:-0.853174 3:-0.931559 4:-0.931559 5:-0.912066 6:0.854158 7:-0.886479 8:-0.967742 9:-0.967742 10:-1 11:-0.886479 12:-1 13:-0.820747 14:-0.842618 15:-0.998716 16:-0.856111 17:-0.998716 18:-1 19:-1 20:-1 21:-0.625 22:-0.896552 23:-0.982907 24:-0.977302 25:-0.880597 26:-0.970968 27:-0.952096 28:-0.98571 29:-0.94051 30:-0.986394 31:-0.0822259 32:-0.972855 33:-0.966387 34:-1 35:-1 36:-1 37:-1 38:-1 39:-0.960396 40:-0.945578 41:-1 42:-0.930233 43:-1 44:0.0671096 45:-0.782407 
-2 1:-0.909309 2:-0.87424 3:-0.977186 4:-0.977186 5:-0.938491 6:0.891767 7:-0.917147 8:-1 9:-1 10:-1 11:-0.917147 12:-1 13:-0.559244 14:-0.929112 15:-1 16:-1 17:-1 18:-1 19:-1 20:-1 21:-0.9375 22:-0.99569 23:-0.996427 24:-0.996905 25:-1 26:-0.983871 27:-0.988024 28:-0.998386 29:-0.984419 30:-0.996912 31:-0.241071 32:-0.99294 33:-1 34:-1 35:-1 36:-1 37:-1 38:-1 39:-1 40:-0.986395 41:-1 42:-1 43:-1 44:-0.130952 45:-0.976852 
-2 1:-0.905608 2:-0.841949 3:-0.961977 4:-0.961977 5:-0.957524 6:0.923155 7:-0.918708 8:-0.967742 9:-0.967742 10:-1 11:-0.918708 12:-1 13:-0.567209 14:-0.876717 15:-0.999888 16:-0.980686 17:-0.999888 18:-1 19:-1 20:-1 21:-0.8125 22:-0.99569 23:-0.989004 24:-0.98504 25:-0.910448 26:-0.967742 27:-0.952096 28:-0.985126 29:-0.947592 30:-0.991426 31:-0.121241 32:-0.986732 33:-0.915966 34:-1 35:-0.933333 36:-1 37:-0.925926 38:-1 39:-0.960396 40:-0.959184 41:-1 42:-0.976744 43:-1 44:-0.341353 45:-0.949074 
-2 1:-0.925461 2:-0.863861 3:-1 4:-1 5:-0.960115 6:0.908608 7:-0.921119 8:-1 9:-1 10:-1 11:-0.921119 12:-1 13:-0.813951 14:-0.835381 15:-0.999106 16:-0.907914 17:-0.999106 18:-1 19:-1 20:-1 21:-0.5625 22:-0.922414 23:-0.981401 24:-0.978334 25:-0.850746 26:-0.958065 27:-0.976048 28:-0.984409 29:-0.890935 30:-0.985178 31:-0.571886 32:-0.982958 33:-0.94958 34:-1 35:-0.933333 36:-1 37:-1 38:-1 39:-0.861386 40:-0.768707 41:-1 42:-1 43:-1 44:-0.224542 45:-0.763889 
-2 1:-0.866392 2:-0.830171 3:-1 4:-1 5:-0.898729 6:0.829315 7:-0.84836 8:-1 9:-1 10:-1 11:-0.84836 12:-1 13:-0.748969 14:-0.889169 15:-1 16:-1 17:-1 18:-1 19:-1 20:-1 21:-0.75 22:-0.926724 23:-0.991027 24:-0.99123 25:-0.910448 26:-0.980645 27:-0.94012 28:-0.987472 29:-0.971671 30:-0.992976 31:-0.421769 32:-0.98734 33:-0.966387 34:-1 35:-0.933333 36:-1 37:-0.851852 38:-1 39:-0.980198 40:-0.972789 41:-1 42:-0.976744 43:-1 44:-0.00680272 45:-0.944444 
-2 1:-0.932736 2:-0.873472 3:-0.847909 4:-0.847909 5:-0.963631 6:0.911315 7:-0.92767 8:-0.967742 9:-0.967742 10:-1 11:-0.92767 12:-1 13:-0.880611 14:-0.802925 15:-1 16:-1 17:-1 18:-1 19:-1 20:-1 21:-0.75 22:-0.849138 23:-0.974227 24:-0.978334 25:-0.820896 26:-0.903226 27:-0.892216 28:-0.961617 29:-0.835694 30:-0.979084 31:-0.169719 32:-0.975533 33:-0.882353 34:-1 35:-0.933333 36:-1 37:-0.777778 38:-1 39:-0.80198 40:-0.85034 41:-1 42:-0.953488 43:-1 44:0.0339438 45:-0.824074 
-2 1:-0.907208 2:-0.886211 3:-0.954373 4:-0.954373 5:-0.91753 6:0.848938 7:-0.899929 8:-1 9:-1 10:-1 11:-0.899929 12:-1 13:-0.293853 14:-0.859096 15:-0.999888 16:-0.983138 17:-0.999888 18:-1 19:-1 20:-1 21:-0.6875 22:-0.965517 23:-0.987373 24:-0.994326 25:-0.970149 26:-0.990323 27:-0.964072 28:-0.985654 29:-0.946176 30:-0.98897 31:-0.688645 32:-0.985149 33:-1 34:-1 35:-1 36:-1 37:-1 38:-1 39:-0.960396 40:-0.85034 41:-1 42:-1 43:-1 44:-0.197802 45:-0.972222 
2 1:-0.968123 2:-0.916515 3:-0.954373 4:-0.954373 5:-0.98006 6:0.908657 7:-0.956914 8:-1 9:-1 10:-1 11:-0.956914 12:-1 13:-0.922831 14:-0.871439 15:-1 16:-1 17:-1 18:-1 19:-1 20:-1 21:-0.6875 22:-1 23:-0.988877 24:-0.99123 25:-1 26:-1 27:-0.976048 28:-0.986487 29:-0.869688 30:-0.990723 31:-0.575653 32:-0.988314 33:-0.966387 34:-1 35:-0.933333 36:-1 37:-1 38:-1 39:-0.920792 40:-0.986395 41:-1 42:-0.976744 43:-1 44:0.0316436 45:-0.990741 
2 1:-0.858873 2:-0.765455 3:-0.406844 4:-0.406844 5:-0.890362 6:0.768119 7:-0.848708 8:-0.612903 9:-0.612903 10:-1 11:-0.848708 12:-1 13:-0.636294 14:-0.598968 15:-0.991232 16:-0.861949 17:-0.991232 18:-1 19:-1 20:-1 21:-0.0625 22:-0.409483 23:-0.877057 24:-0.834924 25:-0.522388 26:-0.596774 27:-0.808383 28:-0.951878 29:-0.567989 30:-0.916886 31:-0.474206 32:-0.955204 33:-0.697479 34:-1 35:-0.733333 36:-1 37:-0.037037 38:-0.764706 39:-0.722772 40:-0.727891 41:-0.764706 42:-0.72093 43:-1 44:-0.277498 45:-0.175926 
2 1:-0.893551 2:-0.805272 3:-0.703422 4:-0.703422 5:-0.920695 6:0.815687 7:-0.885939 8:-0.967742 9:-0.967742 10:-1 11:-0.885939 12:-1 13:-0.893689 14:-0.680827 15:-1 16:-1 17:-1 18:-1 19:-1 20:-1 21:-0.5625 22:-0.340517 23:-0.925377 24:-0.935001 25:-0.462687 26:-0.783871 27:-0.736527 28:-0.939134 29:-0.648725 30:-0.946805 31:-0.292886 32:-0.959708 33:-0.764706 34:-1 35:-0.733333 36:-0.714286 37:-0.703704 38:-0.764706 39:-0.60396 40:-0.782313 41:-0.882353 42:-0.604651 43:-1 44:-0.0367183 45:-0.625 
-2 1:-0.890603 2:-0.834217 3:-0.992395 4:-0.992395 5:-0.922518 6:0.851273 7:-0.889626 8:-0.903226 9:-0.903226 10:-1 11:-0.889626 12:-1 13:-0.829827 14:-0.760551 15:-0.998771 16:-0.940747 17:-0.998771 18:-1 19:-1 20:-1 21:-0.6875 22:-0.814655 23:-0.960009 24:-0.957183 25:-0.880597 26:-0.912903 27:-0.784431 28:-0.952516 29:-0.838527 30:-0.969557 31:-0.419255 32:-0.969203 33:-0.579832 34:-1 35:-1 36:-1 37:-0.777778 38:-0.764706 39:-0.782178 40:-0.809524 41:-0.764706 42:-0.906977 43:-1 44:-0.129441 45:-0.75 
2 1:-0.909314 2:-0.830911 3:-0.969582 4:-0.969582 5:-0.929831 6:0.830651 7:-0.891156 8:-0.967742 9:-0.967742 10:-1 11:-0.891156 12:-1 13:-0.785889 14:-0.815041 15:-0.998716 16:-0.901427 17:-0.998716 18:-1 19:-1 20:-1 21:-0.5 22:-0.909483 23:-0.974949 24:-0.968532 25:-0.910448 26:-0.916129 27:-0.904192 28:-0.981935 29:-0.868272 30:-0.981481 31:-0.450988 32:-0.974924 33:-0.94958 34:-1 35:-0.666667 36:-1 37:-0.851852 38:-1 39:-0.960396 40:-0.959184 41:-1 42:-0.976744 43:-1 44:0.0206687 45:-0.921296 
-2 1:-0.893139 2:-0.822537 3:-0.498099 4:-0.498099 5:-0.924186 6:0.840976 7:-0.891253 8:-0.322581 9:-0.322581 10:-1 11:-0.891253 12:-1 13:-0.750349 14:-0.576003 15:-0.998771 16:-0.980831 17:-0.998771 18:-1 19:-1 20:-1 21:0.0625 22:-0.711207 23:-0.875925 24:-0.846789 25:-0.671642 26:-0.758065 27:-0.724551 28:-0.956123 29:-0.454674 30:-0.907299 31:-0.488805 32:-0.942422 33:-0.00840336 34:-1 35:-0.933333 36:-1 37:-0.333333 38:-1 39:-0.60396 40:-0.823129 41:-1 42:-0.837209 43:-1 44:-0.0057735 45:-0.481481 
2 1:-0.889039 2:-0.841012 3:-1 4:-1 5:-0.925247 6:0.86732 7:-0.889425 8:-0.967742 9:-0.967742 10:-1 11:-0.889425 12:-1 13:-0.525589 14:-0.653928 15:-1 16:-1 17:-1 18:-1 19:-1 20:-1 21:-0.625 22:-0.862069 23:-0.918878 24:-0.855558 25:-0.58209 26:-0.796774 27:-0.676647 28:-0.923842 29:-0.685552 30:-0.937706 31:-0.523543 32:-0.94717 33:-0.613445 34:-1 35:-1 36:-1 37:-0.555556 38:-1 39:-0.386139 40:-0.673469 41:-0.882353 42:-0.883721 43:-1 44:-0.270468 45:-0.541667 
-2 1:-0.933825 2:-0.873838 3:-0.901141 4:-0.901141 5:-0.969101 6:0.924066 7:-0.928828 8:-1 9:-1 10:-1 11:-0.928828 12:-1 13:-0.852163 14:-0.847698 15:-0.998548 16:-0.819592 17:-0.998548 18:-1 19:-1 20:-1 21:-0.75 22:-0.905172 23:-0.984611 24:-0.987103 25:-0.940299 26:-0.948387 27:-0.928144 28:-0.976667 29:-0.898017 30:-0.987217 31:-0.251468 32:-0.974315 33:-0.89916 34:-1 35:-1 36:-1 37:-1 38:-1 39:-1 40:-0.931973 41:-1 42:-0.930233 43:-1 44:0.114286 45:-0.916667 
2 1:-0.934091 2:-0.899484 3:-0.969582 4:-0.969582 5:-0.959728 6:0.921678 7:-0.934683 8:-0.967742 9:-0.967742 10:-1 11:-0.934683 12:-1 13:-0.746158 14:-0.839672 15:-0.998492 16:-0.823985 17:-0.998492 18:-1 19:-1 20:-1 21:-0.625 22:-0.918103 23:-0.983606 24:-0.97885 25:-1 26:-0.922581 27:-0.856287 28:-0.983923 29:-0.907932 30:-0.985905 31:-0.356061 32:-0.983445 33:-0.89916 34:-1 35:-1 36:-1 37:-0.925926 38:-0.647059 39:-0.920792 40:-1 41:-0.647059 42:-0.883721 43:-1 44:-0.304762 45:-0.902778 
-2 1:-0.910598 2:-0.863586 3:-0.787072 4:-0.787072 5:-0.946547 6:0.90207 7:-0.913922 8:-0.354839 9:-0.354839 10:-1 11:-0.913922 12:-1 13:-0.643717 14:-0.575836 15:-0.999665 16:-0.994404 17:-0.999665 18:-1 19:-1 20:-1 21:-0.4375 22:-0.642241 23:-0.884093 24:-0.884963 25:-0.820896 26:-0.767742 27:-0.60479 28:-0.921714 29:-0.456091 30:-0.907227 31:-0.416512 32:-0.939257 33:-0.176471 34:-1 35:-0.866667 36:-0.714286 37:-0.777778 38:-0.882353 39:-0.465347 40:-0.714286 41:-0.882353 42:-0.627907 43:-1 44:-0.0898701 45:-0.421296 
-2 1:-0.931365 2:-0.860955 3:-0.984791 4:-0.984791 5:-0.955613 6:0.88043 7:-0.924192 8:-0.935484 9:-0.935484 10:-1 11:-0.924192 12:-1 13:-0.720503 14:-0.938105 15:-1 16:-1 17:-1 18:-1 19:-1 20:-1 21:-0.9375 22:-1 23:-0.997087 24:-0.996905 25:-1 26:-0.993548 27:-1 28:-0.998628 29:-0.98017 30:-0.997579 31:-0.595238 32:-0.993061 33:-0.966387 34:-1 35:-1 36:-1 37:-1 38:-1 39:-0.980198 40:-1 41:-1 42:-1 43:-1 44:-0.0266667 45:-0.990741 
2 1:-0.899045 2:-0.815952 3:-0.589354 4:-0.589354 5:-0.932305 6:0.845329 7:-0.903937 8:-0.967742 9:-0.967742 10:-1 11:-0.903937 12:-1 13:-0.754887 14:-0.764561 15:-0.998213 16:-0.913202 17:-0.998213 18:-1 19:-1 20:-1 21:-0.125 22:-0.87069 23:-0.960292 24:-0.944803 25:-0.940299 26:-0.893548 27:-0.964072 28:-0.983539 29:-0.803116 30:-0.970535 31:-0.501276 32:-0.97675 33:-0.848739 34:-1 35:-0.933333 36:-1 37:-0.851852 38:-1 39:-0.920792 40:-0.972789 41:-1 42:-0.860465 43:-1 44:-0.106122 45:-0.824074 
-2 1:-0.870797 2:-0.806327 3:-0.961977 4:-0.961977 5:-0.897515 6:0.798419 7:-0.865883 8:-1 9:-1 10:-1 11:-0.865883 12:-1 13:-0.439567 14:-0.895059 15:-0.999944 16:-0.987696 17:-0.999944 18:-1 19:-1 20:-1 21:-0.6875 22:-0.982759 23:-0.991416 24:-0.992778 25:-1 26:-0.993548 27:-0.976048 28:-0.990649 29:-0.970255 30:-0.993656 31:-0.448052 32:-0.983323 33:-0.983193 34:-1 35:-1 36:-1 37:-1 38:-1 39:-0.940594 40:-0.931973 41:-1 42:-1 43:-1 44:-0.336364 45:-0.953704 
2 1:-0.910925 2:-0.826305 3:-0.8327 4:-0.8327 5:-0.936162 6:0.84009 7:-0.901521 8:-0.903226 9:-0.903226 10:-1 11:-0.901521 12:-1 13:-0.831124 14:-0.735702 15:-0.999888 16:-0.995663 17:-0.999888 18:-1 19:-1 20:-1 21:-0.5625 22:-0.771552 23:-0.950277 24:-0.934485 25:-0.462687 26:-0.829032 27:-0.94012 28:-0.958631 29:-0.71813 30:-0.963141 31:-0.514286 32:-0.978332 33:-0.747899 34:-1 35:-0.8 36:-1 37:-0.777778 38:-1 39:-0.762376 40:-0.85034 41:-1 42:-0.860465 43:-1 44:-0.155286 45:-0.805556 
-2 1:-0.888868 2:-0.853388 3:-0.574144 4:-0.574144 5:-0.911427 6:0.840351 7:-0.894553 8:-0.645161 9:-0.645161 10:-1 11:-0.894553 12:-1 13:-0.786157 14:-0.762499 15:-1 16:-1 17:-1 18:-1 19:-1 20:-1 21:-0.625 22:-0.875 23:-0.962639 24:-0.97008 25:-0.970149 26:-0.945161 27:-0.928144 28:-0.963404 29:-0.858357 30:-0.970034 31:-0.519095 32:-0.951917 33:-0.89916 34:-1 35:-1 36:-1 37:-1 38:-1 39:-0.960396 40:-0.931973 41:-1 42:-0.953488 43:-1 44:0.259689 45:-0.828704 
2 1:-0.901988 2:-0.843911 3:-0.961977 4:-0.961977 5:-0.938644 6:0.880895 7:-0.90927 8:-0.967742 9:-0.967742 10:-1 11:-0.90927 12:-1 13:-0.535954 14:-0.920218 15:-1 16:-1 17:-1 18:-1 19:-1 20:-1 21:-0.875 22:-0.978448 23:-0.995246 24:-0.995357 25:-0.970149 26:-0.987097 27:-0.988024 28:-0.997433 29:-0.978754 30:-0.996172 31:-0.0513393 32:-0.986975 33:-0.915966 34:-1 35:-1 36:-1 37:-1 38:-1 39:-1 40:-0.972789 41:-1 42:-1 43:-1 44:0.0428571 45:-0.976852 
-2 1:-0.893774 2:-0.851413 3:-0.870722 4:-0.870722 5:-0.930997 6:0.882429 7:-0.905926 8:-0.419355 9:-0.419355 10:-1 11:-0.905926 12:-1 13:-0.476663 14:-0.769039 15:-0.998604 16:-0.92422 17:-0.998604 18:-1 19:-1 20:-1 21:-0.5625 22:-0.965517 23:-0.964491 24:-0.974207 25:-1 26:-0.958065 27:-0.94012 28:-0.970548 29:-0.856941 30:-0.971608 31:-0.404762 32:-0.969203 33:-0.831933 34:-1 35:-1 36:-1 37:-0.925926 38:-1 39:-0.920792 40:-0.877551 41:-1 42:-0.953488 43:-1 44:0.226891 45:-0.893519 
2 1:-0.896368 2:-0.842806 3:-0.802281 4:-0.802281 5:-0.932189 6:0.873486 7:-0.900573 8:-0.645161 9:-0.645161 10:-1 11:-0.900573 12:-1 13:-0.664078 14:-0.662302 15:-1 16:-1 17:-1 18:-1 19:-1 20:-1 21:-0.3125 22:-0.642241 23:-0.923004 24:-0.880836 25:-0.343284 26:-0.664516 27:-0.844311 28:-0.958659 29:-0.675637 30:-0.940616 31:-0.498447 32:-0.947535 33:-0.327731 34:-1 35:-0.933333 36:-0.714286 37:0.111111 38:-0.882353 39:-0.861386 40:-0.836735 41:-0.882353 42:-0.72093 43:-1 44:-0.165714 45:-0.550926 
-2 1:-0.915088 2:-0.854353 3:-1 4:-1 5:-0.955634 6:0.909631 7:-0.918115 8:-1 9:-1 10:-1 11:-0.918115 12:-1 13:-0.801155 14:-0.898942 15:-0.999442 16:-0.857551 17:-0.999442 18:-1 19:-1 20:-1 21:-0.75 22:-0.952586 23:-0.992616 24:-0.990714 25:-0.940299 26:-0.980645 27:-1 28:-0.989571 29:-0.961756 30:-0.994085 31:-0.34949 32:-0.988558 33:-0.932773 34:-1 35:-1 36:-1 37:-0.851852 38:-1 39:-0.980198 40:-0.986395 41:-1 42:-1 43:-1 44:-0.255102 45:-0.925926 
-2 1:-0.893935 2:-0.865042 3:-0.931559 4:-0.931559 5:-0.92784 6:0.88476 7:-0.890568 8:-0.806452 9:-0.806452 10:-1 11:-0.890568 12:-1 13:-0.719366 14:-0.662407 15:-0.998771 16:-0.967045 17:-0.998771 18:-1 19:-1 20:-1 21:-0.25 22:-0.551724 23:-0.927922 24:-0.912303 25:-0.820896 26:-0.829032 27:-0.736527 28:-0.963997 29:-0.71813 30:-0.940652 31:-0.3625 32:-0.934023 33:-0.848739 34:-1 35:-0.866667 36:-1 37:-1 38:-0.764706 39:-0.782178 40:-0.605442 41:-0.764706 42:-0.627907 43:-1 44:0.0428571 45:-0.615741 
2 1:-0.927376 2:-0.853604 3:-1 4:-1 5:-0.910413 6:0.759819 7:-0.901281 8:-1 9:-1 10:-1 11:-0.901281 12:-1 13:-0.278987 14:-0.976711 15:-1 16:-1 17:-1 18:-1 19:-1 20:-1 21:-0.9375 22:-1 23:-0.999556 24:-0.999484 25:-1 26:-1 27:-1 28:-0.998466 29:-0.997167 30:-0.999535 31:-1 32:-0.997809 33:-1 34:-1 35:-1 36:-1 37:-1 38:-1 39:-1 40:-0.986395 41:-1 42:-1 43:-1 44:-0.304762 45:-1 
-2 1:-0.883799 2:-0.8463 3:-0.977186 4:-0.977186 5:-0.918454 6:0.863201 7:-0.893258 8:-0.967742 9:-0.967742 10:-1 11:-0.893258 12:-1 13:-0.456041 14:-0.93428 15:-1 16:-1 17:-1 18:-1 19:-1 20:-1 21:-1 22:-0.99569 23:-0.996708 24:-0.994326 25:-1 26:-0.993548 27:-0.976048 28:-1 29:-0.988669 30:-0.997305 31:-0.662698 32:-0.989775 33:-1 34:-1 35:-1 36:-1 37:-0.925926 38:-1 39:-0.980198 40:-0.972789 41:-1 42:-1 43:-1 44:-0.304762 45:-0.976852 
2 1:-0.925562 2:-0.85775 3:-0.847909 4:-0.847909 5:-0.955575 6:0.890348 7:-0.918621 8:-0.806452 9:-0.806452 10:-1 11:-0.918621 12:-1 13:-0.759588 14:-0.752486 15:-0.998883 16:-0.948058 17:-0.998883 18:-1 19:-1 20:-1 21:-0.5 22:-0.741379 23:-0.958519 24:-0.966469 25:-0.641791 26:-0.867742 27:-0.916168 28:-0.970024 29:-0.746459 30:-0.967542 31:-0.392857 32:-0.971272 33:-0.798319 34:-1 35:-1 36:-0.714286 37:-0.777778 38:-0.764706 39:-0.683168 40:-0.768707 41:-0.764706 42:-0.837209 43:-1 44:-0.154127 45:-0.685185 
-2 1:-0.90399 2:-0.849756 3:-0.91635 4:-0.91635 5:-0.932538 6:0.86537 7:-0.905739 8:-0.935484 9:-0.935484 10:-1 11:-0.905739 12:-1 13:-0.724401 14:-0.788131 15:-0.998213 16:-0.887813 17:-0.998213 18:-1 19:-1 20:-1 21:-0.625 22:-0.762931 23:-0.969328 24:-0.959247 25:-0.761194 26:-0.890323 27:-0.868263 28:-0.971002 29:-0.86119 30:-0.97596 31:-0.540043 32:-0.976506 33:-0.747899 34:-1 35:-0.933333 36:-0.714286 37:-0.62963 38:-0.764706 39:-0.821782 40:-0.768707 41:-0.764706 42:-0.813953 43:-1 44:-0.136219 45:-0.703704 
-2 1:-0.874521 2:-0.785499 3:-0.931559 4:-0.931559 5:-0.908522 6:0.803733 7:-0.866322 8:-1 9:-1 10:-1 11:-0.866322 12:-1 13:-0.897925 14:-0.879764 15:-0.999944 16:-0.990737 17:-0.999944 18:-1 19:-1 20:-1 21:-0.875 22:-0.926724 23:-0.988526 24:-0.989683 25:-0.910448 26:-0.941935 27:-0.988024 28:-0.996521 29:-0.954674 30:-0.99182 31:-0.724026 32:-0.98661 33:-0.915966 34:-1 35:-0.933333 36:-1 37:-0.62963 38:-1 39:-0.960396 40:-0.945578 41:-1 42:-0.953488 43:-1 44:-0.241558 45:-0.953704 
2 1:-0.876853 2:-0.837655 3:-1 4:-1 5:-0.905885 6:0.835192 7:-0.872338 8:-1 9:-1 10:-1 11:-0.872338 12:-1 13:-0.798779 14:-0.861858 15:-0.999888 16:-0.984349 17:-0.999888 18:-1 19:-1 20:-1 21:-0.5625 22:-0.974138 23:-0.986379 24:-0.988651 25:-1 26:-0.980645 27:-0.916168 28:-0.988388 29:-0.953258 30:-0.989375 31:-0.464286 32:-0.976872 33:-0.966387 34:-1 35:-1 36:-1 37:-1 38:-1 39:-0.861386 40:-0.931973 41:-1 42:-0.883721 43:-1 44:-0.263866 45:-0.944444 
0.7916085201055146 1:-0.876175 2:-0.793243 3:-0.695817 4:-0.695817 5:-0.90005 6:0.784068 7:-0.861326 8:-1 9:-1 10:-1 11:-0.861326 12:-1 13:-0.940969 14:-0.472831 15:-0.999609 16:-0.996225 17:-0.999609 18:-1 19:-1 20:-1 21:1 22:0.74569 23:-0.799391 24:-0.703895 25:0.134328 26:-0.264516 27:-0.221557 28:-0.961861 29:-0.209632 30:-0.857777 31:-0.440647 32:-0.937918 33:-0.327731 34:-1 35:-0.266667 36:-0.714286 37:0.185185 38:-0.529412 39:-0.227723 40:-0.428571 41:-0.529412 42:-0.348837 43:-1 44:-0.0746742 45:-0.0509259 
-2 1:-0.885957 2:-0.838532 3:-0.885932 4:-0.885932 5:-0.924692 6:0.869661 7:-0.895315 8:-0.967742 9:-0.967742 10:-1 11:-0.895315 12:-1 13:-0.849744 14:-0.775659 15:-0.999553 16:-0.97521 17:-0.999553 18:-1 19:-1 20:-1 21:-0.3125 22:-0.827586 23:-0.96527 24:-0.960279 25:-0.880597 26:-0.877419 27:-0.844311 28:-0.981368 29:-0.868272 30:-0.973158 31:-0.450988 32:-0.971272 33:-0.865546 34:-1 35:-1 36:-1 37:-0.555556 38:-0.882353 39:-0.841584 40:-0.85034 41:-0.882353 42:-0.906977 43:-1 44:-0.112462 45:-0.796296 
-2 1:-0.904192 2:-0.848922 3:-0.885932 4:-0.885932 5:-0.922906 6:0.838154 7:-0.894003 8:-1 9:-1 10:-1 11:-0.894003 12:-1 13:-0.773662 14:-0.641298 15:-0.991735 16:-0.814654 17:-0.991735 18:-1 19:-1 20:-1 21:-0.4375 22:-0.603448 23:-0.913742 24:-0.90147 25:-0.731343 26:-0.848387 27:-0.712575 28:-0.945796 29:-0.609065 30:-0.933187 31:-0.309567 32:-0.947292 33:-0.781513 34:-1 35:-0.933333 36:-0.142857 37:-0.703704 38:-0.882353 39:-0.544554 40:-0.70068 41:-0.882353 42:-0.790698 43:-1 44:-0.0663228 45:-0.578704 
-2 1:-0.946981 2:-0.915268 3:-1 4:-1 5:-0.962725 6:0.917078 7:-0.939044 8:-0.83871 9:-0.83871 10:-1 11:-0.939044 12:-1 13:-0.726983 14:-0.769391 15:-0.99866 16:-0.918177 17:-0.99866 18:-1 19:-1 20:-1 21:-0.5 22:-0.905172 23:-0.968453 24:-0.965437 25:-0.940299 26:-0.922581 27:-0.94012 28:-0.97811 29:-0.793201 30:-0.971691 31:-0.421769 32:-0.969446 33:-0.781513 34:-1 35:-0.8 36:-1 37:-0.851852 38:-0.882353 39:-0.861386 40:-0.945578 41:-0.882353 42:-0.930233 43:-1 44:-0.248008 45:-0.810185 
2 1:-0.927965 2:-0.880602 3:-0.977186 4:-0.977186 5:-0.955233 6:0.90533 7:-0.934172 8:-0.967742 9:-0.967742 10:-1 11:-0.934172 12:-1 13:-0.451761 14:-0.902286 15:-1 16:-1 17:-1 18:-1 19:-1 20:-1 21:-0.8125 22:-0.991379 23:-0.993397 24:-0.986072 25:-1 26:-0.987097 27:-0.976048 28:-0.994489 29:-0.963173 30:-0.994443 31:-0.550265 32:-0.990383 33:-0.983193 34:-1 35:-0.866667 36:-1 37:-1 38:-0.882353 39:-0.920792 40:-0.986395 41:-0.882353 42:-0.976744 43:-1 44:-0.227513 45:-0.990741 
-2 1:-0.894276 2:-0.859787 3:-0.779468 4:-0.779468 5:-0.916862 6:0.850053 7:-0.892498 8:-0.354839 9:-0.354839 10:-1 11:-0.892498 12:-1 13:-0.744009 14:-0.651427 15:-0.995811 16:-0.896709 17:-0.995811 18:-1 19:-1 20:-1 21:-0.4375 22:-0.762931 23:-0.921584 24:-0.911272 25:-0.731343 26:-0.832258 27:-0.94012 28:-0.94855 29:-0.691218 30:-0.936824 31:-0.403947 32:-0.950578 33:-0.310924 34:-1 35:-1 36:-1 37:-0.703704 38:-1 39:-0.425743 40:-0.85034 41:-1 42:-0.697674 43:-1 44:-0.12381 45:-0.421296 
-2 1:-0.897021 2:-0.8316 3:-1 4:-1 5:-0.940019 6:0.883944 7:-0.91485 8:-0.903226 9:-0.903226 10:-1 11:-0.91485 12:-1 13:-0.89519 14:-0.822974 15:-0.999944 16:-0.995245 17:-0.999944 18:-1 19:-1 20:-1 21:-0.625 22:-0.814655 23:-0.977444 24:-0.974207 25:-0.820896 26:-0.958065 27:-0.952096 28:-0.981569 29:-0.90085 30:-0.982972 31:-0.486922 32:-0.978454 33:-0.781513 34:-1 35:-0.933333 36:-1 37:-1 38:-0.882353 39:-0.90099 40:-0.945578 41:-0.882353 42:-0.837209 43:-1 44:-0.148089 45:-0.856481 
2 1:-0.911775 2:-0.883111 3:-1 4:-1 5:-0.939359 6:0.896757 7:-0.909763 8:-1 9:-1 10:-1 11:-0.909763 12:-1 13:-0.711246 14:-0.823623 15:-0.998827 16:-0.888464 17:-0.998827 18:-1 19:-1 20:-1 21:-0.625 22:-0.887931 23:-0.979828 24:-0.97627 25:-1 26:-0.96129 27:-0.856287 28:-0.981195 29:-0.910765 30:-0.983091 31:-0.383371 32:-0.975776 33:-0.94958 34:-1 35:-0.933333 36:-1 37:-0.925926 38:-0.647059 39:-0.821782 40:-0.877551 41:-0.647059 42:-0.744186 43:-1 44:-0.120089 45:-0.805556 
0.07612389747865225 1:-0.893886 2:-0.815651 3:-0.680608 4:-0.680608 5:-0.932903 6:0.857186 7:-0.908153 8:-0.870968 9:-0.870968 10:-1 11:-0.908153 12:-1 13:-0.753188 14:-0.754845 15:-0.999442 16:-0.975115 17:-0.999442 18:-1 19:-1 20:-1 21:-0.5 22:-0.844828 23:-0.956699 24:-0.939128 25:-0.820896 26:-0.916129 27:-0.676647 28:-0.967897 29:-0.803116 30:-0.968138 31:-0.34949 32:-0.967864 33:-0.882353 34:-1 35:-0.733333 36:-0.714286 37:-0.777778 38:-0.764706 39:-0.861386 40:-0.70068 41:-1 42:-0.883721 43:-1 44:0.102449 45:-0.791667 
-2 1:-0.907783 2:-0.840918 3:-0.923954 4:-0.923954 5:-0.932934 6:0.851197 7:-0.903769 8:-1 9:-1 10:-1 11:-0.903769 12:-1 13:-0.841251 14:-0.72426 15:-0.992963 16:-0.740707 17:-0.992963 18:-1 19:-1 20:-1 21:-0.6875 22:-0.836207 23:-0.947593 24:-0.927263 25:-0.970149 26:-0.903226 27:-0.976048 28:-0.935762 29:-0.740793 30:-0.959981 31:-0.57104 32:-0.968837 33:-0.630252 34:-1 35:-1 36:-1 37:-0.851852 38:-1 39:-0.683168 40:-0.931973 41:-1 42:-0.953488 43:-1 44:-0.217857 45:-0.523148 
2 1:-0.896197 2:-0.825153 3:-0.741445 4:-0.741445 5:-0.9277 6:0.846665 7:-0.896234 8:-0.709677 9:-0.709677 10:-1 11:-0.896234 12:-1 13:-0.852311 14:-0.560783 15:-0.990729 16:-0.865444 17:-0.990729 18:-1 19:-1 20:-1 21:-0.4375 22:-0.357759 23:-0.866614 24:-0.853495 25:-0.492537 26:-0.745161 27:-0.700599 28:-0.911531 29:-0.399433 30:-0.900657 31:-0.285714 32:-0.937553 33:-0.647059 34:-1 35:-0.933333 36:-1 37:-0.777778 38:-0.882353 39:-0.70297 40:-0.823129 41:-0.882353 42:-0.72093 43:-1 44:-0.0724706 45:-0.291667 
2 1:-0.868212 2:-0.827656 3:-0.695817 4:-0.695817 5:-0.904145 6:0.838579 7:-0.869964 8:-0.870968 9:-0.870968 10:-1 11:-0.869964 12:-1 13:-0.855828 14:-0.611402 15:-0.997096 16:-0.945432 17:-0.997096 18:-1 19:-1 20:-1 21:-0.375 22:-0.517241 23:-0.897018 24:-0.880836 25:-0.164179 26:-0.748387 27:-0.652695 28:-0.940314 29:-0.66289 30:-0.921859 31:-0.441124 32:-0.950578 33:-0.361345 34:-1 35:-0.733333 36:-1 37:-0.703704 38:-0.882353 39:-0.465347 40:-0.755102 41:-0.882353 42:-0.44186 43:-1 44:-0.0662283 45:-0.310185 
2 1:-0.939513 2:-0.889225 3:-0.307985 4:-0.307985 5:-0.955749 6:0.889988 7:-0.938495 8:-0.516129 9:-0.516129 10:-1 11:-0.938495 12:-1 13:-0.584392 14:-0.5873 15:-0.984698 16:-0.721723 17:-0.984698 18:-1 19:-1 20:-1 21:-0.3125 22:-0.577586 23:-0.893586 24:-0.888574 25:-0.731343 26:-0.883871 27:-0.712575 28:-0.942011 29:-0.305949 30:-0.912081 31:-0.406459 32:-0.941449 33:-0.428571 34:-1 35:-0.733333 36:-1 37:-1 38:-0.764706 39:-0.683168 40:-0.836735 41:-0.882353 42:-0.883721 43:-1 44:0.108699 45:-0.523148 
2 1:-0.834943 2:-0.692649 3:-0.954373 4:-0.954373 5:-0.916301 6:0.8239 7:-0.87816 8:-0.967742 9:-0.967742 10:-1 11:-0.87816 12:-1 13:-0.584584 14:-0.945308 15:-1 16:-1 17:-1 18:-1 19:-1 20:-1 21:-1 22:-0.99569 23:-0.996962 24:-0.995357 25:-1 26:-0.990323 27:-1 28:-1 29:-0.990085 30:-0.998056 31:-0.241071 32:-0.99367 33:-0.94958 34:-1 35:-1 36:-1 37:-1 38:-1 39:-1 40:-1 41:-1 42:-1 43:-1 44:-0.217857 45:-0.986111 
-2 1:-0.90081 2:-0.854534 3:-0.992395 4:-0.992395 5:-0.934676 6:0.881428 7:-0.900336 8:-1 9:-1 10:-1 11:-0.900336 12:-1 13:-0.187187 14:-0.952363 15:-1 16:-1 17:-1 18:-1 19:-1 20:-1 21:-0.9375 22:-1 23:-0.99826 24:-0.997421 25:-1 26:-1 27:-0.988024 28:-0.997934 29:-0.992918 30:-0.998474 31:-0.494048 32:-0.996105 33:-1 34:-1 35:-1 36:-1 37:-1 38:-1 39:-0.960396 40:-1 41:-1 42:-1 43:-1 44:-0.652381 45:-1 
-2 1:-0.915837 2:-0.874881 3:-0.885932 4:-0.885932 5:-0.943305 6:0.892553 7:-0.917668 8:-0.580645 9:-0.580645 10:-1 11:-0.917668 12:-1 13:-0.688456 14:-0.702146 15:-0.997096 16:-0.901118 17:-0.997096 18:-1 19:-1 20:-1 21:-0.4375 22:-0.586207 23:-0.943267 24:-0.909724 25:-0.820896 26:-0.9 27:-0.988024 28:-0.962775 29:-0.726629 30:-0.953506 31:-0.514912 32:-0.965794 33:-0.344538 34:-1 35:-0.933333 36:-1 37:-0.851852 38:-1 39:-0.762376 40:-0.741497 41:-1 42:-0.883721 43:-1 44:-0.301178 45:-0.625 
-2 1:-0.915857 2:-0.8551 3:-1 4:-1 5:-0.929621 6:0.838203 7:-0.919242 8:-0.967742 9:-0.967742 10:-1 11:-0.919242 12:-1 13:-0.531315 14:-0.934118 15:-1 16:-1 17:-1 18:-1 19:-1 20:-1 21:-0.9375 22:-0.99569 23:-0.996653 24:-0.995357 25:-1 26:-0.996774 27:-1 28:-0.995593 29:-0.983003 30:-0.997293 31:-0.299451 32:-0.994766 33:-1 34:-1 35:-1 36:-1 37:-1 38:-1 39:-0.960396 40:-0.931973 41:-1 42:-1 43:-1 44:0.283516 45:-0.972222 
2 1:-0.833115 2:-0.710565 3:-0.528517 4:-0.528517 5:-0.872815 6:0.72456 7:-0.87389 8:-0.83871 9:-0.83871 10:-1 11:-0.87389 12:-1 13:-0.808846 14:-0.615512 15:-0.996761 16:-0.94936 17:-0.996761 18:-1 19:-1 20:-1 21:-0.1875 22:-0.50431 23:-0.876182 24:-0.88032 25:-0.58209 26:-0.658065 27:-0.688623 28:-0.942196 29:-0.611898 30:-0.923469 31:-0.448052 32:-0.932928 33:-0.630252 34:-1 35:-0.4 36:-0.714286 37:-0.037037 38:-0.647059 39:-0.742574 40:-0.795918 41:-0.882353 42:-0.627907 43:-1 44:0.145247 45:-0.486111 
2 1:-0.865858 2:-0.831209 3:-0.551331 4:-0.551331 5:-0.90431 6:0.846267 7:-0.875404 8:-0.774194 9:-0.774194 10:-1 11:-0.875404 12:-1 13:-0.608 14:-0.617014 15:-0.995365 16:-0.90869 17:-0.995365 18:-1 19:-1 20:-1 21:-0.0625 22:-0.521552 23:-0.901778 24:-0.893216 25:-0.731343 26:-0.796774 27:-0.664671 28:-0.961451 29:-0.684136 30:-0.924053 31:-0.444356 32:-0.917833 33:-0.613445 34:-1 35:-1 36:-1 37:-0.851852 38:-1 39:-0.683168 40:-0.85034 41:-1 42:-0.651163 43:-1 44:0.080102 45:-0.481481 
-2 1:-0.895371 2:-0.835094 3:-0.422053 4:-0.422053 5:-0.922881 6:0.84371 7:-0.89549 8:0.16129 9:0.16129 10:-1 11:-0.89549 12:-1 13:-0.595924 14:-0.556479 15:-0.994471 16:-0.918973 17:-0.994471 18:-1 19:-1 20:-1 21:-0.25 22:-0.668103 23:-0.867899 24:-0.845757 25:-0.731343 26:-0.687097 27:-0.844311 28:-0.934481 29:-0.429178 30:-0.898737 31:-0.534123 32:-0.929032 33:-0.092437 34:-1 35:-1 36:-1 37:0.037037 38:-1 39:-0.544554 40:-0.741497 41:-1 42:-0.860465 43:-1 44:0.00155587 45:-0.578704 
-2 1:-0.92117 2:-0.878911 3:-0.977186 4:-0.977186 5:-0.965502 6:0.945545 7:-0.924169 8:-1 9:-1 10:-1 11:-0.924169 12:-1 13:-0.463308 14:-0.895059 15:-1 16:-1 17:-1 18:-1 19:-1 20:-1 21:-0.75 22:-0.952586 23:-0.992509 24:-0.987619 25:-1 26:-0.980645 27:-0.976048 28:-0.989042 29:-0.961756 30:-0.993656 31:-0.34949 32:-0.983567 33:-0.94958 34:-1 35:-0.933333 36:-1 37:-1 38:-1 39:-0.960396 40:-0.931973 41:-1 42:-0.976744 43:-1 44:-0.106122 45:-0.907407 
2 1:-0.980425 2:-0.951622 3:-1 4:-1 5:-0.967086 6:0.884913 7:-0.993563 8:-1 9:-1 10:-1 11:-0.993563 12:-1 13:-0.399156 14:-0.986562 15:-1 16:-1 17:-1 18:-1 19:-1 20:-1 21:-1 22:-1 23:-0.999953 24:-1 25:-1 26:-1 27:-1 28:-1 29:-0.998584 30:-0.999797 31:-1 32:-1 33:-1 34:-1 35:-1 36:-1 37:-1 38:-1 39:-1 40:-1 41:-1 42:-1 43:-1 44:0.0428571 45:-1 
-2 1:-0.910304 2:-0.842967 3:-0.984791 4:-0.984791 5:-0.940296 6:0.867798 7:-0.907673 8:-0.83871 9:-0.83871 10:-1 11:-0.907673 12:-1 13:-0.804707 14:-0.760309 15:-0.995867 16:-0.79928 17:-0.995867 18:-1 19:-1 20:-1 21:-0.3125 22:-0.728448 23:-0.960292 24:-0.959763 25:-0.552239 26:-0.874194 27:-0.928144 28:-0.979746 29:-0.79745 30:-0.969497 31:-0.641617 32:-0.972368 33:-0.865546 34:-1 35:-0.933333 36:-1 37:-0.925926 38:-0.882353 39:-0.683168 40:-0.863946 41:-1 42:-0.767442 43:-1 44:-0.319246 45:-0.453704 
-2 1:-0.932275 2:-0.877127 3:-0.954373 4:-0.954373 5:-0.965133 6:0.919851 7:-0.94081 8:-1 9:-1 10:-1 11:-0.94081 12:-1 13:-0.785188 14:-0.813555 15:-0.999944 16:-0.995359 17:-0.999944 18:-1 19:-1 20:-1 21:-0.6875 22:-0.87931 23:-0.976884 24:-0.968532 25:-0.970149 26:-0.903226 27:-0.928144 28:-0.972358 29:-0.858357 30:-0.981195 31:-0.428925 32:-0.978576 33:-0.865546 34:-1 35:-0.933333 36:-1 37:-0.62963 38:-1 39:-0.920792 40:-0.823129 41:-1 42:-0.860465 43:-1 44:-0.173975 45:-0.782407 
2 1:-0.974403 2:-0.946572 3:-0.870722 4:-0.870722 5:-0.965228 6:0.89126 7:-0.942619 8:-1 9:-1 10:-1 11:-0.942619 12:-1 13:-0.589563 14:-0.876991 15:-0.998995 16:-0.786046 17:-0.998995 18:-1 19:-1 20:-1 21:-0.6875 22:-0.982759 23:-0.991107 24:-0.995357 25:-0.850746 26:-0.977419 27:-0.988024 28:-0.990152 29:-0.913598 30:-0.991462 31:-0.657258 32:-0.986366 33:-0.966387 34:-1 35:-1 36:-1 37:-1 38:-1 39:-0.940594 40:-0.972789 41:-1 42:-1 43:-1 44:-0.125346 45:-0.949074 
0.2876203071024105 1:-0.909551 2:-0.812274 3:-1 4:-1 5:-0.937184 6:0.832381 7:-0.920348 8:-1 9:-1 10:-1 11:-0.920348 12:-1 13:-0.480626 14:-0.982544 15:-1 16:-1 17:-1 18:-1 19:-1 20:-1 21:-1 22:-1 23:-0.999759 24:-1 25:-1 26:-1 27:-1 28:-1 29:-0.998584 30:-0.999702 31:-1 32:-0.998174 33:-1 34:-1 35:-1 36:-1 37:-1 38:-1 39:-1 40:-1 41:-1 42:-1 43:-1 44:-1 45:-1 
2 1:-0.923417 2:-0.879268 3:-0.984791 4:-0.984791 5:-0.95815 6:0.92139 7:-0.921879 8:-0.806452 9:-0.806452 10:-1 11:-0.921879 12:-1 13:-0.674189 14:-0.790214 15:-1 16:-1 17:-1 18:-1 19:-1 20:-1 21:-0.6875 22:-0.883621 23:-0.971891 24:-0.972659 25:-0.940299 26:-0.93871 27:-0.964072 28:-0.968913 29:-0.849858 30:-0.976413 31:-0.319092 32:-0.977602 33:-0.697479 34:-1 35:-1 36:-1 37:-0.703704 38:-1 39:-0.980198 40:-0.891156 41:-1 42:-1 43:-1 44:-0.12283 45:-0.680556 
-2 1:-0.917607 2:-0.851757 3:-0.984791 4:-0.984791 5:-0.947895 6:0.881088 7:-0.912983 8:-1 9:-1 10:-1 11:-0.912983 12:-1 13:-0.533666 14:-0.908107 15:-1 16:-1 17:-1 18:-1 19:-1 20:-1 21:-0.9375 22:-1 23:-0.993735 24:-0.996905 25:-1 26:-1 27:-0.976048 28:-0.997498 29:-0.966006 30:-0.995039 31:-0.392857 32:-0.990749 33:-0.865546 34:-1 35:-1 36:-1 37:-1 38:-1 39:-0.960396 40:-0.986395 41:-1 42:-1 43:-1 44:-0.249143 45:-0.967593 
2 1:-0.900047 2:-0.837045 3:-0.992395 4:-0.992395 5:-0.925251 6:0.84257 7:-0.886757 8:-0.935484 9:-0.935484 10:-1 11:-0.886757 12:-1 13:-0.810332 14:-0.769441 15:-0.998157 16:-0.904277 17:-0.998157 18:-1 19:-1 20:-1 21:-0.75 22:-0.801724 23:-0.962883 24:-0.960279 25:-0.61194 26:-0.932258 27:-0.892216 28:-0.945271 29:-0.832861 30:-0.971703 31:-0.413265 32:-0.97115 33:-0.882353 34:-1 35:-0.933333 36:-1 37:-1 38:-1 39:-0.742574 40:-0.768707 41:-1 42:-0.976744 43:-1 44:-0.158703 45:-0.583333 
2 1:-0.902518 2:-0.854066 3:-0.885932 4:-0.885932 5:-0.934603 6:0.877509 7:-0.901149 8:-0.935484 9:-0.935484 10:-1 11:-0.901149 12:-1 13:-0.712139 14:-0.83167 15:-0.999218 16:-0.922741 17:-0.999218 18:-1 19:-1 20:-1 21:-0.5 22:-0.948276 23:-0.980594 24:-0.976786 25:-0.940299 26:-0.954839 27:-0.88024 28:-0.987078 29:-0.915014 30:-0.984534 31:-0.303279 32:-0.973585 33:-0.882353 34:-1 35:-1 36:-1 37:-0.925926 38:-1 39:-0.980198 40:-0.945578 41:-1 42:-1 43:-1 44:-0.042623 45:-0.87037 
-2 1:-0.90633 2:-0.878251 3:-0.946768 4:-0.946768 5:-0.934614 6:0.89035 7:-0.91132 8:-1 9:-1 10:-1 11:-0.91132 12:-1 13:-0.468647 14:-0.848598 15:-0.999832 16:-0.978935 17:-0.999832 18:-1 19:-1 20:-1 21:-0.8125 22:-0.956897 23:-0.984795 24:-0.976786 25:-0.910448 26:-0.967742 27:-0.892216 28:-0.970999 29:-0.936261 30:-0.98736 31:-0.538043 32:-0.982106 33:-0.932773 34:-1 35:-0.933333 36:-1 37:-1 38:-0.882353 39:-0.980198 40:-0.891156 41:-0.882353 42:-0.930233 43:-1 44:0.0428571 45:-0.902778 
-2 1:-0.895167 2:-0.858831 3:-0.984791 4:-0.984791 5:-0.922399 6:0.86258 7:-0.898519 8:-1 9:-1 10:-1 11:-0.898519 12:-1 13:-0.648699 14:-0.918866 15:-0.999777 16:-0.913061 17:-0.999777 18:-1 19:-1 20:-1 21:-0.8125 22:-0.991379 23:-0.995235 24:-0.993294 25:-0.940299 26:-0.990323 27:-0.988024 28:-0.993488 29:-0.981586 30:-0.996053 31:-0.34949 32:-0.989044 33:-0.983193 34:-1 35:-1 36:-1 37:-0.925926 38:-1 39:-1 40:-0.986395 41:-1 42:-0.976744 43:-1 44:0.489796 45:-0.976852 
-2 1:-0.925769 2:-0.855977 3:-0.969582 4:-0.969582 5:-0.949907 6:0.872832 7:-0.923528 8:-0.935484 9:-0.935484 10:-1 11:-0.923528 12:-1 13:-0.775509 14:-0.876262 15:-0.999609 16:-0.933159 17:-0.999609 18:-1 19:-1 20:-1 21:-0.6875 22:-0.991379 23:-0.988877 24:-0.986072 25:-0.940299 26:-0.974194 27:-0.988024 28:-0.99083 29:-0.932011 30:-0.991367 31:-0.318513 32:-0.981862 33:-0.932773 34:-1 35:-1 36:-1 37:-1 38:-1 39:-0.960396 40:-0.986395 41:-0.882353 42:-1 43:-1 44:-0.0635569 45:-0.967593 
0.2011033809036589 1:-0.653164 2:-0.881611 3:-0.931559 4:-0.931559 5:-0.699912 6:0.710336 7:-0.663995 8:-1 9:-1 10:-1 11:-0.663995 12:-1 13:0.267564 14:-0.482665 15:-0.999944 16:-0.999252 17:-0.999944 18:-1 19:-1 20:-1 21:-0.25 22:-0.939655 23:-0.855472 24:-0.938612 25:-0.910448 26:-0.841935 27:-0.808383 28:-0.925891 29:-0.814448 30:-0.862952 31:-0.310065 32:-0.817042 33:-0.865546 34:-1 35:-1 36:-1 37:-1 38:-0.882353 39:-0.920792 40:-0.986395 41:-1 42:-0.930233 43:-1 44:0.501082 45:-0.87963 
-2 1:-0.931855 2:-0.863096 3:-0.984791 4:-0.984791 5:-0.972377 6:0.926878 7:-0.932357 8:-0.935484 9:-0.935484 10:-1 11:-0.932357 12:-1 13:-0.729527 14:-0.919 15:-1 16:-1 17:-1 18:-1 19:-1 20:-1 21:-0.875 22:-0.978448 23:-0.995217 24:-0.99381 25:-0.970149 26:-0.974194 27:-0.988024 28:-0.98924 29:-0.967422 30:-0.996065 31:-0.36756 32:-0.991479 33:-1 34:-1 35:-1 36:-1 37:-0.925926 38:-1 39:-1 40:-0.945578 41:-1 42:-1 43:-1 44:-0.217857 45:-0.972222 
2 1:-0.888024 2:-0.826309 3:-0.977186 4:-0.977186 5:-0.927505 6:0.863179 7:-0.899048 8:-1 9:-1 10:-1 11:-0.899048 12:-1 13:-0.752291 14:-0.850794 15:-1 16:-1 17:-1 18:-1 19:-1 20:-1 21:-0.75 22:-0.943966 23:-0.983837 24:-0.980913 25:-0.910448 26:-0.93871 27:-0.976048 28:-0.981426 29:-0.934844 30:-0.987706 31:-0.418693 32:-0.985027 33:-0.848739 34:-1 35:-0.933333 36:-0.714286 37:-0.703704 38:-1 39:-0.861386 40:-0.931973 41:-1 42:-0.930233 43:-1 44:-0.112462 45:-0.925926 
-2 1:-0.868927 2:-0.845485 3:-0.977186 4:-0.977186 5:-0.893741 6:0.823348 7:-0.865154 8:-0.967742 9:-0.967742 10:-1 11:-0.865154 12:-1 13:-0.320051 14:-0.955447 15:-1 16:-1 17:-1 18:-1 19:-1 20:-1 21:-0.9375 22:-1 23:-0.998463 24:-0.998968 25:-1 26:-1 27:-1 28:-0.998176 29:-0.995751 30:-0.998641 31:-0.241071 32:-0.993792 33:-0.983193 34:-1 35:-1 36:-1 37:-1 38:-1 39:-0.980198 40:-1 41:-1 42:-1 43:-1 44:0.0428571 45:-0.99537 
-2 1:-0.893481 2:-0.845623 3:-0.969582 4:-0.969582 5:-0.931042 6:0.878318 7:-0.896664 8:-1 9:-1 10:-1 11:-0.896664 12:-1 13:-0.596802 14:-0.75968 15:-0.997152 16:-0.860055 17:-0.997152 18:-1 19:-1 20:-1 21:-0.5625 22:-0.814655 23:-0.960752 24:-0.944287 25:-0.731343 26:-0.877419 27:-0.868263 28:-0.968735 29:-0.84136 30:-0.969342 31:-0.247788 32:-0.968472 33:-0.613445 34:-1 35:-1 36:-1 37:-0.777778 38:-1 39:-0.940594 40:-0.959184 41:-1 42:-1 43:-1 44:-0.187863 45:-0.777778 
-2 1:-0.892484 2:-0.86928 3:-0.893536 4:-0.893536 5:-0.923277 6:0.878587 7:-0.885203 8:-0.967742 9:-0.967742 10:-1 11:-0.885203 12:-1 13:-0.799719 14:-0.72031 15:-0.999777 16:-0.991346 17:-0.999777 18:-1 19:-1 20:-1 21:-0.5 22:-0.534483 23:-0.950163 24:-0.941192 25:-0.61194 26:-0.806452 27:-0.60479 28:-0.962561 29:-0.811615 30:-0.95886 31:-0.16178 32:-0.953013 33:-0.798319 34:-1 35:-0.933333 36:-1 37:-0.777778 38:-0.411765 39:-0.762376 40:-0.918367 41:-0.411765 42:-0.627907 43:-1 44:-0.0816631 45:-0.717593 
2 1:-0.888821 2:-0.854391 3:-0.969582 4:-0.969582 5:-0.916005 6:0.853668 7:-0.903805 8:-0.870968 9:-0.870968 10:-1 11:-0.903805 12:-1 13:-0.833918 14:-0.757035 15:-0.997766 16:-0.891056 17:-0.997766 18:-1 19:-1 20:-1 21:-0.75 22:-0.939655 23:-0.960456 24:-0.977818 25:-0.940299 26:-0.941935 27:-0.916168 28:-0.939378 29:-0.852691 30:-0.968686 31:-0.479592 32:-0.944979 33:-0.94958 34:-1 35:-1 36:-1 37:-0.925926 38:-0.882353 39:-0.90099 40:-0.931973 41:-0.882353 42:-0.953488 43:-1 44:0.330884 45:-0.851852 
0.7318396364517088 1:-0.913054 2:-0.851076 3:-0.992395 4:-0.992395 5:-0.909761 6:0.786568 7:-0.961532 8:-1 9:-1 10:-1 11:-0.961532 12:-1 13:-0.713616 14:-0.979069 15:-1 16:-1 17:-1 18:-1 19:-1 20:-1 21:-1 22:-1 23:-0.999662 24:-0.999484 25:-1 26:-1 27:-1 28:-1 29:-0.998584 30:-0.999606 31:-1 32:-0.997931 33:-1 34:-1 35:-1 36:-1 37:-1 38:-1 39:-1 40:-1 41:-1 42:-1 43:-1 44:0.0428571 45:-1 
0.3357478285805275 1:-0.283802 2:-0.883772 3:-0.893536 4:-0.893536 5:-0.301063 6:0.278981 7:-0.262881 8:-0.709677 9:-0.709677 10:-1 11:-0.262881 12:-1 13:-0.992177 14:0.700069 15:0.412432 16:0.883218 17:0.412432 18:-1 19:-1 20:-1 21:-0.4375 22:-0.5 23:0.454171 24:0.35414 25:-0.492537 26:0.477419 27:-0.353293 28:0.00380163 29:-0.0368272 30:0.447264 31:-0.621093 32:0.735119 33:-0.512605 34:-1 35:-0.666667 36:-0.714286 37:-0.555556 38:-0.764706 39:-0.782178 40:-0.414966 41:-0.647059 42:-0.813953 43:-1 44:0.819257 45:-0.287037 
2 1:-0.920531 2:-0.873579 3:-0.893536 4:-0.893536 5:-0.949915 6:0.899945 7:-0.921458 8:-1 9:-1 10:-1 11:-0.921458 12:-1 13:-0.638383 14:-0.752674 15:-0.997878 16:-0.89609 17:-0.997878 18:-1 19:-1 20:-1 21:-0.5 22:-0.793103 23:-0.960614 24:-0.956668 25:-0.880597 26:-0.86129 27:-0.928144 28:-0.971479 29:-0.794618 30:-0.967589 31:-0.625734 32:-0.964334 33:-0.781513 34:-1 35:-0.933333 36:-1 37:-0.407407 38:-0.882353 39:-0.861386 40:-0.904762 41:-0.882353 42:-0.837209 43:-0.666667 44:-0.0428571 45:-0.773148 
-2 1:-0.917774 2:-0.880067 3:-0.961977 4:-0.961977 5:-0.945035 6:0.897835 7:-0.910375 8:-1 9:-1 10:-1 11:-0.910375 12:-1 13:-0.700381 14:-0.770096 15:-0.998157 16:-0.894859 17:-0.998157 18:-1 19:-1 20:-1 21:-0.625 22:-0.836207 23:-0.966228 24:-0.96389 25:-0.940299 26:-0.922581 27:-0.772455 28:-0.966813 29:-0.835694 30:-0.971858 31:-0.429182 32:-0.972368 33:-0.89916 34:-1 35:-1 36:-1 37:-0.925926 38:-0.647059 39:-0.80198 40:-0.70068 41:-0.647059 42:-0.883721 43:-1 44:-0.179976 45:-0.865741 
2 1:-0.870809 2:-0.816738 3:-1 4:-1 5:-0.905171 6:0.827651 7:-0.879396 8:-1 9:-1 10:-1 11:-0.879396 12:-1 13:-1 14:-0.811896 15:-1 16:-1 17:-1 18:-1 19:-1 20:-1 21:-1 22:-0.952586 23:-0.974162 24:-0.965437 25:-0.791045 26:-0.932258 27:-0.88024 28:-1 29:-0.912181 30:-0.980873 31:-0.421769 32:-0.97322 33:-0.831933 34:-1 35:-1 36:-1 37:-0.925926 38:-0.882353 39:-0.841584 40:-0.972789 41:-1 42:-0.790698 43:-1 44:-0.271655 45:-0.925926 
-2 1:-0.887305 2:-0.797017 3:-0.969582 4:-0.969582 5:-0.896191 6:0.754743 7:-0.86806 8:-1 9:-1 10:-1 11:-0.86806 12:-1 13:-0.924462 14:-0.768587 15:-1 16:-1 17:-1 18:-1 19:-1 20:-1 21:-0.875 22:-0.952586 23:-0.959139 24:-0.961826 25:-0.940299 26:-0.983871 27:-0.976048 28:-0.918269 29:-0.820113 30:-0.9715 31:-0.383371 32:-0.945587 33:-1 34:-1 35:-1 36:-1 37:-1 38:-1 39:-0.881188 40:-0.918367 41:-1 42:-1 43:-1 44:0.0754464 45:-0.953704 
2 1:-0.873256 2:-0.818718 3:-0.91635 4:-0.91635 5:-0.903302 6:0.819575 7:-0.86886 8:-1 9:-1 10:-1 11:-0.86886 12:-1 13:-0.772888 14:-0.863177 15:-0.999944 16:-0.992272 17:-0.999944 18:-1 19:-1 20:-1 21:-0.75 22:-0.965517 23:-0.986205 24:-0.981429 25:-0.970149 26:-0.948387 27:-0.964072 28:-0.994628 29:-0.951841 30:-0.989566 31:-0.306122 32:-0.983932 33:-0.932773 34:-1 35:-0.933333 36:-1 37:-0.777778 38:-1 39:-0.940594 40:-0.945578 41:-1 42:-0.976744 43:-1 44:0.0130612 45:-0.930556 
-2 1:-0.861843 2:-0.849226 3:-0.992395 4:-0.992395 5:-0.890705 6:0.831159 7:-0.872522 8:-1 9:-1 10:-1 11:-0.872522 12:-1 13:-0.406635 14:-0.953444 15:-1 16:-1 17:-1 18:-1 19:-1 20:-1 21:-0.875 22:-1 23:-0.998341 24:-0.998968 25:-1 26:-0.996774 27:-0.976048 28:-0.998652 29:-0.995751 30:-0.998533 31:-0.241071 32:-0.995374 33:-1 34:-1 35:-1 36:-1 37:-1 38:-1 39:-1 40:-1 41:-1 42:-1 43:-1 44:-0.478571 45:-0.99537 
2 1:-0.932503 2:-0.873984 3:-0.977186 4:-0.977186 5:-0.954898 6:0.888649 7:-0.920081 8:-1 9:-1 10:-1 11:-0.920081 12:-1 13:-0.75695 14:-0.925267 15:-0.999944 16:-0.974552 17:-0.999944 18:-1 19:-1 20:-1 21:-0.6875 22:-0.982759 23:-0.995962 24:-0.995357 25:-1 26:-0.993548 27:-1 28:-0.995893 29:-0.974504 30:-0.996602 31:-0.520677 32:-0.991722 33:-0.94958 34:-1 35:-1 36:-1 37:-1 38:-1 39:-1 40:-0.918367 41:-1 42:-1 43:-1 44:-0.451128 45:-0.972222 
2 1:-0.867607 2:-0.852602 3:-0.870722 4:-0.870722 5:-0.9052 6:0.86252 7:-0.860571 8:-1 9:-1 10:-1 11:-0.860571 12:-1 13:-0.550174 14:-0.819252 15:-0.99933 16:-0.940266 17:-0.99933 18:-1 19:-1 20:-1 21:-0.6875 22:-0.909483 23:-0.978462 24:-0.971112 25:-0.940299 26:-0.954839 27:-0.928144 28:-0.974679 29:-0.932011 30:-0.98228 31:-0.566327 32:-0.944735 33:-0.983193 34:-1 35:-1 36:-1 37:-0.925926 38:-1 39:-0.90099 40:-0.931973 41:-1 42:-0.930233 43:-1 44:0.234402 45:-0.921296 
-2 1:-0.891063 2:-0.845976 3:-0.847909 4:-0.847909 5:-0.913384 6:0.835392 7:-0.878375 8:-0.903226 9:-0.903226 10:-1 11:-0.878375 12:-1 13:-0.681305 14:-0.601797 15:-0.993745 16:-0.884872 17:-0.993745 18:-1 19:-1 20:-1 22:-0.288793 23:-0.894863 24:-0.884447 25:-0.522388 26:-0.809677 27:-0.712575 28:-0.961364 29:-0.586402 30:-0.918031 31:-0.461238 32:-0.936579 33:-0.428571 34:-0.5 35:-0.933333 36:-1 37:-0.925926 38:-0.764706 39:-0.70297 40:-0.687075 41:-0.764706 42:-0.837209 43:0.333333 44:-0.152901 45:-0.384259 
-2 1:-0.888422 2:-0.836224 3:-0.977186 4:-0.977186 5:-0.93373 6:0.887536 7:-0.910044 8:-1 9:-1 10:-1 11:-0.910044 12:-1 13:-0.799208 14:-0.903196 15:-1 16:-1 17:-1 18:-1 19:-1 20:-1 21:-0.6875 22:-0.991379 23:-0.993086 24:-0.990199 25:-0.970149 26:-0.990323 27:-0.976048 28:-0.994185 29:-0.973088 30:-0.994539 31:-0.392857 32:-0.98941 33:-0.915966 34:-1 35:-1 36:-1 37:-1 38:-1 39:-1 40:-0.972789 41:-1 42:-0.953488 43:-1 44:-0.165714 45:-0.949074 
0.1064406412799926 1:-0.883211 2:-0.814775 3:-0.642586 4:-0.642586 5:-0.925691 6:0.857948 7:-0.891784 8:-0.806452 9:-0.806452 10:-1 11:-0.891784 12:-1 13:-0.803853 14:-0.698478 15:-0.994471 16:-0.834806 17:-0.994471 18:-1 19:-1 20:-1 21:-0.375 22:-0.616379 23:-0.935317 24:-0.924168 25:-0.432836 26:-0.829032 27:-0.712575 28:-0.962121 29:-0.743626 30:-0.952385 31:-0.34949 32:-0.962751 33:-0.630252 34:-1 35:-1 36:-0.714286 37:-0.925926 38:-0.764706 39:-0.841584 40:-0.836735 41:-0.764706 42:-0.813953 43:-1 44:-0.151962 45:-0.615741 
-2 1:-0.886893 2:-0.874535 3:-0.984791 4:-0.984791 5:-0.909348 6:0.85555 7:-0.879002 8:-1 9:-1 10:-1 11:-0.879002 12:-1 13:-0.530632 14:-0.945118 15:-0.999777 16:-0.817466 17:-0.999777 18:-1 19:-1 20:-1 21:-0.875 22:-1 23:-0.997845 24:-0.996389 25:-1 26:-0.993548 27:-1 28:-0.997441 29:-0.992918 30:-0.998044 31:0.0119048 32:-0.992209 33:-0.983193 34:-1 35:-1 36:-1 37:-1 38:-1 39:-1 40:-1 41:-1 42:-1 43:-1 44:0.0428571 45:-0.981481 
2 1:-0.898483 2:-0.871094 3:-0.992395 4:-0.992395 5:-0.934786 6:0.899911 7:-0.901527 8:-0.741935 9:-0.741935 10:-1 11:-0.901527 12:-1 13:-0.882688 14:-0.698362 15:-0.997096 16:-0.903451 17:-0.997096 18:-1 19:-1 20:-1 21:-0.4375 22:-0.564655 23:-0.941891 24:-0.915399 25:-0.58209 26:-0.822581 27:-0.688623 28:-0.96217 29:-0.769122 30:-0.95235 31:-0.426176 32:-0.959221 33:-0.596639 34:-1 35:-1 36:-0.428571 37:-0.851852 38:-0.882353 39:-0.821782 40:-0.782313 41:-0.764706 42:-0.813953 43:-1 44:-0.0716028 45:-0.25 
2 1:-0.919337 2:-0.862335 3:-0.984791 4:-0.984791 5:-0.955775 6:0.908351 7:-0.925685 8:-1 9:-1 10:-1 11:-0.925685 12:-1 13:-0.587814 14:-0.861613 15:-1 16:-1 17:-1 18:-1 19:-1 20:-1 21:-0.6875 22:-0.952586 23:-0.986706 24:-0.977818 25:-0.940299 26:-0.903226 27:-1 28:-0.985822 29:-0.929178 30:-0.98934 31:-0.702381 32:-0.97955 33:-0.966387 34:-1 35:-1 36:-1 37:-0.777778 38:-1 39:-0.90099 40:-0.755102 41:-1 42:-0.953488 43:-1 44:-0.427451 45:-0.953704 
2 1:-0.900015 2:-0.838743 3:-0.840304 4:-0.840304 5:-0.931889 6:0.86208 7:-0.903504 8:-0.83871 9:-0.83871 10:-1 11:-0.903504 12:-1 13:-0.89915 14:-0.675114 15:-0.998213 16:-0.952254 17:-0.998213 18:-1 19:-1 20:-1 21:-0.5 22:-0.551724 23:-0.927636 24:-0.885994 25:-0.61194 26:-0.86129 27:-0.856287 28:-0.947337 29:-0.677054 30:-0.944933 31:-0.363693 32:-0.961899 33:-0.512605 34:-1 35:-0.866667 36:-1 37:-0.703704 38:-0.882353 39:-0.544554 40:-0.755102 41:-0.882353 42:-0.604651 43:-1 44:-0.289582 45:-0.648148 
1.70675689069597 1:-0.932592 2:-0.852245 3:-0.224335 4:-0.224335 5:-0.95427 6:0.864554 7:-0.924202 8:-0.645161 9:-0.645161 10:-1 11:-0.924202 12:-1 13:-0.886644 14:-0.369436 15:-0.975874 16:-0.826872 17:-0.975874 18:-1 19:-1 20:-1 21:-0.5 22:0.616379 23:-0.72999 24:-0.727624 25:-0.164179 26:-0.141935 27:0.101796 28:-0.795831 29:1 30:-0.797558 31:-0.278132 32:-0.916494 33:0.579832 34:-0.625 35:-0.2 36:-0.142857 37:0.925926 38:-0.294118 39:0.128713 40:-0.278912 41:-0.176471 42:0.209302 43:-0.666667 44:0.176443 45:0.722222 
-2 1:-0.895192 2:-0.815523 3:-0.81749 4:-0.81749 5:-0.924994 6:0.833006 7:-0.886164 8:-1 9:-1 10:-1 11:-0.886164 12:-1 13:-0.813733 14:-0.770298 15:-0.999497 16:-0.974647 17:-0.999497 18:-1 19:-1 20:-1 21:-0.3125 22:-0.633621 23:-0.961775 24:-0.947382 25:-0.850746 26:-0.890323 27:-0.892216 28:-0.981133 29:-0.822946 30:-0.971906 31:-0.397676 32:-0.971759 33:-0.781513 34:-1 35:-0.933333 36:-1 37:-0.703704 38:-1 39:-0.861386 40:-0.823129 41:-1 42:-0.790698 43:-1 44:-0.221995 45:-0.726852 
2 1:-0.946673 2:-0.877212 3:-0.855513 4:-0.855513 5:-0.967765 6:0.89196 7:-0.938051 8:-0.870968 9:-0.870968 10:-1 11:-0.938051 12:-1 13:-0.704633 14:-0.785311 15:-0.999442 16:-0.964734 17:-0.999442 18:-1 19:-1 20:-1 21:-0.3125 22:-0.849138 23:-0.96951 24:-0.964921 25:-0.731343 26:-0.893548 27:-1 28:-0.983569 29:-0.728045 30:-0.97534 31:-0.418024 32:-0.976506 33:-0.848739 34:-1 35:-1 36:-1 37:-0.777778 38:-1 39:-0.821782 40:-0.836735 41:-1 42:-0.906977 43:-1 44:0.199556 45:-0.856481 
-2 1:-0.89785 2:-0.867487 3:-0.931559 4:-0.931559 5:-0.930662 6:0.886976 7:-0.901492 8:-0.903226 9:-0.903226 10:-1 11:-0.901492 12:-1 13:-0.375905 14:-0.87874 15:-1 16:-1 17:-1 18:-1 19:-1 20:-1 21:-0.75 22:-0.943966 23:-0.990019 24:-0.99381 25:-1 26:-0.993548 27:-0.952096 28:-0.98497 29:-0.96034 30:-0.991689 31:-0.267241 32:-0.976993 33:-0.966387 34:-1 35:-1 36:-1 37:-1 38:-1 39:-1 40:-0.959184 41:-1 42:-0.976744 43:-1 44:-0.0650246 45:-0.962963 
2 1:-0.897186 2:-0.805682 3:-0.870722 4:-0.870722 5:-0.926422 6:0.824039 7:-0.891536 8:-0.870968 9:-0.870968 10:-1 11:-0.891536 12:-1 13:-0.49816 14:-0.847101 15:-0.99866 16:-0.856196 17:-0.99866 18:-1 19:-1 20:-1 21:-0.625 22:-0.918103 23:-0.982144 24:-0.980397 25:-0.910448 26:-0.970968 27:-1 28:-0.986081 29:-0.910765 30:-0.987122 31:-0.288504 32:-0.978698 33:-0.915966 34:-1 35:-0.866667 36:-1 37:-1 38:-1 39:-0.960396 40:-0.931973 41:-1 42:-1 43:-1 44:-0.0549107 45:-0.939815 
2 1:-0.892603 2:-0.855124 3:-0.726236 4:-0.726236 5:-0.9188 6:0.854664 7:-0.895652 8:-0.870968 9:-0.870968 10:-1 11:-0.895652 12:-1 13:-0.716688 14:-0.653724 15:-0.994583 16:-0.866885 17:-0.994583 18:-1 19:-1 20:-1 21:-0.25 22:-0.741379 23:-0.921303 24:-0.902502 25:-0.701493 26:-0.864516 27:-0.808383 28:-0.960968 29:-0.694051 30:-0.937635 31:-0.538348 32:-0.920755 33:-0.630252 34:-1 35:-0.933333 36:-1 37:-0.777778 38:-1 39:-0.544554 40:-0.714286 41:-0.882353 42:-0.883721 43:-1 44:0.0764977 45:-0.712963 
-2 1:-0.89075 2:-0.839044 3:-0.992395 4:-0.992395 5:-0.927728 6:0.869129 7:-0.905741 8:-0.967742 9:-0.967742 10:-0.971821 11:-0.905741 12:-0.971821 13:-0.4873 14:-0.833447 15:-0.999665 16:-0.966503 17:-0.999665 18:-0.6 19:-0.971821 20:-1 21:-0.75 22:-0.926724 23:-0.98082 24:-0.985556 25:-0.940299 26:-0.964516 27:-0.988024 28:-0.97498 29:-0.922096 30:-0.984844 31:-0.512117 32:-0.966281 33:-0.966387 34:-1 35:-1 36:-1 37:-0.851852 38:-1 39:-0.920792 40:-0.945578 41:-1 42:-0.976744 43:-1 44:0.191837 45:-0.847222 
2 1:-0.918875 2:-0.833893 3:-1 4:-1 5:-0.951462 6:0.871081 7:-0.918918 8:-1 9:-1 10:-1 11:-0.918918 12:-1 13:-0.769201 14:-0.926431 15:-1 16:-1 17:-1 18:-1 19:-1 20:-1 21:-0.9375 22:-0.99569 23:-0.995737 24:-0.994841 25:-1 26:-1 27:-0.952096 28:-0.998789 29:-0.973088 30:-0.996697 31:-0.241071 32:-0.991966 33:-1 34:-1 35:-1 36:-1 37:-1 38:-1 39:-0.980198 40:-0.986395 41:-1 42:-0.976744 43:-1 44:0.0428571 45:-0.958333 
2 1:-0.896547 2:-0.858611 3:-0.984791 4:-0.984791 5:-0.934748 6:0.893229 7:-0.912095 8:-1 9:-1 10:-1 11:-0.912095 12:-1 13:-0.738689 14:-0.922846 15:-1 16:-1 17:-1 18:-1 19:-1 20:-1 21:-0.8125 22:-0.987069 23:-0.995651 24:-0.994841 25:-0.910448 26:-0.974194 27:-0.988024 28:-0.991686 29:-0.983003 30:-0.996399 31:-0.532967 32:-0.993183 33:-0.966387 34:-1 35:-1 36:-1 37:-1 38:-0.882353 39:-0.980198 40:-0.945578 41:-0.882353 42:-0.976744 43:-1 44:-0.197802 45:-0.958333 
2 1:-0.874481 2:-0.860418 3:-0.954373 4:-0.954373 5:-0.903673 6:0.85191 7:-0.872647 8:-0.935484 9:-0.935484 10:-1 11:-0.872647 12:-1 13:-0.863603 14:-0.777891 15:-1 16:-1 17:-1 18:-1 19:-1 20:-1 21:-0.4375 22:-0.909483 23:-0.969302 24:-0.972659 25:-0.910448 26:-0.893548 27:-0.976048 28:-0.979226 29:-0.895184 30:-0.973671 31:-0.635714 32:-0.926111 33:-0.932773 34:-1 35:-0.933333 36:-1 37:-0.555556 38:-1 39:-0.940594 40:-0.891156 41:-1 42:-0.976744 43:-1 44:0.529524 45:-0.856481 
2 1:-0.919026 2:-0.866809 3:-0.977186 4:-0.977186 5:-0.950733 6:0.899286 7:-0.92839 8:-1 9:-1 10:-1 11:-0.92839 12:-1 13:-0.747394 14:-0.893794 15:-1 16:-1 17:-1 18:-1 19:-1 20:-1 21:-0.8125 22:-0.952586 23:-0.992029 24:-0.988651 25:-0.970149 26:-0.964516 27:-0.892216 28:-0.984173 29:-0.958924 30:-0.993513 31:-0.190476 32:-0.986853 33:-1 34:-1 35:-0.933333 36:-1 37:-1 38:-0.882353 39:-0.960396 40:-0.972789 41:-0.882353 42:-0.953488 43:-1 44:0.112381 45:-0.972222 
2 1:-0.875273 2:-0.786211 3:-0.551331 4:-0.551331 5:-0.907472 6:0.800011 7:-0.88679 8:-0.83871 9:-0.83871 10:-1 11:-0.88679 12:-1 13:-0.704794 14:-0.688589 15:-0.99475 16:-0.861647 17:-0.99475 18:-1 19:-1 20:-1 21:-0.3125 22:-0.775862 23:-0.926639 24:-0.914883 25:-0.552239 26:-0.758065 27:-0.952096 28:-0.960907 29:-0.711048 30:-0.949297 31:-0.392857 32:-0.95983 33:-0.512605 34:-1 35:-0.8 36:-0.714286 37:-0.851852 38:-1 39:-0.742574 40:-0.85034 41:-1 42:-0.953488 43:-1 44:0.119164 45:-0.643519 
2 1:-0.919665 2:-0.859108 3:-1 4:-1 5:-0.959043 6:0.913635 7:-0.932585 8:-1 9:-1 10:-1 11:-0.932585 12:-1 13:-0.774878 14:-0.911272 15:-1 16:-1 17:-1 18:-1 19:-1 20:-1 21:-0.875 22:-0.982759 23:-0.99421 24:-0.99381 25:-0.910448 26:-0.983871 27:-1 28:-0.989288 29:-0.968839 30:-0.995349 31:-0.340062 32:-0.98941 33:-0.915966 34:-1 35:-1 36:-1 37:-0.851852 38:-1 39:-0.980198 40:-1 41:-1 42:-1 43:-1 44:-0.455901 45:-0.962963 
0.65087538077283 1:-0.901346 2:-0.852754 3:-0.931559 4:-0.931559 5:-0.927462 6:0.859336 7:-0.890324 8:-1 9:-1 10:-1 11:-0.890324 12:-1 13:-0.922652 14:-0.671384 15:-0.995532 16:-0.87968 17:-0.995532 18:-1 19:-1 20:-1 21:-0.375 22:-0.418103 23:-0.928213 24:-0.928295 25:-0.373134 26:-0.735484 27:-0.580838 28:-0.95786 29:-0.689802 30:-0.943693 31:-0.227273 32:-0.946561 33:-0.781513 34:-1 35:-0.533333 36:-1 37:-0.777778 38:-1 39:-0.821782 40:-0.836735 41:-1 42:-0.697674 43:-1 44:-0.00454545 45:-0.555556 
-2 1:-0.910373 2:-0.877418 3:-1 4:-1 5:-0.944898 6:0.909728 7:-0.907789 8:-0.967742 9:-0.967742 10:-1 11:-0.907789 12:-1 13:-0.663177 14:-0.78354 15:-0.99933 16:-0.957353 17:-0.99933 18:-1 19:-1 20:-1 21:-0.625 22:-0.801724 23:-0.969746 24:-0.954088 25:-0.880597 26:-0.906452 27:-0.844311 28:-0.971933 29:-0.865439 30:-0.974947 31:-0.209449 32:-0.969446 33:-0.966387 34:-1 35:-0.933333 36:-1 37:-1 38:-1 39:-0.861386 40:-0.741497 41:-1 42:-0.953488 43:-1 44:-0.130952 45:-0.800926 
-2 1:-0.917597 2:-0.823422 3:-0.992395 4:-0.992395 5:-0.959478 6:0.885131 7:-0.934193 8:-1 9:-1 10:-1 11:-0.934193 12:-1 13:-0.825063 14:-0.944928 15:-1 16:-1 17:-1 18:-1 19:-1 20:-1 21:-0.875 22:-0.99569 23:-0.997489 24:-0.998452 25:-0.970149 26:-0.993548 27:-1 28:-0.997013 29:-0.983003 30:-0.998032 31:-0.532967 32:-0.995496 33:-0.983193 34:-1 35:-1 36:-1 37:-1 38:-1 39:-0.980198 40:-0.972789 41:-1 42:-1 43:-1 44:-0.0373626 45:-0.976852 
-2 1:-0.904016 2:-0.841001 3:-0.977186 4:-0.977186 5:-0.930343 6:0.85186 7:-0.894062 8:-0.967742 9:-0.967742 10:-1 11:-0.894062 12:-1 13:-0.792652 14:-0.917007 15:-0.999888 16:-0.959682 17:-0.999888 18:-1 19:-1 20:-1 21:-0.75 22:-0.978448 23:-0.994846 24:-0.993294 25:-1 26:-0.980645 27:-0.976048 28:-0.992985 29:-0.975921 30:-0.995886 31:-0.662698 32:-0.989166 33:-1 34:-1 35:-1 36:-1 37:-1 38:-0.882353 39:-0.980198 40:-0.931973 41:-0.882353 42:-0.976744 43:-1 44:-0.188889 45:-0.967593 
-2 1:-0.929049 2:-0.899043 3:-1 4:-1 5:-0.953613 6:0.914932 7:-0.92314 8:-0.870968 9:-0.870968 10:-1 11:-0.92314 12:-1 13:-0.753501 14:-0.705065 15:-0.997599 16:-0.911489 17:-0.997599 18:-1 19:-1 20:-1 21:-0.75 22:-0.836207 23:-0.947606 24:-0.934485 25:-0.791045 26:-0.854839 27:-0.868263 28:-0.922071 29:-0.720963 30:-0.954389 31:-0.279401 32:-0.961534 33:-0.663866 34:-1 35:-0.933333 36:-1 37:-0.925926 38:-1 39:-0.861386 40:-0.85034 41:-1 42:-0.883721 43:-1 44:-0.115152 45:-0.703704 
2 1:-0.882279 2:-0.82841 3:-0.642586 4:-0.642586 5:-0.917292 6:0.848291 7:-0.882448 8:-0.677419 9:-0.677419 10:-1 11:-0.882448 12:-1 13:-0.684989 14:-0.616861 15:-0.989668 16:-0.802681 17:-0.989668 18:-1 19:-1 20:-1 21:-0.1875 22:-0.232759 23:-0.898683 24:-0.842662 25:-0.373134 26:-0.7 27:-0.676647 28:-0.953886 29:-0.621813 30:-0.923993 31:-0.422308 32:-0.948387 33:-0.848739 34:-1 35:-0.933333 36:-0.714286 37:-0.481481 38:-1 39:-0.940594 40:-0.782313 41:-1 42:-0.883721 43:-1 44:-0.143923 45:-0.203704 
-2 1:-0.90331 2:-0.867256 3:-0.642586 4:-0.642586 5:-0.934515 6:0.886771 7:-0.905275 8:-0.709677 9:-0.709677 10:-1 11:-0.905275 12:-1 13:-0.858134 14:-0.698013 15:-0.991846 16:-0.731503 17:-0.991846 18:-1 19:-1 20:-1 21:-0.5 22:-0.646552 23:-0.94133 24:-0.921073 25:-0.61194 26:-0.73871 27:-0.88024 28:-0.956356 29:-0.750708 30:-0.952242 31:-0.62268 32:-0.956178 33:-0.445378 34:-1 35:-0.733333 36:-0.428571 37:-0.62963 38:-0.882353 39:-0.782178 40:-0.836735 41:-0.882353 42:-0.651163 43:-1 44:-0.151574 45:-0.722222 
0.9023807851885226 1:-0.948841 2:-0.908216 3:-1 4:-1 5:-0.927942 6:0.812082 7:-0.938478 8:-1 9:-1 10:-1 11:-0.938478 12:-1 13:-0.214281 14:-0.975963 15:-1 16:-1 17:-1 18:-1 19:-1 20:-1 21:-0.9375 22:-1 23:-0.999611 24:-0.999484 25:-1 26:-1 27:-1 28:-0.998967 29:-0.997167 30:-0.999511 31:0.0119048 32:-0.998174 33:-1 34:-1 35:-1 36:-1 37:-1 38:-1 39:-1 40:-1 41:-1 42:-1 43:-1 44:-0.304762 45:-1 
2 1:-0.903954 2:-0.843175 3:-0.885932 4:-0.885932 5:-0.935446 6:0.867692 7:-0.903327 8:-0.967742 9:-0.967742 10:-1 11:-0.903327 12:-1 13:-0.79869 14:-0.790214 15:-0.996928 16:-0.806789 17:-0.996928 18:-1 19:-1 20:-1 21:-0.625 22:-0.862069 23:-0.96939 24:-0.955636 25:-0.850746 26:-0.912903 27:-0.676647 28:-0.970738 29:-0.858357 30:-0.976413 31:-0.489038 32:-0.974194 33:-0.983193 34:-1 35:-0.933333 36:-0.714286 37:-0.851852 38:-0.882353 39:-0.940594 40:-0.891156 41:-0.882353 42:-0.906977 43:-1 44:-0.194625 45:-0.847222 
2 1:-0.884121 2:-0.82113 3:-0.726236 4:-0.726236 5:-0.930925 6:0.87568 7:-0.892394 8:-0.483871 9:-0.483871 10:-1 11:-0.892394 12:-1 13:-0.739244 14:-0.651494 15:-0.997766 16:-0.949115 17:-0.997766 18:-1 19:-1 20:-1 21:-0.5 22:-0.75 23:-0.915087 24:-0.894248 25:-0.402985 26:-0.890323 27:-0.868263 28:-0.939691 29:-0.667139 30:-0.936848 31:-0.446883 32:-0.955447 33:-0.193277 34:-1 35:-1 36:-1 37:-0.851852 38:-1 39:-0.683168 40:-0.605442 41:-0.882353 42:-0.674419 43:-1 44:-0.195763 45:-0.342593 
2 1:-0.911867 2:-0.854237 3:-0.688213 4:-0.688213 5:-0.945503 6:0.888639 7:-0.914765 8:-0.83871 9:-0.83871 10:-1 11:-0.914765 12:-1 13:-0.725996 14:-0.599145 15:-0.995365 16:-0.915883 17:-0.995365 18:-1 19:-1 20:-1 21:-0.25 22:-0.435345 23:-0.89336 24:-0.87155 25:-0.402985 26:-0.680645 27:-0.245509 28:-0.946507 29:-0.474504 30:-0.916958 31:-0.445084 32:-0.945709 33:-0.478992 34:-0.875 35:-0.8 36:-0.714286 37:-0.555556 38:-0.294118 39:-0.683168 40:-0.537415 41:-0.294118 42:-0.651163 43:-0.333333 44:-0.0412442 45:-0.236111 
-2 1:-0.896354 2:-0.841031 3:-0.954373 4:-0.954373 5:-0.925734 6:0.854528 7:-0.887413 8:-0.967742 9:-0.967742 10:-1 11:-0.887413 12:-1 13:-0.798685 14:-0.781306 15:-0.999721 16:-0.98369 17:-0.999721 18:-1 19:-1 20:-1 21:-0.75 22:-0.836207 23:-0.96702 24:-0.960794 25:-0.970149 26:-0.922581 27:-0.796407 28:-0.952459 29:-0.859773 30:-0.974446 31:-0.453571 32:-0.978941 33:-0.596639 34:-1 35:-1 36:-1 37:-0.703704 38:-0.882353 39:-0.881188 40:-0.863946 41:-0.882353 42:-0.860465 43:-1 44:-0.27 45:-0.611111 
-2 1:-0.894654 2:-0.809997 3:-0.878327 4:-0.878327 5:-0.920051 6:0.815855 7:-0.884377 8:-1 9:-1 10:-1 11:-0.884377 12:-1 13:-0.781604 14:-0.859096 15:-0.999832 16:-0.978767 17:-0.999832 18:-1 19:-1 20:-1 21:-0.625 22:-0.913793 23:-0.984917 24:-0.979881 25:-1 26:-0.96129 27:-0.94012 28:-0.985201 29:-0.929178 30:-0.98897 31:-0.22619 32:-0.982106 33:-0.983193 34:-0.875 35:-0.933333 36:-1 37:-1 38:-1 39:-0.940594 40:-0.931973 41:-0.882353 42:-0.976744 43:-1 44:-0.10028 45:-0.944444 
2 1:-0.95245 2:-0.901006 3:-0.855513 4:-0.855513 5:-0.965806 6:0.898827 7:-0.940219 8:-0.935484 9:-0.935484 10:-1 11:-0.940219 12:-1 13:-0.697682 14:-0.811285 15:-0.999832 16:-0.985646 17:-0.999832 18:-1 19:-1 20:-1 21:-0.375 22:-0.961207 23:-0.977585 24:-0.973175 25:-1 26:-0.96129 27:-0.94012 28:-0.987932 29:-0.81728 30:-0.980754 31:-0.603022 32:-0.964334 33:-0.815126 34:-1 35:-0.866667 36:-1 37:-1 38:-1 39:-0.920792 40:-0.918367 41:-1 42:-0.953488 43:-1 44:0.171209 45:-0.847222 
-0.06535142247051101 1:-0.888183 2:-0.851977 3:-0.855513 4:-0.855513 5:-0.920579 6:0.8653 7:-0.885561 8:-0.548387 9:-0.548387 10:-1 11:-0.885561 12:-1 13:-0.801218 14:-0.506654 15:-0.998604 16:-0.982876 17:-0.998604 18:-1 19:-1 20:-1 21:-0.375 22:0.198276 23:-0.842116 24:-0.794687 25:0.343284 26:-0.448387 27:0.664671 28:-0.903099 29:-0.406516 30:-0.875174 31:-0.233844 32:-0.925989 33:-0.277311 34:-1 35:-0.666667 36:-0.714286 37:-0.481481 38:-0.764706 39:-0.405941 40:-0.510204 41:-0.647059 42:-0.209302 43:-1 44:-0.14585 45:0.467593 
-2 1:-0.885005 2:-0.859878 3:-0.536122 4:-0.536122 5:-0.920509 6:0.877519 7:-0.890549 8:-0.741935 9:-0.741935 10:-1 11:-0.890549 12:-1 13:-0.593574 14:-0.633681 15:-0.998269 16:-0.960486 17:-0.998269 18:-1 19:-1 20:-1 21:-0.1875 22:-0.642241 23:-0.915256 24:-0.909724 25:-0.552239 26:-0.741935 27:-0.748503 28:-0.961647 29:-0.691218 30:-0.930385 31:-0.445532 32:-0.92185 33:-0.579832 34:-1 35:-0.866667 36:-0.428571 37:-0.703704 38:-1 39:-0.485149 40:-0.809524 41:-0.764706 42:-0.837209 43:-0.666667 44:0.12381 45:-0.541667 
-2 1:-0.891809 2:-0.832803 3:-0.931559 4:-0.931559 5:-0.924469 6:0.853039 7:-0.889232 8:-0.806452 9:-0.806452 10:-1 11:-0.889232 12:-1 13:-0.719715 14:-0.712163 15:-0.999888 16:-0.996204 17:-0.999888 18:-1 19:-1 20:-1 21:-0.3125 22:-0.840517 23:-0.94316 24:-0.932938 25:-0.820896 26:-0.883871 27:-0.832335 28:-0.969258 29:-0.763456 30:-0.956499 31:-0.385629 32:-0.958977 33:-0.630252 34:-0.875 35:-0.866667 36:-1 37:-0.851852 38:-0.882353 39:-0.70297 40:-0.768707 41:-0.882353 42:-0.767442 43:-0.333333 44:-0.0688776 45:-0.689815 
2 1:-0.907854 2:-0.895018 3:-0.977186 4:-0.977186 5:-0.934972 6:0.902211 7:-0.907022 8:-0.870968 9:-0.870968 10:-1 11:-0.907022 12:-1 13:-0.609089 14:-0.74073 15:-0.999106 16:-0.957004 17:-0.999106 18:-1 19:-1 20:-1 21:-0.75 22:-0.87931 23:-0.959918 24:-0.94893 25:-0.701493 26:-0.874194 27:-0.94012 28:-0.942538 29:-0.830028 30:-0.964489 31:-0.372786 32:-0.960803 33:-0.848739 34:-1 35:-0.866667 36:-1 37:-0.851852 38:-0.882353 39:-0.663366 40:-0.931973 41:-0.882353 42:-0.767442 43:-1 44:-0.138135 45:-0.726852 
-2 1:-0.924992 2:-0.835281 3:-0.969582 4:-0.969582 5:-0.967094 6:0.900048 7:-0.957325 8:-1 9:-1 10:-1 11:-0.957325 12:-1 13:-0.80778 14:-0.923127 15:-1 16:-1 17:-1 18:-1 19:-1 20:-1 21:-0.9375 22:-0.974138 23:-0.995251 24:-0.995873 25:-0.940299 26:-0.983871 27:-0.976048 28:-0.995318 29:-0.966006 30:-0.996423 31:-0.271429 32:-0.991479 33:-0.932773 34:-1 35:-1 36:-1 37:-1 38:-1 39:-1 40:-0.959184 41:-1 42:-1 43:-1 44:0.00114286 45:-0.967593 
2 1:-0.770034 2:-0.89891 3:-1 4:-1 5:-0.802275 6:0.794654 7:-0.777793 8:-1 9:-1 10:-1 11:-0.777793 12:-1 13:-0.600308 14:-0.942697 15:-1 16:-1 17:-1 18:-1 19:-1 20:-1 21:-0.9375 22:-0.99569 23:-0.997829 24:-0.998968 25:-1 26:-1 27:-1 28:-0.994818 29:-0.997167 30:-0.997889 31:0.0119048 32:-0.993792 33:-1 34:-1 35:-1 36:-1 37:-1 38:-1 39:-1 40:-1 41:-1 42:-1 43:-1 44:0.390476 45:-1 
2 1:-0.881007 2:-0.804525 3:-0.505703 4:-0.505703 5:-0.920528 6:0.839643 7:-0.879436 8:-0.870968 9:-0.870968 10:-1 11:-0.879436 12:-1 13:-0.640961 14:-0.668577 15:-0.99933 16:-0.983573 17:-0.99933 18:-1 19:-1 20:-1 21:0.0625 22:-0.534483 23:-0.921106 24:-0.911272 25:-0.940299 26:-0.8 27:-0.700599 28:-0.971604 29:-0.68272 30:-0.942751 31:-0.568254 32:-0.950091 33:-0.428571 34:-1 35:-0.933333 36:-1 37:-0.555556 38:-0.647059 39:-0.80198 40:-0.741497 41:-0.647059 42:-0.72093 43:-1 44:0.00114286 45:-0.611111 
-2 1:-0.873895 2:-0.780967 3:-0.946768 4:-0.946768 5:-0.908788 6:0.80184 7:-0.866727 8:-0.967742 9:-0.967742 10:-1 11:-0.866727 12:-1 13:-0.661495 14:-0.866271 15:-0.999777 16:-0.969787 17:-0.999777 18:-1 19:-1 20:-1 21:-0.5625 22:-0.952586 23:-0.98588 24:-0.984524 25:-0.910448 26:-0.93871 27:-0.928144 28:-0.98857 29:-0.943343 30:-0.990007 31:-0.555749 32:-0.983932 33:-0.983193 34:-1 35:-1 36:-1 37:-0.777778 38:-0.529412 39:-0.980198 40:-0.972789 41:-0.529412 42:-0.837209 43:-1 44:-0.236934 45:-0.921296 
-2 1:-0.917139 2:-0.856712 3:-0.840304 4:-0.840304 5:-0.941141 6:0.868216 7:-0.912725 8:-0.741935 9:-0.741935 10:-1 11:-0.912725 12:-1 13:-0.917219 14:-0.631633 15:-0.990171 16:-0.789033 17:-0.990171 18:-1 19:-1 20:-1 21:-0.1875 22:-0.508621 23:-0.909871 24:-0.910756 25:-0.58209 26:-0.767742 27:-0.796407 28:-0.959775 29:-0.524079 30:-0.929622 31:-0.297372 32:-0.938405 33:-0.579832 34:-1 35:-0.733333 36:-0.714286 37:-0.777778 38:-0.764706 39:-0.465347 40:-0.85034 41:-0.882353 42:-0.674419 43:-1 44:0.0088173 45:-0.37963 
2 1:-0.918941 2:-0.854425 3:-0.969582 4:-0.969582 5:-0.963262 6:0.922353 7:-0.92618 8:-0.967742 9:-0.967742 10:-1 11:-0.92618 12:-1 13:-0.6909 14:-0.843199 15:-0.999497 16:-0.942629 17:-0.999497 18:-1 19:-1 20:-1 21:-0.625 22:-0.935345 23:-0.983229 24:-0.985556 25:-0.910448 26:-0.970968 27:-0.952096 28:-0.98593 29:-0.905099 30:-0.98649 31:-0.285714 32:-0.983445 33:-0.89916 34:-1 35:-1 36:-1 37:-1 38:-1 39:-0.960396 40:-0.891156 41:-1 42:-0.976744 43:-1 44:-0.294538 45:-0.902778 
-2 1:-0.89831 2:-0.838607 3:-0.91635 4:-0.91635 5:-0.931261 6:0.863626 7:-0.896149 8:-0.967742 9:-0.967742 10:-1 11:-0.896149 12:-1 13:-0.811663 14:-0.711272 15:-0.999609 16:-0.986708 17:-0.999609 18:-1 19:-1 20:-1 21:-0.1875 22:-0.676724 23:-0.943186 24:-0.922105 25:-0.641791 26:-0.841935 27:-0.688623 28:-0.974153 29:-0.749292 30:-0.956237 31:-0.317817 32:-0.960195 33:-0.361345 34:-1 35:-0.8 36:-1 37:-1 38:-1 39:-0.861386 40:-0.809524 41:-1 42:-0.72093 43:-1 44:-0.15634 45:-0.587963 
-2 1:-0.895087 2:-0.815043 3:-0.726236 4:-0.726236 5:-0.939641 6:0.8725 7:-0.907159 8:-0.516129 9:-0.516129 10:-1 11:-0.907159 12:-1 13:-0.637463 14:-0.690436 15:-0.999609 16:-0.988964 17:-0.999609 18:-1 19:-1 20:-1 21:-0.0625 22:-0.844828 23:-0.931526 24:-0.920557 25:-0.880597 26:-0.86129 27:-0.712575 28:-0.97476 29:-0.68272 30:-0.949881 31:-0.379365 32:-0.97042 33:-0.478992 34:-1 35:-0.866667 36:-1 37:-0.777778 38:-0.529412 39:-0.60396 40:-0.795918 41:-0.529412 42:-0.697674 43:-1 44:-0.202794 45:-0.550926 
2 1:-0.897411 2:-0.879297 3:-0.893536 4:-0.893536 5:-0.930262 6:0.896376 7:-0.904004 8:-0.870968 9:-0.870968 10:-1 11:-0.904004 12:-1 13:-0.674548 14:-0.683961 15:-0.995309 16:-0.851751 17:-0.995309 18:-1 19:-1 20:-1 21:-0.375 22:-0.853448 23:-0.938856 24:-0.933454 25:-0.820896 26:-0.86129 27:-0.832335 28:-0.965031 29:-0.759207 30:-0.947818 31:-0.733709 32:-0.945953 33:-0.89916 34:-1 35:-1 36:-1 37:-0.925926 38:-0.882353 39:-0.70297 40:-0.741497 41:-0.882353 42:-0.813953 43:-1 44:0.353885 45:-0.62963 
-2 1:-0.893154 2:-0.84694 3:-0.771863 4:-0.771863 5:-0.92559 6:0.865262 7:-0.89808 8:-1 9:-1 10:-1 11:-0.89808 12:-1 13:-0.7012 14:-0.678231 15:-0.998827 16:-0.967151 17:-0.998827 18:-1 19:-1 20:-1 21:-0.25 22:-0.681034 23:-0.930986 24:-0.915914 25:-0.761194 26:-0.858065 27:-0.772455 28:-0.965148 29:-0.72238 30:-0.945958 31:-0.399021 32:-0.954474 33:-0.714286 34:-1 35:-0.533333 36:-1 37:-1 38:-0.764706 39:-0.623762 40:-0.714286 41:-0.764706 42:-0.651163 43:-1 44:0.079913 45:-0.680556 
-2 1:-0.894038 2:-0.828032 3:-0.787072 4:-0.787072 5:-0.928102 6:0.854497 7:-0.895247 8:-0.387097 9:-0.387097 10:-1 11:-0.895247 12:-1 13:-0.774513 14:-0.601531 15:-0.988775 16:-0.801639 17:-0.988775 18:-1 19:-1 20:-1 21:0.0625 22:-0.599138 23:-0.890481 24:-0.854011 25:-0.552239 26:-0.777419 27:-0.724551 28:-0.961652 29:-0.526912 30:-0.917924 31:-0.338486 32:-0.948631 33:-0.445378 34:-1 35:-0.733333 36:-1 37:-0.62963 38:-0.882353 39:-0.643564 40:-0.809524 41:-0.764706 42:-0.860465 43:-1 44:-0.128358 45:-0.310185 
2 1:-0.903847 2:-0.882543 3:-0.946768 4:-0.946768 5:-0.931327 6:0.889722 7:-0.908781 8:-1 9:-1 10:-1 11:-0.908781 12:-1 13:-0.577423 14:-0.861531 15:-0.99933 16:-0.898498 17:-0.99933 18:-1 19:-1 20:-1 21:-0.5625 22:-0.965517 23:-0.987415 24:-0.988651 25:-1 26:-0.980645 27:-0.904192 28:-0.989474 29:-0.949008 30:-0.989328 31:-0.343629 32:-0.982593 33:-1 34:-1 35:-0.933333 36:-1 37:-1 38:-0.764706 39:-0.980198 40:-0.823129 41:-1 42:-1 43:-1 44:0.0146718 45:-0.925926 
-0.494157346029798 1:-0.914685 2:-0.882751 3:-1 4:-1 5:-0.949283 6:0.917697 7:-0.913934 8:-0.870968 9:-0.870968 10:-1 11:-0.913934 12:-1 13:-0.682614 14:-0.763282 15:-1 16:-1 17:-1 18:-1 19:-1 20:-1 21:-0.75 22:-0.956897 23:-0.966376 24:-0.974207 25:-0.940299 26:-0.964516 27:-0.964072 28:-0.94898 29:-0.835694 30:-0.970225 31:-0.79243 32:-0.955691 33:-0.915966 34:-1 35:-0.933333 36:-0.428571 37:-0.62963 38:-1 39:-0.920792 40:-0.632653 41:-1 42:-0.883721 43:-1 44:0.283516 45:-0.560185 
-2 1:-0.819277 2:-0.817523 3:-1 4:-1 5:-0.854386 6:0.785297 7:-0.82645 8:-1 9:-1 10:-1 11:-0.82645 12:-1 13:-0.823244 14:-0.922007 15:-1 16:-1 17:-1 18:-1 19:-1 20:-1 21:-1 22:-0.991379 23:-0.995267 24:-0.996389 25:-1 26:-0.993548 27:-1 28:-1 29:-0.990085 30:-0.996327 31:-0.620536 32:-0.974437 33:-0.983193 34:-1 35:-1 36:-1 37:-1 38:-1 39:-0.980198 40:-1 41:-1 42:-1 43:-1 44:0.564286 45:-0.986111 
-2 1:-0.918334 2:-0.856552 3:-0.946768 4:-0.946768 5:-0.930965 6:0.838007 7:-0.907463 8:-1 9:-1 10:-1 11:-0.907463 12:-1 13:-0.718009 14:-0.935258 15:-1 16:-1 17:-1 18:-1 19:-1 20:-1 21:-0.875 22:-0.99569 23:-0.996832 24:-0.994841 25:-1 26:-0.996774 27:-1 28:-0.997288 29:-0.983003 30:-0.997377 31:-0.532967 32:-0.993427 33:-1 34:-1 35:-1 36:-1 37:-1 38:-1 39:-0.980198 40:-0.945578 41:-1 42:-1 43:-1 44:-0.197802 45:-0.967593 
-0.3166404647580656 1:-0.893278 2:-0.784823 3:-0.148289 4:-0.148289 5:-0.915223 6:0.782802 7:-0.887867 8:-0.806452 9:-0.806452 10:-1 11:-0.887867 12:-1 13:-0.744268 14:-0.554355 15:-0.996035 16:-0.948513 17:-0.996035 18:-1 19:-1 20:-1 21:-0.375 22:-0.405172 23:-0.850879 24:-0.82048 25:-0.462687 26:-0.748387 27:-0.772455 28:-0.910007 29:-0.212465 30:-0.897783 31:-0.324186 32:-0.949361 33:-0.0588235 34:-1 35:-0.866667 36:-0.714286 37:-0.185185 38:-0.882353 39:-0.386139 40:-0.659864 41:-0.764706 42:-0.581395 43:-1 44:-0.026417 45:-0.5 
2 1:-0.912434 2:-0.843872 3:-1 4:-1 5:-0.938183 6:0.858472 7:-0.896755 8:-1 9:-1 10:-1 11:-0.896755 12:-1 13:-0.56543 14:-0.906562 15:-1 16:-1 17:-1 18:-1 19:-1 20:-1 21:-0.9375 22:-0.956897 23:-0.993444 24:-0.993294 25:-1 26:-0.993548 27:-0.988024 28:-0.997175 29:-0.966006 30:-0.994884 31:-0.757143 32:-0.991357 33:-0.94958 34:-1 35:-1 36:-1 37:-0.925926 38:-1 39:-0.90099 40:-1 41:-1 42:-1 43:-1 44:-0.582857 45:-0.930556 
-2 1:-0.872046 2:-0.84286 3:-0.992395 4:-0.992395 5:-0.89899 6:0.829683 7:-0.87214 8:-1 9:-1 10:-1 11:-0.87214 12:-1 13:-0.63017 14:-0.93966 15:-1 16:-1 17:-1 18:-1 19:-1 20:-1 21:-0.9375 22:-1 23:-0.997206 24:-0.997421 25:-1 26:-1 27:-0.988024 28:-0.997498 29:-0.991501 30:-0.997687 31:-0.132653 32:-0.994035 33:-1 34:-1 35:-1 36:-1 37:-1 38:-1 39:-0.980198 40:-0.972789 41:-1 42:-1 43:-1 44:0.191837 45:-0.990741 
1.624628079600125 1:-0.886696 2:-0.844139 3:-0.802281 4:-0.802281 5:-0.906224 6:0.822801 7:-0.881769 8:-0.774194 9:-0.774194 10:-1 11:-0.881769 12:-1 13:-0.844255 14:-0.660604 15:-0.991064 16:-0.778313 17:-0.991064 18:-1 19:-1 20:-1 21:-0.5625 22:-0.719828 23:-0.922056 24:-0.869487 25:-0.61194 26:-0.719355 27:-0.844311 28:-0.936657 29:-0.709632 30:-0.940032 31:-0.410541 32:-0.955691 33:-0.697479 34:-1 35:-0.8 36:-1 37:-0.333333 38:-1 39:-0.663366 40:-0.768707 41:-1 42:-0.813953 43:-1 44:-0.240638 45:-0.62963 
2 1:-0.906094 2:-0.839486 3:-0.954373 4:-0.954373 5:-0.942887 6:0.880353 7:-0.908775 8:-0.903226 9:-0.903226 10:-1 11:-0.908775 12:-1 13:-0.822643 14:-0.677104 15:-0.996649 16:-0.910035 17:-0.996649 18:-1 19:-1 20:-1 21:-0.5625 22:-0.586207 23:-0.927992 24:-0.927263 25:-0.731343 26:-0.819355 27:-0.652695 28:-0.940054 29:-0.652975 30:-0.945589 31:-0.333624 32:-0.959586 33:-0.680672 34:-1 35:-0.866667 36:-0.714286 37:-0.777778 38:-0.764706 39:-0.524752 40:-0.70068 41:-0.647059 42:-0.674419 43:-1 44:-0.126713 45:-0.527778 
-2 1:-0.89008 2:-0.806848 3:-0.65019 4:-0.65019 5:-0.9324 6:0.855841 7:-0.901861 8:-0.806452 9:-0.806452 10:-1 11:-0.901861 12:-1 13:-0.82752 14:-0.726511 15:-0.999051 16:-0.966178 17:-0.999051 18:-1 19:-1 20:-1 21:-0.125 22:-0.737069 23:-0.945786 24:-0.934485 25:-0.58209 26:-0.9 27:-0.892216 28:-0.979404 29:-0.756374 30:-0.960613 31:-0.385838 32:-0.961899 33:-0.680672 34:-1 35:-0.933333 36:-1 37:-0.851852 38:-0.882353 39:-0.861386 40:-0.863946 41:-0.882353 42:-0.813953 43:-1 44:-0.0837325 45:-0.777778 
-2 1:-0.892194 2:-0.874319 3:-0.794677 4:-0.794677 5:-0.931839 6:0.906424 7:-0.90316 8:-0.83871 9:-0.83871 10:-1 11:-0.90316 12:-1 13:-0.6189 14:-0.599703 15:-0.993745 16:-0.876913 17:-0.993745 18:-1 19:-1 20:-1 21:-0.5 22:-0.676724 23:-0.901677 24:-0.887026 25:-0.671642 26:-0.803226 27:-0.688623 28:-0.925827 29:-0.628895 30:-0.917184 31:-0.56138 32:-0.940231 33:-0.445378 34:-1 35:-0.866667 36:-1 37:-0.851852 38:-1 39:-0.405941 40:-0.959184 41:-1 42:-0.72093 43:-1 44:0.0626833 45:-0.555556 
-2 1:-0.891187 2:-0.812079 3:-0.908745 4:-0.908745 5:-0.92426 6:0.836085 7:-0.889861 8:-0.967742 9:-0.967742 10:-1 11:-0.889861 12:-1 13:-0.779308 14:-0.803394 15:-1 16:-1 17:-1 18:-1 19:-1 20:-1 21:-0.6875 22:-0.875 23:-0.971376 24:-0.960794 25:-0.940299 26:-0.954839 27:-0.844311 28:-0.967272 29:-0.873938 30:-0.97918 31:-0.291667 32:-0.974072 33:-0.882353 34:-1 35:-0.933333 36:-1 37:-1 38:-1 39:-0.722772 40:-0.863946 41:-1 42:-0.976744 43:-1 44:-0.258413 45:-0.814815 
-2 1:-0.918015 2:-0.876604 3:-0.855513 4:-0.855513 5:-0.942742 6:0.888176 7:-0.922151 8:-0.870968 9:-0.870968 10:-1 11:-0.922151 12:-1 13:-0.630436 14:-0.717983 15:-0.994471 16:-0.792503 17:-0.994471 18:-1 19:-1 20:-1 21:-0.4375 22:-0.818966 23:-0.948548 24:-0.944803 25:-0.761194 26:-0.851613 27:-0.868263 28:-0.965711 29:-0.749292 30:-0.958193 31:-0.573636 32:-0.966768 33:-0.747899 34:-1 35:-0.8 36:0.142857 37:-0.62963 38:-1 39:-0.821782 40:-0.972789 41:-1 42:-0.883721 43:-1 44:-0.238363 45:-0.569444 
-2 1:-0.922361 2:-0.827557 3:-0.984791 4:-0.984791 5:-0.954485 6:0.864043 7:-0.935476 8:-1 9:-1 10:-1 11:-0.935476 12:-1 13:-0.723936 14:-0.929264 15:-1 16:-1 17:-1 18:-1 19:-1 20:-1 21:-0.9375 22:-0.99569 23:-0.995895 24:-0.996905 25:-0.970149 26:-0.977419 27:-0.988024 28:-0.998386 29:-0.970255 30:-0.996923 31:-0.448052 32:-0.991357 33:-0.983193 34:-1 35:-1 36:-0.714286 37:-0.925926 38:-1 39:-1 40:-0.986395 41:-1 42:-1 43:-1 44:-0.146753 45:-0.99537 
-2 1:-0.911238 2:-0.852617 3:-0.923954 4:-0.923954 5:-0.94019 6:0.874097 7:-0.910021 8:-0.83871 9:-0.83871 10:-1 11:-0.910021 12:-1 13:-0.736874 14:-0.727879 15:-0.997431 16:-0.900754 17:-0.997431 18:-1 19:-1 20:-1 21:-0.4375 22:-0.892241 23:-0.950023 24:-0.936033 25:-0.791045 26:-0.867742 27:-0.856287 28:-0.967948 29:-0.753541 30:-0.960995 31:-0.392857 32:-0.963116 33:-0.848739 34:-1 35:-0.866667 36:-1 37:-0.851852 38:-1 39:-0.623762 40:-0.659864 41:-1 42:-0.906977 43:-1 44:-0.0822857 45:-0.680556 
2 1:-0.908855 2:-0.850831 3:-0.91635 4:-0.91635 5:-0.943075 6:0.885168 7:-0.908079 8:-0.193548 9:-0.193548 10:-1 11:-0.908079 12:-1 13:-0.724537 14:-0.515161 15:-0.994695 16:-0.93367 17:-0.994695 18:-1 19:-1 20:-1 21:-0.1875 22:-0.659483 23:-0.845112 24:-0.820996 25:-0.671642 26:-0.725806 27:0.137725 28:-0.927562 29:-0.253541 30:-0.879372 31:-0.442302 32:-0.93804 33:0.226891 34:-0.875 35:-0.933333 36:-0.428571 37:-0.481481 38:-0.764706 39:0.70297 40:-0.346939 41:-0.529412 42:-0.534884 43:-0.666667 44:-0.130952 45:0.407407 
2 1:-0.895442 2:-0.828894 3:-0.885932 4:-0.885932 5:-0.923004 6:0.838641 7:-0.888878 8:-0.935484 9:-0.935484 10:-1 11:-0.888878 12:-1 13:-0.665517 14:-0.813493 15:-1 16:-1 17:-1 18:-1 19:-1 20:-1 21:-0.5 22:-0.905172 23:-0.975004 24:-0.965953 25:-0.791045 26:-0.941935 27:-0.904192 28:-0.981654 29:-0.890935 30:-0.981183 31:-0.416209 32:-0.978089 33:-0.865546 34:-1 35:-1 36:-1 37:-0.925926 38:-1 39:-0.861386 40:-0.904762 41:-1 42:-0.953488 43:-1 44:-0.171062 45:-0.824074 
2 1:-0.948789 2:-0.885938 3:-0.969582 4:-0.969582 5:-0.983038 6:0.938067 7:-0.958956 8:-1 9:-1 10:-1 11:-0.958956 12:-1 13:-0.671828 14:-0.929112 15:-0.999553 16:-0.776658 17:-0.999553 18:-1 19:-1 20:-1 21:-0.9375 22:-0.99569 23:-0.996339 24:-0.994326 25:-1 26:-0.990323 27:-0.964072 28:-0.995367 29:-0.968839 30:-0.996912 31:-0.208075 32:-0.993305 33:-1 34:-1 35:-1 36:-1 37:-1 38:-1 39:-0.940594 40:-0.972789 41:-1 42:-1 43:-1 44:-0.183851 45:-0.976852 
-2 1:-0.918946 2:-0.851545 3:-0.536122 4:-0.536122 5:-0.95201 6:0.889214 7:-0.929375 8:-0.903226 9:-0.903226 10:-1 11:-0.929375 12:-1 13:-0.759603 14:-0.646244 15:-0.990227 16:-0.77456 17:-0.990227 18:-1 19:-1 20:-1 21:-0.4375 22:-0.685345 23:-0.916152 24:-0.91643 25:-0.820896 26:-0.754839 27:-0.820359 28:-0.9462 29:-0.528329 30:-0.934976 31:-0.409217 32:-0.957517 33:-0.764706 34:-0.875 35:-0.8 36:-1 37:-0.703704 38:-1 39:-0.762376 40:-0.619048 41:-1 42:-0.790698 43:-1 44:-0.10077 45:-0.643519 
-2 1:-0.879518 2:-0.789796 3:-0.0570342 4:-0.0570342 5:-0.910864 6:0.803877 7:-0.883961 8:-0.387097 9:-0.387097 10:-1 11:-0.883961 12:-1 13:-0.651648 14:-0.596918 15:-0.989836 16:-0.836252 17:-0.989836 18:-1 19:-1 20:-1 21:-0.375 22:-0.62069 23:-0.879851 24:-0.843694 25:-0.671642 26:-0.770968 27:-0.856287 28:-0.929457 29:-0.502833 30:-0.916052 31:-0.482549 32:-0.955082 33:-0.411765 34:-1 35:-1 36:-1 37:-0.407407 38:-0.882353 39:-0.465347 40:-0.809524 41:-0.882353 42:-0.511628 43:-1 44:-0.0934253 45:-0.537037 
0.2966326334253892 1:-0.82594 2:-0.670724 3:-0.779468 4:-0.779468 5:-0.90233 6:0.785139 7:-0.877413 8:-1 9:-1 10:-1 11:-0.877413 12:-1 13:-0.840733 14:-0.899382 15:-1 16:-1 17:-1 18:-1 19:-1 20:-1 21:-0.8125 22:-0.969828 23:-0.990227 24:-0.989167 25:-1 26:-0.967742 27:-0.988024 28:-0.980293 29:-0.967422 30:-0.994133 31:-0.494048 32:-0.98454 33:-0.932773 34:-1 35:-1 36:-1 37:-0.925926 38:-1 39:-1 40:-0.972789 41:-1 42:-1 43:-1 44:0.129762 45:-0.930556 
2 1:-0.899772 2:-0.825115 3:-0.893536 4:-0.893536 5:-0.924637 6:0.83114 7:-0.884163 8:-0.741935 9:-0.741935 10:-1 11:-0.884163 12:-1 13:-0.678774 14:-0.782686 15:-0.99838 16:-0.907448 17:-0.99838 18:-1 19:-1 20:-1 21:-0.5 22:-0.689655 23:-0.966285 24:-0.963374 25:-0.910448 26:-0.945161 27:-0.904192 28:-0.976514 29:-0.839943 30:-0.974756 31:-0.467419 32:-0.973341 33:-0.865546 34:-1 35:-0.866667 36:-1 37:-0.851852 38:-1 39:-0.920792 40:-0.863946 41:-1 42:-0.953488 43:-1 44:-0.341353 45:-0.791667 
1.694162865809405 1:-0.859556 2:-0.798294 3:-0.703422 4:-0.703422 5:-0.893493 6:0.802208 7:-0.851837 8:-0.870968 9:-0.870968 10:-1 11:-0.851837 12:-1 13:-0.861762 14:-0.571494 15:-0.996984 16:-0.95563 17:-0.996984 18:-1 19:-1 20:-1 21:-0.5 22:0.780172 23:-0.868416 24:-0.828218 25:0.0746269 26:-0.496774 27:-0.700599 28:-0.902276 29:-0.575071 30:-0.905355 31:-0.354533 32:-0.932075 33:-0.596639 34:-1 35:-0.333333 36:-0.714286 37:-0.555556 38:-0.882353 39:-0.70297 40:-0.673469 41:-0.882353 42:-0.511628 43:-1 44:-0.13384 45:0.143519 
-2 1:-0.883244 2:-0.84157 3:-0.239544 4:-0.239544 5:-0.913966 6:0.848228 7:-0.87456 8:-0.677419 9:-0.677419 10:-1 11:-0.87456 12:-1 13:-0.711692 14:-0.599968 15:-0.997822 16:-0.960248 17:-0.997822 18:-1 19:-1 20:-1 21:-0.0625 22:-0.387931 23:-0.89397 24:-0.858138 25:-0.432836 26:-0.664516 27:-0.616766 28:-0.958653 29:-0.609065 30:-0.917292 31:-0.397241 32:-0.943883 33:-0.563025 34:-1 35:-0.666667 36:-0.714286 37:-0.333333 38:-0.882353 39:-0.722772 40:-0.70068 41:-0.882353 42:-0.837209 43:-1 44:0.0616813 45:-0.412037 
2 1:-0.885626 2:-0.82527 3:-0.992395 4:-0.992395 5:-0.913475 6:0.828926 7:-0.870216 8:-1 9:-1 10:-1 11:-0.870216 12:-1 13:-0.709043 14:-0.912517 15:-1 16:-1 17:-1 18:-1 19:-1 20:-1 21:-0.75 22:-1 23:-0.994202 24:-0.994326 25:-0.970149 26:-0.996774 27:-0.988024 28:-0.991423 29:-0.977337 30:-0.995469 31:-0.642857 32:-0.985149 33:-0.983193 34:-1 35:-1 36:-1 37:-1 38:-1 39:-0.90099 40:-0.986395 41:-1 42:-0.930233 43:-1 44:0.226891 45:-0.939815 
2 1:-0.904685 2:-0.820589 3:-0.961977 4:-0.961977 5:-0.93297 6:0.839537 7:-0.909757 8:-0.903226 9:-0.903226 10:-1 11:-0.909757 12:-1 13:-0.498383 14:-0.846135 15:-1 16:-1 17:-1 18:-1 19:-1 20:-1 21:-0.8125 22:-0.952586 23:-0.982295 24:-0.980913 25:-0.910448 26:-0.93871 27:-0.964072 28:-0.97517 29:-0.907932 30:-0.986967 31:-0.448052 32:-0.980523 33:-0.932773 34:-1 35:-0.933333 36:-1 37:-0.851852 38:-1 39:-0.960396 40:-0.959184 41:-1 42:-0.906977 43:-1 44:-0.0203463 45:-0.925926 
-2 1:-0.86955 2:-0.816558 3:-0.840304 4:-0.840304 5:-0.897474 6:0.809017 7:-0.870048 8:-0.612903 9:-0.612903 10:-1 11:-0.870048 12:-1 13:-0.779921 14:-0.686453 15:-0.997766 16:-0.936936 17:-0.997766 18:-1 19:-1 20:-1 21:-0.375 22:-0.784483 23:-0.931528 24:-0.924168 25:-0.761194 26:-0.906452 27:-0.856287 28:-0.959077 29:-0.764873 30:-0.948617 31:-0.436484 32:-0.946926 33:-0.663866 34:-1 35:-1 36:-0.714286 37:-0.777778 38:-1 39:-0.90099 40:-0.891156 41:-1 42:-0.837209 43:-1 44:0.111548 45:-0.768519 
-2 1:-0.890948 2:-0.875396 3:-0.794677 4:-0.794677 5:-0.915179 6:0.864474 7:-0.893809 8:-0.806452 9:-0.806452 10:-1 11:-0.893809 12:-1 13:-0.6584 14:-0.679984 15:-0.998213 16:-0.945698 17:-0.998213 18:-1 19:-1 20:-1 21:-0.375 22:-0.788793 23:-0.936399 24:-0.952025 25:-0.850746 26:-0.874194 27:-0.796407 28:-0.962473 29:-0.764873 30:-0.946531 31:-0.527374 32:-0.935119 33:-0.731092 34:-1 35:-1 36:-1 37:-0.703704 38:-1 39:-0.564356 40:-0.904762 41:-1 42:-0.674419 43:-0.666667 44:-0.000855432 45:-0.662037 
-2 1:-0.906289 2:-0.860952 3:-0.764259 4:-0.764259 5:-0.940397 6:0.891644 7:-0.910317 8:-0.774194 9:-0.774194 10:-1 11:-0.910317 12:-1 13:-0.824222 14:-0.537662 15:-0.993019 16:-0.901944 17:-0.993019 18:-1 19:-1 20:-1 21:-0.375 22:-0.275862 23:-0.862163 24:-0.814805 25:-0.492537 26:-0.609677 27:-0.233533 28:-0.916561 29:-0.382436 30:-0.890128 31:-0.388689 32:-0.947657 33:-0.495798 34:-0.875 35:-0.866667 36:-0.428571 37:-0.703704 38:-0.529412 39:-0.445545 40:-0.387755 41:-0.294118 42:-0.348837 43:-1 44:-0.188624 45:-0.0324074 
2 1:-0.87608 2:-0.846208 3:-0.992395 4:-0.992395 5:-0.898676 6:0.824007 7:-0.876086 8:-0.967742 9:-0.967742 10:-1 11:-0.876086 12:-1 13:-0.697876 14:-0.767387 15:-0.996202 16:-0.801677 17:-0.996202 18:-1 19:-1 20:-1 21:-0.375 22:-0.797414 23:-0.963086 24:-0.960279 25:-0.820896 26:-0.896774 27:-0.868263 28:-0.978715 29:-0.876771 30:-0.971214 31:-0.517045 32:-0.95423 33:-0.89916 34:-1 35:-1 36:-1 37:-1 38:-0.882353 39:-0.960396 40:-0.986395 41:-0.882353 42:-0.906977 43:-1 44:0.161364 45:-0.675926 
2 1:-0.89533 2:-0.796301 3:-0.269962 4:-0.269962 5:-0.936626 6:0.847069 7:-0.91032 8:-0.709677 9:-0.709677 10:-1 11:-0.91032 12:-1 13:-0.525004 14:-0.629501 15:-1 16:-1 17:-1 18:-1 19:-1 20:-1 21:-0.4375 22:-0.543103 23:-0.897873 24:-0.877225 25:-0.731343 26:-0.748387 27:-0.532934 28:-0.939303 29:-0.481586 30:-0.928823 31:-0.487155 32:-0.921363 33:-0.630252 34:-1 35:-0.8 36:-1 37:-0.407407 38:-0.647059 39:-0.782178 40:-0.659864 41:-0.764706 42:-0.651163 43:-1 44:0.176411 45:-0.449074 
2 1:-0.888381 2:-0.83147 3:-0.946768 4:-0.946768 5:-0.922341 6:0.852797 7:-0.891147 8:-0.935484 9:-0.935484 10:-1 11:-0.891147 12:-1 13:-0.711964 14:-0.815228 15:-1 16:-1 17:-1 18:-1 19:-1 20:-1 21:-0.4375 22:-0.961207 23:-0.97591 24:-0.958731 25:-1 26:-0.974194 27:-0.988024 28:-0.986828 29:-0.903683 30:-0.981517 31:-0.296066 32:-0.973463 33:-0.798319 34:-1 35:-1 36:-1 37:-0.851852 38:-1 39:-0.960396 40:-0.986395 41:-1 42:-1 43:-1 44:-0.123395 45:-0.925926 
2 1:-0.864992 2:-0.837806 3:-0.870722 4:-0.870722 5:-0.899176 6:0.839234 7:-0.872062 8:-0.935484 9:-0.935484 10:-1 11:-0.872062 12:-1 13:-0.477831 14:-0.818554 15:-0.999106 16:-0.925186 17:-0.999106 18:-1 19:-1 20:-1 21:-0.6875 22:-0.974138 23:-0.977058 24:-0.95512 25:-0.970149 26:-0.925806 27:-0.928144 28:-0.974679 29:-0.929178 30:-0.982149 31:-0.52381 32:-0.977115 33:-0.882353 34:-1 35:-1 36:-1 37:-0.703704 38:-1 39:-0.881188 40:-0.945578 41:-1 42:-0.953488 43:-1 44:-0.141176 45:-0.916667 
-2 1:-0.680412 2:-0.846401 3:-1 4:-1 5:-0.684768 6:0.594531 7:-0.693939 8:-0.967742 9:-0.967742 10:-1 11:-0.693939 12:-1 13:0.121321 14:-0.727023 15:-1 16:-1 17:-1 18:-1 19:-1 20:-1 21:-1 22:-0.978448 23:-0.954523 24:-0.984008 25:-1 26:-0.983871 27:-0.952096 28:-1 29:-0.94051 30:-0.960756 31:-0.29402 32:-0.92112 33:-1 34:-0.875 35:-1 36:-1 37:-1 38:-1 39:-0.980198 40:-1 41:-1 42:-0.976744 43:-1 44:0.503654 45:-0.925926 
0.604865801752307 1:-0.921325 2:-0.836167 3:-0.460076 4:-0.460076 5:-0.945941 6:0.852685 7:-0.916398 8:-0.774194 9:-0.774194 10:-1 11:-0.916398 12:-1 13:-0.696532 14:-0.623863 15:-0.994192 16:-0.886354 17:-0.994192 18:-1 19:-1 20:-1 21:-0.375 22:-0.525862 23:-0.901113 24:-0.872582 25:-0.492537 26:-0.741935 27:-0.94012 28:-0.942271 29:-0.356941 30:-0.926688 31:-0.392857 32:-0.957395 33:-0.210084 34:-0.875 35:-0.933333 36:-1 37:-0.481481 38:-0.882353 39:-0.544554 40:-0.863946 41:-1 42:-0.744186 43:-0.666667 44:0.0222292 45:-0.537037 
2 1:-0.812396 2:-0.861428 3:-0.885932 4:-0.885932 5:-0.84279 6:0.800272 7:-0.82915 8:-0.83871 9:-0.83871 10:-1 11:-0.82915 12:-1 13:-0.234793 14:-0.840028 15:-0.999721 16:-0.966184 17:-0.999721 18:-1 19:-1 20:-1 21:-0.6875 22:-0.969828 23:-0.984206 24:-0.992778 25:-0.970149 26:-0.980645 27:-0.928144 28:-0.981944 29:-0.964589 30:-0.985965 31:-0.649725 32:-0.938771 33:-0.915966 34:-1 35:-1 36:-1 37:-0.925926 38:-1 39:-1 40:-1 41:-1 42:-1 43:-1 44:0.845055 45:-0.958333 
2 1:-0.897808 2:-0.861993 3:-0.961977 4:-0.961977 5:-0.929038 6:0.878132 7:-0.897383 8:-0.83871 9:-0.83871 10:-1 11:-0.897383 12:-1 13:-0.736066 14:-0.812386 15:-0.998548 16:-0.881767 17:-0.998548 18:-1 19:-1 20:-1 21:-0.625 22:-0.905172 23:-0.976403 24:-0.980913 25:-0.850746 26:-0.93871 27:-0.868263 28:-0.977971 29:-0.905099 30:-0.980969 31:-0.285714 32:-0.978941 33:-0.89916 34:-1 35:-1 36:-1 37:-0.851852 38:-1 39:-0.920792 40:-0.972789 41:-1 42:-0.953488 43:-1 44:-0.263866 45:-0.875 
-2 1:-0.893608 2:-0.789548 3:-0.961977 4:-0.961977 5:-0.949344 6:0.878991 7:-0.910998 8:-1 9:-1 10:-1 11:-0.910998 12:-1 13:-0.838753 14:-0.874365 15:-1 16:-1 17:-1 18:-1 19:-1 20:-1 21:-0.625 22:-0.978448 23:-0.987389 24:-0.993294 25:-1 26:-0.993548 27:-0.976048 28:-0.988597 29:-0.934844 30:-0.991116 31:-0.418693 32:-0.983201 33:-0.983193 34:-1 35:-1 36:-1 37:-0.925926 38:-1 39:-0.841584 40:-0.904762 41:-1 42:-0.883721 43:-1 44:-0.28997 45:-0.925926 
-2 1:-0.898471 2:-0.818491 3:-0.885932 4:-0.885932 5:-0.920346 6:0.816343 7:-0.887716 8:-0.870968 9:-0.870968 10:-1 11:-0.887716 12:-1 13:-0.776668 14:-0.763037 15:-0.996258 16:-0.822897 17:-0.996258 18:-1 19:-1 20:-1 21:-0.5 22:-0.887931 23:-0.959248 24:-0.944287 25:-0.940299 26:-0.925806 27:-0.928144 28:-0.97387 29:-0.805949 30:-0.970165 31:-0.230072 32:-0.967742 33:-0.932773 34:-1 35:-1 36:-1 37:-1 38:-1 39:-0.90099 40:-0.877551 41:-1 42:-0.930233 43:-1 44:-0.183851 45:-0.814815 
2 1:-0.94538 2:-0.914364 3:-0.908745 4:-0.908745 5:-0.94686 6:0.876656 7:-0.93338 8:-1 9:-1 10:-1 11:-0.93338 12:-1 13:-0.622634 14:-0.831262 15:-1 16:-1 17:-1 18:-1 19:-1 20:-1 21:-0.625 22:-0.965517 23:-0.982508 24:-0.987619 25:-0.910448 26:-0.967742 27:-0.928144 28:-0.983188 29:-0.889518 30:-0.984462 31:-0.116184 32:-0.98101 33:-0.983193 34:-1 35:-0.933333 36:-1 37:-1 38:-1 39:-0.90099 40:-0.877551 41:-1 42:-0.976744 43:-1 44:0.00325497 45:-0.967593 
2 1:-0.886648 2:-0.851007 3:-0.901141 4:-0.901141 5:-0.913497 6:0.848217 7:-0.891472 8:-1 9:-1 10:-1 11:-0.891472 12:-1 13:-0.585013 14:-0.892958 15:-0.996984 16:-0.306775 17:-0.996984 18:-1 19:-1 20:-1 21:-0.75 22:-0.952586 23:-0.991782 24:-0.986072 25:-1 26:-0.967742 27:-1 28:-0.988368 29:-0.970255 30:-0.993418 31:-0.724026 32:-0.985636 33:-0.932773 34:-1 35:-1 36:-1 37:-0.925926 38:-1 39:-0.980198 40:-0.904762 41:-1 42:-1 43:-1 44:-0.146753 45:-0.949074 
-2 1:-0.931601 2:-0.900955 3:-0.961977 4:-0.961977 5:-0.950319 6:0.902532 7:-0.918921 8:-1 9:-1 10:-1 11:-0.918921 12:-1 13:-0.59429 14:-0.931731 15:-0.99933 16:-0.610196 17:-0.99933 18:-1 19:-1 20:-1 21:-0.6875 22:-0.991379 23:-0.996884 24:-0.996389 25:-1 26:-0.996774 27:-1 28:-0.996916 29:-0.983003 30:-0.997114 31:-0.299451 32:-0.988558 33:-1 34:-1 35:-1 36:-1 37:-1 38:-1 39:-0.980198 40:-0.972789 41:-1 42:-1 43:-1 44:0.283516 45:-0.981481 
-2 1:-0.948556 2:-0.936088 3:-1 4:-1 5:-0.94801 6:0.892616 7:-0.938357 8:-1 9:-1 10:-1 11:-0.938357 12:-1 13:-0.382649 14:-0.957058 15:-0.999888 16:-0.84722 17:-0.999888 18:-1 19:-1 20:-1 21:-0.875 22:-0.99569 23:-0.9988 24:-0.997937 25:-1 26:-1 27:-1 28:-0.998321 29:-0.992918 30:-0.998724 31:-0.494048 32:-0.997444 33:-0.966387 34:-1 35:-1 36:-1 37:-1 38:-1 39:-1 40:-1 41:-1 42:-1 43:-1 44:0.0428571 45:-0.99537 
-2 1:-0.826957 2:-0.711712 3:-0.642586 4:-0.642586 5:-0.868428 6:0.725332 7:-0.833829 8:-0.967742 9:-0.967742 10:-1 11:-0.833829 12:-1 13:-0.801957 14:-0.748338 15:-0.999497 16:-0.981759 17:-0.999497 18:-1 19:-1 20:-1 21:-0.25 22:-0.780172 23:-0.946785 24:-0.936549 25:-0.850746 26:-0.883871 27:-0.784431 28:-0.973714 29:-0.842776 30:-0.96648 31:-0.457908 32:-0.96409 33:-0.848739 34:-1 35:-0.8 36:-1 37:-0.851852 38:-1 39:-0.782178 40:-0.918367 41:-1 42:-0.860465 43:-1 44:-0.0316327 45:-0.712963 
2 1:-0.868811 2:-0.801131 3:-0.863118 4:-0.863118 5:-0.917039 6:0.850852 7:-0.885068 8:-0.451613 9:-0.451613 10:-1 11:-0.885068 12:-1 13:-0.754567 14:-0.58191 15:-0.999888 16:-0.998278 17:-0.999888 18:-1 19:-1 20:-1 21:-0.3125 22:-0.594828 23:-0.874437 24:-0.83544 25:-0.671642 26:-0.690323 27:-0.401198 28:-0.934162 29:-0.55949 30:-0.909815 31:-0.377289 32:-0.942179 33:-0.176471 34:-1 35:-0.866667 36:-0.714286 37:-0.555556 38:-0.529412 39:-0.346535 40:-0.687075 41:-0.529412 42:0.139535 43:-1 44:-0.0841575 45:-0.425926 
2 1:-0.881272 2:-0.853418 3:-0.977186 4:-0.977186 5:-0.912769 6:0.858312 7:-0.869296 8:-1 9:-1 10:-1 11:-0.869296 12:-1 13:-0.714801 14:-0.881267 15:-0.999386 16:-0.881386 17:-0.999386 18:-1 19:-1 20:-1 21:-0.625 22:-0.952586 23:-0.990175 24:-0.986588 25:-0.910448 26:-0.980645 27:-0.988024 28:-0.991723 29:-0.966006 30:-0.992011 31:-0.635714 32:-0.982593 33:-1 34:-1 35:-1 36:-1 37:-0.925926 38:-1 39:-0.960396 40:-1 41:-1 42:-0.953488 43:-1 44:-0.0822857 45:-0.930556 
2 1:-0.847416 2:-0.759538 3:-0.726236 4:-0.726236 5:-0.902622 6:0.818333 7:-0.868892 8:-0.870968 9:-0.870968 10:-1 11:-0.868892 12:-1 13:-0.851132 14:-0.829372 15:-0.999218 16:-0.935528 17:-0.999218 18:-1 19:-1 20:-1 21:-0.5625 22:-0.892241 23:-0.976702 24:-0.975754 25:-0.940299 26:-0.967742 27:-0.796407 28:-0.982347 29:-0.926346 30:-0.984128 31:-0.484501 32:-0.976993 33:-0.815126 34:-1 35:-1 36:-0.714286 37:-0.925926 38:-0.882353 39:-0.861386 40:-0.959184 41:-0.882353 42:-0.906977 43:-1 44:0.180593 45:-0.791667 
-2 1:-0.925616 2:-0.860021 3:-0.91635 4:-0.91635 5:-0.959482 6:0.90297 7:-0.917692 8:-0.967742 9:-0.967742 10:-1 11:-0.917692 12:-1 13:-0.878641 14:-0.771817 15:-1 16:-1 17:-1 18:-1 19:-1 20:-1 21:-0.5 22:-0.775862 23:-0.964815 24:-0.946866 25:-0.970149 26:-0.893548 27:-0.760479 28:-0.973346 29:-0.787535 30:-0.972264 31:-0.477294 32:-0.972976 33:-0.932773 34:-1 35:-0.933333 36:-1 37:-0.925926 38:-0.882353 39:-0.742574 40:-0.768707 41:-0.882353 42:-0.813953 43:-1 44:-0.0883633 45:-0.722222 
0.597266621585235 1:-0.893663 2:-0.839687 3:-0.961977 4:-0.961977 5:-0.921456 6:0.847038 7:-0.892376 8:-0.870968 9:-0.870968 10:-1 11:-0.892376 12:-1 13:-0.859875 14:-0.7101 15:-0.996873 16:-0.89425 17:-0.996873 18:-1 19:-1 20:-1 21:-0.375 22:-0.866379 23:-0.94287 24:-0.922621 25:-0.820896 26:-0.916129 27:-0.88024 28:-0.968344 29:-0.763456 30:-0.955891 31:-0.403699 32:-0.95703 33:-0.579832 34:-1 35:-0.933333 36:-1 37:-0.851852 38:-0.764706 39:-0.623762 40:-0.959184 41:-0.764706 42:-0.72093 43:-1 44:-0.168197 45:-0.638889 
2 1:-0.860551 2:-0.8236 3:-0.855513 4:-0.855513 5:-0.894387 6:0.82313 7:-0.864498 8:-0.806452 9:-0.806452 10:-1 11:-0.864498 12:-1 13:-0.5712 14:-0.845765 15:-1 16:-1 17:-1 18:-1 19:-1 20:-1 21:-0.625 22:-0.974138 23:-0.982962 24:-0.981429 25:-0.970149 26:-0.977419 27:-0.976048 28:-0.983998 29:-0.947592 30:-0.986907 31:-0.281015 32:-0.981254 33:-0.966387 34:-1 35:-1 36:-1 37:-1 38:-1 39:-0.940594 40:-0.959184 41:-1 42:-0.906977 43:-1 44:-0.0120301 45:-0.907407 
-2 1:-0.895604 2:-0.830108 3:-0.847909 4:-0.847909 5:-0.942236 6:0.891482 7:-0.917004 8:-1 9:-1 10:-1 11:-0.917004 12:-1 13:-0.643999 14:-0.858373 15:-1 16:-1 17:-1 18:-1 19:-1 20:-1 21:-0.875 22:-0.935345 23:-0.985468 24:-0.981429 25:-0.940299 26:-0.977419 27:-0.892216 28:-0.956233 29:-0.936261 30:-0.988863 31:-0.208075 32:-0.98454 33:-0.983193 34:-1 35:-1 36:-1 37:-1 38:-1 39:-0.920792 40:-0.877551 41:-1 42:-0.883721 43:-1 44:-0.0931677 45:-0.87963 
2 1:-0.817366 2:-0.860177 3:-1 4:-1 5:-0.840894 6:0.785262 7:-0.799795 8:-1 9:-1 10:-1 11:-0.799795 12:-1 13:-0.496279 14:-0.952149 15:-1 16:-1 17:-1 18:-1 19:-1 20:-1 21:-0.75 22:-1 23:-0.998323 24:-0.998968 25:-1 26:-0.993548 27:-1 28:-0.998503 29:-0.997167 30:-0.998462 31:0.0119048 32:-0.996105 33:-1 34:-1 35:-1 36:-1 37:-1 38:-1 39:-1 40:-0.986395 41:-1 42:-1 43:-1 44:0.390476 45:-0.990741 
2 1:-0.863069 2:-0.792531 3:-0.163498 4:-0.163498 5:-0.89123 6:0.784757 7:-0.862775 8:-0.483871 9:-0.483871 10:-1 11:-0.862775 12:-1 13:-0.80758 14:-0.54841 15:-0.995756 16:-0.944554 17:-0.995756 18:-1 19:-1 20:-1 21:-0.3125 22:-0.560345 23:-0.851775 24:-0.842662 25:-0.58209 26:-0.729032 27:-0.688623 28:-0.919303 29:-0.498584 30:-0.895088 31:-0.307344 32:-0.904078 33:-0.831933 34:-1 35:-0.733333 36:-0.428571 37:-0.407407 38:-1 39:0.049505 40:-0.591837 41:-1 42:-0.534884 43:-1 44:-0.0717103 45:-0.393519 
2 1:-0.911054 2:-0.846328 3:-0.969582 4:-0.969582 5:-0.94265 6:0.875614 7:-0.90761 8:-0.935484 9:-0.935484 10:-1 11:-0.90761 12:-1 13:-0.748666 14:-0.830788 15:-0.999218 16:-0.925166 17:-0.999218 18:-1 19:-1 20:-1 21:-0.625 22:-0.931034 23:-0.979958 24:-0.97885 25:-0.761194 26:-0.906452 27:-0.94012 28:-0.982179 29:-0.898017 30:-0.984379 31:-0.459393 32:-0.971759 33:-0.865546 34:-1 35:-0.933333 36:-1 37:-0.777778 38:-1 39:-0.90099 40:-0.945578 41:-1 42:-0.953488 43:-1 44:-0.0857143 45:-0.810185 
2 1:-0.895149 2:-0.814551 3:-0.809886 4:-0.809886 5:-0.925145 6:0.832654 7:-0.89785 8:-0.967742 9:-0.967742 10:-1 11:-0.89785 12:-1 13:-0.720386 14:-0.821618 15:-0.999553 16:-0.963317 17:-0.999553 18:-1 19:-1 20:-1 21:-0.4375 22:-0.853448 23:-0.976601 24:-0.977818 25:-0.761194 26:-0.945161 27:-0.916168 28:-0.984274 29:-0.890935 30:-0.982721 31:-0.494048 32:-0.963725 33:-0.915966 34:-1 35:-1 36:-1 37:-0.851852 38:-1 39:-0.920792 40:-0.85034 41:-1 42:-0.976744 43:-1 44:0.0161172 45:-0.861111 
-2 1:-0.925732 2:-0.850443 3:-0.984791 4:-0.984791 5:-0.956844 6:0.886316 7:-0.946185 8:-1 9:-1 10:-1 11:-0.946185 12:-1 13:-0.341717 14:-0.947437 15:-1 16:-1 17:-1 18:-1 19:-1 20:-1 21:-0.6875 22:-1 23:-0.997801 24:-0.997937 25:-1 26:-1 27:-1 28:-0.998282 29:-0.985836 30:-0.998187 31:-0.172078 32:-0.995618 33:-1 34:-1 35:-1 36:-1 37:-1 38:-1 39:-1 40:-1 41:-1 42:-1 43:-1 44:0.137662 45:-0.981481 
-2 1:-0.875539 2:-0.812909 3:-1 4:-1 5:-0.889202 6:0.772259 7:-0.864597 8:-0.935484 9:-0.935484 10:-1 11:-0.864597 12:-1 13:-0.747554 14:-0.853409 15:-0.998325 16:-0.801763 17:-0.998325 18:-1 19:-1 20:-1 21:-0.5625 22:-0.991379 23:-0.983829 24:-0.973691 25:-1 26:-0.977419 27:-1 28:-0.986393 29:-0.941926 30:-0.988111 31:-0.277211 32:-0.977845 33:-0.966387 34:-1 35:-0.933333 36:-1 37:-1 38:-1 39:-0.960396 40:-0.945578 41:-1 42:-0.976744 43:-1 44:0.142177 45:-0.99537 
-2 1:-0.92944 2:-0.889492 3:-1 4:-1 5:-0.956145 6:0.912666 7:-0.929803 8:-1 9:-1 10:-1 11:-0.929803 12:-1 13:-0.708624 14:-0.917667 15:-1 16:-1 17:-1 18:-1 19:-1 20:-1 21:-1 22:-0.961207 23:-0.995303 24:-0.995873 25:-1 26:-0.983871 27:-0.976048 28:-1 29:-0.974504 30:-0.995946 31:-0.680451 32:-0.99014 33:-0.966387 34:-1 35:-1 36:-1 37:-1 38:-1 39:-0.960396 40:-1 41:-1 42:-1 43:-1 44:-0.121805 45:-0.949074 
