svm_type epsilon_svr
kernel_type rbf
gamma 0.125
nr_class 2
total_sv 2365
rho -1.96422
SV
8 1:-0.911207 2:-0.988701 3:-1 4:-0.9955 5:-0.833585 6:-1 7:-1 8:-1 9:-0.988651 10:-1 11:-0.945397 12:0.871276 13:-0.927348 14:-1 15:-1 16:-1 17:-1 18:-0.990323 19:-1 21:-0.965379 22:0.302682 23:-0.992453 24:-1 25:-0.927348 26:-1 27:-0.999403 29:-0.975697 30:-0.989422 31:-0.995736 32:-0.987761 33:-0.797624 34:-0.987761 35:-0.994413 36:-0.924404 37:-1 38:-1 39:-1 40:-1 41:-0.94958 42:-1 43:-1 44:-1 45:-1 46:-1 47:-1 48:-0.986395 49:-1 50:-0.976744 51:-1 52:-0.304762 53:-1 54:-1 55:-0.979275 56:-0.916667 57:-0.991031 58:-0.99653 
-8 1:-0.919946 2:-0.992864 3:-0.99569 4:-0.997541 5:-0.802689 6:-0.992395 7:-0.929195 8:-0.992395 9:-0.996905 10:-1 11:-0.954356 12:0.824372 13:-0.942368 14:-1 15:-1 16:-1 17:-1 18:-0.996774 19:-1 21:-0.976032 22:0.274363 23:-0.994522 24:-1 25:-0.942368 26:-1 27:-1 29:-0.968549 30:-0.996588 31:-0.982942 32:-0.985722 33:-0.583896 34:-0.985722 35:-1 36:-0.949236 37:-1 38:-1 39:-1 40:-1 41:-1 42:-1 43:-1 44:-1 45:-0.925926 46:-1 47:-0.980198 48:-0.945578 49:-1 50:-1 51:-1 52:-0.00248447 53:-1 54:-1 55:-0.968912 56:-1 57:-0.977578 58:-0.998295 
8 1:-0.913253 2:-0.935772 3:-0.926724 4:-0.979882 5:-0.845029 6:-0.992395 7:-0.990679 8:-0.992395 9:-0.972659 10:-0.880597 11:-0.941943 12:0.867997 13:-0.915709 14:-1 15:-1 16:-1 17:-1 18:-0.964516 19:-0.964072 21:-0.848202 22:0.133333 23:-0.982593 24:-1 25:-0.915709 26:-1 27:-0.983657 29:-0.89421 30:-0.948132 31:-0.948827 32:-0.883733 33:-0.55397 34:-0.883733 35:-0.888268 36:-0.832419 37:-0.997934 38:-0.802958 39:-0.997934 40:-1 41:-0.932773 42:-1 43:-0.933333 44:-1 45:-1 46:-1 47:-0.940594 48:-0.931973 49:-1 50:-0.976744 51:-1 52:0.0567619 53:-1 54:-1 55:-0.896373 56:-0.416667 57:-0.896861 58:-0.984665 
-8 1:-0.931605 2:-0.999405 3:-1 4:-0.99992 5:-0.833961 6:-1 7:-1 8:-1 9:-1 10:-1 11:-0.939982 12:0.80432 13:-0.953079 14:-1 15:-1 16:-1 17:-1 18:-1 19:-1 21:-0.997337 22:-1 23:-0.998418 24:-1 25:-0.953079 26:-1 27:-1 29:-0.99857 30:-0.999659 31:-1 32:-0.99694 33:-0.200616 34:-0.99694 35:-1 36:-0.987687 37:-1 38:-1 39:-1 40:-1 41:-1 42:-1 43:-1 44:-1 45:-1 46:-1 47:-1 48:-1 49:-1 50:-1 51:-1 52:-1 53:-1 54:-1 55:-1 56:-1 57:-1 58:-0.999821 
8 1:-0.929337 2:-0.992269 3:-1 4:-0.996985 5:-0.844219 6:-1 7:-1 8:-1 9:-0.995873 10:-1 11:-0.956148 12:0.869103 13:-0.942398 14:-1 15:-1 16:-1 17:-1 18:-1 19:-0.988024 21:-0.976032 22:-0.137931 23:-0.99367 24:-1 25:-0.942398 26:-1 27:-0.999031 29:-0.977127 30:-0.990787 31:-0.997868 32:-0.980622 33:-0.532355 34:-0.980622 35:-0.994413 36:-0.93862 37:-1 38:-1 39:-1 40:-1 41:-1 42:-1 43:-1 44:-1 45:-1 46:-1 47:-1 48:-1 49:-1 50:-1 51:-1 52:0.104202 53:-1 54:-1 55:-0.979275 56:-0.916667 57:-0.977578 58:-0.997615 
-8 1:-0.875551 2:-0.808504 3:-0.344828 4:-0.917531 5:-0.829394 6:-0.657795 7:-0.896847 8:-0.657795 9:-0.87155 10:-0.462687 11:-0.906633 12:0.832966 13:-0.86565 14:-0.83871 15:-0.961732 16:-0.83871 17:-0.83871 18:-0.696774 19:-0.760479 21:-0.51265 22:0.129521 23:-0.941692 24:-1 25:-0.86565 26:-1 27:-0.928799 29:-0.708363 30:-0.776147 31:-0.697228 32:-0.780724 33:-0.793121 34:-0.780724 35:-0.530726 36:-0.65254 37:-0.996649 38:-0.921417 39:-0.996649 40:-1 41:-0.798319 42:-1 43:-0.933333 44:-0.714286 45:-0.555556 46:-1 47:-0.722772 48:-0.823129 49:-1 50:-0.790698 51:-1 52:0.159861 53:-1 54:-1 55:-0.549223 56:-0.416667 57:-0.529148 58:-0.937218 
8 1:-0.903328 2:-0.850134 3:-0.801724 4:-0.951822 5:-0.835054 6:-0.589354 7:-0.788508 8:-0.589354 9:-0.938612 10:-0.820896 11:-0.924081 12:0.83111 13:-0.892343 14:-0.806452 15:-0.921539 16:-0.806452 17:-0.806452 18:-0.887097 19:-0.916168 21:-0.693742 22:0.0609266 23:-0.971394 24:-1 25:-0.892343 26:-1 27:-0.961014 29:-0.768406 30:-0.87886 31:-0.863539 32:-0.848037 33:-0.75504 34:-0.848037 35:-0.877095 36:-0.736984 37:-0.999665 38:-0.986574 39:-0.999665 40:-1 41:-0.747899 42:-1 43:-0.866667 44:-1 45:-1 46:-1 47:-0.841584 48:-0.836735 49:-1 50:-0.953488 51:-1 52:0.0748466 53:-1 54:-1 55:-0.772021 56:-0.416667 57:-0.58296 58:-0.963487 
6.017959083064546 1:-0.907205 2:-0.851918 3:-0.525862 4:-0.93029 5:-0.829071 6:-0.885932 7:-0.959342 8:-0.885932 9:-0.887026 10:-0.343284 11:-0.938573 12:0.857117 13:-0.905677 14:-0.806452 15:-0.945699 16:-0.806452 17:-0.806452 18:-0.864516 19:-0.664671 21:-0.47004 22:0.101978 23:-0.960316 24:-1 25:-0.905677 26:-1 27:-0.952665 29:-0.632595 30:-0.803447 31:-0.782516 32:-0.901071 33:-0.889634 34:-0.901071 35:-0.687151 36:-0.684258 37:-1 38:-1 39:-1 40:-1 41:-0.764706 42:-0.875 43:-0.8 44:-1 45:-0.851852 46:-0.176471 47:-0.70297 48:-0.795918 49:-0.176471 50:-0.627907 51:-1 52:0.0186047 53:-1 54:-1 55:-0.559585 56:-0.25 57:-0.587444 58:-0.947914 
-8 1:-0.945066 2:-0.957181 3:-0.965517 4:-0.989245 5:-0.911788 6:-1 7:-1 8:-1 9:-0.989167 10:-0.940299 11:-0.964588 12:0.923012 13:-0.913434 14:-1 15:-1 16:-1 17:-1 18:-0.974194 19:-0.988024 21:-0.912117 22:0.0344828 23:-0.983201 24:-1 25:-0.913434 26:-1 27:-0.981569 29:-0.92852 30:-0.969289 31:-0.974414 32:-0.968383 33:-0.775217 34:-0.968383 35:-0.972067 36:-0.86712 37:-0.999442 38:-0.901304 39:-0.999442 40:-1 41:-0.89916 42:-1 43:-1 44:-0.714286 45:-0.925926 46:-0.882353 47:-0.960396 48:-1 49:-0.882353 50:-0.953488 51:-1 52:0.0633053 53:-1 54:-1 55:-0.932642 56:-0.75 57:-0.910314 58:-0.990127 
8 1:-0.90213 2:-0.805531 3:-0.87931 4:-0.952957 5:-0.846165 6:-0.939163 7:-0.967916 8:-0.939163 9:-0.927779 10:-0.820896 11:-0.936583 12:0.876948 13:-0.903637 14:-0.677419 15:-0.866092 16:-0.677419 17:-0.677419 18:-0.887097 19:-0.94012 21:-0.645806 22:0.231034 23:-0.966403 24:-1 25:-0.903637 26:-1 27:-0.965855 29:-0.786991 30:-0.863846 31:-0.880597 32:-0.809281 33:-0.685186 34:-0.809281 35:-0.899441 36:-0.736674 37:-0.995979 38:-0.835015 39:-0.995979 40:-1 41:-0.630252 42:-1 43:-0.933333 44:-1 45:-0.481481 46:-0.882353 47:-0.782178 48:-0.85034 49:-0.882353 50:-0.837209 51:-1 52:-0.0405714 53:-1 54:-1 55:-0.595855 56:-0.333333 57:-0.713004 58:-0.963404 
-8 1:-0.897065 2:-0.972643 3:-0.969828 4:-0.991042 5:-0.863805 6:-0.992395 7:-0.979344 8:-0.992395 9:-0.985556 10:-0.970149 11:-0.935808 12:0.899393 13:-0.899192 14:-1 15:-1 16:-1 17:-1 18:-0.980645 19:-0.94012 21:-0.936085 22:0.240053 23:-0.980767 24:-1 25:-0.899192 26:-1 27:-0.998224 29:-0.96426 30:-0.968947 31:-0.927505 32:-0.972463 33:-0.765885 34:-0.972463 35:-0.960894 36:-0.886183 37:-1 38:-1 39:-1 40:-1 41:-0.983193 42:-1 43:-1 44:-1 45:-1 46:-1 47:-0.920792 48:-0.945578 49:-1 50:-0.953488 51:-1 52:-0.0373626 53:-1 54:-1 55:-0.88601 56:-0.916667 57:-0.93722 58:-0.992619 
5.269644789448292 1:-0.857973 2:-0.559322 3:-0.24569 4:-0.878937 5:-0.791389 6:-0.498099 7:-0.896853 8:-0.498099 9:-0.867423 10:-0.164179 11:-0.896091 12:0.806625 13:-0.860573 14:-0.741935 15:-0.958255 16:-0.741935 17:-0.741935 18:-0.632258 19:-0.712575 21:-0.315579 22:0.191392 23:-0.946439 24:-1 25:-0.860573 26:-1 27:-0.928266 29:-0.604003 30:-0.675141 31:-0.443497 32:-0.608363 33:-0.748085 34:-0.608363 35:-0.167598 36:-0.591461 37:-0.995867 38:-0.933923 39:-0.995867 40:-1 41:-0.478992 42:-1 43:-0.533333 44:-0.714286 45:-0.259259 46:-0.764706 47:-0.445545 48:-0.605442 49:-0.882353 50:-0.44186 51:-1 52:0.0203494 53:-1 54:-1 55:-0.176166 56:-0.166667 57:-0.215247 58:-0.91381 
-5.446606342455722 1:-0.914711 2:-0.785311 3:-0.698276 4:-0.945528 5:-0.845282 6:-0.558935 7:-0.798984 8:-0.558935 9:-0.952025 10:-0.641791 11:-0.942042 12:0.86544 13:-0.90619 14:-0.83871 15:-0.94214 16:-0.83871 17:-0.83871 18:-0.893548 19:-0.856287 21:-0.58988 22:0.353859 23:-0.969811 24:-1 25:-0.90619 26:-1 27:-0.967965 29:-0.701215 30:-0.846443 31:-0.795309 32:-0.849057 33:-0.784685 34:-0.849057 35:-0.782123 36:-0.71728 37:-0.996984 38:-0.893069 39:-0.996984 40:-1 41:-0.613445 42:-1 43:-0.933333 44:-1 45:-0.851852 46:-1 47:-0.90099 48:-0.768707 49:-1 50:-0.906977 51:-1 52:-0.155782 53:-1 54:-1 55:-0.663212 56:-0.166667 57:-0.672646 58:-0.95799 
8 1:-0.868996 2:-0.941719 3:-0.939655 4:-0.982167 5:-0.832618 6:-0.954373 7:-0.936997 8:-0.954373 9:-0.975239 10:-0.970149 11:-0.904594 12:0.842325 13:-0.871571 14:-1 15:-1 16:-1 17:-1 18:-0.964516 19:-0.892216 21:-0.893475 22:-0.162562 23:-0.982349 24:-1 25:-0.871571 26:-1 27:-0.982239 29:-0.941387 30:-0.951544 31:-0.8742 32:-0.957165 33:-0.814872 34:-0.957165 35:-0.882682 36:-0.840959 37:-1 38:-1 39:-1 40:-1 41:-0.94958 42:-1 43:-1 44:-1 45:-1 46:-1 47:-0.940594 48:-0.959184 49:-1 50:-0.976744 51:-1 52:0.340816 53:-1 54:-1 55:-0.917098 56:-0.5 57:-0.928251 58:-0.98612 
-8 1:-0.869812 2:-0.711567 3:-0.780172 4:-0.915952 5:-0.828369 6:-0.984791 7:-0.995501 8:-0.984791 9:-0.872582 10:-0.880597 11:-0.901672 12:0.829462 13:-0.873058 14:-0.870968 15:-0.969959 16:-0.870968 17:-0.870968 18:-0.822581 19:-0.688623 21:-0.509987 22:0.0671972 23:-0.963847 24:-1 25:-0.873058 26:-1 27:-0.928983 29:-0.722659 30:-0.800375 31:-0.835821 32:-0.655278 33:-0.680861 34:-0.655278 35:-0.614525 36:-0.652033 37:-0.996593 38:-0.921604 39:-0.996593 40:-1 41:-0.176471 42:-1 43:-0.933333 44:-1 45:-0.777778 46:-1 47:-0.841584 48:-0.795918 49:-1 50:-0.837209 51:-1 52:0.112381 53:-1 54:-1 55:-0.528497 56:-0.416667 57:-0.64574 58:-0.937039 
-8 1:-0.935649 2:-0.85727 3:-0.87069 4:-0.961891 5:-0.881972 6:-0.961977 7:-0.975273 8:-0.961977 9:-0.943771 10:-0.850746 11:-0.966044 12:0.919515 13:-0.930717 14:-0.83871 15:-0.917438 16:-0.83871 17:-0.83871 18:-0.887097 19:-0.724551 21:-0.637816 22:0.0565357 23:-0.974194 24:-1 25:-0.930717 26:-1 27:-0.969208 29:-0.75554 30:-0.886709 31:-0.628998 32:-0.885773 33:-0.767494 34:-0.885773 35:-0.731844 36:-0.757323 37:-0.99771 38:-0.884149 39:-0.99771 40:-1 41:-0.714286 42:-1 43:-0.866667 44:-0.714286 45:-0.851852 46:-0.764706 47:-0.742574 48:-0.741497 49:-0.764706 50:-0.790698 51:-1 52:-0.00564784 53:-1 54:-1 55:-0.704663 56:-0.416667 57:-0.784753 58:-0.968758 
-8 1:-0.909161 2:-0.811478 3:-0.875 4:-0.945367 5:-0.867941 6:-0.977186 7:-0.989633 8:-0.977186 9:-0.932938 10:-0.880597 11:-0.949185 12:0.915744 13:-0.918205 14:-0.83871 15:-0.94231 16:-0.83871 17:-0.83871 18:-0.909677 19:-0.700599 21:-0.584554 22:0.232367 23:-0.967864 24:-1 25:-0.918205 26:-1 27:-0.971815 29:-0.749821 30:-0.79628 31:-0.641791 32:-0.867415 33:-0.811427 34:-0.867415 35:-0.748603 36:-0.709416 37:-0.994918 38:-0.82033 39:-0.994918 40:-1 41:-0.882353 42:-1 43:-1 44:-1 45:-1 46:-0.764706 47:-0.722772 48:-0.809524 49:-0.764706 50:-0.790698 51:-1 52:0.0191558 53:-1 54:-1 55:-0.502591 56:-0.166667 57:-0.600897 58:-0.955689 
8 1:-0.894398 2:-0.729408 3:-0.767241 4:-0.922908 5:-0.840106 6:-0.756654 7:-0.921545 8:-0.756654 9:-0.906113 10:-0.820896 11:-0.925198 12:0.856106 13:-0.895137 14:-0.83871 15:-0.95907 16:-0.83871 17:-0.83871 18:-0.880645 19:-0.700599 21:-0.491345 22:0.011596 23:-0.956543 24:-1 25:-0.895137 26:-1 27:-0.949025 29:-0.678342 30:-0.799693 31:-0.556503 32:-0.713412 33:-0.710808 34:-0.713412 35:-0.49162 36:-0.66359 37:-0.99274 38:-0.817895 39:-0.99274 40:-1 41:-0.663866 42:-1 43:-1 44:-1 45:-0.925926 46:-0.882353 47:-0.80198 48:-0.863946 49:-0.764706 50:-0.837209 51:-1 52:0.144374 53:-1 54:-1 55:-0.419689 56:-0.25 57:-0.654709 58:-0.941057 
-3.755981931699716 1:-0.885668 2:-0.438596 3:-0.530172 4:-0.848194 5:-0.842508 6:-1 7:-1 8:-1 9:-0.824091 10:-0.701493 11:-0.925852 12:0.876619 13:-0.8918 14:-1 15:-1 16:-1 17:-1 18:-0.787097 19:-0.0299401 21:0.0332889 22:0.0473175 23:-0.941205 24:-1 25:-0.8918 26:-1 27:-0.999467 29:-0.425304 30:-0.487801 31:0.396588 32:-0.872514 33:-0.934579 34:-0.872514 35:-0.223464 36:-0.521046 37:-0.999553 38:-0.994301 39:-0.999553 40:-1 41:-0.579832 42:-0.875 43:-1 44:-0.714286 45:-0.851852 46:0.0588235 47:0.584158 48:-0.142857 49:0.0588235 50:0.348837 51:-0.666667 52:0.117901 53:-1 54:-1 55:0.471503 56:-0.916667 57:-0.0762332 58:-0.882234 
-8 1:-0.893122 2:-0.950045 3:-0.978448 4:-0.984816 5:-0.842596 6:-0.969582 7:-0.950775 8:-0.969582 9:-0.97885 10:-0.970149 11:-0.915158 12:0.833439 13:-0.872313 14:-1 15:-1 16:-1 17:-1 18:-0.993548 19:-0.952096 21:-0.901465 22:-0.134013 23:-0.979428 24:-1 25:-0.872313 26:-1 27:-0.985163 29:-0.938528 30:-0.958028 31:-0.942431 32:-0.923508 33:-0.612571 34:-0.923508 35:-0.972067 36:-0.854108 37:-0.997654 38:-0.70469 39:-0.997654 40:-1 41:-0.94958 42:-1 43:-1 44:-1 45:-1 46:-1 47:-0.920792 48:-0.972789 49:-1 50:-0.976744 51:-1 52:0.137662 53:-1 54:-1 55:-0.860104 56:-0.5 57:-0.914798 58:-0.988219 
8 1:-0.908329 2:-0.862028 3:-0.775862 4:-0.958511 5:-0.841825 6:-0.847909 7:-0.909108 8:-0.847909 9:-0.956668 10:-0.850746 11:-0.947498 12:0.890357 13:-0.912974 14:-0.903226 15:-0.954478 16:-0.903226 17:-0.903226 18:-0.790323 19:-0.856287 21:-0.667111 22:-0.0229885 23:-0.970542 24:-1 25:-0.912974 26:-1 27:-0.975514 29:-0.791279 30:-0.88432 31:-0.780384 32:-0.879653 33:-0.774894 34:-0.879653 35:-0.815642 36:-0.75475 37:-0.999553 38:-0.979227 39:-0.999553 40:-1 41:-0.663866 42:-1 43:-1 44:-0.714286 45:-0.62963 46:-0.882353 47:-0.742574 48:-0.714286 49:-1 50:-0.744186 51:-1 52:0.092517 53:-1 54:-1 55:-0.554404 56:-0.166667 57:-0.798206 58:-0.968114 
-8 1:-0.905352 2:-0.981564 3:-0.943966 4:-0.992766 5:-0.814005 6:-0.977186 7:-0.923693 8:-0.977186 9:-0.990199 10:-1 11:-0.925949 12:0.812991 13:-0.888769 14:-1 15:-1 16:-1 17:-1 18:-0.977419 19:-1 21:-0.941411 22:-0.0903686 23:-0.98941 24:-1 25:-0.888769 26:-1 27:-0.991504 29:-0.959971 30:-0.983962 31:-0.978678 32:-0.959204 33:-0.572919 34:-0.959204 35:-0.994413 36:-0.904344 37:-0.999777 38:-0.941869 39:-0.999777 40:-1 41:-0.983193 42:-1 43:-1 44:-1 45:-0.925926 46:-1 47:-0.920792 48:-1 49:-1 50:-0.976744 51:-1 52:0.00689655 53:-1 54:-1 55:-0.963731 56:-0.666667 57:-0.964126 58:-0.994658 
8 1:-0.896821 2:-0.951829 3:-0.87931 4:-0.981926 5:-0.837774 6:-0.931559 7:-0.906742 8:-0.931559 9:-0.973175 10:-0.731343 11:-0.928358 12:0.857979 13:-0.894436 14:-1 15:-1 16:-1 17:-1 18:-0.958065 19:-0.892216 21:-0.896138 22:0.256158 23:-0.975046 24:-1 25:-0.894436 26:-1 27:-0.96459 29:-0.921372 30:-0.95052 31:-0.799574 32:-0.970423 33:-0.873861 34:-0.970423 35:-0.843575 36:-0.840529 37:-1 38:-1 39:-1 40:-1 41:-0.932773 42:-1 43:-0.933333 44:-1 45:-0.851852 46:-0.882353 47:-0.782178 48:-0.918367 49:-1 50:-0.860465 51:-1 52:0.0428571 53:-1 54:-1 55:-0.834197 56:-0.75 57:-0.847534 58:-0.986048 
-8 1:-0.882016 2:-0.812073 3:-0.840517 4:-0.947125 5:-0.821729 6:-1 7:-1 8:-1 9:-0.902502 10:-0.522388 11:-0.909953 12:0.823387 13:-0.87716 14:-0.903226 15:-0.96424 16:-0.903226 17:-0.903226 18:-0.829032 19:-0.868263 21:-0.645806 22:0.114619 23:-0.972855 24:-1 25:-0.87716 26:-1 27:-0.939397 29:-0.798427 30:-0.87613 31:-0.891258 32:-0.859255 33:-0.793195 34:-0.859255 35:-0.787709 36:-0.727665 37:-0.995421 38:-0.83274 39:-0.995421 40:-1 41:-0.394958 42:-1 43:-1 44:-0.428571 45:-0.62963 46:-1 47:-0.861386 48:-0.85034 49:-1 50:-0.976744 51:-1 52:0.0428571 53:-1 54:-1 55:-0.772021 56:-0.583333 57:-0.73991 58:-0.960935 
-8 1:-0.914326 2:-0.960749 3:-0.969828 4:-0.989871 5:-0.848888 6:-0.969582 7:-0.926725 8:-0.969582 9:-0.988651 10:-1 11:-0.947542 12:0.884401 13:-0.909687 14:-0.870968 15:-0.755343 16:-0.870968 17:-0.870968 18:-0.977419 19:-0.964072 21:-0.930759 22:0.27763 23:-0.988801 24:-1 25:-0.909687 26:-1 27:-0.991855 29:-0.945675 30:-0.971677 31:-0.965885 32:-0.947986 33:-0.60783 34:-0.947986 35:-0.98324 36:-0.88089 37:-0.999888 38:-0.979067 39:-0.999888 40:-1 41:-1 42:-1 43:-1 44:-1 45:-1 46:-0.882353 47:-0.881188 48:-0.959184 49:-0.882353 50:-0.930233 51:-1 52:0.0161172 53:-1 54:-1 55:-0.891192 56:-0.666667 57:-0.932735 58:-0.991963 
-8 1:-0.900071 2:-0.924472 3:-0.896552 4:-0.968354 5:-0.849471 6:-0.749049 7:-0.803699 8:-0.749049 9:-0.958731 10:-0.880597 11:-0.931911 12:0.871119 13:-0.902978 14:-0.967742 15:-0.980139 16:-0.967742 17:-0.967742 18:-0.929032 19:-0.844311 21:-0.79494 22:-0.132653 23:-0.963968 24:-1 25:-0.902978 26:-1 27:-0.978964 29:-0.86133 30:-0.936188 31:-0.84435 32:-0.859255 33:-0.655415 34:-0.859255 35:-0.865922 36:-0.7837 37:-0.999665 38:-0.979608 39:-0.999665 40:-1 41:-0.831933 42:-1 43:-0.866667 44:-1 45:-0.851852 46:-1 47:-0.940594 48:-0.836735 49:-1 50:-0.860465 51:-0.666667 52:0.276968 53:-1 54:-1 55:-0.792746 56:-0.25 57:-0.860987 58:-0.974982 
8 1:-0.910463 2:-0.835266 3:-0.827586 4:-0.931199 5:-0.834001 6:-0.353612 7:-0.766571 8:-0.353612 9:-0.91643 10:-0.820896 11:-0.940222 12:0.859205 13:-0.918146 14:-0.967742 15:-0.990831 16:-0.967742 17:-0.967742 18:-0.909677 19:-0.844311 21:-0.592543 22:0.0596817 23:-0.93451 24:-1 25:-0.918146 26:-1 27:-0.962555 29:-0.629736 30:-0.83484 31:-0.744136 32:-0.871494 33:-0.85475 34:-0.871494 35:-0.849162 36:-0.686229 37:-0.994639 38:-0.849369 39:-0.994639 40:-1 41:-0.865546 42:-1 43:-0.933333 44:-1 45:-0.925926 46:-0.882353 47:-0.683168 48:-0.795918 49:-0.764706 50:-0.930233 51:-1 52:0.179231 53:-1 54:-1 55:-0.766839 56:-0.166667 57:-0.816143 58:-0.948546 
8 1:-0.891922 2:-0.70562 3:-0.612069 4:-0.897403 5:-0.81153 6:-0.825095 7:-0.957599 8:-0.825095 9:-0.862265 10:-0.61194 11:-0.927423 12:0.842709 13:-0.898181 14:-0.709677 15:-0.944602 16:-0.709677 17:-0.709677 18:-0.806452 19:-0.60479 21:-0.379494 22:0.208488 23:-0.944492 24:-1 25:-0.898181 26:-1 27:-0.933107 29:-0.536812 30:-0.710288 31:-0.134328 32:-0.856196 33:-0.890887 34:-0.856196 35:-0.536313 36:-0.621494 37:-0.995253 38:-0.910468 39:-0.995253 40:-1 41:-0.764706 42:-1 43:-0.866667 44:-0.714286 45:-0.703704 46:-0.764706 47:-0.663366 48:-0.727891 49:-1 50:-0.651163 51:-1 52:0.0460659 53:-1 54:-1 55:-0.15544 56:-0.25 57:-0.659193 58:-0.925782 
8 1:-0.903945 2:-0.954208 3:-0.987069 4:-0.983401 5:-0.864727 6:-0.984791 7:-0.977459 8:-0.984791 9:-0.975754 10:-0.940299 11:-0.92987 12:0.870848 13:-0.898786 14:-1 15:-1 16:-1 17:-1 18:-0.983871 19:-0.94012 21:-0.87217 22:0.0344828 23:-0.982593 24:-1 25:-0.898786 26:-1 27:-0.988872 29:-0.92852 30:-0.934823 31:-0.8742 32:-0.885773 33:-0.470122 34:-0.885773 35:-0.96648 36:-0.843563 37:-0.998436 38:-0.819692 39:-0.998436 40:-1 41:-1 42:-1 43:-1 44:-1 45:-1 46:-1 47:-0.90099 48:-0.85034 49:-1 50:-1 51:-1 52:-0.0184874 53:-1 54:-1 55:-0.932642 56:-0.416667 57:-0.865471 58:-0.986549 
-8 1:-0.86991 2:-0.998216 3:-0.991379 4:-0.998795 5:-0.908675 6:-0.977186 7:-0.600365 8:-0.977186 9:-0.998968 10:-1 11:-0.886336 12:0.851398 13:-0.867216 14:-1 15:-1 16:-1 17:-1 18:-0.993548 19:-0.988024 21:-0.994674 22:-0.0229885 23:-0.996957 24:-1 25:-0.867216 26:-1 27:-0.997821 29:-0.997141 30:-0.99727 31:-0.993603 32:-0.988781 33:-0.384902 34:-0.988781 35:-0.988827 36:-0.957528 37:-0.999665 38:-0.543331 39:-0.999665 40:-1 41:-1 42:-1 43:-1 44:-1 45:-1 46:-1 47:-1 48:-1 49:-1 50:-1 51:-1 52:0.390476 53:-1 54:-1 55:-1 56:-0.833333 57:-0.991031 58:-0.998748 
8 1:0.68851 2:0.0454951 3:-0.719828 4:0.436271 5:-0.8906 6:-0.984791 7:-0.999736 8:-0.984791 9:0.273665 10:-0.850746 11:0.685358 12:-0.687649 13:0.694041 14:-1 15:-1 16:-1 17:-1 18:0.374194 19:-0.233533 21:-0.446072 22:-0.264757 23:0.735119 24:-1 25:0.694041 26:-1 27:0.485062 29:-0.5797 30:0.179662 31:-0.710021 32:-0.153493 33:-0.954028 34:-0.153493 35:-0.642458 36:0.712978 37:0.426784 38:0.92606 39:0.426784 40:-1 41:-0.966387 42:-1 43:-0.933333 44:-1 45:-1 46:-0.882353 47:-0.980198 48:-0.904762 49:-0.882353 50:-1 51:-1 52:0.562518 53:-1 54:-1 55:0.0932642 56:-0.5 57:-0.860987 58:0.469217 
-8 1:-0.89955 2:-0.986322 3:-1 4:-0.99516 5:-0.80317 6:-0.977186 7:-0.887577 8:-0.977186 9:-0.99381 10:-0.970149 11:-0.919787 12:0.798734 13:-0.874502 14:-1 15:-1 16:-1 17:-1 18:-0.990323 19:-0.988024 21:-0.968043 22:0.0798548 23:-0.992209 24:-1 25:-0.874502 26:-1 27:-0.991524 29:-0.974267 30:-0.983621 31:-0.987207 32:-0.966344 33:-0.480893 34:-0.966344 35:-0.988827 36:-0.923268 37:-1 38:-1 39:-1 40:-1 41:-1 42:-1 43:-1 44:-1 45:-1 46:-1 47:-0.980198 48:-0.986395 49:-1 50:-1 51:-1 52:0.0977444 53:-1 54:-1 55:-0.989637 56:-0.75 57:-0.973094 58:-0.996435 
8 1:-0.880682 2:-0.86738 3:-0.909483 4:-0.968123 5:-0.842538 6:-0.931559 7:-0.946849 8:-0.931559 9:-0.950477 10:-0.850746 11:-0.92071 12:0.872132 13:-0.88863 14:-0.967742 15:-0.980282 16:-0.967742 17:-0.967742 18:-0.922581 19:-0.916168 21:-0.813582 22:0.0493827 23:-0.967742 24:-1 25:-0.88863 26:-1 27:-0.972917 29:-0.885633 30:-0.903429 31:-0.865672 32:-0.920449 33:-0.806637 34:-0.920449 35:-0.882682 36:-0.784129 37:-0.999721 38:-0.983129 39:-0.999721 40:-1 41:-0.831933 42:-1 43:-1 44:-1 45:-1 46:-1 47:-0.821782 48:-0.891156 49:-1 50:-0.883721 51:-1 52:0.132981 53:-1 54:-1 55:-0.694301 56:-0.416667 57:-0.802691 58:-0.975078 
-2.801164706971315 1:-0.977074 2:-0.804341 3:-0.689655 4:-0.956504 5:-0.935376 6:-0.984791 7:-0.991328 8:-0.984791 9:-0.958215 10:-0.850746 11:-1 12:0.957176 13:-0.969621 14:-1 15:-1 16:-1 17:-1 18:-0.848387 19:-0.784431 21:-0.611185 22:-0.316562 23:-0.965551 24:-1 25:-0.969621 26:-1 27:-0.934446 29:-0.406719 30:-0.874083 31:-0.65032 32:-0.916369 33:-0.850753 34:-0.916369 35:-0.72067 36:-0.732329 37:-1 38:-1 39:-1 40:-1 41:-0.394958 42:-1 43:-0.866667 44:-1 45:-0.703704 46:-0.882353 47:-0.683168 48:-0.55102 49:-0.882353 50:-0.837209 51:-1 52:0.559272 53:-1 54:-1 55:-0.683938 56:-0.666667 57:-0.412556 58:-0.962223 
8 1:-0.914478 2:-0.775795 3:-0.676724 4:-0.932806 5:-0.863573 6:-0.977186 7:-0.991565 8:-0.977186 9:-0.915914 10:-0.552239 11:-0.942112 12:0.8823 13:-0.91452 14:-0.935484 15:-0.981224 16:-0.935484 17:-0.935484 18:-0.764516 19:-0.640719 21:-0.467377 22:0.182477 23:-0.957882 24:-1 25:-0.91452 26:-1 27:-0.943294 29:-0.668335 30:-0.820508 31:-0.486141 32:-0.842937 33:-0.81824 34:-0.842937 35:-0.603352 36:-0.681084 37:-0.993522 38:-0.813648 39:-0.993522 40:-1 41:-0.764706 42:-1 43:-0.733333 44:-1 45:-0.777778 46:-0.882353 47:-0.821782 48:-0.605442 49:-0.882353 50:-0.767442 51:-0.666667 52:-0.122747 53:-1 54:-1 55:-0.46114 56:-0.416667 57:-0.475336 58:-0.946888 
8 1:-0.873293 2:-0.953018 3:-0.974138 4:-0.983115 5:-0.846703 6:-0.954373 7:-0.933505 8:-0.954373 9:-0.988135 10:-0.940299 11:-0.894771 12:0.81901 13:-0.862026 14:-1 15:-1 16:-1 17:-1 18:-0.967742 19:-0.952096 21:-0.920107 22:-0.267241 23:-0.973463 24:-1 25:-0.862026 26:-1 27:-0.977471 29:-0.944246 30:-0.962464 31:-0.982942 32:-0.894952 33:-0.520839 34:-0.894952 35:-0.972067 36:-0.843636 37:-0.999442 38:-0.93668 39:-0.999442 40:-1 41:-0.932773 42:-1 43:-0.933333 44:-1 45:-1 46:-1 47:-0.980198 48:-1 49:-1 50:-1 51:-1 52:0.303571 53:-1 54:-1 55:-0.958549 56:-0.666667 57:-0.928251 58:-0.986561 
8 1:-0.900543 2:-0.980969 3:-0.978448 4:-0.994527 5:-0.828481 6:-0.91635 7:-0.633668 8:-0.91635 9:-0.994841 10:-0.970149 11:-0.925807 12:0.835688 13:-0.888834 14:-1 15:-1 16:-1 17:-1 18:-0.996774 19:-0.988024 21:-0.960053 22:0.23412 23:-0.992575 24:-1 25:-0.888834 26:-1 27:-0.995811 29:-0.974267 30:-0.987033 31:-0.976546 32:-0.956145 33:-0.398882 34:-0.956145 35:-0.977654 36:-0.915832 37:-0.999609 38:-0.866805 39:-0.999609 40:-1 41:-0.94958 42:-1 43:-1 44:-1 45:-1 46:-1 47:-1 48:-0.945578 49:-1 50:-1 51:-1 52:0.0977444 53:-1 54:-1 55:-0.968912 56:-0.833333 57:-0.973094 58:-0.995779 
8 1:-0.8999 2:-0.864407 3:-0.823276 4:-0.953004 5:-0.816904 6:-0.946768 7:-0.971898 8:-0.946768 9:-0.935001 10:-0.850746 11:-0.931458 12:0.842117 13:-0.887514 14:-0.903226 15:-0.959788 16:-0.903226 17:-0.903226 18:-0.890323 19:-0.832335 21:-0.685752 22:0.0365854 23:-0.965794 24:-1 25:-0.887514 26:-1 27:-0.955084 29:-0.766976 30:-0.872035 31:-0.752665 32:-0.929628 33:-0.883724 34:-0.929628 35:-0.782123 36:-0.745442 37:-0.99933 38:-0.972475 39:-0.99933 40:-1 41:-0.731092 42:-1 43:-0.8 44:-1 45:-0.777778 46:-1 47:-0.821782 48:-0.782313 49:-1 50:-0.860465 51:-1 52:0.0682927 53:-1 54:-1 55:-0.673575 56:-0.5 57:-0.681614 58:-0.965729 
-8 1:-0.902396 2:-0.832887 3:-0.814655 4:-0.963584 5:-0.869143 6:-0.840304 7:-0.891346 8:-0.840304 9:-0.951509 10:-0.910448 11:-0.934193 12:0.889219 13:-0.900379 14:-0.870968 15:-0.930898 16:-0.870968 17:-0.870968 18:-0.9 19:-0.844311 21:-0.744341 22:-0.0319519 23:-0.968351 24:-1 25:-0.900379 26:-1 27:-0.98341 29:-0.845604 30:-0.894898 31:-0.823028 32:-0.929628 33:-0.85014 34:-0.929628 35:-0.832402 36:-0.762352 37:-1 38:-1 39:-1 40:-1 41:-0.731092 42:-1 43:-0.933333 44:-1 45:-0.851852 46:-0.882353 47:-0.80198 48:-0.823129 49:-0.882353 50:-0.767442 51:-1 52:0.1481 53:-1 54:-1 55:-0.751295 56:0.0833333 57:-0.744395 58:-0.969998 
8 1:-0.902803 2:-0.861433 3:-0.767241 4:-0.949732 5:-0.865579 6:-0.878327 7:-0.93993 8:-0.878327 9:-0.935517 10:-0.701493 11:-0.938437 12:0.896984 13:-0.907015 14:-0.967742 15:-0.987465 16:-0.967742 17:-0.967742 18:-0.783871 19:-0.748503 21:-0.640479 22:-0.325091 23:-0.968594 24:-1 25:-0.907015 26:-1 27:-0.973969 29:-0.784132 30:-0.873742 31:-0.648188 32:-0.926568 33:-0.886531 34:-0.926568 35:-0.715084 36:-0.721146 37:-0.995588 38:-0.830538 39:-0.995588 40:-1 41:-0.781513 42:-1 43:-0.866667 44:-1 45:-0.703704 46:-0.882353 47:-0.841584 48:-0.755102 49:-0.882353 50:-0.906977 51:-1 52:0.399624 53:-1 54:-1 55:-0.564767 56:-0.0833333 57:-0.641256 58:-0.959099 
8 1:-0.922712 2:-0.986322 3:-1 4:-0.995817 5:-0.83039 6:-0.984791 7:-0.913864 8:-0.984791 9:-0.997421 10:-1 11:-0.954814 12:0.867204 13:-0.931043 14:-1 15:-1 16:-1 17:-1 18:-1 19:-0.988024 21:-0.968043 22:-0.0673981 23:-0.99294 24:-1 25:-0.931043 26:-1 27:-0.995734 29:-0.969979 30:-0.99181 31:-0.995736 32:-0.984702 33:-0.728823 34:-0.984702 35:-0.994413 36:-0.928209 37:-1 38:-1 39:-1 40:-1 41:-0.932773 42:-1 43:-1 44:-1 45:-1 46:-1 47:-1 48:-0.986395 49:-1 50:-1 51:-1 52:0.327273 53:-1 54:-1 55:-0.984456 56:-0.666667 57:-0.973094 58:-0.99684 
8 1:-0.88935 2:-0.793042 3:-0.818966 4:-0.9443 5:-0.868927 6:-0.961977 7:-0.983052 8:-0.961977 9:-0.931906 10:-0.61194 11:-0.919506 12:0.87397 13:-0.891752 14:-0.806452 15:-0.932093 16:-0.806452 17:-0.806452 18:-0.803226 19:-0.88024 21:-0.659121 22:-0.0765234 23:-0.916616 24:-1 25:-0.891752 26:-1 27:-0.963636 29:-0.792709 30:-0.845078 31:-0.769723 32:-0.790923 33:-0.70831 34:-0.790923 35:-0.726257 36:-0.703129 37:-0.997319 38:-0.907038 39:-0.997319 40:-1 41:-0.697479 42:-1 43:-0.8 44:-0.428571 45:-0.777778 46:-1 47:-0.861386 48:-0.823129 49:-0.882353 50:-0.883721 51:-1 52:0.242857 53:-1 54:-1 55:-0.65285 56:-0.25 57:-0.627803 58:-0.953805 
8 1:-0.888252 2:-0.914362 3:-0.926724 4:-0.96596 5:-0.872284 6:-0.977186 7:-0.983402 8:-0.977186 9:-0.977302 10:-0.970149 11:-0.926299 12:0.897148 13:-0.897376 14:-1 15:-1 16:-1 17:-1 18:-0.941935 19:-0.88024 21:-0.826897 22:-0.189288 23:-0.950456 24:-1 25:-0.897376 26:-1 27:-0.979215 29:-0.867048 30:-0.950862 31:-0.933902 32:-0.806221 33:-0.558725 34:-0.806221 35:-0.938547 36:-0.760406 37:-0.997654 38:-0.867229 39:-0.997654 40:-1 41:-0.89916 42:-1 43:-1 44:-1 45:-0.925926 46:-1 47:-0.960396 48:-0.986395 49:-1 50:-1 51:-1 52:0.442249 53:-1 54:-1 55:-0.937824 56:-0.25 57:-0.892377 58:-0.969521 
8 1:-0.955118 2:-0.998811 3:-1 4:-0.999361 5:-0.883804 6:-0.984791 7:-0.557576 8:-0.984791 9:-1 10:-1 11:-0.991915 12:0.929932 13:-0.962396 14:-1 15:-1 16:-1 17:-1 18:-1 19:-1 21:-0.992011 22:-0.633621 23:-0.997444 24:-1 25:-0.962396 26:-1 27:-0.997288 29:-0.989993 30:-0.997953 31:-1 32:-0.99592 33:-0.628569 34:-0.99592 35:-1 36:-0.972124 37:-1 38:-1 39:-1 40:-1 41:-1 42:-1 43:-1 44:-1 45:-1 46:-1 47:-1 48:-1 49:-1 50:-1 51:-1 52:0.0428571 53:-1 54:-1 55:-1 56:-0.916667 57:-1 58:-0.99938 
8 1:-0.912855 2:-0.825751 3:-0.75 4:-0.944438 5:-0.851489 6:-0.893536 7:-0.952428 8:-0.893536 9:-0.94893 10:-0.701493 11:-0.931567 12:0.846444 13:-0.898685 14:-0.935484 15:-0.977309 16:-0.935484 17:-0.935484 18:-0.883871 19:-0.856287 21:-0.645806 22:-0.07593 23:-0.93524 24:-1 25:-0.898685 26:-1 27:-0.976832 29:-0.711222 30:-0.855315 31:-0.84435 32:-0.852116 33:-0.793174 34:-0.852116 35:-0.776536 36:-0.71115 37:-0.998995 38:-0.965053 39:-0.998995 40:-1 41:-0.663866 42:-0.875 43:-0.6 44:-1 45:-0.777778 46:-0.882353 47:-0.722772 48:-0.945578 49:-0.882353 50:-0.697674 51:-1 52:0.212386 53:-1 54:-1 55:-0.647668 56:0.166667 57:-0.784753 58:-0.956201 
8 1:-0.897741 2:-0.815641 3:-0.659483 4:-0.932377 5:-0.835413 6:-0.91635 7:-0.969267 8:-0.91635 9:-0.911787 10:-0.761194 11:-0.928767 12:0.855275 13:-0.901568 14:-0.806452 15:-0.944028 16:-0.806452 17:-0.806452 18:-0.825806 19:-0.628743 21:-0.55526 22:0.318264 23:-0.954352 24:-1 25:-0.901568 26:-1 27:-0.934844 29:-0.702645 30:-0.809589 31:-0.464819 32:-0.885773 33:-0.868646 34:-0.885773 35:-0.569832 36:-0.688176 37:-0.996537 38:-0.901027 39:-0.996537 40:-1 41:-0.731092 42:-1 43:-0.933333 44:-0.428571 45:-0.777778 46:-1 47:-0.683168 48:-0.877551 49:-1 50:-0.860465 51:-1 52:0.0179084 53:-1 54:-1 55:-0.523316 56:-0.5 57:-0.730942 58:-0.949166 
-3.210555080208215 1:-0.906349 2:-0.63485 3:0.323276 4:-0.859432 5:-0.844204 6:-0.901141 7:-0.982498 8:-0.901141 9:-0.836471 10:0.253731 11:-0.932761 12:0.856505 13:-0.905826 14:-0.354839 15:-0.910096 16:-0.354839 17:-0.354839 18:-0.277419 19:-0.54491 21:-0.0199734 22:0.125418 23:-0.942788 24:-1 25:-0.905826 26:-1 27:-0.892905 29:-0.323803 30:-0.655349 31:-0.439232 32:-0.748088 33:-0.86041 34:-0.748088 35:-0.184358 36:-0.542282 37:-0.989277 38:-0.852308 39:-0.989277 40:-1 41:-0.210084 42:-1 43:-0.733333 44:-1 45:0.407407 46:-0.529412 47:-0.544554 48:-0.632653 49:-0.294118 50:-0.162791 51:-1 52:0.0384569 53:-1 54:-1 55:0.212435 56:-0.333333 57:0.0986547 58:-0.892274 
-8 1:-0.945612 2:-0.95956 3:-0.982759 4:-0.988427 5:-0.888353 6:-0.984791 7:-0.967848 8:-0.984791 9:-0.982977 10:-1 11:-0.967159 12:0.905921 13:-0.942884 14:-1 15:-1 16:-1 17:-1 18:-0.980645 19:-0.976048 21:-0.893475 22:0.229143 23:-0.986245 24:-1 25:-0.942884 26:-1 27:-0.993631 29:-0.912795 30:-0.955298 31:-0.925373 32:-0.956145 33:-0.709832 34:-0.956145 35:-0.977654 36:-0.869695 37:-0.999106 38:-0.85304 39:-0.999106 40:-1 41:-0.983193 42:-1 43:-1 44:-1 45:-1 46:-1 47:-0.881188 48:-0.85034 49:-1 50:-1 51:-1 52:0.00921659 53:-1 54:-1 55:-0.943005 56:-0.833333 57:-0.883408 58:-0.990484 
8 1:-0.900689 2:-0.943503 3:-0.866379 4:-0.982736 5:-0.85797 6:-0.954373 7:-0.934947 8:-0.954373 9:-0.97627 10:-1 11:-0.929534 12:0.870596 13:-0.901217 14:-0.967742 15:-0.963799 16:-0.967742 17:-0.967742 18:-0.974194 19:-0.928144 21:-0.890812 22:0.240053 23:-0.984175 24:-1 25:-0.901217 26:-1 27:-0.975941 29:-0.927091 30:-0.946084 31:-0.93177 32:-0.958185 33:-0.813402 34:-0.958185 35:-0.938547 36:-0.841606 37:-0.996873 38:-0.653096 39:-0.996873 40:-1 41:-0.966387 42:-1 43:-1 44:-1 45:-0.925926 46:-1 47:-0.960396 48:-0.972789 49:-1 50:-0.976744 51:-1 52:0.0428571 53:-1 54:-1 55:-0.896373 56:-0.666667 57:-0.865471 58:-0.986227 
-8 1:-0.905008 2:-0.771038 3:-0.0258621 4:-0.903292 5:-0.862728 6:-0.984791 7:-0.996089 8:-0.984791 9:-0.812742 10:0.0447761 11:-0.932916 12:0.875364 13:-0.895637 14:-0.709677 15:-0.941236 16:-0.709677 17:-0.709677 18:-0.574194 19:-0.437126 21:-0.270306 22:-0.0295237 23:-0.947778 24:-1 25:-0.895637 26:-1 27:-0.943348 29:-0.573981 30:-0.726327 31:-0.567164 32:-0.738909 33:-0.789857 34:-0.738909 35:-0.418994 36:-0.613893 37:-0.992572 38:-0.851398 39:-0.992572 40:-1 41:-0.781513 42:-1 43:-0.533333 44:-1 45:-0.777778 46:-0.764706 47:-0.762376 48:-0.687075 49:-0.764706 50:-0.325581 51:-1 52:0.0533206 53:-1 54:-1 55:0.222798 56:-0.166667 57:-0.242152 58:-0.922837 
8 1:-0.864799 2:-0.771632 3:-0.293103 4:-0.899636 5:-0.816996 6:-0.665399 7:-0.917084 8:-0.665399 9:-0.852463 10:-0.552239 11:-0.896473 12:0.815572 13:-0.869649 14:-0.548387 15:-0.911912 16:-0.548387 17:-0.548387 18:-0.683871 19:-0.808383 21:-0.416778 22:-0.00193222 23:-0.94997 24:-1 25:-0.869649 26:-1 27:-0.949255 29:-0.669764 30:-0.775806 31:-0.616205 32:-0.761346 33:-0.814898 34:-0.761346 35:-0.519553 36:-0.61948 37:-0.997599 38:-0.953702 39:-0.997599 40:-1 41:-0.764706 42:-1 43:-0.866667 44:-0.714286 45:-0.185185 46:-1 47:-0.782178 48:-0.659864 49:-1 50:-0.651163 51:-1 52:0.22266 53:-1 54:-1 55:-0.305699 56:-0.0833333 57:-0.434978 58:-0.925007 
8 1:-0.850719 2:-0.987511 3:-0.99569 4:-0.994625 5:-0.896148 6:-1 7:-1 8:-1 9:-0.995873 10:-1 11:-0.827329 12:0.716414 13:-0.852132 14:-1 15:-1 16:-1 17:-1 18:-0.993548 19:-0.964072 21:-0.978695 22:-0.706897 23:-0.99087 24:-1 25:-0.852132 26:-1 27:-0.992033 29:-0.987134 30:-0.990445 31:-0.978678 32:-0.979602 33:-0.715478 34:-0.979602 35:-0.960894 36:-0.911025 37:-1 38:-1 39:-1 40:-1 41:-1 42:-1 43:-1 44:-1 45:-1 46:-1 47:-0.980198 48:-0.931973 49:-1 50:-0.976744 51:-1 52:0.877143 53:-1 54:-1 55:-0.937824 56:-0.666667 57:-0.96861 58:-0.995326 
8 1:-0.898714 2:-0.768064 3:-0.616379 4:-0.902435 5:-0.834286 6:-0.368821 7:-0.839113 8:-0.368821 9:-0.87155 10:-0.283582 11:-0.924715 12:0.841403 13:-0.895259 14:-0.903226 15:-0.980584 16:-0.903226 17:-0.903226 18:-0.845161 19:-0.820359 21:-0.376831 22:0.0461248 23:-0.947413 24:-1 25:-0.895259 26:-1 27:-0.941209 29:-0.556826 30:-0.743389 31:-0.65032 32:-0.663437 33:-0.731487 34:-0.663437 35:-0.625698 36:-0.62165 37:-0.996649 38:-0.933549 39:-0.996649 40:-1 41:-0.798319 42:-0.875 43:-0.933333 44:-0.714286 45:-0.62963 46:-1 47:-0.564356 48:-0.836735 49:-1 50:-0.651163 51:-1 52:0.133395 53:-1 54:-1 55:-0.497409 56:-0.166667 57:-0.982063 58:-0.925842 
8 1:-0.87005 2:-0.641986 3:-0.590517 4:-0.90151 5:-0.811335 6:-0.840304 7:-0.959675 8:-0.840304 9:-0.87155 10:-0.641791 11:-0.901525 12:0.8148 13:-0.863389 14:-0.83871 15:-0.967943 16:-0.83871 17:-0.83871 18:-0.677419 19:-0.664671 21:-0.456724 22:0.257902 23:-0.937675 24:-1 25:-0.863389 26:-1 27:-0.949997 29:-0.658327 30:-0.717454 31:-0.528785 32:-0.774605 33:-0.821861 34:-0.774605 35:-0.502793 36:-0.627918 37:-0.998436 38:-0.96928 39:-0.998436 40:-1 41:-0.378151 42:-1 43:-0.933333 44:-1 45:-0.851852 46:-1 47:-0.267327 48:-0.70068 49:-1 50:-0.674419 51:-1 52:-0.00928571 53:-1 54:-1 55:-0.274611 56:-0.0833333 57:-0.349776 58:-0.928226 
8 1:-0.93162 2:-0.957776 3:-0.982759 4:-0.987841 5:-0.877467 6:-0.969582 7:-0.938746 8:-0.969582 9:-0.982977 10:-0.970149 11:-0.954278 12:0.892165 13:-0.920062 14:-0.967742 15:-0.948869 16:-0.967742 17:-0.967742 18:-0.980645 19:-0.976048 21:-0.920107 22:-0.0598569 23:-0.979306 24:-1 25:-0.920062 26:-1 27:-0.991456 29:-0.925661 30:-0.960075 31:-0.925373 32:-0.938807 33:-0.61431 34:-0.938807 35:-0.977654 36:-0.866187 37:-0.999944 38:-0.99125 39:-0.999944 40:-1 41:-1 42:-1 43:-1 44:-1 45:-1 46:-1 47:-0.920792 48:-0.823129 49:-1 50:-0.976744 51:-1 52:0.219946 53:-1 54:-1 55:-0.948187 56:-0.333333 57:-0.932735 58:-0.989995 
-8 1:-0.899907 2:-0.958965 3:-0.943966 4:-0.988978 5:-0.843936 6:-0.954373 7:-0.898822 8:-0.954373 9:-0.984524 10:-0.970149 11:-0.93964 12:0.887719 13:-0.909013 14:-1 15:-1 16:-1 17:-1 18:-0.980645 19:-0.976048 21:-0.917443 22:-0.0788177 23:-0.981254 24:-1 25:-0.909013 26:-1 27:-0.99795 29:-0.951394 30:-0.9669 31:-0.955224 32:-0.945946 33:-0.624837 34:-0.945946 35:-0.949721 36:-0.87608 37:-0.999497 38:-0.913287 39:-0.999497 40:-1 41:-0.865546 42:-1 43:-1 44:-1 45:-1 46:-1 47:-0.980198 48:-0.959184 49:-1 50:-0.976744 51:-1 52:0.0726531 53:-1 54:-1 55:-0.948187 56:-0.833333 57:-0.923767 58:-0.991343 
-8 1:-0.87388 2:-0.981564 3:-0.961207 4:-0.994402 5:-0.83888 6:-1 7:-1 8:-1 9:-0.986588 10:-0.970149 11:-0.917894 12:0.874303 13:-0.877347 14:-1 15:-1 16:-1 17:-1 18:-0.993548 19:-1 21:-0.965379 22:0.465517 23:-0.985514 24:-1 25:-0.877347 26:-1 27:-0.998934 29:-0.981415 30:-0.980891 31:-0.955224 32:-0.99796 33:-0.97264 34:-0.99796 35:-0.96648 36:-0.912767 37:-1 38:-1 39:-1 40:-1 41:-0.94958 42:-1 43:-1 44:-1 45:-1 46:-1 47:-1 48:-0.959184 49:-1 50:-1 51:-1 52:-0.106122 53:-1 54:-1 55:-0.968912 56:-0.916667 57:-0.982063 58:-0.995493 
8 1:-0.901339 2:-0.964912 3:-0.866379 4:-0.98304 5:-0.825831 6:-0.901141 7:-0.85656 8:-0.901141 9:-0.973175 10:-0.880597 11:-0.942014 12:0.87568 13:-0.911834 14:-0.935484 15:-0.926318 16:-0.935484 17:-0.935484 18:-0.954839 19:-0.928144 21:-0.882823 22:0.0432496 23:-0.981862 24:-1 25:-0.911834 26:-1 27:-0.987884 29:-0.917084 30:-0.957345 31:-0.872068 32:-0.968383 33:-0.856419 34:-0.968383 35:-0.921788 36:-0.847623 37:-0.999944 38:-0.993696 39:-0.999944 40:-1 41:-0.848739 42:-1 43:-1 44:-1 45:-0.925926 46:-1 47:-0.960396 48:-0.836735 49:-1 50:-0.976744 51:-1 52:0.0958838 53:-1 54:-1 55:-0.854922 56:-0.333333 57:-0.878924 58:-0.987205 
-8 1:-0.925792 2:-0.991079 3:-0.991379 4:-0.996479 5:-0.8512 6:-0.969582 7:-0.797222 8:-0.969582 9:-0.99381 10:-1 11:-0.938825 12:0.838087 13:-0.907062 14:-1 15:-1 16:-1 17:-1 18:-0.990323 19:-0.988024 21:-0.973369 22:0.206897 23:-0.993427 24:-1 25:-0.907062 26:-1 27:-0.990539 29:-0.977127 30:-0.991469 31:-0.978678 32:-0.988781 33:-0.765921 34:-0.988781 35:-0.988827 36:-0.93236 37:-1 38:-1 39:-1 40:-1 41:-1 42:-1 43:-1 44:-1 45:-1 46:-1 47:-0.940594 48:-0.986395 49:-1 50:-0.976744 51:-1 52:-0.0184874 53:-1 54:-1 55:-0.979275 56:-0.833333 57:-0.982063 58:-0.997162 
-8 1:-0.803236 2:-0.965507 3:-0.99569 4:-0.988383 5:-0.914862 6:-0.855513 7:-0.6957 8:-0.855513 9:-0.993294 10:-0.910448 11:-0.82179 12:0.800812 13:-0.804629 14:-1 15:-1 16:-1 17:-1 18:-0.977419 19:-1 21:-0.965379 22:-0.511494 23:-0.944735 24:-1 25:-0.804629 26:-1 27:-0.992867 29:-0.975697 30:-0.972018 31:-0.978678 32:-0.937787 33:-0.589902 34:-0.937787 35:-0.994413 36:-0.856384 37:-0.998995 38:-0.835287 39:-0.998995 40:-1 41:-0.966387 42:-1 43:-1 44:-1 45:-1 46:-1 47:-1 48:-0.986395 49:-1 50:-0.976744 51:-1 52:0.738095 53:-1 54:-1 55:-0.963731 56:-0.416667 57:-0.982063 58:-0.988564 
8 1:-0.907825 2:-0.699078 3:-0.711207 4:-0.934904 5:-0.868626 6:-0.961977 7:-0.98549 8:-0.961977 9:-0.909208 10:-0.761194 11:-0.940888 12:0.89644 13:-0.904239 14:-0.580645 15:-0.874037 16:-0.580645 17:-0.580645 18:-0.696774 19:-0.712575 21:-0.541944 22:0.195179 23:-0.962021 24:-1 25:-0.904239 26:-1 27:-0.944399 29:-0.706934 30:-0.797987 31:-0.71855 32:-0.859255 33:-0.831893 34:-0.859255 35:-0.77095 36:-0.681525 37:-0.994862 38:-0.847456 39:-0.994862 40:-1 41:-0.647059 42:-1 43:-1 44:-1 45:-0.111111 46:-0.411765 47:-0.544554 48:-0.863946 49:-0.529412 50:-0.651163 51:-1 52:-0.0786408 53:-1 54:-1 55:-0.53886 56:-0.416667 57:-0.618834 58:-0.947031 
8 1:-0.92098 2:-0.954208 3:-0.931034 4:-0.987843 5:-0.875952 6:-1 7:-1 8:-1 9:-0.982461 10:-0.940299 11:-0.951941 12:0.906599 13:-0.921412 14:-0.967742 15:-0.948859 16:-0.967742 17:-0.967742 18:-0.967742 19:-0.904192 21:-0.901465 22:-0.0229885 23:-0.984784 24:-1 25:-0.921412 26:-1 27:-0.987214 29:-0.937098 30:-0.957686 31:-0.933902 32:-0.950025 33:-0.684954 34:-0.950025 35:-0.905028 36:-0.865849 37:-0.998827 38:-0.816221 39:-0.998827 40:-1 41:-0.915966 42:-1 43:-1 44:-1 45:-1 46:-1 47:-0.940594 48:-0.972789 49:-1 50:-0.976744 51:-1 52:0.112381 53:-1 54:-1 55:-0.927461 56:-0.583333 57:-0.910314 58:-0.989948 
8 1:-0.91722 2:-0.894737 3:-0.827586 4:-0.973918 5:-0.868524 6:-0.984791 7:-0.985586 8:-0.984791 9:-0.965953 10:-0.880597 11:-0.94647 12:0.892892 13:-0.912985 14:-0.967742 15:-0.975937 16:-0.967742 17:-0.967742 18:-0.909677 19:-0.916168 21:-0.784288 22:-0.0645635 23:-0.979063 24:-1 25:-0.912985 26:-1 27:-0.975149 29:-0.867048 30:-0.917079 31:-0.89339 32:-0.926568 33:-0.78218 34:-0.926568 35:-0.893855 36:-0.801468 37:-0.99866 38:-0.901173 39:-0.99866 40:-1 41:-0.697479 42:-1 43:-0.933333 44:-0.714286 45:-0.851852 46:-1 47:-0.881188 48:-0.904762 49:-0.764706 50:-0.930233 51:-1 52:0.0650456 53:-1 54:-1 55:-0.901554 56:-0.5 57:-0.834081 58:-0.978786 
-8 1:-0.92078 2:-0.988701 3:-0.99569 4:-0.997429 5:-0.879595 6:-0.992395 7:-0.93203 8:-0.992395 9:-0.998452 10:-1 11:-0.949238 12:0.902836 13:-0.918984 14:-1 15:-1 16:-1 17:-1 18:-0.993548 19:-1 21:-0.984021 22:0.172414 23:-0.99294 24:-1 25:-0.918984 26:-1 27:-0.995447 29:-0.987134 30:-0.993858 31:-0.991471 32:-0.992861 33:-0.800278 34:-0.992861 35:-0.994413 36:-0.940363 37:-1 38:-1 39:-1 40:-1 41:-1 42:-1 43:-1 44:-1 45:-1 46:-1 47:-0.980198 48:-0.986395 49:-1 50:-1 51:-1 52:0.251429 53:-1 54:-1 55:-1 56:-0.833333 57:-0.982063 58:-0.997734 
-8 1:-0.91141 2:-0.873922 3:-0.87931 4:-0.966539 5:-0.891937 6:-0.977186 7:-0.983116 8:-0.977186 9:-0.958215 10:-0.820896 11:-0.937793 12:0.900546 13:-0.907032 14:-0.774194 15:-0.868462 16:-0.774194 17:-0.774194 18:-0.945161 19:-0.844311 21:-0.768309 22:-0.0609307 23:-0.971029 24:-1 25:-0.907032 26:-1 27:-0.967857 29:-0.854182 30:-0.889097 31:-0.773987 32:-0.890872 33:-0.74722 34:-0.890872 35:-0.860335 36:-0.768087 37:-0.995085 38:-0.717031 39:-0.995085 40:-1 41:-0.932773 42:-1 43:-1 44:-1 45:-1 46:-0.882353 47:-0.940594 48:-0.85034 49:-0.882353 50:-0.930233 51:-1 52:0.133981 53:-1 54:-1 55:-0.689119 56:-0.5 57:-0.798206 58:-0.971381 
-8 1:-0.901254 2:-0.719298 3:-0.198276 4:-0.906236 5:-0.82916 6:-0.513308 7:-0.870925 8:-0.513308 9:-0.887026 10:-0.462687 11:-0.932681 12:0.853474 13:-0.899396 14:-0.709677 15:-0.939395 16:-0.709677 17:-0.709677 18:-0.767742 19:-0.712575 21:-0.398136 22:0.140877 23:-0.950213 24:-1 25:-0.899396 26:-1 27:-0.961983 29:-0.549678 30:-0.728374 31:-0.735608 32:-0.751147 33:-0.793433 34:-0.751147 35:-0.620112 36:-0.631793 37:-0.997654 38:-0.951603 39:-0.997654 40:-1 41:-0.361345 42:-0.875 43:-0.866667 44:-0.714286 45:-0.851852 46:-0.764706 47:-0.623762 48:-0.727891 49:-0.647059 50:-0.744186 51:-1 52:0.10226 53:-1 54:-1 55:-0.34715 56:0.25 57:-0.372197 58:-0.929681 
-8 1:-0.88766 2:-0.713946 3:-0.508621 4:-0.87855 5:-0.801317 6:0.361217 7:-0.721142 8:0.361217 9:-0.871034 10:-0.61194 11:-0.923568 12:0.831973 13:-0.901204 14:-0.483871 15:-0.916775 16:-0.483871 17:-0.483871 18:-0.758065 19:-0.844311 21:-0.259654 22:0.0304418 23:-0.952769 24:-1 25:-0.901204 26:-1 27:-0.954557 29:-0.452466 30:-0.713359 31:-0.791045 32:-0.574707 33:-0.727306 34:-0.574707 35:-0.75419 36:-0.588272 37:-0.995085 38:-0.921671 39:-0.995085 40:-1 41:-0.243697 42:-1 43:-0.733333 44:-0.714286 45:-0.185185 46:-0.882353 47:-0.544554 48:-0.741497 49:-0.764706 50:-0.697674 51:-1 52:0.15692 53:-1 54:-1 55:-0.466321 56:0.333333 57:-0.524664 58:-0.912486 
8 1:-0.883702 2:-0.923877 3:-0.853448 4:-0.965932 5:-0.813743 6:-0.885932 7:-0.917077 8:-0.885932 9:-0.959247 10:-0.910448 11:-0.905996 12:0.802749 13:-0.866823 14:-0.903226 15:-0.944626 16:-0.903226 17:-0.903226 18:-0.932258 19:-0.904192 21:-0.79494 22:-0.00284394 23:-0.968229 24:-1 25:-0.866823 26:-1 27:-0.974125 29:-0.862759 30:-0.890462 31:-0.929638 32:-0.898011 33:-0.767944 34:-0.898011 35:-0.843575 36:-0.783486 37:-0.998548 38:-0.917877 39:-0.998548 40:-1 41:-0.831933 42:-1 43:-0.8 44:-1 45:-0.777778 46:-1 47:-0.841584 48:-0.959184 49:-1 50:-0.790698 51:-1 52:0.204124 53:-1 54:-1 55:-0.782383 56:-0.416667 57:-0.807175 58:-0.974935 
-8 1:-0.927164 2:-0.987511 3:-0.991379 4:-0.996998 5:-0.876414 6:-0.984791 7:-0.882258 8:-0.984791 9:-0.995873 10:-1 11:-0.952215 12:0.895058 13:-0.925549 14:-1 15:-1 16:-1 17:-1 18:-0.980645 19:-0.988024 21:-0.973369 22:0.578249 23:-0.994522 24:-1 25:-0.925549 26:-1 27:-0.99757 29:-0.982845 30:-0.993175 31:-0.991471 32:-0.985722 33:-0.65403 34:-0.985722 35:-0.994413 36:-0.935423 37:-1 38:-1 39:-1 40:-1 41:-0.966387 42:-1 43:-1 44:-1 45:-1 46:-1 47:-0.940594 48:-1 49:-1 50:-1 51:-1 52:-0.0373626 53:-1 54:-1 55:-0.994819 56:-0.833333 57:-0.982063 58:-0.997389 
8 1:-0.904346 2:-0.960155 3:-0.931034 4:-0.984426 5:-0.880063 6:-0.961977 7:-0.939987 8:-0.961977 9:-0.979881 10:-0.940299 11:-0.933604 12:0.892906 13:-0.919174 14:-1 15:-1 16:-1 17:-1 18:-0.951613 19:-0.988024 21:-0.896138 22:-0.189288 23:-0.970542 24:-1 25:-0.919174 26:-1 27:-0.991534 29:-0.934239 30:-0.967582 31:-0.93177 32:-0.90515 33:-0.531436 34:-0.90515 35:-0.96648 36:-0.844294 37:-0.998101 38:-0.766835 39:-0.998101 40:-1 41:-0.983193 42:-1 43:-1 44:-1 45:-1 46:-1 47:-0.960396 48:-0.959184 49:-1 50:-1 51:-1 52:0.28693 53:-1 54:-1 55:-0.927461 56:-0.166667 57:-0.887892 58:-0.986668 
8 1:-1 2:-0.999405 3:-1 4:-0.999808 5:-0.993298 6:-1 7:-1 8:-1 9:-0.999484 10:-1 11:-0.992081 12:0.918203 13:-1 14:-1 15:-1 16:-1 17:-1 18:-1 19:-1 21:-0.997337 22:-0.0229885 23:-0.998174 24:-1 25:-1 26:-1 27:-1 29:-0.992852 30:-0.998976 31:-0.995736 32:-0.99592 33:-0.224227 34:-0.99592 35:-1 36:-0.981189 37:-1 38:-1 39:-1 40:-1 41:-1 42:-1 43:-1 44:-1 45:-1 46:-1 47:-1 48:-0.986395 49:-1 50:-1 51:-1 52:-0.304762 53:-1 54:-1 55:-1 56:-1 57:-1 58:-0.999666 
-8 1:-0.901924 2:-0.933988 3:-0.844828 4:-0.977608 5:-0.862069 6:-0.977186 7:-0.974851 8:-0.977186 9:-0.977302 10:-0.820896 11:-0.938797 12:0.896734 13:-0.899815 14:-0.870968 15:-0.888039 16:-0.870968 17:-0.870968 18:-0.925806 19:-0.964072 21:-0.869507 22:-0.0398335 23:-0.971881 24:-1 25:-0.899815 26:-1 27:-0.97944 29:-0.918513 30:-0.945402 31:-0.959488 32:-0.969403 33:-0.894431 34:-0.969403 35:-0.927374 36:-0.83167 37:-1 38:-1 39:-1 40:-1 41:-0.731092 42:-1 43:-0.933333 44:-1 45:-1 46:-1 47:-0.960396 48:-0.931973 49:-1 50:-1 51:-1 52:0.22266 53:-1 54:-1 55:-0.911917 56:-0.5 57:-0.838565 58:-0.984534 
-8 1:-0.881023 2:-0.93815 3:-0.896552 4:-0.977444 5:-0.857022 6:-0.969582 7:-0.966708 8:-0.969582 9:-0.965953 10:-0.880597 11:-0.911843 12:0.859173 13:-0.881899 14:-0.935484 15:-0.944422 16:-0.935484 17:-0.935484 18:-0.958065 19:-0.952096 21:-0.87217 22:-0.00554187 23:-0.976019 24:-0.996957 25:-0.881899 26:-0.996957 27:-0.981672 29:-0.921372 30:-0.939942 31:-0.880597 32:-0.954105 33:-0.842784 34:-0.954105 35:-0.910615 36:-0.816413 37:-0.999944 38:-0.995245 39:-0.999944 40:-0.6 41:-0.94958 42:-1 43:-1 44:-0.714286 45:-0.851852 46:-0.882353 47:-0.920792 48:-0.918367 49:-0.882353 50:-0.976744 51:-1 52:0.0428571 53:-0.996957 54:-1 55:-0.84456 56:-0.416667 57:-0.852018 58:-0.981744 
8 1:-0.918887 2:-0.970265 3:-0.948276 4:-0.990808 5:-0.863449 6:-0.984791 7:-0.959713 8:-0.984791 9:-0.99123 10:-0.940299 11:-0.946187 12:0.884281 13:-0.907649 14:-1 15:-1 16:-1 17:-1 18:-0.970968 19:-0.964072 21:-0.936085 22:0.172414 23:-0.982593 24:-1 25:-0.907649 26:-1 27:-0.998353 29:-0.951394 30:-0.973042 31:-0.955224 32:-0.966344 33:-0.720966 34:-0.966344 35:-0.98324 36:-0.885888 37:-1 38:-1 39:-1 40:-1 41:-1 42:-1 43:-1 44:-1 45:-1 46:-1 47:-0.940594 48:-0.945578 49:-1 50:-0.953488 51:-1 52:0.0726531 53:-1 54:-1 55:-0.943005 56:-0.833333 57:-0.950673 58:-0.992583 
8 1:-0.929775 2:-0.972643 3:-0.978448 4:-0.988859 5:-0.862857 6:-0.961977 7:-0.916571 8:-0.961977 9:-0.988651 10:-1 11:-0.950153 12:0.871167 13:-0.923022 14:-1 15:-1 16:-1 17:-1 18:-1 19:-0.916168 21:-0.909454 22:0.091954 23:-0.987827 24:-1 25:-0.923022 26:-1 27:-0.990346 29:-0.92852 30:-0.960416 31:-0.946695 32:-0.923508 33:-0.474691 34:-0.923508 35:-0.955307 36:-0.875085 37:-1 38:-1 39:-1 40:-1 41:-0.983193 42:-1 43:-1 44:-1 45:-1 46:-1 47:-0.841584 48:-0.877551 49:-1 50:-0.953488 51:-1 52:-0.0184874 53:-1 54:-1 55:-0.906736 56:-0.416667 57:-0.896861 58:-0.991212 
-8 1:-0.869156 2:-0.794826 3:-0.724138 4:-0.924744 5:-0.788607 6:-0.391635 7:-0.799092 8:-0.391635 9:-0.908692 10:-0.820896 11:-0.904725 12:0.806476 13:-0.859328 14:-0.709677 15:-0.924534 16:-0.709677 17:-0.709677 18:-0.787097 19:-0.856287 21:-0.557923 22:-0.25984 23:-0.942422 24:-1 25:-0.859328 26:-1 27:-0.955995 29:-0.71837 30:-0.836205 31:-0.750533 32:-0.63896 33:-0.626818 34:-0.63896 35:-0.625698 36:-0.679654 37:-0.99933 38:-0.982781 39:-0.99933 40:-1 41:-0.563025 42:-1 43:-1 44:-1 45:0.037037 46:-1 47:-0.80198 48:-0.687075 49:-1 50:-0.837209 51:-1 52:0.295671 53:-1 54:-1 55:-0.65285 56:-0.166667 57:-0.717489 58:-0.946423 
8 1:-0.909384 2:-0.985132 3:-0.987069 4:-0.996762 5:-0.874285 6:-0.992395 7:-0.945154 8:-0.992395 9:-0.995357 10:-1 11:-0.938589 12:0.891926 13:-0.912877 14:-1 15:-1 16:-1 17:-1 18:-0.996774 19:-0.976048 21:-0.976032 22:0.0658307 23:-0.993183 24:-1 25:-0.912877 26:-1 27:-0.996571 29:-0.985704 30:-0.989422 31:-0.982942 32:-0.991841 33:-0.815819 34:-0.991841 35:-0.977654 36:-0.932518 37:-0.999888 38:-0.937327 39:-0.999888 40:-1 41:-0.983193 42:-1 43:-1 44:-1 45:-1 46:-1 47:-0.980198 48:-0.972789 49:-1 50:-0.976744 51:-1 52:0.327273 53:-1 54:-1 55:-0.968912 56:-0.583333 57:-0.973094 58:-0.997174 
-8 1:-0.891816 2:-0.847755 3:-0.75431 4:-0.934517 5:-0.901673 6:-0.840304 7:-0.939417 8:-0.840304 9:-0.945319 10:-0.910448 11:-0.916067 12:0.886349 13:-0.890222 14:-1 15:-1 16:-1 17:-1 18:-0.796774 19:-0.628743 21:-0.643142 22:-0.613876 23:-0.854534 24:-1 25:-0.890222 26:-1 27:-0.959936 29:-0.762688 30:-0.863163 31:-0.4371 32:-0.837838 33:-0.807452 34:-0.837838 35:-0.625698 36:-0.663695 37:-0.999386 38:-0.981868 39:-0.999386 40:-1 41:-0.89916 42:-1 43:-0.8 44:-1 45:-0.851852 46:-0.647059 47:-0.465347 48:-0.659864 49:-0.647059 50:-0.674419 51:-0.666667 52:0.711035 53:-1 54:-1 55:-0.523316 56:-0.166667 57:-0.686099 58:-0.941093 
-8 1:-0.862329 2:-0.420755 3:-0.344828 4:-0.852055 5:-0.826245 6:-0.946768 7:-0.991045 8:-0.946768 9:-0.797266 10:-0.0149254 11:-0.905501 12:0.852071 13:-0.86834 14:-0.387097 15:-0.918843 16:-0.387097 17:-0.387097 18:-0.451613 19:-0.532934 21:-0.201065 22:0.0544575 23:-0.916738 24:-1 25:-0.86834 26:-1 27:-0.90122 29:-0.532523 30:-0.545129 31:-0.484009 32:-0.623661 33:-0.801846 34:-0.623661 35:-0.24581 36:-0.531773 37:-0.993857 38:-0.919598 39:-0.993857 40:-1 41:0.12605 42:-1 43:-0.733333 44:-0.714286 45:-0.259259 46:-0.529412 47:-0.683168 48:-0.646259 49:-0.529412 50:-0.674419 51:-1 52:0.150958 53:-1 54:-1 55:-0.0362694 56:-0.25 57:0.327354 58:-0.887361 
8 1:-0.898916 2:-0.850134 3:-0.625 4:-0.940146 5:-0.815383 6:-0.680608 7:-0.867479 8:-0.680608 9:-0.922105 10:-0.701493 11:-0.939938 12:0.865778 13:-0.909793 14:-0.709677 15:-0.905184 16:-0.709677 17:-0.709677 18:-0.770968 19:-0.892216 21:-0.624501 22:0.161086 23:-0.962995 24:-1 25:-0.909793 26:-1 27:-0.95109 29:-0.705504 30:-0.853267 31:-0.714286 32:-0.8205 33:-0.766892 34:-0.8205 35:-0.703911 36:-0.712163 37:-0.995421 38:-0.852172 39:-0.995421 40:-1 41:-0.815126 42:-1 43:-1 44:-1 45:-0.925926 46:-1 47:-0.821782 48:-0.904762 49:-1 50:-0.883721 51:-1 52:0.0781228 53:-1 54:-1 55:-0.590674 56:-0.416667 57:-0.511211 58:-0.956499 
8 1:-0.882519 2:-0.869164 3:-0.715517 4:-0.957059 5:-0.824705 6:-0.779468 7:-0.872639 8:-0.779468 9:-0.947898 10:-0.671642 11:-0.915086 12:0.838796 13:-0.881496 14:-0.967742 15:-0.985336 16:-0.967742 17:-0.967742 18:-0.845161 19:-0.784431 21:-0.728362 22:0.111772 23:-0.966159 24:-1 25:-0.881496 26:-1 27:-0.964319 29:-0.835597 30:-0.891486 31:-0.776119 32:-0.894952 33:-0.810117 34:-0.894952 35:-0.776536 36:-0.753521 37:-0.99933 38:-0.969889 39:-0.99933 40:-1 41:-0.798319 42:-1 43:-0.866667 44:-1 45:-0.851852 46:-0.529412 47:-0.762376 48:-0.891156 49:-0.529412 50:-0.860465 51:-1 52:0.132759 53:-1 54:-1 55:-0.709845 56:-0.416667 57:-0.793722 58:-0.967804 
8 1:-0.872989 2:-0.876896 3:-0.883621 4:-0.962847 5:-0.830411 6:-0.939163 7:-0.959425 8:-0.939163 9:-0.95512 10:-0.910448 11:-0.903456 12:0.829997 13:-0.866072 14:-0.774194 15:-0.881458 16:-0.774194 17:-0.774194 18:-0.883871 19:-0.832335 21:-0.768309 22:0.00957854 23:-0.967133 24:-1 25:-0.866072 26:-1 27:-0.977947 29:-0.872766 30:-0.876813 31:-0.89339 32:-0.871494 33:-0.731743 34:-0.871494 35:-0.832402 36:-0.769039 37:-0.998101 38:-0.901472 39:-0.998101 40:-1 41:-0.747899 42:-1 43:-0.933333 44:-1 45:-0.925926 46:-1 47:-0.940594 48:-0.931973 49:-1 50:-0.813953 51:-1 52:0.135556 53:-1 54:-1 55:-0.704663 56:-0.25 57:-0.73991 58:-0.971608 
-8 1:-0.916419 2:-0.994053 3:-1 4:-0.995908 5:-0.805058 6:-0.977186 7:-0.868072 8:-0.977186 9:-0.999484 10:-1 11:-0.952697 12:0.848477 13:-0.95502 14:-1 15:-1 16:-1 17:-1 18:-1 19:-1 21:-0.962716 22:-0.413793 23:-0.993548 24:-1 25:-0.95502 26:-1 27:-0.99154 29:-0.96569 30:-0.995905 31:-0.997868 32:-0.989801 33:-0.815403 34:-0.989801 35:-1 36:-0.929568 37:-1 38:-1 39:-1 40:-1 41:-0.966387 42:-1 43:-1 44:-1 45:-1 46:-1 47:-1 48:-1 49:-1 50:-1 51:-1 52:-0.666286 53:-1 54:-1 55:-0.994819 56:-0.833333 57:-0.977578 58:-0.996947 
8 1:-0.39323 2:-0.983943 3:-0.974138 4:-0.945858 5:-0.879041 6:-0.992395 7:-0.996513 8:-0.992395 9:-0.996905 10:-0.970149 11:-0.42931 12:0.431263 13:-0.395548 14:-0.967742 15:-0.988358 16:-0.967742 17:-0.967742 18:-0.987097 19:-1 21:-0.944075 22:0.212842 23:-0.861351 24:-1 25:-0.395548 26:-1 27:-0.893765 29:-0.959971 30:-0.986009 31:-0.974414 32:-0.525752 33:-0.319401 34:-0.525752 35:-0.98324 36:-0.684146 37:-0.99933 38:-0.976093 39:-0.99933 40:-1 41:-0.983193 42:-1 43:-1 44:-1 45:-1 46:-1 47:-1 48:-1 49:-1 50:-0.976744 51:-1 52:0.22266 53:-1 54:-1 55:-0.984456 56:-0.75 57:-0.973094 58:-0.947878 
-8 1:-0.900755 2:-0.866191 3:-0.87931 4:-0.963307 5:-0.853642 6:-0.809886 7:-0.871624 8:-0.809886 9:-0.959763 10:-0.880597 11:-0.932364 12:0.874518 13:-0.90564 14:-0.806452 15:-0.897128 16:-0.806452 17:-0.806452 18:-0.925806 19:-0.904192 21:-0.762983 22:0.089411 23:-0.969324 24:-1 25:-0.90564 26:-1 27:-0.983058 29:-0.839886 30:-0.892851 31:-0.861407 32:-0.869454 33:-0.724092 34:-0.869454 35:-0.821229 36:-0.7654 37:-0.999665 38:-0.982396 39:-0.999665 40:-1 41:-0.915966 42:-1 43:-1 44:-1 45:-0.925926 46:-1 47:-0.80198 48:-0.85034 49:-1 50:-0.976744 51:-1 52:0.144374 53:-1 54:-1 55:-0.84456 56:0.0833333 57:-0.820628 58:-0.970737 
-8 1:-0.899195 2:-0.629497 3:-0.672414 4:-0.891462 5:-0.858402 6:-0.847909 7:-0.965143 8:-0.847909 9:-0.883931 10:-0.671642 11:-0.938516 12:0.898185 13:-0.905001 14:-0.774194 15:-0.959266 16:-0.774194 17:-0.774194 18:-0.825806 19:-0.389222 21:-0.217044 22:-0.0352394 23:-0.952161 24:-1 25:-0.905001 26:-1 27:-0.918098 29:-0.54539 30:-0.665927 31:-0.309168 32:-0.507394 33:-0.646646 34:-0.507394 35:-0.424581 36:-0.590942 37:-0.988607 38:-0.796862 39:-0.988607 40:-1 41:-0.731092 42:-1 43:-1 44:-1 45:-0.925926 46:-0.647059 47:-0.564356 48:-0.510204 49:-0.647059 50:-0.604651 51:-1 52:0.18343 53:-1 54:-1 56:-0.333333 57:-0.484305 58:-0.913595 
-0.3200637146632341 1:-0.882197 2:-0.50342 3:-0.603448 4:-0.852728 5:-0.819186 6:-0.870722 7:-0.978153 8:-0.870722 9:-0.815837 10:-0.134328 11:-0.902273 12:0.800112 13:-0.861764 14:-0.548387 15:-0.939928 16:-0.548387 17:-0.548387 18:-0.693548 19:-0.712575 21:-0.115846 22:0.0691366 23:-0.915399 24:-1 25:-0.861764 26:-1 27:-0.900488 29:-0.425304 30:-0.62259 31:-0.347548 32:-0.157573 33:-0.554412 34:-0.157573 35:-0.256983 36:-0.538941 37:-0.991511 38:-0.888392 39:-0.991511 40:-1 41:-0.512605 42:-1 43:-0.866667 44:-0.714286 45:-0.333333 46:-0.882353 47:-0.722772 48:-0.306122 49:-0.882353 50:-0.930233 51:-0.666667 52:0.123077 53:-1 54:-1 55:-0.295337 56:-0.25 57:-0.0986547 58:-0.890724 
-8 1:-0.895809 2:-0.866786 3:-0.775862 4:-0.956428 5:-0.842329 6:-0.946768 7:-0.969701 8:-0.946768 9:-0.93397 10:-0.253731 11:-0.931891 12:0.873368 13:-0.8975 14:-0.903226 15:-0.956643 16:-0.903226 17:-0.903226 18:-0.829032 19:-0.892216 21:-0.672437 22:-0.12069 23:-0.967012 24:-1 25:-0.8975 26:-1 27:-0.963085 29:-0.815583 30:-0.886709 31:-0.831557 32:-0.946966 33:-0.905518 34:-0.946966 35:-0.793296 36:-0.747646 37:-1 38:-1 39:-1 40:-1 41:-0.882353 42:-1 43:-0.866667 44:-0.714286 45:-0.407407 46:-1 47:-0.742574 48:-0.863946 49:-1 50:-0.651163 51:-1 52:-0.101538 53:-1 54:-1 55:-0.606218 56:-0.416667 57:-0.753363 58:-0.966301 
8 1:-0.91363 2:-0.992864 3:-1 4:-0.998715 5:-0.873833 6:-1 7:-1 8:-1 9:-0.998968 10:-0.970149 11:-0.938176 12:0.882122 13:-0.92391 14:-1 15:-1 16:-1 17:-1 18:-0.993548 19:-1 21:-0.989348 22:-0.413793 23:-0.995253 24:-1 25:-0.92391 26:-1 27:-1 29:-0.994282 30:-0.995905 31:-0.995736 32:-0.992861 33:-0.629531 34:-0.992861 35:-1 36:-0.958722 37:-1 38:-1 39:-1 40:-1 41:-1 42:-1 43:-1 44:-1 45:-1 46:-1 47:-1 48:-0.986395 49:-1 50:-1 51:-1 52:0.668571 53:-1 54:-1 55:-0.989637 56:-1 57:-1 58:-0.998808 
8 1:-0.875494 2:-0.986322 3:-1 4:-0.995046 5:-0.824501 6:-0.992395 7:-0.963353 8:-0.992395 9:-0.992778 10:-1 11:-0.911487 12:0.842246 13:-0.886358 14:-1 15:-1 16:-1 17:-1 18:-0.987097 19:-0.976048 21:-0.968043 22:0.127321 23:-0.991236 24:-1 25:-0.886358 26:-1 27:-0.996284 29:-0.982845 30:-0.985327 31:-0.972281 32:-0.966344 33:-0.492359 34:-0.966344 35:-0.988827 36:-0.91981 37:-1 38:-1 39:-1 40:-1 41:-1 42:-1 43:-1 44:-1 45:-1 46:-1 47:-0.960396 48:-0.986395 49:-1 50:-1 51:-1 52:-0.197802 53:-1 54:-1 55:-0.963731 56:-0.5 57:-0.973094 58:-0.996136 
-8 1:-0.886169 2:-0.550996 3:-0.637931 4:-0.887814 5:-0.853092 6:-0.961977 7:-0.991569 8:-0.961977 9:-0.841114 10:-0.58209 11:-0.9139 12:0.851914 13:-0.878945 14:-0.387097 15:-0.893025 16:-0.387097 17:-0.387097 18:-0.764516 19:-0.712575 21:-0.246338 22:0.154346 23:-0.939988 24:-1 25:-0.878945 26:-1 27:-0.903688 29:-0.583989 30:-0.616448 31:-0.328358 32:-0.72667 33:-0.810299 34:-0.72667 35:-0.530726 36:-0.58454 37:-0.988049 38:-0.79382 39:-0.988049 40:-1 41:-0.731092 42:-1 43:-1 44:-1 45:-0.851852 46:-0.882353 47:-0.267327 48:-0.782313 49:-1 50:-0.372093 51:-1 52:-0.0357143 53:-1 54:-1 55:0.0518135 56:-0.416667 57:-0.61435 58:-0.910924 
8 1:-0.924281 2:-0.957181 3:-0.922414 4:-0.988087 5:-0.845028 6:-0.946768 7:-0.890625 8:-0.946768 9:-0.995357 10:-1 11:-0.955381 12:0.880302 13:-0.919284 14:-1 15:-1 16:-1 17:-1 18:-0.977419 19:-0.964072 21:-0.906791 22:0.203818 23:-0.98454 24:-1 25:-0.919284 26:-1 27:-0.990092 29:-0.921372 30:-0.965876 31:-0.938166 32:-0.980622 33:-0.875381 34:-0.980622 35:-0.921788 36:-0.872142 37:-0.999944 38:-0.991073 39:-0.999944 40:-1 41:-0.932773 42:-1 43:-1 44:-1 45:-0.925926 46:-1 47:-0.920792 48:-0.986395 49:-1 50:-0.953488 51:-1 52:0.0428571 53:-1 54:-1 55:-0.917098 56:-0.416667 57:-0.941704 58:-0.990818 
8 1:-0.870371 2:-0.731192 3:-0.581897 4:-0.930684 5:-0.852141 6:-0.81749 7:-0.934578 8:-0.81749 9:-0.91024 10:-0.820896 11:-0.906574 12:0.860771 13:-0.864185 14:-0.870968 15:-0.963594 16:-0.870968 17:-0.870968 18:-0.83871 19:-0.820359 21:-0.603196 22:-0.165212 23:-0.958856 24:-1 25:-0.864185 26:-1 27:-0.966139 29:-0.775554 30:-0.798328 31:-0.692964 32:-0.689954 33:-0.652148 34:-0.689954 35:-0.575419 36:-0.672993 37:-0.994359 38:-0.842695 39:-0.994359 40:-1 41:-0.596639 42:-1 43:-1 44:-1 45:-1 46:-1 47:-0.821782 48:-0.836735 49:-1 50:-0.860465 51:-1 52:0.28047 53:-1 54:-1 55:-0.606218 57:-0.255605 58:-0.944229 
-8 1:-0.943593 2:-0.986916 3:-0.991379 4:-0.993833 5:-0.871897 6:-0.961977 7:-0.851566 8:-0.961977 9:-0.994841 10:-1 11:-0.957683 12:0.86693 13:-0.942636 14:-1 15:-1 16:-1 17:-1 18:-0.996774 19:-0.988024 21:-0.95739 22:-0.0744102 23:-0.988558 24:-1 25:-0.942636 26:-1 27:-0.993118 29:-0.947105 30:-0.981914 31:-0.989339 32:-0.989801 33:-0.875384 34:-0.989801 35:-0.994413 36:-0.907987 37:-0.999553 38:-0.864306 39:-0.999553 40:-1 41:-0.966387 42:-1 43:-1 44:-1 45:-1 46:-1 47:-1 48:-0.972789 49:-1 50:-1 51:-1 52:0.262406 53:-1 54:-1 55:-0.989637 56:-0.666667 57:-0.982063 58:-0.995027 
8 1:-0.904529 2:-0.899494 3:-0.892241 4:-0.972444 5:-0.849013 6:-0.969582 7:-0.972703 8:-0.969582 9:-0.968017 10:-0.761194 11:-0.940201 12:0.884442 13:-0.91008 14:-0.935484 15:-0.954429 16:-0.935484 17:-0.935484 18:-0.954839 19:-0.868263 21:-0.792277 22:0.139847 23:-0.979915 24:-1 25:-0.91008 26:-1 27:-0.972353 29:-0.872766 30:-0.934823 31:-0.863539 32:-0.947986 33:-0.853903 34:-0.947986 35:-0.837989 36:-0.799618 37:-0.998883 38:-0.922017 39:-0.998883 40:-1 41:-0.781513 42:-1 43:-0.933333 44:-1 45:-0.925926 46:-0.764706 47:-0.881188 48:-0.891156 49:-0.764706 50:-0.837209 51:-1 52:0.0196825 53:-1 54:-1 55:-0.756477 56:-0.5 57:-0.887892 58:-0.978405 
8 1:-0.906466 2:-0.958371 3:-0.918103 4:-0.986361 5:-0.866891 6:-0.984791 7:-0.972644 8:-0.984791 9:-0.98504 10:-0.970149 11:-0.935062 12:0.881837 13:-0.90286 14:-1 15:-1 16:-1 17:-1 18:-0.983871 19:-0.856287 21:-0.896138 22:0.0906175 23:-0.985271 24:-1 25:-0.90286 26:-1 27:-0.988371 29:-0.939957 30:-0.95598 31:-0.827292 32:-0.971443 33:-0.839235 34:-0.971443 35:-0.837989 36:-0.858534 37:-0.99933 38:-0.906219 39:-0.99933 40:-1 41:-0.966387 42:-1 43:-0.933333 44:-1 45:-1 46:-0.764706 47:-0.90099 48:-0.972789 49:-0.764706 50:-0.790698 51:-0.666667 52:0.0671096 53:-1 54:-1 55:-0.823834 56:-0.5 57:-0.874439 58:-0.988886 
8 1:-0.894008 2:-0.940529 3:-0.943966 4:-0.986527 5:-0.867501 6:-0.977186 7:-0.958468 8:-0.977186 9:-0.982977 10:-0.970149 11:-0.917933 12:0.859777 13:-0.888127 14:-0.935484 15:-0.907552 16:-0.935484 17:-0.935484 18:-0.974194 19:-0.964072 21:-0.906791 22:0.10904 23:-0.98308 24:-1 25:-0.888127 26:-1 27:-0.987666 29:-0.948535 30:-0.959734 31:-0.93177 32:-0.947986 33:-0.703623 34:-0.947986 35:-0.910615 36:-0.858855 37:-0.998548 38:-0.794342 39:-0.998548 40:-1 41:-1 42:-1 43:-1 44:-1 45:-1 46:-1 47:-0.940594 48:-0.972789 49:-1 50:-0.953488 51:-1 52:-0.0416988 53:-1 54:-1 55:-0.896373 56:-0.5 57:-0.919283 58:-0.988934 
-8 1:-0.856706 2:-0.990485 3:-0.978448 4:-0.99474 5:-0.758577 6:-0.855513 7:-0.342654 8:-0.855513 9:-0.992262 10:-1 11:-0.906875 12:0.811336 13:-0.867203 14:-1 15:-1 16:-1 17:-1 18:-0.990323 19:-0.952096 21:-0.970706 22:-0.371921 23:-0.991966 24:-1 25:-0.867203 26:-1 27:-0.994462 29:-0.981415 30:-0.990445 31:-0.978678 32:-0.972463 33:-0.607885 34:-0.972463 35:-0.977654 36:-0.921315 37:-1 38:-1 39:-1 40:-1 41:-0.983193 42:-1 43:-1 44:-1 45:-0.925926 46:-1 47:-1 48:-0.972789 49:-1 50:-1 51:-1 52:-0.106122 53:-1 54:-1 55:-0.927461 56:-0.833333 57:-0.986547 58:-0.996268 
8 1:-0.892054 2:-0.722866 3:-0.702586 4:-0.906355 5:-0.854979 6:-0.908745 7:-0.975768 8:-0.908745 9:-0.881352 10:-0.791045 11:-0.917117 12:0.851026 13:-0.888876 14:-0.870968 15:-0.97303 16:-0.870968 17:-0.870968 18:-0.806452 19:-0.652695 21:-0.411451 22:0.123756 23:-0.949483 24:-1 25:-0.888876 26:-1 27:-0.910211 29:-0.639743 30:-0.769323 31:-0.484009 32:-0.688934 33:-0.741462 34:-0.688934 35:-0.502793 36:-0.624395 37:-0.990003 38:-0.793474 39:-0.990003 40:-1 41:-0.781513 42:-0.875 43:-0.933333 44:-1 45:-0.925926 46:-0.882353 47:-0.861386 48:-0.863946 49:-0.882353 50:-0.767442 51:-1 52:0.00575946 53:-1 54:-1 56:-0.5 57:-0.623318 58:-0.926891 
8 1:-0.853011 2:-0.972643 3:-0.965517 4:-0.989983 5:-0.77826 6:-1 7:-1 8:-1 9:-0.984524 10:-0.940299 11:-0.883336 12:0.770735 13:-0.832456 14:-1 15:-1 16:-1 17:-1 18:-0.967742 19:-0.94012 21:-0.944075 22:0.401799 23:-0.982958 24:-1 25:-0.832456 26:-1 27:-0.973063 29:-0.968549 30:-0.97236 31:-0.933902 32:-0.956145 33:-0.66574 34:-0.956145 35:-0.972067 36:-0.888968 37:-1 38:-1 39:-1 40:-1 41:-0.983193 42:-1 43:-1 44:-1 45:-1 46:-1 47:-0.90099 48:-0.945578 49:-1 50:-1 51:-1 52:-0.183851 53:-1 54:-1 55:-0.865285 56:-0.833333 57:-0.932735 58:-0.992953 
8 1:-0.88574 2:-0.851918 3:-0.719828 4:-0.938967 5:-0.775224 6:-0.543726 7:-0.814328 8:-0.543726 9:-0.928811 10:-0.791045 11:-0.924444 12:0.815115 13:-0.900944 14:-0.677419 15:-0.896677 16:-0.677419 17:-0.677419 18:-0.851613 19:-0.856287 21:-0.581891 22:0.0279457 23:-0.968716 24:-1 25:-0.900944 26:-1 27:-0.970223 29:-0.699786 30:-0.852926 31:-0.705757 32:-0.81744 33:-0.767482 34:-0.81744 35:-0.73743 36:-0.71981 37:-0.994918 38:-0.839105 39:-0.994918 40:-1 41:-0.815126 42:-1 43:-0.666667 44:-0.714286 45:-0.703704 46:-1 47:-0.861386 48:-0.85034 49:-1 50:-0.860465 51:-1 52:0.0972241 53:-1 54:-1 55:-0.606218 57:-0.515695 58:-0.958717 
-8 1:-0.913142 2:-0.683021 3:-0.327586 4:-0.939538 5:-0.896013 6:-0.977186 7:-0.990629 8:-0.977186 9:-0.914883 10:-0.373134 11:-0.946886 12:0.92524 13:-0.914656 14:-0.967742 15:-0.98957 16:-0.967742 17:-0.967742 18:-0.73871 19:-0.652695 21:-0.55526 22:0.128527 23:-0.96336 24:-1 25:-0.914656 26:-1 27:-0.925823 29:-0.734096 30:-0.80447 31:-0.639659 32:-0.963284 33:-0.952796 34:-0.963284 35:-0.620112 36:-0.684517 37:-1 38:-1 39:-1 40:-1 41:-0.546218 42:-1 43:-0.933333 44:-1 45:-0.703704 46:-0.764706 47:-0.762376 48:-0.727891 49:-0.647059 50:-0.395349 51:-1 52:0.115355 53:-1 54:-1 55:-0.0310881 56:-0.583333 57:-0.538117 58:-0.947997 
8 1:-0.929885 2:-0.834671 3:-0.762931 4:-0.934252 5:-0.833851 6:-0.923954 7:-0.971267 8:-0.923954 9:-0.930874 10:-0.880597 11:-0.955375 12:0.85232 13:-0.922772 14:-0.645161 15:-0.894469 16:-0.645161 17:-0.645161 18:-0.887097 19:-0.928144 21:-0.483356 22:-0.103191 23:-0.967985 24:-1 25:-0.922772 26:-1 27:-0.94579 29:-0.426733 30:-0.846443 31:-0.744136 32:-0.812341 33:-0.778071 34:-0.812341 35:-0.731844 36:-0.699411 37:-0.996873 38:-0.908065 39:-0.996873 40:-1 41:-0.579832 42:-1 43:-0.866667 44:-1 45:-0.851852 46:-1 47:-0.861386 48:-0.727891 49:-1 50:-0.860465 51:-1 52:0.245203 53:-1 54:-1 55:-0.668394 56:-0.416667 57:-0.70852 58:-0.952672 
3.338208418180034 1:-0.916867 2:-0.79661 3:-0.616379 4:-0.920353 5:-0.842906 6:-0.688213 7:-0.902695 8:-0.688213 9:-0.908692 10:-0.820896 11:-0.95265 12:0.887421 13:-0.92073 14:-0.870968 15:-0.968303 16:-0.870968 17:-0.870968 18:-0.767742 19:-0.568862 21:-0.509987 22:0.0625 23:-0.94437 24:-1 25:-0.92073 26:-1 27:-0.956636 29:-0.54396 30:-0.778195 31:-0.413646 32:-0.73075 33:-0.736995 34:-0.73075 35:-0.547486 36:-0.659328 37:-0.99799 38:-0.951184 39:-0.99799 40:-1 41:-0.89916 42:-0.125 43:-0.866667 44:-1 45:-0.481481 46:-1 47:-0.821782 48:-0.292517 49:-0.882353 50:-0.860465 51:-1 52:0.179732 53:-1 54:-1 55:-0.549223 56:-0.0833333 57:-0.64574 58:-0.939591 
8 1:-0.884251 2:-0.631876 3:-0.719828 4:-0.905203 5:-0.858235 6:-0.809886 7:-0.950128 8:-0.809886 9:-0.907145 10:-0.432836 11:-0.923152 12:0.884765 13:-0.897124 14:-0.709677 15:-0.940054 16:-0.709677 17:-0.709677 18:-0.819355 19:-0.700599 21:-0.443409 22:-0.22804 23:-0.909677 24:-1 25:-0.897124 26:-1 27:-0.943122 29:-0.654039 30:-0.767958 31:-0.714286 32:-0.516573 33:-0.603082 34:-0.516573 35:-0.692737 36:-0.613589 37:-0.995979 38:-0.917936 39:-0.995979 40:-1 41:-0.478992 42:-1 43:-0.8 44:-1 45:-0.925926 46:-1 47:-0.50495 48:-0.714286 49:-0.882353 50:-0.604651 51:-1 52:0.261728 53:-1 54:-1 55:-0.393782 56:-0.166667 57:-0.511211 58:-0.922717 
-8 1:-0.89026 2:-0.732382 3:-0.737069 4:-0.934177 5:-0.833399 6:-0.908745 7:-0.965559 8:-0.908745 9:-0.913851 10:-0.820896 11:-0.929159 12:0.869253 13:-0.896033 14:-0.935484 15:-0.980834 16:-0.935484 17:-0.935484 18:-0.822581 19:-0.748503 21:-0.576565 22:0.106933 23:-0.963847 24:-1 25:-0.896033 26:-1 27:-0.937957 29:-0.732666 30:-0.80447 31:-0.767591 32:-0.854156 33:-0.827719 34:-0.854156 35:-0.636872 36:-0.691497 37:-0.995756 38:-0.875373 39:-0.995756 40:-1 41:-0.546218 42:-1 43:-0.8 44:-0.714286 45:-0.481481 46:-1 47:-0.742574 48:-0.795918 49:-0.882353 50:-0.930233 51:-1 52:0.087234 53:-1 54:-1 55:-0.564767 56:-0.5 57:-0.70852 58:-0.950215 
8 1:-0.915008 2:-0.630687 3:-0.474138 4:-0.876891 5:-0.827891 6:-0.581749 7:-0.91547 8:-0.581749 9:-0.834924 10:-0.223881 11:-0.947937 12:0.86445 13:-0.921341 14:-0.580645 15:-0.93329 16:-0.580645 17:-0.580645 18:-0.545161 19:-0.784431 21:-0.158455 22:0.152277 23:-0.949117 24:-1 25:-0.921341 26:-1 27:-0.8143 29:-0.252323 30:-0.68606 31:-0.641791 32:-0.693014 33:-0.805812 34:-0.693014 35:-0.547486 36:-0.582333 37:-0.992796 38:-0.886722 39:-0.992796 40:-1 41:-0.226891 42:-1 43:-0.8 44:-1 45:-0.259259 46:-1 47:-0.742574 48:-0.755102 49:-1 50:-0.860465 51:-1 52:0.0707197 53:-1 54:-1 55:-0.243523 56:-0.666667 57:-0.201794 58:-0.909994 
-8 1:-0.891949 2:-0.847755 3:-0.836207 4:-0.951285 5:-0.873588 6:-0.840304 7:-0.918656 8:-0.840304 9:-0.950993 10:-0.850746 11:-0.931148 12:0.904421 13:-0.901648 14:-0.903226 15:-0.9612 16:-0.903226 17:-0.903226 18:-0.948387 19:-0.820359 21:-0.6751 22:-0.233422 23:-0.952526 24:-1 25:-0.901648 26:-1 27:-0.951906 29:-0.815583 30:-0.85122 31:-0.701493 32:-0.808261 33:-0.694317 34:-0.808261 35:-0.837989 36:-0.721188 37:-0.994304 38:-0.774259 39:-0.994304 40:-1 41:-0.983193 42:-1 43:-1 44:-1 45:-1 46:-0.882353 47:-0.861386 48:-0.809524 49:-0.764706 50:-0.930233 51:-1 52:0.219341 53:-1 54:-1 55:-0.658031 56:-0.5 57:-0.762332 58:-0.959111 
-8 1:-0.880585 2:-0.973238 3:-0.991379 4:-0.994405 5:-0.839044 6:-0.977186 7:-0.902188 8:-0.977186 9:-0.995357 10:-1 11:-0.923336 12:0.876593 13:-0.879227 14:-0.903226 15:-0.673418 16:-0.903226 17:-0.903226 18:-1 19:-0.952096 21:-0.965379 22:0.563218 23:-0.985393 24:-1 25:-0.879227 26:-1 27:-0.992053 29:-0.979986 30:-0.981232 31:-0.976546 32:-0.981642 33:-0.753651 34:-0.981642 35:-0.96648 36:-0.912642 37:-1 38:-1 39:-1 40:-1 41:-0.94958 42:-1 43:-1 44:-1 45:-1 46:-1 47:-0.980198 48:-0.972789 49:-1 50:-1 51:-1 52:-0.165714 53:-1 54:-1 55:-0.968912 56:-0.666667 57:-0.955157 58:-0.995481 
8 1:-0.92822 2:-0.985132 3:-0.987069 4:-0.995568 5:-0.859703 6:-0.969582 7:-0.836963 8:-0.969582 9:-0.993294 10:-1 11:-0.946373 12:0.861361 13:-0.912452 14:-1 15:-1 16:-1 17:-1 18:-0.996774 19:-1 21:-0.973369 22:-0.0229885 23:-0.990749 24:-1 25:-0.912452 26:-1 27:-0.997498 29:-0.971408 30:-0.988739 31:-0.978678 32:-0.970423 33:-0.503826 34:-0.970423 35:-0.977654 36:-0.922705 37:-1 38:-1 39:-1 40:-1 41:-0.966387 42:-1 43:-1 44:-1 45:-1 46:-1 47:-1 48:-0.945578 49:-1 50:-1 51:-1 52:0.191837 53:-1 54:-1 55:-0.984456 56:-0.833333 57:-0.977578 58:-0.996387 
-5.840974724825118 1:-0.890873 2:-0.879274 3:-0.788793 4:-0.957189 5:-0.835501 6:-0.984791 7:-0.99119 8:-0.984791 9:-0.944803 10:-0.791045 11:-0.930782 12:0.874223 13:-0.903393 14:-0.967742 15:-0.985292 16:-0.967742 17:-0.967742 18:-0.906452 19:-0.616766 21:-0.704394 22:0.0330695 23:-0.969324 24:-1 25:-0.903393 26:-1 27:-0.96278 29:-0.827019 30:-0.882955 31:-0.473348 32:-0.955125 33:-0.91864 34:-0.955125 35:-0.687151 36:-0.752674 37:-1 38:-1 39:-1 40:-1 41:-0.915966 42:-1 43:-1 44:-1 45:-0.703704 46:-0.764706 47:-0.70297 48:-0.619048 49:-0.764706 50:-0.72093 51:-1 52:0.145433 53:-1 54:-1 55:-0.502591 56:-0.416667 57:-0.874439 58:-0.967589 
8 1:-0.903555 2:-0.91793 3:-0.857759 4:-0.974874 5:-0.829783 6:-0.855513 7:-0.857904 8:-0.855513 9:-0.966985 10:-0.940299 11:-0.935718 12:0.857572 13:-0.8998 14:-0.903226 15:-0.925088 16:-0.903226 17:-0.903226 18:-0.941935 19:-0.832335 21:-0.83755 22:0.0658307 23:-0.974194 24:-1 25:-0.8998 26:-1 27:-0.975243 29:-0.875625 30:-0.927657 31:-0.865672 32:-0.925548 33:-0.770829 34:-0.925548 35:-0.877095 36:-0.812816 37:-0.99933 38:-0.948724 39:-0.99933 40:-1 41:-0.932773 42:-1 43:-1 44:-1 45:-1 46:-1 47:-0.90099 48:-0.85034 49:-1 50:-0.976744 51:-1 52:0.0191558 53:-1 54:-1 55:-0.880829 56:-0.5 57:-0.865471 58:-0.981052 
-8 1:-0.854955 2:-0.74606 3:-0.676724 4:-0.925333 5:-0.791457 6:-0.665399 7:-0.888631 8:-0.665399 9:-0.908176 10:-0.641791 11:-0.890737 12:0.797834 13:-0.857696 14:-0.709677 15:-0.92394 16:-0.709677 17:-0.709677 18:-0.787097 19:-0.796407 21:-0.603196 22:-0.0288741 23:-0.961412 24:-1 25:-0.857696 26:-1 27:-0.945844 29:-0.764117 30:-0.816755 31:-0.739872 32:-0.713412 33:-0.701442 34:-0.713412 35:-0.675978 36:-0.681304 37:-0.998101 38:-0.95083 39:-0.998101 40:-1 41:-0.546218 42:-0.875 43:-0.933333 44:-1 45:-0.703704 46:-0.764706 47:-0.821782 48:-0.795918 49:-0.764706 50:-0.837209 51:-1 52:0.181067 53:-1 54:-1 55:-0.569948 56:-0.333333 57:-0.686099 58:-0.94696 
8 1:-0.925722 2:-0.983943 3:-0.99569 4:-0.995807 5:-0.851569 6:-0.984791 7:-0.914067 8:-0.984791 9:-0.995873 10:-1 11:-0.95425 12:0.880419 13:-0.92035 14:-1 15:-1 16:-1 17:-1 18:-0.996774 19:-0.988024 21:-0.970706 22:0.465517 23:-0.99014 24:-1 25:-0.92035 26:-1 27:-0.998773 29:-0.972838 30:-0.987715 31:-0.974414 32:-0.984702 33:-0.729461 34:-0.984702 35:-0.988827 36:-0.925701 37:-1 38:-1 39:-1 40:-1 41:-1 42:-1 43:-1 44:-1 45:-1 46:-1 47:-0.90099 48:-0.972789 49:-1 50:-1 51:-1 52:0.0428571 53:-1 54:-1 55:-0.968912 56:-0.916667 57:-0.96861 58:-0.996637 
8 1:-0.854148 2:-0.734166 3:-0.551724 4:-0.907812 5:-0.766442 6:-0.787072 7:-0.942567 8:-0.787072 9:-0.882383 10:-0.522388 11:-0.878747 12:0.746496 13:-0.844684 14:-0.806452 15:-0.958908 16:-0.806452 17:-0.806452 18:-0.780645 19:-0.832335 21:-0.480692 22:0.121087 23:-0.953621 24:-1 25:-0.844684 26:-1 27:-0.923889 29:-0.691208 30:-0.753284 31:-0.680171 32:-0.770525 33:-0.806269 34:-0.770525 35:-0.452514 36:-0.653318 37:-0.994862 38:-0.892179 39:-0.994862 40:-1 41:-0.596639 42:-1 43:-0.933333 44:-1 45:-0.333333 46:-1 47:-0.722772 48:-0.823129 49:-1 50:-0.767442 51:-1 52:-0.0196182 53:-1 54:-1 55:-0.476684 56:-0.416667 57:-0.506726 58:-0.937492 
8 1:-0.904359 2:-0.82694 3:-0.685345 4:-0.954432 5:-0.846988 6:-0.680608 7:-0.826131 8:-0.680608 9:-0.955636 10:-0.761194 11:-0.944133 12:0.893704 13:-0.911959 14:-0.741935 15:-0.889423 16:-0.741935 17:-0.741935 18:-0.86129 19:-0.964072 21:-0.680426 22:0.152874 23:-0.971029 24:-1 25:-0.911959 26:-1 27:-0.971184 29:-0.786991 30:-0.847125 31:-0.855011 32:-0.837838 33:-0.723702 34:-0.837838 35:-0.815642 36:-0.740147 37:-0.998325 38:-0.929042 39:-0.998325 40:-1 41:-0.596639 42:-1 43:-1 44:-1 45:-0.925926 46:-0.882353 47:-0.742574 48:-0.877551 49:-0.882353 50:-0.860465 51:-1 52:-0.0266667 53:-1 54:-1 55:-0.642487 56:-0.25 57:-0.627803 58:-0.964334 
8 1:-0.896253 2:-0.913173 3:-0.862069 4:-0.977429 5:-0.830033 6:-0.885932 7:-0.875242 8:-0.885932 9:-0.979365 10:-0.970149 11:-0.932423 12:0.863537 13:-0.891901 14:-0.83871 15:-0.861149 16:-0.83871 17:-0.83871 18:-0.951613 19:-0.952096 21:-0.842876 22:-0.104406 23:-0.975776 24:-1 25:-0.891901 26:-1 27:-0.985752 29:-0.898499 30:-0.940966 31:-0.921109 32:-0.925548 33:-0.745136 34:-0.925548 35:-0.899441 36:-0.821553 37:-1 38:-1 39:-1 40:-1 41:-0.798319 42:-1 43:-1 44:-1 45:-0.925926 46:-0.882353 47:-0.960396 48:-0.863946 49:-0.882353 50:-0.976744 51:-1 52:0.129762 53:-1 54:-1 55:-0.932642 56:-0.25 57:-0.843049 58:-0.982709 
-6.041428519441822 1:-0.937846 2:-0.978591 3:-0.978448 4:-0.990323 5:-0.850705 6:-0.946768 7:-0.865914 8:-0.946768 9:-0.985556 10:-1 11:-0.961536 12:0.86658 13:-0.957309 14:-1 15:-1 16:-1 17:-1 18:-0.980645 19:-0.976048 21:-0.91478 22:-0.458886 23:-0.990992 24:-1 25:-0.957309 26:-1 27:-0.988812 29:-0.908506 30:-0.978502 31:-0.987207 32:-0.943906 33:-0.557762 34:-0.943906 35:-0.977654 36:-0.88638 37:-1 38:-1 39:-1 40:-1 41:-0.89916 42:-1 43:-0.866667 44:-1 45:-1 46:-1 47:-0.980198 48:-0.986395 49:-1 50:-0.976744 51:-1 52:0.251429 53:-1 54:-1 55:-0.984456 56:-0.583333 57:-0.896861 58:-0.992643 
0.9978603788487796 1:-0.878761 2:-0.0139756 3:0.431034 4:-0.772595 5:-0.853342 6:-0.908745 7:-0.990008 8:-0.908745 9:-0.741553 10:0.641791 11:-0.907194 12:0.847833 13:-0.877996 14:-0.870968 15:-0.988879 16:-0.870968 17:-0.870968 18:-0.364516 19:1 21:0.296937 22:0.15953 23:-0.896287 24:-1 25:-0.877996 26:-1 27:-0.866754 29:-0.220872 30:-0.315134 31:0.96162 32:-0.354411 33:-0.778739 34:-0.354411 35:1 36:-0.40679 37:-0.997431 38:-0.978114 39:-0.997431 40:-1 41:0.159664 42:-1 43:-0.466667 44:-0.714286 45:-0.037037 46:0.647059 47:0.70297 48:-0.346939 49:0.411765 50:0.0232558 51:-1 52:0.077237 53:-1 54:-1 55:1 56:-0.166667 57:0.282511 58:-0.820536 
-8 1:-0.906634 2:-0.920904 3:-0.969828 4:-0.975977 5:-0.837519 6:-0.931559 7:-0.929627 8:-0.931559 9:-0.973691 10:-0.940299 11:-0.936772 12:0.860954 13:-0.897337 14:-1 15:-1 16:-1 17:-1 18:-0.929032 19:-0.976048 21:-0.824234 22:0.0689655 23:-0.980402 24:-1 25:-0.897337 26:-1 27:-0.985906 29:-0.879914 30:-0.935847 31:-0.950959 32:-0.892912 33:-0.655364 34:-0.892912 35:-0.905028 36:-0.815788 37:-0.999162 38:-0.932987 39:-0.999162 40:-1 41:-0.865546 42:-1 43:-1 44:-1 45:-0.925926 46:-1 47:-0.821782 48:-0.904762 49:-1 50:-0.953488 51:-1 52:0.104202 53:-1 54:-1 55:-0.896373 56:-0.25 57:-0.910314 58:-0.981624 
-3.767003399350739 1:-0.873935 2:-0.558133 3:-0.439655 4:-0.856482 5:-0.798025 6:-0.125475 7:-0.848351 8:-0.125475 9:-0.842662 10:-0.402985 11:-0.912583 12:0.82639 13:-0.88251 14:-0.580645 15:-0.942762 16:-0.580645 17:-0.580645 18:-0.722581 19:-0.760479 21:-0.115846 22:0.0762392 23:-0.939501 24:-1 25:-0.88251 26:-1 27:-0.950991 29:-0.452466 30:-0.633168 31:-0.71855 32:-0.337073 33:-0.640197 34:-0.337073 35:-0.586592 36:-0.552506 37:-0.997822 38:-0.970616 39:-0.997822 40:-1 41:-0.0252101 42:-1 43:-0.866667 44:-1 45:-0.407407 46:-0.882353 47:-0.60396 48:-0.70068 49:-0.882353 50:-0.674419 51:-1 52:0.151488 53:-1 54:-1 55:-0.165803 56:0.5 57:-0.300448 58:-0.896949 
-8 1:-0.864148 2:-0.999405 3:-1 4:-0.999299 5:-0.823277 6:-1 7:-1 8:-1 9:-1 10:-1 11:-0.812449 12:0.594099 13:-0.864292 14:-1 15:-1 16:-1 17:-1 18:-1 19:-1 21:-0.997337 22:0.465517 23:-0.997079 24:-1 25:-0.864292 26:-1 27:-0.999225 29:-0.99857 30:-1 31:-1 32:-0.99796 33:-0.826875 34:-0.99796 35:-1 36:-0.971794 37:-0.999944 38:-0.882178 39:-0.999944 40:-1 41:-1 42:-1 43:-1 44:-1 45:-1 46:-1 47:-1 48:-1 49:-1 50:-1 51:-1 52:0.0428571 53:-1 54:-1 55:-0.994819 56:-0.75 57:-1 58:-0.999368 
-8 1:-0.900684 2:-0.955992 3:-0.974138 4:-0.986233 5:-0.820716 6:-0.984791 7:-0.972893 8:-0.984791 9:-0.980397 10:-0.940299 11:-0.926795 12:0.831251 13:-0.894851 14:-1 15:-1 16:-1 17:-1 18:-0.967742 19:-0.976048 21:-0.896138 22:-0.0229885 23:-0.98454 24:-1 25:-0.894851 26:-1 27:-0.984821 29:-0.932809 30:-0.9669 31:-0.98081 32:-0.954105 33:-0.743977 34:-0.954105 35:-0.960894 36:-0.865176 37:-0.999553 38:-0.938048 39:-0.999553 40:-1 41:-0.815126 42:-1 43:-1 44:-1 45:-1 46:-1 47:-0.940594 48:-0.959184 49:-1 50:-1 51:-1 52:0.0428571 53:-1 54:-1 55:-0.937824 56:-0.583333 57:-0.910314 58:-0.989852 
-8 1:-0.927551 2:-0.997026 3:-1 4:-0.998346 5:-0.867943 6:-0.992395 7:-0.898752 8:-0.992395 9:-0.997937 10:-1 11:-0.970618 12:0.936368 13:-0.944818 14:-1 15:-1 16:-1 17:-1 18:-0.987097 19:-1 21:-0.989348 22:0.465517 23:-0.993792 24:-1 25:-0.944818 26:-1 27:-0.998991 29:-0.989993 30:-0.994881 31:-0.991471 32:-0.99694 33:-0.872498 34:-0.99694 35:-0.994413 36:-0.953226 37:-1 38:-1 39:-1 40:-1 41:-1 42:-1 43:-1 44:-1 45:-1 46:-1 47:-0.980198 48:-0.986395 49:-1 50:-1 51:-1 52:0.0428571 53:-1 54:-1 55:-0.984456 56:-0.833333 57:-0.982063 58:-0.998521 
-8 1:-0.934108 2:-0.992864 3:-0.99569 4:-0.996728 5:-0.865469 6:-0.954373 7:-0.674107 8:-0.954373 9:-0.997937 10:-1 11:-0.936253 12:0.826082 13:-0.92022 14:-1 15:-1 16:-1 17:-1 18:-1 19:-1 21:-0.973369 22:0.0344828 23:-0.993792 24:-1 25:-0.92022 26:-1 27:-0.994188 29:-0.977127 30:-0.994881 31:-0.991471 32:-0.993881 33:-0.863201 34:-0.993881 35:-1 36:-0.93428 37:-1 38:-1 39:-1 40:-1 41:-1 42:-1 43:-1 44:-1 45:-1 46:-1 47:-1 48:-0.986395 49:-1 50:-1 51:-1 52:0.104202 53:-1 54:-1 55:-1 56:-0.833333 57:-0.964126 58:-0.997305 
2.051826915298827 1:-0.933017 2:-0.931609 3:-0.939655 4:-0.97841 5:-0.857157 6:-0.946768 7:-0.939159 8:-0.946768 9:-0.972659 10:-0.970149 11:-0.954277 12:0.868884 13:-0.917905 14:-0.967742 15:-0.97098 16:-0.967742 17:-0.967742 18:-0.970968 19:-0.904192 21:-0.813582 22:0.161852 23:-0.98308 24:-1 25:-0.917905 26:-1 27:-0.981314 29:-0.842745 30:-0.931411 31:-0.859275 32:-0.916369 33:-0.70083 34:-0.916369 35:-0.921788 36:-0.824929 37:-0.999888 38:-0.990068 39:-0.999888 40:-1 41:-0.94958 42:-1 43:-1 44:-1 45:-1 46:-1 47:-0.841584 48:-0.70068 49:-1 50:-0.813953 51:-1 52:0.0146718 53:-1 54:-1 55:-0.865285 56:-0.416667 57:-0.820628 58:-0.98333 
-8 1:-0.923884 2:-0.784121 3:-0.62931 4:-0.940907 5:-0.865371 6:-0.855513 7:-0.939281 8:-0.855513 9:-0.907145 10:-0.761194 11:-0.955933 12:0.90202 13:-0.920262 14:-0.580645 15:-0.861288 16:-0.580645 17:-0.580645 18:-0.845161 19:-0.94012 21:-0.536618 22:0.0669456 23:-0.967255 24:-1 25:-0.920262 26:-1 27:-0.971673 29:-0.659757 30:-0.818802 31:-0.848614 32:-0.840898 33:-0.790732 34:-0.840898 35:-0.798883 36:-0.699216 37:-0.996705 38:-0.892272 39:-0.996705 40:-1 41:-0.630252 42:-1 43:-0.933333 44:-1 45:-0.925926 46:-1 47:-0.821782 48:-0.891156 49:-1 50:-0.953488 51:-1 52:0.0384937 53:-1 54:-1 55:-0.621762 57:-0.600897 58:-0.952612 
-8 1:-0.911464 2:-0.575379 3:-0.573276 4:-0.871882 5:-0.826827 6:-0.855513 7:-0.971938 8:-0.855513 9:-0.851947 10:-0.253731 11:-0.948321 12:0.87236 13:-0.915956 14:-0.129032 15:-0.866855 16:-0.129032 17:-0.129032 18:-0.629032 19:-0.868263 21:0.0918775 22:0.0036227 23:-0.956421 24:-1 25:-0.915956 26:-1 27:-0.914536 29:-0.266619 30:-0.659103 31:-0.577825 32:-0.54819 33:-0.725355 34:-0.54819 35:-0.603352 36:-0.572541 37:-0.997375 38:-0.960339 39:-0.997375 40:-1 41:0.630252 42:-0.875 43:-0.266667 44:-1 45:0.037037 46:-0.882353 47:0.128713 48:-0.360544 49:-0.764706 50:-0.302326 51:-1 52:-0.00989439 53:-1 54:-1 55:-0.305699 56:-0.25 57:-0.0627803 58:-0.905808 
-8 1:-0.908611 2:-0.992269 3:-1 4:-0.998273 5:-0.838476 6:-0.992395 7:-0.902537 8:-0.992395 9:-0.998968 10:-1 11:-0.920121 12:0.81261 13:-0.894866 14:-1 15:-1 16:-1 17:-1 18:-0.993548 19:-1 21:-0.986684 22:-0.162562 23:-0.995009 24:-1 25:-0.894866 26:-1 27:-0.997255 29:-0.991422 30:-0.993858 31:-0.991471 32:-0.989801 33:-0.59088 34:-0.989801 35:-1 36:-0.953883 37:-1 38:-1 39:-1 40:-1 41:-1 42:-1 43:-1 44:-1 45:-1 46:-1 47:-0.980198 48:-1 49:-1 50:-1 51:-1 52:0.191837 53:-1 54:-1 55:-0.989637 56:-0.916667 57:-0.986547 58:-0.998557 
-8 1:-0.891019 2:-0.905442 3:-0.758621 4:-0.96924 5:-0.840137 6:-0.923954 7:-0.938815 8:-0.923954 9:-0.952025 10:-0.671642 11:-0.923912 12:0.859176 13:-0.896482 14:-0.774194 15:-0.856997 16:-0.774194 17:-0.774194 18:-0.9 19:-0.784431 21:-0.786951 22:0.0780816 23:-0.970907 24:-1 25:-0.896482 26:-1 27:-0.970407 29:-0.877055 30:-0.919468 31:-0.776119 32:-0.935747 33:-0.838194 34:-0.935747 35:-0.837989 36:-0.790049 37:-0.997878 38:-0.867157 39:-0.997878 40:-1 41:-0.915966 42:-1 43:-1 44:-1 45:-1 46:-0.882353 47:-0.90099 48:-0.904762 49:-1 50:-0.906977 51:-1 52:0.0308703 53:-1 54:-1 55:-0.73057 56:-0.5 57:-0.793722 58:-0.976378 
8 1:-0.892275 2:-0.779958 3:-0.896552 4:-0.959755 5:-0.866158 6:-0.931559 7:-0.957841 8:-0.931559 9:-0.954604 10:-0.970149 11:-0.926305 12:0.884649 13:-0.888648 14:-0.709677 15:-0.859237 16:-0.709677 17:-0.709677 18:-0.922581 19:-0.892216 21:-0.744341 22:-0.0319519 23:-0.966403 24:-1 25:-0.888648 26:-1 27:-0.976836 29:-0.845604 30:-0.837229 31:-0.833689 32:-0.837838 33:-0.687356 34:-0.837838 35:-0.832402 36:-0.750101 37:-0.999888 38:-0.994647 39:-0.999888 40:-1 41:-0.663866 42:-1 43:-0.933333 44:-1 45:-1 46:-0.882353 47:-0.70297 48:-0.891156 49:-0.882353 50:-0.883721 51:-1 52:0.22464 53:-1 54:-1 55:-0.80829 56:-0.166667 57:-0.7713 58:-0.966933 
8 1:-0.940942 2:-0.984538 3:-1 4:-0.993314 5:-0.880625 6:-0.977186 7:-0.917638 8:-0.977186 9:-0.992262 10:-1 11:-0.968915 12:0.913906 13:-0.937287 14:-1 15:-1 16:-1 17:-1 18:-0.996774 19:-0.964072 21:-0.933422 22:0.339901 23:-0.989288 24:-1 25:-0.937287 26:-1 27:-0.994995 29:-0.951394 30:-0.976113 31:-0.96162 32:-0.976543 33:-0.734942 34:-0.976543 35:-0.972067 36:-0.902399 37:-1 38:-1 39:-1 40:-1 41:-0.966387 42:-1 43:-1 44:-1 45:-1 46:-1 47:-0.960396 48:-0.931973 49:-0.882353 50:-1 51:-1 52:-0.165714 53:-1 54:-1 55:-0.932642 56:-0.916667 57:-0.93722 58:-0.994455 
8 1:-0.894847 2:-0.526613 3:-0.456897 4:-0.864373 5:-0.845061 6:-0.612167 7:-0.92884 8:-0.612167 9:-0.829765 10:-0.313433 11:-0.922233 12:0.851338 13:-0.89152 14:-0.612903 15:-0.944095 16:-0.612903 17:-0.612903 18:-0.622581 19:-0.401198 21:-0.0972037 22:0.0217601 23:-0.929519 24:-1 25:-0.89152 26:-1 27:-0.909832 29:-0.4396 30:-0.630097 31:-0.339019 32:-0.679755 33:-0.816091 34:-0.679755 35:-0.296089 36:-0.548933 37:-0.994192 38:-0.917091 39:-0.994192 40:-1 41:-0.512605 42:-1 43:-0.8 44:-0.714286 45:-0.555556 46:-0.882353 47:-0.267327 48:-0.673469 49:-0.647059 50:-0.604651 51:-1 52:0.087968 53:-1 54:-1 55:0.145078 56:-0.25 57:-0.461883 58:-0.895327 
8 1:-0.916831 2:-0.887006 3:-0.702586 4:-0.951983 5:-0.839886 6:-0.56654 7:-0.776013 8:-0.56654 9:-0.943771 10:-0.940299 11:-0.953141 12:0.886003 13:-0.917187 14:-0.83871 15:-0.934398 16:-0.83871 17:-0.83871 18:-0.896774 19:-0.892216 21:-0.651132 22:0.0405172 23:-0.969811 24:-1 25:-0.917187 26:-1 27:-0.970882 29:-0.715511 30:-0.895581 31:-0.820896 32:-0.869454 33:-0.788862 34:-0.869454 35:-0.815642 36:-0.735835 37:-0.999274 38:-0.970812 39:-0.999274 40:-1 41:-0.764706 42:-1 43:-0.933333 44:-1 45:-1 46:-1 47:-0.90099 48:-0.809524 49:-1 50:-0.813953 51:-1 52:0.105429 53:-1 54:-1 55:-0.735751 56:-0.166667 57:-0.7713 58:-0.963177 
8 1:-0.871176 2:-0.540291 3:-0.375 4:-0.835399 5:-0.777949 6:-0.00380228 7:-0.849349 8:-0.00380228 9:-0.81171 10:-0.432836 11:-0.922305 12:0.841266 13:-0.890674 14:-0.516129 15:-0.942404 16:-0.516129 17:-0.516129 18:-0.503226 19:-0.437126 21:-0.00133156 22:0.0564608 23:-0.9507 24:-1 25:-0.890674 26:-1 27:-0.953586 29:-0.350965 30:-0.612353 31:-0.569296 32:-0.27078 33:-0.654844 34:-0.27078 35:-0.335196 36:-0.530212 37:-0.997263 38:-0.967804 39:-0.997263 40:-1 41:0.0252101 42:-1 43:-0.933333 44:-1 45:-0.185185 46:-0.882353 47:-0.544554 48:-0.510204 49:-0.764706 50:-0.72093 51:-1 52:0.118493 53:-1 54:-1 55:-0.0673575 56:0.75 57:-0.139013 58:-0.886622 
8 1:-0.864785 2:-0.922688 3:-0.823276 4:-0.970382 5:-0.855347 6:-0.946768 7:-0.95553 8:-0.946768 9:-0.97627 10:-0.820896 11:-0.888464 12:0.82453 13:-0.871554 14:-0.967742 15:-0.978789 16:-0.967742 17:-0.967742 18:-0.848387 19:-0.988024 21:-0.856192 22:-0.313039 23:-0.968351 24:-1 25:-0.871554 26:-1 27:-0.984012 29:-0.909936 30:-0.932093 31:-0.84435 32:-0.946966 33:-0.861332 34:-0.946966 35:-0.849162 36:-0.788568 37:-0.999442 38:-0.963703 39:-0.999442 40:-1 41:-0.915966 42:-1 43:-0.866667 44:-1 45:-0.925926 46:-1 47:-0.920792 48:-0.972789 49:-1 50:-0.953488 51:-1 52:0.531696 53:-1 54:-1 55:-0.813472 56:-0.166667 57:-0.856502 58:-0.976056 
8 1:-0.895564 2:-0.760928 3:-0.883621 4:-0.949644 5:-0.872116 6:-0.961977 7:-0.981261 8:-0.961977 9:-0.934485 10:-0.850746 11:-0.931792 12:0.898163 13:-0.895625 14:-0.677419 15:-0.874864 16:-0.677419 17:-0.677419 18:-0.919355 19:-0.88024 21:-0.683089 22:0.155298 23:-0.958491 24:-1 25:-0.895625 26:-1 27:-0.925482 29:-0.805575 30:-0.817096 31:-0.859275 32:-0.807241 33:-0.702663 34:-0.807241 35:-0.798883 36:-0.719893 37:-0.996705 38:-0.873661 39:-0.996705 40:-1 41:-0.512605 42:-1 43:-0.933333 44:-1 45:-0.777778 46:-1 47:-0.821782 48:-0.918367 49:-1 50:-0.906977 51:-1 52:-0.0561001 53:-1 54:-1 55:-0.746114 56:-0.666667 57:-0.600897 58:-0.958741 
8 1:-0.914186 2:-0.913767 3:-0.887931 4:-0.979693 5:-0.863922 6:-0.977186 7:-0.972296 8:-0.977186 9:-0.966985 10:-1 11:-0.943523 12:0.887015 13:-0.911113 14:-0.903226 15:-0.907499 16:-0.903226 17:-0.903226 18:-0.977419 19:-0.892216 21:-0.853529 22:0.155901 23:-0.983201 24:-1 25:-0.911113 26:-1 27:-0.973132 29:-0.899929 30:-0.940966 31:-0.882729 32:-0.957165 33:-0.837191 34:-0.957165 35:-0.893855 36:-0.82717 37:-0.997319 38:-0.746738 39:-0.997319 40:-1 41:-0.865546 42:-1 43:-0.933333 44:-1 45:-0.925926 46:-0.882353 47:-0.90099 48:-0.918367 49:-0.882353 50:-0.930233 51:-1 52:0.145674 53:-1 54:-1 55:-0.896373 56:-0.666667 57:-0.860987 58:-0.983735 
-8 1:-0.892521 2:-0.839429 3:-0.896552 4:-0.966487 5:-0.858468 6:-0.946768 7:-0.960665 8:-0.946768 9:-0.950477 10:-0.552239 11:-0.929552 12:0.886706 13:-0.897615 14:-0.967742 15:-0.981238 16:-0.967742 17:-0.967742 18:-0.890323 19:-0.904192 21:-0.792277 22:0.115067 23:-0.972489 24:-1 25:-0.897615 26:-1 27:-0.961883 29:-0.869907 30:-0.909913 31:-0.936034 32:-0.935747 33:-0.851396 34:-0.935747 35:-0.854749 36:-0.775556 37:-0.998939 38:-0.938998 39:-0.998939 40:-1 41:-0.613445 42:-1 43:-0.933333 44:-1 45:-0.777778 46:-1 47:-0.90099 48:-0.972789 49:-1 50:-0.837209 51:-1 52:0.11087 53:-1 54:-1 55:-0.683938 56:-0.583333 57:-0.654709 58:-0.973134 
4.875035811982225 1:-0.899886 2:-0.768659 3:-0.711207 4:-0.91698 5:-0.817949 6:-0.961977 7:-0.988614 8:-0.961977 9:-0.890637 10:-0.462687 11:-0.92114 12:0.815109 13:-0.8967 14:-0.548387 15:-0.893557 16:-0.548387 17:-0.548387 18:-0.780645 19:-0.904192 21:-0.440746 22:0.141561 23:-0.962508 24:-1 25:-0.8967 26:-1 27:-0.955649 29:-0.593996 30:-0.810613 31:-0.872068 32:-0.699133 33:-0.71802 34:-0.699133 35:-0.815642 36:-0.660397 37:-0.992181 38:-0.817853 39:-0.992181 40:-1 41:-0.378151 42:-1 43:-0.866667 44:-1 45:-0.111111 46:-0.882353 47:-0.881188 48:-0.931973 49:-0.764706 50:-0.883721 51:-1 52:0.00992481 53:-1 54:-1 55:-0.637306 56:-0.0833333 57:-0.556054 58:-0.93996 
-8 1:-0.928183 2:-0.839429 3:-0.741379 4:-0.9519 5:-0.884731 6:-0.992395 7:-0.996077 8:-0.992395 9:-0.950477 10:-0.671642 11:-0.95865 12:0.91782 13:-0.92704 14:-0.967742 15:-0.986902 16:-0.967742 17:-0.967742 18:-0.858065 19:-0.796407 21:-0.661784 22:0.222571 23:-0.968716 24:-1 25:-0.92704 26:-1 27:-0.960705 29:-0.734096 30:-0.823921 31:-0.556503 32:-0.902091 33:-0.841919 34:-0.902091 35:-0.687151 36:-0.725362 37:-0.99503 38:-0.800521 39:-0.99503 40:-1 41:-0.848739 42:-1 43:-0.8 44:-1 45:-0.925926 46:-1 47:-0.683168 48:-0.714286 49:-0.764706 50:-0.813953 51:-0.333333 52:0.0484339 53:-1 54:-1 55:-0.668394 56:-0.416667 57:-0.632287 58:-0.960291 
8 1:-0.898603 2:-0.981564 3:-0.961207 4:-0.994911 5:-0.851369 6:-0.977186 7:-0.892857 8:-0.977186 9:-0.990199 10:-0.970149 11:-0.933471 12:0.879794 13:-0.912372 14:-1 15:-1 16:-1 17:-1 18:-0.990323 19:-0.988024 21:-0.960053 22:-0.267241 23:-0.988558 24:-1 25:-0.912372 26:-1 27:-0.992079 29:-0.978556 30:-0.98908 31:-0.997868 32:-0.942886 33:-0.160464 34:-0.942886 35:-0.994413 36:-0.916352 37:-1 38:-1 39:-1 40:-1 41:-0.966387 42:-1 43:-1 44:-1 45:-1 46:-1 47:-1 48:-1 49:-1 50:-1 51:-1 52:0.173214 53:-1 54:-1 55:-0.984456 56:-0.75 57:-0.982063 58:-0.995826 
-8 1:-0.92848 2:-0.997026 3:-0.99569 4:-0.998852 5:-0.863478 6:-0.992395 7:-0.861217 8:-0.992395 9:-0.998452 10:-1 11:-0.922149 12:0.798756 13:-0.920157 14:-0.967742 15:-0.536618 16:-0.967742 17:-0.967742 18:-1 19:-1 21:-0.994674 22:-0.511494 23:-0.994522 24:-1 25:-0.920157 26:-1 27:-0.998821 29:-0.992852 30:-0.99727 31:-0.995736 32:-0.99592 33:-0.766973 34:-0.99592 35:-0.994413 36:-0.961969 37:-1 38:-1 39:-1 40:-1 41:-1 42:-1 43:-1 44:-1 45:-1 46:-1 47:-1 48:-1 49:-1 50:-1 51:-1 52:0.0428571 53:-1 54:-1 55:-1 56:-0.916667 57:-1 58:-0.998963 
-8 1:-0.907703 2:-0.986916 3:-0.982759 4:-0.994724 5:-0.868433 6:-1 7:-1 8:-1 9:-0.991746 10:-1 11:-0.928173 12:0.862054 13:-0.908979 14:-1 15:-1 16:-1 17:-1 18:-0.990323 19:-0.988024 21:-0.965379 22:0.206897 23:-0.989166 24:-1 25:-0.908979 26:-1 27:-0.990529 29:-0.977127 30:-0.982256 31:-0.995736 32:-0.963284 33:-0.478663 34:-0.963284 35:-0.994413 36:-0.914543 37:-0.999218 38:-0.724042 39:-0.999218 40:-1 41:-1 42:-1 43:-1 44:-1 45:-1 46:-1 47:-1 48:-1 49:-1 50:-1 51:-1 52:0.226891 53:-1 54:-1 55:-0.963731 56:-0.75 57:-0.946188 58:-0.995659 
-8 1:-0.900647 2:-0.904847 3:-0.939655 4:-0.963286 5:-0.856344 6:-1 7:-1 8:-1 9:-0.932422 10:-1 11:-0.927559 12:0.863967 13:-0.894697 14:-0.967742 15:-0.982864 16:-0.967742 17:-0.967742 18:-0.948387 19:-0.964072 21:-0.728362 22:-0.0493942 23:-0.965186 24:-1 25:-0.894697 26:-1 27:-0.946962 29:-0.842745 30:-0.863505 31:-0.803838 32:-0.812341 33:-0.603605 34:-0.812341 35:-0.893855 36:-0.765648 37:-1 38:-1 39:-1 40:-1 41:-0.983193 42:-1 43:-0.866667 44:-1 45:-1 46:-0.882353 47:-0.683168 48:-0.823129 49:-0.764706 50:-0.930233 51:-1 52:-0.0041184 53:-1 54:-1 55:-0.725389 56:-0.666667 57:-0.901345 58:-0.970797 
-8 1:-0.892673 2:-0.98989 3:-0.991379 4:-0.997912 5:-0.826204 6:-0.984791 7:-0.835586 8:-0.984791 9:-0.998452 10:-1 11:-0.937278 12:0.880501 13:-0.892675 14:-1 15:-1 16:-1 17:-1 18:-0.990323 19:-1 21:-0.984021 22:0.256158 23:-0.994644 24:-1 25:-0.892675 26:-1 27:-1 29:-0.991422 30:-0.992834 31:-0.982942 32:-0.99592 33:-0.861968 34:-0.99592 35:-0.994413 36:-0.94944 37:-1 38:-1 39:-1 40:-1 41:-1 42:-1 43:-1 44:-1 45:-1 46:-1 47:-0.960396 48:-1 49:-1 50:-1 51:-1 52:-0.404082 53:-1 54:-1 55:-0.989637 56:-1 57:-0.973094 58:-0.998307 
-8 1:-0.849779 2:-0.942908 3:-0.887931 4:-0.970522 5:-0.804384 6:-0.8327 7:-0.859579 8:-0.8327 9:-0.97008 10:-0.880597 11:-0.886446 12:0.806205 13:-0.848062 14:-0.935484 15:-0.957377 16:-0.935484 17:-0.935484 18:-0.951613 19:-0.988024 21:-0.87217 22:-0.581281 23:-0.919051 24:-1 25:-0.848062 26:-1 27:-0.986973 29:-0.911365 30:-0.942331 31:-0.976546 32:-0.878633 33:-0.681164 34:-0.878633 35:-0.960894 36:-0.796645 37:-0.999218 38:-0.948944 39:-0.999218 40:-1 41:-0.848739 42:-1 43:-0.933333 44:-1 45:-0.925926 46:-1 47:-0.861386 48:-0.986395 49:-1 50:-0.953488 51:-1 52:0.556009 53:-1 54:-1 55:-0.917098 56:-0.166667 57:-0.878924 58:-0.977785 
8 1:-0.878022 2:-0.816236 3:-0.806034 4:-0.945515 5:-0.799536 6:-0.589354 7:-0.812892 8:-0.589354 9:-0.920041 10:-0.731343 11:-0.905678 12:0.801015 13:-0.868831 14:-0.967742 15:-0.988431 16:-0.967742 17:-0.967742 18:-0.854839 19:-0.820359 21:-0.672437 22:0.0605717 23:-0.968594 24:-1 25:-0.868831 26:-1 27:-0.976576 29:-0.784132 30:-0.869988 31:-0.829424 32:-0.82254 33:-0.74692 34:-0.82254 35:-0.832402 36:-0.727622 37:-0.998101 38:-0.932689 39:-0.998101 40:-1 41:-0.663866 42:-0.75 43:-0.8 44:-1 45:-0.481481 46:-1 47:-0.881188 48:-0.823129 49:-1 50:-0.813953 51:-1 52:0.125188 53:-1 54:-1 55:-0.637306 56:0.0833333 57:-0.816143 58:-0.960923 
8 1:-0.912074 2:-0.84835 3:-0.801724 4:-0.965721 5:-0.856667 6:-1 7:-1 8:-1 9:-0.955636 10:-0.910448 11:-0.949823 12:0.902045 13:-0.911394 14:-0.870968 15:-0.926618 16:-0.870968 17:-0.870968 18:-0.93871 19:-0.892216 21:-0.762983 22:0.343391 23:-0.973341 24:-1 25:-0.911394 26:-1 27:-0.962019 29:-0.829878 30:-0.882273 31:-0.857143 32:-0.929628 33:-0.840857 34:-0.929628 35:-0.798883 36:-0.774526 37:-0.998492 38:-0.915238 39:-0.998492 40:-1 41:-0.764706 42:-1 43:-1 44:-1 45:-0.851852 46:-1 47:-0.841584 48:-0.918367 49:-0.882353 50:-0.953488 51:-1 52:-0.113571 53:-1 54:-1 55:-0.818653 56:-0.583333 57:-0.690583 58:-0.972896 
8 1:-0.896732 2:-0.981564 3:-0.969828 4:-0.992696 5:-0.869078 6:-1 7:-1 8:-1 9:-0.993294 10:-1 11:-0.930102 12:0.888889 13:-0.895531 14:-1 15:-1 16:-1 17:-1 18:-0.970968 19:-0.976048 21:-0.954727 22:-0.302135 23:-0.986732 24:-1 25:-0.895531 26:-1 27:-0.978972 29:-0.971408 30:-0.980549 31:-0.970149 32:-0.972463 33:-0.714407 34:-0.972463 35:-0.96648 36:-0.896984 37:-1 38:-1 39:-1 40:-1 41:-0.966387 42:-1 43:-1 44:-1 45:-0.777778 46:-1 47:-0.980198 48:-0.986395 49:-1 50:-0.976744 51:-0.666667 52:0.589116 53:-1 54:-1 55:-0.974093 56:-0.833333 57:-0.90583 58:-0.993871 
-0.2629311016784913 1:0.0875959 2:-0.997026 3:-0.905172 4:-0.971202 5:-0.907912 6:-0.946768 7:-0.954273 8:-0.946768 9:-1 10:-1 11:0.0797281 12:-0.0846157 13:0.101931 14:-0.387097 15:-0.585589 16:-0.387097 17:-0.387097 18:-0.996774 19:-1 21:-0.981358 22:-0.67433 23:-0.714303 24:-1 25:0.101931 26:-1 27:-0.943403 29:-0.988563 30:-0.993516 31:-0.993603 32:-0.381948 33:0.661717 34:-0.381948 35:-0.994413 36:-0.765846 37:-1 38:-1 39:-1 40:-1 41:-0.983193 42:-1 43:-1 44:-1 45:-1 46:-1 47:-1 48:-1 49:-1 50:-1 51:-1 52:0.853968 53:-1 54:-1 55:-0.979275 56:-0.75 57:-0.991031 58:-0.970845 
-8 1:-0.933247 2:-0.994053 3:-0.99569 4:-0.998395 5:-0.862518 6:-0.992395 7:-0.896011 8:-0.992395 9:-0.997937 10:-1 11:-0.949158 12:0.860083 13:-0.913484 14:-1 15:-1 16:-1 17:-1 18:-1 19:-1 21:-0.981358 22:-0.0229885 23:-0.99574 24:-1 25:-0.913484 26:-1 27:-0.998127 29:-0.988563 30:-0.995564 31:-0.991471 32:-0.986741 33:-0.432536 34:-0.986741 35:-1 36:-0.954771 37:-1 38:-1 39:-1 40:-1 41:-1 42:-1 43:-1 44:-1 45:-1 46:-1 47:-1 48:-0.972789 49:-1 50:-1 51:-1 52:-0.0730159 53:-1 54:-1 55:-0.979275 56:-0.916667 57:-0.991031 58:-0.998605 
-8 1:-0.912044 2:-0.890574 3:-0.75431 4:-0.959607 5:-0.837656 6:-0.969582 7:-0.981331 8:-0.969582 9:-0.945834 10:-0.850746 11:-0.956043 12:0.902078 13:-0.920756 14:-0.967742 15:-0.984417 16:-0.967742 17:-0.967742 18:-0.883871 19:-0.808383 21:-0.688415 22:0.191324 23:-0.972368 24:-1 25:-0.920756 26:-1 27:-0.967234 29:-0.779843 30:-0.872377 31:-0.667377 32:-0.90923 33:-0.825636 34:-0.90923 35:-0.798883 36:-0.75968 37:-1 38:-1 39:-1 40:-1 41:-0.747899 42:-1 43:-1 44:-1 45:-0.925926 46:-0.882353 47:-0.623762 48:-0.768707 49:-0.764706 50:-0.744186 51:-1 52:-0.0446083 53:-1 54:-1 55:-0.678756 56:-0.416667 57:-0.753363 58:-0.969342 
8 1:-0.949212 2:-0.986322 3:-0.965517 4:-0.993839 5:-0.885845 6:-0.992395 7:-0.970289 8:-0.992395 9:-0.989683 10:-1 11:-0.979537 12:0.927291 13:-0.96052 14:-1 15:-1 16:-1 17:-1 18:-0.977419 19:-0.988024 21:-0.938748 22:0.156987 23:-0.988558 24:-1 25:-0.96052 26:-1 27:-0.989614 29:-0.947105 30:-0.981914 31:-0.965885 32:-0.964304 33:-0.563489 34:-0.964304 35:-0.972067 36:-0.907272 37:-1 38:-1 39:-1 40:-1 41:-0.983193 42:-1 43:-1 44:-1 45:-0.851852 46:-1 47:-0.980198 48:-0.904762 49:-1 50:-1 51:-1 52:0.152632 53:-1 54:-1 55:-0.984456 56:-0.75 57:-0.96861 58:-0.994956 
8 1:-0.890776 2:-0.708594 3:-0.228448 4:-0.890792 5:-0.825779 6:-0.657795 7:-0.922053 8:-0.657795 9:-0.852979 10:-0.283582 11:-0.925431 12:0.851753 13:-0.897051 14:-0.548387 15:-0.919031 16:-0.548387 17:-0.548387 18:-0.63871 19:-0.724551 21:-0.256991 22:0.0980036 23:-0.956908 24:-1 25:-0.897051 26:-1 27:-0.946168 29:-0.539671 30:-0.713701 31:-0.462687 32:-0.750127 33:-0.82186 34:-0.750127 35:-0.502793 36:-0.602804 37:-0.996258 38:-0.933691 39:-0.996258 40:-1 41:-0.613445 42:-1 43:-0.933333 44:-1 45:-0.407407 46:-0.882353 47:-0.544554 48:-0.619048 49:-0.764706 50:-0.627907 51:-1 52:0.0137992 53:-1 54:-1 55:-0.0673575 57:-0.251121 58:-0.918436 
-8 1:-0.987372 2:-0.97978 3:-0.978448 4:-0.994449 5:-0.959561 6:-0.984791 7:-0.934293 8:-0.984791 9:-0.990199 10:-1 11:-0.986545 12:0.921869 13:-0.964777 14:-1 15:-1 16:-1 17:-1 18:-0.974194 19:-0.976048 21:-0.925433 22:-0.162562 23:-0.992696 24:-1 25:-0.964777 26:-1 27:-0.990055 29:-0.921372 30:-0.980891 31:-0.985075 32:-0.982662 33:-0.765557 34:-0.982662 35:-0.98324 36:-0.906091 37:-1 38:-1 39:-1 40:-1 41:-0.89916 42:-1 43:-0.866667 44:-1 45:-1 46:-1 47:-0.980198 48:-0.972789 49:-1 50:-1 51:-1 52:-0.143367 53:-1 54:-1 55:-0.994819 56:-0.75 57:-0.896861 58:-0.994837 
8 1:-0.899496 2:-0.76747 3:-0.668103 4:-0.946925 5:-0.872177 6:-0.969582 7:-0.985773 8:-0.969582 9:-0.935001 10:-0.850746 11:-0.928604 12:0.882116 13:-0.893997 14:-0.709677 15:-0.893123 16:-0.709677 17:-0.709677 18:-0.848387 19:-0.736527 21:-0.685752 22:0.0870062 23:-0.955569 24:-1 25:-0.893997 26:-1 27:-0.937954 29:-0.785561 30:-0.828016 31:-0.684435 32:-0.867415 33:-0.805915 34:-0.867415 35:-0.748603 36:-0.711798 37:-0.994304 38:-0.792725 39:-0.994304 40:-1 41:-0.781513 42:-1 43:-0.866667 44:-0.714286 45:-0.703704 46:-0.882353 47:-0.861386 48:-0.918367 49:-1 50:-0.953488 51:-1 52:0.146452 53:-1 54:-1 55:-0.632124 56:-0.583333 57:-0.61435 58:-0.956392 
-8 1:-0.903368 2:-0.830508 3:-0.668103 4:-0.945679 5:-0.833658 6:-0.992395 7:-0.996525 8:-0.992395 9:-0.943771 10:-0.313433 11:-0.929084 12:0.843374 13:-0.884077 14:-0.580645 15:-0.84915 16:-0.580645 17:-0.580645 18:-0.835484 19:-0.784431 21:-0.611185 22:0.124884 23:-0.955934 24:-1 25:-0.884077 26:-1 27:-0.966728 29:-0.736955 30:-0.838594 31:-0.876333 32:-0.898011 33:-0.854115 34:-0.898011 35:-0.804469 36:-0.720644 37:-0.99838 38:-0.942415 39:-0.99838 40:-1 41:-0.714286 42:-1 43:-0.733333 44:-1 45:-0.851852 46:-0.882353 47:-0.742574 48:-0.823129 49:-0.882353 50:-0.813953 51:-1 52:-0.0416988 53:-1 54:-1 55:-0.559585 56:-0.25 57:-0.784753 58:-0.958956 
-8 1:-0.888462 2:-0.885222 3:-0.788793 4:-0.964537 5:-0.838875 6:-0.931559 7:-0.95219 8:-0.931559 9:-0.964405 10:-0.850746 11:-0.918419 12:0.848153 13:-0.884648 14:-0.903226 15:-0.94679 16:-0.903226 17:-0.903226 18:-0.906452 19:-0.928144 21:-0.784288 22:-0.013019 23:-0.969568 24:-1 25:-0.884648 26:-1 27:-0.980558 29:-0.86133 30:-0.911619 31:-0.791045 32:-0.893932 33:-0.768092 34:-0.893932 35:-0.821229 36:-0.77391 37:-0.997878 38:-0.884664 39:-0.997878 40:-1 41:-0.848739 42:-1 43:-1 44:-1 45:-1 46:-1 47:-0.881188 48:-0.918367 49:-1 50:-0.837209 51:-1 52:0.21312 53:-1 54:-1 55:-0.766839 56:-0.0833333 57:-0.784753 58:-0.972753 
-8 1:-0.886393 2:-0.608088 3:-0.607759 4:-0.905745 5:-0.824451 6:-0.771863 7:-0.93981 8:-0.771863 9:-0.892701 10:-0.880597 11:-0.926242 12:0.861363 13:-0.890906 14:-0.709677 15:-0.93971 16:-0.709677 17:-0.709677 18:-0.86129 19:-0.652695 21:-0.494008 22:0.201063 23:-0.927085 24:-1 25:-0.890906 26:-1 27:-0.930347 29:-0.621158 30:-0.719502 31:-0.658849 32:-0.710352 33:-0.760818 34:-0.710352 35:-0.597765 36:-0.63141 37:-0.996202 38:-0.92205 39:-0.996202 40:-1 41:-0.512605 42:-1 43:-1 44:-1 45:-0.703704 46:-0.764706 47:-0.861386 48:-0.809524 49:-0.764706 50:-0.837209 51:-1 52:0.113426 53:-1 54:-1 55:-0.497409 56:-0.333333 57:-0.376682 58:-0.929538 
8 1:-0.902898 2:-0.951829 3:-0.900862 4:-0.977455 5:-0.846716 6:-0.939163 7:-0.933387 8:-0.939163 9:-0.973175 10:-1 11:-0.930136 12:0.858429 13:-0.910344 14:-1 15:-1 16:-1 17:-1 18:-0.958065 19:-0.904192 21:-0.83755 22:-0.185824 23:-0.969811 24:-1 25:-0.910344 26:-1 27:-0.986701 29:-0.898499 30:-0.946426 31:-0.782516 32:-0.926568 33:-0.74834 34:-0.926568 35:-0.910615 36:-0.820847 37:-0.998101 38:-0.838245 39:-0.998101 40:-1 41:-1 42:-1 43:-0.733333 44:-1 45:-1 46:-0.882353 47:-0.80198 48:-0.768707 49:-1 50:-0.976744 51:-1 52:0.245635 53:-1 54:-1 55:-0.860104 56:-0.25 57:-0.901345 58:-0.982578 
8 1:-0.890574 2:-0.732977 3:-0.775862 4:-0.943864 5:-0.832851 6:-0.931559 7:-0.969729 8:-0.931559 9:-0.938612 10:-0.791045 11:-0.924638 12:0.855935 13:-0.886436 14:-0.870968 15:-0.955079 16:-0.870968 17:-0.870968 18:-0.86129 19:-0.688623 21:-0.616511 22:0.103661 23:-0.960925 24:-1 25:-0.886436 26:-1 27:-0.946148 29:-0.769836 30:-0.818802 31:-0.695096 32:-0.877613 33:-0.830577 34:-0.877613 35:-0.581006 36:-0.715222 37:-0.99771 38:-0.921209 39:-0.99771 40:-1 41:-0.411765 42:-1 43:-1 44:-1 45:-0.777778 46:-0.764706 47:-0.485149 48:-0.931973 49:-0.882353 50:-0.883721 51:-1 52:-0.0215168 53:-1 54:-1 55:-0.715026 56:-0.5 57:-0.520179 58:-0.957394 
