svm_type epsilon_svr
kernel_type rbf
gamma 0.03125
nr_class 2
total_sv 2361
rho -0.00425522
SV
-32 1:-1 2:-1 3:-1 4:-0.97619 5:-1 6:-0.986547 7:-0.999215 8:-0.977337 9:-0.998926 10:-0.999988 11:-0.989775 12:-1 13:-0.97619 14:-0.982654 15:-0.998252 16:-1 17:-0.997729 18:-0.982654 19:-0.986395 20:-1 21:-0.999159 22:-1 23:-0.999159 24:-0.999803 25:-0.937698 26:-0.998512 27:-1 28:-0.984318 29:-1 30:-1 31:-0.909091 32:-0.984791 33:-1 34:-1 35:-0.995736 36:-0.75 37:-0.676014 38:-0.985472 39:-0.998844 40:-0.962791 41:-1 42:-0.984791 43:-1 45:-1 46:-0.998402 47:-1 48:-0.97619 49:-1 50:-1 51:1 52:-1 53:-0.354392 54:-1 55:-1 56:-1 57:-0.999901 58:-1 59:-0.99917 60:-0.983193 
32 1:-1 2:-0.677419 3:-0.351955 4:-0.425926 5:-0.999939 6:-0.506726 7:-0.999104 8:-0.614731 9:-0.999337 10:-0.999914 11:-0.680164 12:-1 13:-0.425926 14:-0.829141 15:-0.998945 16:-0.837209 17:-0.997241 18:-0.829141 19:-0.809524 20:-0.510204 21:-0.923433 22:-0.882353 23:-0.923433 24:-0.99987 25:-0.802385 26:-0.998614 27:-1 28:-0.173703 29:-1 30:-0.88 31:-0.909091 32:-0.840304 33:-0.574468 34:-1 35:-0.533049 36:-0.3125 37:0.161224 38:-0.646489 39:-0.99891 40:-0.429457 41:-1 42:-0.840304 43:-0.88 45:-0.7 46:-0.998558 47:-0.777778 48:-0.425926 49:-1 50:-0.999939 51:1 52:-0.449102 53:-0.288155 54:-1 55:-1 56:-0.413462 57:-0.999437 58:-0.473684 59:-0.997966 60:-0.411765 
32 1:-1 2:-1 3:-1 4:-0.992063 5:-1 6:-1 7:-0.999362 8:-0.992918 9:-0.99791 10:-1 11:-0.998364 12:-1 13:-0.992063 14:-0.994796 15:-0.999238 16:-1 17:-0.998299 18:-0.994796 19:-0.986395 20:-1 21:-1 22:-1 23:-1 24:-0.999361 25:-0.991239 26:-0.998724 27:-1 28:-0.996381 29:-1 30:-1 31:-1 32:-0.992395 33:-1 34:-1 35:-0.997868 36:-1 37:-0.847604 38:-0.995157 39:-0.999391 40:-0.996899 41:-1 42:-0.992395 43:-1 45:-1 46:-0.998595 47:-1 48:-0.992063 49:-1 50:-1 51:1 52:-1 53:-0.441338 54:-1 55:-1 56:-1 57:-1 58:-1 59:-0.999216 60:-1 
32 1:-0.714286 2:-0.870968 3:-0.581006 4:-0.296296 5:-0.999978 6:-0.318386 7:-0.99942 8:-0.358357 9:-0.999449 10:-0.999893 11:-0.677301 12:-1 13:-0.296296 14:-0.843886 15:-0.998595 16:-0.651163 17:-0.997132 18:-0.843886 19:-0.714286 20:-0.714286 21:-0.87379 22:-0.882353 23:-0.87379 24:-0.999725 25:-0.796544 26:-0.998761 27:-1 28:-0.344994 29:-1 30:-0.98 31:-0.818182 32:-0.627376 33:-0.829787 34:-1 35:-0.362473 36:-0.4375 37:0.219647 38:-0.365617 39:-0.99927 40:-0.44186 41:-1 42:-0.627376 43:-0.98 45:-0.333333 46:-0.998806 47:-0.555556 48:-0.296296 49:-1 50:-0.999978 51:1 52:-0.736527 53:-0.47596 54:-0.882353 55:-1 56:-0.370192 57:-0.999156 58:-0.443609 59:-0.998393 60:-0.210084 
32 1:-0.428571 2:-0.741935 3:-0.614525 4:-0.510582 5:-0.999944 6:-0.224215 7:-0.999049 8:-0.706799 9:-0.999198 10:-0.999935 11:-0.730061 12:-1 13:-0.510582 14:-0.822203 15:-0.998857 16:-0.767442 17:-0.997506 18:-0.822203 19:-0.646259 20:-0.693878 21:-0.984855 22:-1 23:-0.984855 24:-0.999706 25:-0.845218 26:-0.998543 27:-1 28:-0.570567 29:-1 30:-0.88 31:-0.727273 32:-0.688213 33:-0.659574 34:-1 35:-0.518124 36:-0.25 37:0.0735919 38:-0.598063 39:-0.998766 40:-0.457364 41:-1 42:-0.688213 43:-0.88 45:-0.433333 46:-0.998401 47:-0.703704 48:-0.510582 49:-1 50:-0.999944 51:1 52:-0.748503 53:-0.256062 54:-1 55:-1 56:-0.528846 57:-0.999871 58:-0.639098 59:-0.998258 60:-0.546218 
32 1:-1 2:-0.935484 3:-0.910615 4:-0.814815 5:-0.999963 6:-0.834081 7:-0.999206 8:-0.883853 9:-0.999249 10:-0.999965 11:-0.905521 12:-1 13:-0.814815 14:-0.93582 15:-0.998733 16:-0.976744 17:-0.997111 18:-0.93582 19:-0.931973 20:-0.734694 21:-0.978965 22:-1 23:-0.978965 24:-0.999888 25:-0.847651 26:-0.998796 27:-1 28:-0.822678 29:-1 30:-1 31:-0.818182 32:-0.954373 33:-0.914894 34:-1 35:-0.878465 36:-0.4375 37:-0.297023 38:-0.854722 39:-0.998893 40:-0.832558 41:-1 42:-0.954373 43:-1 45:-0.866667 46:-0.998507 47:-1 48:-0.814815 49:-1 50:-0.999963 51:1 52:-0.94012 53:-0.348908 54:-1 55:-1 56:-0.855769 57:-0.999534 58:-0.932331 59:-0.998583 60:-0.815126 
32 1:-1 2:-0.935484 3:-0.877095 4:-0.833333 5:-0.999955 6:-0.847534 7:-0.999156 8:-0.892351 9:-0.999304 10:-0.999968 11:-0.924335 12:-1 13:-0.833333 14:-0.951431 15:-0.998991 16:-0.906977 17:-0.997254 18:-0.951431 19:-0.891156 20:-0.938776 21:-0.960454 22:-1 23:-0.960454 24:-0.999886 25:-0.896812 26:-0.998628 27:-1 28:-0.829916 29:-1 30:-1 31:-1 32:-0.961977 33:-0.914894 34:-1 35:-0.848614 36:-0.5625 37:-0.37317 38:-0.840194 39:-0.998949 40:-0.80155 41:-1 42:-0.961977 43:-1 45:-0.833333 46:-0.998577 47:-0.925926 48:-0.833333 49:-1 50:-0.999955 51:1 52:-0.964072 53:-0.319194 54:-1 55:-1 56:-0.836538 57:-0.998927 58:-0.894737 59:-0.998105 60:-0.882353 
32 1:-1 2:-0.967742 3:-0.787709 4:-0.714286 5:0.25346 6:-0.793722 7:-0.999084 8:-0.81728 9:-0.999241 10:-0.999885 11:-0.854397 12:-1 13:-0.714286 14:-0.905464 15:-0.999051 16:-0.790698 17:-0.997717 18:-0.905464 19:-0.891156 20:-0.693878 21:-0.973917 22:-1 23:-0.973917 24:-0.999847 25:-0.879289 26:-0.998347 27:-1 28:-0.756333 29:-1 30:-1 31:-1 32:-0.908745 33:-0.957447 34:-1 35:-0.791045 36:-0.75 37:-0.202166 38:-0.835351 39:-0.998787 40:-0.779845 41:-0.875 42:-0.908745 43:-1 45:-0.866667 46:-0.998437 47:-0.925926 48:-0.714286 49:-1 50:0.253836 51:1 52:-0.796407 53:-0.276337 54:-1 55:-1 56:-0.634615 57:-0.999604 58:-0.87218 59:-0.997828 60:-0.882353 
-32 1:-1 2:-1 3:-0.994413 4:-0.981481 5:-1 6:-0.986547 7:-0.998917 8:-0.985836 9:-0.99791 10:-0.999978 11:-0.992638 12:-1 13:-0.981481 14:-0.964441 15:-0.998753 16:-1 17:-0.998285 18:-0.964441 19:-0.986395 20:-1 21:-1 22:-1 23:-1 24:-0.999813 25:-0.918715 26:-0.998573 27:-1 28:-0.9807 29:-1 30:-1 31:-1 32:-0.984791 33:-1 34:-1 35:-0.98081 36:-0.875 37:-0.670876 38:-0.995157 39:-0.998329 40:-0.95969 41:-1 42:-0.984791 43:-1 45:-1 46:-0.997839 47:-1 48:-0.981481 49:-1 50:-1 51:1 52:-1 53:-0.177652 54:-1 55:-1 56:-0.985577 57:-1 58:-1 59:-0.998289 60:-0.966387 
32 1:-1 2:-1 3:-1 4:-0.997354 5:-1 6:-1 7:-0.998255 8:-0.998584 9:-0.99827 10:-1 11:-0.999182 12:-1 13:-0.997354 14:-0.992194 15:-0.998857 16:-1 17:-0.999699 18:-0.992194 19:-1 20:-1 21:-1 22:-1 23:-1 24:-0.999295 25:-0.963982 26:-0.998137 27:-1 28:-0.998794 29:-1 30:-1 31:-1 32:-0.984791 33:-1 34:-1 35:-0.997868 36:-1 37:-0.812856 38:-0.995157 39:-0.997487 40:-0.987597 41:-1 42:-0.984791 43:-1 45:-1 46:-0.997004 47:-1 48:-0.997354 49:-1 50:-1 51:1 52:-1 53:0.214977 54:-1 55:-1 56:-1 57:-1 58:-1 59:-0.997647 60:-1 
-32 1:-1 2:-0.935484 3:-0.787709 4:-0.798942 5:-0.999969 6:-0.820628 7:-0.999132 8:-0.847025 9:-0.99952 10:-0.999969 11:-0.878528 12:-1 13:-0.798942 14:-0.951431 15:-0.998658 16:-0.860465 17:-0.997247 18:-0.951431 19:-0.836735 20:-0.795918 21:-0.997476 22:-0.647059 23:-0.997476 24:-0.999843 25:-0.834023 26:-0.99863 27:-1 28:-0.731001 29:-1 30:-1 31:-0.636364 32:-0.923954 33:-0.914894 34:-1 35:-0.84435 36:-0.25 37:-0.251713 38:-0.801453 39:-0.998924 40:-0.745736 41:-1 42:-0.923954 43:-1 45:-0.866667 46:-0.99856 47:-0.777778 48:-0.798942 49:-1 50:-0.999969 51:1 52:-0.832335 53:-0.305037 54:-0.882353 55:-1 56:-0.807692 57:-0.999953 58:-0.699248 59:-0.998316 60:-0.848739 
-32 1:-1 2:-0.483871 3:-0.569832 4:-0.351852 5:-0.99991 6:-0.309417 7:-0.999152 8:-0.606232 9:-0.998875 10:-0.999932 11:-0.693661 12:-1 13:-0.351852 14:-0.687771 15:-0.998788 16:-0.860465 17:-0.99723 18:-0.687771 19:-0.714286 20:-0.653061 21:-0.916702 22:-0.882353 23:-0.916702 24:-0.999771 25:-0.835483 26:-0.998621 27:-1 28:-0.238842 29:-1 30:-0.98 31:-1 32:-0.695817 33:-0.319149 34:-1 35:-0.750533 36:-0.0625 37:0.207642 38:-0.554479 39:-0.99886 40:-0.203101 41:-1 42:-0.695817 43:-0.98 45:-0.7 46:-0.998522 47:-0.777778 48:-0.351852 49:-1 50:-0.99991 51:1 52:-0.60479 53:-0.316938 54:-0.882353 55:-1 56:-0.423077 57:-0.999431 58:-0.458647 59:-0.998381 60:-0.12605 
32 1:-1 2:-1 3:-0.888268 4:-0.812169 5:-1 6:-0.744395 7:-0.999137 8:-0.866856 9:-0.999497 10:-0.999952 11:-0.903885 12:-1 13:-0.812169 14:-0.958369 15:-0.998773 16:-0.930233 17:-0.997664 18:-0.958369 19:-0.891156 20:-0.918367 21:-0.973075 22:-1 23:-0.973075 24:-0.999962 25:-0.901679 26:-0.998661 27:-1 28:-0.810615 29:-1 30:-0.98 31:-1 32:-0.984791 33:-1 34:-1 35:-0.908316 36:-0.625 37:-0.324323 38:-0.88862 39:-0.999009 40:-0.807752 41:-1 42:-0.984791 43:-0.98 45:-0.8 46:-0.998478 47:-0.703704 48:-0.812169 49:-1 50:-1 51:1 52:-0.94012 53:-0.307761 54:-1 55:-1 56:-0.8125 57:-0.999384 58:-0.736842 59:-0.997969 60:-0.680672 
-32 1:-0.428571 2:-0.677419 3:-0.441341 4:-0.219577 5:-0.999942 6:-0.488789 7:-0.999277 8:-0.548159 9:-0.999452 10:-0.999859 11:-0.661759 12:-1 13:-0.219577 14:-0.853426 15:-0.998943 16:-0.674419 17:-0.996965 18:-0.853426 19:-0.591837 20:-0.428571 21:-0.925957 22:-0.529412 23:-0.925957 24:0.188725 25:-0.822828 26:-0.998749 27:-1 28:-0.268999 29:-1 30:-0.94 31:-0.909091 32:-0.984791 33:-0.574468 34:-1 35:-0.466951 36:-0.5625 37:0.197735 38:-0.569007 39:-0.999068 40:-0.386047 41:-1 42:-0.984791 43:-0.94 45:-0.533333 46:-0.998702 47:0.037037 48:-0.219577 49:-1 50:-0.999942 51:1 52:-0.556886 53:-0.390926 54:-0.529412 55:-1 56:-0.326923 57:-0.999476 58:-0.112782 59:-0.998265 60:-0.109244 
32 1:-1 2:-0.903226 3:-0.955307 4:-0.896825 5:-0.999892 6:-0.852018 7:-0.999031 8:-0.936261 9:-0.999342 10:-0.999963 11:-0.949284 12:-1 13:-0.896825 14:-0.971379 15:-0.999056 16:-0.976744 17:-0.997679 18:-0.971379 19:-0.863946 20:-0.897959 21:-1 22:-1 23:-1 24:-0.999963 25:-0.926503 26:-0.998564 27:-1 28:-0.904704 29:-1 30:-1 31:-1 32:-0.992395 33:-0.87234 34:-1 35:-0.938166 36:-0.75 37:-0.498624 38:-0.951574 39:-0.998886 40:-0.891473 41:-1 42:-0.992395 43:-1 45:-0.966667 46:-0.998425 47:-0.925926 48:-0.896825 49:-1 50:-0.999892 51:1 52:-0.988024 53:-0.245247 54:-1 55:-1 56:-0.932692 57:-1 58:-0.932331 59:-0.998056 60:-0.882353 
-32 1:-1 2:-1 3:-0.910615 4:-0.915344 5:-1 6:-0.892377 7:-0.99883 8:-0.953258 9:-0.999358 10:-0.999976 11:-0.956237 12:-1 13:-0.915344 14:-0.972246 15:-0.998924 16:-0.930233 17:-0.998022 18:-0.972246 19:-0.959184 20:-0.959184 21:-0.998317 22:-1 23:-0.998317 24:-0.999632 25:-0.911901 26:-0.998266 27:-1 28:-0.916767 29:-0.5 30:-1 31:-0.909091 32:-0.923954 33:-1 34:-1 35:-0.916844 36:-0.6875 37:-0.512997 38:-0.951574 39:-0.998468 40:-0.854264 41:-0.875 42:-0.923954 43:-1 45:-0.866667 46:-0.998146 47:-1 48:-0.915344 49:-1 50:-1 51:1 52:-0.976048 53:-0.126124 54:-1 55:-1 56:-0.875 57:-0.999926 58:-0.879699 59:-0.997924 60:-0.89916 
32 1:-1 2:-1 3:-0.843575 4:-0.171958 5:-1 6:-0.650224 7:-0.999314 8:-0.358357 9:-0.997712 10:-0.999785 11:-0.46953 12:-1 13:-0.171958 14:-0.0928014 15:-0.998399 16:-0.953488 17:-0.997043 18:-0.0928014 19:-0.782313 20:-0.77551 21:-0.946151 22:-1 23:-0.946151 24:-0.999948 25:-0.483573 26:-0.998695 27:-1 28:-0.155609 29:-1 30:-1 31:-1 32:-0.901141 33:-1 34:-1 35:-0.663113 36:-0.5625 37:0.441154 38:-0.830508 39:-0.99901 40:-0.0263566 41:-1 42:-0.901141 43:-1 45:-0.733333 46:-0.998658 47:-0.407407 48:-0.171958 49:-1 50:-1 51:1 52:-0.892216 53:-0.413047 54:-1 55:-1 56:-0.533654 57:-0.999743 58:-0.609023 59:-0.998943 60:-0.563025 
-32 1:-1 2:-0.903226 3:-1 4:-0.992063 5:-0.998728 6:-0.982063 7:-0.999549 8:-0.994334 9:-0.998823 10:-1 11:-0.996728 12:-1 13:-0.992063 14:-0.995663 15:-0.998629 16:-1 17:-0.995919 18:-0.995663 19:-1 20:-1 21:-1 22:-1 23:-1 24:-0.999137 25:-0.976637 26:-0.99925 27:-1 28:-0.987937 29:-1 30:-1 31:-1 32:-0.984791 33:-0.87234 34:-1 35:-1 36:-1 37:-0.806729 38:-1 39:-0.999323 40:-0.987597 41:-1 42:-0.984791 43:-1 45:-1 46:-0.998995 47:-1 48:-0.992063 49:-1 50:-0.998728 51:1 52:-1 53:-0.552412 54:-1 55:-1 56:-1 57:-1 58:-1 59:-0.999059 60:-0.983193 
32 1:-1 2:-1 3:-0.938547 4:-0.880952 5:-1 6:-0.932735 7:-0.999052 8:-0.907932 9:-0.999136 10:-0.999967 11:-0.964417 12:-1 13:-0.880952 14:-0.960104 15:-0.998823 16:-0.906977 17:-0.99802 18:-0.960104 19:-0.959184 20:-0.897959 21:-0.98822 22:-1 23:-0.98822 24:-0.999552 25:-0.943539 26:-0.998504 27:-1 28:-0.922799 29:-1 30:-1 31:-0.909091 32:-0.901141 33:-1 34:-1 35:-0.927505 36:-0.6875 37:-0.491124 38:-0.874092 39:-0.999079 40:-0.882171 41:-1 42:-0.901141 43:-1 45:-0.966667 46:-0.998496 47:-0.925926 48:-0.880952 49:-1 50:-1 51:1 52:-0.94012 53:-0.257822 54:-1 55:-1 56:-0.855769 57:-0.999517 58:-0.969925 59:-0.998146 60:-0.915966 
32 1:-1 2:-0.967742 3:-0.96648 4:-0.960317 5:1 6:-0.982063 7:-0.994768 8:-0.973088 9:-0.99789 10:-0.999934 11:-0.980777 12:-1 13:-0.960317 14:-0.835212 15:-0.998057 16:-1 17:-1 18:-1 19:-1 20:-1 21:-1 22:-1 23:-1 24:-1 25:-1 26:-1 27:-1 28:-1 29:-1 30:-1 31:-1 32:-1 33:-1 34:-1 35:-1 36:-1 37:-1 38:-1 39:-1 40:-1 41:-1 42:-1 43:-1 45:-1 46:-1 47:-1 48:-1 49:-1 50:-1 51:-1 52:-1 53:-1 54:-1 55:-1 56:-1 57:-1 58:-1 59:-1 60:-1 
-1.323412350704179 1:-1 2:-1 3:-0.994413 4:-0.97619 5:-1 6:-0.982063 7:-0.993628 8:-0.985836 9:-0.996398 10:-0.999964 11:-0.965644 12:-1 13:-0.97619 14:-0.755421 15:-0.998753 16:-1 17:-1 18:-1 19:-1 20:-1 21:-1 22:-1 23:-1 24:-1 25:-1 26:-1 27:-1 28:-1 29:-1 30:-1 31:-1 32:-1 33:-1 34:-1 35:-1 36:-1 37:-1 38:-1 39:-1 40:-1 41:-1 42:-1 43:-1 45:-1 46:-1 47:-1 48:-1 49:-1 50:-1 51:-1 52:-1 53:-1 54:-1 55:-1 56:-1 57:-1 58:-1 59:-1 60:-1 
32 1:-1 2:-1 3:-0.98324 4:-0.955026 5:-1 6:-0.946188 7:-0.998851 8:-0.975921 9:-0.997463 10:-0.999992 11:-0.973415 12:-1 13:-0.955026 14:-0.94536 15:-0.99873 16:-0.976744 17:-0.99809 18:-0.94536 19:-0.931973 20:-0.897959 21:-1 22:-1 23:-1 24:-0.999631 25:-0.958627 26:-0.998309 27:-1 28:-0.955368 29:-1 30:-1 31:-1 32:-0.961977 33:-1 34:-1 35:-0.957356 36:-0.875 37:-0.643593 38:-0.995157 39:-0.998565 40:-0.968992 41:-1 42:-0.961977 43:-1 45:-1 46:-0.998175 47:-1 48:-0.955026 49:-1 50:-1 51:1 52:-0.976048 53:-0.138641 54:-1 55:-1 56:-0.961538 57:-1 58:-1 59:-0.998431 60:-1 
12.14810386908964 1:-1 2:-0.709677 3:-0.815642 4:-0.283069 5:-0.99995 6:-0.520179 7:-0.999372 8:-0.485836 9:-0.999363 10:-0.999896 11:-0.675665 12:-1 13:-0.283069 14:-0.822203 15:-0.998738 16:-0.930233 17:-0.996824 18:-0.822203 19:-0.469388 20:-0.755102 21:-0.971393 22:-1 23:-0.971393 24:-0.999909 25:-0.804819 26:-0.99872 27:-1 28:-0.273824 29:-1 30:-0.32 31:-1 32:-0.878327 33:-0.617021 34:-1 35:-0.692964 36:-0.375 37:0.215088 38:-0.738499 39:-0.999122 40:-0.0945736 41:-1 42:-0.878327 43:-0.32 45:-0.666667 46:-0.998802 47:-0.777778 48:-0.283069 49:-1 50:-0.99995 51:1 52:-0.904192 53:-0.447432 54:-1 55:-1 56:-0.826923 57:-0.999806 58:-0.736842 59:-0.99841 60:-0.378151 
-32 1:-1 2:-0.935484 3:-0.960894 4:-0.933862 5:-0.999883 6:-0.991031 7:-0.999155 8:-0.961756 9:-0.998188 10:-0.999978 11:-0.973006 12:-1 13:-0.933862 14:-0.951431 15:-0.998857 16:-0.976744 17:-0.997427 18:-0.951431 19:-0.891156 20:-0.938776 21:-0.997476 22:-1 23:-0.997476 24:-0.999822 25:-0.946459 26:-0.998591 27:-1 28:-0.945718 29:-1 30:-1 31:-1 32:-0.977186 33:-0.914894 34:-1 35:-0.955224 36:-0.75 37:-0.597349 38:-0.951574 39:-0.998894 40:-0.944186 41:-1 42:-0.977186 43:-1 45:-1 46:-0.998498 47:-1 48:-0.933862 49:-1 50:-0.999883 51:1 52:-0.928144 53:-0.318918 54:-1 55:-1 56:-0.951923 57:-0.999822 58:-0.962406 59:-0.997815 60:-0.966387 
-32 1:-0.428571 2:-0.774194 3:-0.480447 4:-0.312169 5:-0.999963 6:-0.0134529 7:-0.999221 8:-0.521246 9:-0.999328 10:-0.999928 11:-0.653579 12:-1 13:-0.312169 14:-0.802255 15:-0.998854 16:-0.604651 17:-0.997077 18:-0.802255 19:-0.741497 20:-0.653061 21:-0.968027 22:-0.529412 23:-0.968027 24:-0.999633 25:-0.79411 26:-0.998759 27:-1 28:-0.231604 29:-1 30:-0.94 31:-1 32:-0.48289 33:-0.702128 34:-1 35:-0.565032 36:-0.0625 37:0.261282 38:-0.322034 39:-0.999035 40:-0.302326 41:-1 42:-0.48289 43:-0.94 45:-0.366667 46:-0.998638 47:-0.555556 48:-0.312169 49:-1 50:-0.999963 51:1 52:-0.736527 53:-0.358009 54:-0.882353 55:-1 56:-0.389423 57:-0.999794 58:-0.473684 59:-0.998112 60:-0.294118 
32 1:-1 2:-0.903226 3:-0.849162 4:-0.867725 5:-0.999929 6:-0.923767 7:-0.999066 8:-0.92068 9:-0.998917 10:-0.999966 11:-0.940695 12:-1 13:-0.867725 14:-0.928881 15:-0.998917 16:-0.906977 17:-0.997613 18:-0.928881 19:-0.945578 20:-0.979592 21:-0.990745 22:-0.882353 23:-0.990745 24:-0.999734 25:-0.909954 26:-0.998455 27:-1 28:-0.828709 29:-1 30:-0.94 31:-1 32:-0.91635 33:-0.87234 34:-1 35:-0.891258 36:-0.5625 37:-0.399601 38:-0.79661 39:-0.998649 40:-0.854264 41:-1 42:-0.91635 43:-0.94 45:-0.766667 46:-0.998322 47:-1 48:-0.867725 49:-1 50:-0.999929 51:1 52:-0.952096 53:-0.265964 54:-0.882353 55:-1 56:-0.889423 57:-0.999733 58:-0.804511 59:-0.998101 60:-0.798319 
-11.85589641655817 1:-1 2:-0.967742 3:-0.972067 4:-0.952381 5:0.710598 6:-0.950673 7:-0.997417 8:-0.958924 9:-0.99982 10:-0.95723 11:-0.970143 12:-1 13:-0.952381 14:-0.983521 15:-0.998019 16:-0.976744 17:-1 18:-1 19:-1 20:-1 21:-1 22:-1 23:-1 24:-1 25:-1 26:-1 27:-1 28:-1 29:-1 30:-1 31:-1 32:-1 33:-1 34:-1 35:-1 36:-1 37:-1 38:-1 39:-1 40:-1 41:-1 42:-1 43:-1 45:-1 46:-1 47:-1 48:-1 49:-1 50:-1 51:-1 52:-1 53:-1 54:-1 55:-1 56:-1 57:-1 58:-1 59:-1 60:-1 
1.858232382665872 1:-1 2:-0.806452 3:-0.709497 4:-0.367725 5:-0.99997 6:-0.493274 7:-0.998952 8:-0.573654 9:-0.999227 10:-0.999836 11:-0.586503 12:-1 13:-0.367725 14:-0.759757 15:-0.998834 16:-0.627907 17:-0.997696 18:-0.759757 19:-0.619048 20:-0.367347 21:-0.949516 22:-0.882353 23:-0.949516 24:-0.999882 25:-0.794597 26:-0.998519 27:-1 28:-0.221954 29:-1 30:-0.42 31:-0.454545 32:-0.825095 33:-0.744681 34:-1 35:-0.69936 36:-0.5625 37:0.258441 38:-0.79661 39:-0.998793 40:-0.172093 41:-1 42:-0.825095 43:-0.42 45:-0.666667 46:-0.998371 47:-0.925926 48:-0.367725 49:-1 50:-0.99997 51:1 52:-0.784431 53:-0.198582 54:-0.882353 55:-1 56:-0.355769 57:-0.999692 58:-0.526316 59:-0.998255 60:-0.428571 
-32 1:-1 2:-0.903226 3:-0.977654 4:-0.928571 5:-0.999859 6:-0.932735 7:-0.999019 8:-0.957507 9:-0.999241 10:-0.999961 11:-0.966871 12:-1 13:-0.928571 14:-0.974848 15:-0.998894 16:-0.953488 17:-0.997294 18:-0.974848 19:-1 20:-0.959184 21:-1 22:-1 23:-1 24:-0.999808 25:-0.926503 26:-0.998522 27:-1 28:-0.892642 29:-1 30:-1 31:-1 32:-0.969582 33:-0.87234 34:-1 35:-0.976546 36:-0.8125 37:-0.55755 38:-0.956416 39:-0.998751 40:-0.944186 41:-1 42:-0.969582 43:-1 45:-0.933333 46:-0.998466 47:-1 48:-0.928571 49:-1 50:-0.999859 51:1 52:-0.964072 53:-0.237783 54:-1 55:-1 56:-0.923077 57:-1 58:-0.954887 59:-0.99833 60:-0.815126 
-32 1:-1 2:-0.967742 3:-0.988827 4:-0.962963 5:-0.999899 6:-0.96861 7:-0.999119 8:-0.978754 9:-0.999271 10:-0.999997 11:-0.986912 12:-1 13:-0.962963 14:-0.988725 15:-0.998857 16:-1 17:-0.99757 18:-0.988725 19:-0.986395 20:-1 21:-0.984855 22:-1 23:-0.984855 24:-0.999794 25:-0.939158 26:-0.998775 27:-1 28:-0.972256 29:-1 30:-1 31:-1 32:-0.984791 33:-0.957447 34:-1 35:-0.972281 36:-0.8125 37:-0.676813 38:-0.966102 39:-0.998953 40:-0.975194 41:-1 42:-0.984791 43:-1 45:-0.966667 46:-0.998415 47:-1 48:-0.962963 49:-1 50:-0.999899 51:1 52:-0.988024 53:-0.297337 54:-1 55:-1 56:-0.947115 57:-0.998144 58:-0.977444 59:-0.998529 60:-1 
32 1:-0.714286 2:-0.903226 3:-0.932961 4:-0.793651 5:-0.999947 6:-0.852018 7:-0.999103 8:-0.868272 9:-0.998987 10:-0.999956 11:-0.916564 12:-1 13:-0.793651 14:-0.909801 15:-0.998954 16:-0.976744 17:-0.997764 18:-0.909801 19:-0.972789 20:-0.877551 21:-0.976441 22:-1 23:-0.976441 24:-0.999893 25:-0.875882 26:-0.998443 27:-1 28:-0.81544 29:-1 30:-0.96 31:-1 32:-0.954373 33:-0.87234 34:-1 35:-0.914712 36:-0.5625 37:-0.312432 38:-0.912833 39:-0.998839 40:-0.696124 41:-1 42:-0.954373 43:-0.96 45:-0.833333 46:-0.998418 47:-0.703704 48:-0.793651 49:-1 50:-0.999947 51:1 52:-0.952096 53:-0.288007 54:-1 55:-1 56:-0.860577 57:-0.999499 58:-0.879699 59:-0.998098 60:-0.798319 
32 1:-0.428571 2:-0.83871 3:-0.469274 4:-0.510582 5:-0.999966 6:-0.399103 7:-0.998968 8:-0.708215 9:-0.999126 10:-0.999926 11:-0.66544 12:-1 13:-0.510582 14:-0.796184 15:-0.998885 16:-0.883721 17:-0.997584 18:-0.796184 19:-0.687075 20:-0.55102 21:-0.941944 22:-0.882353 23:-0.941944 24:-0.999945 25:-0.829156 26:-0.998555 27:-1 28:-0.419783 29:-1 30:-0.98 31:-0.636364 32:-0.939163 33:-0.787234 34:-1 35:-0.530917 36:-0.3125 37:0.101784 38:-0.506053 39:-0.998713 40:-0.432558 41:-1 42:-0.939163 43:-0.98 45:-0.433333 46:-0.998333 47:-0.925926 48:-0.510582 49:-1 50:-0.999966 51:1 52:-0.700599 53:-0.207819 54:-0.882353 55:-1 56:-0.509615 57:-0.999528 58:-0.62406 59:-0.998431 60:-0.378151 
32 1:-1 2:-1 3:-0.972067 4:-0.957672 5:-1 6:-0.982063 7:-0.999082 8:-0.974504 9:-0.999271 10:-0.999992 11:-0.98364 12:-1 13:-0.957672 14:-0.986123 15:-0.998677 16:-0.976744 17:-0.996968 18:-0.986123 19:-0.945578 20:-0.979592 21:-1 22:-1 23:-1 24:-0.999749 25:-0.969822 26:-0.998496 27:-1 28:-0.949337 29:-1 30:-0.98 31:-1 32:-0.977186 33:-1 34:-1 35:-0.965885 36:-0.9375 37:-0.654506 38:-0.970944 39:-0.998801 40:-0.956589 41:-1 42:-0.977186 43:-0.98 45:-0.966667 46:-0.998616 47:-1 48:-0.957672 49:-1 50:-1 51:1 52:-1 53:-0.275524 54:-1 55:-1 56:-0.961538 57:-1 58:-0.93985 59:-0.999257 60:-0.94958 
-32 1:-1 2:-0.967742 3:-0.888268 4:-0.854497 5:-0.999978 6:-0.914798 7:-0.99892 8:-0.909348 9:-0.999343 10:-0.999967 11:-0.919427 12:-1 13:-0.854497 14:-0.953166 15:-0.99898 16:-0.976744 17:-0.997887 18:-0.953166 19:-0.972789 20:-0.938776 21:-0.996634 22:-1 23:-0.996634 24:-0.999822 25:-0.920662 26:-0.998429 27:-1 28:-0.817853 29:-1 30:-1 31:-1 32:-0.939163 33:-0.957447 34:-1 35:-0.938166 36:-0.5 37:-0.376432 38:-0.922518 39:-0.998685 40:-0.860465 41:-1 42:-0.939163 43:-1 45:-1 46:-0.998272 47:-0.925926 48:-0.854497 49:-1 50:-0.999978 51:1 52:-0.976048 53:-0.179138 54:-1 55:-1 56:-0.894231 57:-0.999911 58:-0.87218 59:-0.997756 60:-0.848739 
-32 1:-0.714286 2:-0.870968 3:-0.553073 4:-0.661376 5:-0.999962 6:-0.789238 7:-0.998883 8:-0.790368 9:-0.999135 10:-0.999898 11:-0.805726 12:-1 13:-0.661376 14:-0.856895 15:-0.998911 16:-0.883721 17:-0.997914 18:-0.856895 19:-0.795918 20:-0.795918 21:-0.936895 22:-1 23:-0.936895 24:-0.999875 25:-0.859333 26:-0.998364 27:-1 28:-0.606755 29:-1 30:-0.9 31:-1 32:-0.901141 33:-0.829787 34:-1 35:-0.641791 36:-0.625 37:-0.0851127 38:-0.806295 39:-0.99866 40:-0.596899 41:-1 42:-0.901141 43:-0.9 45:-0.9 46:-0.998274 47:-0.777778 48:-0.661376 49:-1 50:-0.999962 51:1 52:-0.856287 53:-0.157527 54:-1 55:-1 56:-0.754808 57:-0.999277 58:-0.834586 59:-0.9982 60:-0.714286 
-32 1:-1 2:-0.967742 3:-0.988827 4:-0.97619 5:-0.99987 6:-0.959641 7:-0.999154 8:-0.984419 9:-0.998335 10:-0.999995 11:-0.985685 12:-1 13:-0.97619 14:-0.980052 15:-0.999238 16:-1 17:-0.997285 18:-0.980052 19:-0.972789 20:-0.979592 21:-1 22:-1 23:-1 24:-0.999602 25:-0.961548 26:-0.998572 27:-1 28:-0.969843 29:-1 30:-0.9 31:-1 32:-0.977186 33:-0.957447 34:-1 35:-0.96162 36:-0.9375 37:-0.714113 38:-0.995157 39:-0.998831 40:-0.968992 41:-1 42:-0.977186 43:-0.9 45:-1 46:-0.998505 47:-1 48:-0.97619 49:-1 50:-0.99987 51:1 52:-0.976048 53:-0.317939 54:-1 55:-1 56:-0.995192 57:-1 58:-1 59:-0.997647 60:-0.983193 
-32 1:-1 2:-0.903226 3:-0.865922 4:-0.661376 5:-0.999958 6:-0.753363 7:-0.999455 8:-0.720963 9:-0.999199 10:-0.999971 11:-0.887935 12:-1 13:-0.661376 14:-0.910668 15:-0.998961 16:-0.837209 17:-0.997001 18:-0.910668 19:-0.823129 20:-0.77551 21:-0.946151 22:-0.764706 23:-0.946151 24:-0.999815 25:-0.88659 26:-0.998763 27:-1 28:-0.804584 29:-1 30:-0.92 31:-1 32:-0.901141 33:-0.87234 34:-1 35:-0.835821 36:-0.125 37:-0.219976 38:-0.7046 39:-0.999319 40:-0.705426 41:-1 42:-0.901141 43:-0.92 45:-0.7 46:-0.998891 47:-0.777778 48:-0.661376 49:-1 50:-0.999958 51:1 52:-0.88024 53:-0.4962 54:-0.764706 55:-1 56:-0.721154 57:-0.999085 58:-0.661654 59:-0.998265 60:-0.764706 
-32 1:-1 2:-1 3:-0.994413 4:-0.986772 5:-1 6:-0.991031 7:-0.998893 8:-0.992918 9:-0.997654 10:-0.999997 11:-0.992638 12:-1 13:-0.986772 14:-0.980919 15:-0.998095 16:-1 17:-0.997284 18:-0.980919 19:-1 20:-1 21:-1 22:-1 23:-1 24:-0.999609 25:-0.963495 26:-0.998822 27:-1 28:-0.973462 29:-1 30:-0.94 31:-1 32:-0.984791 33:-1 34:-1 35:-0.991471 36:-0.9375 37:-0.750048 38:-0.995157 39:-0.998548 40:-0.987597 41:-1 42:-0.984791 43:-0.94 45:-1 46:-0.998201 47:-1 48:-0.986772 49:-1 50:-1 51:1 52:-0.988024 53:-0.163171 54:-1 55:-1 56:-0.990385 57:-1 58:-1 59:-0.999216 60:-1 
32 1:-0.714286 2:-1 3:-0.944134 4:-0.883598 5:-1 6:-0.874439 7:-0.999281 8:-0.888102 9:-0.998854 10:-0.99995 11:-0.943558 12:-1 13:-0.883598 14:-0.937554 15:-0.998629 16:-0.930233 17:-0.997303 18:-0.937554 19:-0.959184 20:-0.877551 21:-1 22:-1 23:-1 24:-0.999592 25:-0.908007 26:-0.998556 27:-1 28:-0.892642 29:-1 30:-0.84 31:-1 32:-0.893536 33:-1 34:-1 35:-0.921109 36:-0.75 37:-0.446915 38:-0.864407 39:-0.999116 40:-0.894574 41:-1 42:-0.893536 43:-0.84 45:-0.966667 46:-0.998726 47:-0.925926 48:-0.883598 49:-1 50:-1 51:1 52:-0.976048 53:-0.39332 54:-1 55:-1 56:-0.927885 57:-1 58:-0.909774 59:0.529412 60:-0.865546 
-32 1:-1 2:-1 3:-0.726257 4:-0.748677 5:-1 6:-0.802691 7:-0.998933 8:-0.854108 9:-0.999402 10:-0.999953 11:-0.880982 12:-1 13:-0.748677 14:-0.938422 15:-0.998967 16:-1 17:-0.997849 18:-0.938422 19:-0.891156 20:-0.938776 21:-0.936054 22:-1 23:-0.936054 24:-0.999892 25:-0.890484 26:-0.998683 27:-1 28:-0.792521 29:-1 30:-1 31:-0.909091 32:-0.946768 33:-1 34:-1 35:-0.628998 36:-0.5625 37:-0.245723 38:-0.801453 39:-0.998898 40:-0.786047 41:-1 42:-0.946768 43:-1 45:-0.733333 46:-0.998328 47:-1 48:-0.748677 49:-1 50:-1 51:1 52:-0.772455 53:-0.187146 54:-1 55:-1 56:-0.668269 57:-0.998824 58:-0.759398 59:-0.998054 60:-1 
32 1:-1 2:-1 3:-0.877095 4:-0.915344 5:-1 6:-0.914798 7:-0.999311 8:-0.912181 9:-0.999142 10:-0.999964 11:-0.953374 12:-1 13:-0.915344 14:-0.962706 15:-0.998512 16:-0.976744 17:-0.997759 18:-0.962706 19:-1 20:-0.918367 21:-1 22:-1 23:-1 24:-0.999963 25:-0.918715 26:-0.998446 27:-1 28:-0.898673 29:-0.5 30:-1 31:-0.909091 32:-0.992395 33:-1 34:-1 35:-0.889126 36:-0.75 37:-0.513501 38:-0.893462 39:-0.999071 40:-0.910078 41:-1 42:-0.992395 43:-1 45:-0.966667 46:-0.998601 47:-0.925926 48:-0.915344 49:-1 50:-1 51:1 52:-0.988024 53:-0.411211 54:-1 55:-1 56:-0.932692 57:-1 58:-0.932331 59:-0.998506 60:-0.966387 
-24.64826771257707 1:-1 2:-0.967742 3:-0.865922 4:-0.835979 5:0.974936 6:-0.67713 7:-0.999016 8:-0.902266 9:-0.999507 10:-0.999961 11:-0.911247 12:-1 13:-0.835979 14:-0.960971 15:-0.99889 16:-1 17:-0.997651 18:-0.960971 19:-0.972789 20:-0.979592 21:-0.92764 22:-1 23:-0.92764 24:-0.99992 25:-0.887077 26:-0.998597 27:-1 28:-0.798552 29:-1 30:-1 31:-1 32:-0.969582 33:-0.957447 34:-1 35:-0.910448 36:-0.5625 37:-0.337705 38:-0.864407 39:-0.998728 40:-0.854264 41:-1 42:-0.969582 43:-1 45:-0.933333 46:-0.998305 47:-1 48:-0.835979 49:-1 50:0.975528 51:1 52:-0.892216 53:-0.236526 54:-1 55:-1 56:-0.798077 57:-0.998267 58:-0.902256 59:-0.997983 60:-0.932773 
-32 1:-1 2:-1 3:-0.988827 4:-0.968254 5:-1 6:-0.959641 7:-0.999175 8:-0.98017 9:-0.998397 10:-0.999991 11:-0.988957 12:-1 13:-0.968254 14:-0.981787 15:-0.998781 16:-0.953488 17:-0.997232 18:-0.981787 19:-0.918367 20:-0.979592 21:-1 22:-0.882353 23:-1 24:-1 25:-0.977123 26:-0.998775 27:-1 28:-0.983112 29:-1 30:-1 31:-1 32:-1 33:-1 34:-1 35:-0.959488 36:-0.75 37:-0.716901 38:-1 39:-0.999151 40:-0.965891 41:-1 42:-1 43:-1 45:-1 46:-0.99867 47:-1 48:-0.968254 49:-1 50:-1 51:1 52:-0.976048 53:-0.330715 54:-0.882353 55:-1 56:-0.966346 57:-1 58:-1 59:-0.998745 60:-1 
-32 1:-1 2:-1 3:-1 4:-0.994709 5:-1 6:-1 7:-0.999128 8:-0.992918 9:-0.99954 10:-0.999992 11:-0.993865 12:-1 13:-0.994709 14:-0.997398 15:-0.998476 16:-1 17:-0.997782 18:-0.997398 19:-0.986395 20:-1 21:-1 22:-1 23:-1 24:-0.999719 25:-0.969822 26:-0.998875 27:-1 28:-0.993969 29:-1 30:-1 31:-1 32:-0.992395 33:-1 34:-1 35:-0.997868 36:-0.875 37:-0.785061 38:-1 39:-0.999017 40:-0.987597 41:-1 42:-0.992395 43:-1 45:-1 46:-0.998351 47:-1 48:-0.994709 49:-1 50:-1 51:1 52:-1 53:-0.302362 54:-1 55:-1 56:-1 57:-1 58:-0.992481 59:-0.998431 60:-1 
32 1:-1 2:-1 3:-0.916201 4:-0.857143 5:-1 6:-0.883408 7:-0.999016 8:-0.92068 9:-0.99858 10:-0.970216 11:-0.939877 12:-1 13:-0.857143 14:-0.901995 15:-0.998356 16:-0.930233 17:-0.99774 18:-0.901995 19:-0.972789 20:-0.938776 21:-0.977282 22:-1 23:-0.977282 24:-0.999931 25:-0.916768 26:-0.998492 27:-1 28:-0.852835 29:-1 30:-1 31:-0.909091 32:-0.977186 33:-1 34:-1 35:-0.897655 36:-0.5 37:-0.383012 38:-0.941889 39:-0.998606 40:-0.869767 41:-1 42:-0.977186 43:-1 45:-0.766667 46:-0.998236 47:-0.925926 48:-0.857143 49:-1 50:-1 51:1 52:-0.916168 53:-0.236085 54:-1 55:-1 56:-0.836538 57:-0.999376 58:-0.87218 59:-0.998927 60:-0.882353 
-32 1:-1 2:-0.677419 3:-0.413408 4:-0.404762 5:-0.999944 6:-0.690583 7:-0.999065 8:-0.626062 9:-0.99971 10:-0.999894 11:-0.752556 12:-1 13:-0.404762 14:-0.918474 15:-0.998689 16:-0.744186 17:-0.997595 18:-0.918474 19:0.292517 20:-0.673469 21:-1 22:-1 23:-1 24:-0.999977 25:-0.799951 26:-0.998374 27:-1 28:-0.583836 29:-1 30:-0.9 31:-0.909091 32:-0.969582 33:-0.574468 34:-1 35:-0.0597015 36:-0.375 37:0.185499 38:-0.515738 39:-0.998699 40:-0.454264 41:-1 42:-0.969582 43:-0.9 45:-0.6 46:-0.998398 47:-0.62963 48:-0.404762 49:-1 50:-0.999944 51:1 52:-0.149701 53:-0.265185 54:-1 55:-1 56:-0.360577 57:-1 58:-0.511278 59:-0.998455 60:-0.89916 
-32 1:-0.714286 2:-0.967742 3:-0.631285 4:-0.634921 5:-0.224203 6:-0.596413 7:-0.998909 8:-0.774788 9:-0.998449 10:-0.999813 11:-0.813088 12:-1 13:-0.634921 14:-0.687771 15:-0.998557 16:-0.790698 17:-0.997552 18:-0.687771 19:-0.673469 20:-0.77551 21:-0.984855 22:-0.647059 23:-0.984855 24:-0.999668 25:-0.790217 26:-0.998593 27:-1 28:-0.627262 29:-1 30:-0.92 31:-0.909091 32:-0.680608 33:-0.957447 34:-1 35:-0.501066 36:-0.75 37:0.0410344 38:-0.680387 39:-0.998574 40:-0.547287 41:-1 42:-0.680608 43:-0.92 45:-0.633333 46:-0.998231 47:-0.925926 48:-0.634921 49:-1 50:-0.223971 51:1 52:-0.724551 53:-0.172689 54:-0.882353 55:-1 56:-0.504808 57:-0.999858 58:-0.661654 59:-0.998794 60:-0.865546 
32 1:-1 2:-0.580645 3:-0.374302 4:-0.433862 5:-0.999952 6:-0.367713 7:-0.998648 8:-0.603399 9:-0.999397 10:-0.999828 11:-0.611861 12:-1 13:-0.433862 14:-0.746748 15:-0.998764 16:-0.790698 17:-0.998872 18:-0.746748 19:-0.795918 20:-0.591837 21:-0.980648 22:-1 23:-0.980648 24:-0.999871 25:-0.72402 26:-0.997611 27:-1 28:-0.119421 29:-1 30:-0.92 31:-0.818182 32:-0.741445 33:-0.446809 34:-1 35:-0.545842 36:-0.4375 37:0.333824 38:-0.399516 39:-0.998041 40:-0.165891 41:-1 42:-0.741445 43:-0.92 45:0.0666667 46:-0.997856 47:-0.481481 48:-0.433862 49:-1 50:-0.999952 51:1 52:-0.401198 53:-0.0181521 54:-0.764706 55:-1 56:-0.25 57:-0.999913 58:-0.24812 59:-0.998124 60:-0.478992 
32 1:-1 2:-1 3:-0.994413 4:-0.965608 5:-1 6:-0.977578 7:-0.999572 8:-0.958924 9:-0.998347 10:-0.999996 11:-0.988139 12:-1 13:-0.965608 14:-0.982654 15:-0.998705 16:-1 17:-0.997129 18:-0.982654 19:-0.959184 20:-0.979592 21:-1 22:-1 23:-1 24:-0.999697 25:-0.977123 26:-0.999049 27:-1 28:-0.991556 29:-1 30:-1 31:-1 32:-0.984791 33:-1 34:-1 35:-0.987207 36:-0.875 37:-0.726925 38:-0.985472 39:-0.999599 40:-0.972093 41:-1 42:-0.984791 43:-1 45:-1 46:-0.99899 47:-1 48:-0.965608 49:-1 50:-1 51:1 52:-0.988024 53:-0.565681 54:-1 55:-1 56:-0.980769 57:-1 58:-0.992481 59:-0.998745 60:-1 
-32 1:-1 2:-0.967742 3:-0.882682 4:-0.830688 5:0.63007 6:-0.843049 7:-0.998716 8:-0.902266 9:-0.998968 10:-0.999949 11:-0.911656 12:-1 13:-0.830688 14:-0.901127 15:-0.997845 16:-0.930233 17:-0.997318 18:-0.901127 19:-0.85034 20:-0.897959 21:-0.987379 22:-1 23:-0.987379 24:-0.999768 25:-0.504989 26:-0.99916 27:-1 28:-0.846803 29:-1 30:-0.98 31:-0.909091 32:-0.893536 33:-0.957447 34:-1 35:-0.842217 36:-0.5625 37:-0.20513 38:-0.869249 39:-0.998541 40:-0.826357 41:-1 42:-0.893536 43:-0.98 45:-0.9 46:-0.998047 47:-1 48:-0.830688 49:-1 50:0.630559 51:1 52:-0.904192 53:-0.0586753 54:-1 55:-1 56:-0.831731 57:-0.999751 58:-0.902256 59:-0.999798 60:-0.932773 
-32 1:-1 2:-1 3:-0.988827 4:-0.973545 5:-1 6:-0.959641 7:-0.999288 8:-0.983003 9:-0.998837 10:-0.999994 11:-0.991002 12:-1 13:-0.973545 14:-0.987858 15:-0.998945 16:-1 17:-0.997253 18:-0.987858 19:-0.931973 20:-1 21:-1 22:-1 23:-1 24:-0.999543 25:-0.972743 26:-0.998611 27:-1 28:-0.968637 29:-1 30:-1 31:-1 32:-0.977186 33:-1 34:-1 35:-0.982942 36:-0.9375 37:-0.730862 38:-0.990315 39:-0.999037 40:-0.972093 41:-1 42:-0.977186 43:-1 45:-1 46:-0.998651 47:-1 48:-0.973545 49:-1 50:-1 51:1 52:-0.988024 53:-0.397682 54:-1 55:-1 56:-0.975962 57:-1 58:-1 59:-0.99819 60:-1 
32 1:-1 2:-1 3:-0.972067 4:-0.912698 5:-1 6:-0.93722 7:-0.999169 8:-0.941926 9:-0.999302 10:-0.999971 11:-0.960327 12:-1 13:-0.912698 14:-0.973981 15:-0.998912 16:-0.930233 17:-0.997673 18:-0.973981 19:-0.986395 20:-0.897959 21:-0.990745 22:-1 23:-0.990745 24:-0.999957 25:-0.951813 26:-0.998547 27:-1 28:-0.916767 29:-1 30:-1 31:-0.909091 32:-0.992395 33:-1 34:-1 35:-0.953092 36:-0.75 37:-0.53734 38:-0.975787 39:-0.998946 40:-0.916279 41:-1 42:-0.992395 43:-1 45:-1 46:-0.99848 47:-1 48:-0.912698 49:-1 50:-1 51:1 52:-0.976048 53:-0.326918 54:-1 55:-1 56:-0.918269 57:-0.99953 58:-0.954887 59:-0.997983 60:-0.94958 
-32 1:-1 2:-1 3:-0.821229 4:-0.793651 5:-1 6:-0.852018 7:-0.999323 8:-0.736544 9:-0.999283 10:-0.999944 11:-0.928425 12:-1 13:-0.793651 14:-0.934952 15:-0.998435 16:-1 17:-0.998169 18:-0.934952 19:-0.891156 20:-0.877551 21:-1 22:-0.882353 23:-1 24:-0.99979 25:-0.9046 26:-0.99828 27:-1 28:-0.881785 29:-1 30:-0.98 31:-0.909091 32:-0.908745 33:-1 34:-1 35:-0.869936 36:-0.625 37:-0.332318 38:-0.840194 39:-0.99911 40:-0.826357 41:-1 42:-0.908745 43:-0.98 45:-0.9 46:-0.998616 47:-1 48:-0.793651 49:-1 50:-1 51:1 52:-0.964072 53:-0.418123 54:-1 55:-1 56:-0.865385 57:-1 58:-0.774436 59:-0.998817 60:-0.831933 
32 1:-1 2:-1 3:-0.793296 4:-0.793651 5:-1 6:-0.766816 7:-0.998748 8:-0.883853 9:-0.9991 10:-0.999938 11:-0.88998 12:-1 13:-0.793651 14:-0.904597 15:-0.998871 16:-0.883721 17:-0.998222 18:-0.904597 19:-0.863946 20:-0.918367 21:-0.977282 22:-1 23:-0.977282 24:-0.999925 25:-0.886104 26:-0.998372 27:-1 28:-0.780458 29:-1 30:-1 31:-1 32:-0.961977 33:-1 34:-1 35:-0.878465 36:-0.625 37:-0.256319 38:-0.845036 39:-0.998505 40:-0.590698 41:-1 42:-0.961977 43:-1 45:-0.866667 46:-0.998065 47:-0.851852 48:-0.793651 49:-1 50:-1 51:1 52:-0.94012 53:-0.0776603 54:-1 55:-1 56:-0.826923 57:-0.999594 58:-0.714286 59:-0.998186 60:-0.781513 
-32 1:-0.714286 2:-0.806452 3:-0.882682 4:-0.724868 5:-0.999908 6:-0.659193 7:-0.999189 8:-0.825779 9:-0.99918 10:-0.99995 11:-0.887526 12:-1 13:-0.724868 14:-0.916739 15:-0.999023 16:-0.883721 17:-0.997358 18:-0.916739 19:-0.904762 20:-0.755102 21:-0.970551 22:-0.882353 23:-0.970551 24:-1 25:-0.904113 26:-0.998601 27:-1 28:-0.691194 29:-1 30:-1 31:-1 32:-1 33:-0.744681 34:-1 35:-0.895522 36:-0.5625 37:-0.257914 38:-0.912833 39:-0.999022 40:-0.764341 41:-1 42:-1 43:-1 45:-0.766667 46:-0.998612 47:-0.62963 48:-0.724868 49:-1 50:-0.999908 51:1 52:-0.928144 53:-0.338582 54:-0.882353 55:-1 56:-0.793269 57:-0.99945 58:-0.759398 59:-0.998216 60:-0.294118 
-32 1:-1 2:-0.741935 3:-0.52514 4:-0.460317 5:-0.999946 6:-0.511211 7:-0.998993 8:-0.689802 9:-0.999646 10:-0.999893 11:-0.713701 12:-1 13:-0.460317 14:-0.917606 15:-0.998888 16:-0.697674 17:-0.997684 18:-0.917606 19:-0.70068 20:-0.591837 21:-0.941944 22:-1 23:-0.941944 24:-0.99998 25:-0.813093 26:-0.998561 27:-1 28:-0.366707 29:-0.5 30:-1 31:-0.909091 32:-0.977186 33:-0.659574 34:-1 35:-0.61194 36:-0.5 37:0.100308 38:-0.68523 39:-0.998782 40:-0.457364 41:-0.875 42:-0.977186 43:-1 45:-0.533333 46:-0.998349 47:-0.62963 48:-0.460317 49:-1 50:-0.999946 51:1 52:-0.640719 53:-0.222887 54:-1 55:-1 56:-0.360577 57:-0.999527 58:-0.496241 59:-0.998203 60:-0.462185 
32 1:-1 2:-0.709677 3:-0.329609 4:-0.312169 5:-0.999952 6:-0.130045 7:-0.999199 8:-0.565156 9:-0.999551 10:-0.999904 11:-0.682618 12:-1 13:-0.312169 14:-0.869037 15:-0.999013 16:-0.674419 17:-0.997187 18:-0.869037 19:-0.591837 20:-0.55102 21:-0.931005 22:-0.294118 23:-0.931005 24:-0.999809 25:-0.846191 26:-0.998586 27:-1 28:-0.470446 29:-0.5 30:-0.92 31:-0.818182 32:-0.73384 33:-0.617021 34:-1 35:0.0511727 36:-0.3125 37:0.225227 38:-0.423729 39:-0.9989 40:-0.15969 41:-1 42:-0.73384 43:-0.92 45:-0.466667 46:-0.998581 47:-0.777778 48:-0.312169 49:-1 50:-0.999952 51:1 52:-0.101796 53:-0.344474 54:-0.411765 55:-1 56:-0.254808 57:-0.999552 58:-0.353383 59:-0.998105 60:-0.579832 
-32 1:-1 2:-1 3:-0.994413 4:-0.97619 5:-1 6:-0.977578 7:-0.998867 8:-0.985836 9:-0.999059 10:-0.999998 11:-0.988957 12:-1 13:-0.97619 14:-0.988725 15:-0.999169 16:-0.953488 17:-0.998483 18:-0.988725 19:-0.986395 20:-0.979592 21:-1 22:-1 23:-1 24:-0.999867 25:-0.972743 26:-0.99809 27:-1 28:-0.971049 29:-1 30:-1 31:-1 32:-0.992395 33:-1 34:-1 35:-0.993603 36:-0.9375 37:-0.727903 38:-0.995157 39:-0.998569 40:-0.956589 41:-1 42:-0.992395 43:-1 45:-1 46:-0.998149 47:-1 48:-0.97619 49:-1 50:-1 51:1 52:-0.988024 53:-0.147729 54:-1 55:-1 56:-0.985577 57:-1 58:-0.977444 59:-0.997861 60:-0.966387 
32 1:-1 2:-0.83871 3:-0.927374 4:-0.777778 5:-0.999923 6:-0.825112 7:-0.999082 8:-0.852691 9:-0.99899 10:-0.999925 11:-0.881391 12:-1 13:-0.777778 14:-0.897658 15:-0.998737 16:-0.953488 17:-0.997428 18:-0.897658 19:-0.918367 20:-0.877551 21:-0.964661 22:-1 23:-0.964661 24:-0.999608 25:-0.851545 26:-0.99881 27:-1 28:-0.668275 29:-1 30:-0.98 31:-0.818182 32:-0.809886 33:-0.787234 34:-1 35:-0.897655 36:-0.6875 37:-0.239316 38:-0.898305 39:-0.998967 40:-0.711628 41:-1 42:-0.809886 43:-0.98 45:-0.933333 46:-0.998455 47:-0.851852 48:-0.777778 49:-1 50:-0.999923 51:1 52:-0.928144 53:-0.27535 54:-1 55:-1 56:-0.826923 57:-0.999339 58:-0.729323 59:-0.998252 60:-0.798319 
32 1:-1 2:-1 3:-0.893855 4:-0.801587 5:-1 6:-0.869955 7:-0.999103 8:-0.831445 9:-0.999508 10:-0.999945 11:-0.936196 12:-1 13:-0.801587 14:-0.951431 15:-0.998629 16:-0.953488 17:-0.997853 18:-0.951431 19:-0.972789 20:-0.938776 21:-0.978124 22:-1 23:-0.978124 24:-0.999468 25:-0.889024 26:-0.998195 27:-1 28:-0.858866 29:-1 30:-0.96 31:-0.909091 32:-0.749049 33:-1 34:-1 35:-0.925373 36:-0.625 37:-0.291966 38:-0.869249 39:-0.998823 40:-0.770543 41:-1 42:-0.749049 43:-0.96 45:-0.7 46:-0.998492 47:-0.925926 48:-0.801587 49:-1 50:-1 51:1 52:-0.904192 53:-0.287722 54:-1 55:-1 56:-0.822115 57:-0.99958 58:-0.842105 59:-0.998431 60:-0.94958 
-32 1:-1 2:-0.83871 3:-0.860335 4:-0.753968 5:-0.999929 6:-0.807175 7:-0.999072 8:-0.84136 9:-0.998597 10:-0.99996 11:-0.859305 12:-1 13:-0.753968 14:-0.844753 15:-0.998786 16:-0.953488 17:-0.997667 18:-0.844753 19:-0.85034 20:-0.77551 21:-0.997476 22:-1 23:-0.997476 24:-0.999483 25:-0.891458 26:-0.998472 27:-1 28:-0.68275 29:-1 30:-0.96 31:-0.909091 32:-0.726236 33:-0.787234 34:-1 35:-0.889126 36:-0.4375 37:-0.232966 38:-0.937046 39:-0.998814 40:-0.764341 41:-1 42:-0.726236 43:-0.96 45:-0.933333 46:-0.998417 47:-0.925926 48:-0.753968 49:-1 50:-0.999929 51:1 52:-0.832335 53:-0.269534 54:-1 55:-1 56:-0.8125 57:-0.999957 58:-0.81203 59:-0.998251 60:-0.747899 
-32 1:-1 2:-0.870968 3:-0.877095 4:-0.833333 5:-0.999934 6:-0.923767 7:-0.999207 8:-0.866856 9:-0.99887 10:-0.999962 11:-0.919427 12:-1 13:-0.833333 14:-0.892454 15:-0.998484 16:-0.953488 17:-0.997553 18:-0.892454 19:-0.959184 20:-0.938776 21:-0.997476 22:-1 23:-0.997476 24:-0.99995 25:-0.845705 26:-0.998665 27:-1 28:-0.897467 29:-1 30:-0.94 31:-0.636364 32:-0.977186 33:-0.829787 34:-1 35:-0.816631 36:-0.4375 37:-0.274727 38:-0.88862 39:-0.998881 40:-0.807752 41:-1 42:-0.977186 43:-0.94 45:-0.966667 46:-0.998417 47:-0.703704 48:-0.833333 49:-1 50:-0.999934 51:1 52:-0.856287 53:-0.349299 54:-1 55:-1 56:-0.889423 57:-0.99995 58:-0.759398 59:-0.998563 60:-0.932773 
32 1:-0.714286 2:-0.903226 3:-0.899441 4:-0.793651 5:-0.99995 6:-0.878924 7:-0.999134 8:-0.868272 9:-0.999208 10:-0.999935 11:-0.90184 12:-1 13:-0.793651 14:-0.926279 15:-0.998954 16:-0.976744 17:-0.997574 18:-0.926279 19:-0.904762 20:-0.795918 21:-0.976441 22:-1 23:-0.976441 24:-0.99988 25:-0.884643 26:-0.998485 27:-1 28:-0.764777 29:-1 30:-1 31:-0.909091 32:-0.946768 33:-0.87234 34:-1 35:-0.810235 36:-0.6875 37:-0.295671 38:-0.854722 39:-0.99882 40:-0.730233 41:-1 42:-0.946768 43:-1 45:-0.766667 46:-0.998445 47:-0.925926 48:-0.793651 49:-1 50:-0.99995 51:1 52:-0.952096 53:-0.306444 54:-1 55:-1 56:-0.850962 57:-0.999521 58:-0.87218 59:-0.997997 60:-0.747899 
-32 1:-1 2:-1 3:-0.988827 4:-0.989418 5:-1 6:-0.986547 7:-0.999318 8:-0.992918 9:-0.998054 10:-0.999998 11:-0.996319 12:-1 13:-0.989418 14:-0.989592 15:-0.999238 16:-1 17:-0.997025 18:-0.989592 19:-1 20:-1 21:-1 22:-1 23:-1 24:-0.999703 25:-0.981991 26:-0.998603 27:-1 28:-0.984318 29:-1 30:-1 31:-1 32:-0.992395 33:-1 34:-1 35:-1 36:-0.9375 37:-0.793793 38:-0.995157 39:-0.998945 40:-0.987597 41:-1 42:-0.992395 43:-1 45:-1 46:-0.998657 47:-1 48:-0.989418 49:-1 50:-1 51:1 52:-0.976048 53:-0.415142 54:-1 55:-1 56:-0.990385 57:-1 58:-0.984962 59:-0.998431 60:-0.966387 
-32 1:-1 2:-1 3:-0.977654 4:-0.955026 5:-1 6:-0.964126 7:-0.999204 8:-0.966006 9:-0.998825 10:-0.999988 11:-0.980368 12:-1 13:-0.955026 14:-0.975716 15:-0.998903 16:-0.976744 17:-0.997123 18:-0.975716 19:-1 20:-0.918367 21:-0.996634 22:-1 23:-0.996634 24:-0.999846 25:-0.956194 26:-0.9988 27:-1 28:-0.946924 29:-1 30:-0.98 31:-1 32:-0.984791 33:-1 34:-1 35:-0.991471 36:-0.6875 37:-0.63064 38:-0.990315 39:-0.999088 40:-0.934884 41:-1 42:-0.984791 43:-0.98 45:-0.966667 46:-0.998644 47:-1 48:-0.955026 49:-1 50:-1 51:1 52:-0.976048 53:-0.347517 54:-1 55:-1 56:-0.966346 57:-0.999691 58:-0.992481 59:-0.998306 60:-0.89916 
-32 1:-1 2:-1 3:-0.608939 4:-0.740741 5:-1 6:-0.479821 7:-0.999243 8:-0.788952 9:-0.99916 10:-0.999961 11:-0.859305 12:-1 13:-0.740741 14:-0.901127 15:-0.998827 16:-0.883721 17:-0.997056 18:-0.901127 19:-0.809524 20:-0.755102 21:-0.990745 22:-0.764706 23:-0.990745 24:-0.999811 25:-0.872475 26:-0.998812 27:-1 28:-0.768396 29:-1 30:-0.98 31:-0.909091 32:-0.893536 33:-1 34:-1 35:-0.697228 36:-0.3125 37:-0.183613 38:-0.520581 39:-0.99914 40:-0.711628 41:-1 42:-0.893536 43:-0.98 45:-0.9 46:-0.9987 47:-1 48:-0.740741 49:-1 50:-1 51:1 52:-0.652695 53:-0.370502 54:-0.764706 55:-1 56:-0.673077 57:-0.999851 58:-0.789474 59:-0.998086 60:-0.848739 
-32 1:-0.714286 2:-0.83871 3:-0.905028 4:-0.854497 5:-0.999858 6:-0.887892 7:-0.999201 8:-0.912181 9:-0.999275 10:-0.999974 11:-0.931697 12:-1 13:-0.854497 14:-0.960104 15:-0.998984 16:-0.976744 17:-0.997306 18:-0.960104 19:-0.877551 20:-0.877551 21:-0.996634 22:-1 23:-0.996634 24:-0.999971 25:-0.921149 26:-0.998691 27:-1 28:-0.869723 29:-1 30:-1 31:-0.909091 32:-0.992395 33:-0.787234 34:-1 35:-0.884861 36:-0.5625 37:-0.434791 38:-0.898305 39:-0.999006 40:-0.885271 41:-1 42:-0.992395 43:-1 45:-0.933333 46:-0.998575 47:-0.925926 48:-0.854497 49:-1 50:-0.999858 51:1 52:-0.892216 53:-0.346074 54:-1 55:-1 56:-0.875 57:-0.999884 58:-0.864662 59:-0.998207 60:-0.815126 
32 1:-1 2:-0.967742 3:-0.882682 4:-0.896825 5:-0.999971 6:-0.865471 7:-0.998907 8:-0.943343 9:-0.999288 10:-0.999964 11:-0.923108 12:-1 13:-0.896825 14:-0.960971 15:-0.998662 16:-0.953488 17:-0.99759 18:-0.960971 19:-0.959184 20:-0.877551 21:-0.989903 22:-1 23:-0.989903 24:-1 25:-0.848625 26:-0.9986 27:-1 28:-0.831122 29:-1 30:-0.98 31:-0.636364 32:-1 33:-0.957447 34:-1 35:-0.814499 36:-0.6875 37:-0.440384 38:-0.941889 39:-0.998526 40:-0.807752 41:-1 42:-1 43:-0.98 45:-0.9 46:-0.998182 47:-0.925926 48:-0.896825 49:-1 50:-0.999971 51:1 52:-0.892216 53:-0.1715 54:-1 55:-1 56:-0.860577 57:-0.999651 58:-0.842105 59:-0.998393 60:-0.882353 
-32 1:-1 2:-1 3:-0.888268 4:-0.896825 5:-1 6:-0.838565 7:-0.9993 8:-0.906516 9:-0.999432 10:-0.999956 11:-0.938241 12:-1 13:-0.896825 14:-0.971379 15:-0.998772 16:-0.906977 17:-0.996978 18:-0.971379 19:-0.945578 20:-0.959184 21:-0.993269 22:-0.882353 23:-0.993269 24:-0.9994 25:-0.900706 26:-0.998725 27:-1 28:-0.901086 29:-1 30:-0.98 31:-0.909091 32:-0.855513 33:-1 34:-1 35:-0.857143 36:-0.75 37:-0.456426 38:-0.864407 39:-0.999134 40:-0.863566 41:-0.875 42:-0.855513 43:-0.98 45:-0.833333 46:-0.99876 47:-1 48:-0.896825 49:-1 50:-1 51:1 52:-0.892216 53:-0.404582 54:-0.882353 55:-1 56:-0.826923 57:-0.999747 58:-0.894737 59:-0.998385 60:-0.932773 
32 1:-0.714286 2:-0.612903 3:-0.407821 4:-0.00793651 5:-0.999957 6:-0.273543 7:-0.999291 8:-0.171388 9:-0.999012 10:-0.795624 11:-0.555828 12:-1 13:-0.00793651 14:-0.564614 15:-0.998701 16:-0.604651 17:-0.997449 18:-0.564614 19:-0.605442 20:-0.714286 21:-0.890618 22:-1 23:-0.890618 24:-0.999441 25:-0.730348 26:-0.998387 27:-1 28:-0.0711701 29:-1 30:-0.82 31:-0.636364 32:0.178707 33:-0.489362 34:-1 35:-0.639659 36:-0.5 37:0.460638 38:-0.215496 39:-0.998981 40:-0.100775 41:-0.625 42:0.178707 43:-0.82 45:-0.133333 46:-0.998653 47:-0.259259 48:-0.00793651 49:-1 50:-0.999957 51:1 52:-0.688623 53:-0.399383 54:-1 55:-1 56:-0.0625 57:-0.99953 58:-0.180451 59:-0.998322 60:-0.142857 
32 1:-1 2:-1 3:-0.854749 4:-0.849206 5:-1 6:-0.860987 7:-0.99923 8:-0.913598 9:-0.999207 10:-0.999967 11:-0.933742 12:-1 13:-0.849206 14:-0.955768 15:-0.998931 16:-0.860465 17:-0.996814 18:-0.955768 19:-0.945578 20:-0.938776 21:-0.976441 22:-0.764706 23:-0.976441 24:-0.999886 25:-0.931857 26:-0.998922 27:-1 28:-0.841978 29:-1 30:-0.96 31:-1 32:-0.969582 33:-1 34:-1 35:-0.812367 36:-0.625 37:-0.416701 38:-0.88862 39:-0.999074 40:-0.829457 41:-1 42:-0.969582 43:-0.96 45:-0.9 46:-0.998677 47:-1 48:-0.849206 49:-1 50:-1 51:1 52:-0.856287 53:-0.363311 54:-0.882353 55:-1 56:-0.817308 57:-0.9992 58:-0.827068 59:-0.998178 60:-0.932773 
-32 1:-1 2:-0.903226 3:-0.994413 4:-0.907407 5:-0.999883 6:-0.932735 7:-0.998927 8:-0.949008 9:-0.998983 10:-0.999977 11:-0.957873 12:-1 13:-0.907407 14:-0.959237 15:-0.998703 16:-1 17:-0.997951 18:-0.959237 19:-0.986395 20:-0.959184 21:-1 22:-1 23:-1 24:-0.999762 25:-0.931857 26:-0.998322 27:-1 28:-0.921592 29:-1 30:-1 31:-1 32:-0.954373 33:-0.87234 34:-1 35:-0.970149 36:-0.625 37:-0.525773 38:-0.941889 39:-0.998653 40:-0.922481 41:-1 42:-0.954373 43:-1 45:-0.966667 46:-0.998276 47:-0.925926 48:-0.907407 49:-1 50:-0.999883 51:1 52:-0.988024 53:-0.18359 54:-1 55:-1 56:-0.956731 57:-1 58:-0.93985 59:-0.998601 60:-0.882353 
-32 1:-1 2:-0.967742 3:-0.988827 4:-0.97619 5:-0.999889 6:-0.96861 7:-0.998843 8:-0.985836 9:-0.998888 10:-0.999997 11:-0.981595 12:-1 13:-0.97619 14:-0.984389 15:-0.998753 16:-1 17:-0.997926 18:-0.984389 19:-1 20:-1 21:-1 22:-1 23:-1 24:-0.999773 25:-0.962521 26:-0.998581 27:-1 28:-0.975875 29:-1 30:-1 31:-1 32:-0.984791 33:-0.957447 34:-1 35:-0.995736 36:-0.875 37:-0.693728 38:-1 39:-0.998565 40:-0.965891 41:-1 42:-0.984791 43:-1 45:-0.966667 46:-0.998111 47:-0.851852 48:-0.97619 49:-1 50:-0.999889 51:1 52:-1 53:-0.1335 54:-1 55:-1 56:-0.971154 57:-1 58:-0.962406 59:-0.998289 60:-0.966387 
-0.33626476243201 1:-1 2:-1 3:-1 4:-0.994709 5:-1 6:-1 7:-0.99866 8:-0.997167 9:-0.998494 10:-0.999991 11:-0.997546 12:-1 13:-0.994709 14:-0.992194 15:-0.998476 16:-1 17:-0.998843 18:-0.992194 19:-1 20:-1 21:-1 22:-1 23:-1 24:-0.99908 25:-0.984424 26:1 27:-1 28:-0.996381 29:-1 30:-0.98 31:-1 32:-0.977186 33:-1 34:-1 35:-0.997868 36:-0.9375 37:-0.805981 38:-1 39:-0.997968 40:-0.990698 41:-1 42:-0.977186 43:-0.98 45:-1 46:-0.997653 47:-1 48:-0.994709 49:-1 50:-1 51:1 52:-1 53:-0.0249613 54:-1 55:-1 56:-0.995192 57:-1 58:-0.984962 59:-0.998431 60:-0.983193 
32 1:-1 2:-1 3:-0.972067 4:-0.955026 5:-1 6:-0.964126 7:-0.999187 8:-0.963173 9:-0.999245 10:-0.999989 11:-0.981186 12:-1 13:-0.955026 14:-0.985256 15:-0.998561 16:-1 17:-0.99734 18:-0.985256 19:-0.986395 20:-0.938776 21:-0.98822 22:-1 23:-0.98822 24:-0.999919 25:-0.937211 26:-0.998644 27:-1 28:-0.972256 29:-1 30:-1 31:-0.818182 32:-0.992395 33:-1 34:-1 35:-0.968017 36:-0.9375 37:-0.649365 38:-0.951574 39:-0.999129 40:-0.931783 41:-1 42:-0.992395 43:-1 45:-1 46:-0.998681 47:-1 48:-0.955026 49:-1 50:-1 51:1 52:-0.988024 53:-0.337684 54:-1 55:-1 56:-0.985577 57:-0.998857 58:-0.984962 59:-0.998257 60:-0.94958 
-32 1:-1 2:-1 3:-0.994413 4:-0.986772 5:-1 6:-0.977578 7:-0.999292 8:-0.991501 9:-0.998388 10:-0.999982 11:-0.992229 12:-1 13:-0.986772 14:-0.989592 15:-0.998694 16:-1 17:-0.997565 18:-0.989592 19:-0.986395 20:-0.979592 21:-1 22:-1 23:-1 24:-0.999015 25:-0.981017 26:-0.998898 27:-1 28:-0.995175 29:-1 30:-1 31:-1 32:-0.969582 33:-1 34:-1 35:-0.98081 36:-0.9375 37:-0.773662 38:-1 39:-0.999053 40:-0.993798 41:-1 42:-0.969582 43:-1 45:-1 46:-0.998436 47:-1 48:-0.986772 49:-1 50:-1 51:1 52:-0.988024 53:-0.399929 54:-1 55:-1 56:-0.985577 57:-1 58:-1 59:-0.998655 60:-1 
0.6374872654843914 1:-0.142857 2:-0.129032 3:0.0614525 4:0.185185 5:-0.999919 6:-0.0538117 7:-0.998992 8:-0.259207 9:-0.998646 10:-0.99979 11:-0.460532 12:-1 13:0.185185 14:-0.297485 15:-0.998761 16:-0.55814 17:-0.997998 18:-0.297485 19:-0.564626 20:-0.183673 21:-0.889777 22:-0.411765 23:-0.889777 24:-0.999721 25:-0.757119 26:-0.998466 27:-1 28:0.110977 29:-1 30:-0.68 31:0.727273 32:-0.307985 33:0.148936 34:-1 35:-0.255864 36:-0.4375 37:0.601509 38:0.234867 39:-0.998809 40:0.603101 41:-1 42:-0.307985 43:-0.68 45:-0.0333333 46:-0.998312 47:0.185185 48:0.185185 49:-1 50:-0.999919 51:1 52:-0.281437 53:-0.222294 54:-0.529412 55:-1 56:0.00480769 57:-0.999598 58:0.0150376 59:-0.998383 60:0.092437 
-32 1:-1 2:-0.709677 3:-0.927374 4:-0.706349 5:-0.999882 6:-0.829596 7:-0.9993 8:-0.800283 9:-0.998402 10:-0.999958 11:-0.870348 12:-1 13:-0.706349 14:-0.809193 15:-0.998728 16:-0.976744 17:-0.996917 18:-0.809193 19:-0.904762 20:-0.877551 21:-0.996634 22:-0.882353 23:-0.996634 24:-0.9998 25:-0.817474 26:-0.998858 27:-1 28:-0.700844 29:-1 30:-0.98 31:-0.909091 32:-0.885932 33:-0.617021 34:-1 35:-0.933902 36:-0.375 37:-0.165495 38:-0.869249 39:-0.99909 40:-0.68062 41:-1 42:-0.885932 43:-0.98 45:-1 46:-0.998684 47:-0.851852 48:-0.706349 49:-1 50:-0.999882 51:1 52:-0.904192 53:-0.404597 54:-0.882353 55:-1 56:-0.850962 57:-0.999947 58:-0.759398 59:-0.998708 60:-0.731092 
-32 1:-0.714286 2:-0.935484 3:-0.793296 4:-0.727513 5:-0.999976 6:-0.744395 7:-0.999097 8:-0.790368 9:-0.999552 10:-0.999924 11:-0.842945 12:-1 13:-0.727513 14:-0.942758 15:-0.998849 16:-0.953488 17:-0.997427 18:-0.942758 19:-0.891156 20:-0.836735 21:-0.951199 22:-1 23:-0.951199 24:-0.999938 25:-0.875882 26:-0.998643 27:-1 28:-0.677925 29:-1 30:-0.9 31:-0.909091 32:-0.961977 33:-0.914894 34:-1 35:-0.705757 36:-0.625 37:-0.169595 38:-0.588378 39:-0.999006 40:-0.668217 41:-1 42:-0.961977 43:-0.9 45:-0.6 46:-0.998559 47:-0.925926 48:-0.727513 49:-1 50:-0.999976 51:1 52:-0.796407 53:-0.284096 54:-1 55:-1 56:-0.658654 57:-0.999277 58:-0.691729 59:-0.998042 60:-0.798319 
-32 1:-1 2:-0.935484 3:-0.458101 4:-0.404762 5:0.0385015 6:-0.430493 7:-0.998829 8:-0.645892 9:-0.999452 10:-0.999888 11:-0.650307 12:-1 13:-0.404762 14:-0.835212 15:-0.998862 16:-0.790698 17:-0.998139 18:-0.835212 19:-0.877551 20:-0.591837 21:-0.839293 22:-0.882353 23:-0.839293 24:-0.999804 25:-0.792164 26:-0.998356 27:-1 28:-0.414958 29:-0.5 30:-0.74 31:-0.636364 32:-0.718631 33:-0.914894 34:-1 35:-0.624733 36:-0.375 37:0.218984 38:-0.186441 39:-0.998574 40:-0.190698 41:-1 42:-0.718631 43:-0.74 45:-0.566667 46:-0.998146 47:-0.851852 48:-0.404762 49:-1 50:0.0388128 51:1 52:-0.401198 53:-0.125239 54:-1 55:-1 56:-0.259615 57:-0.998988 58:0.037594 59:-0.99805 60:-0.915966 
-32 1:-1 2:-0.870968 3:-0.960894 4:-0.880952 5:-0.999855 6:-0.784753 7:-0.999379 8:-0.913598 9:-0.999298 10:-0.999974 11:-0.948875 12:-1 13:-0.880952 14:-0.969644 15:-0.998894 16:-0.953488 17:-0.996405 18:-0.969644 19:-0.986395 20:-0.918367 21:-1 22:-1 23:-1 24:-0.999632 25:-0.933317 26:-0.998945 27:-1 28:-0.885404 29:-1 30:-1 31:-1 32:-0.923954 33:-0.829787 34:-1 35:-0.957356 36:-0.625 37:-0.480448 38:-0.970944 39:-0.999281 40:-0.891473 41:-1 42:-0.923954 43:-1 45:-0.866667 46:-0.998951 47:-0.925926 48:-0.880952 49:-1 50:-0.999855 51:1 52:-0.964072 53:-0.451276 54:-1 55:-1 56:-0.903846 57:-1 58:-0.924812 59:-0.997875 60:-0.815126 
32 1:-1 2:-0.967742 3:-0.994413 4:-0.981481 5:-0.999836 6:-0.986547 7:-0.999211 8:-0.983003 9:-0.999635 10:-0.999994 11:-0.99182 12:-1 13:-0.981481 14:-0.996531 15:-0.998593 16:-0.976744 17:-0.99737 18:-0.996531 19:-0.986395 20:-1 21:-0.991586 22:-1 23:-0.991586 24:-0.999833 25:-0.957654 26:-0.999127 27:-1 28:-0.989144 29:-1 30:-1 31:-1 32:-0.992395 33:-0.957447 34:-1 35:-0.987207 36:-0.75 37:-0.724017 38:-0.98063 39:-0.999304 40:-0.972093 41:-1 42:-0.992395 43:-1 45:-1 46:-0.998581 47:-1 48:-0.981481 49:-1 50:-0.999835 51:1 52:-1 53:-0.351996 54:-1 55:-1 56:-0.975962 57:-0.998322 58:-0.984962 59:-0.99819 60:-0.983193 
-32 1:-1 2:-0.806452 3:-0.804469 4:-0.759259 5:-0.999901 6:-0.730942 7:-0.999113 8:-0.839943 9:-0.998977 10:-0.999934 11:-0.892434 12:-1 13:-0.759259 14:-0.902862 15:-0.998857 16:-0.930233 17:-0.997725 18:-0.902862 19:-0.904762 20:-0.918367 21:-0.977282 22:-1 23:-0.977282 24:-0.999849 25:-0.905573 26:-0.99836 27:-1 28:-0.81544 29:-1 30:-1 31:-1 32:-0.931559 33:-0.744681 34:-1 35:-0.867804 36:-0.6875 37:-0.300246 38:-0.743341 39:-0.998905 40:-0.75814 41:-1 42:-0.931559 43:-1 45:-0.866667 46:-0.998518 47:-0.62963 48:-0.759259 49:-1 50:-0.999901 51:1 52:-0.976048 53:-0.293789 54:-1 55:-1 56:-0.836538 57:-0.999547 58:-0.789474 59:-0.998184 60:-0.764706 
32 1:-1 2:-0.967742 3:-0.905028 4:-0.928571 5:-0.999965 6:-0.93722 7:-0.998804 8:-0.951841 9:-0.999088 10:-0.999969 11:-0.931697 12:-1 13:-0.928571 14:-0.959237 15:-0.99889 16:-0.953488 17:-0.997576 18:-0.959237 19:-0.945578 20:-0.918367 21:-0.994952 22:-1 23:-0.994952 24:-1 25:-0.886104 26:-0.99875 27:-1 28:-0.84801 29:-1 30:-1 31:-0.818182 32:-1 33:-0.957447 34:-1 35:-0.908316 36:-0.6875 37:-0.479277 38:-0.90799 39:-0.998615 40:-0.894574 41:-1 42:-1 43:-1 45:-0.9 46:-0.998185 47:-1 48:-0.928571 49:-1 50:-0.999965 51:1 52:-0.904192 53:-0.110675 54:-1 55:-1 56:-0.846154 57:-0.999786 58:-0.864662 59:-0.998118 60:-0.983193 
32 1:-1 2:-0.870968 3:-0.932961 4:-0.846561 5:-0.999895 6:-0.856502 7:-0.999072 8:-0.905099 9:-0.999213 10:-0.999971 11:-0.935787 12:-1 13:-0.846561 14:-0.953166 15:-0.998857 16:-1 17:-0.997831 18:-0.953166 19:-0.945578 20:-1 21:-0.985696 22:-1 23:-0.985696 24:-0.99984 25:-0.926016 26:-0.998263 27:-1 28:-0.872135 29:-1 30:-1 31:-1 32:-0.954373 33:-0.829787 34:-1 35:-0.96162 36:-0.5625 37:-0.440817 38:-0.970944 39:-0.998824 40:-0.891473 41:-1 42:-0.954373 43:-1 45:-0.966667 46:-0.998467 47:-0.777778 48:-0.846561 49:-1 50:-0.999895 51:1 52:-0.952096 53:-0.26939 54:-1 55:-1 56:-0.951923 57:-0.999545 58:-0.842105 59:-0.998547 60:-0.680672 
32 1:-1 2:-0.741935 3:-0.731844 4:-0.687831 5:-0.999922 6:-0.600897 7:-0.998874 8:-0.825779 9:-0.999305 10:-0.999948 11:-0.800818 12:-1 13:-0.687831 14:-0.888118 15:-0.998839 16:-0.790698 17:-0.99766 18:-0.888118 19:-0.863946 20:-0.816327 21:-0.983172 22:-1 23:-0.983172 24:-0.999684 25:-0.825748 26:-0.998373 27:-1 28:-0.607961 29:-1 30:-1 31:-1 32:-0.756654 33:-0.659574 34:-1 35:-0.782516 36:-0.3125 37:-0.087548 38:-0.57385 39:-0.998469 40:-0.708527 41:-1 42:-0.756654 43:-1 45:-0.433333 46:-0.998215 47:-0.62963 48:-0.687831 49:-1 50:-0.999922 51:1 52:-0.88024 53:-0.152193 54:-1 55:-1 56:-0.538462 57:-0.999802 58:-0.390977 59:-0.99814 60:-0.747899 
32 1:-1 2:-0.83871 3:-0.798883 4:-0.669312 5:-0.99994 6:-0.600897 7:-0.999237 8:-0.783286 9:-0.999175 10:-0.999949 11:-0.826585 12:-1 13:-0.669312 14:-0.893322 15:-0.999035 16:-0.883721 17:-0.996997 18:-0.893322 19:-0.659864 20:-0.714286 21:-0.952882 22:-1 23:-0.952882 24:-0.999963 25:-0.887564 26:-0.998675 27:-1 28:-0.670688 29:-1 30:-1 31:-1 32:-0.977186 33:-0.787234 34:-1 35:-0.739872 36:-0.4375 37:-0.159734 38:-0.77724 39:-0.999032 40:-0.72093 41:-1 42:-0.977186 43:-1 45:-0.733333 46:-0.998699 47:-0.777778 48:-0.669312 49:-1 50:-0.99994 51:1 52:-0.892216 53:-0.367011 54:-1 55:-1 56:-0.706731 57:-0.99931 58:-0.684211 59:-0.998075 60:-0.798319 
32 1:-0.714286 2:-0.709677 3:-0.653631 4:-0.253968 5:-0.99995 6:-0.35426 7:-0.999113 8:-0.563739 9:-0.999637 10:-0.999889 11:-0.681391 12:-1 13:-0.253968 14:-0.898526 15:-0.99889 16:-0.627907 17:-0.99762 18:-0.898526 19:-0.455782 20:-0.571429 21:-0.925116 22:-0.882353 23:-0.925116 24:-0.999886 25:-0.822341 26:-0.998493 27:-1 28:-0.376357 29:-1 30:-0.9 31:-0.636364 32:-0.847909 33:-0.617021 34:-1 35:-0.665245 36:-0.4375 37:0.185695 38:-0.37046 39:-0.998903 40:-0.237209 41:-1 42:-0.847909 43:-0.9 45:-0.333333 46:-0.998488 47:0.407407 48:-0.253968 49:-1 50:-0.99995 51:1 52:-0.904192 53:-0.294008 54:-0.882353 55:-1 56:-0.519231 57:-0.999493 58:-0.218045 59:-0.998325 60:0.00840336 
32 1:-0.714286 2:-1 3:-0.932961 4:-0.84127 5:-1 6:-0.928251 7:-0.999102 8:-0.88102 9:-0.99921 10:-0.999978 11:-0.941104 12:-1 13:-0.84127 14:-0.949696 15:-0.998655 16:-0.953488 17:-0.997889 18:-0.949696 19:-0.904762 20:-0.918367 21:-0.979806 22:-1 23:-0.979806 24:-0.9997 25:-0.897299 26:-0.998597 27:-1 28:-0.885404 29:-1 30:-1 31:-1 32:-0.908745 33:-1 34:-1 35:-0.927505 36:-0.375 37:-0.404231 38:-0.898305 39:-0.999082 40:-0.851163 41:-1 42:-0.908745 43:-1 45:-0.933333 46:-0.998494 47:-0.925926 48:-0.84127 49:-1 50:-1 51:1 52:-0.988024 53:-0.287434 54:-1 55:-1 56:-0.923077 57:-0.999399 58:-0.879699 59:-0.998616 60:-0.781513 
32 1:-1 2:-0.483871 3:-0.268156 4:-0.174603 5:-0.999934 6:-0.32287 7:-0.999065 8:-0.44051 9:-0.999116 10:-0.999895 11:-0.676483 12:-1 13:-0.174603 14:-0.664354 15:-0.998869 16:-0.651163 17:-0.997806 18:-0.664354 19:-0.387755 20:-0.816327 21:-0.959613 22:-0.764706 23:-0.959613 24:-0.999757 25:-0.732782 26:-0.998404 27:-1 28:-0.366707 29:-1 30:-0.92 31:-0.818182 32:-0.558935 33:-0.319149 34:-1 35:-0.479744 36:-0.1875 37:0.37079 38:-0.00242131 39:-0.998807 40:0.0573643 41:-0.875 42:-0.558935 43:-0.92 45:-0.2 46:-0.998398 47:-0.259259 48:-0.174603 49:-1 50:-0.999934 51:1 52:-0.724551 53:-0.265272 54:-0.764706 55:-1 56:-0.326923 57:-0.999798 58:-0.203008 59:-0.998253 60:-0.495798 
32 1:-0.714286 2:-0.677419 3:-0.787709 4:-0.539683 5:-0.999924 6:-0.488789 7:-0.999315 8:-0.635977 9:-0.999297 10:-0.999937 11:-0.793456 12:-1 13:-0.539683 14:-0.85516 15:-0.998538 16:-0.697674 17:-0.997174 18:-0.85516 19:-0.605442 20:-0.673469 21:-0.994952 22:-0.647059 23:-0.994952 24:-0.999907 25:-0.504016 26:-0.998895 27:-1 28:-0.572979 29:-1 30:-1 31:-0.909091 32:-0.908745 33:-0.574468 34:-1 35:-0.784648 36:-0.25 37:0.0747819 38:-0.699758 39:-0.999164 40:-0.596899 41:-1 42:-0.908745 43:-1 45:-0.633333 46:-0.998643 47:-0.333333 48:-0.539683 49:-1 50:-0.999924 51:1 52:-0.796407 53:-0.413725 54:-0.647059 55:-1 56:-0.591346 57:-0.999954 58:-0.571429 59:-0.998723 60:-0.445378 
-32 1:-1 2:-1 3:-0.994413 4:-0.992063 5:-1 6:-0.991031 7:-0.998774 8:-0.995751 9:-0.99835 10:-0.999994 11:-0.994274 12:-1 13:-0.992063 14:-0.992194 15:-0.999429 16:-0.976744 17:-0.997862 18:-0.992194 19:-1 20:-1 21:-1 22:-0.882353 23:-1 24:-0.999328 25:-0.97761 26:-0.998409 27:-1 28:-0.99035 29:-1 30:-1 31:-1 32:-0.984791 33:-1 34:-1 35:-0.993603 36:-0.9375 37:-0.804496 38:-1 39:-0.998568 40:-0.996899 41:-1 42:-0.984791 43:-1 45:-0.966667 46:-0.998207 47:-1 48:-0.992063 49:-1 50:-1 51:1 52:-0.988024 53:-0.0930707 54:-0.882353 55:-1 56:-0.990385 57:-1 58:-1 59:-0.997647 60:-1 
-32 1:-1 2:-1 3:-1 4:-0.984127 5:-1 6:-0.995516 7:-0.999164 8:-0.987252 9:-0.998695 10:-0.999997 11:-0.993456 12:-1 13:-0.984127 14:-0.992194 15:-0.998629 16:-1 17:-0.998136 18:-0.992194 19:-0.972789 20:-1 21:-0.998317 22:-1 23:-0.998317 24:-0.999468 25:-0.978097 26:-0.998711 27:-1 28:-0.989144 29:-1 30:-1 31:-1 32:-0.984791 33:-1 34:-1 35:-0.993603 36:-0.875 37:-0.784407 38:-1 39:-0.999259 40:-0.978295 41:-1 42:-0.984791 43:-1 45:-0.966667 46:-0.998508 47:-1 48:-0.984127 49:-1 50:-1 51:1 52:-1 53:-0.324199 54:-1 55:-1 56:-1 57:-0.999467 58:-0.992481 59:-0.998118 60:-0.983193 
32 1:-1 2:-1 3:-0.960894 4:-0.941799 5:-1 6:-0.964126 7:-0.999385 8:-0.966006 9:-0.999284 10:-0.999983 11:-0.979141 12:-1 13:-0.941799 14:-0.988725 15:-0.998629 16:-0.837209 17:-0.996562 18:-0.988725 19:-0.863946 20:-0.897959 21:-1 22:-0.764706 23:-1 24:-0.999899 25:-0.963008 26:-0.998994 27:-1 28:-0.958987 29:-1 30:-1 31:-1 32:-0.992395 33:-1 34:-1 35:-0.91258 36:-0.8125 37:-0.66776 38:-0.975787 39:-0.999367 40:-0.944186 41:-1 42:-0.992395 43:-1 45:-1 46:-0.998948 47:-1 48:-0.941799 49:-1 50:-1 51:1 52:-0.964072 53:-0.454721 54:-0.764706 55:-1 56:-0.932692 57:-1 58:-0.984962 59:-0.999059 60:-0.966387 
-32 1:-1 2:-1 3:-1 4:-0.984127 5:-1 6:-0.995516 7:-0.999273 8:-0.984419 9:-0.998701 10:-0.999983 11:-0.993456 12:-1 13:-0.984127 14:-0.99046 15:-0.998667 16:-1 17:-0.997797 18:-0.99046 19:-0.972789 20:-1 21:-1 22:-1 23:-1 24:-0.999134 25:-0.979557 26:-0.99853 27:-1 28:-0.991556 29:-1 30:-1 31:-1 32:-0.969582 33:-1 34:-1 35:-0.995736 36:-0.9375 37:-0.770018 38:-1 39:-0.999159 40:-0.993798 41:-1 42:-0.969582 43:-1 45:-1 46:-0.998623 47:-1 48:-0.984127 49:-1 50:-1 51:1 52:-1 53:-0.388785 54:-1 55:-1 56:-1 57:-1 58:-0.992481 59:-0.998431 60:-1 
32 1:-1 2:-0.967742 3:-0.977654 4:-0.92328 5:-0.999941 6:-0.928251 7:-0.999303 8:-0.946176 9:-0.999114 10:-0.999982 11:-0.972597 12:-1 13:-0.92328 14:-0.976583 15:-0.999004 16:-0.906977 17:-0.997144 18:-0.976583 19:-0.904762 20:-0.918367 21:-1 22:-0.764706 23:-1 24:-0.999278 25:-0.951813 26:-0.998669 27:-1 28:-0.950543 29:-0.5 30:-1 31:-1 32:-0.908745 33:-0.957447 34:-1 35:-0.940299 36:-0.6875 37:-0.59766 38:-0.88862 39:-0.999176 40:-0.953488 41:-0.875 42:-0.908745 43:-1 45:-1 46:-0.998769 47:-1 48:-0.92328 49:-1 50:-0.999941 51:1 52:-0.964072 53:-0.40616 54:-0.882353 55:-1 56:-0.942308 57:-1 58:-0.962406 59:-0.998552 60:-0.966387 
32 1:-1 2:-0.935484 3:-0.932961 4:-0.862434 5:-0.999939 6:-0.923767 7:-0.999354 8:-0.882436 9:-0.99916 10:-0.999972 11:-0.9591 12:-1 13:-0.862434 14:-0.956635 15:-0.998558 16:-1 17:-0.997455 18:-0.956635 19:-0.945578 20:-1 21:-0.961296 22:-1 23:-0.961296 24:-0.999969 25:-0.934777 26:-0.998749 27:-1 28:-0.927624 29:-1 30:-0.96 31:-1 32:-0.992395 33:-0.914894 34:-1 35:-0.957356 36:-0.625 37:-0.456426 38:-0.878935 39:-0.999275 40:-0.857364 41:-1 42:-0.992395 43:-0.96 45:-0.9 46:-0.998716 47:-0.925926 48:-0.862434 49:-1 50:-0.999939 51:1 52:-0.988024 53:-0.436715 54:-1 55:-1 56:-0.923077 57:-0.99858 58:-0.947368 59:-0.998655 60:-1 
18.14668036487621 1:-0.714286 2:-0.903226 3:-0.374302 4:-0.253968 5:0.485563 6:-0.443946 7:-0.999003 8:-0.518414 9:-0.999293 10:-0.999918 11:-0.717382 12:-1 13:-0.253968 14:-0.777103 15:-0.998753 16:-0.604651 17:-0.997961 18:-0.777103 19:-0.741497 20:-0.693878 21:-0.990745 22:-0.294118 23:-0.990745 24:-0.999834 25:-0.755172 26:-0.99908 27:-1 28:-0.182147 29:-1 30:-0.96 31:0.545455 32:-0.749049 33:-0.87234 34:-1 35:-0.520256 36:-0.125 37:0.350477 38:-0.225182 39:-0.999107 40:-0.203101 41:-1 42:-0.749049 43:-0.96 45:-0.533333 46:-0.998271 47:-0.555556 48:-0.253968 49:-1 50:0.486008 51:1 52:-0.437126 53:-0.228358 54:-0.764706 55:-1 56:0.0144231 57:-0.999944 58:-0.180451 59:-0.998206 60:-0.529412 
32 1:-1 2:-0.806452 3:-0.581006 4:-0.687831 5:-0.999947 6:-0.730942 7:-0.998789 8:-0.81728 9:-0.999258 10:-0.9999 11:-0.809407 12:-1 13:-0.687831 14:-0.86817 15:-0.998752 16:-0.883721 17:-0.998239 18:-0.86817 19:-0.945578 20:-0.795918 21:-0.915019 22:-1 23:-0.915019 24:-0.999857 25:-0.783402 26:-0.998522 27:-1 28:-0.655006 29:-1 30:-0.92 31:-1 32:-0.878327 33:-0.744681 34:-1 35:-0.609808 36:-0.625 37:-0.0340073 38:-0.699758 39:-0.998466 40:-0.556589 41:-1 42:-0.878327 43:-0.92 45:-0.633333 46:-0.997969 47:-0.777778 48:-0.687831 49:-1 50:-0.999947 51:1 52:-0.628743 53:-0.101497 54:-1 55:-1 56:-0.567308 57:-0.999094 58:-0.526316 59:-0.998335 60:-0.882353 
32 1:-1 2:-1 3:-0.832402 4:-0.693122 5:-1 6:-0.726457 7:-0.998939 8:-0.82153 9:-0.998992 10:-0.999896 11:-0.84499 12:-1 13:-0.693122 14:-0.85516 15:-0.998776 16:-0.953488 17:-0.998022 18:-0.85516 19:-0.659864 20:-0.836735 21:-0.878839 22:-1 23:-0.878839 24:-0.999956 25:-0.876369 26:-0.998487 27:-1 28:-0.722557 29:-1 30:-0.84 31:-0.909091 32:-0.969582 33:-1 34:-1 35:-0.682303 36:-0.6875 37:-0.133022 38:-0.864407 39:-0.998686 40:-0.544186 41:-1 42:-0.969582 43:-0.84 45:-0.933333 46:-0.998206 47:-0.777778 48:-0.693122 49:-1 50:-1 51:1 52:-0.868263 53:-0.190488 54:-1 55:-1 56:-0.764423 57:-0.998402 58:-0.849624 59:-0.998555 60:-0.89916 
32 1:-1 2:-0.967742 3:-0.988827 4:-0.941799 5:-0.99997 6:-0.991031 7:-0.997946 8:-0.967422 9:-0.997788 10:-0.999974 11:-0.960327 12:-1 13:-0.941799 14:-0.882914 15:-0.99819 16:-0.953488 17:-0.998961 18:-0.882914 19:-0.986395 20:-0.959184 21:-0.984855 22:-1 23:-0.984855 24:-0.99994 25:-0.864687 26:-0.998921 27:-1 28:-0.944511 29:-1 30:-0.98 31:-1 32:-0.984791 33:-0.957447 34:-1 35:-0.968017 36:-0.625 37:-0.404231 38:-0.956416 39:-0.99743 40:-0.931783 41:-1 42:-0.984791 43:-0.98 45:-1 46:-0.996883 47:-0.925926 48:-0.941799 49:-1 50:-0.99997 51:1 52:-0.988024 53:0.398223 54:-1 55:-1 56:-0.961538 57:-0.999458 58:-0.954887 59:-0.99902 60:-1 
-32 1:-1 2:-0.774194 3:-0.899441 4:-0.830688 5:-0.999879 6:-0.816143 7:-0.998829 8:-0.90085 9:-0.998664 10:-0.999938 11:-0.859714 12:-1 13:-0.830688 14:-0.879445 15:-0.998712 16:-0.930233 17:-0.997845 18:-0.879445 19:-0.877551 20:-0.877551 21:-0.984855 22:-1 23:-0.984855 24:-1 25:-0.896812 26:-0.998571 27:-1 28:-0.686369 29:-1 30:-1 31:-1 32:-1 33:-0.702128 34:-1 35:-0.914712 36:-0.6875 37:-0.293311 38:-0.961259 39:-0.998568 40:-0.83876 41:-1 42:-1 43:-1 45:-0.9 46:-0.998143 47:-1 48:-0.830688 49:-1 50:-0.999879 51:1 52:-0.928144 53:-0.125302 54:-1 55:-1 56:-0.783654 57:-0.999682 58:-0.917293 59:-0.998144 60:-0.714286 
-32 1:-0.714286 2:-0.806452 3:-0.502793 4:-0.410053 5:-0.999959 6:-0.681614 7:-0.999311 8:-0.604816 9:-0.999402 10:-0.999918 11:-0.710838 12:-1 13:-0.410053 14:-0.864701 15:-0.998849 16:-0.813953 17:-0.996898 18:-0.864701 19:-0.727891 20:-0.816327 21:-0.732436 22:-0.294118 23:-0.732436 24:-0.999796 25:-0.855439 26:-0.998733 27:-1 28:-0.462002 29:-1 30:-1 31:-1 32:-0.779468 33:-0.744681 34:-1 35:-0.398721 36:-0.375 37:0.101046 38:-0.733656 39:-0.99909 40:-0.44186 41:-1 42:-0.779468 43:-1 45:-0.666667 46:-0.998747 47:-0.851852 48:-0.410053 49:-1 50:-0.999959 51:1 52:-0.497006 53:-0.410843 54:-0.294118 55:-1 56:-0.519231 57:-0.997758 58:-0.661654 59:0.764706 60:-0.680672 
-32 1:-1 2:-0.935484 3:-0.860335 4:-0.685185 5:-0.999977 6:-0.67713 7:-0.999074 8:-0.813031 9:-0.998736 10:-0.999947 11:-0.858896 12:-1 13:-0.685185 14:-0.827407 15:-0.99866 16:-0.813953 17:-0.997695 18:-0.827407 19:-0.863946 20:-0.795918 21:-0.992427 22:-1 23:-0.992427 24:-0.999697 25:-0.889024 26:-0.998513 27:-1 28:-0.745476 29:-1 30:-1 31:-1 32:-0.802281 33:-0.914894 34:-1 35:-0.823028 36:-0.4375 37:-0.148197 38:-0.859564 39:-0.998785 40:-0.662016 41:-1 42:-0.802281 43:-1 45:-0.966667 46:-0.998369 47:-0.62963 48:-0.685185 49:-1 50:-0.999977 51:1 52:-0.856287 53:-0.270427 54:-1 55:-1 56:-0.677885 57:-0.999895 58:-0.706767 59:-0.998514 60:-0.731092 
-3.942238006320312 1:-1 2:-0.516129 3:-0.346369 4:-0.362434 5:-0.999937 6:-0.506726 7:-0.998826 8:-0.566572 9:-0.999691 10:-0.999922 11:-0.655215 12:-1 13:-0.362434 14:-0.884649 15:-0.998585 16:-0.418605 17:-0.998309 18:-0.884649 19:-0.931973 20:-0.673469 21:-0.98822 22:0.0588235 23:-0.98822 24:-0.99977 25:-0.665612 26:-0.998543 27:-1 28:-0.154403 29:-1 30:-0.9 31:0.181818 32:-0.589354 33:-0.361702 34:-1 35:-0.744136 36:0.125 37:0.378411 38:-0.234867 39:-0.998627 40:-0.0325581 41:-1 42:-0.589354 43:-0.9 45:-0.366667 46:-0.99805 47:-0.851852 48:-0.362434 49:-1 50:-0.999937 51:1 52:-0.377246 53:-0.123543 54:0.176471 55:-1 56:-0.221154 57:-0.99994 58:-0.526316 59:-0.998682 60:-0.529412 
-32 1:-1 2:-1 3:-0.921788 4:-0.798942 5:-1 6:-0.829596 7:-0.99919 8:-0.864023 9:-0.998662 10:-0.99996 11:-0.929652 12:-1 13:-0.798942 14:-0.901127 15:-0.998869 16:-0.906977 17:-0.997772 18:-0.901127 19:-0.823129 20:-0.755102 21:-0.997476 22:-0.764706 23:-0.997476 24:-0.999613 25:-0.922122 26:-0.998586 27:-1 28:-0.873341 29:-0.5 30:-1 31:-1 32:-0.863118 33:-1 34:-1 35:-0.921109 36:-0.625 37:-0.364245 38:-0.956416 39:-0.99907 40:-0.848062 41:-1 42:-0.863118 43:-1 45:-1 46:-0.998527 47:-0.851852 48:-0.798942 49:-1 50:-1 51:1 52:-0.976048 53:-0.339574 54:-0.882353 55:-1 56:-0.932692 57:-0.999935 58:-0.864662 59:-0.998253 60:-0.966387 
32 1:-1 2:-1 3:-0.938547 4:-0.955026 5:-1 6:-0.90583 7:-0.99866 8:-0.974504 9:-0.999212 10:-1 11:-0.962781 12:-1 13:-0.955026 14:-0.979185 15:-0.999038 16:-0.976744 17:-0.998422 18:-0.979185 19:-1 20:-0.959184 21:-1 22:-1 23:-1 24:-1 25:-0.933804 26:-0.998425 27:-1 28:-0.914355 29:-1 30:-1 31:-1 32:-1 33:-1 34:-1 35:-0.968017 36:-1 37:-0.605215 38:-0.975787 39:-0.998424 40:-0.91938 41:-1 42:-1 43:-1 45:-1 46:-0.997923 47:-1 48:-0.955026 49:-1 50:-1 51:1 52:-0.976048 53:-0.0254416 54:-1 55:-1 56:-0.951923 57:-1 58:-0.932331 59:-0.998762 60:-0.915966 
32 1:-1 2:-1 3:-0.519553 4:-0.701058 5:-1 6:-0.784753 7:-0.998937 8:-0.746459 9:-0.99943 10:-0.999925 11:-0.871575 12:-1 13:-0.701058 14:-0.916739 15:-0.998768 16:-0.837209 17:-0.998264 18:-0.916739 19:-0.891156 20:-0.795918 21:-0.95793 22:-0.764706 23:-0.95793 24:-0.999706 25:-0.860307 26:-0.998393 27:-1 28:-0.675513 29:-0.5 30:-0.96 31:-0.636364 32:-0.794677 33:-1 34:-1 35:-0.707889 36:-0.5625 37:-0.140233 38:-0.569007 39:-0.998938 40:-0.702326 41:-1 42:-0.794677 43:-0.96 45:-0.866667 46:-0.998359 47:-0.851852 48:-0.701058 49:-1 50:-1 51:1 52:-0.700599 53:-0.189282 54:-0.764706 55:-1 56:-0.701923 57:-0.999454 58:-0.766917 59:-0.998222 60:-0.798319 
32 1:-1 2:0.516129 3:-0.659218 4:-0.457672 5:-0.999727 6:-0.587444 7:-0.999218 8:-0.541076 9:-0.998454 10:-0.999918 11:-0.739468 12:-1 13:-0.457672 14:-0.583695 15:-0.998607 16:-0.790698 17:-0.997131 18:-0.583695 19:-0.755102 20:-0.795918 21:-0.979806 22:-1 23:-0.979806 24:-0.999711 25:-0.553663 26:-0.998733 27:-1 28:-0.390832 29:-1 30:-0.92 31:-0.818182 32:-0.627376 33:1 34:-1 35:-0.724947 36:-0.25 37:0.204093 38:-0.549637 39:-0.999062 40:-0.482171 41:-1 42:-0.627376 43:-0.92 45:-0.766667 46:-0.998653 47:-0.777778 48:-0.457672 49:-1 50:-0.999727 51:1 52:-0.676647 53:-0.356151 54:-1 55:-1 56:-0.557692 57:-0.999858 58:-0.669173 59:-0.99848 60:-0.596639 
32 1:-1 2:-0.967742 3:-0.899441 4:-0.796296 5:0.70448 6:-0.923767 7:-0.999284 8:-0.842776 9:-0.99877 10:-0.999968 11:-0.917791 12:-1 13:-0.796296 14:-0.887251 15:-0.998551 16:-0.976744 17:-0.99706 18:-0.887251 19:-0.863946 20:-0.918367 21:-0.950358 22:-0.882353 23:-0.950358 24:-0.999844 25:-0.816987 26:-0.999129 27:-1 28:-0.845597 29:-1 30:-1 31:-0.909091 32:-0.931559 33:-0.957447 34:-1 35:-0.739872 36:-0.375 37:-0.244625 38:-0.956416 39:-0.999231 40:-0.770543 41:-1 42:-0.931559 43:-1 45:-0.966667 46:-0.998623 47:-0.925926 48:-0.796296 49:-1 50:0.704991 51:1 52:-0.892216 53:-0.394824 54:-0.882353 55:-1 56:-0.884615 57:-0.998974 58:-0.789474 59:-0.998739 60:-0.89916 
-32 1:-1 2:-1 3:-0.960894 4:-0.94709 5:-1 6:-0.941704 7:-0.998922 8:-0.970255 9:-0.999095 10:-0.999982 11:-0.964826 12:-1 13:-0.94709 14:-0.976583 15:-0.998961 16:-1 17:-0.997846 18:-0.976583 19:-0.959184 20:-0.918367 21:-0.985696 22:-0.882353 23:-0.985696 24:-1 25:-0.934777 26:-0.998628 27:-1 28:-0.93848 29:-1 30:-1 31:-1 32:-1 33:-1 34:-1 35:-0.940299 36:-0.6875 37:-0.600161 38:-0.970944 39:-0.99869 40:-0.944186 41:-1 42:-1 43:-1 45:-0.966667 46:-0.998204 47:-1 48:-0.94709 49:-1 50:-1 51:1 52:-0.976048 53:-0.18065 54:-1 55:-1 56:-0.971154 57:-0.998952 58:-0.969925 59:-0.997647 60:-1 
32 1:-1 2:-1 3:-0.52514 4:-0.455026 5:-1 6:-0.421525 7:-0.999002 8:-0.631728 9:-0.998688 10:-0.999854 11:-0.762372 12:-1 13:-0.455026 14:-0.686036 15:-0.998844 16:-0.651163 17:-0.997861 18:-0.686036 19:-0.727891 20:-0.55102 21:-1 22:-0.647059 23:-1 24:-0.999468 25:-0.816014 26:-0.998463 27:-1 28:-0.44029 29:-0.5 30:-0.86 31:0.0909091 32:-0.391635 33:-1 34:-1 35:-0.695096 36:-0.625 37:0.103047 38:-0.510896 39:-0.998871 40:-0.44186 41:-1 42:-0.391635 43:-0.86 45:-0.366667 46:-0.998402 47:-0.333333 48:-0.455026 49:-1 50:-1 51:1 52:-0.700599 53:-0.228043 54:-0.764706 55:-1 56:-0.432692 57:-1 58:-0.413534 59:-0.998269 60:-0.428571 
-32 1:-1 2:-0.548387 3:-0.625698 4:-0.407407 5:-0.999929 6:-0.479821 7:-0.998805 8:-0.63881 9:-0.999373 10:-0.999899 11:-0.6818 12:-1 13:-0.407407 14:-0.806592 15:-0.998795 16:-0.790698 17:-0.998308 18:-0.806592 19:-0.782313 20:-0.714286 21:-0.926798 22:-0.882353 23:-0.926798 24:-0.999763 25:-0.8165 26:-0.998231 27:-1 28:-0.324487 29:-1 30:-0.94 31:-0.636364 32:-0.65019 33:-0.404255 34:-1 35:-0.692964 36:-0.3125 37:0.223055 38:-0.249395 39:-0.998512 40:-0.345736 41:-1 42:-0.65019 43:-0.94 45:-0.333333 46:-0.998102 47:-0.555556 48:-0.407407 49:-1 50:-0.999929 51:1 52:-0.856287 53:-0.110897 54:-0.882353 55:-1 56:-0.403846 57:-0.99955 58:-0.353383 59:-0.998493 60:-0.495798 
-32 1:-1 2:-1 3:-0.837989 4:-0.589947 5:-1 6:-0.699552 7:-0.999 8:-0.740793 9:-0.998662 10:-0.99991 11:-0.806953 12:-1 13:-0.589947 14:-0.761492 15:-0.998696 16:-0.72093 17:-0.997557 18:-0.761492 19:-0.768707 20:-0.714286 21:-0.964661 22:-0.882353 23:-0.964661 24:-0.999768 25:-0.779508 26:-0.998657 27:-1 28:-0.639324 29:-1 30:-0.96 31:-0.909091 32:-0.802281 33:-1 34:-1 35:-0.801706 36:-0.5625 37:-0.0141527 38:-0.767554 39:-0.998888 40:-0.652713 41:-0.875 42:-0.802281 43:-0.96 45:-0.8 46:-0.998424 47:-1 48:-0.589947 49:-1 50:-1 51:1 52:-0.928144 53:-0.226894 54:-1 55:-1 56:-0.591346 57:-0.999624 58:-0.804511 59:-0.998414 60:-0.781513 
7.584184363784188 1:-0.714286 2:-0.903226 3:-0.463687 4:-0.5 5:-0.999979 6:-0.340807 7:-0.998925 8:-0.71813 9:-0.999527 10:-0.999916 11:-0.732924 12:-1 13:-0.5 14:-0.895056 15:0.108571 16:-0.790698 17:-0.997632 18:-0.895056 19:-0.659864 20:-0.489796 21:-0.970551 22:-0.882353 23:-0.970551 24:-0.282595 25:-0.842784 26:-0.998261 27:-1 28:-0.475271 29:-1 30:-1 31:-1 32:-0.992395 33:-0.87234 34:-1 35:-0.675906 36:-0.4375 37:0.0444938 38:-0.569007 39:-0.998614 40:-0.460465 41:-1 42:-0.992395 43:-1 45:-0.533333 46:-0.998375 47:-0.259259 48:-0.5 49:-1 50:-0.999979 51:1 52:-0.592814 53:-0.182401 54:-0.882353 55:-1 56:-0.528846 57:-0.999748 58:-0.62406 59:-0.998118 60:-0.327731 
32 1:-1 2:-1 3:-0.96648 4:-0.949735 5:-1 6:-0.959641 7:-0.999399 8:-0.970255 9:-0.998725 10:-1 11:-0.982822 12:-1 13:-0.949735 14:-0.979185 15:-0.998857 16:-0.976744 17:-0.996534 18:-0.979185 19:-0.931973 20:-0.959184 21:-1 22:-1 23:-1 24:-0.999513 25:-0.963982 26:-0.998685 27:-1 28:-0.961399 29:-1 30:-1 31:-1 32:-0.961977 33:-1 34:-1 35:-0.957356 36:-1 37:-0.672447 38:-0.956416 39:-0.999124 40:-0.937984 41:-1 42:-0.961977 43:-1 45:-1 46:-0.998911 47:-1 48:-0.949735 49:-1 50:-1 51:1 52:-0.988024 53:-0.4633 54:-1 55:-1 56:-0.975962 57:-1 58:-0.977444 59:-0.998503 60:-0.915966 
32 1:-1 2:-0.935484 3:-0.972067 4:-0.917989 5:-0.999934 6:-0.896861 7:-0.998896 8:-0.949008 9:-0.998844 10:-0.999978 11:-0.956646 12:-1 13:-0.917989 14:-0.94536 15:-0.998764 16:-0.953488 17:-0.998043 18:-0.94536 19:-0.945578 20:-0.959184 21:-0.997476 22:-1 23:-0.997476 24:-0.999025 25:-0.925043 26:-0.99799 27:-1 28:-0.922799 29:-1 30:-0.98 31:-1 32:-0.779468 33:-0.914894 34:-1 35:-0.944563 36:-0.5625 37:-0.504022 38:-0.946731 39:-0.998351 40:-0.857364 41:-1 42:-0.779468 43:-0.98 45:-0.933333 46:-0.998175 47:-0.481481 48:-0.917989 49:-1 50:-0.999934 51:1 52:-0.988024 53:-0.165127 54:-1 55:-1 56:-0.903846 57:-0.999899 58:-0.81203 59:-0.998219 60:-0.932773 
32 1:-1 2:-0.870968 3:-0.910615 4:-0.859788 5:-0.999912 6:-0.852018 7:-0.998869 8:-0.915014 9:-0.999399 10:-0.999979 11:-0.909611 12:-1 13:-0.859788 14:-0.957502 15:-0.998876 16:-0.837209 17:-0.997914 18:-0.957502 19:-0.931973 20:-0.816327 21:-0.987379 22:-1 23:-0.987379 24:-1 25:-0.90898 26:-0.998385 27:-1 28:-0.862485 29:-1 30:-1 31:-1 32:-1 33:-0.829787 34:-1 35:-0.940299 36:-0.3125 37:-0.382428 38:-0.864407 39:-0.998614 40:-0.844961 41:-1 42:-1 43:-1 45:-0.9 46:-0.998233 47:-1 48:-0.859788 49:-1 50:-0.999912 51:1 52:-0.904192 53:-0.149173 54:-1 55:-1 56:-0.764423 57:-0.999662 58:-0.969925 59:-0.997994 60:-0.882353 
-32 1:-1 2:-0.870968 3:-0.882682 4:-0.719577 5:-0.999942 6:-0.780269 7:-0.999139 8:-0.844193 9:-0.999465 10:-0.999957 11:-0.899796 12:-1 13:-0.719577 14:-0.942758 15:-0.998744 16:-0.953488 17:-0.997548 18:-0.942758 19:-0.836735 20:-0.938776 21:-0.983172 22:-1 23:-0.983172 24:-0.999837 25:-0.894865 26:-0.998433 27:-1 28:-0.811821 29:-1 30:-0.86 31:-1 32:-0.91635 33:-0.829787 34:-1 35:-0.846482 36:-0.4375 37:-0.250132 38:-0.806295 39:-0.998817 40:-0.646512 41:-1 42:-0.91635 43:-0.86 45:-0.6 46:-0.998474 47:-0.555556 48:-0.719577 49:-1 50:-0.999942 51:1 52:-0.892216 53:-0.309258 54:-1 55:-1 56:-0.745192 57:-0.999702 58:-0.75188 59:-0.998219 60:-0.781513 
-32 1:-1 2:-1 3:-0.994413 4:-0.97619 5:-1 6:-1 7:-0.999009 8:-0.978754 9:-0.99929 10:-0.999989 11:-0.988548 12:-1 13:-0.97619 14:-0.989592 15:-0.998714 16:-0.976744 17:-0.998492 18:-0.989592 19:-1 20:-0.979592 21:-1 22:-1 23:-1 24:-0.999783 25:-0.959601 26:-0.998181 27:-1 28:-0.973462 29:-1 30:-1 31:-1 32:-0.984791 33:-1 34:-1 35:-0.993603 36:-0.875 37:-0.701949 38:-0.990315 39:-0.998753 40:-0.95969 41:-1 42:-0.984791 43:-1 45:-1 46:-0.998243 47:-1 48:-0.97619 49:-1 50:-1 51:1 52:-1 53:-0.231978 54:-1 55:-1 56:-0.990385 57:-1 58:-0.977444 59:0.764706 60:-1 
-32 1:-1 2:-0.903226 3:-1 4:-0.994709 5:-0.999218 6:-1 7:-0.998091 8:-0.997167 9:-0.997975 10:-0.999998 11:-0.99591 12:-1 13:-0.994709 14:-0.987858 15:-0.999238 16:-1 17:-0.999211 18:-0.987858 19:-1 20:-1 21:-1 22:-1 23:-1 24:-0.999735 25:-0.975176 26:-0.998532 27:-1 28:-0.991556 29:-1 30:-1 31:-1 32:-0.992395 33:-0.87234 34:-1 35:-0.997868 36:-0.8125 37:-0.780539 38:-1 39:-0.997718 40:-0.993798 41:-1 42:-0.992395 43:-1 45:-1 46:-0.997152 47:-1 48:-0.994709 49:-1 50:-0.999218 51:1 52:-1 53:0.311896 54:-1 55:-1 56:-0.990385 57:-1 58:-1 59:-0.996863 60:-1 
-32 1:-1 2:-1 3:-0.972067 4:-0.936508 5:-1 6:-0.90583 7:-0.999457 8:-0.934844 9:-0.998655 10:-0.999971 11:-0.969325 12:-1 13:-0.936508 14:-0.956635 15:-0.998736 16:-1 17:-0.997076 18:-0.956635 19:-0.959184 20:-0.959184 21:-0.998317 22:-1 23:-0.998317 24:-0.999556 25:-0.92991 26:-0.998743 27:-1 28:-0.940893 29:-1 30:-1 31:-1 32:-0.931559 33:-1 34:-1 35:-0.963753 36:-0.75 37:-0.559234 38:-0.966102 39:-0.999211 40:-0.922481 41:-1 42:-0.931559 43:-1 45:-0.966667 46:-0.998782 47:-0.925926 48:-0.936508 49:-1 50:-1 51:1 52:-0.988024 53:-0.497581 54:-1 55:-1 56:-0.975962 57:-0.999901 58:-0.969925 59:-0.998398 60:-0.966387 
32 1:-1 2:-1 3:-0.832402 4:-0.891534 5:-1 6:-0.883408 7:-0.999157 8:-0.929178 9:-0.999607 10:-0.999959 11:-0.942331 12:-1 13:-0.891534 14:-0.980052 15:-0.999014 16:-0.953488 17:-0.997354 18:-0.980052 19:-0.945578 20:-0.918367 21:-0.994952 22:-1 23:-0.994952 24:-1 25:-0.908007 26:-0.998809 27:-1 28:-0.856454 29:-1 30:-1 31:-1 32:-1 33:-1 34:-1 35:-0.827292 36:-0.75 37:-0.448671 38:-0.898305 39:-0.998938 40:-0.894574 41:-1 42:-1 43:-1 45:-0.833333 46:-0.998457 47:-1 48:-0.891534 49:-1 50:-1 51:1 52:-0.736527 53:-0.319996 54:-1 55:-1 56:-0.8125 57:-0.999812 58:-0.909774 59:-0.997601 60:-0.865546 
32 1:-1 2:-0.903226 3:-0.642458 4:-0.650794 5:-0.999973 6:-0.807175 7:-0.998983 8:-0.760623 9:-0.999439 10:-0.999934 11:-0.847853 12:-1 13:-0.650794 14:-0.901995 15:-0.99875 16:-0.860465 17:-0.998124 18:-0.901995 19:-0.836735 20:-0.816327 21:-0.984855 22:-0.882353 23:-0.984855 24:-0.999609 25:-0.842297 26:-0.998541 27:-1 28:-0.603136 29:-1 30:-0.74 31:-0.636364 32:-0.673004 33:-0.87234 34:-1 35:-0.744136 36:-0.4375 37:-0.0418993 38:-0.622276 39:-0.9988 40:-0.683721 41:-1 42:-0.673004 43:-0.74 45:-0.566667 46:-0.998233 47:-0.851852 48:-0.650794 49:-1 50:-0.999973 51:1 52:-0.88024 53:-0.21663 54:-0.882353 55:-1 56:-0.673077 57:-0.999836 58:-0.533835 59:-0.998256 60:-0.781513 
-32 1:-1 2:-0.83871 3:-0.782123 4:-0.84127 5:-0.999905 6:-0.713004 7:-0.998874 8:-0.903683 9:-0.999482 10:-0.999938 11:-0.902658 12:-1 13:-0.84127 14:-0.957502 15:-0.998807 16:-0.860465 17:-0.997553 18:-0.957502 19:-0.931973 20:-0.938776 21:-0.978965 22:-1 23:-0.978965 24:-0.999961 25:-0.903139 26:-0.998534 27:-1 28:-0.75392 29:-1 30:-1 31:-1 32:-0.984791 33:-0.787234 34:-1 35:-0.812367 36:-0.75 37:-0.327864 38:-0.815981 39:-0.998639 40:-0.792248 41:-1 42:-0.984791 43:-1 45:-0.733333 46:-0.9983 47:-0.925926 48:-0.84127 49:-1 50:-0.999905 51:1 52:-0.916168 53:-0.152202 54:-1 55:-1 56:-0.793269 57:-0.999514 58:-0.759398 59:-0.998022 60:-0.882353 
-32 1:-1 2:-1 3:-0.977654 4:-0.955026 5:-1 6:-0.995516 7:-0.998513 8:-0.973088 9:-0.997478 10:-0.999981 11:-0.978323 12:-1 13:-0.955026 14:-0.906331 15:-0.998171 16:-0.976744 17:-0.998636 18:-0.906331 19:-0.945578 20:-0.897959 21:-1 22:-1 23:-1 24:-0.999914 25:-0.81212 26:-0.9984 27:-1 28:-0.981906 29:-1 30:-0.9 31:-0.909091 32:-0.984791 33:-1 34:-1 35:-0.925373 36:-0.8125 37:-0.539477 38:-0.951574 39:-0.997957 40:-0.925581 41:-1 42:-0.984791 43:-0.9 45:-1 46:-0.997547 47:-1 48:-0.955026 49:-1 50:-1 51:1 52:-1 53:0.0617958 54:-1 55:-1 56:-0.908654 57:-1 58:-0.947368 59:-0.999059 60:-0.983193 
32 1:-1 2:-0.935484 3:-0.972067 4:-0.970899 5:-0.999775 6:-0.982063 7:-0.999088 8:-0.983003 9:-0.998689 10:-0.999989 11:-0.988548 12:-1 13:-0.970899 14:-0.981787 15:-0.998769 16:-0.953488 17:-0.997177 18:-0.981787 19:-1 20:-0.959184 21:-1 22:-1 23:-1 24:-0.999771 25:-0.963008 26:-0.998555 27:-1 28:-0.979493 29:-1 30:-0.96 31:-1 32:-0.984791 33:-0.914894 34:-1 35:-0.965885 36:-0.75 37:-0.695437 38:-0.990315 39:-0.998753 40:-0.956589 41:-1 42:-0.984791 43:-0.96 45:-1 46:-0.99849 47:-1 48:-0.970899 49:-1 50:-0.999775 51:1 52:-0.964072 53:-0.278642 54:-1 55:-1 56:-0.961538 57:-1 58:-0.969925 59:-0.997828 60:-0.966387 
32 1:-1 2:-1 3:-0.977654 4:-0.910053 5:-1 6:-0.964126 7:-0.99943 8:-0.907932 9:-0.998772 10:-0.999978 11:-0.964826 12:-1 13:-0.910053 14:-0.959237 15:-0.998753 16:-1 17:-0.997596 18:-0.959237 19:-0.918367 20:-0.959184 21:-1 22:-1 23:-1 24:-0.998994 25:-0.942078 26:-0.99876 27:-1 28:-0.949337 29:-1 30:-0.96 31:-1 32:-0.840304 33:-1 34:-1 35:-0.96162 36:-0.875 37:-0.554204 38:-0.98063 39:-0.999358 40:-0.922481 41:-1 42:-0.840304 43:-0.96 45:-1 46:-0.998745 47:-1 48:-0.910053 49:-1 50:-1 51:1 52:-0.964072 53:-0.481711 54:-1 55:-1 56:-0.961538 57:-1 58:-0.969925 59:-0.998431 60:-0.983193 
32 1:-1 2:-1 3:-1 4:-0.997354 5:-1 6:-1 7:-0.99885 8:-0.997167 9:-0.998583 10:-1 11:-0.998773 12:-1 13:-0.997354 14:-0.995663 15:-0.999238 16:-1 17:-0.999463 18:-0.995663 19:-1 20:-1 21:-1 22:-1 23:-1 24:-0.995843 25:-0.991239 26:-0.997557 27:-1 28:-0.996381 29:-1 30:-1 31:-1 32:-0.939163 33:-1 34:-1 35:-1 36:-1 37:-0.843542 38:-1 39:-0.998349 40:-0.993798 41:-1 42:-0.939163 43:-1 45:-1 46:-0.997917 47:-1 48:-0.997354 49:-1 50:-1 51:1 52:-1 53:-0.137623 54:-1 55:-1 56:-1 57:-1 58:-1 59:-0.998431 60:-1 
-32 1:-1 2:-0.935484 3:-0.614525 4:-0.645503 5:0.817719 6:-0.726457 7:-0.999095 8:-0.774788 9:-0.999016 10:-0.999938 11:-0.821268 12:-1 13:-0.645503 14:-0.830876 15:-0.998714 16:-0.883721 17:-0.997222 18:-0.830876 19:-0.891156 20:-0.836735 21:-0.946992 22:-1 23:-0.946992 24:-0.999824 25:-0.780482 26:-0.998744 27:-1 28:-0.600724 29:-1 30:-0.9 31:-0.909091 32:-0.855513 33:-0.914894 34:-1 35:-0.63113 36:-0.375 37:-0.0245056 38:-0.709443 39:-0.998823 40:-0.513178 41:-1 42:-0.855513 43:-0.9 45:-0.733333 46:-0.998445 47:-0.925926 48:-0.645503 49:-1 50:0.818264 51:1 52:-0.664671 53:-0.283095 54:-1 55:-1 56:-0.432692 57:-0.999416 58:-0.609023 59:-0.998559 60:-0.764706 
32 1:-0.714286 2:-0.741935 3:-0.670391 4:-0.470899 5:-0.999946 6:-0.452915 7:-0.99906 8:-0.677054 9:-0.998884 10:-0.99994 11:-0.735378 12:-1 13:-0.470899 14:-0.743278 15:-0.998702 16:-0.860465 17:-0.99747 18:-0.743278 19:-0.904762 20:-0.55102 21:-0.904922 22:-0.882353 23:-0.904922 24:-0.9998 25:-0.79119 26:-0.998694 27:-1 28:-0.587455 29:-1 30:-0.94 31:-1 32:-0.779468 33:-0.659574 34:-1 35:-0.735608 36:-0.125 37:0.114561 38:-0.622276 39:-0.998875 40:-0.522481 41:-1 42:-0.779468 43:-0.94 45:-0.833333 46:-0.998425 47:-0.259259 48:-0.470899 49:-1 50:-0.999946 51:1 52:-0.772455 53:-0.262493 54:-1 55:-1 56:-0.557692 57:-0.999217 58:-0.601504 59:-0.9985 60:-0.411765 
-32 1:-0.714286 2:-0.645161 3:-0.558659 4:-0.396825 5:-0.999947 6:-0.439462 7:-0.999055 8:-0.604816 9:-0.999237 10:-0.999921 11:-0.647035 12:-1 13:-0.396825 14:-0.752819 15:-0.99871 16:-0.651163 17:-0.997424 18:-0.752819 19:-0.768707 20:-0.632653 21:-0.974758 22:-0.647059 23:-0.974758 24:-0.999696 25:-0.7688 26:-0.998333 27:-1 28:-0.217129 29:-1 30:-0.98 31:-0.727273 32:-0.528517 33:-0.531915 34:-1 35:-0.577825 36:-0.0625 37:0.264391 38:-0.57385 39:-0.998596 40:-0.165891 41:-0.75 42:-0.528517 43:-0.98 45:-0.433333 46:-0.998396 47:-0.185185 48:-0.396825 49:-1 50:-0.999947 51:1 52:-0.640719 53:-0.259644 54:-0.647059 55:-1 56:-0.423077 57:-0.999852 58:0.0075188 59:-0.998336 60:-0.478992 
-32 1:-1 2:-1 3:-0.938547 4:-0.931217 5:-1 6:-0.950673 7:-0.998861 8:-0.963173 9:-0.998677 10:-0.999959 11:-0.965235 12:-1 13:-0.931217 14:-0.955768 15:-0.998815 16:-0.976744 17:-0.997608 18:-0.955768 19:-0.85034 20:-0.979592 21:-1 22:-1 23:-1 24:-1 25:-0.940131 26:-0.99865 27:-1 28:-0.897467 29:-1 30:-1 31:-1 32:-1 33:-1 34:-1 35:-0.91258 36:-0.8125 37:-0.546502 38:-0.946731 39:-0.998612 40:-0.875969 41:-1 42:-1 43:-1 45:-0.833333 46:-0.998215 47:-1 48:-0.931217 49:-1 50:-1 51:1 52:-0.952096 53:-0.144451 54:-1 55:-1 56:-0.913462 57:-1 58:-0.947368 59:-0.998257 60:-0.966387 
-32 1:-1 2:-0.419355 3:-0.787709 4:-0.357143 5:-0.999906 6:-0.596413 7:-0.999011 8:-0.606232 9:-0.99914 10:-0.999892 11:-0.709202 12:-1 13:-0.357143 14:-0.744146 15:-0.998935 16:-0.906977 17:-0.998246 18:-0.744146 19:-0.931973 20:-0.734694 21:-0.774506 22:-0.882353 23:-0.774506 24:-0.999872 25:-0.839377 26:-0.998295 27:-1 28:-0.419783 29:-1 30:-0.98 31:-0.818182 32:-0.81749 33:-0.234043 34:-1 35:-0.814499 36:-0.375 37:0.19899 38:-0.68523 39:-0.998677 40:-0.262016 41:-1 42:-0.81749 43:-0.98 45:-0.6 46:-0.998213 47:-0.851852 48:-0.357143 49:-1 50:-0.999905 51:1 52:-0.868263 53:-0.233255 54:-1 55:-1 56:-0.442308 57:-0.998565 58:-0.541353 59:-0.998246 60:-0.831933 
-32 1:-1 2:-0.903226 3:-0.513966 4:-0.857143 5:-0.999968 6:-0.524664 7:-0.997873 8:-0.919263 9:-0.999461 10:-0.9999 11:-0.831084 12:-1 13:-0.857143 14:-0.921943 15:-0.998897 16:-0.883721 17:-0.999208 18:-0.921943 19:-0.986395 20:-0.857143 21:-0.899032 22:-0.764706 23:-0.899032 24:-0.999923 25:-0.761012 26:-0.998502 27:-1 28:-0.612786 29:-1 30:-0.96 31:-1 32:-0.946768 33:-0.87234 34:-1 35:-0.771855 36:-0.6875 37:-0.118521 38:-0.501211 39:-0.9973 40:-0.6 41:-1 42:-0.946768 43:-0.96 45:-0.533333 46:-0.996887 47:-0.851852 48:-0.857143 49:-1 50:-0.999968 51:1 52:-0.796407 53:0.441304 54:-0.764706 55:-1 56:-0.471154 57:-0.998679 58:-0.669173 59:-0.998053 60:-0.831933 
32 1:-1 2:-0.935484 3:-0.837989 4:-0.632275 5:0.901748 6:-0.605381 7:-0.99897 8:-0.791785 9:-0.999451 10:-0.999882 11:-0.784867 12:-1 13:-0.632275 14:-0.909801 15:-0.998888 16:-0.813953 17:-0.998082 18:-0.909801 19:-0.646259 20:-0.714286 21:-0.956247 22:-0.882353 23:-0.956247 24:-0.999952 25:-0.865661 26:-0.998262 27:-1 28:-0.647768 29:-1 30:-0.98 31:-0.909091 32:-0.961977 33:-0.914894 34:-1 35:-0.547974 36:-0.6875 37:-0.0995682 38:-0.762712 39:-0.998624 40:-0.627907 41:-1 42:-0.961977 43:-0.98 45:-0.8 46:-0.99824 47:-0.925926 48:-0.632275 49:-1 50:0.902319 51:1 52:-0.88024 53:-0.208885 54:-0.882353 55:-1 56:-0.625 57:-0.999495 58:-0.827068 59:-0.99806 60:-0.915966 
32 1:-1 2:-0.870968 3:-0.804469 4:-0.555556 5:-0.999968 6:-0.686099 7:-0.998937 8:-0.73796 9:-0.999245 10:-0.999932 11:-0.773824 12:-1 13:-0.555556 14:-0.854293 15:-0.999029 16:-0.744186 17:-0.998041 18:-0.854293 19:-0.823129 20:-0.55102 21:-0.943626 22:-1 23:-0.943626 24:-0.999893 25:-0.856899 26:-0.998392 27:-1 28:-0.580217 29:-1 30:-1 31:-1 32:-0.901141 33:-0.829787 34:-1 35:-0.748401 36:-0.375 37:-0.0115527 38:-0.820823 39:-0.998733 40:-0.40155 41:-1 42:-0.901141 43:-1 45:-0.966667 46:-0.998275 47:-0.925926 48:-0.555556 49:-1 50:-0.999968 51:1 52:-0.868263 53:-0.18962 54:-1 55:-1 56:-0.725962 57:-0.999447 58:-0.781955 59:-0.998027 60:-0.865546 
32 1:-1 2:-0.870968 3:-0.821229 4:-0.68254 5:-0.999958 6:-0.784753 7:-0.998936 8:-0.818697 9:-0.99928 10:-0.99991 11:-0.851125 12:-1 13:-0.68254 14:-0.892454 15:-0.998777 16:-0.790698 17:-0.998021 18:-0.892454 19:-0.687075 20:-0.693878 21:-0.987379 22:-0.882353 23:-0.987379 24:-0.999798 25:-0.777075 26:-0.998442 27:-1 28:-0.738239 29:-1 30:-0.98 31:-0.818182 32:-0.855513 33:-0.829787 34:-1 35:-0.707889 36:-0.625 37:-0.117324 38:-0.733656 39:-0.998636 40:-0.6 41:-1 42:-0.855513 43:-0.98 45:-0.866667 46:-0.99819 47:-0.777778 48:-0.68254 49:-1 50:-0.999958 51:1 52:-0.868263 53:-0.188554 54:-0.882353 55:-1 56:-0.740385 57:-0.99984 58:-0.721805 59:-0.998468 60:-0.781513 
-32 1:-0.714286 2:-0.967742 3:-0.553073 4:-0.462963 5:-0.419665 6:-0.426009 7:-0.998887 8:-0.68272 9:-0.999291 10:-0.999916 11:-0.715746 12:-1 13:-0.462963 14:-0.809193 15:-0.99874 16:-0.581395 17:-0.998038 18:-0.809193 19:-0.496599 20:-0.469388 21:-1 22:-0.411765 23:-1 24:-0.999959 25:-0.780482 26:-0.998273 27:-1 28:-0.633293 29:-1 30:-1 31:-0.909091 32:-0.946768 33:-0.957447 34:-1 35:-0.296375 36:-0.3125 37:0.14038 38:-0.656174 39:-0.998555 40:-0.336434 41:-1 42:-0.946768 43:-1 45:-0.6 46:-0.998199 47:-0.925926 48:-0.462963 49:-1 50:-0.419491 51:1 52:-0.556886 53:-0.159977 54:-0.529412 55:-1 56:-0.447115 57:-1 58:-0.548872 59:-0.998285 60:-0.848739 
-32 1:-1 2:-1 3:-1 4:-0.984127 5:-1 6:-1 7:-0.999626 8:-0.988669 9:-0.998293 10:-0.999999 11:-0.993865 12:-1 13:-0.984127 14:-0.991327 15:-0.99873 16:-1 17:-0.996796 18:-0.991327 19:-1 20:-1 21:-1 22:-1 23:-1 24:-1 25:-0.980044 26:-0.999294 27:-1 28:-0.985525 29:-1 30:-1 31:-1 32:-1 33:-1 34:-1 35:-0.995736 36:-0.875 37:-0.788365 38:-1 39:-0.999583 40:-0.987597 41:-1 42:-1 43:-1 45:-1 46:-0.998904 47:-1 48:-0.984127 49:-1 50:-1 51:1 52:-1 53:-0.598036 54:-1 55:-1 56:-0.995192 57:-1 58:-1 59:-0.998431 60:-0.966387 
-32 1:-1 2:-1 3:-0.994413 4:-0.984127 5:-1 6:-0.995516 7:-0.998772 8:-0.990085 9:-0.999432 10:-0.999993 11:-0.993456 12:-1 13:-0.984127 14:-0.995663 15:-0.142857 16:-1 17:-0.999127 18:-0.995663 19:-0.986395 20:-1 21:-0.999159 22:-1 23:-0.999159 24:-1 25:-0.972256 26:-0.998042 27:-1 28:-0.981906 29:-1 30:-1 31:-1 32:-1 33:-1 34:-1 35:-0.989339 36:-0.875 37:-0.774893 38:-0.995157 39:-0.998658 40:-0.972093 41:-1 42:-1 43:-1 45:-1 46:-0.998036 47:-1 48:-0.984127 49:-1 50:-1 51:1 52:-1 53:-0.0918676 54:-1 55:-1 56:-1 57:-0.999791 58:-0.984962 59:-0.998824 60:-0.94958 
-32 1:-1 2:-1 3:-0.821229 4:-0.796296 5:-1 6:-0.798206 7:-0.998858 8:-0.869688 9:-0.999687 10:-0.999941 11:-0.913701 12:-1 13:-0.796296 14:-0.969644 15:-0.99882 16:-0.976744 17:-0.998429 18:-0.969644 19:-0.877551 20:-0.77551 21:-1 22:-1 23:-1 24:-0.999803 25:-0.873935 26:-0.998175 27:-1 28:-0.809409 29:-1 30:-1 31:-0.727273 32:-0.908745 33:-1 34:-1 35:-0.840085 36:-0.625 37:-0.300416 38:-0.631961 39:-0.998636 40:-0.773643 41:-1 42:-0.908745 43:-1 45:-0.766667 46:-0.998178 47:-1 48:-0.796296 49:-1 50:-1 51:1 52:-0.820359 53:-0.142516 54:-1 55:-1 56:-0.798077 57:-1 58:-0.646617 59:-0.998482 60:-0.89916 
32 1:-1 2:-0.967742 3:-0.787709 4:-0.76455 5:0.343402 6:-0.775785 7:-0.998777 8:-0.858357 9:-0.999306 10:-0.999905 11:-0.891207 12:-1 13:-0.76455 14:-0.919341 15:-0.998823 16:-0.906977 17:-0.998292 18:-0.919341 19:-0.931973 20:-0.816327 21:-0.981489 22:-1 23:-0.981489 24:-0.999617 25:-0.879289 26:-0.99816 27:-1 28:-0.702051 29:-1 30:-0.88 31:-0.909091 32:-0.787072 33:-0.957447 34:-1 35:-0.814499 36:-0.75 37:-0.238072 38:-0.723971 39:-0.998534 40:-0.782946 41:-0.875 42:-0.787072 43:-0.88 45:-0.766667 46:-0.998154 47:-0.925926 48:-0.76455 49:-1 50:0.343805 51:1 52:-0.88024 53:-0.0947091 54:-1 55:-1 56:-0.754808 57:-0.999698 58:-0.699248 59:-0.998276 60:-0.747899 
-32 1:-1 2:-0.967742 3:-0.977654 4:-0.936508 5:-0.999941 6:-0.946188 7:-0.999224 8:-0.956091 9:-0.998955 10:-0.999981 11:-0.965644 12:-1 13:-0.936508 14:-0.972246 15:-0.999071 16:-0.976744 17:-0.997039 18:-0.972246 19:-0.972789 20:-0.979592 21:-0.979806 22:-1 23:-0.979806 24:-0.999701 25:-0.925529 26:-0.998882 27:-1 28:-0.949337 29:-1 30:-1 31:-1 32:-0.961977 33:-0.957447 34:-1 35:-0.944563 36:-0.6875 37:-0.585411 38:-0.966102 39:-0.999126 40:-0.950388 41:-1 42:-0.961977 43:-1 45:-1 46:-0.998662 47:-1 48:-0.936508 49:-1 50:-0.999941 51:1 52:-0.964072 53:-0.359619 54:-1 55:-1 56:-0.951923 57:-0.99856 58:-0.947368 59:-0.997794 60:-1 
-32 1:-1 2:-0.774194 3:-0.916201 4:-0.60582 5:-0.999922 6:-0.605381 7:-0.999332 8:-0.733711 9:-0.999123 10:-0.999955 11:-0.853988 12:-1 13:-0.60582 14:-0.87771 15:-0.998646 16:-0.813953 17:-0.996987 18:-0.87771 19:-0.904762 20:-0.836735 21:-0.92764 22:-0.882353 23:-0.92764 24:-0.999943 25:-0.874909 26:-0.998992 27:-1 28:-0.706876 29:-1 30:-1 31:-0.818182 32:-0.961977 33:-0.702128 34:-1 35:-0.880597 36:-0.3125 37:-0.0952838 38:-0.869249 39:-0.999259 40:-0.786047 41:-1 42:-0.961977 43:-1 45:-0.8 46:-0.998729 47:-0.851852 48:-0.60582 49:-1 50:-0.999922 51:1 52:-0.94012 53:-0.423298 54:-1 55:-1 56:-0.75 57:-0.999017 58:-0.669173 59:-0.998531 60:-0.613445 
-32 1:-1 2:-0.645161 3:-0.698324 4:-0.343915 5:-0.999947 6:-0.538117 7:-0.998991 8:-0.543909 9:-0.998939 10:-0.999871 11:-0.696115 12:-1 13:-0.343915 14:-0.657415 15:-0.998811 16:-0.767442 17:-0.997912 18:-0.657415 19:-0.877551 20:-0.653061 21:-0.939419 22:-1 23:-0.939419 24:-0.999646 25:-0.708445 26:-0.998439 27:-1 28:-0.349819 29:-1 30:-0.96 31:-1 32:-0.452471 33:-0.531915 34:-1 35:-0.739872 36:-0.4375 37:0.275029 38:-0.583535 39:-0.998781 40:-0.116279 41:-0.875 42:-0.452471 43:-0.96 45:-0.6 46:-0.99833 47:-0.62963 48:-0.343915 49:-1 50:-0.999947 51:1 52:-0.784431 53:-0.221186 54:-0.882353 55:-1 56:-0.3125 57:-0.999645 58:-0.37594 59:-0.998193 60:-0.378151 
32 1:-0.714286 2:-0.935484 3:-0.681564 4:-0.674603 5:-0.99998 6:-0.636771 7:-0.998877 8:-0.786119 9:-0.999367 10:-0.999929 11:-0.84499 12:-1 13:-0.674603 14:-0.902862 15:-0.998827 16:-0.906977 17:-0.998245 18:-0.902862 19:-0.904762 20:-0.877551 21:-0.980648 22:-1 23:-0.980648 24:-0.999565 25:-0.880263 26:-0.998002 27:-1 28:-0.709288 29:-1 30:-0.8 31:-0.909091 32:-0.680608 33:-0.914894 34:-1 35:-0.799574 36:-0.5625 37:-0.14875 38:-0.782082 39:-0.998595 40:-0.665116 41:-1 42:-0.680608 43:-0.8 45:-0.666667 46:-0.998283 47:-0.555556 48:-0.674603 49:-1 50:-0.99998 51:1 52:-0.820359 53:-0.153706 54:-1 55:-1 56:-0.701923 57:-0.999761 58:-0.556391 59:-0.998421 60:-0.781513 
-32 1:-1 2:-0.83871 3:-0.96648 4:-0.931217 5:-0.99985 6:-0.914798 7:-0.998594 8:-0.956091 9:-0.997682 10:-0.978132 11:-0.953783 12:-1 13:-0.931217 14:-0.879445 15:-0.998714 16:-0.976744 17:-0.998061 18:-0.879445 19:-0.945578 20:-1 21:-1 22:-1 23:-1 24:-0.999664 25:-0.850572 26:-0.998423 27:-1 28:-0.898673 29:-1 30:-0.98 31:-1 32:-0.91635 33:-0.787234 34:-1 35:-0.965885 36:-0.5 37:-0.450213 38:-0.956416 39:-0.998111 40:-0.87907 41:-1 42:-0.91635 43:-0.98 45:-1 46:-0.997822 47:-1 48:-0.931217 49:-1 50:-0.99985 51:1 52:-1 53:0.0137884 54:-1 55:-1 56:-0.956731 57:-1 58:-0.924812 59:-0.998088 60:-0.932773 
32 1:-0.714286 2:-1 3:-0.486034 4:-0.603175 5:-1 6:-0.686099 7:-0.999064 8:-0.754958 9:-0.999384 10:-0.999924 11:-0.814315 12:-1 13:-0.603175 14:-0.894189 15:-0.998857 16:-0.744186 17:-0.997486 18:-0.894189 19:-0.510204 20:-0.693878 21:-0.98822 22:-1 23:-0.98822 24:-0.999935 25:-0.865661 26:-0.998632 27:-1 28:-0.595899 29:-1 30:-0.92 31:-0.727273 32:-0.946768 33:-1 34:-1 35:-0.526652 36:-0.5 37:-0.0431195 38:-0.578692 39:-0.998879 40:-0.541085 41:-1 42:-0.946768 43:-0.92 45:-0.7 46:-0.998451 47:-0.703704 48:-0.603175 49:-1 50:-1 51:1 52:-0.508982 53:-0.264784 54:-1 55:-1 56:-0.528846 57:-0.99987 58:-0.496241 59:-0.998053 60:-0.815126 
-32 1:-1 2:-1 3:-0.910615 4:-0.761905 5:-1 6:-0.816143 7:-0.999187 8:-0.845609 9:-0.999319 10:-0.999889 11:-0.902658 12:-1 13:-0.761905 14:-0.938422 15:-0.999023 16:-0.883721 17:-0.997428 18:-0.938422 19:-0.795918 20:-0.77551 21:-0.993269 22:-1 23:-0.993269 24:-0.999754 25:-0.889024 26:-0.998446 27:-1 28:-0.828709 29:-1 30:-1 31:-1 32:-0.893536 33:-1 34:-1 35:-0.831557 36:-0.8125 37:-0.30932 38:-0.941889 39:-0.998952 40:-0.770543 41:-1 42:-0.893536 43:-1 45:-1 46:-0.998608 47:-0.925926 48:-0.761905 49:-1 50:-1 51:1 52:-0.952096 53:-0.337505 54:-1 55:-1 56:-0.850962 57:-0.999859 58:-0.819549 59:-0.998032 60:-0.882353 
-32 1:-1 2:-0.612903 3:-0.592179 4:-0.216931 5:-0.999944 6:-0.452915 7:-0.999171 8:-0.449008 9:-0.998826 10:-0.921821 11:-0.652352 12:-1 13:-0.216931 14:-0.603643 15:-0.998734 16:-0.837209 17:-0.997376 18:-0.603643 19:-0.782313 20:-0.55102 21:-0.96382 22:-1 23:-0.96382 24:-0.999581 25:-0.79411 26:-0.998618 27:-1 28:-0.482509 29:-1 30:-0.9 31:-0.636364 32:-0.323194 33:-0.489362 34:-1 35:-0.682303 37:0.32698 38:-0.292978 39:-0.998978 40:0.0604651 41:-1 42:-0.323194 43:-0.9 45:-0.0666667 46:-0.998565 47:-0.333333 48:-0.216931 49:-1 50:-0.999944 51:1 52:-0.748503 53:-0.328353 54:-1 55:-1 56:-0.283654 57:-0.999797 58:-0.0676692 59:-0.998299 60:-0.378151 
-32 1:-1 2:-1 3:-1 4:-0.97619 5:-1 6:-0.991031 7:-0.999 8:-0.983003 9:-1 10:-1 11:-0.993456 12:-1 13:-0.97619 14:-1 15:-0.998593 16:-1 17:-0.999472 18:-1 19:-1 20:-1 21:-1 22:-1 23:-1 24:-1 25:-0.973229 26:-0.997599 27:-1 28:-0.983112 29:-1 30:-1 31:-1 32:-1 33:-1 34:-1 35:-0.995736 36:-1 37:-0.724982 38:-0.990315 39:-0.998389 40:-0.993798 41:-1 42:-1 43:-1 45:-1 46:-0.997925 47:-1 48:-0.97619 49:-1 50:-1 51:1 52:-1 53:-0.226678 54:-1 55:-1 56:-1 57:-1 58:-0.992481 59:-0.998914 60:-0.94958 
32 1:-1 2:-0.967742 3:-0.860335 4:-0.47619 5:-0.568338 6:-0.820628 7:-0.998836 8:-0.516997 9:-0.998843 10:-0.999869 11:-0.890798 12:-1 13:-0.47619 14:-0.581093 15:-0.998349 16:-0.883721 17:-0.999728 18:-0.581093 19:-0.904762 20:-0.918367 21:-1 22:-1 23:-1 24:-0.999895 25:-0.578973 26:-0.998458 27:-1 28:-0.735826 29:-1 30:-0.82 31:-1 32:-0.81749 33:-0.957447 34:-1 35:-0.867804 36:-0.375 37:0.359742 38:-0.864407 39:-0.998721 40:-0.786047 41:-1 42:-0.81749 43:-0.82 45:-0.9 46:-0.997707 47:-0.777778 48:-0.47619 49:-1 50:-0.568209 51:1 52:-0.904192 53:-0.129722 54:-1 55:-1 56:-0.793269 57:-1 58:-0.774436 59:-0.998913 60:-0.630252 
-32 1:-1 2:-0.806452 3:-0.553073 4:-0.383598 5:-0.999967 6:-0.538117 7:-0.998996 8:-0.601983 9:-0.999568 10:-0.9999 11:-0.707157 12:-1 13:-0.383598 14:-0.878578 15:-0.99889 16:-0.534884 17:-0.998084 18:-0.878578 19:-0.795918 20:-0.673469 21:-0.900715 22:-1 23:-0.900715 24:-0.999977 25:-0.81212 26:-0.998456 27:-1 28:-0.492159 29:-1 30:-0.88 31:-0.454545 32:-0.969582 33:-0.744681 34:-1 35:-0.58209 36:-0.375 37:0.190856 38:-0.273608 39:-0.998797 40:-0.336434 41:-1 42:-0.969582 43:-0.88 45:-0.233333 46:-0.99828 47:-0.259259 48:-0.383598 49:-1 50:-0.999967 51:1 52:-0.60479 53:-0.224529 54:-1 55:-1 56:-0.230769 57:-0.999331 58:-0.142857 59:-0.998131 60:-0.680672 
-32 1:-1 2:-0.967742 3:-0.541899 4:-0.103175 5:-0.617323 6:-0.520179 7:-0.999385 8:-0.171388 9:-0.999278 10:-0.999851 11:-0.65726 12:-1 13:-0.103175 14:-0.705117 15:-0.998643 16:-0.697674 17:-0.997546 18:-0.705117 19:-0.877551 20:-0.653061 21:-0.833403 22:-0.882353 23:-0.833403 24:-0.999716 25:-0.60477 26:-0.998655 27:-1 28:-0.232811 29:-1 30:-0.78 31:-0.818182 32:-0.444867 33:-0.957447 34:-1 35:-0.503198 36:-0.375 37:0.430506 38:-0.66586 39:-0.999167 40:0.0666667 41:-0.875 42:-0.444867 43:-0.78 45:-0.3 46:-0.998643 47:-0.407407 48:-0.103175 49:-1 50:-0.617208 51:1 52:-0.508982 53:-0.45505 54:-0.882353 55:-1 56:-0.302885 57:-0.999227 58:-0.323308 59:-0.998298 60:-0.563025 
32 1:-0.714286 2:-0.83871 3:-0.888268 4:-0.81746 5:-0.999924 6:-0.852018 7:-0.998837 8:-0.883853 9:-0.998832 10:-0.999964 11:-0.92638 12:-1 13:-0.81746 14:-0.879445 15:-0.998348 16:-0.930233 17:-0.998441 18:-0.879445 19:-0.931973 20:-0.918367 21:-0.989903 22:-0.764706 23:-0.989903 24:-0.999276 25:-0.86274 26:-0.997908 27:-1 28:-0.875754 29:-1 30:-0.96 31:-1 32:-0.642586 33:-0.787234 34:-1 35:-0.891258 36:-0.375 37:-0.292302 38:-0.903148 39:-0.998343 40:-0.826357 41:-1 42:-0.642586 43:-0.96 45:-0.933333 46:-0.998078 47:-0.777778 48:-0.81746 49:-1 50:-0.999924 51:1 52:-0.952096 53:-0.130075 54:-0.764706 55:-1 56:-0.802885 57:-0.999815 58:-0.819549 59:-0.998979 60:-0.865546 
32 1:-1 2:-1 3:-0.972067 4:-0.968254 5:-1 6:-0.96861 7:-0.999202 8:-0.98017 9:-0.999213 10:-0.999992 11:-0.986094 12:-1 13:-0.968254 14:-0.988725 15:-0.998629 16:-1 17:-0.996767 18:-0.988725 19:-1 20:-0.979592 21:-0.999159 22:-1 23:-0.999159 24:-0.999445 25:-0.963495 26:-0.998872 27:-1 28:-0.966224 29:-1 30:-1 31:-0.909091 32:-0.961977 33:-1 34:-1 35:-0.98081 36:-0.75 37:-0.682063 38:-0.98063 39:-0.998987 40:-0.937984 41:-1 42:-0.961977 43:-1 45:-1 46:-0.99865 47:-1 48:-0.968254 49:-1 50:-1 51:1 52:-0.988024 53:-0.3463 54:-1 55:-1 56:-0.985577 57:-0.999889 58:-0.969925 59:-0.998431 60:-0.966387 
