svm_type epsilon_svr
kernel_type rbf
gamma 0.03125
nr_class 2
total_sv 2369
rho -0.513704
SV
32 1:-1 2:-0.967742 3:-0.871508 4:-0.828042 5:0.972608 6:-0.828704 7:-0.998797 8:-0.896601 9:-0.999535 10:-0.999974 11:-0.933117 12:-1 13:-0.828042 14:-0.948829 15:-0.998795 16:-0.906977 17:-0.998385 18:-0.948829 19:-0.85034 20:-0.980198 21:-1 22:-1 23:-1 24:-0.999422 25:-0.905086 26:-0.194006 27:-1 28:-0.826297 29:-1 30:-0.9 31:-1 32:-0.779468 33:-0.948718 34:-1 35:-0.895522 36:-0.4375 37:-0.347419 38:-0.775862 39:-0.998675 40:-0.89759 41:-1 42:-0.779468 43:-0.9 45:-0.791045 46:-0.998586 47:-0.851852 48:-0.828042 49:-1 50:0.972608 51:1 52:-0.976048 53:-0.106282 54:-1 55:-1 56:-0.860577 57:-1 58:-0.857143 59:-0.99841 60:-0.848739 
-14.99406815935897 1:-0.428571 2:-0.580645 3:0.49162 4:0.116402 5:-0.999964 6:0.152778 7:-0.998974 8:-0.293201 9:-0.999218 10:-0.776919 11:-0.497697 12:-1 13:0.116402 14:-0.380746 15:0.170286 16:-0.465116 17:-0.998171 18:-0.380746 19:-0.52381 20:-0.60396 21:-0.868742 22:-1 23:-0.868742 24:-0.99954 25:-0.728401 26:-0.179929 27:-1 28:0.240048 29:-1 30:-0.72 31:-0.6 32:0.262357 33:-0.333333 34:-1 35:0.168443 36:-0.5 37:0.660664 38:-0.189655 39:-0.998613 40:0.331325 41:-1 42:0.262357 43:-0.72 45:-0.223881 46:-0.99862 47:0.333333 48:0.116402 49:-1 50:-0.999964 51:1 52:-0.0299401 53:-0.211259 54:-1 55:-1 56:0.346154 57:-0.99957 58:0.37594 59:-0.998259 60:-0.411765 
32 1:-0.714286 2:-0.193548 3:-0.312849 4:0.015873 5:-0.999924 6:0.217593 7:-0.998842 8:-0.415014 9:-0.999443 10:-0.999838 11:-0.448217 12:-1 13:0.015873 14:-0.601041 15:-0.998774 16:-0.186047 17:-0.998128 18:-0.601041 19:-0.673469 20:-0.0891089 21:-0.874632 22:-0.882353 23:-0.874632 24:-0.999868 25:-0.738136 26:-0.255671 27:-1 28:0.354644 29:-1 30:-0.8 31:-0.933333 32:-0.673004 33:0.282051 34:-1 35:-0.385928 36:-0.375 37:0.616167 38:-0.37931 39:-0.998561 40:0.186747 41:-0.875 42:-0.673004 43:-0.8 45:0.164179 46:-0.998551 47:-0.111111 48:0.015873 49:-1 50:-0.999924 51:1 52:-0.616766 53:-0.132926 54:-0.882353 55:-1 56:0.216346 57:-0.999546 58:0.218045 59:-0.998284 60:-0.142857 
32 1:-1 2:-1 3:-1 4:-0.997354 5:-1 6:-1 7:-0.999869 8:-0.998584 9:-0.998571 10:-1 11:-0.998976 12:-1 13:-0.997354 14:-0.998265 15:-0.998857 16:-1 17:-0.996816 18:-0.998265 19:-1 20:-1 21:-1 22:-1 23:-1 24:-1 25:-0.991239 26:-0.813445 27:-1 28:-0.998794 29:-1 30:-1 31:-1 32:-1 33:-1 34:-1 35:-1 36:-1 37:-0.881492 38:-1 39:-0.999842 40:-1 41:-1 42:-1 43:-1 45:-1 46:-0.999276 47:-1 48:-0.997354 49:-1 50:-1 51:1 52:-1 53:-0.741902 54:-1 55:-1 56:-1 57:-1 58:-1 59:-0.997647 60:-1 
-31.34878784335556 1:-1 2:-0.967742 3:-0.798883 4:-0.828042 5:0.830986 6:-0.921296 7:-0.999003 8:-0.879603 9:-0.999561 10:-0.999963 11:-0.914008 12:-1 13:-0.828042 14:-0.947962 15:-0.998831 16:-0.930233 17:-0.997962 18:-0.947962 19:-0.904762 20:-0.980198 21:-0.999159 22:-0.529412 23:-0.999159 24:-0.999797 25:-0.88075 26:-0.268535 27:-1 28:-0.737033 29:-1 30:-1 31:-1 32:-0.91635 33:-0.948718 34:-1 35:-0.882729 36:-0.5625 37:-0.316177 38:-0.918103 39:-0.998814 40:-0.786145 41:-1 42:-0.91635 43:-1 45:-0.820896 46:-0.998731 47:-0.925926 48:-0.828042 49:-1 50:0.830986 51:1 52:-0.844311 53:-0.22864 54:-0.647059 55:-1 56:-0.798077 57:0.838851 58:-0.857143 59:-0.99814 60:-0.714286 
32 1:-0.428571 2:-0.741935 3:-0.787709 4:-0.478836 5:-0.999951 6:-0.439815 7:-0.999226 8:-0.558074 9:-0.999396 10:-0.999905 11:-0.800034 12:-1 13:-0.478836 14:-0.785776 15:-0.998766 16:-0.604651 17:-0.997787 18:-0.785776 19:-0.795918 20:-0.485149 21:-0.946151 22:-0.882353 23:-0.946151 24:-0.999957 25:-0.832076 26:-0.0449841 27:-1 28:-0.45959 29:-1 30:-0.94 31:-0.733333 32:-0.946768 33:-0.589744 34:-1 35:-0.803838 36:-0.5 37:0.0868213 38:-0.818966 39:-0.998768 40:-0.454819 41:-1 42:-0.946768 43:-0.94 45:-0.731343 46:-0.99892 47:-0.777778 48:-0.478836 49:-1 50:-0.999951 51:1 52:-0.88024 53:-0.36088 54:-0.882353 55:-1 56:-0.538462 57:-0.999607 58:-0.511278 59:-0.998241 60:-0.630252 
1.72575518682491 1:-1 2:-0.709677 3:-0.715084 4:-0.222222 5:-0.242177 6:-0.555556 7:-0.994978 8:-0.46034 9:-0.999894 10:-0.999624 11:-0.373827 12:-1 13:-0.222222 14:-0.725932 15:-0.997936 16:-0.906977 17:-1 18:-1 19:-1 20:-1 21:-1 22:-1 23:-1 24:-1 25:-1 26:-1 27:-1 28:-1 29:-1 30:-1 31:-1 32:-1 33:-1 34:-1 35:-1 36:-1 37:-1 38:-1 39:-1 40:-1 41:-1 42:-1 43:-1 45:-1 46:-1 47:-1 48:-1 49:-1 50:-1 51:-1 52:-1 53:-1 54:-1 55:-1 56:-1 57:-1 58:-1 59:-1 60:-1 
-4.40546424333357 1:-1 2:-1 3:-1 4:-0.989418 5:-1 6:-0.990741 7:-0.999535 8:-0.991501 9:-0.999174 10:-0.999997 11:-0.995223 12:-1 13:-0.989418 14:-0.994796 15:-0.998694 16:-1 17:-0.997829 18:-0.994796 19:-0.986395 20:-1 21:-1 22:-1 23:-1 24:-1 25:-0.97907 26:-0.382462 27:-1 28:-0.992762 29:-1 30:-1 31:-1 32:-1 33:-1 34:-1 35:-0.995736 36:-0.9375 37:-0.805714 38:-1 39:-0.999234 40:-0.996988 41:-1 42:-1 43:-1 45:-1 46:-0.99894 47:-1 48:-0.989418 49:-1 50:-1 51:1 52:-1 53:-0.543734 54:-1 55:-1 56:-0.990385 57:-1 58:-0.984962 59:-0.998655 60:-1 
-32 1:-1 2:-1 3:-0.888268 4:-0.899471 5:-1 6:-0.935185 7:-0.999007 8:-0.930595 9:-0.999208 10:-0.999943 11:-0.941989 12:-1 13:-0.899471 14:-0.940156 15:-0.998903 16:-0.930233 17:-0.997718 18:-0.940156 19:-0.931973 20:-0.90099 21:-1 22:-1 23:-1 24:-1 25:-0.877829 26:-0.382388 27:-1 28:-0.833534 29:-1 30:-1 31:-0.933333 32:-1 33:-1 34:-1 35:-0.899787 36:-0.8125 37:-0.430103 38:-0.961207 39:-0.998807 40:-0.834337 41:-1 42:-1 43:-1 45:-0.880597 46:-0.998715 47:-1 48:-0.899471 49:-1 50:-1 51:1 52:-0.94012 53:-0.230985 54:-1 55:-1 56:-0.841346 57:-1 58:-0.887218 59:-0.998024 60:-0.983193 
-32 1:-1 2:-1 3:-0.988827 4:-0.978836 5:-1 6:-0.976852 7:-0.999394 8:-0.970255 9:-0.999246 10:-0.999993 11:-0.990787 12:-1 13:-0.978836 14:-0.989592 15:-0.998649 16:-1 17:-0.997716 18:-0.989592 19:-0.959184 20:-1 21:-1 22:-1 23:-1 24:-0.999841 25:-0.971769 26:-0.440254 27:-1 28:-0.973462 29:-1 30:-1 31:-1 32:-0.992395 33:-1 34:-1 35:-0.982942 36:-0.9375 37:-0.734494 38:-0.987069 39:-0.999442 40:-0.98494 41:-1 42:-0.992395 43:-1 45:-0.970149 46:-0.999078 47:-1 48:-0.978836 49:-1 50:-1 51:1 52:-0.976048 53:-0.460231 54:-1 55:-1 56:-0.971154 57:-1 58:-1 59:-0.998503 60:-0.983193 
32 1:-1 2:-0.903226 3:-0.765363 4:-0.81746 5:-0.999938 6:-0.787037 7:-0.999046 8:-0.895184 9:-0.999612 10:-0.999959 11:-0.934141 12:-1 13:-0.81746 14:-0.959237 15:-0.999025 16:-0.930233 17:-0.997812 18:-0.959237 19:-0.945578 20:-0.80198 21:-0.974758 22:-1 23:-0.974758 24:-0.999979 25:-0.897299 26:-0.28453 27:-1 28:-0.828709 29:-1 30:-1 31:-1 32:-0.992395 33:-0.846154 34:-1 35:-0.776119 36:-0.6875 37:-0.35375 38:-0.831897 39:-0.998819 40:-0.846386 41:-1 42:-0.992395 43:-1 45:-0.850746 46:-0.998765 47:-0.925926 48:-0.81746 49:-1 50:-0.999938 51:1 52:-0.916168 53:-0.254179 54:-1 55:-1 56:-0.8125 57:-0.999377 58:-0.917293 59:-0.99818 60:-0.865546 
-32 1:-1 2:-1 3:-0.653631 4:-0.796296 5:-1 6:-0.773148 7:-0.998954 8:-0.86119 9:-0.999408 10:-0.999959 11:-0.908889 12:-1 13:-0.796296 14:-0.915872 15:-0.998753 16:-0.953488 17:-0.998053 18:-0.915872 19:-0.918367 20:-0.90099 21:-0.968868 22:-0.882353 23:-0.968868 24:-0.999691 25:-0.872962 26:-0.311494 27:-1 28:-0.823884 29:-1 30:-0.96 31:-0.866667 32:-0.847909 33:-1 34:-1 35:-0.720682 36:-0.5625 37:-0.249694 38:-0.75431 39:-0.998814 40:-0.774096 41:-0.875 42:-0.847909 43:-0.96 45:-0.820896 46:-0.998675 47:-1 48:-0.796296 49:-1 50:-1 51:1 52:-0.784431 53:-0.199677 54:-0.764706 55:-1 56:-0.817308 57:-0.999432 58:-0.827068 59:-0.998289 60:-0.966387 
32 1:-1 2:-0.83871 3:-0.50838 4:-0.693122 5:-0.999957 6:-0.689815 7:-0.998685 8:-0.820113 9:-0.99962 10:-0.929274 11:-0.799693 12:-1 13:-0.693122 14:-0.903729 15:-0.998607 16:-0.767442 17:-0.998209 18:-0.903729 19:-0.782313 20:-0.80198 21:-0.980648 22:-0.764706 23:-0.980648 24:-0.999628 25:-0.829156 26:-0.285916 27:-1 28:-0.548854 29:-1 30:-0.72 31:-0.8 32:-0.673004 33:-0.74359 34:-1 35:-0.458422 36:-0.5 37:-0.0121913 38:-0.525862 39:-0.998402 40:-0.587349 41:-1 42:-0.673004 43:-0.72 45:-0.850746 46:-0.998421 47:-0.62963 48:-0.693122 49:-1 50:-0.999957 51:1 52:-0.688623 53:-0.040149 54:-0.647059 55:-1 56:-0.634615 57:-0.999802 58:-0.571429 59:-0.998603 60:-0.848739 
-32 1:-0.714286 2:-0.709677 3:-0.675978 4:-0.373016 5:-0.999947 6:-0.523148 7:-0.999016 8:-0.604816 9:-0.999448 10:-0.999938 11:-0.769323 12:-1 13:-0.373016 14:-0.796184 15:-0.998735 16:-0.651163 17:-0.998383 18:-0.796184 19:-0.755102 20:-0.663366 21:-0.833403 22:-1 23:-0.833403 24:-0.999816 25:-0.778535 26:-0.237825 27:-1 28:-0.545235 29:-1 30:-0.88 31:-0.866667 32:-0.764259 33:-0.538462 34:-1 35:-0.814499 36:-0.1875 37:0.160383 38:-0.211207 39:-0.998832 40:-0.319277 41:-1 42:-0.764259 43:-0.88 45:-0.61194 46:-0.998646 47:-0.407407 48:-0.373016 49:-1 50:-0.999947 51:1 52:-0.844311 53:-0.236106 54:-1 55:-1 56:-0.538462 57:-0.998832 58:-0.639098 59:-0.99837 60:-0.647059 
32 1:-1 2:-0.967742 3:-0.98324 4:-0.941799 5:-0.999909 6:-0.976852 7:-0.999493 8:-0.954674 9:-0.999818 10:-0.999991 11:-0.978843 12:-1 13:-0.941799 14:-0.995663 15:-0.9991 16:-0.953488 17:-0.997135 18:-0.995663 19:-0.972789 20:-0.90099 21:-1 22:-0.882353 23:-1 24:-0.999633 25:-0.961061 26:-0.500276 27:-1 28:-0.95778 29:-1 30:-0.96 31:-1 32:-0.969582 33:-0.948718 34:-1 35:-0.98081 36:-0.625 37:-0.655308 38:-0.978448 39:-0.999451 40:-0.96988 41:-1 42:-0.969582 43:-0.96 45:-1 46:-0.999185 47:-1 48:-0.941799 49:-1 50:-0.999909 51:1 52:-0.976048 53:-0.518935 54:-0.882353 55:-1 56:-0.980769 57:-1 58:-0.969925 59:-0.998146 60:-0.932773 
-32 1:-0.714286 2:-0.967742 3:-0.765363 4:-0.706349 5:-0.00689518 6:-0.773148 7:-0.998843 8:-0.824363 9:-0.999631 10:-0.999917 11:-0.844395 12:-1 13:-0.706349 14:-0.919341 15:0.0788571 16:-0.813953 17:-0.998002 18:-0.919341 19:-0.768707 20:-0.663366 21:-0.978124 22:-0.882353 23:-0.978124 24:-0.99995 25:-0.843758 26:-0.306592 27:-1 28:-0.710495 29:-1 30:-0.94 31:-1 32:-0.961977 33:-0.948718 34:-1 35:-0.671642 36:-0.625 37:-0.0799206 38:-0.762931 39:-0.998592 40:-0.487952 41:-1 42:-0.961977 43:-0.94 45:-0.850746 46:-0.998568 47:-0.62963 48:-0.706349 49:-1 50:-0.00689518 51:1 52:-0.748503 53:-0.133926 54:-0.882353 55:-1 56:-0.596154 57:-0.999741 58:-0.721805 59:0.844706 60:-0.882353 
32 1:-1 2:-0.967742 3:-0.938547 4:-0.912698 5:-0.99997 6:-0.782407 7:-0.998971 8:-0.94051 9:-0.999532 10:-0.999978 11:-0.947108 12:-1 13:-0.912698 14:-0.966175 15:-0.998777 16:-0.930233 17:-0.99797 18:-0.966175 19:-0.945578 20:-0.960396 21:-0.980648 22:-1 23:-0.980648 24:-0.999727 25:-0.891458 26:-0.342182 27:-1 28:-0.868516 29:-1 30:-1 31:-1 32:-0.931559 33:-0.948718 34:-1 35:-0.895522 36:-0.625 37:-0.447546 38:-0.896552 39:-0.998663 40:-0.86747 41:-1 42:-0.931559 43:-1 45:-0.880597 46:-0.998592 47:-1 48:-0.912698 49:-1 50:-0.99997 51:1 52:-0.952096 53:-0.209691 54:-1 55:-1 56:-0.865385 57:-0.999306 58:-0.932331 59:-0.99803 60:-0.966387 
-32 1:-1 2:-1 3:-0.748603 4:-0.619048 5:-1 6:-0.611111 7:-0.998984 8:-0.705382 9:-0.999391 10:-0.999931 11:-0.878178 12:-1 13:-0.619048 14:-0.863833 15:-0.998863 16:-0.744186 17:-0.998373 18:-0.863833 19:-0.823129 20:-0.742574 21:-0.989903 22:-1 23:-0.989903 24:-0.999824 25:-0.88075 26:-0.201345 27:-1 28:-0.750302 29:-1 30:-0.94 31:-1 32:-0.863118 33:-1 34:-1 35:-0.799574 36:-0.5625 37:-0.100351 38:-0.668103 39:-0.998958 40:-0.650602 41:-1 42:-0.863118 43:-0.94 45:-0.761194 46:-0.998753 47:-0.481481 48:-0.619048 49:-1 50:-1 51:1 52:-0.868263 53:-0.217334 54:-1 55:-1 56:-0.658654 57:-0.999883 58:-0.669173 59:-0.998131 60:-0.663866 
-32 1:-1 2:-1 3:-0.994413 4:-0.973545 5:-1 6:-0.976852 7:-0.999249 8:-0.984419 9:-0.998849 10:-0.999997 11:-0.988398 12:-1 13:-0.973545 14:-0.981787 15:-0.999048 16:-1 17:-0.997504 18:-0.981787 19:-0.986395 20:-1 21:-1 22:-1 23:-1 24:-0.999585 25:-0.971769 26:-0.428169 27:-1 28:-0.978287 29:-1 30:-1 31:-1 32:-0.977186 33:-1 34:-1 35:-0.976546 36:-0.9375 37:-0.712148 38:-0.99569 39:-0.998979 40:-0.981928 41:-1 42:-0.977186 43:-1 45:-1 46:-0.998841 47:-1 48:-0.973545 49:-1 50:-1 51:1 52:-0.988024 53:-0.374429 54:-1 55:-1 56:-0.980769 57:-1 58:-0.962406 59:-0.998039 60:-1 
-32 1:-1 2:-0.967742 3:-0.972067 4:-0.925926 5:-0.999954 6:-0.949074 7:-0.999263 8:-0.947592 9:-0.99887 10:-0.999977 11:-0.964511 12:-1 13:-0.925926 14:-0.947095 15:-0.999098 16:-0.976744 17:-0.997115 18:-0.947095 19:-0.959184 20:-0.960396 21:-0.998317 22:-1 23:-0.998317 24:-0.999766 25:-0.946946 26:-0.296359 27:-1 28:-0.916767 29:-1 30:-1 31:-0.933333 32:-0.961977 33:-0.948718 34:-1 35:-0.965885 36:-0.8125 37:-0.551862 38:-0.99569 39:-0.998936 40:-0.912651 41:-1 42:-0.961977 43:-1 45:-0.910448 46:-0.999019 47:-0.925926 48:-0.925926 49:-1 50:-0.999954 51:1 52:-0.952096 53:-0.382816 54:-1 55:-1 56:-0.9375 57:-0.999907 58:-0.924812 59:-0.997771 60:-0.915966 
-32 1:-1 2:-1 3:-0.949721 4:-0.851852 5:-1 6:-0.763889 7:-0.999285 8:-0.890935 9:-0.999514 10:-0.999975 11:-0.93653 12:-1 13:-0.851852 14:-0.961839 15:-0.998828 16:-1 17:-0.997296 18:-0.961839 19:-0.768707 20:-0.861386 21:-0.986538 22:-1 23:-0.986538 24:-1 25:-0.931857 26:-0.385802 27:-1 28:-0.851628 29:-1 30:-1 31:-0.933333 32:-1 33:-1 34:-1 35:-0.921109 36:-0.5625 37:-0.425407 38:-0.922414 39:-0.999169 40:-0.873494 41:-1 42:-1 43:-1 45:-0.850746 46:-0.999044 47:-1 48:-0.851852 49:-1 50:-1 51:1 52:-0.976048 53:-0.395767 54:-1 55:-1 56:-0.903846 57:-0.999556 58:-0.902256 59:-0.998009 60:-0.94958 
-32 1:-1 2:-1 3:-0.944134 4:-0.94709 5:-1 6:-0.944444 7:-0.998626 8:-0.971671 9:-0.999345 10:-0.99998 11:-0.976796 12:-1 13:-0.94709 14:-0.974848 15:-0.998803 16:-0.976744 17:-0.998278 18:-0.974848 19:-0.972789 20:-0.980198 21:-1 22:-1 23:-1 24:-1 25:-0.949379 26:-0.248285 27:-1 28:-0.926417 29:-1 30:-1 31:-0.933333 32:-1 33:-1 34:-1 35:-0.959488 36:-0.75 37:-0.589954 38:-0.926724 39:-0.998476 40:-0.948795 41:-1 42:-1 43:-1 45:-0.910448 46:-0.998467 47:-0.851852 48:-0.94709 49:-1 50:-1 51:1 52:-0.94012 53:-0.00492716 54:-1 55:-1 56:-0.927885 57:-1 58:-0.954887 59:-0.998207 60:-0.966387 
-32 1:-1 2:-0.967742 3:-0.748603 4:-0.822751 5:1 6:-0.824074 7:-0.999344 8:-0.835694 9:-0.999688 10:-0.99994 11:-0.922539 12:-1 13:-0.822751 14:-0.966175 15:-0.998847 16:-0.953488 17:-0.997262 18:-0.966175 19:-0.85034 20:-0.80198 21:-1 22:-1 23:-1 24:-0.999596 25:-0.902166 26:-0.425037 27:-1 28:-0.774427 29:-1 30:-1 31:-0.933333 32:-0.847909 33:-0.948718 34:-1 35:-0.82516 36:-0.75 37:-0.32612 38:-0.849138 39:-0.999254 40:-0.873494 41:-1 42:-0.847909 43:-1 45:-0.820896 46:-0.999077 47:-0.777778 48:-0.822751 49:-1 50:1 51:1 52:-0.892216 53:-0.430956 54:-1 55:-1 56:-0.793269 57:-1 58:-0.774436 59:-0.997989 60:-0.882353 
-32 1:-1 2:-1 3:-0.994413 4:-0.910053 5:-1 6:-0.972222 7:-0.999093 8:-0.946176 9:-0.998156 10:-0.999977 11:-0.982938 12:-1 13:-0.910053 14:-0.901127 15:-0.998828 16:-1 17:-0.998035 18:-0.901127 19:-0.85034 20:-0.960396 21:-0.998317 22:-1 23:-0.998317 24:-0.999755 25:-0.940618 26:-0.477035 27:-1 28:-0.961399 29:-1 30:-0.98 31:-1 32:-0.954373 33:-1 34:-1 35:-0.936034 36:-0.6875 37:-0.497956 38:-0.965517 39:-0.998955 40:-0.966867 41:-1 42:-0.954373 43:-0.98 45:-0.970149 46:-0.998644 47:-1 48:-0.910053 49:-1 50:-1 51:1 52:-0.964072 53:-0.28194 54:-1 55:-1 56:-0.980769 57:-0.999919 58:-0.977444 59:-0.998431 60:-1 
32 1:-1 2:-1 3:-1 4:-0.997354 5:-1 6:-1 7:-0.999024 8:-0.998584 9:-0.997724 10:-1 11:-0.998635 12:-1 13:-0.997354 14:-0.993929 15:-0.998857 16:-1 17:-0.998192 18:-0.993929 19:-1 20:-1 21:-1 22:-1 23:-1 24:-1 25:-0.982964 26:-0.334944 27:-1 28:-0.995175 29:-1 30:-1 31:-1 32:-1 33:-1 34:-1 35:-1 36:-1 37:-0.857761 38:-1 39:-0.998899 40:-0.993976 41:-1 42:-1 43:-1 45:-1 46:-0.998669 47:-1 48:-0.997354 49:-1 50:-1 51:1 52:-1 53:-0.241068 54:-1 55:-1 56:-1 57:-1 58:-1 59:-0.997647 60:-1 
-32 1:-1 2:-1 3:-0.977654 4:-0.886243 5:-1 6:-0.990741 7:-0.99961 8:-0.869688 9:-0.999799 10:-0.999979 11:-0.973383 12:-1 13:-0.886243 14:-0.99046 15:-0.998525 16:-0.976744 17:-0.997295 18:-0.99046 19:-0.986395 20:-0.920792 21:-1 22:-1 23:-1 24:-0.999722 25:-0.953273 26:-0.600733 27:-1 28:-0.933655 29:-1 30:-0.98 31:-0.933333 32:-0.954373 33:-1 34:-1 35:-0.98081 36:-0.6875 37:-0.535714 38:-1 39:-0.999669 40:-0.948795 41:-1 42:-0.954373 43:-0.98 45:-1 46:-0.999231 47:-1 48:-0.886243 49:-1 50:-1 51:1 52:-0.976048 53:-0.588047 54:-1 55:-1 56:-0.971154 57:-1 58:-1 59:-0.998836 60:-0.966387 
32 1:-1 2:-0.612903 3:-0.441341 4:-0.26455 5:-0.999949 6:-0.175926 7:-0.998629 8:-0.567989 9:-0.99905 10:-0.999924 11:-0.704146 12:-1 13:-0.26455 14:-0.511709 15:-0.998962 16:-0.72093 17:-0.999036 18:-0.511709 19:-0.727891 20:-0.722772 21:-0.867901 22:-0.764706 23:-0.867901 24:-0.999668 25:-0.820881 26:0.0158847 27:-1 28:-0.472859 29:-1 30:-0.9 31:-0.733333 32:-0.406844 33:-0.384615 34:-1 35:-0.560768 36:-0.0625 37:0.29782 38:-0.409483 39:-0.998388 40:-0.0361446 41:-1 42:-0.406844 43:-0.9 45:-0.522388 46:-0.998389 47:-0.037037 48:-0.26455 49:-1 50:-0.999949 51:1 52:-0.808383 53:-0.00679836 54:-0.764706 55:-1 56:-0.163462 57:-0.999335 58:-0.0601504 59:-0.998108 60:-0.697479 
32 1:-0.714286 2:-0.967742 3:-0.486034 4:-0.542328 5:-0.30544 6:-0.625 7:-0.998966 8:-0.648725 9:-0.999722 10:-0.999904 11:-0.829722 12:-1 13:-0.542328 14:-0.91327 15:-0.998779 16:-0.604651 17:-0.998446 18:-0.91327 19:-0.782313 20:-0.60396 21:-1 22:-0.882353 23:-1 24:-0.999726 25:-0.83889 26:-0.146647 27:-1 28:-0.599517 29:-1 30:-0.82 31:-0.733333 32:-0.703422 33:-0.948718 34:-1 35:-0.599147 36:-0.5625 37:0.0474019 38:-0.340517 39:-0.998794 40:-0.620482 41:-1 42:-0.703422 43:-0.82 45:-0.462687 46:-0.998673 47:-0.703704 48:-0.542328 49:-1 50:-0.30544 51:1 52:-0.736527 53:-0.206792 54:-0.764706 55:-1 56:-0.461538 57:-1 58:-0.496241 59:-0.99828 60:-0.764706 
-32 1:-1 2:-0.903226 3:-0.748603 4:-0.716931 5:-0.999961 6:-0.75 7:-0.999 8:-0.838527 9:-0.999556 10:-0.999925 11:-0.880908 12:-1 13:-0.716931 14:-0.925412 15:-0.998768 16:-0.906977 17:-0.998006 18:-0.925412 19:-0.809524 20:-0.782178 21:-0.981489 22:-0.764706 23:-0.981489 24:0.305566 25:-0.876856 26:-0.264801 27:-1 28:-0.694813 29:-1 30:-1 31:-1 32:-0.992395 33:-0.846154 34:-1 35:-0.739872 36:-0.6875 37:-0.19649 38:-0.814655 39:-0.99876 40:-0.75 41:-1 42:-0.992395 43:-1 45:-0.880597 46:-0.998691 47:-0.777778 48:-0.716931 49:-1 50:-0.999961 51:1 52:-0.784431 53:-0.226598 54:-0.764706 55:-1 56:-0.745192 57:-0.999714 58:-0.796992 59:-0.99824 60:-0.579832 
32 1:-1 2:-0.967742 3:-0.888268 4:-0.820106 5:-0.999979 6:-0.921296 7:-0.999014 8:-0.868272 9:-0.999441 10:-0.999972 11:-0.948814 12:-1 13:-0.820106 14:-0.941023 15:-0.998638 16:-0.976744 17:-0.998261 18:-0.941023 19:-0.959184 20:-0.960396 21:-0.980648 22:-1 23:-0.980648 24:-0.999917 25:-0.899732 26:-0.251302 27:-1 28:-0.881785 29:-1 30:-0.96 31:-0.666667 32:-0.969582 33:-0.948718 34:-1 35:-0.923241 36:-0.5 37:-0.363183 38:-0.909483 39:-0.998979 40:-0.816265 41:-1 42:-0.969582 43:-0.96 45:-0.910448 46:-0.998759 47:-0.851852 48:-0.820106 49:-1 50:-0.999979 51:1 52:-0.904192 53:-0.234817 54:-1 55:-1 56:-0.850962 57:-0.999525 58:-0.804511 59:-0.998448 60:-0.94958 
-32 1:-1 2:-0.322581 3:-0.659218 4:-0.203704 5:-0.999912 6:-0.481481 7:-0.999014 8:-0.454674 9:-0.999348 10:-0.999931 11:-0.704829 12:-1 13:-0.203704 14:-0.661752 15:-0.998751 16:-0.837209 17:-0.998133 18:-0.661752 19:-0.823129 20:-0.60396 21:-0.981489 22:-1 23:-0.981489 24:-0.999721 25:-0.769774 26:-0.217123 27:-1 28:-0.273824 29:-1 30:-0.98 31:-0.933333 32:-0.498099 33:0.0769231 34:-1 35:-0.767591 36:0.0625 37:0.368076 38:-0.711207 39:-0.99879 40:-0.105422 41:-1 42:-0.498099 43:-0.98 45:-0.671642 46:-0.998706 47:-0.333333 48:-0.203704 49:-1 50:-0.999912 51:1 52:-0.724551 53:-0.235339 54:-1 55:-1 56:-0.399038 57:-0.999908 58:-0.43609 59:-0.998427 60:-0.00840336 
32 1:-1 2:-0.967742 3:-0.703911 4:-0.44709 5:-0.360935 6:-0.541667 7:-0.998998 8:-0.685552 9:-0.998761 10:-0.99988 11:-0.77137 12:-1 13:-0.44709 14:-0.579358 15:-0.998883 16:-0.883721 17:-0.997807 18:-0.579358 19:-0.673469 20:-0.386139 21:-1 22:-0.882353 23:-1 24:-1 25:-0.788756 26:-0.292534 27:-1 28:-0.44029 29:-1 30:-0.92 31:-1 32:-1 33:-0.948718 34:-1 35:-0.759062 36:-0.625 37:0.12969 38:-0.862069 39:-0.998742 40:-0.156627 41:-1 42:-1 43:-0.92 45:-0.58209 46:-0.998716 47:-0.555556 48:-0.44709 49:-1 50:-0.360935 51:1 52:-0.676647 53:-0.225515 54:-1 55:-1 56:-0.509615 57:-1 58:-0.526316 59:-0.998248 60:-0.613445 
-32 1:-1 2:-1 3:-0.882682 4:-0.89418 5:-1 6:-0.916667 7:-0.999355 8:-0.898017 9:-0.999614 10:-0.999963 11:-0.962123 12:-1 13:-0.89418 14:-0.974848 15:-0.998716 16:-0.930233 17:-0.997104 18:-0.974848 19:-0.931973 20:-1 21:-0.978124 22:-1 23:-0.978124 24:-0.999563 25:-0.897299 26:-0.426527 27:-1 28:-0.898673 29:-1 30:-0.94 31:-1 32:-0.901141 33:-1 34:-1 35:-0.901919 36:-0.75 37:-0.463087 38:-0.905172 39:-0.999267 40:-0.924699 41:-1 42:-0.901141 43:-0.94 45:-0.940299 46:-0.999128 47:-1 48:-0.89418 49:-1 50:-1 51:1 52:-0.928144 53:-0.437176 54:-1 55:-1 56:-0.951923 57:-0.99913 58:-0.879699 59:-0.998324 60:-0.89916 
32 1:-1 2:-0.967742 3:-0.843575 4:-0.851852 5:-0.999969 6:-0.902778 7:-0.999408 8:-0.907932 9:-0.999337 10:-0.999975 11:-0.957686 12:-1 13:-0.851852 14:-0.954033 15:-0.998823 16:-0.883721 17:-0.997134 18:-0.954033 19:-1 20:-0.920792 21:-0.977282 22:-0.647059 23:-0.977282 24:-0.999874 25:-0.933804 26:-0.531217 27:-1 28:-0.84801 29:-1 30:-0.98 31:-1 32:-0.969582 33:-0.948718 34:-1 35:-0.880597 36:-0.625 37:-0.438533 38:-0.918103 39:-0.99927 40:-0.876506 41:-1 42:-0.969582 43:-0.98 45:-1 46:-0.99904 47:-0.925926 48:-0.851852 49:-1 50:-0.999969 51:1 52:-0.856287 53:-0.468627 54:-0.647059 55:-1 56:-0.884615 57:-0.999152 58:-0.819549 59:-0.998289 60:-0.89916 
-32 1:-0.714286 2:-0.354839 3:-0.603352 4:-0.187831 5:-0.99991 6:-0.421296 7:-0.99922 8:-0.456091 9:-0.99907 10:-0.999877 11:-0.676506 12:-1 13:-0.187831 14:-0.549003 15:-0.998819 16:-0.627907 17:-0.997377 18:-0.549003 19:-0.714286 20:-0.465347 21:-0.994952 22:-0.882353 23:-0.994952 24:-0.999873 25:-0.757119 26:-0.384682 27:-1 28:-0.053076 29:-1 30:-0.94 31:-0.866667 32:-0.787072 33:0.025641 34:-1 35:-0.592751 36:-0.4375 37:0.368587 38:-0.642241 39:-0.998994 40:-0.328313 41:-1 42:-0.787072 43:-0.94 45:-0.820896 46:-0.998916 47:-0.777778 48:-0.187831 49:-1 50:-0.99991 51:1 52:-0.60479 53:-0.357109 54:-0.882353 55:-1 56:-0.225962 57:-0.999973 58:-0.458647 59:-0.99824 60:-0.176471 
32 1:-1 2:-1 3:-0.932961 4:-0.883598 5:-1 6:-0.898148 7:-0.999285 8:-0.924929 9:-0.999177 10:-0.99997 11:-0.967582 12:-1 13:-0.883598 14:-0.951431 15:-0.998646 16:-1 17:-0.997954 18:-0.951431 19:-0.986395 20:-1 21:-0.936054 22:-1 23:-0.936054 24:-0.999963 25:-0.942078 26:-0.454042 27:-1 28:-0.887817 29:-1 30:-1 31:-1 32:-0.992395 33:-1 34:-1 35:-0.98081 36:-0.75 37:-0.493301 38:-0.943966 39:-0.999191 40:-0.885542 41:-1 42:-0.992395 43:-1 45:-1 46:-0.998821 47:-1 48:-0.883598 49:-1 50:-1 51:1 52:-0.928144 53:-0.39569 54:-1 55:-1 56:-0.9375 57:-0.997193 58:-0.954887 59:-0.99878 60:-0.915966 
-32 1:-1 2:-0.935484 3:-1 4:-0.978836 5:-0.999668 6:-0.990741 7:-0.999313 8:-0.98017 9:-0.99927 10:-0.999998 11:-0.991469 12:-1 13:-0.978836 14:-0.99046 15:-0.998781 16:-1 17:-0.997645 18:-0.99046 19:-1 20:-0.980198 21:-1 22:-1 23:-1 24:-0.999665 25:-0.972256 26:-0.37394 27:-1 28:-0.9807 29:-1 30:-1 31:-1 32:-0.984791 33:-0.897436 34:-1 35:-1 36:-0.9375 37:-0.739659 38:-1 39:-0.999238 40:-0.981928 41:-1 42:-0.984791 43:-1 45:-1 46:-0.999001 47:-1 48:-0.978836 49:-1 50:-0.999668 51:1 52:-1 53:-0.412276 54:-1 55:-1 56:-0.971154 57:-1 58:-0.984962 59:-0.998118 60:-0.966387 
32 1:-1 2:-0.967742 3:-0.877095 4:-0.714286 5:0.301944 6:-0.824074 7:-0.999129 8:-0.803116 9:-0.99936 10:-0.999974 11:-0.919126 12:-1 13:-0.714286 14:-0.893322 15:-0.998873 16:-0.860465 17:-0.998079 18:-0.893322 19:-0.972789 20:-0.920792 21:-0.973075 22:-1 23:-0.973075 24:-0.99929 25:-0.907033 26:-0.190242 27:-1 28:-0.80579 29:-1 30:-0.96 31:-0.933333 32:-0.589354 33:-0.948718 34:-1 35:-0.91258 36:-0.125 37:-0.208756 38:-0.87069 39:-0.998859 40:-0.677711 41:-1 42:-0.589354 43:-0.96 45:-0.940299 46:-0.998782 47:-0.851852 48:-0.714286 49:-1 50:0.301944 51:1 52:-0.964072 53:-0.303469 54:-1 55:-1 56:-0.846154 57:-0.999582 58:-0.75188 59:-0.998252 60:-0.848739 
-32 1:-1 2:-1 3:-0.977654 4:-0.944444 5:-1 6:-0.953704 7:-0.998785 8:-0.970255 9:-0.998537 10:-0.999985 11:-0.970653 12:-1 13:-0.944444 14:-0.946227 15:-0.998753 16:-1 17:-0.99866 18:-0.946227 19:-0.931973 20:-0.940594 21:-0.999159 22:-1 23:-0.999159 24:-0.999702 25:-0.933317 26:-0.150955 27:-1 28:-0.945718 29:-1 30:-0.98 31:-1 32:-0.961977 33:-1 34:-1 35:-0.959488 36:-0.6875 37:-0.607973 38:-0.982759 39:-0.998528 40:-0.957831 41:-1 42:-0.961977 43:-0.98 45:-1 46:-0.998456 47:-1 48:-0.944444 49:-1 50:-1 51:1 52:-0.976048 53:-0.0990584 54:-1 55:-1 56:-0.961538 57:-0.999941 58:-0.984962 59:-0.998717 60:-0.983193 
32 1:-1 2:-0.903226 3:-0.871508 4:-0.637566 5:-0.999969 6:-0.805556 7:-0.999108 8:-0.71813 9:-0.999559 10:-0.999935 11:-0.866917 12:-1 13:-0.637566 14:-0.908066 15:0.0857143 16:-0.860465 17:-0.998144 18:-0.908066 19:-0.85034 20:-0.762376 21:-0.998317 22:-1 23:-0.998317 24:-0.999769 25:-0.913361 26:-0.232504 27:-1 28:-0.714113 29:-1 30:-0.9 31:-0.8 32:-0.8327 33:-0.846154 34:-1 35:-0.865672 36:-0.5625 37:-0.120472 38:-0.771552 39:-0.998998 40:-0.61747 41:-1 42:-0.8327 43:-0.9 45:-0.462687 46:-0.998819 47:-0.777778 48:-0.637566 49:-1 50:-0.999969 51:1 52:-0.94012 53:-0.290492 54:-1 55:-1 56:-0.634615 57:-0.999979 58:-0.601504 59:-0.998118 60:-0.747899 
-32 1:-1 2:-0.645161 3:-0.865922 4:-0.804233 5:-0.999848 6:-0.828704 7:-0.999044 8:-0.858357 9:-0.999442 10:-0.999942 11:-0.921174 12:-1 13:-0.804233 14:-0.912402 15:-0.998461 16:-0.953488 17:-0.998141 18:-0.912402 19:-0.931973 20:-0.960396 21:-1 22:-1 23:-1 24:-0.999218 25:-0.807739 26:-0.343055 27:-1 28:-0.640531 29:-1 30:-0.94 31:-1 32:-0.574144 33:-0.435897 34:-1 35:-0.925373 36:-0.625 37:-0.202448 38:-0.875 39:-0.99874 40:-0.825301 41:-1 42:-0.574144 43:-0.94 45:-0.970149 46:-0.998586 47:-1 48:-0.804233 49:-1 50:-0.999848 51:1 52:-0.928144 53:-0.253062 54:-1 55:-1 56:-0.826923 57:-1 58:-0.87218 59:-0.998695 60:-0.89916 
-32 1:-1 2:-1 3:-0.743017 4:-0.695767 5:-1 6:-0.805556 7:-0.99929 8:-0.780453 9:-0.999491 10:-0.999929 11:-0.868282 12:-1 13:-0.695767 14:-0.901995 15:-0.998842 16:-0.813953 17:-0.997244 18:-0.901995 19:-0.70068 20:-0.821782 21:-1 22:-0.764706 23:-1 24:-0.999818 25:-0.880263 26:-0.318399 27:-1 28:-0.705669 29:-1 30:-0.9 31:-0.733333 32:-0.878327 33:-1 34:-1 35:-0.620469 36:-0.625 37:-0.134344 38:-0.762931 39:-0.998956 40:-0.61747 41:-1 42:-0.878327 43:-0.9 45:-0.850746 46:-0.998979 47:-0.925926 48:-0.695767 49:-1 50:-1 51:1 52:-0.592814 53:-0.398424 54:-0.882353 55:-1 56:-0.581731 57:-1 58:-0.714286 59:-0.998281 60:-0.781513 
-1.408493006045489 1:-0.714286 2:-0.903226 3:0.357542 4:0.15873 5:-0.0827594 6:0.00925926 7:-0.999128 8:-0.311615 9:-0.999851 10:-0.999763 11:-0.454018 12:-1 13:0.15873 14:-0.894189 15:-0.998827 16:0.44186 17:-0.997607 18:-0.894189 19:-0.0612245 20:0.485149 21:-0.946151 22:0.411765 23:-0.946151 24:-0.0736877 25:-0.726941 26:-0.414761 27:-1 28:0.0711701 29:-1 30:-0.88 31:-0.8 32:-0.977186 33:-0.846154 34:-1 35:0.592751 36:-0.5625 37:0.659828 38:0.00431034 39:-0.998878 40:0.256024 41:-1 42:-0.977186 43:-0.88 45:-0.104478 46:-0.998763 47:-0.703704 48:0.15873 49:-1 50:-0.0827594 51:1 52:0.413174 53:-0.302511 54:0.411765 55:-1 56:0.798077 57:-0.999803 58:0.300752 59:-0.998241 60:-0.495798 
32 1:-1 2:-0.967742 3:-0.994413 4:-0.970899 5:-0.999895 6:-0.976852 7:-0.999178 8:-0.978754 9:-0.998789 10:-0.999996 11:-0.98635 12:-1 13:-0.970899 14:-0.974848 15:-0.998714 16:-1 17:-0.997639 18:-0.974848 19:-0.972789 20:-1 21:-1 22:-1 23:-1 24:-0.999472 25:-0.947919 26:-0.304368 27:-1 28:-0.958987 29:-1 30:-1 31:-1 32:-0.961977 33:-0.948718 34:-1 35:-0.985075 36:-0.875 37:-0.684939 38:-0.978448 39:-0.998893 40:-0.972892 41:-1 42:-0.961977 43:-1 45:-0.970149 46:-0.998842 47:-1 48:-0.970899 49:-1 50:-0.999895 51:1 52:-0.988024 53:-0.332117 54:-1 55:-1 56:-0.995192 57:-1 58:-0.969925 59:-0.997941 60:-0.915966 
-32 1:-1 2:-0.419355 3:-0.916201 4:-0.78836 5:-0.999738 6:-0.893519 7:-0.999147 8:-0.856941 9:-0.998634 10:-0.999954 11:-0.920833 12:-1 13:-0.78836 14:-0.796184 15:-0.998499 16:-0.953488 17:-0.99762 18:-0.796184 19:-0.877551 20:-0.920792 21:-0.978965 22:-1 23:-0.978965 24:-0.99975 25:-0.876856 26:-0.334991 27:-1 28:-0.841978 29:-1 30:-1 31:-1 32:-0.870722 33:-0.0769231 34:-1 35:-0.93177 36:-0.5625 37:-0.222455 38:-0.965517 39:-0.998797 40:-0.849398 41:-1 42:-0.870722 43:-1 45:-1 46:-0.99877 47:-0.925926 48:-0.78836 49:-1 50:-0.999738 51:1 52:-0.94012 53:-0.314154 54:-1 55:-1 56:-0.875 57:-0.999635 58:-0.902256 59:-0.998662 60:-0.831933 
32 1:-0.714286 2:-0.645161 3:-0.731844 4:-0.5 5:-0.999926 6:-0.550926 7:-0.999099 8:-0.675637 9:-0.999123 10:-0.999935 11:-0.789114 12:-1 13:-0.5 14:-0.717259 15:-0.998817 16:-0.72093 17:-0.997731 18:-0.717259 19:-0.836735 20:-0.861386 21:-1 22:-0.882353 23:-1 24:-0.999823 25:-0.790217 26:-0.299859 27:-1 28:-0.48854 29:-1 30:-0.88 31:-0.933333 32:-0.802281 33:-0.435897 34:-1 35:-0.850746 36:-0.3125 37:0.104071 38:-0.642241 39:-0.998828 40:-0.304217 41:-1 42:-0.802281 43:-0.88 45:-0.343284 46:-0.998781 47:0.111111 48:-0.5 49:-1 50:-0.999926 51:1 52:-0.844311 53:-0.2854 54:-0.882353 55:-1 56:-0.5 57:-1 58:-0.218045 59:-0.998445 60:-0.327731 
-32 1:-1 2:-1 3:-0.977654 4:-0.939153 5:-1 6:-0.925926 7:-0.999258 8:-0.961756 9:-0.999481 10:-0.999984 11:-0.974066 12:-1 13:-0.939153 14:-0.983521 15:-0.99902 16:-1 17:-0.997283 18:-0.983521 19:-0.986395 20:-0.980198 21:-0.991586 22:-1 23:-0.991586 24:-1 25:-0.954247 26:-0.346993 27:-1 28:-0.937274 29:-1 30:-1 31:-1 32:-1 33:-1 34:-1 35:-0.959488 36:-0.75 37:-0.619851 38:-0.952586 39:-0.999047 40:-0.945783 41:-1 42:-1 43:-1 45:-0.940299 46:-0.999002 47:-0.851852 48:-0.939153 49:-1 50:-1 51:1 52:-1 53:-0.379629 54:-1 55:-1 56:-0.956731 57:-0.999313 58:-0.954887 59:-0.997983 60:-0.932773 
-32 1:-1 2:-0.806452 3:-0.620112 4:-0.539683 5:-0.999957 6:-0.615741 7:-0.999008 8:-0.71813 9:-0.999267 10:-0.999943 11:-0.761474 12:-1 13:-0.539683 14:-0.778838 15:0.36 16:-0.627907 17:-0.997591 18:-0.778838 19:-0.605442 20:-0.782178 21:-0.981489 22:-0.764706 23:-0.981489 24:-0.999935 25:-0.736189 26:-0.390624 27:-1 28:-0.597105 29:-1 30:-0.88 31:-0.866667 32:-0.931559 33:-0.692308 34:-1 35:-0.545842 36:-0.25 37:0.103752 38:-0.551724 39:-0.998799 40:-0.487952 41:-1 42:-0.931559 43:-0.88 45:-0.820896 46:-0.998741 47:-1 48:-0.539683 49:-1 50:-0.999957 51:1 52:-0.736527 53:-0.231656 54:-0.764706 55:-1 56:-0.509615 57:-0.999841 58:-0.601504 59:0.529412 60:-0.848739 
32 1:-1 2:-1 3:-1 4:-0.997354 5:-1 6:-1 7:-0.999105 8:-0.997167 9:-0.998118 10:-0.999998 11:-0.999659 12:-1 13:-0.997354 14:-0.994796 15:-0.999238 16:-1 17:-0.999138 18:-0.994796 19:-0.986395 20:-1 21:-1 22:-1 23:-1 24:-1 25:-0.991239 26:-0.343934 27:-1 28:-0.997587 29:-1 30:-1 31:-1 32:-1 33:-1 34:-1 35:-0.997868 36:-0.9375 37:-0.857761 38:-1 39:-0.999191 40:-0.996988 41:-1 42:-1 43:-1 45:-1 46:-0.998577 47:-1 48:-0.997354 49:-1 50:-1 51:1 52:-1 53:-0.289205 54:-1 55:-1 56:-1 57:-1 58:-1 59:-0.996863 60:-1 
-32 1:-1 2:-0.967742 3:-0.988827 4:-0.978836 5:-0.999852 6:-0.976852 7:-0.999033 8:-0.988669 9:-0.99858 10:-1 11:-0.992493 12:-1 13:-0.978836 14:-0.979185 15:-0.999238 16:-1 17:-0.997858 18:-0.979185 19:-0.972789 20:-0.980198 21:-1 22:-1 23:-1 24:-0.999551 25:-0.959114 26:-0.314122 27:-1 28:-0.973462 29:-1 30:-1 31:-1 32:-0.977186 33:-0.948718 34:-1 35:-0.978678 36:-1 37:-0.727956 38:-0.99569 39:-0.99868 40:-0.966867 41:-1 42:-0.977186 43:-1 45:-1 46:-0.998652 47:-0.925926 48:-0.978836 49:-1 50:-0.999852 51:1 52:-0.976048 53:-0.246107 54:-1 55:-1 56:-0.980769 57:-1 58:-0.984962 59:-0.997908 60:-1 
32 1:-0.714286 2:-0.806452 3:-0.75419 4:-0.677249 5:-0.999925 6:-0.685185 7:-0.999262 8:-0.746459 9:-0.999372 10:-0.999953 11:-0.870671 12:-1 13:-0.677249 14:-0.89072 15:-0.998921 16:-0.837209 17:-0.997522 18:-0.89072 19:-0.768707 20:-0.683168 21:-0.983172 22:-0.764706 23:-0.983172 24:-0.999748 25:-0.88513 26:-0.360859 27:-1 28:-0.718938 29:-1 30:-0.96 31:-1 32:-0.847909 33:-0.692308 34:-1 35:-0.833689 36:-0.5 37:-0.171815 38:-0.741379 39:-0.99917 40:-0.804217 41:-1 42:-0.847909 43:-0.96 45:-0.641791 46:-0.999001 47:-0.777778 48:-0.677249 49:-1 50:-0.999925 51:1 52:-0.916168 53:-0.382352 54:-0.764706 55:-1 56:-0.735577 57:-0.99975 58:-0.691729 59:-0.998144 60:-0.798319 
20.23830827403146 1:-0.714286 2:-0.935484 3:-0.821229 4:-0.761905 5:-0.999966 6:-0.703704 7:-0.999146 8:-0.86119 9:-0.99928 10:-0.999954 11:-0.910595 12:-1 13:-0.761905 14:-0.907199 15:-0.998823 16:-0.813953 17:-0.997831 18:-0.907199 19:-0.768707 20:-0.821782 21:-0.973075 22:-0.764706 23:-0.973075 24:-0.999813 25:-0.90606 26:-0.328228 27:-1 28:-0.819059 29:-1 30:-1 31:-0.933333 32:-0.91635 33:-0.897436 34:-1 35:-0.716418 36:-0.625 37:-0.28086 38:-0.762931 39:-0.998917 40:-0.762048 41:-1 42:-0.91635 43:-1 45:-0.761194 46:-0.998785 47:-0.62963 48:-0.761905 49:-1 50:-0.999966 51:1 52:-0.868263 53:-0.31315 54:-0.764706 55:-1 56:-0.778846 57:-0.999459 58:-0.744361 59:-0.998479 60:-0.747899 
-32 1:-1 2:-1 3:-0.955307 4:-0.915344 5:-1 6:-0.953704 7:-0.998789 8:-0.954674 9:-0.999734 10:-0.999995 11:-0.967582 12:-1 13:-0.915344 14:-0.98699 15:-0.998753 16:-0.953488 17:-0.998594 18:-0.98699 19:-0.945578 20:-0.960396 21:-0.999159 22:-1 23:-0.999159 24:-0.999596 25:-0.946459 26:-0.0659365 27:-1 28:-0.927624 29:-1 30:-1 31:-0.933333 32:-0.931559 33:-1 34:-1 35:-0.96162 36:-0.875 37:-0.561182 38:-0.926724 39:-0.998571 40:-0.939759 41:-1 42:-0.931559 43:-1 45:-0.910448 46:-0.998559 47:-0.62963 48:-0.915344 49:-1 50:-1 51:1 52:-0.988024 53:-0.101416 54:-1 55:-1 56:-0.9375 57:-0.999955 58:-0.864662 59:-0.998289 60:-0.915966 
32 1:-1 2:-1 3:-0.949721 4:-0.915344 5:-1 6:-0.944444 7:-0.998843 8:-0.953258 9:-0.999475 10:-0.999982 11:-0.955298 12:-1 13:-0.915344 14:-0.969644 15:-0.998992 16:-0.883721 17:-0.998205 18:-0.969644 19:-0.931973 20:-0.861386 21:-0.998317 22:-1 23:-0.998317 24:-1 25:-0.90752 26:-0.278834 27:-1 28:-0.921592 29:-1 30:-1 31:-1 32:-1 33:-1 34:-1 35:-0.886994 36:-0.5625 37:-0.506406 38:-0.974138 39:-0.998599 40:-0.933735 41:-1 42:-1 43:-1 45:-1 46:-0.998534 47:-1 48:-0.915344 49:-1 50:-1 51:1 52:-0.916168 53:-0.133731 54:-1 55:-1 56:-0.913462 57:-0.999925 58:-0.954887 59:-0.998062 60:-0.966387 
18.16564392058884 1:-0.714286 2:-1 3:0.111732 4:0.187831 5:-1 6:-0.0509259 7:-0.998743 8:-0.209632 9:-0.999846 10:-0.939966 11:-0.460843 12:-1 13:0.187831 14:-0.870772 15:-0.998777 16:-0.348837 17:-0.998838 18:-0.870772 19:-0.428571 20:-0.227723 21:-0.99411 22:-0.529412 23:-0.99411 24:-0.999895 25:-0.751764 26:-0.0975466 27:-1 28:0.197829 29:-1 30:-0.76 31:-0.266667 32:-0.695817 33:-1 34:-1 35:-0.15565 36:1 37:0.683696 38:0.74569 39:-0.998591 40:0.728916 41:-1 42:-0.695817 43:-0.76 45:0.134328 46:-0.99848 47:0.185185 48:0.187831 49:-1 50:-1 51:1 52:-0.221557 53:-0.074577 54:-0.529412 55:-1 56:0.25 57:0.819642 58:0.714286 59:-0.998367 60:-0.327731 
-32 1:-1 2:-0.967742 3:-0.826816 4:-0.785714 5:0.48737 6:-0.796296 7:-0.999051 8:-0.868272 9:-0.999608 10:-0.999971 11:-0.896605 12:-1 13:-0.785714 14:-0.942758 15:-0.998881 16:-0.906977 17:-0.997778 18:-0.942758 19:-0.85034 20:-0.841584 21:-0.993269 22:-0.882353 23:-0.993269 24:-0.999775 25:-0.88513 26:-0.282413 27:-1 28:-0.761158 29:-1 30:-0.98 31:-1 32:-0.885932 33:-0.948718 34:-1 35:-0.769723 36:-0.3125 37:-0.242708 38:-0.827586 39:-0.998705 40:-0.768072 41:-1 42:-0.885932 43:-0.98 45:-0.880597 46:-0.998711 47:-0.555556 48:-0.785714 49:-1 50:0.48737 51:1 52:-0.844311 53:-0.257155 54:-0.882353 55:-1 56:-0.721154 57:-0.99988 58:-0.714286 59:-0.998248 60:-0.865546 
-32 1:-0.142857 2:-1 3:-0.413408 4:-0.439153 5:-1 6:-0.578704 7:-0.999039 8:-0.609065 9:-0.999409 10:-0.999915 11:-0.742024 12:-1 13:-0.439153 14:-0.786644 15:-0.998779 16:-0.790698 17:-0.998168 18:-0.786644 19:-0.70068 20:-0.544554 21:-0.875473 22:-0.882353 23:-0.875473 24:-0.999909 25:-0.789243 26:-0.324824 27:-1 28:-0.462002 29:-1 30:-0.96 31:-0.933333 32:-0.885932 33:-1 34:-1 35:-0.460554 36:-0.4375 37:0.168326 38:-0.603448 39:-0.998919 40:-0.424699 41:-1 42:-0.885932 43:-0.96 45:-0.731343 46:-0.998694 47:-0.703704 48:-0.439153 49:-1 50:-1 51:1 52:-0.712575 53:-0.250107 54:-0.882353 55:-1 56:-0.5 57:-0.999107 58:-0.646617 59:-0.998284 60:-0.781513 
-32 1:-1 2:-0.83871 3:-0.905028 4:-0.727513 5:-0.999918 6:-0.810185 7:-0.999448 8:-0.793201 9:-0.999287 10:-0.965544 11:-0.913667 12:-1 13:-0.727513 14:-0.905464 15:-0.998803 16:-0.930233 17:-0.997191 18:-0.905464 19:-0.945578 20:-0.861386 21:-0.979806 22:-0.882353 23:-0.979806 24:-1 25:-0.877829 26:-0.595643 27:-1 28:-0.769602 29:-1 30:-1 31:-0.8 32:-1 33:-0.74359 34:-1 35:-0.889126 36:-0.5 37:-0.223531 38:-0.905172 39:-0.999421 40:-0.798193 41:-1 42:-1 43:-1 45:-0.940299 46:-0.999068 47:-0.851852 48:-0.727513 49:-1 50:-0.999918 51:1 52:-0.94012 53:-0.492053 54:-0.882353 55:-1 56:-0.817308 57:-0.999606 58:-0.819549 59:-0.998559 60:-0.781513 
7.147043042128477 1:-1 2:-0.967742 3:-0.98324 4:-0.944444 5:-0.999924 6:-0.990741 7:-0.999403 8:-0.963173 9:-0.998569 10:-0.999991 11:-0.982256 12:-1 13:-0.944444 14:-0.959237 15:-0.998984 16:-0.976744 17:-0.997336 18:-0.959237 19:-0.986395 20:-0.920792 21:-1 22:-0.882353 23:-1 24:-0.999769 25:-0.961548 26:-0.45414 27:-1 28:-0.952955 29:-1 30:-0.98 31:-0.866667 32:-0.977186 33:-0.948718 34:-1 35:-0.96162 36:-0.8125 37:-0.630082 38:-0.991379 39:-0.999198 40:-0.918675 41:-1 42:-0.977186 43:-0.98 45:-1 46:-0.998998 47:-1 48:-0.944444 49:-1 50:-0.999924 51:1 52:-0.976048 53:-0.465886 54:-0.882353 55:-1 56:-0.966346 57:-1 58:-0.969925 59:-0.998431 60:-0.983193 
-32 1:-1 2:-0.354839 3:-0.798883 4:-0.460317 5:-0.999868 6:-0.421296 7:-0.999026 8:-0.691218 9:-0.999332 10:-0.999919 11:-0.760109 12:-1 13:-0.460317 14:-0.780572 15:-0.9988 16:-0.697674 17:-0.998021 18:-0.780572 19:-0.85034 20:-0.425743 21:-0.936895 22:-1 23:-0.936895 24:-0.999806 25:-0.802385 26:-0.369176 27:-1 28:-0.408926 29:-1 30:-1 31:-1 32:-0.779468 33:0.025641 34:-1 35:-0.82516 36:-0.4375 37:0.137341 38:-0.762931 39:-0.998803 40:-0.481928 41:-1 42:-0.779468 43:-1 45:-0.731343 46:-0.998637 47:-0.703704 48:-0.460317 49:-1 50:-0.999868 51:1 52:-0.94012 53:-0.242026 54:-1 55:-1 56:-0.658654 57:-0.999502 58:-0.609023 59:-0.998238 60:-0.310924 
-32 1:-1 2:-0.903226 3:-0.905028 4:-0.84127 5:-0.999932 6:-0.856481 7:-0.999228 8:-0.90085 9:-0.999726 10:-0.999971 11:-0.940624 12:-1 13:-0.84127 14:-0.973981 15:-0.998841 16:-0.837209 17:-0.997601 18:-0.973981 19:-0.945578 20:-0.90099 21:-0.999159 22:-0.882353 23:-0.999159 24:-1 25:-0.913848 26:-0.254116 27:-1 28:-0.816647 29:-1 30:-0.98 31:-0.933333 32:-1 33:-0.846154 34:-1 35:-0.921109 36:-0.625 37:-0.387452 38:-0.814655 39:-0.998835 40:-0.849398 41:-1 42:-1 43:-0.98 45:-0.820896 46:-0.998855 47:-1 48:-0.84127 49:-1 50:-0.999932 51:1 52:-0.952096 53:-0.362093 54:-0.882353 55:-1 56:-0.860577 57:-0.999977 58:-0.902256 59:-0.99821 60:-0.781513 
32 1:-1 2:-1 3:-0.854749 4:-0.862434 5:-1 6:-0.805556 7:-0.999182 8:-0.910765 9:-0.999246 10:-0.99997 11:-0.937212 12:-1 13:-0.862434 14:-0.93582 15:-0.999 16:-0.744186 17:-0.997442 18:-0.93582 19:-0.877551 20:-0.821782 21:-0.982331 22:-0.647059 23:-0.982331 24:-1 25:-0.903139 26:-0.46438 27:-1 28:-0.862485 29:-1 30:-0.98 31:-0.933333 32:-1 33:-1 34:-1 35:-0.791045 36:-0.625 37:-0.389439 38:-0.887931 39:-0.999008 40:-0.861446 41:-1 42:-1 43:-0.98 45:-1 46:-0.998849 47:-0.925926 48:-0.862434 49:-1 50:-1 51:1 52:-0.856287 53:-0.334765 54:-0.647059 55:-1 56:-0.817308 57:-0.999462 58:-0.909774 59:-0.998162 60:-0.94958 
32 1:-0.714286 2:-0.870968 3:-0.793296 4:-0.743386 5:-0.999952 6:-0.791667 7:-0.999168 8:-0.803116 9:-0.999356 10:-0.999949 11:-0.880566 12:-1 13:-0.743386 14:-0.882914 15:-0.998661 16:-0.883721 17:-0.997932 18:-0.882914 19:-0.70068 20:-0.861386 21:-0.991586 22:-1 23:-0.991586 24:-0.999493 25:-0.871502 26:-0.189013 27:-1 28:-0.729795 29:-1 30:-0.98 31:-0.733333 32:-0.680608 33:-0.794872 34:-1 35:-0.707889 36:-0.5 37:-0.179034 38:-0.844828 39:-0.998798 40:-0.644578 41:-1 42:-0.680608 43:-0.98 45:-0.820896 46:-0.998788 47:-0.777778 48:-0.743386 49:-1 50:-0.999952 51:1 52:-0.676647 53:-0.326117 54:-0.764706 55:-1 56:-0.735577 57:-0.99988 58:-0.804511 59:-0.998487 60:-0.882353 
-32 1:-1 2:-1 3:-0.927374 4:-0.592593 5:-1 6:-0.523148 7:-0.999128 8:-0.740793 9:-0.999586 10:-0.999899 11:-0.839959 12:-1 13:-0.592593 14:-0.908933 15:-0.998857 16:-0.953488 17:-0.998007 18:-0.908933 19:-0.931973 20:-0.683168 21:-0.893984 22:-1 23:-0.893984 24:-0.9999 25:-0.875395 26:-0.292152 27:-1 28:-0.638118 29:-1 30:-1 31:-1 32:-0.923954 33:-1 34:-1 35:-0.865672 36:-0.6875 37:-0.0854684 38:-0.836207 39:-0.998961 40:-0.575301 41:-1 42:-0.923954 43:-1 45:-0.970149 46:-0.998788 47:-0.851852 48:-0.592593 49:-1 50:-1 51:1 52:-0.976048 53:-0.302568 54:-1 55:-1 56:-0.735577 57:-0.99875 58:-0.774436 59:-0.998312 60:-0.630252 
32 1:-1 2:-0.709677 3:-0.575419 4:-0.214286 5:-0.999965 6:-0.291667 7:-0.99906 8:-0.399433 9:-0.999614 10:-0.999861 11:-0.676164 12:-1 13:-0.214286 14:-0.784909 15:-0.998817 16:-0.72093 17:-0.998063 18:-0.784909 19:-0.823129 20:-0.70297 21:-0.860328 22:-0.882353 23:-0.860328 24:-0.999866 25:-0.750304 26:-0.227798 27:-1 28:-0.266586 29:-1 30:-0.98 31:-0.933333 32:-0.741445 33:-0.538462 34:-1 35:-0.688699 36:-0.4375 37:0.414637 38:-0.357759 39:-0.998826 40:-0.144578 41:-1 42:-0.741445 43:-0.98 45:-0.492537 46:-0.998739 47:-0.777778 48:-0.214286 49:-1 50:-0.999965 51:1 52:-0.700599 53:-0.262091 54:-0.882353 55:-1 56:-0.375 57:-0.999351 58:-0.406015 59:-0.99814 60:-0.647059 
32 1:-1 2:-0.870968 3:-0.536313 4:-0.404762 5:-0.99998 6:-0.310185 7:-0.998822 8:-0.66289 9:-0.999624 10:-0.999906 11:-0.685378 12:-1 13:-0.404762 14:-0.837814 15:-0.998747 16:-0.44186 17:-0.998163 18:-0.837814 19:-0.755102 20:-0.465347 21:-0.956247 22:-0.882353 23:-0.956247 24:-0.999797 25:-0.802385 26:-0.238019 27:-1 28:-0.160434 29:-1 30:-0.84 31:-0.733333 32:-0.695817 33:-0.794872 34:-1 35:-0.351812 36:-0.375 37:0.259783 38:-0.517241 39:-0.998497 40:-0.304217 41:-1 42:-0.695817 43:-0.84 45:-0.164179 46:-0.998518 47:-0.703704 48:-0.404762 49:-1 50:-0.99998 51:1 52:-0.652695 53:-0.12098 54:-0.882353 55:-1 56:-0.221154 57:-0.999737 58:-0.413534 59:-0.998326 60:-0.361345 
32 1:-1 2:-0.516129 3:-0.73743 4:-0.185185 5:-0.999927 6:-0.523148 7:-0.999443 8:-0.305949 9:-0.998915 10:-0.999909 11:-0.70244 12:-1 13:-0.185185 14:-0.516912 15:-0.998673 16:-0.883721 17:-0.997526 18:-0.516912 19:-0.836735 20:-0.683168 21:-0.769457 22:-0.882353 23:-0.769457 24:-0.999552 25:-0.76588 26:-0.489337 27:-1 28:-0.285887 29:-1 30:-0.88 31:-0.733333 32:-0.307985 33:-0.230769 34:-1 35:-0.722814 36:-0.3125 37:0.333515 38:-0.577586 39:-0.999334 40:-0.349398 41:-1 42:-0.307985 43:-0.88 45:-0.731343 46:-0.999003 47:-1 48:-0.185185 49:-1 50:-0.999927 51:1 52:-0.712575 53:-0.489106 54:-0.764706 55:-1 56:-0.394231 57:-0.998659 58:-0.729323 59:-0.998495 60:-0.428571 
29.98878479258877 1:-1 2:-0.967742 3:-0.994413 4:-0.984127 5:-0.99984 6:-0.986111 7:-0.998896 8:-0.990085 9:-0.998915 10:-1 11:-0.994199 12:-1 13:-0.984127 14:-0.985256 15:-0.998857 16:-1 17:-0.998345 18:-0.985256 19:-1 20:-1 21:-1 22:-1 23:-1 24:-0.999033 25:-0.97469 26:0.313073 27:-1 28:-0.973462 29:-1 30:-1 31:-1 32:-0.954373 33:-0.948718 34:-1 35:-0.995736 36:-1 37:-0.761692 38:-0.99569 39:-0.998107 40:-0.972892 41:-1 42:-0.954373 43:-1 45:-1 46:-0.998632 47:-1 48:-0.984127 49:-1 50:-0.99984 51:1 52:-1 53:-0.165002 54:-1 55:-1 56:-0.990385 57:-1 58:-0.977444 59:0.764706 60:-0.94958 
-32 1:-1 2:-1 3:-0.994413 4:-0.986772 5:-1 6:-1 7:-0.999097 8:-0.992918 9:-0.997878 10:-0.999997 11:-0.994199 12:-1 13:-0.986772 14:-0.982654 15:-0.998857 16:-1 17:-0.997632 18:-0.982654 19:-1 20:-0.960396 21:-1 22:-1 23:-1 24:-0.999732 25:-0.984424 26:-0.34773 27:-1 28:-0.987937 29:-1 30:-0.98 31:-1 32:-0.992395 33:-1 34:-1 35:-0.991471 36:-0.9375 37:-0.783275 38:-1 39:-0.99888 40:-0.98494 41:-1 42:-0.992395 43:-0.98 45:-1 46:-0.998805 47:-1 48:-0.986772 49:-1 50:-1 51:1 52:-0.988024 53:-0.284127 54:-1 55:-1 56:-1 57:-1 58:-1 59:-0.998431 60:-1 
-32 1:-1 2:-0.967742 3:-1 4:-0.97619 5:-0.999854 6:-0.972222 7:-0.999268 8:-0.983003 9:-0.998776 10:-0.999993 11:-0.98908 12:-1 13:-0.97619 14:-0.981787 15:-0.998242 16:-1 17:-0.998168 18:-0.981787 19:-0.931973 20:-0.960396 21:-1 22:-1 23:-1 24:-1 25:-0.97907 26:-0.350041 27:-1 28:-0.99035 29:-1 30:-1 31:-1 32:-1 33:-0.948718 34:-1 35:-0.985075 36:-0.9375 37:-0.727461 38:-0.99569 39:-0.999056 40:-0.972892 41:-1 42:-1 43:-1 45:-1 46:-0.998757 47:-1 48:-0.97619 49:-1 50:-0.999854 51:1 52:-1 53:-0.385685 54:-1 55:-1 56:-0.980769 57:-1 58:-0.992481 59:-0.998914 60:-1 
32 1:-0.714286 2:-0.83871 3:-0.731844 4:-0.388889 5:-0.999979 6:-0.486111 7:-0.998857 8:-0.611898 9:-0.999501 10:-0.999909 11:-0.780925 12:-1 13:-0.388889 14:-0.741544 15:-0.99862 16:-0.627907 17:-0.999575 18:-0.741544 19:-0.795918 20:-0.742574 21:-0.951199 22:-0.882353 23:-0.951199 24:-0.999738 25:-0.731808 26:0.239939 27:-1 28:-0.462002 29:-1 30:-0.86 31:-0.4 32:-0.528517 33:-0.74359 34:-1 35:-0.801706 36:-0.1875 37:0.24721 38:-0.50431 39:-0.998085 40:-0.301205 41:-1 42:-0.528517 43:-0.86 45:-0.58209 46:-0.998224 47:-0.037037 48:-0.388889 49:-1 50:-0.999979 51:1 52:-0.688623 53:-0.142068 54:-0.647059 55:-1 56:-0.317308 57:-0.999756 58:-0.203008 59:-0.998597 60:-0.630252 
32 1:-1 2:-0.774194 3:-0.631285 4:-0.494709 5:-0.999963 6:-0.481481 7:-0.998871 8:-0.684136 9:-0.998977 10:-0.999939 11:-0.768981 12:-1 13:-0.494709 14:-0.579358 15:-0.998684 16:-0.651163 17:-0.998068 18:-0.579358 19:-0.85034 20:-0.683168 21:-0.930164 22:-1 23:-0.930164 24:-0.999685 25:-0.671453 26:-0.25252 27:-1 28:-0.448733 29:-1 30:-0.94 31:-1 32:-0.551331 33:-0.641026 34:-1 35:-0.714286 36:-0.0625 37:0.242614 38:-0.521552 39:-0.99847 40:-0.376506 41:-1 42:-0.551331 43:-0.94 45:-0.731343 46:-0.99852 47:-0.851852 48:-0.494709 49:-1 50:-0.999963 51:1 52:-0.664671 53:-0.150201 54:-1 55:-1 56:-0.355769 57:-0.99956 58:-0.526316 59:-0.99855 60:-0.613445 
-23.07228410921827 1:-1 2:0.16129 3:-0.709497 4:-0.10582 5:-0.999859 6:-0.578704 7:-0.999053 8:-0.429178 9:-0.998945 10:-0.999897 11:-0.685037 12:-1 13:-0.10582 14:-0.417173 15:-0.998738 16:-0.860465 17:-0.998099 18:-0.417173 19:-0.741497 20:-0.544554 21:-0.916702 22:-1 23:-0.916702 24:-0.999698 25:-0.716233 26:-0.268377 27:-1 28:-0.173703 29:-1 30:-0.92 31:-1 32:-0.422053 33:0.846154 34:-1 35:-0.782516 36:-0.25 37:0.427803 38:-0.668103 39:-0.998816 40:-0.0993976 41:-1 42:-0.422053 43:-0.92 45:-0.731343 46:-0.998694 47:0.037037 48:-0.10582 49:-1 50:-0.999859 51:1 52:-0.844311 53:-0.258097 54:-1 55:-1 56:-0.442308 57:-0.999609 58:-0.270677 59:-0.998369 60:-0.092437 
-32 1:-1 2:-1 3:-0.927374 4:-0.949735 5:-1 6:-0.907407 7:-0.999313 8:-0.961756 9:-0.998599 10:-0.999983 11:-0.982597 12:-1 13:-0.949735 14:-0.9549 15:-0.998776 16:-0.976744 17:-0.996838 18:-0.9549 19:-0.931973 20:-0.960396 21:-1 22:-1 23:-1 24:-0.999796 25:-0.934291 26:-0.447237 27:-1 28:-0.955368 29:-1 30:-0.96 31:-0.933333 32:-0.977186 33:-1 34:-1 35:-0.957356 36:-0.75 37:-0.607973 38:-0.952586 39:-0.999118 40:-0.927711 41:-1 42:-0.977186 43:-0.96 45:-1 46:-0.999094 47:-1 48:-0.949735 49:-1 50:-1 51:1 52:-0.976048 53:-0.41215 54:-1 55:-1 56:-0.956731 57:-1 58:-0.954887 59:-0.998151 60:-0.94958 
32 1:-1 2:-1 3:-1 4:-1 5:-1 6:-1 7:-0.999942 8:-0.998584 9:-0.998431 10:-1 11:-0.999659 12:-1 13:-1 14:-0.998265 15:-0.998857 16:-1 17:-0.997589 18:-0.998265 19:-1 20:-1 21:-1 22:-1 23:-1 24:-1 25:-1 26:-0.744038 27:-1 28:-0.998794 29:-1 30:-1 31:-1 32:-1 33:-1 34:-1 35:-1 36:-1 37:-0.887896 38:-1 39:-0.999814 40:-1 41:-1 42:-1 43:-1 45:-1 46:-0.999109 47:-1 48:-1 49:-1 50:-1 51:1 52:-1 53:-0.784918 54:-1 55:-1 56:-1 57:-1 58:-1 59:-0.997647 60:-1 
-32 1:-1 2:-0.83871 3:-0.776536 4:-0.669312 5:-0.999935 6:-0.453704 7:-0.999163 8:-0.79745 9:-0.99949 10:-0.999968 11:-0.884661 12:-1 13:-0.669312 14:-0.915004 15:-0.998873 16:-0.767442 17:-0.997801 18:-0.915004 19:-0.863946 20:-0.683168 21:-0.937737 22:-1 23:-0.937737 24:-0.999974 25:-0.889511 26:-0.300515 27:-1 28:-0.731001 29:-1 30:-0.96 31:-0.933333 32:-0.984791 33:-0.74359 34:-1 35:-0.793177 36:-0.3125 37:-0.195748 38:-0.728448 39:-0.998991 40:-0.76506 41:-1 42:-0.984791 43:-0.96 45:-0.552239 46:-0.998858 47:-0.925926 48:-0.669312 49:-1 50:-0.999935 51:1 52:-0.928144 53:-0.32354 54:-0.882353 55:-1 56:-0.697115 57:-0.999032 58:-0.706767 59:-0.998562 60:-0.865546 
-32 1:-1 2:-1 3:-0.905028 4:-0.814815 5:-1 6:-0.782407 7:-0.999464 8:-0.858357 9:-0.999439 10:-0.999956 11:-0.939942 12:-1 13:-0.814815 14:-0.94536 15:-0.998868 16:-0.860465 17:-0.997156 18:-0.94536 19:-0.823129 20:-0.920792 21:-0.999159 22:-1 23:-0.999159 24:-0.999865 25:-0.914334 26:-0.439957 27:-1 28:-0.808203 29:-1 30:-0.98 31:-0.933333 32:-0.954373 33:-1 34:-1 35:-0.878465 36:-0.6875 37:-0.358637 38:-0.87931 39:-0.999249 40:-0.816265 41:-1 42:-0.954373 43:-0.98 45:-0.970149 46:-0.999091 47:-0.62963 48:-0.814815 49:-1 50:-1 51:1 52:-0.928144 53:-0.501543 54:-1 55:-1 56:-0.826923 57:-0.999978 58:-0.774436 59:-0.998323 60:-0.865546 
32 1:-1 2:-1 3:-0.98324 4:-0.910053 5:-1 6:-0.949074 7:-0.99948 8:-0.913598 9:-0.998928 10:-0.999984 11:-0.978843 12:-1 13:-0.910053 14:-0.959237 15:-0.998673 16:-1 17:-0.99751 18:-0.959237 19:-0.972789 20:-0.940594 21:-0.984855 22:-1 23:-0.984855 24:-0.999021 25:-0.945486 26:-0.723425 27:-1 28:-0.936068 29:-1 30:-1 31:-1 32:-0.870722 33:-1 34:-1 35:-0.978678 36:-0.6875 37:-0.5527 38:-0.982759 39:-0.999743 40:-0.972892 41:-1 42:-0.870722 43:-1 45:-0.850746 46:-0.999092 47:-1 48:-0.910053 49:-1 50:-1 51:1 52:-0.988024 53:-0.511262 54:-1 55:-1 56:-0.975962 57:-0.998969 58:-0.947368 59:-0.998634 60:-0.966387 
32 1:-1 2:-1 3:-1 4:-0.997354 5:-1 6:-1 7:-0.999278 8:-0.998584 9:-0.998644 10:-1 11:-0.998976 12:-1 13:-0.997354 14:-0.997398 15:-1 16:-1 17:-0.99824 18:-0.997398 19:-1 20:-1 21:-1 22:-1 23:-1 24:-1 25:-0.992699 26:-0.175231 27:-1 28:-0.996381 29:-1 30:-1 31:-1 32:-1 33:-1 34:-1 35:-1 36:-1 37:-0.875603 38:-1 39:-0.998982 40:-1 41:-1 42:-1 43:-1 45:-1 46:-0.998828 47:-1 48:-0.997354 49:-1 50:-1 51:1 52:-1 53:-0.391625 54:-1 55:-1 56:-1 57:-1 58:-1 59:-1 60:-1 
32 1:-1 2:-0.806452 3:-0.893855 4:-0.791005 5:-0.99989 6:-0.680556 7:-0.999292 8:-0.849858 9:-0.999149 10:-0.999951 11:-0.91742 12:-1 13:-0.791005 14:-0.899393 15:-0.998889 16:-1 17:-0.997137 18:-0.899393 19:-0.891156 20:-0.980198 21:-1 22:-1 23:-1 24:-0.999963 25:-0.91044 26:-0.448696 27:-1 28:-0.726176 29:-1 30:-1 31:-1 32:-0.984791 33:-0.692308 34:-1 35:-0.906183 36:-0.6875 37:-0.287235 38:-0.883621 39:-0.999145 40:-0.840361 41:-1 42:-0.984791 43:-1 45:-0.940299 46:-0.999025 47:-0.703704 48:-0.791005 49:-1 50:-0.99989 51:1 52:-0.964072 53:-0.399852 54:-1 55:-1 56:-0.918269 57:-1 58:-0.857143 59:-0.997977 60:-0.697479 
-32 1:-1 2:-1 3:-0.972067 4:-0.94709 5:-1 6:-0.967593 7:-0.999211 8:-0.966006 9:-0.998783 10:-0.999996 11:-0.979526 12:-1 13:-0.94709 14:-0.967042 15:-0.998903 16:-1 17:-0.997636 18:-0.967042 19:-0.986395 20:-0.960396 21:-1 22:-1 23:-1 24:-0.999838 25:-0.963008 26:-0.336395 27:-1 28:-0.940893 29:-1 30:-1 31:-1 32:-0.984791 33:-1 34:-1 35:-0.989339 36:-0.9375 37:-0.647889 38:-1 39:-0.999077 40:-0.981928 41:-1 42:-0.984791 43:-1 45:-1 46:-0.998929 47:-1 48:-0.94709 49:-1 50:-1 51:1 52:-0.976048 53:-0.352062 54:-1 55:-1 56:-0.961538 57:-1 58:-1 59:-0.998118 60:-0.865546 
32 1:-1 2:-0.935484 3:-0.782123 4:-0.738095 5:-0.999972 6:-0.583333 7:-0.998974 8:-0.832861 9:-0.999505 10:-0.999914 11:-0.879202 12:-1 13:-0.738095 14:-0.92281 15:-0.998886 16:-0.976744 17:-0.998113 18:-0.92281 19:-0.768707 20:-0.742574 21:-0.972234 22:-1 23:-0.972234 24:0.406078 25:-0.884643 26:-0.276341 27:-1 28:-0.696019 29:-1 30:-1 31:-0.933333 32:-0.992395 33:-0.897436 34:-1 35:-0.776119 36:-0.75 37:-0.223685 38:-0.801724 39:-0.998871 40:-0.768072 41:-1 42:-0.992395 43:-1 45:-0.61194 46:-0.998716 47:-1 48:-0.738095 49:-1 50:-0.999972 51:1 52:-0.892216 53:-0.211184 54:-1 55:-1 56:-0.759615 57:-0.999539 58:-0.842105 59:-0.99822 60:-0.882353 
-32 1:-1 2:-1 3:-0.972067 4:-0.899471 5:-1 6:-0.949074 7:-0.999349 8:-0.916431 9:-0.999116 10:-0.999976 11:-0.964511 12:-1 13:-0.899471 14:-0.946227 15:-0.998514 16:-0.976744 17:-0.997476 18:-0.946227 19:-0.904762 20:-1 21:-1 22:-1 23:-1 24:-0.999604 25:-0.905086 26:-0.476923 27:-1 28:-0.921592 29:-1 30:-1 31:-1 32:-0.91635 33:-1 34:-1 35:-0.944563 36:-0.6875 37:-0.477955 38:-0.965517 39:-0.999247 40:-0.888554 41:-1 42:-0.91635 43:-1 45:-0.970149 46:-0.998971 47:-1 48:-0.899471 49:-1 50:-1 51:1 52:-0.976048 53:-0.433355 54:-1 55:-1 56:-0.961538 57:-1 58:-0.932331 59:-0.998588 60:-1 
32 1:-1 2:-0.935484 3:-0.905028 4:-0.875661 5:-0.999947 6:-0.87037 7:-0.999104 8:-0.915014 9:-0.999248 10:-0.97966 11:-0.93653 12:-1 13:-0.875661 14:-0.938422 15:-0.998726 16:-1 17:-0.997681 18:-0.938422 19:-0.945578 20:-0.980198 21:-0.98822 22:-1 23:-0.98822 24:-0.999599 25:-0.894378 26:-0.345821 27:-1 28:-0.844391 29:-1 30:-0.94 31:-1 32:-0.885932 33:-0.897436 34:-1 35:-0.940299 36:-0.5 37:-0.414053 38:-0.948276 39:-0.9989 40:-0.864458 41:-1 42:-0.885932 43:-0.94 45:-0.940299 46:-0.998804 47:-0.925926 48:-0.875661 49:-1 50:-0.999947 51:1 52:-0.88024 53:-0.288493 54:-1 55:-1 56:-0.9375 57:-0.999628 58:-0.894737 59:-0.998071 60:-0.882353 
-32 1:-1 2:-1 3:-0.899441 4:-0.888889 5:-1 6:-0.902778 7:-0.999196 8:-0.936261 9:-0.998613 10:-0.999954 11:-0.960075 12:-1 13:-0.888889 14:-0.910668 15:-0.998708 16:-0.930233 17:-0.997522 18:-0.910668 19:-0.891156 20:-0.980198 21:-0.997476 22:-0.882353 23:-0.997476 24:-0.999762 25:-0.92845 26:-0.444543 27:-1 28:-0.925211 29:-1 30:-0.96 31:-0.933333 32:-0.946768 33:-1 34:-1 35:-0.884861 36:-0.8125 37:-0.465841 38:-0.956897 39:-0.998944 40:-0.864458 41:-1 42:-0.946768 43:-0.96 45:-0.910448 46:-0.998804 47:-1 48:-0.888889 49:-1 50:-1 51:1 52:-0.892216 53:-0.343129 54:-0.882353 55:-1 56:-0.899038 57:-0.999898 58:-0.924812 59:-0.998159 60:-0.932773 
-32 1:-1 2:-1 3:-0.98324 4:-0.970899 5:-1 6:-0.976852 7:-0.99908 8:-0.981586 9:-0.999083 10:-0.99999 11:-0.988739 12:-1 13:-0.970899 14:-0.980919 15:-0.998367 16:-0.976744 17:-0.997866 18:-0.980919 19:-0.986395 20:-1 21:-0.996634 22:-1 23:-0.996634 24:-0.999789 25:-0.956194 26:-0.365272 27:-1 28:-0.967431 29:-1 30:-0.98 31:-1 32:-0.984791 33:-1 34:-1 35:-0.972281 36:-0.8125 37:-0.680803 38:-0.991379 39:-0.998813 40:-0.960843 41:-1 42:-0.984791 43:-0.98 45:-0.940299 46:-0.998689 47:-0.925926 48:-0.970899 49:-1 50:-1 51:1 52:-0.988024 53:-0.274369 54:-1 55:-1 56:-0.975962 57:-0.999581 58:-0.977444 59:-0.998992 60:-0.983193 
-32 1:-1 2:-0.935484 3:-0.977654 4:-0.915344 5:-0.999908 6:-0.967593 7:-0.999307 8:-0.932011 9:-0.999414 10:-0.999986 11:-0.971677 12:-1 13:-0.915344 14:-0.972246 15:-0.99888 16:-1 17:-0.997739 18:-0.972246 19:-0.986395 20:-0.960396 21:-0.99411 22:-0.882353 23:-0.99411 24:-0.999815 25:-0.927476 26:-0.353623 27:-1 28:-0.917973 29:-1 30:-1 31:-1 32:-0.969582 33:-0.897436 34:-1 35:-0.98081 36:-0.6875 37:-0.550468 38:-0.991379 39:-0.999172 40:-0.918675 41:-1 42:-0.969582 43:-1 45:-0.940299 46:-0.998948 47:-1 48:-0.915344 49:-1 50:-0.999908 51:1 52:-0.988024 53:-0.408708 54:-1 55:-1 56:-0.9375 57:-0.999678 58:-0.93985 59:-0.998367 60:-0.932773 
8.989883247193802 1:-1 2:-1 3:-0.916201 4:-0.703704 5:-1 6:-0.87963 7:-0.996955 8:-0.814448 9:-0.996691 10:-0.999883 11:-0.902747 12:-1 13:-0.703704 14:1 15:-0.998303 16:-0.930233 17:-0.999751 18:1 19:-0.986395 20:-0.920792 21:-0.999159 22:-1 23:-0.999159 24:-0.999967 25:-0.268435 26:-0.458259 27:-1 28:-0.507841 29:-1 30:-0.48 31:-1 32:-0.931559 33:-1 34:-1 35:-0.901919 36:-0.25 37:0.653614 38:-0.939655 39:-0.995974 40:-0.641566 41:-1 42:-0.931559 43:-0.48 45:-0.910448 46:-0.9966 47:-1 48:-0.703704 49:-1 50:-1 51:1 52:-0.808383 53:0.985425 54:-0.882353 55:-1 56:-0.908654 57:-0.639335 58:-0.631579 59:-0.998824 60:-0.865546 
-32 1:-1 2:-0.935484 3:-0.988827 4:-0.960317 5:-0.999792 6:-0.972222 7:-0.999387 8:-0.967422 9:-0.999294 10:-0.999983 11:-0.987033 12:-1 13:-0.960317 14:-0.985256 15:-0.999048 16:-1 17:-0.997069 18:-0.985256 19:-0.945578 20:-1 21:-1 22:-1 23:-1 24:-0.99979 25:-0.965928 26:-0.38268 27:-1 28:-0.966224 29:-1 30:-1 31:-1 32:-0.984791 33:-0.897436 34:-1 35:-0.987207 36:-0.875 37:-0.681214 38:-0.978448 39:-0.999244 40:-0.963855 41:-1 42:-0.984791 43:-1 45:-0.970149 46:-0.999159 47:-0.925926 48:-0.960317 49:-1 50:-0.999792 51:1 52:-0.988024 53:-0.456135 54:-1 55:-1 56:-0.975962 57:-1 58:-0.93985 59:-0.998431 60:-1 
32 1:-0.714286 2:-1 3:-0.960894 4:-0.883598 5:-1 6:-0.925926 7:-0.999085 8:-0.934844 9:-0.999353 10:-0.999971 11:-0.948473 12:-1 13:-0.883598 14:-0.955768 15:-0.998687 16:-0.930233 17:-0.997858 18:-0.955768 19:-0.931973 20:-0.861386 21:-1 22:-1 23:-1 24:-0.999904 25:-0.940131 26:-0.232518 27:-1 28:-0.879373 29:-1 30:-0.98 31:-0.933333 32:-0.977186 33:-1 34:-1 35:-0.914712 36:-0.75 37:-0.472559 38:-0.943966 39:-0.99873 40:-0.888554 41:-1 42:-0.977186 43:-0.98 45:-0.910448 46:-0.998737 47:-0.703704 48:-0.883598 49:-1 50:-1 51:1 52:-0.976048 53:-0.277208 54:-1 55:-1 56:-0.894231 57:-1 58:-0.857143 59:-0.998198 60:-0.848739 
-32 1:-1 2:-0.967742 3:-1 4:-0.992063 5:-0.999704 6:-0.99537 7:-0.998778 8:-0.995751 9:-0.998225 10:-0.999997 11:-0.993858 12:-1 13:-0.992063 14:-0.98699 15:-0.998857 16:-1 17:-0.998352 18:-0.98699 19:-1 20:-0.980198 21:-1 22:-1 23:-1 24:-0.999103 25:-0.975176 26:-0.310795 27:-1 28:-0.984318 29:-1 30:-1 31:-1 32:-0.977186 33:-0.948718 34:-1 35:-0.995736 36:-0.9375 37:-0.79271 38:-1 39:-0.998506 40:-0.993976 41:-1 42:-0.977186 43:-1 45:-1 46:-0.99842 47:-1 48:-0.992063 49:-1 50:-0.999704 51:1 52:-1 53:-0.0951388 54:-1 55:-1 56:-0.995192 57:-1 58:-1 59:-0.997647 60:-0.983193 
-32 1:-1 2:-1 3:-0.837989 4:-0.743386 5:-1 6:-0.777778 7:-0.999064 8:-0.84136 9:-0.998947 10:-0.999951 11:-0.872718 12:-1 13:-0.743386 14:-0.826539 15:-0.999029 16:-1 17:-0.997671 18:-0.826539 19:-0.959184 20:-0.940594 21:-0.957089 22:-1 23:-0.957089 24:-0.999947 25:-0.873935 26:-0.311356 27:-1 28:-0.731001 29:-1 30:-0.96 31:-1 32:-0.969582 33:-1 34:-1 35:-0.8742 36:-0.5625 37:-0.193824 38:-0.814655 39:-0.998794 40:-0.674699 41:-1 42:-0.969582 43:-0.96 45:-0.731343 46:-0.998771 47:-0.777778 48:-0.743386 49:-1 50:-1 51:1 52:-0.868263 53:-0.264405 54:-1 55:-1 56:-0.692308 57:-0.999325 58:-0.714286 59:-0.997668 60:-0.613445 
-32 1:-1 2:-0.967742 3:-0.648045 4:-0.690476 5:0.0384895 6:-0.717593 7:-0.99896 8:-0.811615 9:-0.999477 10:-0.999941 11:-0.863505 12:-1 13:-0.690476 14:-0.89072 15:-0.99884 16:-0.627907 17:-0.997667 18:-0.89072 19:-0.918367 20:-0.762376 21:-0.996634 22:-0.411765 23:-0.996634 24:-0.999853 25:-0.81212 26:-0.407923 27:-1 28:-0.545235 29:-1 30:-0.96 31:-0.933333 32:-0.893536 33:-0.948718 34:-1 35:-0.782516 36:-0.5 37:-0.0733858 38:-0.534483 39:-0.998782 40:-0.656627 41:-1 42:-0.893536 43:-0.96 45:-0.61194 46:-0.998698 47:-0.777778 48:-0.690476 49:-1 50:0.0384895 51:1 52:-0.60479 53:-0.202837 54:-0.411765 55:-1 56:-0.432692 57:-0.999958 58:-0.548872 59:-0.998068 60:-0.798319 
-27.7720729634122 1:-1 2:-0.935484 3:-0.826816 4:-0.626984 5:0.508268 6:-0.722222 7:-0.998932 8:-0.736544 9:-0.999141 10:-0.918696 11:-0.817437 12:-1 13:-0.626984 14:-0.752819 15:-0.998692 16:-0.883721 17:-0.998488 18:-0.752819 19:-0.836735 20:-0.663366 21:-0.981489 22:-1 23:-0.981489 24:-0.999467 25:-0.854466 26:-0.0713756 27:-1 28:-0.681544 29:-1 30:-0.94 31:-0.933333 32:-0.467681 33:-0.897436 34:-1 35:-0.686567 36:-0.5 37:-0.00399031 38:-0.87931 39:-0.998552 40:-0.650602 41:-1 42:-0.467681 43:-0.94 45:-0.850746 46:-0.998574 47:-0.777778 48:-0.626984 49:-1 50:0.508268 51:1 52:-0.820359 53:-0.186707 54:-1 55:-1 56:-0.596154 57:-0.999833 58:-0.796992 59:-0.998389 60:-0.848739 
32 1:-1 2:-1 3:-1 4:-0.997354 5:-1 6:-1 7:-0.999651 8:-0.998584 9:-0.999252 10:-1 11:-0.999318 12:-1 13:-0.997354 14:-0.998265 15:-0.998857 16:-1 17:-0.998807 18:-0.998265 19:-1 20:-1 21:-1 22:-1 23:-1 24:-0.999055 25:-0.991725 26:-0.333615 27:-1 28:-0.998794 29:-1 30:-1 31:-1 32:-0.992395 33:-1 34:-1 35:-1 36:-1 37:-0.864974 38:-1 39:-0.999023 40:-0.996988 41:-1 42:-0.992395 43:-1 45:-1 46:-0.998571 47:-1 48:-0.997354 49:-1 50:-1 51:1 52:-1 53:-0.612852 54:-1 55:-1 56:-1 57:-1 58:-1 59:-0.997647 60:-1 
32 1:-0.714286 2:-0.709677 3:-0.435754 4:0.103175 5:-0.67833 6:-0.287037 7:-0.99332 8:-0.0368272 9:-0.99998 10:-0.99842 11:0.407951 12:-1 13:0.103175 14:-0.875976 15:-0.998003 16:-0.813953 17:-1 18:-1 19:-1 20:-1 21:-1 22:-1 23:-1 24:-1 25:-1 26:-1 27:-1 28:-1 29:-1 30:-1 31:-1 32:-1 33:-1 34:-1 35:-1 36:-1 37:-1 38:-1 39:-1 40:-1 41:-1 42:-1 43:-1 45:-1 46:-1 47:-1 48:-1 49:-1 50:-1 51:-1 52:-1 53:-1 54:-1 55:-1 56:-1 57:-1 58:-1 59:-1 60:-1 
32 1:-1 2:-1 3:-0.810056 4:-0.708995 5:-1 6:-0.773148 7:-0.999288 8:-0.794618 9:-0.999056 10:-0.955105 11:-0.910254 12:-1 13:-0.708995 14:-0.843886 15:-0.998763 16:-0.837209 17:-0.997403 18:-0.843886 19:-0.904762 20:-0.861386 21:-0.968027 22:-0.882353 23:-0.968027 24:-0.999814 25:-0.857386 26:-0.425474 27:-1 28:-0.72497 29:-0.666667 30:-0.98 31:-0.933333 32:-0.893536 33:-1 34:-1 35:-0.842217 36:-0.5 37:-0.172391 38:-0.793103 39:-0.999111 40:-0.746988 41:-1 42:-0.893536 43:-0.98 45:-0.880597 46:-0.998948 47:-0.407407 48:-0.708995 49:-1 50:-1 51:1 52:-0.928144 53:-0.397587 54:-0.882353 55:-1 56:-0.826923 57:-0.999499 58:-0.676692 59:-0.998517 60:-0.781513 
-32 1:-1 2:-1 3:-0.776536 4:-0.719577 5:-1 6:-0.865741 7:-0.999188 8:-0.835694 9:-0.999218 10:-0.999948 11:-0.886709 12:-1 13:-0.719577 14:-0.888985 15:-0.998867 16:-0.883721 17:-0.997429 18:-0.888985 19:-0.70068 20:-0.80198 21:-0.972234 22:-0.647059 23:-0.972234 24:-0.999923 25:-0.889511 26:-0.451954 27:-1 28:-0.717732 29:-1 30:-0.96 31:-1 32:-0.961977 33:-1 34:-1 35:-0.692964 36:-0.625 37:-0.225689 38:-0.836207 39:-0.999079 40:-0.789157 41:-1 42:-0.961977 43:-0.96 45:-0.940299 46:-0.998902 47:-0.925926 48:-0.719577 49:-1 50:-1 51:1 52:-0.772455 53:-0.338056 54:-0.647059 55:-1 56:-0.735577 57:-0.999493 58:-0.819549 59:-0.99823 60:-0.89916 
-25.1721270541712 1:-1 2:-1 3:-0.98324 4:-0.793651 5:-1 6:-0.953704 7:-0.998804 8:-0.820113 9:-0.999803 10:-0.999871 11:-0.911278 12:-1 13:-0.793651 14:-0.966175 15:-0.998554 16:-1 17:-0.999201 18:-0.966175 19:-0.918367 20:-0.881188 21:-1 22:-1 23:-1 24:-0.999949 25:-0.782429 26:-0.112953 27:-1 28:-0.816647 29:-1 30:0.78 31:-1 32:-0.969582 33:-1 34:-1 35:-0.940299 36:-0.875 37:-0.221074 38:-0.952586 39:-0.998721 40:-0.777108 41:-1 42:-0.969582 43:0.78 45:-0.940299 46:-0.998443 47:-1 48:-0.793651 49:-1 50:-1 51:1 52:-0.976048 53:-0.11075 54:-1 55:-1 56:-0.908654 57:-1 58:-0.962406 59:-0.99864 60:-1 
32 1:-1 2:-1 3:-0.932961 4:-0.925926 5:-1 6:-0.930556 7:-0.998812 8:-0.951841 9:-0.999407 10:-0.999992 11:-0.961781 12:-1 13:-0.925926 14:-0.965308 15:-0.998759 16:-0.976744 17:-0.998398 18:-0.965308 19:-0.945578 20:-0.940594 21:-0.999159 22:-1 23:-0.999159 24:-0.999588 25:-0.935751 26:-0.201534 27:-1 28:-0.903498 29:-1 30:-1 31:-0.933333 32:-0.91635 33:-1 34:-1 35:-0.955224 36:-0.75 37:-0.510439 38:-0.965517 39:-0.998556 40:-0.891566 41:-1 42:-0.91635 43:-1 45:-0.970149 46:-0.99851 47:-0.777778 48:-0.925926 49:-1 50:-1 51:1 52:-0.964072 53:-0.115046 54:-1 55:-1 56:-0.894231 57:-0.999963 58:-0.879699 59:-0.998521 60:-0.932773 
-32 1:-1 2:-1 3:-0.988827 4:-0.992063 5:-1 6:-0.99537 7:-0.998845 8:-0.995751 9:-0.998451 10:-0.999998 11:-0.994881 12:-1 13:-0.992063 14:-0.987858 15:-0.999429 16:-1 17:-0.998255 18:-0.987858 19:-1 20:-1 21:-1 22:-1 23:-1 24:-0.99972 25:-0.981504 26:-0.326066 27:-1 28:-0.993969 29:-1 30:-1 31:-1 32:-0.992395 33:-1 34:-1 35:-0.991471 36:-0.875 37:-0.786584 38:-1 39:-0.998422 40:-0.993976 41:-1 42:-0.992395 43:-1 45:-1 46:-0.998392 47:-1 48:-0.992063 49:-1 50:-1 51:1 52:-0.976048 53:-0.134721 54:-1 55:-1 56:-0.995192 57:-1 58:-0.992481 59:-0.996471 60:-1 
32 1:-1 2:-1 3:-0.994413 4:-0.957672 5:-1 6:-0.972222 7:-0.999276 8:-0.974504 9:-0.999365 10:-0.999994 11:-0.988057 12:-1 13:-0.957672 14:-0.988725 15:-0.998917 16:-1 17:-0.997543 18:-0.988725 19:-0.918367 20:-1 21:-0.999159 22:-1 23:-0.999159 24:-0.99963 25:-0.966902 26:-0.427127 27:-1 28:-0.972256 29:-1 30:-1 31:-1 32:-0.977186 33:-1 34:-1 35:-0.96162 36:-0.6875 37:-0.700383 38:-0.982759 39:-0.999251 40:-0.972892 41:-1 42:-0.977186 43:-1 45:-1 46:-0.998995 47:-1 48:-0.957672 49:-1 50:-1 51:1 52:-1 53:-0.390192 54:-1 55:-1 56:-0.985577 57:-0.999877 58:-0.984962 59:-0.998266 60:-0.94958 
32 1:-1 2:-1 3:-0.916201 4:-0.883598 5:-1 6:-0.921296 7:-0.998736 8:-0.932011 9:-0.998826 10:-0.99996 11:-0.951544 12:-1 13:-0.883598 14:-0.893322 15:-0.998507 16:-0.930233 17:-0.997866 18:-0.893322 19:-0.931973 20:-0.90099 21:-0.989903 22:-1 23:-0.989903 24:-0.99959 25:-0.779022 26:-0.339847 27:-1 28:-0.893848 29:-1 30:-0.98 31:-1 32:-0.870722 33:-1 34:-1 35:-0.846482 36:-0.6875 37:-0.376065 38:-0.909483 39:-0.99849 40:-0.831325 41:-1 42:-0.870722 43:-0.98 45:-0.940299 46:-0.998528 47:-0.925926 48:-0.883598 49:-1 50:-1 51:1 52:-0.928144 53:-0.0705195 54:-1 55:-1 56:-0.889423 57:-0.999712 58:-0.894737 59:-0.998752 60:-0.983193 
-32 1:-1 2:-0.903226 3:-0.346369 4:-0.306878 5:0.480185 6:-0.384259 7:-0.998898 8:-0.586402 9:-0.999168 10:-0.999939 11:-0.706193 12:-1 13:-0.306878 14:-0.633998 15:-0.998822 16:-0.837209 17:-0.998202 18:-0.633998 19:-0.687075 20:-0.70297 21:-0.905764 22:-0.764706 23:-0.905764 24:-0.9999 25:-0.74641 26:-0.312799 27:-1 28:-0.154403 29:0.333333 30:-0.24 31:-0.933333 32:-0.847909 33:-0.846154 34:-1 35:-0.47548 37:0.289167 38:-0.288793 39:-0.998765 40:-0.325301 41:-0.5 42:-0.847909 43:-0.24 45:-0.522388 46:-0.998605 47:-0.925926 48:-0.306878 49:-1 50:0.480185 51:1 52:-0.712575 53:-0.166162 54:-0.764706 55:-1 56:-0.432692 57:-0.999445 58:-0.556391 59:-0.998378 60:-0.428571 
-32 1:-1 2:-1 3:-0.955307 4:-0.955026 5:-1 6:-0.949074 7:-0.999185 8:-0.973088 9:-0.999476 10:-0.999991 11:-0.981914 12:-1 13:-0.955026 14:-0.984389 15:-0.998971 16:-0.953488 17:-0.997557 18:-0.984389 19:-0.972789 20:-1 21:-1 22:-1 23:-1 24:-0.999779 25:-0.957654 26:-0.272991 27:-1 28:-0.937274 29:-1 30:-1 31:-1 32:-0.977186 33:-1 34:-1 35:-0.978678 36:-0.6875 37:-0.632865 38:-0.991379 39:-0.998734 40:-0.942771 41:-1 42:-0.977186 43:-1 45:-0.970149 46:-0.998796 47:-1 48:-0.955026 49:-1 50:-1 51:1 52:-0.976048 53:-0.336276 54:-1 55:-1 56:-0.947115 57:-1 58:-0.977444 59:-0.997882 60:-0.915966 
32 1:-0.714286 2:-0.806452 3:-0.614525 4:-0.587302 5:-0.999952 6:-0.615741 7:-0.999019 8:-0.743626 9:-0.999488 10:-0.99994 11:-0.81266 12:-1 13:-0.587302 14:-0.861232 15:-0.998907 16:-0.813953 17:-0.997923 18:-0.861232 19:-0.836735 20:-0.841584 21:-0.916702 22:-0.764706 23:-0.916702 24:-0.99962 25:-0.851059 26:-0.185436 27:-1 28:-0.553679 29:-1 30:-0.96 31:-1 32:-0.642586 33:-0.692308 34:-1 35:-0.671642 36:-0.375 37:-0.00659742 38:-0.616379 39:-0.998673 40:-0.557229 41:-1 42:-0.642586 43:-0.96 45:-0.432836 46:-0.99872 47:-0.925926 48:-0.587302 49:-1 50:-0.999952 51:1 52:-0.712575 53:-0.23819 54:-0.764706 55:-1 56:-0.538462 57:-0.999204 58:-0.601504 59:-0.997983 60:-0.630252 
-32 1:-1 2:-1 3:-0.988827 4:-0.986772 5:-1 6:-0.981481 7:-0.998903 8:-0.992918 9:-0.998775 10:-0.999996 11:-0.994881 12:-1 13:-0.986772 14:-0.987858 15:-0.998857 16:-1 17:-0.997953 18:-0.987858 19:-1 20:-1 21:-0.996634 22:-1 23:-0.996634 24:-0.999558 25:-0.968849 26:-0.429373 27:-1 28:-0.985525 29:-1 30:-1 31:-1 32:-0.984791 33:-1 34:-1 35:-0.985075 36:-0.875 37:-0.761111 38:-1 39:-0.998716 40:-0.978916 41:-1 42:-0.984791 43:-1 45:-1 46:-0.998567 47:-1 48:-0.986772 49:-1 50:-1 51:1 52:-1 53:-0.16953 54:-1 55:-1 56:-0.971154 57:-0.99912 58:-0.984962 59:-0.998431 60:-0.983193 
32 1:-0.428571 2:-0.741935 3:-0.575419 4:-0.616402 5:-0.999929 6:-0.25 7:-0.999108 8:-0.769122 9:-0.999694 10:-0.99994 11:-0.809589 12:-1 13:-0.616402 14:-0.925412 15:-0.998801 16:-0.813953 17:-0.997403 18:-0.925412 19:-0.782313 20:-0.821782 21:-0.956247 22:-0.764706 23:-0.956247 24:-0.0999822 25:-0.836943 26:-0.415328 27:-1 28:-0.528347 29:-1 30:-0.98 31:-1 32:-0.992395 33:-0.589744 34:-1 35:-0.454158 36:-0.4375 37:-0.00624148 38:-0.564655 39:-0.998852 40:-0.506024 41:-1 42:-0.992395 43:-0.98 45:-0.58209 46:-0.998806 47:-0.851852 48:-0.616402 49:-1 50:-0.999929 51:1 52:-0.688623 53:-0.290524 54:-0.882353 55:-1 56:-0.5 57:-0.999535 58:-0.586466 59:-0.998278 60:-0.596639 
32 1:-1 2:-1 3:-0.960894 4:-0.888889 5:-1 6:-0.953704 7:-0.999327 8:-0.929178 9:-0.998924 10:-0.999978 11:-0.961099 12:-1 13:-0.888889 14:-0.939289 15:-0.998924 16:-0.953488 17:-0.997299 18:-0.939289 19:-0.755102 20:-0.90099 21:-1 22:-1 23:-1 24:-0.999922 25:-0.918228 26:-0.379577 27:-1 28:-0.914355 29:-1 30:-1 31:-1 32:-0.984791 33:-1 34:-1 35:-0.910448 36:-0.6875 37:-0.505654 38:-0.952586 39:-0.999097 40:-0.870482 41:-1 42:-0.984791 43:-1 45:-0.940299 46:-0.999003 47:-0.777778 48:-0.888889 49:-1 50:-1 51:1 52:-1 53:-0.420294 54:-1 55:-1 56:-0.961538 57:-1 58:-0.774436 59:-0.998524 60:-0.966387 
-31.9800786838053 1:-1 2:-0.0645161 3:-0.664804 4:0.497354 5:-0.999935 6:-0.087963 7:-0.999091 8:0.130312 9:-0.99901 10:-0.999832 11:-0.478246 12:-1 13:0.497354 14:-0.0477016 15:-0.99885 16:-0.581395 17:-0.998291 18:-0.0477016 19:-0.918367 20:0.168317 21:-0.793016 22:-1 23:-0.793016 24:-0.999629 25:-0.729861 26:-0.0305526 27:-1 28:0.435464 29:-0.666667 30:-0.82 31:-0.933333 32:0.239544 33:0.487179 34:-1 35:-0.724947 36:-0.1875 37:0.764399 38:-0.443966 39:-0.99871 40:0.5 41:-1 42:0.239544 43:-0.82 45:0.522388 46:-0.998754 47:-0.481481 48:0.497354 49:-1 50:-0.999935 51:1 52:-0.772455 53:-0.280935 54:-1 55:-1 56:0.0817308 57:-0.999443 58:0.150376 59:-0.998274 60:0.647059 
32 1:-1 2:-0.83871 3:-0.748603 4:-0.507937 5:-0.999964 6:-0.648148 7:-0.999125 8:-0.677054 9:-0.999737 10:-0.999917 11:-0.828016 12:-1 13:-0.507937 14:-0.920208 15:-0.998952 16:-0.604651 17:-0.997872 18:-0.920208 19:-0.755102 20:-0.544554 21:-0.973075 22:-0.882353 23:-0.973075 24:-0.999848 25:-0.847651 26:-0.283272 27:-1 28:-0.503016 29:-1 30:-0.94 31:-0.866667 32:-0.840304 33:-0.74359 34:-1 35:-0.801706 36:-0.5 37:0.0648767 38:-0.551724 39:-0.99887 40:-0.334337 41:-1 42:-0.840304 43:-0.94 45:-0.61194 46:-0.998779 47:-0.703704 48:-0.507937 49:-1 50:-0.999964 51:1 52:-0.856287 53:-0.301147 54:-0.882353 55:-1 56:-0.399038 57:-0.99977 58:-0.676692 59:-0.997986 60:-0.512605 
4.884913600388556 1:-0.142857 2:-0.645161 3:0.581006 4:1 5:-0.999979 6:0.722222 7:-0.999313 8:1 9:-0.999704 10:-0.999679 11:-0.379628 12:-1 13:1 14:-0.666088 15:-0.998619 16:0.209302 17:-0.997841 18:-0.666088 19:-0.278912 20:0.128713 21:-0.636517 22:-0.176471 23:-0.636517 24:-0.999802 25:-0.666099 26:-0.338388 27:-1 28:0.770808 29:-0.666667 30:-0.78 31:-0.2 32:-0.224335 33:-0.435897 34:-1 35:0.484009 36:-0.5 37:1 38:0.616379 39:-0.999252 40:0.590361 41:-0.625 42:-0.224335 43:-0.78 45:-0.164179 46:-0.998989 47:0.925926 48:1 49:-1 50:-0.999979 51:1 52:0.101796 53:-0.412326 54:-0.294118 55:-1 56:1 57:-0.999165 58:1 59:-0.998361 60:0.579832 
-32 1:-1 2:-1 3:-0.815642 4:-0.730159 5:-1 6:-0.726852 7:-0.998968 8:-0.822946 9:-0.999514 10:-0.99997 11:-0.893534 12:-1 13:-0.730159 14:-0.921943 15:-0.998893 16:-0.790698 17:-0.998232 18:-0.921943 19:-0.823129 20:-0.861386 21:-0.992427 22:-1 23:-0.992427 24:-0.999672 25:-0.887077 26:-0.188491 27:-1 28:-0.821472 29:-1 30:-0.96 31:-0.933333 32:-0.81749 33:-1 34:-1 35:-0.897655 36:-0.3125 37:-0.226306 38:-0.633621 39:-0.998814 40:-0.692771 41:-1 42:-0.81749 43:-0.96 45:-0.850746 46:-0.998714 47:-0.703704 48:-0.730159 49:-1 50:-1 51:1 52:-0.892216 53:-0.208001 54:-1 55:-1 56:-0.735577 57:-0.999878 58:-0.744361 59:-0.998207 60:-0.781513 
32 1:-1 2:-0.870968 3:-0.921788 4:-0.743386 5:-0.999932 6:-0.856481 7:-0.999439 8:-0.728045 9:-0.999229 10:-0.999974 11:-0.933117 12:-1 13:-0.743386 14:-0.901127 15:-0.998567 16:-0.906977 17:-0.997502 18:-0.901127 19:-0.836735 20:-0.821782 21:-0.991586 22:-1 23:-0.991586 24:-0.999675 25:-0.90606 26:-0.440304 27:-1 28:-0.835947 29:-1 30:-0.94 31:-1 32:-0.855513 33:-0.794872 34:-1 35:-0.916844 36:-0.3125 37:-0.272234 38:-0.849138 39:-0.999418 40:-0.795181 41:-1 42:-0.855513 43:-0.94 45:-0.731343 46:-0.999115 47:-0.777778 48:-0.743386 49:-1 50:-0.999932 51:1 52:-1 53:-0.486721 54:-1 55:-1 56:-0.807692 57:-0.99983 58:-0.75188 59:-0.998561 60:-0.848739 
-32 1:-1 2:-0.903226 3:-0.960894 4:-0.941799 5:-0.999847 6:-0.962963 7:-0.999107 8:-0.96034 9:-0.998371 10:-0.999976 11:-0.970653 12:-1 13:-0.941799 14:-0.930616 15:-0.99866 16:-0.976744 17:-0.997563 18:-0.930616 19:-0.959184 20:-1 21:-1 22:-1 23:-1 24:-0.999537 25:-0.908007 26:-0.400607 27:-1 28:-0.93848 29:-1 30:-0.96 31:-1 32:-0.931559 33:-0.846154 34:-1 35:-0.940299 36:-0.75 37:-0.558051 38:-0.943966 39:-0.998845 40:-0.963855 41:-1 42:-0.931559 43:-0.96 45:-1 46:-0.998767 47:-1 48:-0.941799 49:-1 50:-0.999847 51:1 52:-0.952096 53:-0.290335 54:-1 55:-1 56:-0.966346 57:-1 58:-0.984962 59:-0.998702 60:-0.966387 
32 1:-1 2:-0.870968 3:-0.955307 4:-0.888889 5:-0.999885 6:-0.939815 7:-0.999017 8:-0.910765 9:-0.99869 10:-0.999978 11:-0.967582 12:-1 13:-0.888889 14:-0.901127 15:-0.998786 16:-1 17:-0.998343 18:-0.901127 19:-0.931973 20:-0.960396 21:-0.979806 22:-1 23:-0.979806 24:-0.999506 25:-0.914821 26:-0.148322 27:-1 28:-0.922799 29:-1 30:-0.98 31:-0.866667 32:-0.870722 33:-0.794872 34:-1 35:-0.959488 36:-0.625 37:-0.46126 38:-0.918103 39:-0.998837 40:-0.885542 41:-1 42:-0.870722 43:-0.98 45:-0.910448 46:-0.998727 47:-1 48:-0.888889 49:-1 50:-0.999885 51:1 52:-1 53:-0.236858 54:-1 55:-1 56:-0.903846 57:-0.999307 58:-0.932331 59:-0.998309 60:-0.915966 
32 1:-1 2:-0.870968 3:-0.72067 4:-0.5 5:-0.999974 6:-0.712963 7:-0.999054 8:-0.694051 9:-0.99926 10:-0.999939 11:-0.799693 12:-1 13:-0.5 14:-0.756288 15:-0.998599 16:-0.883721 17:-0.997964 18:-0.756288 19:-0.714286 20:-0.544554 21:-0.918385 22:-0.882353 23:-0.918385 24:-0.999761 25:-0.683135 26:-0.350139 27:-1 28:-0.599517 29:-1 30:-0.98 31:-0.933333 32:-0.726236 33:-0.794872 34:-1 35:-0.513859 36:-0.25 37:0.130313 38:-0.741379 39:-0.998783 40:-0.430723 41:-1 42:-0.726236 43:-0.98 45:-0.701493 46:-0.998656 47:-0.777778 48:-0.5 49:-1 50:-0.999974 51:1 52:-0.808383 53:-0.258968 54:-1 55:-1 56:-0.586538 57:-0.999358 58:-0.684211 59:-0.998699 60:-0.630252 
-32 1:-1 2:-0.967742 3:-0.955307 4:-0.896825 5:-0.999973 6:-0.847222 7:-0.999146 8:-0.922096 9:-0.998661 10:-0.999961 11:-0.962805 12:-1 13:-0.896825 14:-0.891587 15:-0.998408 16:-0.976744 17:-0.997785 18:-0.891587 19:-0.945578 20:-0.920792 21:-0.994952 22:-1 23:-0.994952 24:-0.999973 25:-0.865174 26:-0.284504 27:-0.515822 28:-0.927624 29:-1 30:-1 31:-1 32:-0.992395 33:-0.948718 34:-0.6 35:-0.886994 36:-0.75 37:-0.41949 38:-0.926724 39:-0.998762 40:-0.915663 41:-1 42:-0.992395 43:-1 45:-0.940299 46:-0.99874 47:-0.851852 48:-0.896825 49:-0.667231 50:-0.999973 51:1 52:-0.988024 53:-0.313164 54:-1 55:-0.515822 56:-0.903846 57:-0.999839 58:-0.917293 59:-0.998824 60:-0.966387 
32 1:-1 2:-1 3:-0.938547 4:-0.973545 5:-1 6:-0.958333 7:-0.999265 8:-0.973088 9:-0.999397 10:-0.999998 11:-0.98908 12:-1 13:-0.973545 14:-0.988725 15:-0.998857 16:-0.976744 17:-0.99776 18:-0.988725 19:-0.986395 20:-0.980198 21:-1 22:-1 23:-1 24:-1 25:-0.967875 26:-0.263476 27:-1 28:-0.972256 29:-1 30:-1 31:-1 32:-1 33:-1 34:-1 35:-0.970149 36:-0.9375 37:-0.703944 38:-0.99569 39:-0.999092 40:-0.96988 41:-1 42:-1 43:-1 45:-1 46:-0.998962 47:-1 48:-0.973545 49:-1 50:-1 51:1 52:-0.952096 53:-0.383944 54:-1 55:-1 56:-0.975962 57:-1 58:-1 59:-0.997882 60:-1 
32 1:-1 2:-1 3:-0.977654 4:-0.968254 5:-1 6:-0.958333 7:-0.999203 8:-0.983003 9:-0.999318 10:-0.999987 11:-0.986009 12:-1 13:-0.968254 14:-0.98699 15:-0.998769 16:-0.976744 17:-0.997486 18:-0.98699 19:-0.945578 20:-0.980198 21:-1 22:-0.882353 23:-1 24:-0.99977 25:-0.972743 26:-0.364373 27:-1 28:-0.967431 29:-1 30:-1 31:-1 32:-0.984791 33:-1 34:-1 35:-0.982942 36:-0.8125 37:-0.692976 38:-0.987069 39:-0.99883 40:-0.96988 41:-1 42:-0.984791 43:-1 45:-0.910448 46:-0.998805 47:-1 48:-0.968254 49:-1 50:-1 51:1 52:-0.988024 53:-0.347295 54:-0.882353 55:-1 56:-0.975962 57:-1 58:-0.93985 59:-0.998914 60:-0.966387 
13.44838713261813 1:-1 2:-1 3:-0.921788 4:-0.94709 5:-1 6:-0.972222 7:-0.999351 8:-0.958924 9:-0.999341 10:-0.999975 11:-0.975431 12:-1 13:-0.94709 14:-0.97745 15:-0.998629 16:-0.953488 17:-0.997411 18:-0.97745 19:-0.972789 20:-0.960396 21:-1 22:-0.882353 23:-1 24:-0.999808 25:-0.947432 26:-0.397837 27:-1 28:-0.94813 29:-1 30:-0.94 31:-0.933333 32:-0.977186 33:-1 34:-1 35:-0.925373 36:-0.8125 37:-0.604102 38:-0.952586 39:-0.999093 40:-0.933735 41:-1 42:-0.977186 43:-0.94 45:-0.970149 46:-0.998956 47:-1 48:-0.94709 49:-1 50:-1 51:1 52:-0.892216 53:-0.434824 54:-0.882353 55:-1 56:-0.927885 57:-1 58:-0.917293 59:-0.998275 60:-1 
32 1:-0.714286 2:-0.83871 3:-0.709497 4:-0.55291 5:-0.999965 6:-0.643519 7:-0.998974 8:-0.711048 9:-0.999229 10:-0.999938 11:-0.825968 12:-1 13:-0.55291 14:-0.763226 15:-0.99864 16:-0.953488 17:-0.998641 18:-0.763226 19:-0.85034 20:-0.742574 21:-0.920909 22:-1 23:-0.920909 24:-0.999579 25:-0.839377 26:-0.0688408 27:-1 28:-0.632087 29:-1 30:-0.94 31:-0.8 32:-0.551331 33:-0.74359 34:-1 35:-0.837953 36:-0.3125 37:0.0236551 38:-0.775862 39:-0.99858 40:-0.503012 41:-1 42:-0.551331 43:-0.94 45:-0.552239 46:-0.998549 47:-0.851852 48:-0.55291 49:-1 50:-0.999965 51:1 52:-0.952096 53:-0.211363 54:-1 55:-1 56:-0.735577 57:-0.999333 58:-0.43609 59:-0.99837 60:-0.512605 
32 1:-1 2:-1 3:-0.994413 4:-0.957672 5:-1 6:-0.962963 7:-0.999389 8:-0.968839 9:-0.999412 10:-0.999983 11:-0.979184 12:-1 13:-0.957672 14:-0.985256 15:-0.999106 16:-1 17:-0.997233 18:-0.985256 19:-1 20:-0.980198 21:-1 22:-1 23:-1 24:-1 25:-0.957654 26:-0.366403 27:-1 28:-0.93848 29:-1 30:-1 31:-1 32:-1 33:-1 34:-1 35:-0.991471 36:-0.875 37:-0.65757 38:-0.982759 39:-0.999101 40:-0.963855 41:-1 42:-1 43:-1 45:-0.910448 46:-0.999034 47:-0.851852 48:-0.957672 49:-1 50:-1 51:1 52:-1 53:-0.45736 54:-1 55:-1 56:-0.951923 57:-1 58:-0.962406 59:-0.998159 60:-0.915966 
-32 1:-1 2:-1 3:-0.452514 4:-0.539683 5:-1 6:-0.555556 7:-0.999006 8:-0.689802 9:-0.999798 10:-0.999934 11:-0.798328 12:-1 13:-0.539683 14:-0.939289 15:-0.99867 16:-0.697674 17:-0.997906 18:-0.939289 19:-0.836735 20:-0.821782 21:-0.932688 22:-1 23:-0.932688 24:-0.999934 25:-0.786323 26:-0.340466 27:-1 28:-0.513872 29:-1 30:-0.84 31:-0.533333 32:-0.931559 33:-1 34:-1 35:-0.375267 36:-0.375 37:0.0762894 38:-0.418103 39:-0.998886 40:-0.581325 41:-1 42:-0.931559 43:-0.84 45:-0.373134 46:-0.998737 47:-0.777778 48:-0.539683 49:-1 50:-1 51:1 52:-0.580838 53:-0.230347 54:-1 55:-1 56:-0.322115 57:-0.99942 58:-0.383459 59:-0.998332 60:-0.781513 
-32 1:-1 2:-0.967742 3:-0.787709 4:-0.806878 5:0.705862 6:-0.800926 7:-0.999164 8:-0.865439 9:-0.999121 10:-0.999956 11:-0.879884 12:-1 13:-0.806878 14:-0.888118 15:-0.998881 16:-0.953488 17:-0.997282 18:-0.888118 19:-0.741497 20:-0.861386 21:-0.989903 22:-1 23:-0.989903 24:-1 25:-0.877829 26:-0.441142 27:-1 28:-0.804584 29:-1 30:-0.94 31:-0.933333 32:-1 33:-0.948718 34:-1 35:-0.599147 36:-0.625 37:-0.266816 38:-0.801724 39:-0.998992 40:-0.731928 41:-1 42:-1 43:-0.94 45:-0.880597 46:-0.998901 47:-1 48:-0.806878 49:-1 50:0.705862 51:1 52:-0.844311 53:-0.324161 54:-1 55:-1 56:-0.831731 57:-0.999794 58:-0.781955 59:-0.998284 60:-0.966387 
-32 1:-1 2:-1 3:-0.988827 4:-0.981481 5:-1 6:-0.976852 7:-0.999404 8:-0.983003 9:-0.999543 10:-0.999995 11:-0.993858 12:-1 13:-0.981481 14:-0.994796 15:-0.998945 16:-1 17:-0.997586 18:-0.994796 19:-0.972789 20:-0.980198 21:-1 22:-1 23:-1 24:-0.999808 25:-0.981991 26:-0.220736 27:-1 28:-0.989144 29:-1 30:-1 31:-1 32:-0.992395 33:-1 34:-1 35:-0.989339 36:-0.875 37:-0.760531 38:-0.99569 39:-0.999077 40:-0.990964 41:-1 42:-0.992395 43:-1 45:-0.970149 46:-0.999038 47:-1 48:-0.981481 49:-1 50:-1 51:1 52:-1 53:-0.465998 54:-1 55:-1 56:-0.990385 57:-1 58:-0.984962 59:-0.997828 60:-0.983193 
-32 1:-1 2:-0.967742 3:-0.977654 4:-0.962963 5:-0.999903 6:-0.967593 7:-0.99904 8:-0.975921 9:-0.999459 10:-0.999989 11:-0.985668 12:-1 13:-0.962963 14:-0.987858 15:-0.998984 16:-0.976744 17:-0.997998 18:-0.987858 19:-0.931973 20:-0.980198 21:-0.998317 22:-0.882353 23:-0.998317 24:-0.999707 25:-0.95668 26:-0.292491 27:-1 28:-0.977081 29:-1 30:-1 31:-1 32:-0.977186 33:-0.948718 34:-1 35:-0.944563 36:-0.75 37:-0.675115 38:-0.978448 39:-0.998917 40:-0.960843 41:-1 42:-0.977186 43:-1 45:-1 46:-0.998764 47:-1 48:-0.962963 49:-1 50:-0.999903 51:1 52:-0.976048 53:-0.250427 54:-0.882353 55:-1 56:-0.975962 57:-0.999806 58:-0.954887 59:-0.997908 60:-1 
-32 1:-1 2:-0.870968 3:-0.75419 4:-0.592593 5:-0.99996 6:-0.703704 7:-0.999303 8:-0.720963 9:-0.999356 10:-0.999877 11:-0.833817 12:-1 13:-0.592593 14:-0.85863 15:-0.998834 16:-0.883721 17:-0.997217 18:-0.85863 19:-0.85034 20:-0.861386 21:-0.96382 22:-1 23:-0.96382 24:-1 25:-0.846191 26:-0.529416 27:-1 28:-0.657419 29:-1 30:-1 31:-0.933333 32:-1 33:-0.794872 34:-1 35:-0.537313 36:-0.75 37:-0.0267477 38:-0.836207 39:-0.999211 40:-0.61747 41:-1 42:-1 43:-1 45:-0.791045 46:-0.998983 47:-0.925926 48:-0.592593 49:-1 50:-0.99996 51:1 52:-0.868263 53:-0.406625 54:-1 55:-1 56:-0.682692 57:-0.999573 58:-0.661654 59:-0.998194 60:-0.663866 
32 1:-0.714286 2:-0.677419 3:-0.581006 4:-0.349206 5:-0.999949 6:-0.203704 7:-0.998935 8:-0.621813 9:-0.999178 10:-0.999927 11:-0.742024 12:-1 13:-0.349206 14:-0.651344 15:-0.99884 16:-0.883721 17:-0.998043 18:-0.651344 19:-0.782313 20:-0.940594 21:-0.844342 22:-1 23:-0.844342 24:-0.999757 25:-0.793624 26:-0.241094 27:-1 28:-0.493366 29:-1 30:-0.78 31:-0.933333 32:-0.642586 33:-0.487179 34:-1 35:-0.594883 36:-0.1875 37:0.243084 38:-0.232759 39:-0.998662 40:-0.0813253 41:-1 42:-0.642586 43:-0.78 45:-0.373134 46:-0.998641 47:-0.481481 48:-0.349206 49:-1 50:-0.999949 51:1 52:-0.676647 53:-0.18804 54:-1 55:-1 56:-0.0913462 57:-0.999049 58:-0.300752 59:-0.998139 60:-0.848739 
-32 1:-0.428571 2:-0.709677 3:-0.726257 4:-0.563492 5:-0.999921 6:-0.722222 7:-0.999142 8:-0.750708 9:-0.99963 10:-0.9313 11:-0.828698 12:-1 13:-0.563492 14:-0.908933 15:-0.998773 16:-0.651163 17:-0.997566 18:-0.908933 19:-0.836735 20:-0.782178 21:-0.877156 22:-0.882353 23:-0.877156 24:-0.999581 25:-0.824775 26:-0.399664 27:-1 28:-0.503016 29:-1 30:-0.92 31:-0.733333 32:-0.642586 33:-0.538462 34:-1 35:-0.799574 36:-0.5 37:-0.00517447 38:-0.646552 39:-0.998909 40:-0.539157 41:-1 42:-0.642586 43:-0.92 45:-0.61194 46:-0.998803 47:-0.62963 48:-0.563492 49:-1 50:-0.999921 51:1 52:-0.88024 53:-0.310657 54:-0.882353 55:-1 56:-0.591346 57:-0.998706 58:-0.390977 59:-0.998378 60:-0.445378 
32 1:-0.714286 2:-0.967742 3:-0.715084 4:-0.772487 5:0.686179 6:-0.847222 7:-0.999124 8:-0.858357 9:-0.999474 10:-0.999954 11:-0.923221 12:-1 13:-0.772487 14:-0.93235 15:-0.998982 16:-0.906977 17:-0.997802 18:-0.93235 19:-0.891156 20:-0.940594 21:-0.953723 22:-0.882353 23:-0.953723 24:-0.999745 25:-0.896812 26:-0.301364 27:-1 28:-0.833534 29:-1 30:-1 31:-0.933333 32:-0.885932 33:-0.948718 34:-1 35:-0.695096 36:-0.625 37:-0.287235 38:-0.862069 39:-0.998917 40:-0.740964 41:-1 42:-0.885932 43:-1 45:-0.850746 46:-0.998812 47:-0.851852 48:-0.772487 49:-1 50:0.686179 51:1 52:-0.676647 53:-0.300196 54:-0.882353 55:-1 56:-0.716346 57:-0.999069 58:-0.796992 59:-0.99809 60:-0.983193 
32 1:-1 2:-0.483871 3:-0.703911 4:-0.433862 5:-0.999902 6:-0.342593 7:-0.999025 8:-0.667139 9:-0.999319 10:-0.905068 11:-0.739976 12:-1 13:-0.433862 14:-0.758023 15:-0.998818 16:-0.674419 17:-0.997703 18:-0.758023 19:-0.605442 20:-0.683168 21:-0.966344 22:-0.882353 23:-0.966344 24:-0.999778 25:-0.821854 26:-0.21138 27:-1 28:-0.24608 29:-1 30:-0.82 31:-1 32:-0.726236 33:-0.179487 34:-1 35:-0.628998 36:-0.5 37:0.137135 38:-0.75 39:-0.998684 40:-0.38253 41:-1 42:-0.726236 43:-0.82 45:-0.402985 46:-0.99877 47:-0.851852 48:-0.433862 49:-1 50:-0.999902 51:1 52:-0.868263 53:-0.241467 54:-1 55:-1 56:-0.504808 57:-0.999755 58:-0.744361 59:-0.998106 60:-0.193277 
32 1:-0.714286 2:-0.83871 3:-0.296089 4:-0.248677 5:-0.999976 6:-0.236111 7:-0.999228 8:-0.474504 9:-0.999285 10:-0.999916 11:-0.707217 12:-1 13:-0.248677 14:-0.680833 15:-0.998802 16:-0.651163 17:-0.997543 18:-0.680833 19:-0.537415 20:-0.683168 21:-0.930164 22:-0.294118 23:-0.930164 24:-0.999799 25:-0.782916 26:-0.34652 27:-1 28:-0.273824 29:-0.333333 30:-0.86 31:-0.8 32:-0.688213 33:-0.74359 34:-1 35:-0.234542 36:-0.25 37:0.297281 38:-0.435345 39:-0.999009 40:-0.25 41:-0.875 42:-0.688213 43:-0.86 45:-0.402985 46:-0.998906 47:-0.555556 48:-0.248677 49:-1 50:-0.999976 51:1 52:-0.245509 53:-0.361634 54:-0.294118 55:-1 56:-0.110577 57:-0.999595 58:-0.255639 59:-0.998229 60:-0.478992 
-32 1:-1 2:-0.967742 3:-0.832402 4:-0.769841 5:0.565775 6:-0.611111 7:-0.99898 8:-0.859773 9:-0.999474 10:-0.999925 11:-0.896263 12:-1 13:-0.769841 14:-0.927147 15:-0.998926 16:-0.860465 17:-0.997965 18:-0.927147 19:-0.863946 20:-0.881188 21:-0.995793 22:-0.882353 23:-0.995793 24:-0.999905 25:-0.915795 26:-0.292615 27:-1 28:-0.718938 29:-1 30:-1 31:-1 32:-0.954373 33:-0.948718 34:-1 35:-0.850746 36:-0.75 37:-0.259982 38:-0.836207 39:-0.998827 40:-0.771084 41:-1 42:-0.954373 43:-1 45:-0.970149 46:-0.998721 47:-0.703704 48:-0.769841 49:-1 50:0.565775 51:1 52:-0.796407 53:-0.214708 54:-0.882353 55:-1 56:-0.8125 57:-0.999921 58:-0.819549 59:-0.998024 60:-0.596639 
-32 1:-1 2:-1 3:-0.921788 4:-0.920635 5:-1 6:-0.944444 7:-0.998952 8:-0.929178 9:-0.99943 10:-0.999977 11:-0.957345 12:-1 13:-0.920635 14:-0.963573 15:-0.998745 16:-0.976744 17:-0.998444 18:-0.963573 19:-0.931973 20:-0.940594 21:-0.997476 22:-0.882353 23:-0.997476 24:-0.999451 25:-0.92845 26:-0.165935 27:-1 28:-0.927624 29:-1 30:-1 31:-0.933333 32:-0.878327 33:-1 34:-1 35:-0.895522 36:-0.625 37:-0.497956 38:-0.913793 39:-0.998807 40:-0.88253 41:-0.875 42:-0.878327 43:-1 45:-1 46:-0.998667 47:-1 48:-0.920635 49:-1 50:-1 51:1 52:-0.94012 53:-0.198403 54:-1 55:-1 56:-0.932692 57:-0.999898 58:-0.909774 59:-0.998247 60:-0.983193 
-32 1:-1 2:-0.935484 3:-0.938547 4:-0.804233 5:-0.999954 6:-0.847222 7:-0.999458 8:-0.81728 9:-0.999211 10:-0.999981 11:-0.950862 12:-1 13:-0.804233 14:-0.925412 15:-0.99847 16:-0.953488 17:-0.997417 18:-0.925412 19:-0.918367 20:-0.920792 21:-0.997476 22:-1 23:-0.997476 24:-0.999559 25:-0.857386 26:-0.537427 27:-1 28:-0.88661 29:-1 30:-1 31:-0.866667 32:-0.855513 33:-0.897436 34:-1 35:-0.950959 36:-0.375 37:-0.351694 38:-0.961207 39:-0.999485 40:-0.843373 41:-1 42:-0.855513 43:-1 45:-1 46:-0.999097 47:-1 48:-0.804233 49:-1 50:-0.999954 51:1 52:-0.94012 53:-0.498368 54:-1 55:-1 56:-0.947115 57:-0.999931 58:-0.909774 59:-0.998878 60:-0.815126 
-12.95589597760591 1:-0.714286 2:-0.548387 3:0.296089 4:-0.0661376 5:-0.999954 6:0.467593 7:-0.998963 8:-0.406516 9:-0.999481 10:-0.999847 11:-0.509299 12:-1 13:-0.0661376 14:-0.657415 15:-0.998895 16:-0.209302 17:-0.997832 18:-0.657415 19:-0.510204 20:-0.405941 21:-0.978965 22:-0.647059 23:-0.978965 24:-0.999937 25:-0.704064 26:-0.337294 27:-1 28:0.276236 29:-1 30:-0.98 31:-0.666667 32:-0.855513 33:-0.282051 34:-1 35:-0.149254 36:-0.375 37:0.580227 38:0.198276 39:-0.998731 40:0.198795 41:-1 42:-0.855513 43:-0.98 45:0.343284 46:-0.998672 47:-0.481481 48:-0.0661376 49:-1 50:-0.999954 51:1 52:0.664671 53:-0.204761 54:-0.764706 55:-1 56:0.379808 57:-0.999917 58:0.285714 59:-0.998028 60:-0.277311 
-32 1:-0.428571 2:-0.741935 3:-0.681564 4:-0.529101 5:-0.999951 6:-0.541667 7:-0.999008 8:-0.691218 9:-0.998939 10:-0.99994 11:-0.816414 12:-1 13:-0.529101 14:-0.623591 15:-0.998591 16:-0.837209 17:-0.997681 18:-0.623591 19:-0.809524 20:-0.485149 21:-0.973917 22:-0.764706 23:-0.973917 24:-0.999623 25:-0.687515 26:-0.369548 27:-1 28:-0.557298 29:-0.666667 30:-0.92 31:-0.866667 32:-0.536122 33:-0.589744 34:-1 35:-0.729211 36:-0.1875 37:0.191629 38:-0.642241 39:-0.998694 40:-0.472892 41:-1 42:-0.536122 43:-0.92 45:-0.552239 46:-0.998672 47:-0.703704 48:-0.529101 49:-1 50:-0.999951 51:1 52:-0.748503 53:-0.231557 54:-1 55:-1 56:-0.4375 57:-0.99981 58:-0.398496 59:-0.998582 60:-0.579832 
32 1:-1 2:-0.83871 3:-0.497207 4:-0.296296 5:-0.999974 6:-0.166667 7:-0.999078 8:-0.572238 9:-0.999326 10:-0.999906 11:-0.714383 12:-1 13:-0.296296 14:-0.721596 15:-0.998906 16:-0.813953 17:-0.997744 18:-0.721596 19:-0.755102 20:-0.623762 21:-0.98822 22:-0.882353 23:-0.98822 24:-0.999862 25:-0.808713 26:-0.362974 27:-1 28:-0.367913 29:-1 30:-0.94 31:-0.733333 32:-0.802281 33:-0.74359 34:-1 35:-0.586354 36:-0.375 37:0.263113 38:-0.590517 39:-0.998902 40:-0.204819 41:-0.875 42:-0.802281 43:-0.94 45:-0.522388 46:-0.998775 47:-0.407407 48:-0.296296 49:-1 50:-0.999974 51:1 52:-0.784431 53:-0.273008 54:-0.882353 55:-1 56:-0.514423 57:-0.999926 58:-0.255639 59:-0.998121 60:-0.361345 
-32 1:-1 2:-0.806452 3:-0.826816 4:-0.624339 5:-0.999945 6:-0.689815 7:-0.998996 8:-0.763456 9:-0.999268 10:-0.999952 11:-0.85668 12:-1 13:-0.624339 14:-0.825672 15:-0.99883 16:-0.767442 17:-0.997984 18:-0.825672 19:-0.768707 20:-0.70297 21:-0.998317 22:-0.882353 23:-0.998317 24:-0.999917 25:-0.83597 26:-0.259027 27:-1 28:-0.674306 29:-0.333333 30:-0.98 31:-0.866667 32:-0.931559 33:-0.692308 34:-1 35:-0.769723 36:-0.3125 37:-0.0484618 38:-0.840517 39:-0.998774 40:-0.608434 41:-0.875 42:-0.931559 43:-0.98 45:-0.820896 46:-0.998709 47:-0.851852 48:-0.624339 49:-1 50:-0.999945 51:1 52:-0.832335 53:-0.224479 54:-0.882353 55:-1 56:-0.639423 57:0.829898 58:-0.729323 59:-0.998347 60:-0.630252 
32 1:-1 2:-0.870968 3:-0.899441 4:-0.724868 5:-0.999948 6:-0.726852 7:-0.999157 8:-0.830028 9:-0.998979 10:-0.99991 11:-0.890462 12:-1 13:-0.724868 14:-0.828274 15:-0.99881 16:-0.767442 17:-0.997375 18:-0.828274 19:-0.931973 20:-0.663366 21:-0.986538 22:-0.882353 23:-0.986538 24:-0.999961 25:-0.843271 26:-0.512986 27:-1 28:-0.674306 29:-1 30:-0.98 31:-0.866667 32:-0.977186 33:-0.794872 34:-1 35:-0.863539 36:-0.75 37:-0.135853 38:-0.87931 39:-0.998962 40:-0.701807 41:-1 42:-0.977186 43:-0.98 45:-0.701493 46:-0.998808 47:-0.851852 48:-0.724868 49:-1 50:-0.999948 51:1 52:-0.94012 53:-0.320042 54:-0.882353 55:-1 56:-0.826923 57:-0.999793 58:-0.706767 59:-0.998289 60:-0.848739 
-32 1:-1 2:-1 3:-0.988827 4:-0.960317 5:-1 6:-0.967593 7:-0.999613 8:-0.966006 9:-0.999498 10:-0.999993 11:-0.986692 12:-1 13:-0.960317 14:-0.989592 15:-0.998811 16:-1 17:-0.997402 18:-0.989592 19:-0.959184 20:-1 21:-1 22:-1 23:-1 24:-0.999577 25:-0.965928 26:-0.269141 27:-1 28:-0.967431 29:-1 30:-0.98 31:-1 32:-0.969582 33:-1 34:-1 35:-0.978678 36:-0.9375 37:-0.693837 38:-0.974138 39:-0.999163 40:-0.975904 41:-1 42:-0.969582 43:-0.98 45:-0.940299 46:-0.999109 47:-1 48:-0.960317 49:-1 50:-1 51:1 52:-0.976048 53:-0.590254 54:-1 55:-1 56:-0.966346 57:-1 58:-0.962406 59:-0.998306 60:-0.932773 
32 1:-1 2:-1 3:-0.994413 4:-0.997354 5:-1 6:-1 7:-0.997986 8:-0.997167 9:-0.998957 10:-0.999992 11:-0.996246 12:-1 13:-0.997354 14:-0.989592 15:-0.998476 16:-1 17:-0.998707 18:-0.989592 19:-1 20:-1 21:-1 22:-1 23:-1 24:-1 25:-0.975176 26:-0.528872 27:-1 28:-0.978287 29:-1 30:-1 31:-1 32:-1 33:-1 34:-1 35:-1 36:-0.9375 37:-0.753706 38:-0.99569 39:-0.997345 40:-0.993976 41:-1 42:-1 43:-1 45:-1 46:-0.997561 47:-1 48:-0.997354 49:-1 50:-1 51:1 52:-1 53:0.374135 54:-1 55:-1 56:-0.990385 57:-1 58:-1 59:-0.998431 60:-1 
32 1:-1 2:-0.870968 3:-0.581006 4:-0.510582 5:-0.999974 6:-0.611111 7:-0.998907 8:-0.68272 9:-0.999063 10:-0.999955 11:-0.810954 12:-1 13:-0.510582 14:-0.690373 15:-0.9987 16:-0.72093 17:-0.99815 18:-0.690373 19:-0.741497 20:-0.80198 21:-0.989903 22:-0.647059 23:-0.989903 24:-0.999569 25:-0.800438 26:-0.143599 27:-1 28:-0.480097 29:-1 30:-0.98 31:-0.933333 32:-0.505703 33:-0.794872 34:-1 35:-0.637527 36:0.0625 37:0.084875 38:-0.534483 39:-0.998647 40:-0.481928 41:-1 42:-0.505703 43:-0.98 45:-0.940299 46:-0.998672 47:-0.555556 48:-0.510582 49:-1 50:-0.999974 51:1 52:-0.700599 53:-0.171859 54:-0.647059 55:-1 56:-0.490385 57:-0.999921 58:-0.533835 59:-0.998557 60:-0.428571 
-32 1:-1 2:-0.967742 3:-0.927374 4:-0.902116 5:-0.999964 6:-0.921296 7:-0.998792 8:-0.943343 9:-0.999116 10:-0.999982 11:-0.967582 12:-1 13:-0.902116 14:-0.947095 15:-0.998662 16:-0.837209 17:-0.998618 18:-0.947095 19:-0.972789 20:-0.980198 21:-0.996634 22:-0.529412 23:-0.996634 24:-0.999744 25:-0.935751 26:-0.0474354 27:-1 28:-0.943305 29:-1 30:-0.96 31:-1 32:-0.946768 33:-0.948718 34:-1 35:-0.96162 36:-0.5625 37:-0.519906 38:-0.952586 39:-0.998564 40:-0.909639 41:-1 42:-0.946768 43:-0.96 45:-0.910448 46:-0.998562 47:-0.777778 48:-0.902116 49:-1 50:-0.999964 51:1 52:-0.928144 53:-0.103592 54:-0.529412 55:-1 56:-0.918269 57:-0.999854 58:-0.857143 59:-0.998278 60:-0.983193 
-32 1:-0.714286 2:-0.741935 3:-0.486034 4:-0.39418 5:-0.999954 6:-0.37963 7:-0.999209 8:-0.524079 9:-0.999784 10:-0.999937 11:-0.742365 12:-1 13:-0.39418 14:-0.918474 15:-0.998752 16:-0.674419 17:-0.997796 18:-0.918474 19:-0.85034 20:-0.465347 21:-0.851914 22:-0.882353 23:-0.851914 24:-0.999878 25:-0.753711 26:-0.356621 27:-1 28:-0.217129 29:-1 30:-0.98 31:-0.733333 32:-0.840304 33:-0.589744 34:-1 35:-0.692964 36:-0.1875 37:0.197894 38:-0.508621 39:-0.999071 40:-0.478916 41:-1 42:-0.840304 43:-0.98 45:-0.58209 46:-0.998865 47:-0.777778 48:-0.39418 49:-1 50:-0.999954 51:1 52:-0.796407 53:-0.350678 54:-0.764706 55:-1 56:-0.528846 57:-0.998983 58:-0.458647 59:-0.998241 60:-0.579832 
32 1:-1 2:-0.967742 3:-0.888268 4:-0.857143 5:-0.999969 6:-0.902778 7:-0.999331 8:-0.905099 9:-0.999193 10:-0.999978 11:-0.954615 12:-1 13:-0.857143 14:-0.942758 15:-0.998992 16:-0.976744 17:-0.997125 18:-0.942758 19:-0.891156 20:-0.960396 21:-0.992427 22:-1 23:-0.992427 24:-0.999876 25:-0.933804 26:-0.347288 27:-1 28:-0.85766 29:-1 30:-1 31:-1 32:-0.969582 33:-0.948718 34:-1 35:-0.929638 36:-0.625 37:-0.449324 38:-0.935345 39:-0.999092 40:-0.915663 41:-1 42:-0.969582 43:-1 45:-0.910448 46:-0.999073 47:-1 48:-0.857143 49:-1 50:-0.999969 51:1 52:-0.952096 53:-0.422954 54:-1 55:-1 56:-0.932692 57:-0.999723 58:-0.932331 59:-0.998201 60:-0.89916 
-32 1:-1 2:-0.967742 3:-0.743017 4:-0.626984 5:-0.08855 6:-0.587963 7:-0.999059 8:-0.749292 9:-0.999508 10:-0.999959 11:-0.845419 12:-1 13:-0.626984 14:-0.882914 15:-0.99878 16:-0.72093 17:-0.997853 18:-0.882914 19:-0.809524 20:-0.861386 21:-0.99411 22:-1 23:-0.99411 24:-0.999899 25:-0.840837 26:-0.282717 27:-1 28:-0.562123 29:-1 30:-0.94 31:-0.8 32:-0.91635 33:-0.948718 34:-1 35:-0.765458 36:-0.1875 37:-0.0457347 38:-0.676724 39:-0.99885 40:-0.545181 41:-1 42:-0.91635 43:-0.94 45:-0.641791 46:-0.998773 47:-1 48:-0.626984 49:-1 50:-0.08855 51:1 52:-0.688623 53:-0.261637 54:-1 55:-1 56:-0.5625 57:-0.999936 58:-0.631579 59:-0.998229 60:-0.361345 
-32 1:-1 2:-0.516129 3:-0.776536 4:-0.539683 5:-0.999886 6:-0.550926 7:-0.999159 8:-0.68272 9:-0.999054 10:-0.99996 11:-0.806176 12:-1 13:-0.539683 14:-0.728534 15:-0.998862 16:-0.697674 17:-0.997743 18:-0.728534 19:-0.795918 20:-0.60396 21:-0.99411 22:-0.529412 23:-0.99411 24:-0.999725 25:-0.881723 26:-0.186533 27:-1 28:-0.47889 29:-1 30:-0.98 31:-0.866667 32:-0.726236 33:-0.230769 34:-1 35:-0.712154 36:-0.0625 37:0.0180038 38:-0.844828 39:-0.998812 40:-0.536145 41:-1 42:-0.726236 43:-0.98 45:-0.880597 46:-0.998851 47:-0.777778 48:-0.539683 49:-1 50:-0.999886 51:1 52:-0.712575 53:-0.320778 54:-0.529412 55:-1 56:-0.596154 57:-0.999947 58:-0.676692 59:-0.998118 60:-0.478992 
32 1:-1 2:-0.870968 3:-0.821229 4:-0.574074 5:-0.999966 6:-0.62963 7:-0.99913 8:-0.759207 9:-0.99915 10:-0.999945 11:-0.846101 12:-1 13:-0.574074 14:-0.782307 15:-0.998302 16:-0.813953 17:-0.997447 18:-0.782307 19:-0.741497 20:-0.70297 21:-0.929323 22:-0.882353 23:-0.929323 24:-0.99988 25:-0.783889 26:-0.448814 27:-1 28:-0.685163 29:-1 30:-0.54 31:-1 32:-0.893536 33:-0.794872 34:-1 35:-0.763326 36:-0.375 37:0.0378126 38:-0.853448 39:-0.99884 40:-0.611446 41:-1 42:-0.893536 43:-0.54 45:-0.820896 46:-0.998763 47:-0.925926 48:-0.574074 49:-1 50:-0.999966 51:1 52:-0.832335 53:-0.303828 54:-0.882353 55:-1 56:-0.600962 57:-0.999285 58:-0.676692 59:-0.999092 60:-0.89916 
-32 1:-1 2:-1 3:-0.743017 4:-0.550265 5:-1 6:-0.680556 7:-0.999076 8:-0.72238 9:-0.99922 10:-0.999945 11:-0.817096 12:-1 13:-0.550265 14:-0.774501 15:-0.998677 16:-0.651163 17:-0.997832 18:-0.774501 19:-0.714286 20:-0.623762 21:-0.982331 22:-0.764706 23:-0.982331 24:-0.999773 25:-0.817961 26:-0.316734 27:-1 28:-0.560917 29:-1 30:-0.96 31:-0.533333 32:-0.771863 33:-1 34:-1 35:-0.648188 36:-0.25 37:0.055342 38:-0.681034 39:-0.99879 40:-0.509036 41:-1 42:-0.771863 43:-0.96 45:-0.761194 46:-0.998719 47:-1 48:-0.550265 49:-1 50:-1 51:1 52:-0.772455 53:-0.272007 54:-0.764706 55:-1 56:-0.615385 57:-0.999842 58:-0.669173 59:-0.998519 60:-0.714286 
-32 1:-1 2:-0.387097 3:-0.564246 4:-0.283069 5:-0.99991 6:-0.310185 7:-0.999051 8:-0.526912 9:-0.999411 10:-0.99994 11:-0.695615 12:-1 13:-0.283069 14:-0.730269 15:-0.998874 16:-0.860465 17:-0.997966 18:-0.730269 19:-0.809524 20:-0.643564 21:-0.830879 22:-0.764706 23:-0.830879 24:-0.999866 25:-0.794597 26:-0.239551 27:-1 28:-0.247286 29:-1 30:-0.9 31:-0.733333 32:-0.787072 33:-0.025641 34:-1 35:-0.63113 36:0.0625 37:0.28998 38:-0.599138 39:-0.9988 40:-0.14759 41:-1 42:-0.787072 43:-0.9 45:-0.552239 46:-0.998743 47:-0.62963 48:-0.283069 49:-1 50:-0.99991 51:1 52:-0.724551 53:-0.256792 54:-0.882353 55:-1 56:-0.552885 57:-0.999044 58:-0.481203 59:-0.998202 60:-0.445378 
32 1:-1 2:-1 3:-0.916201 4:-0.912698 5:-1 6:-0.925926 7:-0.999173 8:-0.949008 9:-0.998897 10:-0.999983 11:-0.95871 12:-1 13:-0.912698 14:-0.941023 15:-0.998764 16:-1 17:-0.997529 18:-0.941023 19:-0.823129 20:-0.980198 21:-0.989903 22:-1 23:-0.989903 24:-0.999713 25:-0.930397 26:-0.462061 27:-1 28:-0.925211 29:-1 30:-0.96 31:-0.933333 32:-0.946768 33:-1 34:-1 35:-0.880597 36:-0.5625 37:-0.505404 38:-0.965517 39:-0.998915 40:-0.933735 41:-1 42:-0.946768 43:-0.96 45:-1 46:-0.998773 47:-1 48:-0.912698 49:-1 50:-1 51:1 52:-0.904192 53:-0.329492 54:-0.764706 55:-1 56:-0.951923 57:-0.999511 58:-0.954887 59:-0.998219 60:-1 
-32 1:-0.428571 2:-0.870968 3:-0.960894 4:-0.769841 5:-0.999939 6:-0.560185 7:-0.99922 8:-0.835694 9:-0.999171 10:-0.99992 11:-0.927999 12:-1 13:-0.769841 14:-0.882914 15:-0.998359 16:-0.883721 17:-0.997183 18:-0.882914 19:-0.632653 20:-0.920792 21:-1 22:-1 23:-1 24:-1 25:-0.822828 26:-0.462911 27:-1 28:-0.915561 29:-1 30:-1 31:-0.933333 32:-1 33:-0.794872 34:-1 35:-0.872068 36:-0.75 37:-0.204845 38:-0.956897 39:-0.999042 40:-0.849398 41:-1 42:-1 43:-1 45:-0.940299 46:-0.998942 47:-0.62963 48:-0.769841 49:-1 50:-0.999939 51:1 52:-0.964072 53:-0.357173 54:-1 55:-1 56:-0.884615 57:-1 58:-0.917293 59:-0.999236 60:-0.915966 
-13.58883427700311 1:-1 2:-1 3:-0.994413 4:-0.981481 5:-1 6:-0.986111 7:-0.998427 8:-0.990085 9:-0.999539 10:-1 11:-0.990445 12:-1 13:-0.981481 14:-0.99046 15:1 16:-1 17:-0.998823 18:-0.99046 19:-1 20:-0.980198 21:-1 22:-1 23:-1 24:-1 25:-0.897785 26:-0.196654 27:-1 28:-0.985525 29:-1 30:-0.7 31:-1 32:-1 33:-1 34:-1 35:-0.978678 36:-1 37:-0.690412 38:-0.991379 39:-0.997923 40:-0.978916 41:-1 42:-1 43:-0.7 45:-1 46:-0.998051 47:-1 48:-0.981481 49:-1 50:-1 51:1 52:-1 53:0.112764 54:-1 55:-1 56:-0.980769 57:-1 58:-0.984962 59:-0.411765 60:-0.983193 
-32 1:-1 2:-1 3:-0.994413 4:-0.97619 5:-1 6:-0.967593 7:-0.999161 8:-0.983003 9:-0.999264 10:-0.999996 11:-0.993175 12:-1 13:-0.97619 14:-0.989592 15:-0.998593 16:-1 17:-0.99817 18:-0.989592 19:-0.945578 20:-0.980198 21:-1 22:-1 23:-1 24:-0.998915 25:-0.973716 26:-0.355968 27:-1 28:-0.99035 29:-1 30:-0.96 31:-1 32:-0.946768 33:-1 34:-1 35:-0.974414 36:-0.875 37:-0.73095 38:-0.99569 39:-0.999085 40:-0.96988 41:-1 42:-0.946768 43:-0.96 45:-1 46:-0.99877 47:-1 48:-0.97619 49:-1 50:-1 51:1 52:-1 53:-0.322414 54:-1 55:-1 56:-1 57:-1 58:-0.992481 59:-0.99819 60:-1 
-30.25006082497472 1:-0.714286 2:-0.806452 3:-0.513966 4:-0.0238095 5:-0.999979 6:-0.5 7:-0.998984 8:-0.212465 9:-0.999332 10:-0.999858 11:-0.696639 12:-1 13:-0.0238095 14:-0.583695 15:-0.998769 16:-0.581395 17:-0.998854 18:-0.583695 19:-0.659864 20:-0.386139 21:-0.940261 22:-0.764706 23:-0.940261 24:-0.999606 25:-0.797518 26:-0.0631748 27:-1 28:-0.130277 29:-1 30:-0.94 31:-0.866667 32:-0.148289 33:-0.692308 34:-1 35:-0.571429 36:-0.375 37:0.434299 38:-0.405172 39:-0.998791 40:0.0481928 41:-1 42:-0.148289 43:-0.94 45:-0.462687 46:-0.998622 47:-0.185185 48:-0.0238095 49:-1 50:-0.999979 51:1 52:-0.772455 53:-0.217147 54:-0.882353 55:-1 56:-0.129808 57:-0.999752 58:-0.413534 59:-0.998209 60:-0.0588235 
