svm_type epsilon_svr
kernel_type rbf
gamma 0.125
nr_class 2
total_sv 2350
rho -1.6984
SV
8 1:-0.883359 2:-0.816874 3:-0.779468 4:-0.779468 5:-0.911383 6:0.833487 7:-0.867228 8:-0.967742 9:-0.967742 10:-1 11:-0.867228 12:-1 13:-0.82093 14:-0.804549 15:-1 16:-1 17:-1 18:-1 19:-1 20:-1 21:-0.4375 22:-0.748184 23:-0.972544 24:-0.98085 25:-0.766667 26:-0.933798 27:-0.976048 28:-0.981541 29:-0.896601 30:-0.979373 31:-0.507722 32:-0.976122 33:-0.848739 34:-1 35:-1 36:-1 37:-0.851852 38:-1 39:-0.979592 40:-0.85034 41:-1 42:-0.906977 43:-1 44:-0.182625 45:-0.834081 
4.029448567795178 1:-0.873661 2:-0.831981 3:-0.673004 4:-0.673004 5:-0.907645 6:0.854359 7:-0.872188 8:-0.193548 9:-0.193548 10:-1 11:-0.872188 12:-1 13:-0.785441 14:-0.480721 15:-0.991142 16:-0.905779 17:-0.991142 18:-1 19:-1 20:-1 21:-0.375 22:-0.302663 23:-0.820081 24:-0.778091 25:0.3 26:-0.43554 27:-0.616766 28:-0.884318 29:-0.415014 30:-0.861846 31:-0.369393 32:-0.934121 33:-0.142857 34:-0.875 35:-0.909091 36:-0.714286 37:-0.111111 38:-0.882353 39:-0.0612245 40:-0.673469 41:-0.882353 42:-0.186047 43:-1 44:-0.0276743 45:0.179372 
8 1:-0.982832 2:-0.968625 3:-1 4:-1 5:-0.984856 6:0.96108 7:-0.985556 8:-1 9:-1 10:-1 11:-0.985556 12:-1 13:-0.449944 14:-0.984032 15:-1 16:-1 17:-1 18:-1 19:-1 20:-1 21:-1 22:-1 23:-0.999924 24:-1 25:-1 26:-1 27:-1 28:-1 29:-0.998584 30:-0.999735 31:-1 32:-0.997796 33:-1 34:-1 35:-1 36:-1 37:-1 38:-1 39:-1 40:-1 41:-1 42:-1 43:-1 44:0.0428571 45:-1 
-8 1:-0.895191 2:-0.835132 3:-0.91635 4:-0.91635 5:-0.926826 6:0.867881 7:-0.890006 8:-0.967742 9:-0.967742 10:-1 11:-0.890006 12:-1 13:-0.830969 14:-0.79405 15:-0.999941 16:-0.996181 17:-0.999941 18:-1 19:-1 20:-1 21:-0.5625 22:-0.90799 23:-0.970403 24:-0.960011 25:-0.8 26:-0.933798 27:-0.844311 28:-0.973657 29:-0.879603 30:-0.977193 31:-0.188123 32:-0.969999 33:-0.714286 34:-1 35:-1 36:-1 37:-0.925926 38:-0.647059 39:-0.979592 40:-0.904762 41:-0.529412 42:-0.930233 43:-1 44:0.0186047 45:-0.923767 
8 1:-0.891321 2:-0.780366 3:-0.946768 4:-0.946768 5:-0.946981 6:0.882148 7:-0.914624 8:-0.741935 9:-0.741935 10:-1 11:-0.914624 12:-1 13:-0.767612 14:-0.658616 15:-0.996195 16:-0.918366 17:-0.996195 18:-1 19:-1 20:-1 21:-0.5 22:-0.79661 23:-0.910919 24:-0.898057 25:-0.7 26:-0.773519 27:-0.88024 28:-0.932549 29:-0.558074 30:-0.939277 31:-0.340484 32:-0.957754 33:-0.630252 34:-1 35:-0.636364 36:-0.428571 37:-0.777778 38:-0.882353 39:-0.469388 40:-0.795918 41:-0.882353 42:-0.604651 43:-1 44:-0.00712004 45:-0.457399 
5.854915335973356 1:-0.468669 2:-0.88019 3:-0.771863 4:-0.771863 5:-0.488304 6:0.470063 7:-0.445907 8:-0.709677 9:-0.709677 10:-1 11:-0.445907 12:-1 13:-0.95906 14:0.125148 15:-0.405208 16:0.757307 17:-0.405208 18:-1 19:-1 20:-1 22:-0.733656 23:-0.351654 24:-0.32864 25:-0.566667 26:-0.236934 27:-0.712575 28:-0.731805 29:-0.46034 30:-0.36276 31:-0.705965 32:0.0883487 33:-0.411765 34:-1 35:-0.909091 36:-1 37:-0.481481 38:-1 39:-0.755102 40:-0.877551 41:-1 42:-0.906977 43:-1 44:0.883695 45:-0.569507 
-8 1:-0.867226 2:-0.822442 3:-0.961977 4:-0.961977 5:-0.894289 6:0.822279 7:-0.860825 8:-1 9:-1 10:-1 11:-0.860825 12:-1 13:-0.667791 14:-0.891352 15:-0.999762 16:-0.949957 17:-0.999762 18:-1 19:-1 20:-1 21:-0.6875 22:-0.966102 23:-0.991124 24:-0.987046 25:-1 26:-0.993031 27:-0.988024 28:-0.993964 29:-0.973088 30:-0.993208 31:-0.544643 32:-0.982367 33:-0.983193 34:-1 35:-1 36:-1 37:-1 38:-1 39:-0.918367 40:-0.945578 41:-1 42:-0.953488 43:-1 44:0.0428571 45:-0.955157 
-8 1:-0.894643 2:-0.863024 3:-1 4:-1 5:-0.925159 6:0.887731 7:-0.890443 8:-1 9:-1 10:-1 11:-0.890443 12:-1 13:-0.695018 14:-0.832336 15:-1 16:-1 17:-1 18:-1 19:-1 20:-1 21:-0.8125 22:-0.956416 23:-0.981219 24:-0.969023 25:-0.866667 26:-0.947735 27:-0.94012 28:-0.959624 29:-0.930595 30:-0.984615 31:-0.271429 32:-0.969265 33:-0.983193 34:-1 35:-0.909091 36:-1 37:-1 38:-1 39:-0.897959 40:-0.931973 41:-1 42:-0.930233 43:-1 44:-0.0405714 45:-0.93722 
-8 1:-0.948711 2:-0.8772 3:-0.992395 4:-0.992395 5:-0.963788 6:0.887911 7:-0.93312 8:-1 9:-1 10:-1 11:-0.93312 12:-1 13:-0.709633 14:-0.934632 15:-1 16:-1 17:-1 18:-1 19:-1 20:-1 21:-0.9375 22:-0.985472 23:-0.996757 24:-0.997184 25:-0.966667 26:-1 27:-0.976048 28:-0.994889 29:-0.970255 30:-0.997316 31:-0.448052 32:-0.992898 33:-0.983193 34:-1 35:-1 36:-1 37:-1 38:-1 39:-1 40:-0.959184 41:-1 42:-1 43:-1 44:0.0428571 45:-0.977578 
8 1:-0.89567 2:-0.839051 3:-0.992395 4:-0.992395 5:-0.930422 6:0.880082 7:-0.894761 8:-0.903226 9:-0.903226 10:-1 11:-0.894761 12:-1 13:-0.850516 14:-0.806677 15:-0.998217 16:-0.870643 17:-0.998217 18:-1 19:-1 20:-1 21:-0.6875 22:-0.811138 23:-0.97381 24:-0.971276 25:-0.833333 26:-0.961672 27:-0.916168 28:-0.970754 29:-0.895184 30:-0.979801 31:-0.595238 32:-0.974163 33:-0.865546 34:-1 35:-1 36:-1 37:-0.925926 38:-1 39:-0.795918 40:-0.945578 41:-1 42:-0.930233 43:-1 44:-0.276952 45:-0.793722 
-8 1:-0.895179 2:-0.845656 3:-0.847909 4:-0.847909 5:-0.920866 6:0.86053 7:-0.884615 8:-1 9:-1 10:-1 11:-0.884615 12:-1 13:-0.771985 14:-0.771707 15:-0.9978 16:-0.882085 17:-0.9978 18:-1 19:-1 20:-1 21:-0.5625 22:-0.723971 23:-0.964483 24:-0.957758 25:-0.8 26:-0.919861 27:-0.784431 28:-0.970503 29:-0.86119 30:-0.97219 31:-0.356061 32:-0.96804 33:-0.966387 34:-0.875 35:-0.818182 36:-1 37:-1 38:-0.764706 39:-0.897959 40:-0.918367 41:-0.882353 42:-0.953488 43:-1 44:-0.0730159 45:-0.780269 
8 1:-0.860114 2:-0.83939 3:-0.673004 4:-0.673004 5:-0.893761 6:0.847773 7:-0.854917 8:-0.83871 9:-0.83871 10:-1 11:-0.854917 12:-1 13:-0.853601 14:-0.691891 15:-0.998633 16:-0.958874 17:-0.998633 18:-1 19:-1 20:-1 21:-0.5 22:-0.467312 23:-0.93652 24:-0.922839 25:-0.833333 26:-0.801394 27:-0.688623 28:-0.949557 29:-0.820113 30:-0.950278 31:-0.407087 32:-0.95702 33:-0.848739 34:-1 35:-0.727273 36:-1 37:-0.62963 38:-0.647059 39:-0.795918 40:-0.782313 41:-0.764706 42:-0.767442 43:-1 44:0.173214 45:-0.699552 
-8 1:-0.896792 2:-0.827609 3:-0.764259 4:-0.764259 5:-0.917813 6:0.833645 7:-0.891396 8:-0.709677 9:-0.709677 10:-1 11:-0.891396 12:-1 13:-0.787602 14:-0.633894 15:-0.988229 16:-0.757382 17:-0.988229 18:-1 19:-1 20:-1 21:-0.1875 22:-0.113801 23:-0.907261 24:-0.872712 25:-0.566667 26:-0.832753 27:-0.844311 28:-0.956129 29:-0.604816 30:-0.930394 31:-0.544643 32:-0.944285 33:-0.647059 34:-1 35:-0.818182 36:-0.714286 37:-0.407407 38:-1 39:-0.653061 40:-0.755102 41:-1 42:-0.651163 43:-1 44:-0.0688776 45:-0.538117 
8 1:-0.949494 2:-0.891905 3:-0.969582 4:-0.969582 5:-0.975126 6:0.935175 7:-0.944048 8:-0.967742 9:-0.967742 10:-1 11:-0.944048 12:-1 13:-0.930088 14:-0.90802 15:-1 16:-1 17:-1 18:-1 19:-1 20:-1 21:-0.625 22:-0.975787 23:-0.99422 24:-0.994368 25:-1 26:-0.986063 27:-0.976048 28:-0.993765 29:-0.954674 30:-0.99501 31:-0.540043 32:-0.990204 33:-0.932773 34:-1 35:-1 36:-1 37:-1 38:-0.882353 39:-0.897959 40:-0.972789 41:-0.882353 42:-0.953488 43:-1 44:-0.494372 45:-0.977578 
-8 1:-0.876278 2:-0.844455 3:-0.961977 4:-0.961977 5:-0.909495 6:0.864619 7:-0.872374 8:-0.967742 9:-0.967742 10:-1 11:-0.872374 12:-1 13:-0.857895 14:-0.714652 15:-0.998454 16:-0.946139 17:-0.998454 18:-1 19:-1 20:-1 21:-0.625 22:-0.733656 23:-0.945238 24:-0.904252 25:-0.833333 26:-0.87108 27:-0.748503 28:-0.940663 29:-0.824363 30:-0.95717 31:-0.247143 32:-0.960693 33:-0.882353 34:-1 35:-1 36:-0.714286 37:-0.62963 38:-0.882353 39:-0.653061 40:-0.768707 41:-0.882353 42:-0.813953 43:-1 44:-0.165714 45:-0.780269 
8 1:-0.882367 2:-0.853174 3:-0.931559 4:-0.931559 5:-0.912066 6:0.867246 7:-0.886479 8:-0.967742 9:-0.967742 10:-1 11:-0.886479 12:-1 13:-0.819811 14:-0.838198 15:-0.998633 16:-0.855932 17:-0.998633 18:-1 19:-1 20:-1 21:-0.625 22:-0.883777 23:-0.982043 24:-0.975218 25:-0.866667 26:-0.968641 27:-0.952096 28:-0.983957 29:-0.94051 30:-0.985623 31:-0.0822259 32:-0.972693 33:-0.966387 34:-1 35:-1 36:-1 37:-1 38:-1 39:-0.959184 40:-0.945578 41:-1 42:-0.930233 43:-1 44:0.0671096 45:-0.789238 
-8 1:-0.907448 2:-0.818672 3:-0.863118 4:-0.863118 5:-0.929205 6:0.834492 7:-0.887902 8:-1 9:-1 10:-1 11:-0.887902 12:-1 13:-0.765602 14:-0.721518 15:-0.999287 16:-0.975711 17:-0.999287 18:-1 19:-1 20:-1 21:-0.5625 22:-0.627119 23:-0.943948 24:-0.934666 25:-0.733333 26:-0.84669 27:-0.868263 28:-0.950489 29:-0.705382 30:-0.959149 31:-0.331852 32:-0.969999 33:-0.663866 34:-1 35:-1 36:-1 37:-0.481481 38:-1 39:-0.734694 40:-0.823129 41:-1 42:-0.744186 43:-1 44:-0.161722 45:-0.623318 
-8 1:-0.909309 2:-0.87424 3:-0.977186 4:-0.977186 5:-0.938491 6:0.905121 7:-0.917147 8:-1 9:-1 10:-1 11:-0.917147 12:-1 13:-0.556941 14:-0.927122 15:-1 16:-1 17:-1 18:-1 19:-1 20:-1 21:-0.9375 22:-0.995157 23:-0.996246 24:-0.996621 25:-1 26:-0.982578 27:-0.988024 28:-0.998188 29:-0.984419 30:-0.996736 31:-0.241071 32:-0.992898 33:-1 34:-1 35:-1 36:-1 37:-1 38:-1 39:-1 40:-0.986395 41:-1 42:-1 43:-1 44:-0.130952 45:-0.977578 
-8 1:-0.905608 2:-0.841949 3:-0.961977 4:-0.961977 5:-0.957524 6:0.936731 7:-0.918708 8:-0.967742 9:-0.967742 10:-1 11:-0.918708 12:-1 13:-0.564947 14:-0.873255 15:-0.999881 16:-0.980662 17:-0.999881 18:-1 19:-1 20:-1 21:-0.8125 22:-0.995157 23:-0.988448 24:-0.983667 25:-0.9 26:-0.965157 27:-0.952096 28:-0.983301 29:-0.947592 30:-0.99094 31:-0.121241 32:-0.986653 33:-0.915966 34:-1 35:-0.909091 36:-1 37:-0.925926 38:-1 39:-0.959184 40:-0.959184 41:-1 42:-0.976744 43:-1 44:-0.341353 45:-0.950673 
-8 1:-0.925461 2:-0.863861 3:-1 4:-1 5:-0.960115 6:0.922081 7:-0.921119 8:-1 9:-1 10:-1 11:-0.921119 12:-1 13:-0.812979 14:-0.830758 15:-0.999049 16:-0.9078 17:-0.999049 18:-1 19:-1 20:-1 21:-0.5625 22:-0.912833 23:-0.98046 24:-0.976345 25:-0.833333 26:-0.954704 27:-0.976048 28:-0.982497 29:-0.890935 30:-0.984337 31:-0.571886 32:-0.982857 33:-0.94958 34:-1 35:-0.909091 36:-1 37:-1 38:-1 39:-0.857143 40:-0.768707 41:-1 42:-1 43:-1 44:-0.224542 45:-0.7713 
-8 1:-0.866392 2:-0.830171 3:-1 4:-1 5:-0.898729 6:0.842228 7:-0.84836 8:-1 9:-1 10:-1 11:-0.84836 12:-1 13:-0.747658 14:-0.886057 15:-1 16:-1 17:-1 18:-1 19:-1 20:-1 21:-0.75 22:-0.917676 23:-0.990573 24:-0.990425 25:-0.9 26:-0.979094 27:-0.94012 28:-0.985935 29:-0.971671 30:-0.992578 31:-0.421769 32:-0.987265 33:-0.966387 34:-1 35:-0.909091 36:-1 37:-0.851852 38:-1 39:-0.979592 40:-0.972789 41:-1 42:-0.976744 43:-1 44:-0.00680272 45:-0.946188 
-8 1:-0.932736 2:-0.873472 3:-0.847909 4:-0.847909 5:-0.963631 6:0.924806 7:-0.92767 8:-0.967742 9:-0.967742 10:-1 11:-0.92767 12:-1 13:-0.879988 14:-0.797391 15:-1 16:-1 17:-1 18:-1 19:-1 20:-1 21:-0.75 22:-0.830508 23:-0.972923 24:-0.976345 25:-0.8 26:-0.89547 27:-0.892216 28:-0.956909 29:-0.835694 30:-0.977898 31:-0.169719 32:-0.975387 33:-0.882353 34:-1 35:-0.909091 36:-1 37:-0.777778 38:-1 39:-0.795918 40:-0.85034 41:-1 42:-0.953488 43:-1 44:0.0339438 45:-0.829596 
-8 1:-0.907208 2:-0.886211 3:-0.954373 4:-0.954373 5:-0.91753 6:0.861989 7:-0.899929 8:-1 9:-1 10:-1 11:-0.899929 12:-1 13:-0.290164 14:-0.855139 15:-0.999881 16:-0.983117 17:-0.999881 18:-1 19:-1 20:-1 21:-0.6875 22:-0.961259 23:-0.986734 24:-0.993805 25:-0.966667 26:-0.989547 27:-0.964072 28:-0.983894 29:-0.946176 30:-0.988344 31:-0.688645 32:-0.985061 33:-1 34:-1 35:-1 36:-1 37:-1 38:-1 39:-0.959184 40:-0.85034 41:-1 42:-1 43:-1 44:-0.197802 45:-0.973094 
8 1:-0.902503 2:-0.851401 3:-1 4:-1 5:-0.920179 6:0.849154 7:-0.89232 8:-1 9:-1 10:-1 11:-0.89232 12:-1 13:-0.123488 14:-0.976057 15:-1 16:-1 17:-1 18:-1 19:-1 20:-1 21:-1 22:-1 23:-0.999558 24:-0.998874 25:-1 26:-1 27:-1 28:-1 29:-0.998584 30:-0.999509 31:0.517857 32:-0.995714 33:-1 34:-1 35:-1 36:-1 37:-1 38:-1 39:-1 40:-1 41:-1 42:-1 43:-1 44:0.0428571 45:-1 
6.381624303643318 1:-0.858873 2:-0.765455 3:-0.406844 4:-0.406844 5:-0.890362 6:0.7806 7:-0.848708 8:-0.612903 9:-0.612903 10:-1 11:-0.848708 12:-1 13:-0.634394 14:-0.587706 15:-0.990666 16:-0.861777 17:-0.990666 18:-1 19:-1 20:-1 21:-0.0625 22:-0.336562 23:-0.870836 24:-0.819769 25:-0.466667 26:-0.56446 27:-0.808383 28:-0.945975 29:-0.567989 30:-0.912173 31:-0.474206 32:-0.954938 33:-0.697479 34:-1 35:-0.636364 36:-1 37:-0.037037 38:-0.764706 39:-0.714286 40:-0.727891 41:-0.764706 42:-0.72093 43:-1 44:-0.277498 45:-0.201794 
0.5797975959414808 1:-0.893551 2:-0.805272 3:-0.703422 4:-0.703422 5:-0.920695 6:0.828504 7:-0.885939 8:-0.967742 9:-0.967742 10:-1 11:-0.885939 12:-1 13:-0.893134 14:-0.671863 15:-1 16:-1 17:-1 18:-1 19:-1 20:-1 21:-0.5625 22:-0.25908 23:-0.921601 24:-0.929034 25:-0.4 26:-0.766551 27:-0.736527 28:-0.931668 29:-0.648725 30:-0.943789 31:-0.292886 32:-0.959469 33:-0.764706 34:-1 35:-0.636364 36:-0.714286 37:-0.703704 38:-0.764706 39:-0.591837 40:-0.782313 41:-0.882353 42:-0.604651 43:-1 44:-0.0367183 45:-0.636771 
-8 1:-0.890603 2:-0.834217 3:-0.992395 4:-0.992395 5:-0.922518 6:0.86434 7:-0.889626 8:-0.903226 9:-0.903226 10:-1 11:-0.889626 12:-1 13:-0.828938 14:-0.753827 15:-0.998692 16:-0.940673 17:-0.998692 18:-1 19:-1 20:-1 21:-0.6875 22:-0.791768 23:-0.957986 24:-0.953253 25:-0.866667 26:-0.905923 27:-0.784431 28:-0.946692 29:-0.838527 30:-0.967831 31:-0.419255 32:-0.96902 33:-0.579832 34:-1 35:-1 36:-1 37:-0.777778 38:-0.764706 39:-0.77551 40:-0.809524 41:-0.764706 42:-0.906977 43:-1 44:-0.129441 45:-0.757848 
8 1:-0.909314 2:-0.830911 3:-0.969582 4:-0.969582 5:-0.929831 6:0.843573 7:-0.891156 8:-0.967742 9:-0.967742 10:-1 11:-0.891156 12:-1 13:-0.78477 14:-0.809847 15:-0.998633 16:-0.901305 17:-0.998633 18:-1 19:-1 20:-1 21:-0.5 22:-0.898305 23:-0.973682 24:-0.965643 25:-0.9 26:-0.909408 27:-0.904192 28:-0.979719 29:-0.868272 30:-0.980431 31:-0.450988 32:-0.974775 33:-0.94958 34:-1 35:-0.545455 36:-1 37:-0.851852 38:-1 39:-0.959184 40:-0.959184 41:-1 42:-0.976744 43:-1 44:0.0206687 45:-0.923767 
-8 1:-0.893139 2:-0.822537 3:-0.498099 4:-0.498099 5:-0.924186 6:0.853971 7:-0.891253 8:-0.322581 9:-0.322581 10:-1 11:-0.891253 12:-1 13:-0.749045 14:-0.564096 15:-0.998692 16:-0.980808 17:-0.998692 18:-1 19:-1 20:-1 21:0.0625 22:-0.675545 23:-0.869647 24:-0.832723 25:-0.633333 26:-0.738676 27:-0.724551 28:-0.95074 29:-0.454674 30:-0.902043 31:-0.488805 32:-0.94208 33:-0.00840336 34:-1 35:-0.909091 36:-1 37:-0.333333 38:-1 39:-0.591837 40:-0.823129 41:-1 42:-0.837209 43:-1 44:-0.0057735 45:-0.497758 
8 1:-0.889039 2:-0.841012 3:-1 4:-1 5:-0.925247 6:0.880501 7:-0.889425 8:-0.967742 9:-0.967742 10:-1 11:-0.889425 12:-1 13:-0.52311 14:-0.644209 15:-1 16:-1 17:-1 18:-1 19:-1 20:-1 21:-0.625 22:-0.845036 23:-0.914774 24:-0.842298 25:-0.533333 26:-0.780488 27:-0.676647 28:-0.9145 29:-0.685552 30:-0.934174 31:-0.523543 32:-0.946856 33:-0.613445 34:-1 35:-1 36:-1 37:-0.555556 38:-1 39:-0.367347 40:-0.673469 41:-0.882353 42:-0.883721 43:-1 44:-0.270468 45:-0.556054 
-8 1:-0.933825 2:-0.873838 3:-0.901141 4:-0.901141 5:-0.969101 6:0.937648 7:-0.928828 8:-1 9:-1 10:-1 11:-0.928828 12:-1 13:-0.851391 14:-0.843421 15:-0.998454 16:-0.819367 17:-0.998454 18:-1 19:-1 20:-1 21:-0.75 22:-0.893462 23:-0.983832 24:-0.985919 25:-0.933333 26:-0.944251 27:-0.928144 28:-0.973805 29:-0.898017 30:-0.986492 31:-0.251468 32:-0.974163 33:-0.89916 34:-1 35:-1 36:-1 37:-1 38:-1 39:-1 40:-0.931973 41:-1 42:-0.930233 43:-1 44:0.114286 45:-0.919283 
8 1:-0.934091 2:-0.899484 3:-0.969582 4:-0.969582 5:-0.959728 6:0.935243 7:-0.934683 8:-0.967742 9:-0.967742 10:-1 11:-0.934683 12:-1 13:-0.744832 14:-0.835169 15:-0.998395 16:-0.823766 17:-0.998395 18:-1 19:-1 20:-1 21:-0.625 22:-0.90799 23:-0.982776 24:-0.976908 25:-1 26:-0.916376 27:-0.856287 28:-0.981951 29:-0.907932 30:-0.985106 31:-0.356061 32:-0.983347 33:-0.89916 34:-1 35:-1 36:-1 37:-0.925926 38:-0.647059 39:-0.918367 40:-1 41:-0.647059 42:-0.883721 43:-1 44:-0.304762 45:-0.90583 
-8 1:-0.910598 2:-0.863586 3:-0.787072 4:-0.787072 5:-0.946547 6:0.915496 7:-0.913922 8:-0.354839 9:-0.354839 10:-1 11:-0.913922 12:-1 13:-0.641856 14:-0.563924 15:-0.999643 16:-0.994398 17:-0.999643 18:-1 19:-1 20:-1 21:-0.4375 22:-0.598063 23:-0.878228 24:-0.874402 25:-0.8 26:-0.749129 27:-0.60479 28:-0.912112 29:-0.456091 30:-0.901967 31:-0.416512 32:-0.938897 33:-0.176471 34:-1 35:-0.818182 36:-0.714286 37:-0.777778 38:-0.882353 39:-0.44898 40:-0.714286 41:-0.882353 42:-0.627907 43:-1 44:-0.0898701 45:-0.439462 
-8 1:-0.927382 2:-0.880578 3:-0.992395 4:-0.992395 5:-0.936394 6:0.868552 7:-0.921105 8:-1 9:-1 10:-1 11:-0.921105 12:-1 13:-0.683142 14:-0.853575 15:-0.995482 16:-0.417005 17:-0.995482 18:-1 19:-1 20:-1 21:-0.75 22:-0.937046 23:-0.985379 24:-0.978598 25:-1 26:-0.979094 27:-0.928144 28:-0.978418 29:-0.924929 30:-0.988105 31:-0.718915 32:-0.985428 33:-0.915966 34:-1 35:-1 36:-1 37:-1 38:-1 39:-1 40:-0.986395 41:-1 42:-1 43:-1 44:-0.227513 45:-0.901345 
-8 1:-0.931365 2:-0.860955 3:-0.984791 4:-0.984791 5:-0.955613 6:0.893704 7:-0.924192 8:-0.935484 9:-0.935484 10:-1 11:-0.924192 12:-1 13:-0.719043 14:-0.936367 15:-1 16:-1 17:-1 18:-1 19:-1 20:-1 21:-0.9375 22:-1 23:-0.996939 24:-0.996621 25:-1 26:-0.993031 27:-1 28:-0.998459 29:-0.98017 30:-0.997442 31:-0.595238 32:-0.99302 33:-0.966387 34:-1 35:-1 36:-1 37:-1 38:-1 39:-0.979592 40:-1 41:-1 42:-1 43:-1 44:-0.0266667 45:-0.991031 
8 1:-0.899045 2:-0.815952 3:-0.589354 4:-0.589354 5:-0.932305 6:0.858355 7:-0.903937 8:-0.967742 9:-0.967742 10:-1 11:-0.903937 12:-1 13:-0.753607 14:-0.757949 15:-0.998098 16:-0.913094 17:-0.998098 18:-1 19:-1 20:-1 21:-0.125 22:-0.854722 23:-0.958283 24:-0.939735 25:-0.933333 26:-0.885017 27:-0.964072 28:-0.981519 29:-0.803116 30:-0.968864 31:-0.501276 32:-0.976612 33:-0.848739 34:-1 35:-0.909091 36:-1 37:-0.851852 38:-1 39:-0.918367 40:-0.972789 41:-1 42:-0.860465 43:-1 44:-0.106122 45:-0.829596 
8 1:-0.910925 2:-0.826305 3:-0.8327 4:-0.8327 5:-0.936162 6:0.853079 7:-0.901521 8:-0.903226 9:-0.903226 10:-1 11:-0.901521 12:-1 13:-0.830242 14:-0.72828 15:-0.999881 16:-0.995658 17:-0.999881 18:-1 19:-1 20:-1 21:-0.5625 22:-0.743341 23:-0.947762 24:-0.928471 25:-0.4 26:-0.815331 27:-0.94012 28:-0.953557 29:-0.71813 30:-0.961051 31:-0.514286 32:-0.978204 33:-0.747899 34:-1 35:-0.727273 36:-1 37:-0.777778 38:-1 39:-0.755102 40:-0.85034 41:-1 42:-0.860465 43:-1 44:-0.155286 45:-0.811659 
-8 1:-0.888868 2:-0.853388 3:-0.574144 4:-0.574144 5:-0.911427 6:0.853341 7:-0.894553 8:-0.645161 9:-0.645161 10:-1 11:-0.894553 12:-1 13:-0.78504 14:-0.755829 15:-1 16:-1 17:-1 18:-1 19:-1 20:-1 21:-0.625 22:-0.859564 23:-0.960749 24:-0.967333 25:-0.966667 26:-0.940767 27:-0.928144 28:-0.958914 29:-0.858357 30:-0.968335 31:-0.519095 32:-0.951632 33:-0.89916 34:-1 35:-1 36:-1 37:-1 38:-1 39:-0.959184 40:-0.931973 41:-1 42:-0.953488 43:-1 44:0.259689 45:-0.834081 
-8 1:-0.907301 2:-0.847348 3:-0.878327 4:-0.878327 5:-0.953234 6:0.926311 7:-0.921614 8:-1 9:-1 10:-1 11:-0.921614 12:-1 13:-0.804122 14:-0.732942 15:-1 16:-1 17:-1 18:-1 19:-1 20:-1 21:-0.625 22:-0.733656 23:-0.951755 24:-0.928471 25:-0.833333 26:-0.867596 27:-0.592814 28:-0.949571 29:-0.780453 30:-0.962337 31:-0.435668 32:-0.969877 33:-0.781513 34:-1 35:-0.636364 36:-1 37:-0.925926 38:-0.882353 39:-0.816327 40:-0.70068 41:-0.764706 42:-0.813953 43:-1 44:-0.0641026 45:-0.811659 
-0.4780968770238753 1:-0.900652 2:-0.870955 3:-0.977186 4:-0.977186 5:-0.930283 6:0.896754 7:-0.903758 8:-0.903226 9:-0.903226 10:-1 11:-0.903758 12:-1 13:-0.942608 14:-0.466048 15:-0.996195 16:-0.959182 17:-0.996195 18:-1 19:-1 20:-1 21:-0.5625 22:0.128329 23:-0.821612 24:-0.765137 26:-0.397213 27:0.413174 28:-0.830962 29:-0.311615 30:-0.854059 31:-0.339249 32:-0.931305 33:-0.495798 34:-1 35:-0.727273 36:-0.714286 37:-0.703704 38:0.411765 39:0.530612 40:-0.0612245 41:0.411765 42:0.44186 43:-1 44:-0.0877677 45:-0.0224215 
8 1:-0.901988 2:-0.843911 3:-0.961977 4:-0.961977 5:-0.938644 6:0.894172 7:-0.90927 8:-0.967742 9:-0.967742 10:-1 11:-0.90927 12:-1 13:-0.533529 14:-0.917978 15:-1 16:-1 17:-1 18:-1 19:-1 20:-1 21:-0.875 22:-0.975787 23:-0.995005 24:-0.994931 25:-0.966667 26:-0.986063 27:-0.988024 28:-0.997118 29:-0.978754 30:-0.995955 31:-0.0513393 32:-0.986898 33:-0.915966 34:-1 35:-1 36:-1 37:-1 38:-1 39:-1 40:-0.972789 41:-1 42:-1 43:-1 44:0.0428571 45:-0.977578 
-8 1:-0.893774 2:-0.851413 3:-0.870722 4:-0.870722 5:-0.930997 6:0.895717 7:-0.905926 8:-0.419355 9:-0.419355 10:-1 11:-0.905926 12:-1 13:-0.473929 14:-0.762553 15:-0.998514 16:-0.924126 17:-0.998514 18:-1 19:-1 20:-1 21:-0.5625 22:-0.961259 23:-0.962694 24:-0.971839 25:-1 26:-0.954704 27:-0.94012 28:-0.966935 29:-0.856941 30:-0.969998 31:-0.404762 32:-0.96902 33:-0.831933 34:-1 35:-1 36:-1 37:-0.925926 38:-1 39:-0.918367 40:-0.877551 41:-1 42:-0.953488 43:-1 44:0.226891 45:-0.896861 
8 1:-0.896368 2:-0.842806 3:-0.802281 4:-0.802281 5:-0.932189 6:0.886711 7:-0.900573 8:-0.645161 9:-0.645161 10:-1 11:-0.900573 12:-1 13:-0.662323 14:-0.652819 15:-1 16:-1 17:-1 18:-1 19:-1 20:-1 21:-0.3125 22:-0.598063 23:-0.919108 24:-0.869896 25:-0.266667 26:-0.637631 27:-0.844311 28:-0.953588 29:-0.675637 30:-0.937249 31:-0.498447 32:-0.947223 33:-0.327731 34:-1 35:-0.909091 36:-0.714286 37:0.111111 38:-0.882353 39:-0.857143 40:-0.836735 41:-0.882353 42:-0.72093 43:-1 44:-0.165714 45:-0.565022 
-8 1:-0.915088 2:-0.854353 3:-1 4:-1 5:-0.955634 6:0.92311 7:-0.918115 8:-1 9:-1 10:-1 11:-0.918115 12:-1 13:-0.800116 14:-0.896104 15:-0.999406 16:-0.857374 17:-0.999406 18:-1 19:-1 20:-1 21:-0.75 22:-0.946731 23:-0.992242 24:-0.989862 25:-0.933333 26:-0.979094 27:-1 28:-0.988291 29:-0.961756 30:-0.99375 31:-0.34949 32:-0.98849 33:-0.932773 34:-1 35:-1 36:-1 37:-0.851852 38:-1 39:-0.979592 40:-0.986395 41:-1 42:-1 43:-1 44:-0.255102 45:-0.928251 
-8 1:-0.937797 2:-0.877765 3:-0.992395 4:-0.992395 5:-0.96574 6:0.923262 7:-0.937508 8:-1 9:-1 10:-1 11:-0.937508 12:-1 13:-0.361593 14:-0.966549 15:-1 16:-1 17:-1 18:-1 19:-1 20:-1 21:-0.875 22:-1 23:-0.999176 24:-0.999437 25:-1 26:-1 27:-1 28:-0.998632 29:-0.994334 30:-0.999156 31:-1 32:-0.997551 33:-1 34:-1 35:-1 36:-1 37:-1 38:-1 39:-1 40:-1 41:-1 42:-1 43:-1 44:-0.582857 45:-1 
-8 1:-0.893935 2:-0.865042 3:-0.931559 4:-0.931559 5:-0.92784 6:0.898064 7:-0.890568 8:-0.806452 9:-0.806452 10:-1 11:-0.890568 12:-1 13:-0.7179 14:-0.652926 15:-0.998692 16:-0.967004 17:-0.998692 18:-1 19:-1 20:-1 21:-0.25 22:-0.496368 23:-0.924275 24:-0.904252 25:-0.8 26:-0.815331 27:-0.736527 28:-0.959581 29:-0.71813 30:-0.937287 31:-0.3625 32:-0.933631 33:-0.848739 34:-1 35:-0.818182 36:-1 37:-1 38:-0.764706 39:-0.77551 40:-0.605442 41:-0.764706 42:-0.627907 43:-1 44:0.0428571 45:-0.627803 
8 1:-0.927376 2:-0.853604 3:-1 4:-1 5:-0.910413 6:0.772241 7:-0.901281 8:-1 9:-1 10:-1 11:-0.901281 12:-1 13:-0.27522 14:-0.976057 15:-1 16:-1 17:-1 18:-1 19:-1 20:-1 21:-0.9375 22:-1 23:-0.999534 24:-0.999437 25:-1 26:-1 27:-1 28:-0.998278 29:-0.997167 30:-0.999509 31:-1 32:-0.997796 33:-1 34:-1 35:-1 36:-1 37:-1 38:-1 39:-1 40:-0.986395 41:-1 42:-1 43:-1 44:-0.304762 45:-1 
-8 1:-0.883799 2:-0.8463 3:-0.977186 4:-0.977186 5:-0.918454 6:0.876353 7:-0.893258 8:-0.967742 9:-0.967742 10:-1 11:-0.893258 12:-1 13:-0.453199 14:-0.932434 15:-1 16:-1 17:-1 18:-1 19:-1 20:-1 21:-1 22:-0.995157 23:-0.996541 24:-0.993805 25:-1 26:-0.993031 27:-0.976048 28:-1 29:-0.988669 30:-0.997152 31:-0.662698 32:-0.989714 33:-1 34:-1 35:-1 36:-1 37:-0.925926 38:-1 39:-0.979592 40:-0.972789 41:-1 42:-1 43:-1 44:-0.304762 45:-0.977578 
8 1:-0.925562 2:-0.85775 3:-0.847909 4:-0.847909 5:-0.955575 6:0.903692 7:-0.918621 8:-0.806452 9:-0.806452 10:-1 11:-0.918621 12:-1 13:-0.758331 14:-0.745535 15:-0.998811 16:-0.947994 17:-0.998811 18:-1 19:-1 20:-1 21:-0.5 22:-0.709443 23:-0.95642 24:-0.963391 25:-0.6 26:-0.857143 27:-0.916168 28:-0.966347 29:-0.746459 30:-0.965701 31:-0.392857 32:-0.971101 33:-0.798319 34:-1 35:-1 36:-0.714286 37:-0.777778 38:-0.764706 39:-0.673469 40:-0.768707 41:-0.764706 42:-0.837209 43:-1 44:-0.154127 45:-0.695067 
-8 1:-0.90399 2:-0.849756 3:-0.91635 4:-0.91635 5:-0.932538 6:0.878537 7:-0.905739 8:-0.935484 9:-0.935484 10:-1 11:-0.905739 12:-1 13:-0.722961 14:-0.782181 15:-0.998098 16:-0.887674 17:-0.998098 18:-1 19:-1 20:-1 21:-0.625 22:-0.733656 23:-0.967776 24:-0.955505 25:-0.733333 26:-0.881533 27:-0.868263 28:-0.967445 29:-0.86119 30:-0.974597 31:-0.540043 32:-0.976367 33:-0.747899 34:-1 35:-0.909091 36:-0.714286 37:-0.62963 38:-0.764706 39:-0.816327 40:-0.768707 41:-0.764706 42:-0.813953 43:-1 44:-0.136219 45:-0.713004 
-8 1:-0.874521 2:-0.785499 3:-0.931559 4:-0.931559 5:-0.908522 6:0.816465 7:-0.866322 8:-1 9:-1 10:-1 11:-0.866322 12:-1 13:-0.897391 14:-0.876387 15:-0.999941 16:-0.990726 17:-0.999941 18:-1 19:-1 20:-1 21:-0.875 22:-0.917676 23:-0.987946 24:-0.988736 25:-0.9 26:-0.937282 27:-0.988024 28:-0.996094 29:-0.954674 30:-0.991356 31:-0.724026 32:-0.98653 33:-0.915966 34:-1 35:-0.909091 36:-1 37:-0.62963 38:-1 39:-0.959184 40:-0.945578 41:-1 42:-0.953488 43:-1 44:-0.241558 45:-0.955157 
8 1:-0.876853 2:-0.837655 3:-1 4:-1 5:-0.905885 6:0.848146 7:-0.872338 8:-1 9:-1 10:-1 11:-0.872338 12:-1 13:-0.797728 14:-0.857979 15:-0.999881 16:-0.98433 17:-0.999881 18:-1 19:-1 20:-1 21:-0.5625 22:-0.970944 23:-0.98569 24:-0.987609 25:-1 26:-0.979094 27:-0.916168 28:-0.986963 29:-0.953258 30:-0.988773 31:-0.464286 32:-0.976734 33:-0.966387 34:-1 35:-1 36:-1 37:-1 38:-1 39:-0.857143 40:-0.931973 41:-1 42:-0.883721 43:-1 44:-0.263866 45:-0.946188 
3.890656632398581 1:-0.876175 2:-0.793243 3:-0.695817 4:-0.695817 5:-0.90005 6:0.796662 7:-0.861326 8:-1 9:-1 10:-1 11:-0.861326 12:-1 13:-0.940661 14:-0.458027 15:-0.999584 16:-0.996221 17:-0.999584 18:-1 19:-1 20:-1 21:1 22:0.961259 23:-0.78924 24:-0.676711 25:0.266667 26:-0.205575 27:-0.221557 28:-0.957183 29:-0.209632 30:-0.849712 31:-0.440647 32:-0.93755 33:-0.327731 34:-1 36:-0.714286 37:0.185185 38:-0.529412 39:-0.204082 40:-0.428571 41:-0.529412 42:-0.348837 43:-1 44:-0.0746742 45:-0.0807175 
-8 1:-0.885957 2:-0.838532 3:-0.885932 4:-0.885932 5:-0.924692 6:0.882859 7:-0.895315 8:-0.967742 9:-0.967742 10:-1 11:-0.895315 12:-1 13:-0.848959 14:-0.769359 15:-0.999524 16:-0.975179 17:-0.999524 18:-1 19:-1 20:-1 21:-0.3125 22:-0.806295 23:-0.963512 24:-0.956632 25:-0.866667 26:-0.867596 27:-0.844311 28:-0.979083 29:-0.868272 30:-0.971636 31:-0.450988 32:-0.971101 33:-0.865546 34:-1 35:-1 36:-1 37:-0.555556 38:-0.882353 39:-0.836735 40:-0.85034 41:-0.882353 42:-0.906977 43:-1 44:-0.112462 45:-0.802691 
-8 1:-0.904192 2:-0.848922 3:-0.885932 4:-0.885932 5:-0.922906 6:0.851129 7:-0.894003 8:-1 9:-1 10:-1 11:-0.894003 12:-1 13:-0.772479 14:-0.631225 15:-0.991201 16:-0.814424 17:-0.991201 18:-1 19:-1 20:-1 21:-0.4375 22:-0.554479 23:-0.909378 24:-0.892425 25:-0.7 26:-0.836237 27:-0.712575 28:-0.939148 29:-0.609065 30:-0.929399 31:-0.309567 32:-0.946979 33:-0.781513 34:-1 35:-0.909091 36:-0.142857 37:-0.703704 38:-0.882353 39:-0.530612 40:-0.70068 41:-0.882353 42:-0.790698 43:-1 44:-0.0663228 45:-0.591928 
-8 1:-0.946981 2:-0.915268 3:-1 4:-1 5:-0.962725 6:0.930611 7:-0.939044 8:-0.83871 9:-0.83871 10:-1 11:-0.939044 12:-1 13:-0.725556 14:-0.762915 15:-0.998573 16:-0.918076 17:-0.998573 18:-1 19:-1 20:-1 21:-0.5 22:-0.893462 23:-0.966857 24:-0.962264 25:-0.933333 26:-0.916376 27:-0.94012 28:-0.975425 29:-0.793201 30:-0.970086 31:-0.421769 32:-0.969265 33:-0.781513 34:-1 35:-0.727273 36:-1 37:-0.851852 38:-0.882353 39:-0.857143 40:-0.945578 41:-0.882353 42:-0.930233 43:-1 44:-0.248008 45:-0.816143 
8 1:-0.927965 2:-0.880602 3:-0.977186 4:-0.977186 5:-0.955233 6:0.918779 7:-0.934172 8:-0.967742 9:-0.967742 10:-1 11:-0.934172 12:-1 13:-0.448897 14:-0.899542 15:-1 16:-1 17:-1 18:-1 19:-1 20:-1 21:-0.8125 22:-0.990315 23:-0.993063 24:-0.984793 25:-1 26:-0.986063 27:-0.976048 28:-0.993813 29:-0.963173 30:-0.994128 31:-0.550265 32:-0.990326 33:-0.983193 34:-1 35:-0.818182 36:-1 37:-1 38:-0.882353 39:-0.918367 40:-0.986395 41:-0.882353 42:-0.976744 43:-1 44:-0.227513 45:-0.991031 
-8 1:-0.894276 2:-0.859787 3:-0.779468 4:-0.779468 5:-0.916862 6:0.863113 7:-0.892498 8:-0.354839 9:-0.354839 10:-1 11:-0.892498 12:-1 13:-0.742671 14:-0.641638 15:-0.995541 16:-0.89658 17:-0.995541 18:-1 19:-1 20:-1 21:-0.4375 22:-0.733656 23:-0.917616 24:-0.903126 25:-0.7 26:-0.818815 27:-0.94012 28:-0.942239 29:-0.691218 30:-0.933242 31:-0.403947 32:-0.950285 33:-0.310924 34:-1 35:-1 36:-1 37:-0.703704 38:-1 39:-0.408163 40:-0.85034 41:-1 42:-0.697674 43:-1 44:-0.12381 45:-0.439462 
-8 1:-0.897021 2:-0.8316 3:-1 4:-1 5:-0.940019 6:0.897242 7:-0.91485 8:-0.903226 9:-0.903226 10:-1 11:-0.91485 12:-1 13:-0.894642 14:-0.818003 15:-0.999941 16:-0.995239 17:-0.999941 18:-1 19:-1 20:-1 21:-0.625 22:-0.791768 23:-0.976303 24:-0.971839 25:-0.8 26:-0.954704 27:-0.952096 28:-0.979308 29:-0.90085 30:-0.982006 31:-0.486922 32:-0.978326 33:-0.781513 34:-1 35:-0.909091 36:-1 37:-1 38:-0.882353 39:-0.897959 40:-0.945578 41:-0.882353 42:-0.837209 43:-1 44:-0.148089 45:-0.860987 
8 1:-0.911775 2:-0.883111 3:-1 4:-1 5:-0.939359 6:0.910146 7:-0.909763 8:-1 9:-1 10:-1 11:-0.909763 12:-1 13:-0.709737 14:-0.81867 15:-0.998752 16:-0.888326 17:-0.998752 18:-1 19:-1 20:-1 21:-0.625 22:-0.874092 23:-0.978807 24:-0.974092 25:-1 26:-0.958188 27:-0.856287 28:-0.978888 29:-0.910765 30:-0.982132 31:-0.383371 32:-0.975632 33:-0.94958 34:-1 35:-0.909091 36:-1 37:-0.925926 38:-0.647059 39:-0.816327 40:-0.877551 41:-0.647059 42:-0.744186 43:-1 44:-0.120089 45:-0.811659 
-8 1:-0.907783 2:-0.840918 3:-0.923954 4:-0.923954 5:-0.932934 6:0.864265 7:-0.903769 8:-1 9:-1 10:-1 11:-0.903769 12:-1 13:-0.840422 14:-0.716517 15:-0.992509 16:-0.740385 17:-0.992509 18:-1 19:-1 20:-1 21:-0.6875 22:-0.815981 23:-0.944941 24:-0.920586 25:-0.966667 26:-0.89547 27:-0.976048 28:-0.927882 29:-0.740793 30:-0.957712 31:-0.57104 32:-0.968652 33:-0.630252 34:-1 35:-1 36:-1 37:-0.851852 38:-1 39:-0.673469 40:-0.931973 41:-1 42:-0.953488 43:-1 44:-0.217857 45:-0.538117 
8 1:-0.868212 2:-0.827656 3:-0.695817 4:-0.695817 5:-0.904145 6:0.851557 7:-0.869964 8:-0.870968 9:-0.870968 10:-1 11:-0.869964 12:-1 13:-0.855075 14:-0.60049 15:-0.996909 16:-0.945364 17:-0.996909 18:-1 19:-1 20:-1 21:-0.375 22:-0.457627 23:-0.891808 24:-0.869896 25:-0.0666667 26:-0.728223 27:-0.652695 28:-0.932993 29:-0.66289 30:-0.917428 31:-0.441124 32:-0.950285 33:-0.361345 34:-1 35:-0.636364 36:-1 37:-0.703704 38:-0.882353 39:-0.44898 40:-0.755102 41:-0.882353 42:-0.44186 43:-1 44:-0.0662283 45:-0.331839 
8 1:-0.834943 2:-0.692649 3:-0.954373 4:-0.954373 5:-0.916301 6:0.836775 7:-0.87816 8:-0.967742 9:-0.967742 10:-1 11:-0.87816 12:-1 13:-0.582413 14:-0.943772 15:-1 16:-1 17:-1 18:-1 19:-1 20:-1 21:-1 22:-0.995157 23:-0.996808 24:-0.994931 25:-1 26:-0.989547 27:-1 28:-1 29:-0.990085 30:-0.997946 31:-0.241071 32:-0.993633 33:-0.94958 34:-1 35:-1 36:-1 37:-1 38:-1 39:-1 40:-1 41:-1 42:-1 43:-1 44:-0.217857 45:-0.986547 
-8 1:-0.90081 2:-0.854534 3:-0.992395 4:-0.992395 5:-0.934676 6:0.894708 7:-0.900336 8:-1 9:-1 10:-1 11:-0.900336 12:-1 13:-0.18294 14:-0.951025 15:-1 16:-1 17:-1 18:-1 19:-1 20:-1 21:-0.9375 22:-1 23:-0.998172 24:-0.997184 25:-1 26:-1 27:-0.988024 28:-0.99768 29:-0.992918 30:-0.998387 31:-0.494048 32:-0.996082 33:-1 34:-1 35:-1 36:-1 37:-1 38:-1 39:-0.959184 40:-1 41:-1 42:-1 43:-1 44:-0.652381 45:-1 
-8 1:-0.915837 2:-0.874881 3:-0.885932 4:-0.885932 5:-0.943305 6:0.905913 7:-0.917668 8:-0.580645 9:-0.580645 10:-1 11:-0.917668 12:-1 13:-0.686829 14:-0.693782 15:-0.996909 16:-0.900996 17:-0.996909 18:-1 19:-1 20:-1 21:-0.4375 22:-0.535109 23:-0.940396 24:-0.901436 25:-0.8 26:-0.891986 27:-0.988024 28:-0.958209 29:-0.726629 30:-0.95087 31:-0.514912 32:-0.965591 33:-0.344538 34:-1 35:-0.909091 36:-1 37:-0.851852 38:-1 39:-0.755102 40:-0.741497 41:-1 42:-0.883721 43:-1 44:-0.301178 45:-0.636771 
-8 1:-0.915857 2:-0.8551 3:-1 4:-1 5:-0.929621 6:0.851178 7:-0.919242 8:-0.967742 9:-0.967742 10:-1 11:-0.919242 12:-1 13:-0.528867 14:-0.932268 15:-1 16:-1 17:-1 18:-1 19:-1 20:-1 21:-0.9375 22:-0.995157 23:-0.996484 24:-0.994931 25:-1 26:-0.996516 27:-1 28:-0.995052 29:-0.983003 30:-0.99714 31:-0.299451 32:-0.994735 33:-1 34:-1 35:-1 36:-1 37:-1 38:-1 39:-0.959184 40:-0.931973 41:-1 42:-1 43:-1 44:0.283516 45:-0.973094 
8 1:-0.833115 2:-0.710565 3:-0.528517 4:-0.528517 5:-0.872815 6:0.736734 7:-0.87389 8:-0.83871 9:-0.83871 10:-1 11:-0.87389 12:-1 13:-0.807847 14:-0.604715 15:-0.996552 16:-0.949297 17:-0.996552 18:-1 19:-1 20:-1 21:-0.1875 22:-0.443099 23:-0.869917 24:-0.869333 25:-0.533333 26:-0.630662 27:-0.688623 28:-0.935105 29:-0.611898 30:-0.919129 31:-0.448052 32:-0.932529 33:-0.630252 34:-1 35:-0.181818 36:-0.714286 37:-0.037037 38:-0.647059 39:-0.734694 40:-0.795918 41:-0.882353 42:-0.627907 43:-1 44:0.145247 45:-0.502242 
8 1:-0.865858 2:-0.831209 3:-0.551331 4:-0.551331 5:-0.90431 6:0.8593 7:-0.875404 8:-0.774194 9:-0.774194 10:-1 11:-0.875404 12:-1 13:-0.605952 14:-0.606259 15:-0.995066 16:-0.908576 17:-0.995066 18:-1 19:-1 20:-1 21:-0.0625 22:-0.46247 23:-0.896808 24:-0.883413 25:-0.7 26:-0.780488 27:-0.664671 28:-0.956722 29:-0.684136 30:-0.919746 31:-0.444356 32:-0.917345 33:-0.613445 34:-1 35:-1 36:-1 37:-0.851852 38:-1 39:-0.673469 40:-0.85034 41:-1 42:-0.651163 43:-1 44:0.080102 45:-0.497758 
-8 1:-0.895371 2:-0.835094 3:-0.422053 4:-0.422053 5:-0.922881 6:0.856725 7:-0.89549 8:0.16129 9:0.16129 10:-1 11:-0.89549 12:-1 13:-0.593813 14:-0.544024 15:-0.994114 16:-0.918873 17:-0.994114 18:-1 19:-1 20:-1 21:-0.25 22:-0.627119 23:-0.861215 24:-0.831597 25:-0.7 26:-0.662021 27:-0.844311 28:-0.926444 29:-0.429178 30:-0.892995 31:-0.534123 32:-0.928611 33:-0.092437 34:-1 35:-1 36:-1 37:0.037037 38:-1 39:-0.530612 40:-0.741497 41:-1 42:-0.860465 43:-1 44:0.00155587 45:-0.591928 
-8 1:-0.92117 2:-0.878911 3:-0.977186 4:-0.977186 5:-0.965502 6:0.959278 7:-0.924169 8:-1 9:-1 10:-1 11:-0.924169 12:-1 13:-0.460504 14:-0.892112 15:-1 16:-1 17:-1 18:-1 19:-1 20:-1 21:-0.75 22:-0.946731 23:-0.99213 24:-0.986483 25:-1 26:-0.979094 27:-0.976048 28:-0.987698 29:-0.961756 30:-0.993296 31:-0.34949 32:-0.983469 33:-0.94958 34:-1 35:-0.909091 36:-1 37:-1 38:-1 39:-0.959184 40:-0.931973 41:-1 42:-0.976744 43:-1 44:-0.106122 45:-0.910314 
8 1:-0.980425 2:-0.951622 3:-1 4:-1 5:-0.967086 6:0.898218 7:-0.993563 8:-1 9:-1 10:-1 11:-0.993563 12:-1 13:-0.396017 14:-0.986185 15:-1 16:-1 17:-1 18:-1 19:-1 20:-1 21:-1 22:-1 23:-0.999951 24:-1 25:-1 26:-1 27:-1 28:-1 29:-0.998584 30:-0.999786 31:-1 32:-1 33:-1 34:-1 35:-1 36:-1 37:-1 38:-1 39:-1 40:-1 41:-1 42:-1 43:-1 44:0.0428571 45:-1 
-8 1:-0.910304 2:-0.842967 3:-0.984791 4:-0.984791 5:-0.940296 6:0.880982 7:-0.907673 8:-0.83871 9:-0.83871 10:-1 11:-0.907673 12:-1 13:-0.803687 14:-0.753578 15:-0.995601 16:-0.799031 17:-0.995601 18:-1 19:-1 20:-1 21:-0.3125 22:-0.694915 23:-0.958283 24:-0.956069 25:-0.5 26:-0.864111 27:-0.928144 28:-0.977262 29:-0.79745 30:-0.967768 31:-0.641617 32:-0.972204 33:-0.865546 34:-1 35:-0.909091 36:-1 37:-0.925926 38:-0.882353 39:-0.673469 40:-0.863946 41:-1 42:-0.767442 43:-1 44:-0.319246 45:-0.470852 
-8 1:-0.932275 2:-0.877127 3:-0.954373 4:-0.954373 5:-0.965133 6:0.933403 7:-0.94081 8:-1 9:-1 10:-1 11:-0.94081 12:-1 13:-0.784066 14:-0.808319 15:-0.999941 16:-0.995353 17:-0.999941 18:-1 19:-1 20:-1 21:-0.6875 22:-0.864407 23:-0.975714 24:-0.965643 25:-0.966667 26:-0.89547 27:-0.928144 28:-0.968967 29:-0.858357 30:-0.980129 31:-0.428925 32:-0.978449 33:-0.865546 34:-1 35:-0.909091 36:-1 37:-0.62963 38:-1 39:-0.918367 40:-0.823129 41:-1 42:-0.860465 43:-1 44:-0.173975 45:-0.789238 
8 1:-0.974403 2:-0.946572 3:-0.870722 4:-0.870722 5:-0.965228 6:0.90461 7:-0.942619 8:-1 9:-1 10:-1 11:-0.942619 12:-1 13:-0.587419 14:-0.873537 15:-0.99893 16:-0.785781 17:-0.99893 18:-1 19:-1 20:-1 21:-0.6875 22:-0.98063 23:-0.990657 24:-0.994931 25:-0.833333 26:-0.97561 27:-0.988024 28:-0.988944 29:-0.913598 30:-0.990978 31:-0.657258 32:-0.986285 33:-0.966387 34:-1 35:-1 36:-1 37:-1 38:-1 39:-0.938776 40:-0.972789 41:-1 42:-1 43:-1 44:-0.125346 45:-0.950673 
8 1:-0.909551 2:-0.812274 3:-1 4:-1 5:-0.937184 6:0.845316 7:-0.920348 8:-1 9:-1 10:-1 11:-0.920348 12:-1 13:-0.477913 14:-0.982053 15:-1 16:-1 17:-1 18:-1 19:-1 20:-1 21:-1 22:-1 23:-0.999746 24:-1 25:-1 26:-1 27:-1 28:-1 29:-0.998584 30:-0.999685 31:-1 32:-0.998163 33:-1 34:-1 35:-1 36:-1 37:-1 38:-1 39:-1 40:-1 41:-1 42:-1 43:-1 44:-1 45:-1 
8 1:-0.923417 2:-0.879268 3:-0.984791 4:-0.984791 5:-0.95815 6:0.934952 7:-0.921879 8:-0.806452 9:-0.806452 10:-1 11:-0.921879 12:-1 13:-0.672487 14:-0.784323 15:-1 16:-1 17:-1 18:-1 19:-1 20:-1 21:-0.6875 22:-0.869249 23:-0.970468 24:-0.970149 25:-0.933333 26:-0.933798 27:-0.964072 28:-0.965099 29:-0.849858 30:-0.975076 31:-0.319092 32:-0.977469 33:-0.697479 34:-1 35:-1 36:-1 37:-0.703704 38:-1 39:-0.979592 40:-0.891156 41:-1 42:-1 43:-1 44:-0.12283 45:-0.690583 
-8 1:-0.917607 2:-0.851757 3:-0.984791 4:-0.984791 5:-0.947895 6:0.894366 7:-0.912983 8:-1 9:-1 10:-1 11:-0.912983 12:-1 13:-0.53123 14:-0.905527 15:-1 16:-1 17:-1 18:-1 19:-1 20:-1 21:-0.9375 22:-1 23:-0.993418 24:-0.996621 25:-1 26:-1 27:-0.976048 28:-0.997191 29:-0.966006 30:-0.994758 31:-0.392857 32:-0.990694 33:-0.865546 34:-1 35:-1 36:-1 37:-1 38:-1 39:-0.959184 40:-0.986395 41:-1 42:-1 43:-1 44:-0.249143 45:-0.96861 
8 1:-0.900047 2:-0.837045 3:-0.992395 4:-0.992395 5:-0.925251 6:0.855576 7:-0.886757 8:-0.935484 9:-0.935484 10:-1 11:-0.886757 12:-1 13:-0.809341 14:-0.762966 15:-0.998038 16:-0.904158 17:-0.998038 18:-1 19:-1 20:-1 21:-0.75 22:-0.77724 23:-0.961005 24:-0.956632 25:-0.566667 26:-0.926829 27:-0.892216 28:-0.938557 29:-0.832861 30:-0.970099 31:-0.413265 32:-0.970979 33:-0.882353 34:-1 35:-0.909091 36:-1 37:-1 38:-1 39:-0.734694 40:-0.768707 41:-1 42:-0.976744 43:-1 44:-0.158703 45:-0.596413 
8 1:-0.902518 2:-0.854066 3:-0.885932 4:-0.885932 5:-0.934603 6:0.890762 7:-0.901149 8:-0.935484 9:-0.935484 10:-1 11:-0.901149 12:-1 13:-0.710635 14:-0.826942 15:-0.999168 16:-0.922645 17:-0.999168 18:-1 19:-1 20:-1 21:-0.5 22:-0.941889 23:-0.979612 24:-0.974655 25:-0.933333 26:-0.95122 27:-0.88024 28:-0.985493 29:-0.915014 30:-0.983657 31:-0.303279 32:-0.973428 33:-0.882353 34:-1 35:-1 36:-1 37:-0.925926 38:-1 39:-0.979592 40:-0.945578 41:-1 42:-1 43:-1 44:-0.042623 45:-0.874439 
-8 1:-0.90633 2:-0.878251 3:-0.946768 4:-0.946768 5:-0.934614 6:0.903694 7:-0.91132 8:-1 9:-1 10:-1 11:-0.91132 12:-1 13:-0.465871 14:-0.844346 15:-0.999822 16:-0.978909 17:-0.999822 18:-1 19:-1 20:-1 21:-0.8125 22:-0.951574 23:-0.984026 24:-0.974655 25:-0.9 26:-0.965157 27:-0.892216 28:-0.967442 29:-0.936261 30:-0.986643 31:-0.538043 32:-0.982 33:-0.932773 34:-1 35:-0.909091 36:-1 37:-1 38:-0.882353 39:-0.979592 40:-0.891156 41:-0.882353 42:-0.930233 43:-1 44:0.0428571 45:-0.90583 
-8 1:-0.895167 2:-0.858831 3:-0.984791 4:-0.984791 5:-0.922399 6:0.875727 7:-0.898519 8:-1 9:-1 10:-1 11:-0.898519 12:-1 13:-0.646863 14:-0.916588 15:-0.999762 16:-0.912953 17:-0.999762 18:-1 19:-1 20:-1 21:-0.8125 22:-0.990315 23:-0.994994 24:-0.992678 25:-0.933333 26:-0.989547 27:-0.988024 28:-0.99269 29:-0.981586 30:-0.995829 31:-0.34949 32:-0.988979 33:-0.983193 34:-1 35:-1 36:-1 37:-0.925926 38:-1 39:-1 40:-0.986395 41:-1 42:-0.976744 43:-1 44:0.489796 45:-0.977578 
-8 1:-0.925769 2:-0.855977 3:-0.969582 4:-0.969582 5:-0.949907 6:0.886052 7:-0.923528 8:-0.935484 9:-0.935484 10:-1 11:-0.923528 12:-1 13:-0.774336 14:-0.872787 15:-0.999584 16:-0.933076 17:-0.999584 18:-1 19:-1 20:-1 21:-0.6875 22:-0.990315 23:-0.988314 24:-0.984793 25:-0.933333 26:-0.972125 27:-0.988024 28:-0.989705 29:-0.932011 30:-0.990877 31:-0.318513 32:-0.981755 33:-0.932773 34:-1 35:-1 36:-1 37:-1 38:-1 39:-0.959184 40:-0.986395 41:-0.882353 42:-1 43:-1 44:-0.0635569 45:-0.96861 
8 1:-0.653164 2:-0.881611 3:-0.931559 4:-0.931559 5:-0.699912 6:0.722409 7:-0.663995 8:-1 9:-1 10:-1 11:-0.663995 12:-1 13:0.274186 14:-0.468137 15:-0.999941 16:-0.999251 17:-0.999941 18:-1 19:-1 20:-1 21:-0.25 22:-0.932203 23:-0.848159 24:-0.932977 25:-0.9 26:-0.829268 27:-0.808383 28:-0.9168 29:-0.814448 30:-0.855181 31:-0.310065 32:-0.815955 33:-0.865546 34:-1 35:-1 36:-1 37:-1 38:-0.882353 39:-0.918367 40:-0.986395 41:-1 42:-0.930233 43:-1 44:0.501082 45:-0.883408 
-8 1:-0.931855 2:-0.863096 3:-0.984791 4:-0.984791 5:-0.972377 6:0.94048 7:-0.932357 8:-0.935484 9:-0.935484 10:-1 11:-0.932357 12:-1 13:-0.728113 14:-0.916726 15:-1 16:-1 17:-1 18:-1 19:-1 20:-1 21:-0.875 22:-0.975787 23:-0.994975 24:-0.993241 25:-0.966667 26:-0.972125 27:-0.988024 28:-0.98792 29:-0.967422 30:-0.995842 31:-0.36756 32:-0.991428 33:-1 34:-1 35:-1 36:-1 37:-0.925926 38:-1 39:-1 40:-0.945578 41:-1 42:-1 43:-1 44:-0.217857 45:-0.973094 
8 1:-0.888024 2:-0.826309 3:-0.977186 4:-0.977186 5:-0.927505 6:0.87633 7:-0.899048 8:-1 9:-1 10:-1 11:-0.899048 12:-1 13:-0.750997 14:-0.846604 15:-1 16:-1 17:-1 18:-1 19:-1 20:-1 21:-0.75 22:-0.937046 23:-0.983019 24:-0.979161 25:-0.9 26:-0.933798 27:-0.976048 28:-0.979148 29:-0.934844 30:-0.987009 31:-0.418693 32:-0.984938 33:-0.848739 34:-1 35:-0.909091 36:-0.714286 37:-0.703704 38:-1 39:-0.857143 40:-0.931973 41:-1 42:-0.930233 43:-1 44:-0.112462 45:-0.928251 
-8 1:-0.868927 2:-0.845485 3:-0.977186 4:-0.977186 5:-0.893741 6:0.836219 7:-0.865154 8:-0.967742 9:-0.967742 10:-1 11:-0.865154 12:-1 13:-0.316498 14:-0.954196 15:-1 16:-1 17:-1 18:-1 19:-1 20:-1 21:-0.9375 22:-1 23:-0.998385 24:-0.998874 25:-1 26:-1 27:-1 28:-0.997952 29:-0.995751 30:-0.998564 31:-0.241071 32:-0.993755 33:-0.983193 34:-1 35:-1 36:-1 37:-1 38:-1 39:-0.979592 40:-1 41:-1 42:-1 43:-1 44:0.0428571 45:-0.995516 
-8 1:-0.893481 2:-0.845623 3:-0.969582 4:-0.969582 5:-0.931042 6:0.891576 7:-0.896664 8:-1 9:-1 10:-1 11:-0.896664 12:-1 13:-0.594695 14:-0.752931 15:-0.996968 16:-0.859881 17:-0.996968 18:-1 19:-1 20:-1 21:-0.5625 22:-0.791768 23:-0.958766 24:-0.939172 25:-0.7 26:-0.867596 27:-0.868263 28:-0.9649 29:-0.84136 30:-0.967604 31:-0.247788 32:-0.968285 33:-0.613445 34:-1 35:-1 36:-1 37:-0.777778 38:-1 39:-0.938776 40:-0.959184 41:-1 42:-1 43:-1 44:-0.187863 45:-0.784753 
-8 1:-0.892484 2:-0.86928 3:-0.893536 4:-0.893536 5:-0.923277 6:0.891847 7:-0.885203 8:-0.967742 9:-0.967742 10:-1 11:-0.885203 12:-1 13:-0.798672 14:-0.712456 15:-0.999762 16:-0.991335 17:-0.999762 18:-1 19:-1 20:-1 21:-0.5 22:-0.476998 23:-0.947641 24:-0.935793 25:-0.566667 26:-0.790941 27:-0.60479 28:-0.957969 29:-0.811615 30:-0.956528 31:-0.16178 32:-0.952734 33:-0.798319 34:-1 35:-0.909091 36:-1 37:-0.777778 38:-0.411765 39:-0.755102 40:-0.918367 41:-0.411765 42:-0.627907 43:-1 44:-0.0816631 45:-0.726457 
8 1:-0.888821 2:-0.854391 3:-0.969582 4:-0.969582 5:-0.916005 6:0.866753 7:-0.903805 8:-0.870968 9:-0.870968 10:-1 11:-0.903805 12:-1 13:-0.833051 14:-0.750213 15:-0.997622 16:-0.890921 17:-0.997622 18:-1 19:-1 20:-1 21:-0.75 22:-0.932203 23:-0.958455 24:-0.975781 25:-0.933333 26:-0.937282 27:-0.916168 28:-0.931942 29:-0.852691 30:-0.966911 31:-0.479592 32:-0.944652 33:-0.94958 34:-1 35:-1 36:-1 37:-0.925926 38:-0.882353 39:-0.897959 40:-0.931973 41:-0.882353 42:-0.953488 43:-1 44:0.330884 45:-0.856502 
8 1:-0.913054 2:-0.851076 3:-0.992395 4:-0.992395 5:-0.909761 6:0.799179 7:-0.961532 8:-1 9:-1 10:-1 11:-0.961532 12:-1 13:-0.71212 14:-0.978481 15:-1 16:-1 17:-1 18:-1 19:-1 20:-1 21:-1 22:-1 23:-0.999645 24:-0.999437 25:-1 26:-1 27:-1 28:-1 29:-0.998584 30:-0.999584 31:-1 32:-0.997918 33:-1 34:-1 35:-1 36:-1 37:-1 38:-1 39:-1 40:-1 41:-1 42:-1 43:-1 44:0.0428571 45:-1 
2.029398563164729 1:-0.283802 2:-0.883772 3:-0.893536 4:-0.893536 5:-0.301063 6:0.288009 7:-0.262881 8:-0.709677 9:-0.709677 10:-1 11:-0.262881 12:-1 13:-0.992136 14:0.74781 15:0.503537 16:0.885557 17:0.503537 18:-1 19:-1 20:-1 21:-0.4375 22:-0.438257 23:0.52775 24:0.478457 25:-0.433333 26:0.595819 27:-0.353293 28:0.126932 29:-0.0368272 30:0.529328 31:-0.621093 32:0.745423 33:-0.512605 34:-1 35:-0.545455 36:-0.714286 37:-0.555556 38:-0.764706 39:-0.77551 40:-0.414966 41:-0.647059 42:-0.813953 43:-1 44:0.819257 45:-0.309417 
-8 1:-0.917774 2:-0.880067 3:-0.961977 4:-0.961977 5:-0.945035 6:0.911231 7:-0.910375 8:-1 9:-1 10:-1 11:-0.910375 12:-1 13:-0.698816 14:-0.76364 15:-0.998038 16:-0.894729 17:-0.998038 18:-1 19:-1 20:-1 21:-0.625 22:-0.815981 23:-0.964519 24:-0.960574 25:-0.933333 26:-0.916376 27:-0.772455 28:-0.962742 29:-0.835694 30:-0.970262 31:-0.429182 32:-0.972204 33:-0.89916 34:-1 35:-1 36:-1 37:-0.925926 38:-0.647059 39:-0.795918 40:-0.70068 41:-0.647059 42:-0.883721 43:-1 44:-0.179976 45:-0.869955 
8 1:-0.870809 2:-0.816738 3:-1 4:-1 5:-0.905171 6:0.840552 7:-0.879396 8:-1 9:-1 10:-1 11:-0.879396 12:-1 13:-1 14:-0.806614 15:-1 16:-1 17:-1 18:-1 19:-1 20:-1 21:-1 22:-0.946731 23:-0.972855 24:-0.962264 25:-0.766667 26:-0.926829 27:-0.88024 28:-1 29:-0.912181 30:-0.979789 31:-0.421769 32:-0.973061 33:-0.831933 34:-1 35:-1 36:-1 37:-0.925926 38:-0.882353 39:-0.836735 40:-0.972789 41:-1 42:-0.790698 43:-1 44:-0.271655 45:-0.928251 
-8 1:-0.887305 2:-0.797017 3:-0.969582 4:-0.969582 5:-0.896191 6:0.767129 7:-0.86806 8:-1 9:-1 10:-1 11:-0.86806 12:-1 13:-0.924068 14:-0.762089 15:-1 16:-1 17:-1 18:-1 19:-1 20:-1 21:-0.875 22:-0.946731 23:-0.957072 24:-0.958322 25:-0.933333 26:-0.982578 27:-0.976048 28:-0.908244 29:-0.820113 30:-0.969884 31:-0.383371 32:-0.945264 33:-1 34:-1 35:-1 36:-1 37:-1 38:-1 39:-0.877551 40:-0.918367 41:-1 42:-1 43:-1 44:0.0754464 45:-0.955157 
8 1:-0.873256 2:-0.818718 3:-0.91635 4:-0.91635 5:-0.903302 6:0.832419 7:-0.86886 8:-1 9:-1 10:-1 11:-0.86886 12:-1 13:-0.771702 14:-0.859334 15:-0.999941 16:-0.992262 17:-0.999941 18:-1 19:-1 20:-1 21:-0.75 22:-0.961259 23:-0.985507 24:-0.979724 25:-0.966667 26:-0.944251 27:-0.964072 28:-0.993969 29:-0.951841 30:-0.988974 31:-0.306122 32:-0.983836 33:-0.932773 34:-1 35:-0.909091 36:-1 37:-0.777778 38:-1 39:-0.938776 40:-0.945578 41:-1 42:-0.976744 43:-1 44:0.0130612 45:-0.932735 
-8 1:-0.861843 2:-0.849226 3:-0.992395 4:-0.992395 5:-0.890705 6:0.844085 7:-0.872522 8:-1 9:-1 10:-1 11:-0.872522 12:-1 13:-0.403535 14:-0.952137 15:-1 16:-1 17:-1 18:-1 19:-1 20:-1 21:-0.875 22:-1 23:-0.998257 24:-0.998874 25:-1 26:-0.996516 27:-0.976048 28:-0.998487 29:-0.995751 30:-0.99845 31:-0.241071 32:-0.995347 33:-1 34:-1 35:-1 36:-1 37:-1 38:-1 39:-1 40:-1 41:-1 42:-1 43:-1 44:-0.478571 45:-0.995516 
8 1:-0.932503 2:-0.873984 3:-0.977186 4:-0.977186 5:-0.954898 6:0.901981 7:-0.920081 8:-1 9:-1 10:-1 11:-0.920081 12:-1 13:-0.75568 14:-0.923168 15:-0.999941 16:-0.974521 17:-0.999941 18:-1 19:-1 20:-1 21:-0.6875 22:-0.98063 23:-0.995758 24:-0.994931 25:-1 26:-0.993031 27:-1 28:-0.995389 29:-0.974504 30:-0.996409 31:-0.520677 32:-0.991673 33:-0.94958 34:-1 35:-1 36:-1 37:-1 38:-1 39:-1 40:-0.918367 41:-1 42:-1 43:-1 44:-0.451128 45:-0.973094 
8 1:-0.867607 2:-0.852602 3:-0.870722 4:-0.870722 5:-0.9052 6:0.875667 7:-0.860571 8:-1 9:-1 10:-1 11:-0.860571 12:-1 13:-0.547823 14:-0.814176 15:-0.999287 16:-0.940192 17:-0.999287 18:-1 19:-1 20:-1 21:-0.6875 22:-0.898305 23:-0.977372 24:-0.96846 25:-0.933333 26:-0.95122 27:-0.928144 28:-0.971573 29:-0.932011 30:-0.981275 31:-0.566327 32:-0.944407 33:-0.983193 34:-1 35:-1 36:-1 37:-0.925926 38:-1 39:-0.897959 40:-0.931973 41:-1 42:-0.930233 43:-1 44:0.234402 45:-0.923767 
-8 1:-0.891063 2:-0.845976 3:-0.847909 4:-0.847909 5:-0.913384 6:0.848348 7:-0.878375 8:-0.903226 9:-0.903226 10:-1 11:-0.878375 12:-1 13:-0.67964 14:-0.590615 15:-0.993342 16:-0.884729 17:-0.993342 18:-1 19:-1 20:-1 22:-0.200969 23:-0.889544 24:-0.873838 25:-0.466667 26:-0.794425 27:-0.712575 28:-0.956624 29:-0.586402 30:-0.913383 31:-0.461238 32:-0.936203 33:-0.428571 34:-0.5 35:-0.909091 36:-1 37:-0.925926 38:-0.764706 39:-0.693878 40:-0.687075 41:-0.764706 42:-0.837209 43:1 44:-0.152901 45:-0.403587 
-8 1:-0.888422 2:-0.836224 3:-0.977186 4:-0.977186 5:-0.93373 6:0.90086 7:-0.910044 8:-1 9:-1 10:-1 11:-0.910044 12:-1 13:-0.798159 14:-0.900477 15:-1 16:-1 17:-1 18:-1 19:-1 20:-1 21:-0.6875 22:-0.990315 23:-0.992736 24:-0.989299 25:-0.966667 26:-0.989547 27:-0.976048 28:-0.993472 29:-0.973088 30:-0.994229 31:-0.392857 32:-0.989347 33:-0.915966 34:-1 35:-1 36:-1 37:-1 38:-1 39:-1 40:-0.972789 41:-1 42:-0.953488 43:-1 44:-0.165714 45:-0.950673 
8 1:-0.883211 2:-0.814775 3:-0.642586 4:-0.642586 5:-0.925691 6:0.871063 7:-0.891784 8:-0.806452 9:-0.806452 10:-1 11:-0.891784 12:-1 13:-0.802828 14:-0.690011 15:-0.994114 16:-0.834601 17:-0.994114 18:-1 19:-1 20:-1 21:-0.375 22:-0.569007 23:-0.932044 24:-0.917206 25:-0.366667 26:-0.815331 27:-0.712575 28:-0.957474 29:-0.743626 30:-0.949686 31:-0.34949 32:-0.96253 33:-0.630252 34:-1 35:-1 36:-0.714286 37:-0.925926 38:-0.764706 39:-0.836735 40:-0.836735 41:-0.764706 42:-0.813953 43:-1 44:-0.151962 45:-0.627803 
-8 1:-0.886893 2:-0.874535 3:-0.984791 4:-0.984791 5:-0.909348 6:0.868648 7:-0.879002 8:-1 9:-1 10:-1 11:-0.879002 12:-1 13:-0.528179 14:-0.943576 15:-0.999762 16:-0.817239 17:-0.999762 18:-1 19:-1 20:-1 21:-0.875 22:-1 23:-0.997736 24:-0.996057 25:-1 26:-0.993031 27:-1 28:-0.997127 29:-0.992918 30:-0.997933 31:0.0119048 32:-0.992163 33:-0.983193 34:-1 35:-1 36:-1 37:-1 38:-1 39:-1 40:-1 41:-1 42:-1 43:-1 44:0.0428571 45:-0.982063 
8 1:-0.898483 2:-0.871094 3:-0.992395 4:-0.992395 5:-0.934786 6:0.913322 7:-0.901527 8:-0.741935 9:-0.741935 10:-1 11:-0.901527 12:-1 13:-0.882075 14:-0.689891 15:-0.996909 16:-0.903331 17:-0.996909 18:-1 19:-1 20:-1 21:-0.4375 22:-0.510896 23:-0.938951 24:-0.907632 25:-0.533333 26:-0.808362 27:-0.688623 28:-0.95753 29:-0.769122 30:-0.949648 31:-0.426176 32:-0.958979 33:-0.596639 34:-1 35:-1 36:-0.428571 37:-0.851852 38:-0.882353 39:-0.816327 40:-0.782313 41:-0.764706 42:-0.813953 43:-1 44:-0.0716028 45:-0.273543 
8 1:-0.919337 2:-0.862335 3:-0.984791 4:-0.984791 5:-0.955775 6:0.921822 7:-0.925685 8:-1 9:-1 10:-1 11:-0.925685 12:-1 13:-0.585661 14:-0.857726 15:-1 16:-1 17:-1 18:-1 19:-1 20:-1 21:-0.6875 22:-0.946731 23:-0.986033 24:-0.975781 25:-0.933333 26:-0.89547 27:-1 28:-0.984083 29:-0.929178 30:-0.988735 31:-0.702381 32:-0.979428 33:-0.966387 34:-1 35:-1 36:-1 37:-0.777778 38:-1 39:-0.897959 40:-0.755102 41:-1 42:-0.953488 43:-1 44:-0.427451 45:-0.955157 
-3.480624334612702 1:-0.886378 2:-0.776831 3:0.239544 4:0.239544 5:-0.929245 6:0.841149 7:-0.899742 8:-0.0645161 9:-0.0645161 10:-1 11:-0.899742 12:-1 13:-0.618973 14:-0.430906 15:-0.985375 16:-0.884266 17:-0.985375 18:-1 19:-1 20:-1 21:-0.1875 22:-0.375303 23:-0.758091 24:-0.719516 25:0.7 26:-0.466899 27:-0.772455 28:-0.880246 29:0.130312 30:-0.834541 31:-0.464286 32:-0.932039 33:0.647059 34:-1 35:-0.909091 36:-1 37:-0.481481 38:-1 39:0.204082 40:-0.918367 41:-1 42:-0.581395 43:-0.5 44:-0.141176 45:-0.116592 
8 1:-0.900015 2:-0.838743 3:-0.840304 4:-0.840304 5:-0.931889 6:0.875224 7:-0.903504 8:-0.83871 9:-0.83871 10:-1 11:-0.903504 12:-1 13:-0.898623 14:-0.665991 15:-0.998098 16:-0.952195 17:-0.998098 18:-1 19:-1 20:-1 21:-0.5 22:-0.496368 23:-0.923975 24:-0.875528 25:-0.566667 26:-0.850174 27:-0.856287 28:-0.940877 29:-0.677054 30:-0.94181 31:-0.363693 32:-0.961673 33:-0.512605 34:-1 35:-0.818182 36:-1 37:-0.703704 38:-0.882353 39:-0.530612 40:-0.755102 41:-0.882353 42:-0.604651 43:-1 44:-0.289582 45:-0.659193 
3.472990424386332 1:-0.932592 2:-0.852245 3:-0.224335 4:-0.224335 5:-0.95427 6:0.877715 7:-0.924202 8:-0.645161 9:-0.645161 10:-1 11:-0.924202 12:-1 13:-0.886051 14:-0.351728 15:-0.974318 16:-0.826657 17:-0.974318 18:-1 19:-1 20:-1 21:-0.5 22:0.815981 23:-0.716327 24:-0.702619 25:-0.0666667 26:-0.0731707 27:0.101796 28:-0.770787 29:1 30:-0.786079 31:-0.278132 32:-0.915998 33:0.579832 34:-0.625 35:0.0909091 36:-0.142857 37:0.925926 38:-0.294118 39:0.163265 40:-0.278912 41:-0.176471 42:0.209302 43:-0.5 44:0.176443 45:0.668161 
-8 1:-0.895192 2:-0.815523 3:-0.81749 4:-0.81749 5:-0.924994 6:0.845944 7:-0.886164 8:-1 9:-1 10:-1 11:-0.886164 12:-1 13:-0.812759 14:-0.763847 15:-0.999465 16:-0.974615 17:-0.999465 18:-1 19:-1 20:-1 21:-0.3125 22:-0.588378 23:-0.95984 24:-0.942551 25:-0.833333 26:-0.881533 27:-0.892216 28:-0.978819 29:-0.822946 30:-0.970313 31:-0.397676 32:-0.971591 33:-0.781513 34:-1 35:-0.909091 36:-1 37:-0.703704 38:-1 39:-0.857143 40:-0.823129 41:-1 42:-0.790698 43:-1 44:-0.221995 45:-0.735426 
8 1:-0.946673 2:-0.877212 3:-0.855513 4:-0.855513 5:-0.967765 6:0.905315 7:-0.938051 8:-0.870968 9:-0.870968 10:-1 11:-0.938051 12:-1 13:-0.70309 14:-0.779282 15:-0.999406 16:-0.96469 17:-0.999406 18:-1 19:-1 20:-1 21:-0.3125 22:-0.830508 23:-0.967967 24:-0.961701 25:-0.7 26:-0.885017 27:-1 28:-0.981554 29:-0.728045 30:-0.973942 31:-0.418024 32:-0.976367 33:-0.848739 34:-1 35:-1 36:-1 37:-0.777778 38:-1 39:-0.816327 40:-0.836735 41:-1 42:-0.906977 43:-1 44:0.199556 45:-0.860987 
-8 1:-0.89785 2:-0.867487 3:-0.931559 4:-0.931559 5:-0.930662 6:0.900296 7:-0.901492 8:-0.903226 9:-0.903226 10:-1 11:-0.901492 12:-1 13:-0.372645 14:-0.875335 15:-1 16:-1 17:-1 18:-1 19:-1 20:-1 21:-0.75 22:-0.937046 23:-0.989514 24:-0.993241 25:-1 26:-0.993031 27:-0.952096 28:-0.983126 29:-0.96034 30:-0.991217 31:-0.267241 32:-0.976857 33:-0.966387 34:-1 35:-1 36:-1 37:-1 38:-1 39:-1 40:-0.959184 41:-1 42:-0.976744 43:-1 44:-0.0650246 45:-0.964126 
8 1:-0.897186 2:-0.805682 3:-0.870722 4:-0.870722 5:-0.926422 6:0.836915 7:-0.891536 8:-0.870968 9:-0.870968 10:-1 11:-0.891536 12:-1 13:-0.495538 14:-0.842807 15:-0.998573 16:-0.856018 17:-0.998573 18:-1 19:-1 20:-1 21:-0.625 22:-0.90799 23:-0.981241 24:-0.978598 25:-0.9 26:-0.968641 27:-1 28:-0.984374 29:-0.910765 30:-0.986391 31:-0.288504 32:-0.978571 33:-0.915966 34:-1 35:-0.818182 36:-1 37:-1 38:-1 39:-0.959184 40:-0.931973 41:-1 42:-1 43:-1 44:-0.0549107 45:-0.941704 
8 1:-0.892603 2:-0.855124 3:-0.726236 4:-0.726236 5:-0.9188 6:0.867756 7:-0.895652 8:-0.870968 9:-0.870968 10:-1 11:-0.895652 12:-1 13:-0.715208 14:-0.644 15:-0.994233 16:-0.866719 17:-0.994233 18:-1 19:-1 20:-1 21:-0.25 22:-0.709443 23:-0.917321 24:-0.893551 25:-0.666667 26:-0.853659 27:-0.808383 28:-0.956181 29:-0.694051 30:-0.934099 31:-0.538348 32:-0.920284 33:-0.630252 34:-1 35:-0.909091 36:-1 37:-0.777778 38:-1 39:-0.530612 40:-0.714286 41:-0.882353 42:-0.883721 43:-1 44:0.0764977 45:-0.721973 
-8 1:-0.89075 2:-0.839044 3:-0.992395 4:-0.992395 5:-0.927728 6:0.882323 7:-0.905741 8:-0.967742 9:-0.967742 10:-0.971821 11:-0.905741 12:-0.971821 13:-0.484621 14:-0.82877 15:-0.999643 16:-0.966462 17:-0.999643 18:-0.6 19:-0.971821 20:-1 21:-0.75 22:-0.917676 23:-0.979849 24:-0.98423 25:-0.933333 26:-0.961672 27:-0.988024 28:-0.971911 29:-0.922096 30:-0.983985 31:-0.512117 32:-0.966081 33:-0.966387 34:-1 35:-1 36:-1 37:-0.851852 38:-1 39:-0.918367 40:-0.945578 41:-1 42:-0.976744 43:-1 44:0.191837 45:-0.852018 
8 1:-0.918875 2:-0.833893 3:-1 4:-1 5:-0.951462 6:0.884289 7:-0.918918 8:-1 9:-1 10:-1 11:-0.918918 12:-1 13:-0.767995 14:-0.924365 15:-1 16:-1 17:-1 18:-1 19:-1 20:-1 21:-0.9375 22:-0.995157 23:-0.995521 24:-0.994368 25:-1 26:-1 27:-0.952096 28:-0.998641 29:-0.973088 30:-0.99651 31:-0.241071 32:-0.991918 33:-1 34:-1 35:-1 36:-1 37:-1 38:-1 39:-0.979592 40:-0.986395 41:-1 42:-0.976744 43:-1 44:0.0428571 45:-0.959641 
8 1:-0.896547 2:-0.858611 3:-0.984791 4:-0.984791 5:-0.934748 6:0.906593 7:-0.912095 8:-1 9:-1 10:-1 11:-0.912095 12:-1 13:-0.737324 14:-0.920679 15:-1 16:-1 17:-1 18:-1 19:-1 20:-1 21:-0.8125 22:-0.985472 23:-0.995431 24:-0.994368 25:-0.9 26:-0.972125 27:-0.988024 28:-0.990666 29:-0.983003 30:-0.996195 31:-0.532967 32:-0.993143 33:-0.966387 34:-1 35:-1 36:-1 37:-1 38:-0.882353 39:-0.979592 40:-0.945578 41:-0.882353 42:-0.976744 43:-1 44:-0.197802 45:-0.959641 
8 1:-0.919026 2:-0.866809 3:-0.977186 4:-0.977186 5:-0.950733 6:0.912692 7:-0.92839 8:-1 9:-1 10:-1 11:-0.92839 12:-1 13:-0.746074 14:-0.890811 15:-1 16:-1 17:-1 18:-1 19:-1 20:-1 21:-0.8125 22:-0.946731 23:-0.991625 24:-0.987609 25:-0.966667 26:-0.961672 27:-0.892216 28:-0.982232 29:-0.958924 30:-0.993145 31:-0.190476 32:-0.986775 33:-1 34:-1 35:-0.909091 36:-1 37:-1 38:-0.882353 39:-0.959184 40:-0.972789 41:-0.882353 42:-0.953488 43:-1 44:0.112381 45:-0.973094 
8 1:-0.875273 2:-0.786211 3:-0.551331 4:-0.551331 5:-0.907472 6:0.812717 7:-0.88679 8:-0.83871 9:-0.83871 10:-1 11:-0.88679 12:-1 13:-0.703251 14:-0.679844 15:-0.994412 16:-0.861475 17:-0.994412 18:-1 19:-1 20:-1 21:-0.3125 22:-0.748184 23:-0.922927 24:-0.907068 25:-0.5 26:-0.738676 27:-0.952096 28:-0.956112 29:-0.711048 30:-0.946422 31:-0.392857 32:-0.959591 33:-0.512605 34:-1 35:-0.727273 36:-0.714286 37:-0.851852 38:-1 39:-0.734694 40:-0.85034 41:-1 42:-0.953488 43:-1 44:0.119164 45:-0.654709 
8 1:-0.919665 2:-0.859108 3:-1 4:-1 5:-0.959043 6:0.927143 7:-0.932585 8:-1 9:-1 10:-1 11:-0.932585 12:-1 13:-0.773702 14:-0.90878 15:-1 16:-1 17:-1 18:-1 19:-1 20:-1 21:-0.875 22:-0.98063 23:-0.993917 24:-0.993241 25:-0.9 26:-0.982578 27:-1 28:-0.987974 29:-0.968839 30:-0.995086 31:-0.340062 32:-0.989347 33:-0.915966 34:-1 35:-1 36:-1 37:-0.851852 38:-1 39:-0.979592 40:-1 41:-1 42:-1 43:-1 44:-0.455901 45:-0.964126 
1.044295832825865 1:-0.901346 2:-0.852754 3:-0.931559 4:-0.931559 5:-0.927462 6:0.872461 7:-0.890324 8:-1 9:-1 10:-1 11:-0.890324 12:-1 13:-0.922248 14:-0.662155 15:-0.995244 16:-0.87953 17:-0.995244 18:-1 19:-1 20:-1 21:-0.375 22:-0.346247 23:-0.92458 24:-0.921712 25:-0.3 26:-0.714286 27:-0.580838 28:-0.952691 29:-0.689802 30:-0.9405 31:-0.227273 32:-0.946244 33:-0.781513 34:-1 35:-0.363636 36:-1 37:-0.777778 38:-1 39:-0.816327 40:-0.836735 41:-1 42:-0.697674 43:-1 44:-0.00454545 45:-0.569507 
-8 1:-0.910373 2:-0.877418 3:-1 4:-1 5:-0.944898 6:0.923209 7:-0.907789 8:-0.967742 9:-0.967742 10:-1 11:-0.907789 12:-1 13:-0.661417 14:-0.777461 15:-0.999287 16:-0.9573 17:-0.999287 18:-1 19:-1 20:-1 21:-0.625 22:-0.77724 23:-0.968215 24:-0.949873 25:-0.866667 26:-0.898955 27:-0.844311 28:-0.96849 29:-0.865439 30:-0.973526 31:-0.209449 32:-0.969265 33:-0.966387 34:-1 35:-0.909091 36:-1 37:-1 38:-1 39:-0.857143 40:-0.741497 41:-1 42:-0.953488 43:-1 44:-0.130952 45:-0.807175 
-8 1:-0.917597 2:-0.823422 3:-0.992395 4:-0.992395 5:-0.959478 6:0.898438 7:-0.934193 8:-1 9:-1 10:-1 11:-0.934193 12:-1 13:-0.824149 14:-0.943382 15:-1 16:-1 17:-1 18:-1 19:-1 20:-1 21:-0.875 22:-0.995157 23:-0.997362 24:-0.99831 25:-0.966667 26:-0.993031 27:-1 28:-0.996647 29:-0.983003 30:-0.997921 31:-0.532967 32:-0.995469 33:-0.983193 34:-1 35:-1 36:-1 37:-1 38:-1 39:-0.979592 40:-0.972789 41:-1 42:-1 43:-1 44:-0.0373626 45:-0.977578 
-8 1:-0.904016 2:-0.841001 3:-0.977186 4:-0.977186 5:-0.930343 6:0.864932 7:-0.894062 8:-0.967742 9:-0.967742 10:-1 11:-0.894062 12:-1 13:-0.791569 14:-0.914676 15:-0.999881 16:-0.959632 17:-0.999881 18:-1 19:-1 20:-1 21:-0.75 22:-0.975787 23:-0.994585 24:-0.992678 25:-1 26:-0.979094 27:-0.976048 28:-0.992125 29:-0.975921 30:-0.995653 31:-0.662698 32:-0.989102 33:-1 34:-1 35:-1 36:-1 37:-1 38:-0.882353 39:-0.979592 40:-0.931973 41:-0.882353 42:-0.976744 43:-1 44:-0.188889 45:-0.96861 
-8 1:-0.929049 2:-0.899043 3:-1 4:-1 5:-0.953613 6:0.928449 7:-0.92314 8:-0.870968 9:-0.870968 10:-1 11:-0.92314 12:-1 13:-0.752213 14:-0.696783 15:-0.997444 16:-0.91138 17:-0.997444 18:-1 19:-1 20:-1 21:-0.75 22:-0.815981 23:-0.944955 24:-0.928471 25:-0.766667 26:-0.843206 27:-0.868263 28:-0.912512 29:-0.720963 30:-0.951803 31:-0.279401 32:-0.961305 33:-0.663866 34:-1 35:-0.909091 36:-1 37:-0.925926 38:-1 39:-0.857143 40:-0.85034 41:-1 42:-0.883721 43:-1 44:-0.115152 45:-0.713004 
-8 1:-0.90331 2:-0.867256 3:-0.642586 4:-0.642586 5:-0.934515 6:0.900089 7:-0.905275 8:-0.709677 9:-0.709677 10:-1 11:-0.905275 12:-1 13:-0.857393 14:-0.689533 15:-0.99132 16:-0.731169 17:-0.99132 18:-1 19:-1 20:-1 21:-0.5 22:-0.602906 23:-0.938361 24:-0.913827 25:-0.566667 26:-0.71777 27:-0.88024 28:-0.951002 29:-0.750708 30:-0.949534 31:-0.62268 32:-0.955917 33:-0.445378 34:-1 35:-0.636364 36:-0.428571 37:-0.62963 38:-0.882353 39:-0.77551 40:-0.836735 41:-0.882353 42:-0.651163 43:-1 44:-0.151574 45:-0.730942 
8 1:-0.948841 2:-0.908216 3:-1 4:-1 5:-0.927942 6:0.824873 7:-0.938478 8:-1 9:-1 10:-1 11:-0.938478 12:-1 13:-0.210176 14:-0.975288 15:-1 16:-1 17:-1 18:-1 19:-1 20:-1 21:-0.9375 22:-1 23:-0.999591 24:-0.999437 25:-1 26:-1 27:-1 28:-0.99884 29:-0.997167 30:-0.999483 31:0.0119048 32:-0.998163 33:-1 34:-1 35:-1 36:-1 37:-1 38:-1 39:-1 40:-1 41:-1 42:-1 43:-1 44:-0.304762 45:-1 
8 1:-0.903954 2:-0.843175 3:-0.885932 4:-0.885932 5:-0.935446 6:0.880876 7:-0.903327 8:-0.967742 9:-0.967742 10:-1 11:-0.903327 12:-1 13:-0.797638 14:-0.784323 15:-0.99673 16:-0.806549 17:-0.99673 18:-1 19:-1 20:-1 21:-0.625 22:-0.845036 23:-0.967841 24:-0.951563 25:-0.833333 26:-0.905923 27:-0.676647 28:-0.967149 29:-0.858357 30:-0.975076 31:-0.489038 32:-0.97404 33:-0.983193 34:-1 35:-0.909091 36:-0.714286 37:-0.851852 38:-0.882353 39:-0.938776 40:-0.891156 41:-0.882353 42:-0.906977 43:-1 44:-0.194625 45:-0.852018 
8 1:-0.884121 2:-0.82113 3:-0.726236 4:-0.726236 5:-0.930925 6:0.88892 7:-0.892394 8:-0.483871 9:-0.483871 10:-1 11:-0.892394 12:-1 13:-0.737882 14:-0.641707 15:-0.997622 16:-0.949052 17:-0.997622 18:-1 19:-1 20:-1 21:-0.5 22:-0.719128 23:-0.910791 24:-0.88454 25:-0.333333 26:-0.881533 27:-0.868263 28:-0.932293 29:-0.667139 30:-0.933267 31:-0.446883 32:-0.955183 33:-0.193277 34:-1 35:-1 36:-1 37:-0.851852 38:-1 39:-0.673469 40:-0.605442 41:-0.882353 42:-0.674419 43:-1 44:-0.195763 45:-0.363229 
8 1:-0.911867 2:-0.854237 3:-0.688213 4:-0.688213 5:-0.945503 6:0.90197 7:-0.914765 8:-0.83871 9:-0.83871 10:-1 11:-0.914765 12:-1 13:-0.724564 14:-0.587888 15:-0.995066 16:-0.915778 17:-0.995066 18:-1 19:-1 20:-1 21:-0.25 22:-0.365617 23:-0.887964 24:-0.859758 25:-0.333333 26:-0.655052 27:-0.245509 28:-0.939946 29:-0.474504 30:-0.912249 31:-0.445084 32:-0.945387 33:-0.478992 34:-0.875 35:-0.727273 36:-0.714286 37:-0.555556 38:-0.294118 39:-0.673469 40:-0.537415 41:-0.294118 42:-0.651163 44:-0.0412442 45:-0.26009 
-8 1:-0.896354 2:-0.841031 3:-0.954373 4:-0.954373 5:-0.925734 6:0.867619 7:-0.887413 8:-0.967742 9:-0.967742 10:-1 11:-0.887413 12:-1 13:-0.797633 14:-0.775164 15:-0.999703 16:-0.983669 17:-0.999703 18:-1 19:-1 20:-1 21:-0.75 22:-0.815981 23:-0.965351 24:-0.957195 25:-0.966667 26:-0.916376 27:-0.796407 28:-0.946627 29:-0.859773 30:-0.972997 31:-0.453571 32:-0.978816 33:-0.596639 34:-1 35:-1 36:-1 37:-0.703704 38:-0.882353 39:-0.877551 40:-0.863946 41:-0.882353 42:-0.860465 43:-1 44:-0.27 45:-0.623318 
-6.799288471262504 1:-0.894654 2:-0.809997 3:-0.878327 4:-0.878327 5:-0.920051 6:0.828673 7:-0.884377 8:-1 9:-1 10:-1 11:-0.884377 12:-1 13:-0.780463 14:-0.855139 15:-0.999822 16:-0.97874 17:-0.999822 18:-1 19:-1 20:-1 21:-0.625 22:-0.903148 23:-0.984154 24:-0.978034 25:-1 26:-0.958188 27:-0.94012 28:-0.983386 29:-0.929178 30:-0.988344 31:-0.22619 32:-0.982 33:-0.983193 34:-0.875 35:-0.909091 36:-1 37:-1 38:-1 39:-0.938776 40:-0.931973 41:-0.882353 42:-0.976744 43:-1 44:-0.10028 45:-0.946188 
-0.08829746324272006 1:-0.888183 2:-0.851977 3:-0.855513 4:-0.855513 5:-0.920579 6:0.878467 7:-0.885561 8:-0.548387 9:-0.548387 10:-1 11:-0.885561 12:-1 13:-0.80018 14:-0.4928 15:-0.998514 16:-0.982854 17:-0.998514 18:-1 19:-1 20:-1 21:-0.375 22:0.346247 23:-0.834127 24:-0.775838 25:0.5 26:-0.404181 27:0.664671 28:-0.891212 29:-0.406516 30:-0.868096 31:-0.233844 32:-0.92555 33:-0.277311 34:-1 35:-0.545455 36:-0.714286 37:-0.481481 38:-0.764706 39:-0.387755 40:-0.510204 41:-0.647059 42:-0.209302 43:-1 44:-0.14585 45:0.421525 
-8 1:-0.885005 2:-0.859878 3:-0.536122 4:-0.536122 5:-0.920509 6:0.890772 7:-0.890549 8:-0.741935 9:-0.741935 10:-1 11:-0.890549 12:-1 13:-0.59145 14:-0.623394 15:-0.998157 16:-0.960437 17:-0.998157 18:-1 19:-1 20:-1 21:-0.1875 22:-0.598063 23:-0.910968 24:-0.901436 25:-0.5 26:-0.721254 27:-0.748503 28:-0.956943 29:-0.691218 30:-0.926437 31:-0.445532 32:-0.921386 33:-0.579832 34:-1 35:-0.818182 36:-0.428571 37:-0.703704 38:-1 39:-0.469388 40:-0.809524 41:-0.764706 42:-0.837209 43:-0.5 44:0.12381 45:-0.556054 
-8 1:-0.891809 2:-0.832803 3:-0.931559 4:-0.931559 5:-0.924469 6:0.86612 7:-0.889232 8:-0.806452 9:-0.806452 10:-1 11:-0.889232 12:-1 13:-0.718251 14:-0.70408 15:-0.999881 16:-0.996199 17:-0.999881 18:-1 19:-1 20:-1 21:-0.3125 22:-0.820823 23:-0.940284 24:-0.926781 25:-0.8 26:-0.874564 27:-0.832335 28:-0.965487 29:-0.763456 30:-0.954033 31:-0.385629 32:-0.958734 33:-0.630252 34:-0.875 35:-0.818182 36:-1 37:-0.851852 38:-0.882353 39:-0.693878 40:-0.768707 41:-0.882353 42:-0.767442 44:-0.0688776 45:-0.699552 
8 1:-0.907854 2:-0.895018 3:-0.977186 4:-0.977186 5:-0.934972 6:0.915638 7:-0.907022 8:-0.870968 9:-0.870968 10:-1 11:-0.907022 12:-1 13:-0.607047 14:-0.733449 15:-0.999049 16:-0.95695 17:-0.999049 18:-1 19:-1 20:-1 21:-0.75 22:-0.864407 23:-0.95789 24:-0.944241 25:-0.666667 26:-0.864111 27:-0.94012 28:-0.93549 29:-0.830028 30:-0.962475 31:-0.372786 32:-0.960571 33:-0.848739 34:-1 35:-0.818182 36:-1 37:-0.851852 38:-0.882353 39:-0.653061 40:-0.931973 41:-0.882353 42:-0.767442 43:-1 44:-0.138135 45:-0.735426 
8 1:-0.881637 2:-0.787584 3:-0.634981 4:-0.634981 5:-0.921192 6:0.838623 7:-0.894939 8:-0.516129 9:-0.516129 10:-1 11:-0.894939 12:-1 13:-0.571763 14:-0.636925 15:-0.99352 16:-0.873687 17:-0.99352 18:-1 19:-1 20:-1 22:-0.782082 23:-0.901925 24:-0.88454 25:-0.733333 26:-0.804878 27:-0.904192 28:-0.961914 29:-0.59915 30:-0.931515 31:-0.518989 32:-0.956652 33:-0.394958 34:-1 35:-0.909091 36:-1 37:-0.481481 38:-0.882353 39:-0.632653 40:-0.945578 41:-0.882353 42:-0.790698 43:-1 44:-0.148089 45:-0.587444 
-8 1:-0.924992 2:-0.835281 3:-0.969582 4:-0.969582 5:-0.967094 6:0.91346 7:-0.957325 8:-1 9:-1 10:-1 11:-0.957325 12:-1 13:-0.806776 14:-0.920968 15:-1 16:-1 17:-1 18:-1 19:-1 20:-1 21:-0.9375 22:-0.970944 23:-0.995011 24:-0.995494 25:-0.933333 26:-0.982578 27:-0.976048 28:-0.994744 29:-0.966006 30:-0.99622 31:-0.271429 32:-0.991428 33:-0.932773 34:-1 35:-1 36:-1 37:-1 38:-1 39:-1 40:-0.959184 41:-1 42:-1 43:-1 44:0.00114286 45:-0.96861 
8 1:-0.770034 2:-0.89891 3:-1 4:-1 5:-0.802275 6:0.807322 7:-0.777793 8:-1 9:-1 10:-1 11:-0.777793 12:-1 13:-0.59822 14:-0.941088 15:-1 16:-1 17:-1 18:-1 19:-1 20:-1 21:-0.9375 22:-0.995157 23:-0.99772 24:-0.998874 25:-1 26:-1 27:-1 28:-0.994182 29:-0.997167 30:-0.99777 31:0.0119048 32:-0.993755 33:-1 34:-1 35:-1 36:-1 37:-1 38:-1 39:-1 40:-1 41:-1 42:-1 43:-1 44:0.390476 45:-1 
8 1:-0.881007 2:-0.804525 3:-0.505703 4:-0.505703 5:-0.920528 6:0.852629 7:-0.879436 8:-0.870968 9:-0.870968 10:-1 11:-0.879436 12:-1 13:-0.639085 14:-0.65927 15:-0.999287 16:-0.983553 17:-0.999287 18:-1 19:-1 20:-1 21:0.0625 22:-0.476998 23:-0.917114 24:-0.903126 25:-0.933333 26:-0.783972 27:-0.700599 28:-0.968121 29:-0.68272 30:-0.939504 31:-0.568254 32:-0.949795 33:-0.428571 34:-1 35:-0.909091 36:-1 37:-0.555556 38:-0.647059 39:-0.795918 40:-0.741497 41:-0.647059 42:-0.72093 43:-1 44:0.00114286 45:-0.623318 
-8 1:-0.873895 2:-0.780967 3:-0.946768 4:-0.946768 5:-0.908788 6:0.814559 7:-0.866727 8:-0.967742 9:-0.967742 10:-1 11:-0.866727 12:-1 13:-0.659726 14:-0.862516 15:-0.999762 16:-0.969749 17:-0.999762 18:-1 19:-1 20:-1 21:-0.5625 22:-0.946731 23:-0.985166 24:-0.983103 25:-0.9 26:-0.933798 27:-0.928144 28:-0.987168 29:-0.943343 30:-0.989441 31:-0.555749 32:-0.983836 33:-0.983193 34:-1 35:-1 36:-1 37:-0.777778 38:-0.529412 39:-0.979592 40:-0.972789 41:-0.529412 42:-0.837209 43:-1 44:-0.236934 45:-0.923767 
-8 1:-0.917139 2:-0.856712 3:-0.840304 4:-0.840304 5:-0.941141 6:0.881403 7:-0.912725 8:-0.741935 9:-0.741935 10:-1 11:-0.912725 12:-1 13:-0.916787 14:-0.621288 15:-0.989537 16:-0.788771 17:-0.989537 18:-1 19:-1 20:-1 21:-0.1875 22:-0.447942 23:-0.905311 24:-0.902563 25:-0.533333 26:-0.749129 27:-0.796407 28:-0.95484 29:-0.524079 30:-0.925631 31:-0.297372 32:-0.93804 33:-0.579832 34:-1 35:-0.636364 36:-0.714286 37:-0.777778 38:-0.764706 39:-0.44898 40:-0.85034 41:-0.882353 42:-0.674419 43:-1 44:0.0088173 45:-0.399103 
8 1:-0.918941 2:-0.854425 3:-0.969582 4:-0.969582 5:-0.963262 6:0.935923 7:-0.92618 8:-0.967742 9:-0.967742 10:-1 11:-0.92618 12:-1 13:-0.689285 14:-0.838796 15:-0.999465 16:-0.942557 17:-0.999465 18:-1 19:-1 20:-1 21:-0.625 22:-0.927361 23:-0.982381 24:-0.98423 25:-0.9 26:-0.968641 27:-0.952096 28:-0.984204 29:-0.905099 30:-0.985723 31:-0.285714 32:-0.983347 33:-0.89916 34:-1 35:-1 36:-1 37:-1 38:-1 39:-0.959184 40:-0.891156 41:-1 42:-0.976744 43:-1 44:-0.294538 45:-0.90583 
-8 1:-0.89831 2:-0.838607 3:-0.91635 4:-0.91635 5:-0.931261 6:0.876781 7:-0.896149 8:-0.967742 9:-0.967742 10:-1 11:-0.896149 12:-1 13:-0.810679 14:-0.703163 15:-0.999584 16:-0.986691 17:-0.999584 18:-1 19:-1 20:-1 21:-0.1875 22:-0.636804 23:-0.940312 24:-0.914954 25:-0.6 26:-0.829268 27:-0.688623 28:-0.970982 29:-0.749292 30:-0.953756 31:-0.317817 32:-0.959958 33:-0.361345 34:-1 35:-0.727273 36:-1 37:-1 38:-1 39:-0.857143 40:-0.809524 41:-1 42:-0.72093 43:-1 44:-0.15634 45:-0.600897 
-8 1:-0.895087 2:-0.815043 3:-0.726236 4:-0.726236 5:-0.939641 6:0.885717 7:-0.907159 8:-0.516129 9:-0.516129 10:-1 11:-0.907159 12:-1 13:-0.635569 14:-0.681743 15:-0.999584 16:-0.98895 17:-0.999584 18:-1 19:-1 20:-1 21:-0.0625 22:-0.825666 23:-0.928061 24:-0.913264 25:-0.866667 26:-0.850174 27:-0.712575 28:-0.971664 29:-0.68272 30:-0.947039 31:-0.379365 32:-0.970244 33:-0.478992 34:-1 35:-0.818182 36:-1 37:-0.777778 38:-0.529412 39:-0.591837 40:-0.795918 41:-0.529412 42:-0.697674 43:-1 44:-0.202794 45:-0.565022 
8 1:-0.897411 2:-0.879297 3:-0.893536 4:-0.893536 5:-0.930262 6:0.909762 7:-0.904004 8:-0.870968 9:-0.870968 10:-1 11:-0.904004 12:-1 13:-0.672848 14:-0.675086 15:-0.995006 16:-0.851567 17:-0.995006 18:-1 19:-1 20:-1 21:-0.375 22:-0.835351 23:-0.935762 24:-0.927344 25:-0.8 26:-0.850174 27:-0.832335 28:-0.960742 29:-0.759207 30:-0.94486 31:-0.733709 32:-0.945632 33:-0.89916 34:-1 35:-1 36:-1 37:-0.925926 38:-0.882353 39:-0.693878 40:-0.741497 41:-0.882353 42:-0.813953 43:-1 44:0.353885 45:-0.641256 
-8 1:-0.893154 2:-0.84694 3:-0.771863 4:-0.771863 5:-0.92559 6:0.878428 7:-0.89808 8:-1 9:-1 10:-1 11:-0.89808 12:-1 13:-0.699639 14:-0.669195 15:-0.998752 16:-0.96711 17:-0.998752 18:-1 19:-1 20:-1 21:-0.25 22:-0.641646 23:-0.927494 24:-0.908195 25:-0.733333 26:-0.84669 27:-0.772455 28:-0.960873 29:-0.72238 30:-0.942894 31:-0.399021 32:-0.954203 33:-0.714286 34:-1 35:-0.363636 36:-1 37:-1 38:-0.764706 39:-0.612245 40:-0.714286 41:-0.764706 42:-0.651163 43:-1 44:0.079913 45:-0.690583 
-8 1:-0.894038 2:-0.828032 3:-0.787072 4:-0.787072 5:-0.928102 6:0.867587 7:-0.895247 8:-0.387097 9:-0.387097 10:-1 11:-0.895247 12:-1 13:-0.773335 14:-0.590341 15:-0.988051 16:-0.801393 17:-0.988051 18:-1 19:-1 20:-1 21:0.0625 22:-0.549637 23:-0.884939 24:-0.840608 25:-0.5 26:-0.759582 27:-0.724551 28:-0.956949 29:-0.526912 30:-0.91327 31:-0.338486 32:-0.948325 33:-0.445378 34:-1 35:-0.636364 36:-1 37:-0.62963 38:-0.882353 39:-0.632653 40:-0.809524 41:-0.764706 42:-0.860465 43:-1 44:-0.128358 45:-0.331839 
8 1:-0.903847 2:-0.882543 3:-0.946768 4:-0.946768 5:-0.931327 6:0.903061 7:-0.908781 8:-1 9:-1 10:-1 11:-0.908781 12:-1 13:-0.575215 14:-0.857642 15:-0.999287 16:-0.898371 17:-0.999287 18:-1 19:-1 20:-1 21:-0.5625 22:-0.961259 23:-0.986778 24:-0.987609 25:-1 26:-0.979094 27:-0.904192 28:-0.988183 29:-0.949008 30:-0.988722 31:-0.343629 32:-0.982489 33:-1 34:-1 35:-0.909091 36:-1 37:-1 38:-0.764706 39:-0.979592 40:-0.823129 41:-1 42:-1 43:-1 44:0.0146718 45:-0.928251 
-8 1:-0.914685 2:-0.882751 3:-1 4:-1 5:-0.949283 6:0.931234 7:-0.913934 8:-0.870968 9:-0.870968 10:-1 11:-0.913934 12:-1 13:-0.680956 14:-0.756635 15:-1 16:-1 17:-1 18:-1 19:-1 20:-1 21:-0.75 22:-0.951574 23:-0.964674 24:-0.971839 25:-0.933333 26:-0.961672 27:-0.964072 28:-0.942722 29:-0.835694 30:-0.968536 31:-0.79243 32:-0.955428 33:-0.915966 34:-1 35:-0.909091 36:-0.428571 37:-0.62963 38:-1 39:-0.918367 40:-0.632653 41:-1 42:-0.883721 43:-1 44:0.283516 45:-0.573991 
-8 1:-0.819277 2:-0.817523 3:-1 4:-1 5:-0.854386 6:0.797899 7:-0.82645 8:-1 9:-1 10:-1 11:-0.82645 12:-1 13:-0.822321 14:-0.919817 15:-1 16:-1 17:-1 18:-1 19:-1 20:-1 21:-1 22:-0.990315 23:-0.995027 24:-0.996057 25:-1 26:-0.993031 27:-1 28:-1 29:-0.990085 30:-0.996119 31:-0.620536 32:-0.974285 33:-0.983193 34:-1 35:-1 36:-1 37:-1 38:-1 39:-0.979592 40:-1 41:-1 42:-1 43:-1 44:0.564286 45:-0.986547 
-8 1:-0.918334 2:-0.856552 3:-0.946768 4:-0.946768 5:-0.930965 6:0.850981 7:-0.907463 8:-1 9:-1 10:-1 11:-0.907463 12:-1 13:-0.716535 14:-0.93344 15:-1 16:-1 17:-1 18:-1 19:-1 20:-1 21:-0.875 22:-0.995157 23:-0.996672 24:-0.994368 25:-1 26:-0.996516 27:-1 28:-0.996955 29:-0.983003 30:-0.997228 31:-0.532967 32:-0.993388 33:-1 34:-1 35:-1 36:-1 37:-1 38:-1 39:-0.979592 40:-0.945578 41:-1 42:-1 43:-1 44:-0.197802 45:-0.96861 
-3.424421280229958 1:-0.893278 2:-0.784823 3:-0.148289 4:-0.148289 5:-0.915223 6:0.795386 7:-0.887867 8:-0.806452 9:-0.806452 10:-1 11:-0.887867 12:-1 13:-0.742932 14:-0.541841 15:-0.995779 16:-0.948449 17:-0.995779 18:-1 19:-1 20:-1 21:-0.375 22:-0.331719 23:-0.843334 24:-0.803999 25:-0.4 26:-0.728223 27:-0.772455 28:-0.898968 29:-0.212465 30:-0.891987 31:-0.324186 32:-0.94906 33:-0.0588235 34:-1 35:-0.818182 36:-0.714286 37:-0.185185 38:-0.882353 39:-0.367347 40:-0.659864 41:-0.764706 42:-0.581395 43:-1 44:-0.026417 45:-0.515695 
8 1:-0.912434 2:-0.843872 3:-1 4:-1 5:-0.938183 6:0.871591 7:-0.896755 8:-1 9:-1 10:-1 11:-0.896755 12:-1 13:-0.56316 14:-0.903938 15:-1 16:-1 17:-1 18:-1 19:-1 20:-1 21:-0.9375 22:-0.951574 23:-0.993112 24:-0.992678 25:-1 26:-0.993031 27:-0.988024 28:-0.996828 29:-0.966006 30:-0.994594 31:-0.757143 32:-0.991306 33:-0.94958 34:-1 35:-1 36:-1 37:-0.925926 38:-1 39:-0.897959 40:-1 41:-1 42:-1 43:-1 44:-0.582857 45:-0.932735 
-8 1:-0.872046 2:-0.84286 3:-0.992395 4:-0.992395 5:-0.89899 6:0.842598 7:-0.87214 8:-1 9:-1 10:-1 11:-0.87214 12:-1 13:-0.628238 14:-0.937966 15:-1 16:-1 17:-1 18:-1 19:-1 20:-1 21:-0.9375 22:-1 23:-0.997065 24:-0.997184 25:-1 26:-1 27:-0.988024 28:-0.997191 29:-0.991501 30:-0.997555 31:-0.132653 32:-0.994 33:-1 34:-1 35:-1 36:-1 37:-1 38:-1 39:-0.979592 40:-0.972789 41:-1 42:-1 43:-1 44:0.191837 45:-0.991031 
8 1:-0.886696 2:-0.844139 3:-0.802281 4:-0.802281 5:-0.906224 6:0.835668 7:-0.881769 8:-0.774194 9:-0.774194 10:-1 11:-0.881769 12:-1 13:-0.843441 14:-0.651073 15:-0.990488 16:-0.778037 17:-0.990488 18:-1 19:-1 20:-1 21:-0.5625 22:-0.68523 23:-0.918112 24:-0.857505 25:-0.566667 26:-0.696864 27:-0.844311 28:-0.928887 29:-0.709632 30:-0.936631 31:-0.410541 32:-0.955428 33:-0.697479 34:-1 35:-0.727273 36:-1 37:-0.333333 38:-1 39:-0.653061 40:-0.768707 41:-1 42:-0.813953 43:-1 44:-0.240638 45:-0.641256 
8 1:-0.906094 2:-0.839486 3:-0.954373 4:-0.954373 5:-0.942887 6:0.893626 7:-0.908775 8:-0.903226 9:-0.903226 10:-1 11:-0.908775 12:-1 13:-0.821717 14:-0.668037 15:-0.996433 16:-0.909924 17:-0.996433 18:-1 19:-1 20:-1 21:-0.5625 22:-0.535109 23:-0.924348 24:-0.920586 25:-0.7 26:-0.804878 27:-0.652695 28:-0.932701 29:-0.652975 30:-0.942503 31:-0.333624 32:-0.959346 33:-0.680672 34:-1 35:-0.818182 36:-0.714286 37:-0.777778 38:-0.764706 39:-0.510204 40:-0.70068 41:-0.647059 42:-0.674419 43:-1 44:-0.126713 45:-0.542601 
-8 1:-0.89008 2:-0.806848 3:-0.65019 4:-0.65019 5:-0.9324 6:0.868941 7:-0.901861 8:-0.806452 9:-0.806452 10:-1 11:-0.901861 12:-1 13:-0.826618 14:-0.718831 15:-0.998989 16:-0.966136 17:-0.998989 18:-1 19:-1 20:-1 21:-0.125 22:-0.7046 23:-0.943042 24:-0.928471 25:-0.533333 26:-0.891986 27:-0.892216 28:-0.976878 29:-0.756374 30:-0.95838 31:-0.385838 32:-0.961673 33:-0.680672 34:-1 35:-0.909091 36:-1 37:-0.851852 38:-0.882353 39:-0.857143 40:-0.863946 41:-0.882353 42:-0.813953 43:-1 44:-0.0837325 45:-0.784753 
-8 1:-0.892194 2:-0.874319 3:-0.794677 4:-0.794677 5:-0.931839 6:0.919882 7:-0.90316 8:-0.83871 9:-0.83871 10:-1 11:-0.90316 12:-1 13:-0.616909 14:-0.588462 15:-0.993342 16:-0.87676 17:-0.993342 18:-1 19:-1 20:-1 21:-0.5 22:-0.636804 23:-0.896701 24:-0.876654 25:-0.633333 26:-0.787456 27:-0.688623 28:-0.916729 29:-0.628895 30:-0.912489 31:-0.56138 32:-0.939876 33:-0.445378 34:-1 35:-0.818182 36:-1 37:-0.851852 38:-1 39:-0.387755 40:-0.959184 41:-1 42:-0.72093 43:-1 44:0.0626833 45:-0.569507 
8 1:-0.948714 2:-0.878433 3:-0.893536 4:-0.893536 5:-0.962371 6:0.885833 7:-0.932772 8:-0.83871 9:-0.83871 10:-1 11:-0.932772 12:-1 13:-0.705678 14:-0.778563 15:-0.996849 16:-0.819247 17:-0.996849 18:-1 19:-1 20:-1 21:-0.4375 22:-0.830508 23:-0.966827 24:-0.961701 25:-0.9 26:-0.954704 27:-0.964072 28:-0.976116 29:-0.708215 30:-0.973778 31:-0.516046 32:-0.979183 33:-0.680672 34:-1 35:-1 36:-1 37:-1 38:-1 39:-0.959184 40:-0.768707 41:-1 42:-0.883721 43:-1 44:-0.33499 45:-0.762332 
8 1:-0.909156 2:-0.850278 3:-0.923954 4:-0.923954 5:-0.942058 6:0.894605 7:-0.90816 8:-1 9:-1 10:-1 11:-0.90816 12:-1 13:-0.652844 14:-0.813328 15:-0.999881 16:-0.990587 17:-0.999881 18:-1 19:-1 20:-1 21:-0.5625 22:-0.878935 23:-0.976025 24:-0.967333 25:-0.9 26:-0.961672 27:-0.892216 28:-0.978274 29:-0.889518 30:-0.981112 31:-0.423599 32:-0.976244 33:-0.966387 34:-1 35:-0.818182 36:-1 37:-0.925926 38:-1 39:-0.918367 40:-0.863946 41:-1 42:-0.953488 43:-1 44:-0.207957 45:-0.883408 
-8 1:-0.918015 2:-0.876604 3:-0.855513 4:-0.855513 5:-0.942742 6:0.901504 7:-0.922151 8:-0.870968 9:-0.870968 10:-1 11:-0.922151 12:-1 13:-0.628505 14:-0.710063 15:-0.994114 16:-0.792245 17:-0.994114 18:-1 19:-1 20:-1 21:-0.4375 22:-0.79661 23:-0.945945 24:-0.939735 25:-0.733333 26:-0.839721 27:-0.868263 28:-0.961505 29:-0.749292 30:-0.955822 31:-0.573636 32:-0.966571 33:-0.747899 34:-1 35:-0.727273 36:0.142857 37:-0.62963 38:-1 39:-0.816327 40:-0.972789 41:-1 42:-0.883721 43:-1 44:-0.238363 45:-0.58296 
-8 1:-0.922361 2:-0.827557 3:-0.984791 4:-0.984791 5:-0.954485 6:0.877201 7:-0.935476 8:-1 9:-1 10:-1 11:-0.935476 12:-1 13:-0.722494 14:-0.927278 15:-1 16:-1 17:-1 18:-1 19:-1 20:-1 21:-0.9375 22:-0.995157 23:-0.995687 24:-0.996621 25:-0.966667 26:-0.97561 27:-0.988024 28:-0.998188 29:-0.970255 30:-0.996749 31:-0.448052 32:-0.991306 33:-0.983193 34:-1 35:-1 36:-0.714286 37:-0.925926 38:-1 39:-1 40:-0.986395 41:-1 42:-1 43:-1 44:-0.146753 45:-0.995516 
-8 1:-0.911238 2:-0.852617 3:-0.923954 4:-0.923954 5:-0.94019 6:0.887326 7:-0.910021 8:-0.83871 9:-0.83871 10:-1 11:-0.910021 12:-1 13:-0.7355 14:-0.720238 15:-0.997265 16:-0.900631 17:-0.997265 18:-1 19:-1 20:-1 21:-0.4375 22:-0.878935 23:-0.947494 24:-0.930161 25:-0.766667 26:-0.857143 27:-0.856287 28:-0.964017 29:-0.753541 30:-0.958783 31:-0.392857 32:-0.962897 33:-0.848739 34:-1 35:-0.818182 36:-1 37:-0.851852 38:-1 39:-0.612245 40:-0.659864 41:-1 42:-0.906977 43:-1 44:-0.0822857 45:-0.690583 
-6.846059055355871 1:-0.850835 2:-0.774743 3:-1 4:-1 5:-0.838555 6:0.66225 7:-0.8448 8:-0.967742 9:-0.967742 10:-1 11:-0.8448 12:-1 13:-0.549662 14:-0.972375 15:-1 16:-1 17:-1 18:-1 19:-1 20:-1 21:-1 22:-1 23:-0.999296 24:-1 25:-1 26:-1 27:-1 28:-1 29:-0.998584 30:-0.999383 31:0.517857 32:-0.998531 33:-1 34:-1 35:-1 36:-1 37:-1 38:-1 39:-1 40:-1 41:-1 42:-1 43:-1 44:0.0428571 45:-1 
7.169922323993582 1:-0.908855 2:-0.850831 3:-0.91635 4:-0.91635 5:-0.943075 6:0.898475 7:-0.908079 8:-0.193548 9:-0.193548 10:-1 11:-0.908079 12:-1 13:-0.723098 14:-0.501546 15:-0.994352 16:-0.933588 17:-0.994352 18:-1 19:-1 20:-1 21:-0.1875 22:-0.617433 23:-0.837275 24:-0.804562 25:-0.633333 26:-0.703833 27:0.137725 28:-0.918676 29:-0.253541 30:-0.872532 31:-0.442302 32:-0.937672 33:0.226891 34:-0.875 35:-0.909091 36:-0.428571 37:-0.481481 38:-0.764706 39:0.755102 40:-0.346939 41:-0.529412 42:-0.534884 43:-0.5 44:-0.130952 45:0.363229 
8 1:-0.807572 2:-0.681637 3:-0.91635 4:-0.91635 5:-0.868103 6:0.74878 7:-0.840715 8:-1 9:-1 10:-1 11:-0.840715 12:-1 13:-0.822026 14:-0.922134 15:-1 16:-1 17:-1 18:-1 19:-1 20:-1 21:-0.6875 22:-0.990315 23:-0.994091 24:-0.990988 25:-1 26:-0.993031 27:-1 28:-0.992939 29:-0.985836 30:-0.996321 31:-0.172078 32:-0.992163 33:-0.983193 34:-1 35:-1 36:-1 37:-0.925926 38:-1 39:-1 40:-1 41:-1 42:-1 43:-1 44:-0.241558 45:-0.96861 
8 1:-0.895442 2:-0.828894 3:-0.885932 4:-0.885932 5:-0.923004 6:0.85162 7:-0.888878 8:-0.935484 9:-0.935484 10:-1 11:-0.888878 12:-1 13:-0.66377 14:-0.808256 15:-1 16:-1 17:-1 18:-1 19:-1 20:-1 21:-0.5 22:-0.893462 23:-0.973739 24:-0.962827 25:-0.766667 26:-0.937282 27:-0.904192 28:-0.979404 29:-0.890935 30:-0.980116 31:-0.416209 32:-0.977959 33:-0.865546 34:-1 35:-1 36:-1 37:-0.925926 38:-1 39:-0.857143 40:-0.904762 41:-1 42:-0.953488 43:-1 44:-0.171062 45:-0.829596 
-8 1:-0.918946 2:-0.851545 3:-0.536122 4:-0.536122 5:-0.95201 6:0.902549 7:-0.929375 8:-0.903226 9:-0.903226 10:-1 11:-0.929375 12:-1 13:-0.758347 14:-0.63631 15:-0.989596 16:-0.77428 17:-0.989596 18:-1 19:-1 20:-1 21:-0.4375 22:-0.646489 23:-0.911909 24:-0.908758 25:-0.8 26:-0.735192 27:-0.820359 28:-0.939601 29:-0.528329 30:-0.931289 31:-0.409217 32:-0.957264 33:-0.764706 34:-0.875 35:-0.727273 36:-1 37:-0.703704 38:-1 39:-0.755102 40:-0.619048 41:-1 42:-0.790698 43:-1 44:-0.10077 45:-0.654709 
-8 1:-0.879518 2:-0.789796 3:-0.0570342 4:-0.0570342 5:-0.910864 6:0.81661 7:-0.883961 8:-0.387097 9:-0.387097 10:-1 11:-0.883961 12:-1 13:-0.649828 14:-0.585598 15:-0.98918 16:-0.836048 17:-0.98918 18:-1 19:-1 20:-1 21:-0.375 22:-0.57385 23:-0.873771 24:-0.829344 25:-0.633333 26:-0.752613 27:-0.856287 28:-0.920804 29:-0.502833 30:-0.911291 31:-0.482549 32:-0.954815 33:-0.411765 34:-1 35:-1 36:-1 37:-0.407407 38:-0.882353 39:-0.44898 40:-0.809524 41:-0.882353 42:-0.511628 43:-1 44:-0.0934253 45:-0.55157 
8 1:-0.82594 2:-0.670724 3:-0.779468 4:-0.779468 5:-0.90233 6:0.79774 7:-0.877413 8:-1 9:-1 10:-1 11:-0.877413 12:-1 13:-0.8399 14:-0.896556 15:-1 16:-1 17:-1 18:-1 19:-1 20:-1 21:-0.8125 22:-0.966102 23:-0.989732 24:-0.988172 25:-1 26:-0.965157 27:-0.988024 28:-0.977876 29:-0.967422 30:-0.9938 31:-0.494048 32:-0.984449 33:-0.932773 34:-1 35:-1 36:-1 37:-0.925926 38:-1 39:-1 40:-0.972789 41:-1 42:-1 43:-1 44:0.129762 45:-0.932735 
8 1:-0.899772 2:-0.825115 3:-0.893536 4:-0.893536 5:-0.924637 6:0.844066 7:-0.884163 8:-0.741935 9:-0.741935 10:-1 11:-0.884163 12:-1 13:-0.677096 14:-0.776584 15:-0.998276 16:-0.907333 17:-0.998276 18:-1 19:-1 20:-1 21:-0.5 22:-0.651332 23:-0.964579 24:-0.960011 25:-0.9 26:-0.940767 27:-0.904192 28:-0.973633 29:-0.839943 30:-0.973324 31:-0.467419 32:-0.973183 33:-0.865546 34:-1 35:-0.818182 36:-1 37:-0.851852 38:-1 39:-0.918367 40:-0.863946 41:-1 42:-0.953488 43:-1 44:-0.341353 45:-0.798206 
4.512330427390507 1:-0.859556 2:-0.798294 3:-0.703422 4:-0.703422 5:-0.893493 6:0.814929 7:-0.851837 8:-0.870968 9:-0.870968 10:-1 11:-0.851837 12:-1 13:-0.861039 14:-0.55946 15:-0.99679 16:-0.955575 17:-0.99679 18:-1 19:-1 20:-1 21:-0.5 22:1 23:-0.861758 24:-0.812447 25:0.2 26:-0.456446 27:-0.700599 28:-0.890289 29:-0.575071 30:-0.899989 31:-0.354533 32:-0.931672 33:-0.596639 34:-1 35:-0.0909091 36:-0.714286 37:-0.555556 38:-0.882353 39:-0.693878 40:-0.673469 41:-0.882353 42:-0.511628 43:-1 44:-0.13384 45:0.107623 
-8 1:-0.883244 2:-0.84157 3:-0.239544 4:-0.239544 5:-0.913966 6:0.861275 7:-0.87456 8:-0.677419 9:-0.677419 10:-1 11:-0.87456 12:-1 13:-0.710185 14:-0.588734 15:-0.997681 16:-0.960199 17:-0.997681 18:-1 19:-1 20:-1 21:-0.0625 22:-0.312349 23:-0.888605 24:-0.845114 25:-0.366667 26:-0.637631 27:-0.616766 28:-0.953582 29:-0.609065 30:-0.912602 31:-0.397241 32:-0.94355 33:-0.563025 34:-1 35:-0.545455 36:-0.714286 37:-0.333333 38:-0.882353 39:-0.714286 40:-0.70068 41:-0.882353 42:-0.837209 43:-1 44:0.0616813 45:-0.430493 
8 1:-0.885626 2:-0.82527 3:-0.992395 4:-0.992395 5:-0.913475 6:0.841836 7:-0.870216 8:-1 9:-1 10:-1 11:-0.870216 12:-1 13:-0.707523 14:-0.91006 15:-1 16:-1 17:-1 18:-1 19:-1 20:-1 21:-0.75 22:-1 23:-0.993909 24:-0.993805 25:-0.966667 26:-0.996516 27:-0.988024 28:-0.990371 29:-0.977337 30:-0.995212 31:-0.642857 32:-0.985061 33:-0.983193 34:-1 35:-1 36:-1 37:-1 38:-1 39:-0.897959 40:-0.986395 41:-1 42:-0.930233 43:-1 44:0.226891 45:-0.941704 
8 1:-0.904685 2:-0.820589 3:-0.961977 4:-0.961977 5:-0.93297 6:0.852522 7:-0.909757 8:-0.903226 9:-0.903226 10:-1 11:-0.909757 12:-1 13:-0.495762 14:-0.841814 15:-1 16:-1 17:-1 18:-1 19:-1 20:-1 21:-0.8125 22:-0.946731 23:-0.981399 24:-0.979161 25:-0.9 26:-0.933798 27:-0.964072 28:-0.972124 29:-0.907932 30:-0.986227 31:-0.448052 32:-0.980408 33:-0.932773 34:-1 35:-0.909091 36:-1 37:-0.851852 38:-1 39:-0.959184 40:-0.959184 41:-1 42:-0.906977 43:-1 44:-0.0203463 45:-0.928251 
-8 1:-0.86955 2:-0.816558 3:-0.840304 4:-0.840304 5:-0.897474 6:0.821787 7:-0.870048 8:-0.612903 9:-0.612903 10:-1 11:-0.870048 12:-1 13:-0.778772 14:-0.677648 15:-0.997622 16:-0.936858 17:-0.997622 18:-1 19:-1 20:-1 21:-0.375 22:-0.757869 23:-0.928064 24:-0.917206 25:-0.733333 26:-0.898955 27:-0.856287 28:-0.954058 29:-0.764873 30:-0.945704 31:-0.436484 32:-0.946611 33:-0.663866 34:-1 35:-1 36:-0.714286 37:-0.777778 38:-1 39:-0.897959 40:-0.891156 41:-1 42:-0.837209 43:-1 44:0.111548 45:-0.775785 
-8 1:-0.91131 2:-0.914838 3:-0.977186 4:-0.977186 5:-0.953223 6:0.975147 7:-0.910161 8:-0.870968 9:-0.870968 10:-1 11:-0.910161 12:-1 13:-0.574111 14:-0.70138 15:-0.996968 16:-0.882681 17:-0.996968 18:-1 19:-1 20:-1 21:-0.5625 22:-0.849879 23:-0.950708 24:-0.951563 25:-0.6 26:-0.543554 27:-0.748503 28:-0.95757 29:-0.798867 30:-0.953214 31:-0.808941 32:-0.873997 33:-0.361345 34:-1 35:-1 36:-1 37:-0.777778 38:-1 39:-0.836735 40:-0.795918 41:-0.882353 42:-0.883721 43:-1 44:0.4002 45:-0.668161 
-8 1:-0.890948 2:-0.875396 3:-0.794677 4:-0.794677 5:-0.915179 6:0.877635 7:-0.893809 8:-0.806452 9:-0.806452 10:-1 11:-0.893809 12:-1 13:-0.656615 14:-0.670997 15:-0.998098 16:-0.945631 17:-0.998098 18:-1 19:-1 20:-1 21:-0.375 22:-0.762712 23:-0.933181 24:-0.94762 25:-0.833333 26:-0.864111 27:-0.796407 28:-0.957869 29:-0.764873 30:-0.943499 31:-0.527374 32:-0.934733 33:-0.731092 34:-1 35:-1 36:-1 37:-0.703704 38:-1 39:-0.55102 40:-0.904762 41:-1 42:-0.674419 43:-0.5 44:-0.000855432 45:-0.672646 
-8 1:-0.906289 2:-0.860952 3:-0.764259 4:-0.764259 5:-0.940397 6:0.904997 7:-0.910317 8:-0.774194 9:-0.774194 10:-1 11:-0.910317 12:-1 13:-0.823303 14:-0.524678 15:-0.992569 16:-0.901822 17:-0.992569 18:-1 19:-1 20:-1 21:-0.375 22:-0.186441 23:-0.855189 24:-0.797803 25:-0.433333 26:-0.578397 27:-0.233533 28:-0.906326 29:-0.382436 30:-0.883898 31:-0.388689 32:-0.947346 33:-0.495798 34:-0.875 35:-0.818182 36:-0.428571 37:-0.703704 38:-0.529412 39:-0.428571 40:-0.387755 41:-0.294118 42:-0.348837 43:-1 44:-0.188624 45:-0.0627803 
8 1:-0.87608 2:-0.846208 3:-0.992395 4:-0.992395 5:-0.898676 6:0.836882 7:-0.876086 8:-0.967742 9:-0.967742 10:-1 11:-0.876086 12:-1 13:-0.696298 14:-0.760855 15:-0.995957 16:-0.801431 17:-0.995957 18:-1 19:-1 20:-1 21:-0.375 22:-0.772397 23:-0.961218 24:-0.956632 25:-0.8 26:-0.888502 27:-0.868263 28:-0.976104 29:-0.876771 30:-0.969582 31:-0.517045 32:-0.953958 33:-0.89916 34:-1 35:-1 36:-1 37:-1 38:-0.882353 39:-0.959184 40:-0.986395 41:-0.882353 42:-0.906977 43:-1 44:0.161364 45:-0.686099 
1.27871059569229 1:-0.89533 2:-0.796301 3:-0.269962 4:-0.269962 5:-0.936626 6:0.860107 7:-0.91032 8:-0.709677 9:-0.709677 10:-1 11:-0.91032 12:-1 13:-0.522523 14:-0.619097 15:-1 16:-1 17:-1 18:-1 19:-1 20:-1 21:-0.4375 22:-0.486683 23:-0.892705 24:-0.865953 25:-0.7 26:-0.728223 27:-0.532934 28:-0.931857 29:-0.481586 30:-0.924787 31:-0.487155 32:-0.920896 33:-0.630252 34:-1 35:-0.727273 36:-1 37:-0.407407 38:-0.647059 39:-0.77551 40:-0.659864 41:-0.764706 42:-0.651163 43:-1 44:0.176411 45:-0.466368 
8 1:-0.888381 2:-0.83147 3:-0.946768 4:-0.946768 5:-0.922341 6:0.865876 7:-0.891147 8:-0.935484 9:-0.935484 10:-1 11:-0.891147 12:-1 13:-0.71046 14:-0.810039 15:-1 16:-1 17:-1 18:-1 19:-1 20:-1 21:-0.4375 22:-0.956416 23:-0.974691 24:-0.954942 25:-1 26:-0.972125 27:-0.988024 28:-0.985212 29:-0.903683 30:-0.980469 31:-0.296066 32:-0.973306 33:-0.798319 34:-1 35:-1 36:-1 37:-0.851852 38:-1 39:-0.959184 40:-0.986395 41:-1 42:-1 43:-1 44:-0.123395 45:-0.928251 
8 1:-0.864992 2:-0.837806 3:-0.870722 4:-0.870722 5:-0.899176 6:0.852217 7:-0.872062 8:-0.935484 9:-0.935484 10:-1 11:-0.872062 12:-1 13:-0.475103 14:-0.813459 15:-0.999049 16:-0.925093 17:-0.999049 18:-1 19:-1 20:-1 21:-0.6875 22:-0.970944 23:-0.975897 24:-0.951 25:-0.966667 26:-0.919861 27:-0.928144 28:-0.971573 29:-0.929178 30:-0.981137 31:-0.52381 32:-0.976979 33:-0.882353 34:-1 35:-1 36:-1 37:-0.703704 38:-1 39:-0.877551 40:-0.945578 41:-1 42:-0.953488 43:-1 44:-0.141176 45:-0.919283 
8 1:-0.902317 2:-0.836976 3:-0.467681 4:-0.467681 5:-0.942615 6:0.898356 7:-0.909737 8:-0.935484 9:-0.935484 10:-1 11:-0.909737 12:-1 13:-0.804473 14:-0.607335 15:-0.999227 16:-0.985819 17:-0.999227 18:-1 19:-1 20:-1 21:-0.25 22:-0.588378 23:-0.895801 24:-0.873838 25:-0.466667 26:-0.777003 27:-0.748503 28:-0.944075 29:-0.536827 30:-0.920175 31:-0.407666 32:-0.949305 33:-0.193277 34:-0.875 35:-0.818182 36:-0.142857 37:-0.407407 38:-0.882353 39:-0.0816327 40:-0.782313 41:-0.882353 42:-0.488372 43:-1 44:-0.0843206 45:-0.215247 
-8 1:-0.680412 2:-0.846401 3:-1 4:-1 5:-0.684768 6:0.605786 7:-0.693939 8:-0.967742 9:-0.967742 10:-1 11:-0.693939 12:-1 13:0.127179 14:-0.719358 15:-1 16:-1 17:-1 18:-1 19:-1 20:-1 21:-1 22:-0.975787 23:-0.952222 24:-0.98254 25:-1 26:-0.982578 27:-0.952096 28:-1 29:-0.94051 30:-0.958531 31:-0.29402 32:-0.920651 33:-1 34:-0.875 35:-1 36:-1 37:-1 38:-1 39:-0.979592 40:-1 41:-1 42:-0.976744 43:-1 44:0.503654 45:-0.928251 
-8 1:-0.921325 2:-0.836167 3:-0.460076 4:-0.460076 5:-0.945941 6:0.865762 7:-0.916398 8:-0.774194 9:-0.774194 10:-1 11:-0.916398 12:-1 13:-0.694946 14:-0.6133 15:-0.993817 16:-0.886213 17:-0.993817 18:-1 19:-1 20:-1 21:-0.375 22:-0.467312 23:-0.89611 24:-0.860884 25:-0.433333 26:-0.721254 27:-0.94012 28:-0.93519 29:-0.356941 30:-0.922531 31:-0.392857 32:-0.957142 33:-0.210084 34:-0.875 35:-0.909091 36:-1 37:-0.481481 38:-0.882353 39:-0.530612 40:-0.863946 41:-1 42:-0.744186 43:-0.5 44:0.0222292 45:-0.55157 
8 1:-0.812396 2:-0.861428 3:-0.885932 4:-0.885932 5:-0.84279 6:0.81298 7:-0.82915 8:-0.83871 9:-0.83871 10:-1 11:-0.82915 12:-1 13:-0.230795 14:-0.835536 15:-0.999703 16:-0.966142 17:-0.999703 18:-1 19:-1 20:-1 21:-0.6875 22:-0.966102 23:-0.983406 24:-0.992115 25:-0.966667 26:-0.979094 27:-0.928144 28:-0.979729 29:-0.964589 30:-0.985169 31:-0.649725 32:-0.938407 33:-0.915966 34:-1 35:-1 36:-1 37:-0.925926 38:-1 39:-1 40:-1 41:-1 42:-1 43:-1 44:0.845055 45:-0.959641 
8 1:-0.897808 2:-0.861993 3:-0.961977 4:-0.961977 5:-0.929038 6:0.89139 7:-0.897383 8:-0.83871 9:-0.83871 10:-1 11:-0.897383 12:-1 13:-0.734687 14:-0.807118 15:-0.998454 16:-0.88162 17:-0.998454 18:-1 19:-1 20:-1 21:-0.625 22:-0.893462 23:-0.975209 24:-0.979161 25:-0.833333 26:-0.933798 27:-0.868263 28:-0.975269 29:-0.905099 30:-0.979889 31:-0.285714 32:-0.978816 33:-0.89916 34:-1 35:-1 36:-1 37:-0.851852 38:-1 39:-0.918367 40:-0.972789 41:-1 42:-0.953488 43:-1 44:-0.263866 45:-0.878924 
-8 1:-0.893608 2:-0.789548 3:-0.961977 4:-0.961977 5:-0.949344 6:0.892254 7:-0.910998 8:-1 9:-1 10:-1 11:-0.910998 12:-1 13:-0.837911 14:-0.870837 15:-1 16:-1 17:-1 18:-1 19:-1 20:-1 21:-0.625 22:-0.975787 23:-0.986751 24:-0.992678 25:-1 26:-0.993031 27:-0.976048 28:-0.987198 29:-0.934844 30:-0.990613 31:-0.418693 32:-0.983102 33:-0.983193 34:-1 35:-1 36:-1 37:-0.925926 38:-1 39:-0.836735 40:-0.904762 41:-1 42:-0.883721 43:-1 44:-0.28997 45:-0.928251 
-8 1:-0.898471 2:-0.818491 3:-0.885932 4:-0.885932 5:-0.920346 6:0.829164 7:-0.887716 8:-0.870968 9:-0.870968 10:-1 11:-0.887716 12:-1 13:-0.775501 14:-0.756383 15:-0.996017 16:-0.822677 17:-0.996017 18:-1 19:-1 20:-1 21:-0.5 22:-0.874092 23:-0.957186 24:-0.939172 25:-0.933333 26:-0.919861 27:-0.928144 28:-0.970665 29:-0.805949 30:-0.968473 31:-0.230072 32:-0.96755 33:-0.932773 34:-1 35:-1 36:-1 37:-1 38:-1 39:-0.897959 40:-0.877551 41:-1 42:-0.930233 43:-1 44:-0.183851 45:-0.820628 
8 1:-0.94538 2:-0.914364 3:-0.908745 4:-0.908745 5:-0.94686 6:0.889903 7:-0.93338 8:-1 9:-1 10:-1 11:-0.93338 12:-1 13:-0.620662 14:-0.826523 15:-1 16:-1 17:-1 18:-1 19:-1 20:-1 21:-0.625 22:-0.961259 23:-0.981622 24:-0.986483 25:-0.9 26:-0.965157 27:-0.928144 28:-0.981126 29:-0.889518 30:-0.983581 31:-0.116184 32:-0.980898 33:-0.983193 34:-1 35:-0.909091 36:-1 37:-1 38:-1 39:-0.897959 40:-0.877551 41:-1 42:-0.976744 43:-1 44:0.00325497 45:-0.96861 
8 1:-0.886648 2:-0.851007 3:-0.901141 4:-0.901141 5:-0.913497 6:0.861264 7:-0.891472 8:-1 9:-1 10:-1 11:-0.891472 12:-1 13:-0.582844 14:-0.889952 15:-0.99679 16:-0.305914 17:-0.99679 18:-1 19:-1 20:-1 21:-0.75 22:-0.946731 23:-0.991366 24:-0.984793 25:-1 26:-0.965157 27:-1 28:-0.986941 29:-0.970255 30:-0.993044 31:-0.724026 32:-0.985551 33:-0.932773 34:-1 35:-1 36:-1 37:-0.925926 38:-1 39:-0.979592 40:-0.904762 41:-1 42:-1 43:-1 44:-0.146753 45:-0.950673 
-8 1:-0.931601 2:-0.900955 3:-0.961977 4:-0.961977 5:-0.950319 6:0.915961 7:-0.918921 8:-1 9:-1 10:-1 11:-0.918921 12:-1 13:-0.59217 14:-0.929814 15:-0.999287 16:-0.609712 17:-0.999287 18:-1 19:-1 20:-1 21:-0.6875 22:-0.990315 23:-0.996727 24:-0.996057 25:-1 26:-0.996516 27:-1 28:-0.996538 29:-0.983003 30:-0.996951 31:-0.299451 32:-0.98849 33:-1 34:-1 35:-1 36:-1 37:-1 38:-1 39:-0.979592 40:-0.972789 41:-1 42:-1 43:-1 44:0.283516 45:-0.982063 
-8 1:-0.948556 2:-0.936088 3:-1 4:-1 5:-0.94801 6:0.905975 7:-0.938357 8:-1 9:-1 10:-1 11:-0.938357 12:-1 13:-0.379424 14:-0.955852 15:-0.999881 16:-0.84703 17:-0.999881 18:-1 19:-1 20:-1 21:-0.875 22:-0.995157 23:-0.99874 24:-0.997747 25:-1 26:-1 27:-1 28:-0.998115 29:-0.992918 30:-0.998652 31:-0.494048 32:-0.997429 33:-0.966387 34:-1 35:-1 36:-1 37:-1 38:-1 39:-1 40:-1 41:-1 42:-1 43:-1 44:0.0428571 45:-0.995516 
-8 1:-0.826957 2:-0.711712 3:-0.642586 4:-0.642586 5:-0.868428 6:0.737511 7:-0.833829 8:-0.967742 9:-0.967742 10:-1 11:-0.833829 12:-1 13:-0.800922 14:-0.741271 15:-0.999465 16:-0.981736 17:-0.999465 18:-1 19:-1 20:-1 21:-0.25 22:-0.753027 23:-0.944093 24:-0.930724 25:-0.833333 26:-0.874564 27:-0.784431 28:-0.97049 29:-0.842776 30:-0.96458 31:-0.457908 32:-0.963877 33:-0.848739 34:-1 35:-0.727273 36:-1 37:-0.851852 38:-1 39:-0.77551 40:-0.918367 41:-1 42:-0.860465 43:-1 44:-0.0316327 45:-0.721973 
8 1:-0.868811 2:-0.801131 3:-0.863118 4:-0.863118 5:-0.917039 6:0.863917 7:-0.885068 8:-0.451613 9:-0.451613 10:-1 11:-0.885068 12:-1 13:-0.753285 14:-0.570169 15:-0.999881 16:-0.998276 17:-0.999881 18:-1 19:-1 20:-1 21:-0.3125 22:-0.544794 23:-0.868084 24:-0.820332 25:-0.633333 26:-0.665505 27:-0.401198 28:-0.926086 29:-0.55949 30:-0.904701 31:-0.377289 32:-0.941836 33:-0.176471 34:-1 35:-0.818182 36:-0.714286 37:-0.555556 38:-0.529412 39:-0.326531 40:-0.687075 41:-0.529412 42:0.139535 43:-1 44:-0.0841575 45:-0.443946 
8 1:-0.881272 2:-0.853418 3:-0.977186 4:-0.977186 5:-0.912769 6:0.871429 7:-0.869296 8:-1 9:-1 10:-1 11:-0.869296 12:-1 13:-0.713311 14:-0.877933 15:-0.999346 16:-0.881239 17:-0.999346 18:-1 19:-1 20:-1 21:-0.625 22:-0.946731 23:-0.989678 24:-0.985356 25:-0.9 26:-0.979094 27:-0.988024 28:-0.990708 29:-0.966006 30:-0.991558 31:-0.635714 32:-0.982489 33:-1 34:-1 35:-1 36:-1 37:-0.925926 38:-1 39:-0.959184 40:-1 41:-1 42:-0.953488 43:-1 44:-0.0822857 45:-0.932735 
8 1:-0.847416 2:-0.759538 3:-0.726236 4:-0.726236 5:-0.902622 6:0.831168 7:-0.868892 8:-0.870968 9:-0.870968 10:-1 11:-0.868892 12:-1 13:-0.850355 14:-0.824581 15:-0.999168 16:-0.935447 17:-0.999168 18:-1 19:-1 20:-1 21:-0.5625 22:-0.878935 23:-0.975523 24:-0.973529 25:-0.933333 26:-0.965157 27:-0.796407 28:-0.980182 29:-0.926346 30:-0.983229 31:-0.484501 32:-0.976857 33:-0.815126 34:-1 35:-1 36:-0.714286 37:-0.925926 38:-0.882353 39:-0.857143 40:-0.959184 41:-0.882353 42:-0.906977 43:-1 44:0.180593 45:-0.798206 
-8 1:-0.925616 2:-0.860021 3:-0.91635 4:-0.91635 5:-0.959482 6:0.916403 7:-0.917692 8:-0.967742 9:-0.967742 10:-1 11:-0.917692 12:-1 13:-0.878007 14:-0.765409 15:-1 16:-1 17:-1 18:-1 19:-1 20:-1 21:-0.5 22:-0.748184 23:-0.963035 24:-0.941988 25:-0.966667 26:-0.885017 27:-0.760479 28:-0.970076 29:-0.787535 30:-0.970691 31:-0.477294 32:-0.972816 33:-0.932773 34:-1 35:-0.909091 36:-1 37:-0.925926 38:-0.882353 39:-0.734694 40:-0.768707 41:-0.882353 42:-0.813953 43:-1 44:-0.0883633 45:-0.730942 
8 1:-0.860551 2:-0.8236 3:-0.855513 4:-0.855513 5:-0.894387 6:0.835999 7:-0.864498 8:-0.806452 9:-0.806452 10:-1 11:-0.864498 12:-1 13:-0.56896 14:-0.841434 15:-1 16:-1 17:-1 18:-1 19:-1 20:-1 21:-0.625 22:-0.970944 23:-0.9821 24:-0.979724 25:-0.966667 26:-0.97561 27:-0.976048 28:-0.982035 29:-0.947592 30:-0.986164 31:-0.281015 32:-0.981142 33:-0.966387 34:-1 35:-1 36:-1 37:-1 38:-1 39:-0.938776 40:-0.959184 41:-1 42:-0.906977 43:-1 44:-0.0120301 45:-0.910314 
-8 1:-0.895604 2:-0.830108 3:-0.847909 4:-0.847909 5:-0.942236 6:0.904834 7:-0.917004 8:-1 9:-1 10:-1 11:-0.917004 12:-1 13:-0.642139 14:-0.854396 15:-1 16:-1 17:-1 18:-1 19:-1 20:-1 21:-0.875 22:-0.927361 23:-0.984732 24:-0.979724 25:-0.933333 26:-0.97561 27:-0.892216 28:-0.950864 29:-0.936261 30:-0.988231 31:-0.208075 32:-0.984449 33:-0.983193 34:-1 35:-1 36:-1 37:-1 38:-1 39:-0.918367 40:-0.877551 41:-1 42:-0.883721 43:-1 44:-0.0931677 45:-0.883408 
8 1:-0.817366 2:-0.860177 3:-1 4:-1 5:-0.840894 6:0.797864 7:-0.799795 8:-1 9:-1 10:-1 11:-0.799795 12:-1 13:-0.493647 14:-0.950805 15:-1 16:-1 17:-1 18:-1 19:-1 20:-1 21:-0.75 22:-1 23:-0.998238 24:-0.998874 25:-1 26:-0.993031 27:-1 28:-0.998319 29:-0.997167 30:-0.998375 31:0.0119048 32:-0.996082 33:-1 34:-1 35:-1 36:-1 37:-1 38:-1 39:-1 40:-0.986395 41:-1 42:-1 43:-1 44:0.390476 45:-0.991031 
8 1:-0.863069 2:-0.792531 3:-0.163498 4:-0.163498 5:-0.89123 6:0.797355 7:-0.862775 8:-0.483871 9:-0.483871 10:-1 11:-0.862775 12:-1 13:-0.806574 14:-0.535728 15:-0.995482 16:-0.944485 17:-0.995482 18:-1 19:-1 20:-1 21:-0.3125 22:-0.506053 23:-0.844275 24:-0.828217 25:-0.533333 26:-0.707317 27:-0.688623 28:-0.909405 29:-0.498584 30:-0.88914 31:-0.307344 32:-0.903508 33:-0.831933 34:-1 35:-0.636364 36:-0.428571 37:-0.407407 38:-1 39:0.0816327 40:-0.591837 41:-1 42:-0.534884 43:-1 44:-0.0717103 45:-0.412556 
8 1:-0.911054 2:-0.846328 3:-0.969582 4:-0.969582 5:-0.94265 6:0.888853 7:-0.90761 8:-0.935484 9:-0.935484 10:-1 11:-0.90761 12:-1 13:-0.747353 14:-0.826036 15:-0.999168 16:-0.925073 17:-0.999168 18:-1 19:-1 20:-1 21:-0.625 22:-0.922518 23:-0.978944 24:-0.976908 25:-0.733333 26:-0.898955 27:-0.94012 28:-0.979993 29:-0.898017 30:-0.983493 31:-0.459393 32:-0.971591 33:-0.865546 34:-1 35:-0.909091 36:-1 37:-0.777778 38:-1 39:-0.897959 40:-0.945578 41:-1 42:-0.953488 43:-1 44:-0.0857143 45:-0.816143 
8 1:-0.895149 2:-0.814551 3:-0.809886 4:-0.809886 5:-0.925145 6:0.84559 7:-0.89785 8:-0.967742 9:-0.967742 10:-1 11:-0.89785 12:-1 13:-0.718925 14:-0.816608 15:-0.999524 16:-0.963271 17:-0.999524 18:-1 19:-1 20:-1 21:-0.4375 22:-0.835351 23:-0.975417 24:-0.975781 25:-0.733333 26:-0.940767 27:-0.916168 28:-0.982345 29:-0.890935 30:-0.981742 31:-0.494048 32:-0.963509 33:-0.915966 34:-1 35:-1 36:-1 37:-0.851852 38:-1 39:-0.918367 40:-0.85034 41:-1 42:-0.976744 43:-1 44:0.0161172 45:-0.865471 
-8 1:-0.925732 2:-0.850443 3:-0.984791 4:-0.984791 5:-0.956844 6:0.899632 7:-0.946185 8:-1 9:-1 10:-1 11:-0.946185 12:-1 13:-0.338278 14:-0.945961 15:-1 16:-1 17:-1 18:-1 19:-1 20:-1 21:-0.6875 22:-1 23:-0.99769 24:-0.997747 25:-1 26:-1 27:-1 28:-0.998072 29:-0.985836 30:-0.998085 31:-0.172078 32:-0.995592 33:-1 34:-1 35:-1 36:-1 37:-1 38:-1 39:-1 40:-1 41:-1 42:-1 43:-1 44:0.137662 45:-0.982063 
-8 1:-0.875539 2:-0.812909 3:-1 4:-1 5:-0.889202 6:0.784769 7:-0.864597 8:-0.935484 9:-0.935484 10:-1 11:-0.864597 12:-1 13:-0.746235 14:-0.849292 15:-0.998217 16:-0.801517 17:-0.998217 18:-1 19:-1 20:-1 21:-0.5625 22:-0.990315 23:-0.983011 24:-0.971276 25:-1 26:-0.97561 27:-1 28:-0.984724 29:-0.941926 30:-0.987437 31:-0.277211 32:-0.977714 33:-0.966387 34:-1 35:-0.909091 36:-1 37:-1 38:-1 39:-0.959184 40:-0.945578 41:-1 42:-0.976744 43:-1 44:0.142177 45:-0.995516 
-8 1:-0.92944 2:-0.889492 3:-1 4:-1 5:-0.956145 6:0.926167 7:-0.929803 8:-1 9:-1 10:-1 11:-0.929803 12:-1 13:-0.707102 14:-0.915354 15:-1 16:-1 17:-1 18:-1 19:-1 20:-1 21:-1 22:-0.956416 23:-0.995065 24:-0.995494 25:-1 26:-0.982578 27:-0.976048 28:-1 29:-0.974504 30:-0.995716 31:-0.680451 32:-0.990081 33:-0.966387 34:-1 35:-1 36:-1 37:-1 38:-1 39:-0.959184 40:-1 41:-1 42:-1 43:-1 44:-0.121805 45:-0.950673 
-8 1:-0.892174 2:-0.846249 3:-0.923954 4:-0.923954 5:-0.91849 6:0.860367 7:-0.879165 8:-0.83871 9:-0.83871 10:-1 11:-0.879165 12:-1 13:-0.546337 14:-0.709298 15:-0.997741 16:-0.923622 17:-0.997741 18:-1 19:-1 20:-1 21:-0.625 22:-0.559322 23:-0.943552 24:-0.945931 25:-0.733333 26:-0.909408 27:-0.94012 28:-0.944823 29:-0.786119 30:-0.955595 31:-0.360902 32:-0.966326 33:-0.647059 34:-1 35:-1 36:-0.714286 37:-0.851852 38:-1 39:-0.673469 40:-0.836735 41:-1 42:-0.883721 43:-1 44:-0.108083 45:-0.775785 
