svm_type epsilon_svr
kernel_type rbf
gamma 0.00195312
nr_class 2
total_sv 2375
rho 44.2937
SV
8192 1:-0.887398 2:-0.606836 3:-0.650602 4:-0.650602 5:-0.914115 6:0.820636 7:-0.871378 8:-0.966667 9:-0.966667 10:-1 11:-0.871378 12:-1 13:-0.82186 14:-0.821622 15:-1 16:-1 17:-1 18:-1 19:-1 20:-1 21:-0.4375 22:-0.775862 23:-0.973913 24:-0.982461 25:-0.791045 26:-0.93871 27:-0.975 28:-0.983558 29:-0.896601 30:-0.980669 31:-0.459459 32:-0.976263 33:-0.825243 34:-1 35:-1 36:-1 37:-0.851852 38:-1 39:-0.980198 40:-0.85034 41:-1 42:-0.906977 43:-1 44:-0.182625 45:-0.834081 
-8192 1:-0.882082 2:-0.599432 3:1 4:1 5:-0.917787 6:0.837931 7:-0.890964 8:-0.566667 9:-0.566667 10:-1 11:-0.890964 12:-1 13:-0.700356 14:-0.489957 15:-0.991288 16:-0.910889 17:-0.991288 18:-1 19:-1 20:-1 21:-0.5 22:-0.189655 23:-0.810673 24:-0.771989 25:-0.223881 26:-0.409677 27:0.0125 28:-0.858279 29:-0.293201 30:-0.861925 31:-0.266667 32:-0.932075 33:-0.320388 34:-1 35:-0.6 36:-0.428571 37:0.333333 38:-1 39:-0.60396 40:-0.52381 41:-1 42:-0.465116 43:-1 44:-0.0656 45:0.116592 
4410.118195484195 1:-0.877679 2:-0.639269 3:-0.481928 4:-0.481928 5:-0.910372 6:0.841361 7:-0.876349 8:-0.166667 9:-0.166667 10:-1 11:-0.876349 12:-1 13:-0.786557 14:-0.504597 15:-0.991679 16:-0.905896 17:-0.991679 18:-1 19:-1 20:-1 21:-0.375 22:-0.37931 23:-0.828789 24:-0.79675 25:0.164179 26:-0.477419 27:-0.6 28:-0.896957 29:-0.415014 30:-0.869438 31:-0.307568 32:-0.93451 33:-0.00970874 34:-0.714286 35:-0.933333 36:-0.714286 37:-0.111111 38:-0.882353 39:-0.0891089 40:-0.673469 41:-0.882353 42:-0.186047 43:-1 44:-0.0276743 45:0.179372 
8192 1:-0.987084 2:-0.93264 3:-1 4:-1 5:-0.987693 6:0.947334 7:-0.989968 8:-1 9:-1 10:-1 11:-0.989968 12:-1 13:-0.452803 14:-0.997334 15:-1 16:-1 17:-1 18:-1 19:-1 20:-1 21:-1 22:-1 23:-0.999974 24:-1 25:-1 26:-1 27:-1 28:-1 29:-0.998584 30:-0.99994 31:-1 32:-0.997809 33:-1 34:-1 35:-1 36:-1 37:-1 38:-1 39:-1 40:-1 41:-1 42:-1 43:-1 44:0.0428571 45:-1 
-8192 1:-0.899255 2:-0.646036 3:-0.86747 4:-0.86747 5:-0.92958 6:0.854788 7:-0.894206 8:-0.966667 9:-0.966667 10:-1 11:-0.894206 12:-1 13:-0.831847 14:-0.811343 15:-0.999944 16:-0.996185 17:-0.999944 18:-1 19:-1 20:-1 21:-0.5625 22:-0.918103 23:-0.971874 24:-0.963374 25:-0.820896 26:-0.93871 27:-0.8375 28:-0.976535 29:-0.879603 30:-0.978605 31:-0.108527 32:-0.970177 33:-0.669903 34:-1 35:-1 36:-1 37:-0.925926 38:-0.647059 39:-0.980198 40:-0.904762 41:-0.529412 42:-0.930233 43:-1 44:0.0186047 45:-0.923767 
8192 1:-0.895377 2:-0.528455 3:-0.915663 4:-0.915663 5:-0.949764 6:0.868955 7:-0.918879 8:-0.733333 9:-0.733333 10:-1 11:-0.918879 12:-1 13:-0.76882 14:-0.678754 15:-0.996426 16:-0.918467 17:-0.996426 18:-1 19:-1 20:-1 21:-0.5 22:-0.818966 23:-0.915254 24:-0.906629 25:-0.731343 26:-0.790323 27:-0.875 28:-0.939919 29:-0.558074 30:-0.942721 31:-0.275825 32:-0.958004 33:-0.572816 34:-1 35:-0.733333 36:-0.428571 37:-0.777778 38:-0.882353 39:-0.485149 40:-0.795918 41:-0.882353 42:-0.604651 43:-1 44:-0.00712004 45:-0.457399 
-7922.75772029573 1:-0.471819 2:-0.742772 3:-0.638554 4:-0.638554 5:-0.490432 6:0.459759 7:-0.44912 8:-0.7 9:-0.7 10:-1 11:-0.44912 12:-1 13:-0.959273 14:0.0885436 15:-0.441249 16:0.755127 17:-0.441249 18:-1 19:-1 20:-1 22:-0.762931 23:-0.382912 24:-0.385092 25:-0.61194 26:-0.293548 27:-0.7 28:-0.761109 29:-0.46034 30:-0.397088 31:-0.677138 32:0.0819233 33:-0.320388 34:-1 35:-0.933333 36:-1 37:-0.481481 38:-1 39:-0.762376 40:-0.877551 41:-1 42:-0.906977 43:-1 44:0.883695 45:-0.569507 
-8192 1:-0.871231 2:-0.618791 3:-0.939759 4:-0.939759 5:-0.896997 6:0.809506 7:-0.86496 8:-1 9:-1 10:-1 11:-0.86496 12:-1 13:-0.669518 14:-0.9066 15:-0.999777 16:-0.950019 17:-0.999777 18:-1 19:-1 20:-1 21:-0.6875 22:-0.969828 23:-0.991598 24:-0.988135 25:-1 26:-0.993548 27:-0.9875 28:-0.994624 29:-0.973088 30:-0.993763 31:-0.5 32:-0.982471 33:-0.980583 34:-1 35:-1 36:-1 37:-1 38:-1 39:-0.920792 40:-0.945578 41:-1 42:-0.953488 43:-1 44:0.0428571 45:-0.955157 
-8192 1:-0.898706 2:-0.705918 3:-1 4:-1 5:-0.927911 6:0.8745 7:-0.894644 8:-1 9:-1 10:-1 11:-0.894644 12:-1 13:-0.696603 14:-0.848825 15:-1 16:-1 17:-1 18:-1 19:-1 20:-1 21:-0.8125 22:-0.961207 23:-0.98217 24:-0.971628 25:-0.880597 26:-0.951613 27:-0.9375 28:-0.964036 29:-0.930595 30:-0.98563 31:-0.2 32:-0.969446 33:-0.980583 34:-1 35:-0.933333 36:-1 37:-1 38:-1 39:-0.90099 40:-0.931973 41:-1 42:-0.930233 43:-1 44:-0.0405714 45:-0.93722 
-8192 1:-0.95289 2:-0.736354 3:-0.987952 4:-0.987952 5:-0.966596 6:0.874678 7:-0.937415 8:-1 9:-1 10:-1 11:-0.937415 12:-1 13:-0.711142 14:-0.948971 15:-1 16:-1 17:-1 18:-1 19:-1 20:-1 21:-0.9375 22:-0.987069 23:-0.996959 24:-0.997421 25:-0.970149 26:-1 27:-0.975 28:-0.995447 29:-0.970255 30:-0.997651 31:-0.393939 32:-0.99294 33:-0.980583 34:-1 35:-1 36:-1 37:-1 38:-1 39:-1 40:-0.959184 41:-1 42:-1 43:-1 44:0.0428571 45:-0.977578 
8192 1:-0.945367 2:-0.72737 3:-1 4:-1 5:-0.978332 6:0.923017 7:-0.937463 8:-1 9:-1 10:-1 11:-0.937463 12:-1 13:-0.559545 14:-0.976008 15:-1 16:-1 17:-1 18:-1 19:-1 20:-1 21:-1 22:-1 23:-0.999 24:-0.998968 25:-1 26:-0.996774 27:-1 28:-1 29:-0.991501 30:-0.999213 31:-0.52381 32:-0.996105 33:-1 34:-1 35:-1 36:-1 37:-1 38:-1 39:-1 40:-0.959184 41:-1 42:-1 43:-1 44:-0.702041 45:-0.995516 
8192 1:-0.899736 2:-0.654448 3:-0.987952 4:-0.987952 5:-0.933182 6:0.866903 7:-0.898971 8:-0.9 9:-0.9 10:-1 11:-0.898971 12:-1 13:-0.851293 14:-0.823704 15:-0.998325 16:-0.870803 17:-0.998325 18:-1 19:-1 20:-1 21:-0.6875 22:-0.831897 23:-0.975117 24:-0.973691 25:-0.850746 26:-0.964516 27:-0.9125 28:-0.97395 29:-0.895184 30:-0.981074 31:-0.555556 32:-0.974315 33:-0.84466 34:-1 35:-1 36:-1 37:-0.925926 38:-1 39:-0.80198 40:-0.945578 41:-1 42:-0.930233 43:-1 44:-0.276952 45:-0.793722 
-8192 1:-0.899243 2:-0.66863 3:-0.759036 4:-0.759036 5:-0.923612 6:0.847489 7:-0.888803 8:-1 9:-1 10:-1 11:-0.888803 12:-1 13:-0.77317 14:-0.78947 15:-0.997934 16:-0.882232 17:-0.997934 18:-1 19:-1 20:-1 21:-0.5625 22:-0.75431 23:-0.96624 24:-0.96131 25:-0.820896 26:-0.925806 27:-0.775 28:-0.973726 29:-0.86119 30:-0.973871 31:-0.292929 32:-0.968229 33:-0.961165 34:-0.714286 35:-0.866667 36:-1 37:-1 38:-0.764706 39:-0.90099 40:-0.918367 41:-0.882353 42:-0.953488 43:-1 44:-0.0730159 45:-0.780269 
8192 1:-0.864103 2:-0.655177 3:-0.481928 4:-0.481928 5:-0.896468 6:0.834821 7:-0.859039 8:-0.833333 9:-0.833333 10:-1 11:-0.859039 12:-1 13:-0.854362 14:-0.71133 15:-0.998716 16:-0.958925 17:-0.998716 18:-1 19:-1 20:-1 21:-0.5 22:-0.525862 23:-0.939623 24:-0.929327 25:-0.850746 26:-0.816129 27:-0.675 28:-0.955068 29:-0.820113 30:-0.953132 31:-0.348958 32:-0.957273 33:-0.825243 34:-1 35:-0.8 36:-1 37:-0.62963 38:-0.647059 39:-0.80198 40:-0.782313 41:-0.764706 42:-0.767442 43:-1 44:0.173214 45:-0.699552 
-8192 1:-0.90086 2:-0.629883 3:-0.626506 4:-0.626506 5:-0.920555 6:0.820793 7:-0.895599 8:-0.7 9:-0.7 10:-1 11:-0.895599 12:-1 13:-0.788706 14:-0.654552 15:-0.988942 16:-0.757683 17:-0.988942 18:-1 19:-1 20:-1 21:-0.1875 22:-0.211207 23:-0.911772 24:-0.883415 25:-0.61194 26:-0.845161 27:-0.8375 28:-0.960922 29:-0.604816 30:-0.934314 31:-0.5 32:-0.944614 33:-0.592233 34:-1 35:-0.866667 36:-0.714286 37:-0.407407 38:-1 39:-0.663366 40:-0.755102 41:-1 42:-0.651163 43:-1 44:-0.0688776 45:-0.538117 
8192 1:-0.953675 2:-0.767923 3:-0.951807 4:-0.951807 5:-0.977949 6:0.92161 7:-0.948368 8:-0.966667 9:-0.966667 10:-1 11:-0.948368 12:-1 13:-0.930452 14:-0.922918 15:-1 16:-1 17:-1 18:-1 19:-1 20:-1 21:-0.625 22:-0.978448 23:-0.994545 24:-0.994841 25:-1 26:-0.987097 27:-0.975 28:-0.994446 29:-0.954674 30:-0.995468 31:-0.494949 32:-0.990262 33:-0.92233 34:-1 35:-1 36:-1 37:-1 38:-0.882353 39:-0.90099 40:-0.972789 41:-0.882353 42:-0.953488 43:-1 44:-0.494372 45:-0.977578 
-8192 1:-0.880302 2:-0.666052 3:-0.939759 4:-0.939759 5:-0.912225 6:0.85155 7:-0.876535 8:-0.966667 9:-0.966667 10:-1 11:-0.876535 12:-1 13:-0.858634 14:-0.733613 15:-0.998548 16:-0.946206 17:-0.998548 18:-1 19:-1 20:-1 21:-0.625 22:-0.762931 23:-0.947921 24:-0.912303 25:-0.850746 26:-0.880645 27:-0.7375 28:-0.947146 29:-0.824363 30:-0.959656 31:-0.173333 32:-0.960925 33:-0.864078 34:-1 35:-1 36:-0.714286 37:-0.62963 38:-0.882353 39:-0.663366 40:-0.768707 41:-0.882353 42:-0.813953 43:-1 44:-0.165714 45:-0.780269 
-8192 1:-0.87623 2:-0.494437 3:-0.939759 4:-0.939759 5:-0.914575 6:0.799338 7:-0.926677 8:-1 9:-1 10:-1 11:-0.926677 12:-1 13:-0.531571 14:-0.968813 15:-1 16:-1 17:-1 18:-1 19:-1 20:-1 21:-1 22:-1 23:-0.998227 24:-0.998968 25:-1 26:-0.996774 27:-1 28:-1 29:-0.992918 30:-0.998867 31:0.111111 32:-0.994279 33:-1 34:-1 35:-1 36:-1 37:-1 38:-1 39:-1 40:-1 41:-1 42:-1 43:-1 44:0.0428571 45:-1 
8192 1:-0.886404 2:-0.684771 3:-0.891566 4:-0.891566 5:-0.914799 6:0.854158 7:-0.890671 8:-0.966667 9:-0.966667 10:-1 11:-0.890671 12:-1 13:-0.820747 14:-0.854564 15:-0.998716 16:-0.856111 17:-0.998716 18:-1 19:-1 20:-1 21:-0.625 22:-0.896552 23:-0.982954 24:-0.977302 25:-0.880597 26:-0.970968 27:-0.95 28:-0.98571 29:-0.94051 30:-0.986584 31:0.00775194 32:-0.972855 33:-0.961165 34:-1 35:-1 36:-1 37:-1 38:-1 39:-0.960396 40:-0.945578 41:-1 42:-0.930233 43:-1 44:0.0671096 45:-0.789238 
-8192 1:-0.911539 2:-0.610696 3:-0.783133 4:-0.783133 5:-0.931962 6:0.821634 7:-0.892097 8:-1 9:-1 10:-1 11:-0.892097 12:-1 13:-0.766821 14:-0.740335 15:-0.99933 16:-0.975741 17:-0.99933 18:-1 19:-1 20:-1 21:-0.5625 22:-0.668103 23:-0.946693 24:-0.94016 25:-0.761194 26:-0.858065 27:-0.8625 28:-0.955898 29:-0.705382 30:-0.961528 31:-0.266348 32:-0.970177 33:-0.61165 34:-1 35:-1 36:-1 37:-0.481481 38:-1 39:-0.742574 40:-0.823129 41:-1 42:-0.744186 43:-1 44:-0.161722 45:-0.623318 
-8192 1:-0.913403 2:-0.729997 3:-0.963855 4:-0.963855 5:-0.941262 6:0.891767 7:-0.921407 8:-1 9:-1 10:-1 11:-0.921407 12:-1 13:-0.559244 14:-0.941619 15:-1 16:-1 17:-1 18:-1 19:-1 20:-1 21:-0.9375 22:-0.99569 23:-0.996474 24:-0.996905 25:-1 26:-0.983871 27:-0.9875 28:-0.998386 29:-0.984419 30:-0.997102 31:-0.166667 32:-0.99294 33:-1 34:-1 35:-1 36:-1 37:-1 38:-1 39:-1 40:-0.986395 41:-1 42:-1 43:-1 44:-0.130952 45:-0.977578 
-8192 1:-0.909695 2:-0.66067 3:-0.939759 4:-0.939759 5:-0.960322 6:0.923155 7:-0.922972 8:-0.966667 9:-0.966667 10:-1 11:-0.922972 12:-1 13:-0.567209 14:-0.888884 15:-0.999888 16:-0.980686 17:-0.999888 18:-1 19:-1 20:-1 21:-0.8125 22:-0.99569 23:-0.98905 24:-0.98504 25:-0.910448 26:-0.967742 27:-0.95 28:-0.985126 29:-0.947592 30:-0.991616 31:-0.0350877 32:-0.986732 33:-0.902913 34:-1 35:-0.933333 36:-1 37:-0.925926 38:-1 39:-0.960396 40:-0.959184 41:-1 42:-0.976744 43:-1 44:-0.341353 45:-0.950673 
-8192 1:-0.92959 2:-0.707714 3:-1 4:-1 5:-0.962917 6:0.908608 7:-0.925388 8:-1 9:-1 10:-1 11:-0.925388 12:-1 13:-0.813951 14:-0.84728 15:-0.999106 16:-0.907914 17:-0.999106 18:-1 19:-1 20:-1 21:-0.5625 22:-0.922414 23:-0.981448 24:-0.978334 25:-0.850746 26:-0.958065 27:-0.975 28:-0.984409 29:-0.890935 30:-0.985367 31:-0.529915 32:-0.982958 33:-0.941748 34:-1 35:-0.933333 36:-1 37:-1 38:-1 39:-0.861386 40:-0.768707 41:-1 42:-1 43:-1 44:-0.224542 45:-0.7713 
-8192 1:-0.870394 2:-0.635385 3:-1 4:-1 5:-0.901443 6:0.829315 7:-0.852467 8:-1 9:-1 10:-1 11:-0.852467 12:-1 13:-0.748969 14:-0.901417 15:-1 16:-1 17:-1 18:-1 19:-1 20:-1 21:-0.75 22:-0.926724 23:-0.991073 24:-0.99123 25:-0.910448 26:-0.980645 27:-0.9375 28:-0.987472 29:-0.971671 30:-0.993167 31:-0.365079 32:-0.98734 33:-0.961165 34:-1 35:-0.933333 36:-1 37:-0.851852 38:-1 39:-0.980198 40:-0.972789 41:-1 42:-0.976744 43:-1 44:-0.00680272 45:-0.946188 
-8192 1:-0.936881 2:-0.72835 3:-0.759036 4:-0.759036 5:-0.966438 6:0.911315 7:-0.931953 8:-0.966667 9:-0.966667 10:-1 11:-0.931953 12:-1 13:-0.880611 14:-0.814614 15:-1 16:-1 17:-1 18:-1 19:-1 20:-1 21:-0.75 22:-0.849138 23:-0.974273 24:-0.978334 25:-0.820896 26:-0.903226 27:-0.8875 28:-0.961617 29:-0.835694 30:-0.979273 31:-0.0883191 32:-0.975533 33:-0.864078 34:-1 35:-0.933333 36:-1 37:-0.777778 38:-1 39:-0.80198 40:-0.85034 41:-1 42:-0.953488 43:-1 44:0.0339438 45:-0.829596 
-8192 1:-0.911298 2:-0.755699 3:-0.927711 4:-0.927711 5:-0.920271 6:0.848938 7:-0.904151 8:-1 9:-1 10:-1 11:-0.904151 12:-1 13:-0.293853 14:-0.871149 15:-0.999888 16:-0.983138 17:-0.999888 18:-1 19:-1 20:-1 21:-0.6875 22:-0.965517 23:-0.98742 24:-0.994326 25:-0.970149 26:-0.990323 27:-0.9625 28:-0.985654 29:-0.946176 30:-0.98916 31:-0.65812 32:-0.985149 33:-1 34:-1 35:-1 36:-1 37:-1 38:-1 39:-0.960396 40:-0.85034 41:-1 42:-1 43:-1 44:-0.197802 45:-0.973094 
8192 1:-0.906584 2:-0.680964 3:-1 4:-1 5:-0.922924 6:0.836192 7:-0.896525 8:-1 9:-1 10:-1 11:-0.896525 12:-1 13:-0.128043 14:-0.989527 15:-1 16:-1 17:-1 18:-1 19:-1 20:-1 21:-1 22:-1 23:-0.999626 24:-0.998968 25:-1 26:-1 27:-1 28:-1 29:-0.998584 30:-0.999726 31:0.666667 32:-0.99574 33:-1 34:-1 35:-1 36:-1 37:-1 38:-1 39:-1 40:-1 41:-1 42:-1 43:-1 44:0.0428571 45:-1 
8057.757625040719 1:-0.862859 2:-0.49644 3:-0.060241 4:-0.060241 5:-0.893064 6:0.768119 7:-0.852816 8:-0.6 9:-0.6 10:-1 11:-0.852816 12:-1 13:-0.636294 14:-0.609335 15:-0.991232 16:-0.861949 17:-0.991232 18:-1 19:-1 20:-1 21:-0.0625 22:-0.409483 23:-0.877101 24:-0.834924 25:-0.522388 26:-0.596774 27:-0.8 28:-0.951878 29:-0.567989 30:-0.917069 31:-0.422658 32:-0.955204 33:-0.650485 34:-1 35:-0.733333 36:-1 37:-0.037037 38:-0.764706 39:-0.722772 40:-0.727891 41:-0.764706 42:-0.72093 43:-1 44:-0.277498 45:-0.201794 
8192 1:-0.897612 2:-0.581926 3:-0.53012 4:-0.53012 5:-0.92344 6:0.815687 7:-0.89013 8:-0.966667 9:-0.966667 10:-1 11:-0.89013 12:-1 13:-0.893689 14:-0.691724 15:-1 16:-1 17:-1 18:-1 19:-1 20:-1 21:-0.5625 22:-0.340517 23:-0.925422 24:-0.935001 25:-0.462687 26:-0.783871 27:-0.725 28:-0.939134 29:-0.648725 30:-0.946991 31:-0.223561 32:-0.959708 33:-0.728155 34:-1 35:-0.733333 36:-0.714286 37:-0.703704 38:-0.764706 39:-0.60396 40:-0.782313 41:-0.882353 42:-0.604651 43:-1 44:-0.0367183 45:-0.636771 
-8192 1:-0.894658 2:-0.644072 3:-0.987952 4:-0.987952 5:-0.925266 6:0.851273 7:-0.893825 8:-0.9 9:-0.9 10:-1 11:-0.893825 12:-1 13:-0.829827 14:-0.771965 15:-0.998771 16:-0.940747 17:-0.998771 18:-1 19:-1 20:-1 21:-0.6875 22:-0.814655 23:-0.960055 24:-0.957183 25:-0.880597 26:-0.912903 27:-0.775 28:-0.952516 29:-0.838527 30:-0.969745 31:-0.362319 32:-0.969203 33:-0.514563 34:-1 35:-1 36:-1 37:-0.777778 38:-0.764706 39:-0.782178 40:-0.809524 41:-0.764706 42:-0.906977 43:-1 44:-0.129441 45:-0.757848 
8192 1:-0.913409 2:-0.636972 3:-0.951807 4:-0.951807 5:-0.932589 6:0.830651 7:-0.895359 8:-0.966667 9:-0.966667 10:-1 11:-0.895359 12:-1 13:-0.785889 14:-0.826808 15:-0.998716 16:-0.901427 17:-0.998716 18:-1 19:-1 20:-1 21:-0.5 22:-0.909483 23:-0.974995 24:-0.968532 25:-0.910448 26:-0.916129 27:-0.9 28:-0.981935 29:-0.868272 30:-0.98167 31:-0.397163 32:-0.974924 33:-0.941748 34:-1 35:-0.666667 36:-1 37:-0.851852 38:-1 39:-0.960396 40:-0.959184 41:-1 42:-0.976744 43:-1 44:0.0206687 45:-0.923767 
-8192 1:-0.897199 2:-0.618994 3:-0.204819 4:-0.204819 5:-0.926936 6:0.840976 7:-0.895456 8:-0.3 9:-0.3 10:-1 11:-0.895456 12:-1 13:-0.750349 14:-0.58622 15:-0.998771 16:-0.980831 17:-0.998771 18:-1 19:-1 20:-1 21:0.0625 22:-0.711207 23:-0.875969 24:-0.846789 25:-0.671642 26:-0.758065 27:-0.7125 28:-0.956123 29:-0.454674 30:-0.907481 31:-0.438687 32:-0.942422 33:0.145631 34:-1 35:-0.933333 36:-1 37:-0.333333 38:-1 39:-0.60396 40:-0.823129 41:-1 42:-0.837209 43:-1 44:-0.0057735 45:-0.497758 
8192 1:-0.89309 2:-0.658658 3:-1 4:-1 5:-0.927999 6:0.86732 7:-0.893623 8:-0.966667 9:-0.966667 10:-1 11:-0.893623 12:-1 13:-0.525589 14:-0.66465 15:-1 16:-1 17:-1 18:-1 19:-1 20:-1 21:-0.625 22:-0.862069 23:-0.918923 24:-0.855558 25:-0.58209 26:-0.796774 27:-0.6625 28:-0.923842 29:-0.685552 30:-0.937891 31:-0.476831 32:-0.94717 33:-0.553398 34:-1 35:-1 36:-1 37:-0.555556 38:-1 39:-0.386139 40:-0.673469 41:-0.882353 42:-0.883721 43:-1 44:-0.270468 45:-0.556054 
-8192 1:-0.937972 2:-0.729134 3:-0.843373 4:-0.843373 5:-0.971916 6:0.924066 7:-0.933114 8:-1 9:-1 10:-1 11:-0.933114 12:-1 13:-0.852163 14:-0.859677 15:-0.998548 16:-0.819592 17:-0.998548 18:-1 19:-1 20:-1 21:-0.75 22:-0.905172 23:-0.984657 24:-0.987103 25:-0.940299 26:-0.948387 27:-0.925 28:-0.976667 29:-0.898017 30:-0.987407 31:-0.178082 32:-0.974315 33:-0.883495 34:-1 35:-1 36:-1 37:-1 38:-1 39:-1 40:-0.931973 41:-1 42:-0.930233 43:-1 44:0.114286 45:-0.919283 
8192 1:-0.938238 2:-0.784197 3:-0.951807 4:-0.951807 5:-0.96253 6:0.921678 7:-0.938982 8:-0.966667 9:-0.966667 10:-1 11:-0.938982 12:-1 13:-0.746158 14:-0.851598 15:-0.998492 16:-0.823985 17:-0.998492 18:-1 19:-1 20:-1 21:-0.625 22:-0.918103 23:-0.983652 24:-0.97885 25:-1 26:-0.922581 27:-0.85 28:-0.983923 29:-0.907932 30:-0.986095 31:-0.292929 32:-0.983445 33:-0.883495 34:-1 35:-1 36:-1 37:-0.925926 38:-0.647059 39:-0.920792 40:-1 41:-0.647059 42:-0.883721 43:-1 44:-0.304762 45:-0.90583 
-8192 1:-0.914696 2:-0.707125 3:-0.662651 4:-0.662651 5:-0.94933 6:0.90207 7:-0.918175 8:-0.333333 9:-0.333333 10:-1 11:-0.918175 12:-1 13:-0.643717 14:-0.586052 15:-0.999665 16:-0.994404 17:-0.999665 18:-1 19:-1 20:-1 21:-0.4375 22:-0.642241 23:-0.884137 24:-0.884963 25:-0.820896 26:-0.767742 27:-0.5875 28:-0.921714 29:-0.456091 30:-0.907409 31:-0.359307 32:-0.939257 33:-0.0485437 34:-1 35:-0.866667 36:-0.714286 37:-0.777778 38:-0.882353 39:-0.465347 40:-0.714286 41:-0.882353 42:-0.627907 43:-1 44:-0.0898701 45:-0.439462 
-8192 1:-0.931515 2:-0.743606 3:-0.987952 4:-0.987952 5:-0.939162 6:0.855455 7:-0.925374 8:-1 9:-1 10:-1 11:-0.925374 12:-1 13:-0.684789 14:-0.869617 15:-0.995756 16:-0.417728 17:-0.995756 18:-1 19:-1 20:-1 21:-0.75 22:-0.943966 23:-0.986129 24:-0.980397 25:-1 26:-0.980645 27:-0.925 28:-0.980776 29:-0.924929 30:-0.988933 31:-0.691358 32:-0.985514 33:-0.902913 34:-1 35:-1 36:-1 37:-1 38:-1 39:-1 40:-0.986395 41:-1 42:-1 43:-1 44:-0.227513 45:-0.901345 
-8192 1:-0.935507 2:-0.701475 3:-0.975904 4:-0.975904 5:-0.958409 6:0.88043 7:-0.928468 8:-0.933333 9:-0.933333 10:-1 11:-0.928468 12:-1 13:-0.720503 14:-0.95067 15:-1 16:-1 17:-1 18:-1 19:-1 20:-1 21:-0.9375 22:-1 23:-0.997133 24:-0.996905 25:-1 26:-0.993548 27:-1 28:-0.998628 29:-0.98017 30:-0.99777 31:-0.555556 32:-0.993061 33:-0.961165 34:-1 35:-1 36:-1 37:-1 38:-1 39:-0.980198 40:-1 41:-1 42:-1 43:-1 44:-0.0266667 45:-0.991031 
8192 1:-0.903118 2:-0.604856 3:-0.349398 4:-0.349398 5:-0.935067 6:0.845329 7:-0.908167 8:-0.966667 9:-0.966667 10:-1 11:-0.908167 12:-1 13:-0.754887 14:-0.776001 15:-0.998213 16:-0.913202 17:-0.998213 18:-1 19:-1 20:-1 21:-0.125 22:-0.87069 23:-0.960338 24:-0.944803 25:-0.940299 26:-0.893548 27:-0.9625 28:-0.983539 29:-0.803116 30:-0.970723 31:-0.452381 32:-0.97675 33:-0.825243 34:-1 35:-0.933333 36:-1 37:-0.851852 38:-1 39:-0.920792 40:-0.972789 41:-1 42:-0.860465 43:-1 44:-0.106122 45:-0.829596 
-8192 1:-0.874809 2:-0.584193 3:-0.939759 4:-0.939759 5:-0.900228 6:0.798419 7:-0.87003 8:-1 9:-1 10:-1 11:-0.87003 12:-1 13:-0.439567 14:-0.907345 15:-0.999944 16:-0.987696 17:-0.999944 18:-1 19:-1 20:-1 21:-0.6875 22:-0.982759 23:-0.991463 24:-0.992778 25:-1 26:-0.993548 27:-0.975 28:-0.990649 29:-0.970255 30:-0.993846 31:-0.393939 32:-0.983323 33:-0.980583 34:-1 35:-1 36:-1 37:-1 38:-1 39:-0.940594 40:-0.931973 41:-1 42:-1 43:-1 44:-0.336364 45:-0.955157 
8192 1:-0.915023 2:-0.627084 3:-0.73494 4:-0.73494 5:-0.93893 6:0.84009 7:-0.905746 8:-0.9 9:-0.9 10:-1 11:-0.905746 12:-1 13:-0.831124 14:-0.746955 15:-0.999888 16:-0.995663 17:-0.999888 18:-1 19:-1 20:-1 21:-0.5625 22:-0.771552 23:-0.950323 24:-0.934485 25:-0.462687 26:-0.829032 27:-0.9375 28:-0.958631 29:-0.71813 30:-0.963329 31:-0.466667 32:-0.978332 33:-0.708738 34:-1 35:-0.8 36:-1 37:-0.777778 38:-1 39:-0.762376 40:-0.85034 41:-1 42:-0.860465 43:-1 44:-0.155286 45:-0.811659 
-8192 1:-0.892918 2:-0.685231 3:-0.325301 4:-0.325301 5:-0.914159 6:0.840351 7:-0.898763 8:-0.633333 9:-0.633333 10:-1 11:-0.898763 12:-1 13:-0.786157 14:-0.773925 15:-1 16:-1 17:-1 18:-1 19:-1 20:-1 21:-0.625 22:-0.875 23:-0.962685 24:-0.97008 25:-0.970149 26:-0.945161 27:-0.925 28:-0.963404 29:-0.858357 30:-0.970222 31:-0.471947 32:-0.951917 33:-0.883495 34:-1 35:-1 36:-1 37:-1 38:-1 39:-0.960396 40:-0.931973 41:-1 42:-0.953488 43:-1 44:0.259689 45:-0.834081 
-8192 1:-0.911391 2:-0.672262 3:-0.807229 4:-0.807229 5:-0.956027 6:0.912809 7:-0.925884 8:-1 9:-1 10:-1 11:-0.925884 12:-1 13:-0.80514 14:-0.751519 15:-1 16:-1 17:-1 18:-1 19:-1 20:-1 21:-0.625 22:-0.762931 23:-0.954124 24:-0.934485 25:-0.850746 26:-0.877419 27:-0.575 28:-0.955081 29:-0.780453 30:-0.964545 31:-0.380342 32:-0.970055 33:-0.747573 34:-1 35:-0.733333 36:-1 37:-0.925926 38:-0.882353 39:-0.821782 40:-0.70068 41:-0.764706 42:-0.813953 43:-1 44:-0.0641026 45:-0.811659 
-8144.252160670838 1:-0.904728 2:-0.722945 3:-0.963855 4:-0.963855 5:-0.933043 6:0.883459 7:-0.907989 8:-0.9 9:-0.9 10:-1 11:-0.907989 12:-1 13:-0.942906 14:-0.490232 15:-0.996426 16:-0.959233 17:-0.996426 18:-1 19:-1 20:-1 21:-0.5625 22:0.00431034 23:-0.830246 24:-0.784885 25:-0.104478 26:-0.441935 27:0.475 28:-0.849431 29:-0.311615 30:-0.862068 31:-0.27447 32:-0.93171 33:-0.417476 34:-1 35:-0.8 36:-0.714286 37:-0.703704 38:0.411765 39:0.485149 40:-0.0612245 41:0.411765 42:0.44186 43:-1 44:-0.0877677 45:-0.0224215 
8192 1:-0.906067 2:-0.664883 3:-0.939759 4:-0.939759 5:-0.941416 6:0.880895 7:-0.913513 8:-0.966667 9:-0.966667 10:-1 11:-0.913513 12:-1 13:-0.535954 14:-0.932667 15:-1 16:-1 17:-1 18:-1 19:-1 20:-1 21:-0.875 22:-0.978448 23:-0.995292 24:-0.995357 25:-0.970149 26:-0.987097 27:-0.9875 28:-0.997433 29:-0.978754 30:-0.996363 31:0.0416667 32:-0.986975 33:-0.902913 34:-1 35:-1 36:-1 37:-1 38:-1 39:-1 40:-0.972789 41:-1 42:-1 43:-1 44:0.0428571 45:-0.977578 
-8192 1:-0.897835 2:-0.680989 3:-0.795181 4:-0.795181 5:-0.933758 6:0.882429 7:-0.910161 8:-0.4 9:-0.4 10:-1 11:-0.910161 12:-1 13:-0.476663 14:-0.780508 15:-0.998604 16:-0.92422 17:-0.998604 18:-1 19:-1 20:-1 21:-0.5625 22:-0.965517 23:-0.964536 24:-0.974207 25:-1 26:-0.958065 27:-0.9375 28:-0.970548 29:-0.856941 30:-0.971796 31:-0.346405 32:-0.969203 33:-0.805825 34:-1 35:-1 36:-1 37:-0.925926 38:-1 39:-0.920792 40:-0.877551 41:-1 42:-0.953488 43:-1 44:0.226891 45:-0.896861 
8192 1:-0.900435 2:-0.662511 3:-0.686747 4:-0.686747 5:-0.934951 6:0.873486 7:-0.904796 8:-0.633333 9:-0.633333 10:-1 11:-0.904796 12:-1 13:-0.664078 14:-0.673079 15:-1 16:-1 17:-1 18:-1 19:-1 20:-1 21:-0.3125 22:-0.642241 23:-0.923049 24:-0.880836 25:-0.343284 26:-0.664516 27:-0.8375 28:-0.958659 29:-0.675637 30:-0.940801 31:-0.449275 32:-0.947535 33:-0.223301 34:-1 35:-0.933333 36:-0.714286 37:0.111111 38:-0.882353 39:-0.861386 40:-0.836735 41:-0.882353 42:-0.72093 43:-1 44:-0.165714 45:-0.565022 
-8192 1:-0.919195 2:-0.687302 3:-1 4:-1 5:-0.958429 6:0.909631 7:-0.922377 8:-1 9:-1 10:-1 11:-0.922377 12:-1 13:-0.801155 14:-0.911253 15:-0.999442 16:-0.857551 17:-0.999442 18:-1 19:-1 20:-1 21:-0.75 22:-0.952586 23:-0.992662 24:-0.990714 25:-0.940299 26:-0.980645 27:-1 28:-0.989571 29:-0.961756 30:-0.994276 31:-0.285714 32:-0.988558 33:-0.92233 34:-1 35:-1 36:-1 37:-0.851852 38:-1 39:-0.980198 40:-0.986395 41:-1 42:-1 43:-1 44:-0.255102 45:-0.928251 
-8192 1:-0.897996 2:-0.71025 3:-0.891566 4:-0.891566 5:-0.930596 6:0.88476 7:-0.894769 8:-0.8 9:-0.8 10:-1 11:-0.894769 12:-1 13:-0.719366 14:-0.673184 15:-0.998771 16:-0.967045 17:-0.998771 18:-1 19:-1 20:-1 21:-0.25 22:-0.551724 23:-0.927967 24:-0.912303 25:-0.820896 26:-0.829032 27:-0.725 28:-0.963997 29:-0.71813 30:-0.940837 31:-0.3 32:-0.934023 33:-0.825243 34:-1 35:-0.866667 36:-1 37:-1 38:-0.764706 39:-0.782178 40:-0.605442 41:-0.764706 42:-0.627907 43:-1 44:0.0428571 45:-0.627803 
8192 1:-0.93151 2:-0.685693 3:-1 4:-1 5:-0.913144 6:0.759819 7:-0.905506 8:-1 9:-1 10:-1 11:-0.905506 12:-1 13:-0.278987 14:-0.989527 15:-1 16:-1 17:-1 18:-1 19:-1 20:-1 21:-0.9375 22:-1 23:-0.999603 24:-0.999484 25:-1 26:-1 27:-1 28:-0.998466 29:-0.997167 30:-0.999726 31:-1 32:-0.997809 33:-1 34:-1 35:-1 36:-1 37:-1 38:-1 39:-1 40:-0.986395 41:-1 42:-1 43:-1 44:-0.304762 45:-1 
-8192 1:-0.887839 2:-0.670013 3:-0.963855 4:-0.963855 5:-0.921196 6:0.863201 7:-0.897465 8:-0.966667 9:-0.966667 10:-1 11:-0.897465 12:-1 13:-0.456041 14:-0.94682 15:-1 16:-1 17:-1 18:-1 19:-1 20:-1 21:-1 22:-0.99569 23:-0.996754 24:-0.994326 25:-1 26:-0.993548 27:-0.975 28:-1 29:-0.988669 30:-0.997496 31:-0.62963 32:-0.989775 33:-1 34:-1 35:-1 36:-1 37:-0.925926 38:-1 39:-0.980198 40:-0.972789 41:-1 42:-1 43:-1 44:-0.304762 45:-0.977578 
8192 1:-0.929692 2:-0.694595 3:-0.759036 4:-0.759036 5:-0.958371 6:0.890348 7:-0.922885 8:-0.8 9:-0.8 10:-1 11:-0.922885 12:-1 13:-0.759588 14:-0.763847 15:-0.998883 16:-0.948058 17:-0.998883 18:-1 19:-1 20:-1 21:-0.5 22:-0.741379 23:-0.958564 24:-0.966469 25:-0.641791 26:-0.867742 27:-0.9125 28:-0.970024 29:-0.746459 30:-0.967729 31:-0.333333 32:-0.971272 33:-0.76699 34:-1 35:-1 36:-0.714286 37:-0.777778 38:-0.764706 39:-0.683168 40:-0.768707 41:-0.764706 42:-0.837209 43:-1 44:-0.154127 45:-0.695067 
-8192 1:-0.908073 2:-0.677432 3:-0.86747 4:-0.86747 5:-0.9353 6:0.86537 7:-0.909974 8:-0.933333 9:-0.933333 10:-1 11:-0.909974 12:-1 13:-0.724401 14:-0.799723 15:-0.998213 16:-0.887813 17:-0.998213 18:-1 19:-1 20:-1 21:-0.625 22:-0.762931 23:-0.969374 24:-0.959247 25:-0.761194 26:-0.890323 27:-0.8625 28:-0.971002 29:-0.86119 30:-0.976149 31:-0.494949 32:-0.976506 33:-0.708738 34:-1 35:-0.933333 36:-0.714286 37:-0.62963 38:-0.764706 39:-0.821782 40:-0.768707 41:-0.764706 42:-0.813953 43:-1 44:-0.136219 45:-0.713004 
-8192 1:-0.878541 2:-0.539476 3:-0.891566 4:-0.891566 5:-0.91125 6:0.803733 7:-0.87047 8:-1 9:-1 10:-1 11:-0.87047 12:-1 13:-0.897925 14:-0.891951 15:-0.999944 16:-0.990737 17:-0.999944 18:-1 19:-1 20:-1 21:-0.875 22:-0.926724 23:-0.988573 24:-0.989683 25:-0.910448 26:-0.941935 27:-0.9875 28:-0.996521 29:-0.954674 30:-0.99201 31:-0.69697 32:-0.98661 33:-0.902913 34:-1 35:-0.933333 36:-1 37:-0.62963 38:-1 39:-0.960396 40:-0.945578 41:-1 42:-0.953488 43:-1 44:-0.241558 45:-0.955157 
8192 1:-0.880878 2:-0.651452 3:-1 4:-1 5:-0.90861 6:0.835192 7:-0.876499 8:-1 9:-1 10:-1 11:-0.876499 12:-1 13:-0.798779 14:-0.873929 15:-0.999888 16:-0.984349 17:-0.999888 18:-1 19:-1 20:-1 21:-0.5625 22:-0.974138 23:-0.986425 24:-0.988651 25:-1 26:-0.980645 27:-0.9125 28:-0.988388 29:-0.953258 30:-0.989565 31:-0.411765 32:-0.976872 33:-0.961165 34:-1 35:-1 36:-1 37:-1 38:-1 39:-0.861386 40:-0.931973 41:-1 42:-0.883721 43:-1 44:-0.263866 45:-0.946188 
-8192 1:-0.914036 2:-0.657783 3:-1 4:-1 5:-0.945137 6:0.872041 7:-0.915385 8:-1 9:-1 10:-1 11:-0.915385 12:-1 13:-0.925294 14:-0.887332 15:-0.999777 16:-0.963024 17:-0.999777 18:-1 19:-1 20:-1 21:-0.8125 22:-0.969828 23:-0.988549 24:-0.989683 25:-1 26:-0.977419 27:-0.8625 28:-0.976645 29:-0.941926 30:-0.991414 31:-0.68254 32:-0.984054 33:-0.961165 34:-1 35:-1 36:-1 37:-0.925926 38:-0.882353 39:-0.861386 40:-0.972789 41:-0.882353 42:-0.976744 43:-1 44:-0.255102 45:-0.910314 
8192 1:-0.880199 2:-0.556101 3:-0.518072 4:-0.518072 5:-0.902766 6:0.784068 7:-0.865462 8:-1 9:-1 10:-1 11:-0.865462 12:-1 13:-0.940969 14:-0.48238 15:-0.999609 16:-0.996225 17:-0.999609 18:-1 19:-1 20:-1 21:1 22:0.74569 23:-0.799433 24:-0.703895 25:0.134328 26:-0.264516 27:-0.1875 28:-0.961861 29:-0.209632 30:-0.857954 31:-0.385808 32:-0.937918 33:-0.223301 34:-1 35:-0.266667 36:-0.714286 37:0.185185 38:-0.529412 39:-0.227723 40:-0.428571 41:-0.529412 42:-0.348837 43:-1 44:-0.0746742 45:-0.0807175 
-8192 1:-0.890002 2:-0.653335 3:-0.819277 4:-0.819277 5:-0.927444 6:0.869661 7:-0.899527 8:-0.966667 9:-0.966667 10:-1 11:-0.899527 12:-1 13:-0.849744 14:-0.787171 15:-0.999553 16:-0.97521 17:-0.999553 18:-1 19:-1 20:-1 21:-0.3125 22:-0.827586 23:-0.965315 24:-0.960279 25:-0.880597 26:-0.877419 27:-0.8375 28:-0.981368 29:-0.868272 30:-0.973346 31:-0.397163 32:-0.971272 33:-0.84466 34:-1 35:-1 36:-1 37:-0.555556 38:-0.882353 39:-0.841584 40:-0.85034 41:-0.882353 42:-0.906977 43:-1 44:-0.112462 45:-0.802691 
-8192 1:-0.908276 2:-0.675642 3:-0.819277 4:-0.819277 5:-0.925655 6:0.838154 7:-0.898211 8:-1 9:-1 10:-1 11:-0.898211 12:-1 13:-0.773662 14:-0.651939 15:-0.991735 16:-0.814654 17:-0.991735 18:-1 19:-1 20:-1 21:-0.4375 22:-0.603448 23:-0.913787 24:-0.90147 25:-0.731343 26:-0.848387 27:-0.7 28:-0.945796 29:-0.609065 30:-0.933371 31:-0.241877 32:-0.947292 33:-0.747573 34:-1 35:-0.933333 36:-0.142857 37:-0.703704 38:-0.882353 39:-0.544554 40:-0.70068 41:-0.882353 42:-0.790698 43:-1 44:-0.0663228 45:-0.591928 
-8192 1:-0.951157 2:-0.818083 3:-1 4:-1 5:-0.965531 6:0.917078 7:-0.943352 8:-0.833333 9:-0.833333 10:-1 11:-0.943352 12:-1 13:-0.726983 14:-0.780862 15:-0.99866 16:-0.918177 17:-0.99866 18:-1 19:-1 20:-1 21:-0.5 22:-0.905172 23:-0.968499 24:-0.965437 25:-0.940299 26:-0.922581 27:-0.9375 28:-0.97811 29:-0.793201 30:-0.971879 31:-0.365079 32:-0.969446 33:-0.747573 34:-1 35:-0.8 36:-1 37:-0.851852 38:-0.882353 39:-0.861386 40:-0.945578 41:-0.882353 42:-0.930233 43:-1 44:-0.248008 45:-0.816143 
-8192 1:-0.898339 2:-0.698969 3:-0.650602 4:-0.650602 5:-0.919602 6:0.850053 7:-0.896704 8:-0.333333 9:-0.333333 10:-1 11:-0.896704 12:-1 13:-0.744009 14:-0.662133 15:-0.995811 16:-0.896709 17:-0.995811 18:-1 19:-1 20:-1 21:-0.4375 22:-0.762931 23:-0.921629 24:-0.911272 25:-0.731343 26:-0.832258 27:-0.9375 28:-0.94855 29:-0.691218 30:-0.937009 31:-0.34551 32:-0.950578 33:-0.203883 34:-1 35:-1 36:-1 37:-0.703704 38:-1 39:-0.425743 40:-0.85034 41:-1 42:-0.697674 43:-1 44:-0.12381 45:-0.439462 
-8192 1:-0.90109 2:-0.638452 3:-1 4:-1 5:-0.942792 6:0.883944 7:-0.919105 8:-0.9 9:-0.9 10:-1 11:-0.919105 12:-1 13:-0.89519 14:-0.834793 15:-0.999944 16:-0.995245 17:-0.999944 18:-1 19:-1 20:-1 21:-0.625 22:-0.814655 23:-0.977491 24:-0.974207 25:-0.820896 26:-0.958065 27:-0.95 28:-0.981569 29:-0.90085 30:-0.983161 31:-0.43662 32:-0.978454 33:-0.747573 34:-1 35:-0.933333 36:-1 37:-1 38:-0.882353 39:-0.90099 40:-0.945578 41:-0.882353 42:-0.837209 43:-1 44:-0.148089 45:-0.860987 
8192 1:-0.915875 2:-0.749044 3:-1 4:-1 5:-0.942132 6:0.896757 7:-0.914006 8:-1 9:-1 10:-1 11:-0.914006 12:-1 13:-0.711246 14:-0.835446 15:-0.998827 16:-0.888464 17:-0.998827 18:-1 19:-1 20:-1 21:-0.625 22:-0.887931 23:-0.979874 24:-0.97627 25:-1 26:-0.96129 27:-0.85 28:-0.981195 29:-0.910765 30:-0.98328 31:-0.322917 32:-0.975776 33:-0.941748 34:-1 35:-0.933333 36:-1 37:-0.925926 38:-0.647059 39:-0.821782 40:-0.877551 41:-0.647059 42:-0.744186 43:-1 44:-0.120089 45:-0.811659 
8192 1:-0.897948 2:-0.60421 3:-0.493976 4:-0.493976 5:-0.935666 6:0.857186 7:-0.912393 8:-0.866667 9:-0.866667 10:-1 11:-0.912393 12:-1 13:-0.753188 14:-0.766222 15:-0.999442 16:-0.975115 17:-0.999442 18:-1 19:-1 20:-1 21:-0.5 22:-0.844828 23:-0.956744 24:-0.939128 25:-0.820896 26:-0.916129 27:-0.6625 28:-0.967897 29:-0.803116 30:-0.968326 31:-0.285714 32:-0.967864 33:-0.864078 34:-1 35:-0.733333 36:-0.714286 37:-0.777778 38:-0.764706 39:-0.861386 40:-0.70068 41:-1 42:-0.883721 43:-1 44:0.102449 45:-0.798206 
-8192 1:-0.911874 2:-0.658457 3:-0.879518 4:-0.879518 5:-0.935697 6:0.851197 7:-0.907999 8:-1 9:-1 10:-1 11:-0.907999 12:-1 13:-0.841251 14:-0.735438 15:-0.992963 16:-0.740707 17:-0.992963 18:-1 19:-1 20:-1 21:-0.6875 22:-0.836207 23:-0.947638 24:-0.927263 25:-0.970149 26:-0.903226 27:-0.975 28:-0.935762 29:-0.740793 30:-0.960168 31:-0.528986 32:-0.968837 33:-0.572816 34:-1 35:-1 36:-1 37:-0.851852 38:-1 39:-0.683168 40:-0.931973 41:-1 42:-0.953488 43:-1 44:-0.217857 45:-0.538117 
8192 1:-0.900263 2:-0.624609 3:-0.590361 4:-0.590361 5:-0.930456 6:0.846665 7:-0.900448 8:-0.7 9:-0.7 10:-1 11:-0.900448 12:-1 13:-0.852311 14:-0.570901 15:-0.990729 16:-0.865444 17:-0.990729 18:-1 19:-1 20:-1 21:-0.4375 22:-0.357759 23:-0.866657 24:-0.853495 25:-0.492537 26:-0.745161 27:-0.6875 28:-0.911531 29:-0.399433 30:-0.900838 31:-0.215686 32:-0.937553 33:-0.592233 34:-1 35:-0.933333 36:-1 37:-0.777778 38:-0.882353 39:-0.70297 40:-0.823129 41:-0.882353 42:-0.72093 43:-1 44:-0.0724706 45:-0.313901 
8192 1:-0.872219 2:-0.629985 3:-0.518072 4:-0.518072 5:-0.906867 6:0.838579 7:-0.87412 8:-0.866667 9:-0.866667 10:-1 11:-0.87412 12:-1 13:-0.855828 14:-0.621849 15:-0.997096 16:-0.945432 17:-0.997096 18:-1 19:-1 20:-1 21:-0.375 22:-0.517241 23:-0.897063 24:-0.880836 25:-0.164179 26:-0.748387 27:-0.6375 28:-0.940314 29:-0.66289 30:-0.922042 31:-0.386332 32:-0.950578 33:-0.262136 34:-1 35:-0.733333 36:-1 37:-0.703704 38:-0.882353 39:-0.465347 40:-0.755102 41:-0.882353 42:-0.44186 43:-1 44:-0.0662283 45:-0.331839 
8192 1:-0.838878 2:-0.340129 3:-0.927711 4:-0.927711 5:-0.919041 6:0.8239 7:-0.882333 8:-0.966667 9:-0.966667 10:-1 11:-0.882333 12:-1 13:-0.584584 14:-0.957919 15:-1 16:-1 17:-1 18:-1 19:-1 20:-1 21:-1 22:-0.99569 23:-0.997009 24:-0.995357 25:-1 26:-0.990323 27:-1 28:-1 29:-0.990085 30:-0.998247 31:-0.166667 32:-0.99367 33:-0.941748 34:-1 35:-1 36:-1 37:-1 38:-1 39:-1 40:-1 41:-1 42:-1 43:-1 44:-0.217857 45:-0.986547 
-8192 1:-0.904886 2:-0.687689 3:-0.987952 4:-0.987952 5:-0.937442 6:0.881428 7:-0.904559 8:-1 9:-1 10:-1 11:-0.904559 12:-1 13:-0.187187 14:-0.96502 15:-1 16:-1 17:-1 18:-1 19:-1 20:-1 21:-0.9375 22:-1 23:-0.998307 24:-0.997421 25:-1 26:-1 27:-0.9875 28:-0.997934 29:-0.992918 30:-0.998664 31:-0.444444 32:-0.996105 33:-1 34:-1 35:-1 36:-1 37:-1 38:-1 39:-0.960396 40:-1 41:-1 42:-1 43:-1 44:-0.652381 45:-1 
-8192 1:-0.919946 2:-0.731375 3:-0.819277 4:-0.819277 5:-0.946083 6:0.892553 7:-0.921929 8:-0.566667 9:-0.566667 10:-1 11:-0.921929 12:-1 13:-0.688456 14:-0.713181 15:-0.997096 16:-0.901118 17:-0.997096 18:-1 19:-1 20:-1 21:-0.4375 22:-0.586207 23:-0.943312 24:-0.909724 25:-0.820896 26:-0.9 27:-0.9875 28:-0.962775 29:-0.726629 30:-0.953693 31:-0.467354 32:-0.965794 33:-0.242718 34:-1 35:-0.933333 36:-1 37:-0.851852 38:-1 39:-0.762376 40:-0.741497 41:-1 42:-0.883721 43:-1 44:-0.301178 45:-0.636771 
-8192 1:-0.919966 2:-0.688905 3:-1 4:-1 5:-0.932379 6:0.838203 7:-0.923507 8:-0.966667 9:-0.966667 10:-1 11:-0.923507 12:-1 13:-0.531315 14:-0.946657 15:-1 16:-1 17:-1 18:-1 19:-1 20:-1 21:-0.9375 22:-0.99569 23:-0.9967 24:-0.995357 25:-1 26:-0.996774 27:-1 28:-0.995593 29:-0.983003 30:-0.997484 31:-0.230769 32:-0.994766 33:-1 34:-1 35:-1 36:-1 37:-1 38:-1 39:-0.960396 40:-0.931973 41:-1 42:-1 43:-1 44:0.283516 45:-0.973094 
8192 1:-0.837047 2:-0.378595 3:-0.253012 4:-0.253012 5:-0.875492 6:0.72456 7:-0.878054 8:-0.833333 9:-0.833333 10:-1 11:-0.878054 12:-1 13:-0.808846 14:-0.625986 15:-0.996761 16:-0.94936 17:-0.996761 18:-1 19:-1 20:-1 21:-0.1875 22:-0.50431 23:-0.876226 24:-0.88032 25:-0.58209 26:-0.658065 27:-0.675 28:-0.942196 29:-0.611898 30:-0.923652 31:-0.393939 32:-0.932928 33:-0.572816 34:-1 35:-0.4 36:-0.714286 37:-0.037037 38:-0.647059 39:-0.742574 40:-0.795918 41:-0.882353 42:-0.627907 43:-1 44:0.145247 45:-0.502242 
8192 1:-0.869859 2:-0.637612 3:-0.289157 4:-0.289157 5:-0.907033 6:0.846267 7:-0.879572 8:-0.766667 9:-0.766667 10:-1 11:-0.879572 12:-1 13:-0.608 14:-0.627498 15:-0.995365 16:-0.90869 17:-0.995365 18:-1 19:-1 20:-1 21:-0.0625 22:-0.521552 23:-0.901822 24:-0.893216 25:-0.731343 26:-0.796774 27:-0.65 28:-0.961451 29:-0.684136 30:-0.924236 31:-0.389881 32:-0.917833 33:-0.553398 34:-1 35:-1 36:-1 37:-0.851852 38:-1 39:-0.683168 40:-0.85034 41:-1 42:-0.651163 43:-1 44:0.080102 45:-0.497758 
-8192 1:-0.899436 2:-0.645952 3:-0.0843373 4:-0.0843373 5:-0.92563 6:0.84371 7:-0.899702 8:0.2 9:0.2 10:-1 11:-0.899702 12:-1 13:-0.595924 14:-0.56657 15:-0.994471 16:-0.918973 17:-0.994471 18:-1 19:-1 20:-1 21:-0.25 22:-0.668103 23:-0.867943 24:-0.845757 25:-0.731343 26:-0.687097 27:-0.8375 28:-0.934481 29:-0.429178 30:-0.898918 31:-0.488449 32:-0.929032 33:0.0485437 34:-1 35:-1 36:-1 37:0.037037 38:-1 39:-0.544554 40:-0.741497 41:-1 42:-0.860465 43:-1 44:0.00155587 45:-0.591928 
-8192 1:-0.92529 2:-0.740027 3:-0.963855 4:-0.963855 5:-0.968312 6:0.945545 7:-0.928445 8:-1 9:-1 10:-1 11:-0.928445 12:-1 13:-0.463308 14:-0.907345 15:-1 16:-1 17:-1 18:-1 19:-1 20:-1 21:-0.75 22:-0.952586 23:-0.992556 24:-0.987619 25:-1 26:-0.980645 27:-0.975 28:-0.989042 29:-0.961756 30:-0.993846 31:-0.285714 32:-0.983567 33:-0.941748 34:-1 35:-0.933333 36:-1 37:-1 38:-1 39:-0.960396 40:-0.931973 41:-1 42:-0.976744 43:-1 44:-0.106122 45:-0.910314 
8192 1:-0.984672 2:-0.896134 3:-1 4:-1 5:-0.969898 6:0.884913 7:-0.997994 8:-1 9:-1 10:-1 11:-0.997994 12:-1 13:-0.399156 14:-0.999441 15:-1 16:-1 17:-1 18:-1 19:-1 20:-1 21:-1 22:-1 23:-1 24:-1 25:-1 26:-1 27:-1 28:-1 29:-0.998584 30:-0.999988 31:-1 32:-1 33:-1 34:-1 35:-1 36:-1 37:-1 38:-1 39:-1 40:-1 41:-1 42:-1 43:-1 44:0.0428571 45:-1 
-8192 1:-0.914401 2:-0.662856 3:-0.975904 4:-0.975904 5:-0.94307 6:0.867798 7:-0.911912 8:-0.833333 9:-0.833333 10:-1 11:-0.911912 12:-1 13:-0.804707 14:-0.771721 15:-0.995867 16:-0.79928 17:-0.995867 18:-1 19:-1 20:-1 21:-0.3125 22:-0.728448 23:-0.960338 24:-0.959763 25:-0.552239 26:-0.874194 27:-0.925 28:-0.979746 29:-0.79745 30:-0.969685 31:-0.606481 32:-0.972368 33:-0.84466 34:-1 35:-0.933333 36:-1 37:-0.925926 38:-0.882353 39:-0.683168 40:-0.863946 41:-1 42:-0.767442 43:-1 44:-0.319246 45:-0.470852 
-8192 1:-0.936419 2:-0.736198 3:-0.927711 4:-0.927711 5:-0.967942 6:0.919851 7:-0.945123 8:-1 9:-1 10:-1 11:-0.945123 12:-1 13:-0.785188 14:-0.825312 15:-0.999944 16:-0.995359 17:-0.999944 18:-1 19:-1 20:-1 21:-0.6875 22:-0.87931 23:-0.97693 24:-0.968532 25:-0.970149 26:-0.903226 27:-0.925 28:-0.972358 29:-0.858357 30:-0.981384 31:-0.372937 32:-0.978576 33:-0.84466 34:-1 35:-0.933333 36:-1 37:-0.62963 38:-1 39:-0.920792 40:-0.823129 41:-1 42:-0.860465 43:-1 44:-0.173975 45:-0.789238 
8192 1:-0.978638 2:-0.885292 3:-0.795181 4:-0.795181 5:-0.968037 6:0.89126 7:-0.946936 8:-1 9:-1 10:-1 11:-0.946936 12:-1 13:-0.589563 14:-0.88916 15:-0.998995 16:-0.786046 17:-0.998995 18:-1 19:-1 20:-1 21:-0.6875 22:-0.982759 23:-0.991154 24:-0.995357 25:-0.850746 26:-0.977419 27:-0.9875 28:-0.990152 29:-0.913598 30:-0.991652 31:-0.623656 32:-0.986366 33:-0.961165 34:-1 35:-1 36:-1 37:-1 38:-1 39:-0.940594 40:-0.972789 41:-1 42:-1 43:-1 44:-0.125346 45:-0.950673 
8192 1:-0.913646 2:-0.596961 3:-1 4:-1 5:-0.939954 6:0.832381 7:-0.924615 8:-1 9:-1 10:-1 11:-0.924615 12:-1 13:-0.480626 14:-0.995397 15:-1 16:-1 17:-1 18:-1 19:-1 20:-1 21:-1 22:-1 23:-0.999805 24:-1 25:-1 26:-1 27:-1 28:-1 29:-0.998584 30:-0.999893 31:-1 32:-0.998174 33:-1 34:-1 35:-1 36:-1 37:-1 38:-1 39:-1 40:-1 41:-1 42:-1 43:-1 44:-1 45:-1 
8192 1:-0.927542 2:-0.740794 3:-0.975904 4:-0.975904 5:-0.96095 6:0.92139 7:-0.92615 8:-0.8 9:-0.8 10:-1 11:-0.92615 12:-1 13:-0.674189 14:-0.801821 15:-1 16:-1 17:-1 18:-1 19:-1 20:-1 21:-0.6875 22:-0.883621 23:-0.971937 24:-0.972659 25:-0.940299 26:-0.93871 27:-0.9625 28:-0.968913 29:-0.849858 30:-0.976602 31:-0.252336 32:-0.977602 33:-0.650485 34:-1 35:-1 36:-1 37:-0.703704 38:-1 39:-0.980198 40:-0.891156 41:-1 42:-1 43:-1 44:-0.12283 45:-0.690583 
-8192 1:-0.921719 2:-0.681728 3:-0.975904 4:-0.975904 5:-0.95068 6:0.881088 7:-0.917234 8:-1 9:-1 10:-1 11:-0.917234 12:-1 13:-0.533666 14:-0.920478 15:-1 16:-1 17:-1 18:-1 19:-1 20:-1 21:-0.9375 22:-1 23:-0.993781 24:-0.996905 25:-1 26:-1 27:-0.975 28:-0.997498 29:-0.966006 30:-0.99523 31:-0.333333 32:-0.990749 33:-0.84466 34:-1 35:-1 36:-1 37:-1 38:-1 39:-0.960396 40:-0.986395 41:-1 42:-1 43:-1 44:-0.249143 45:-0.96861 
8192 1:-0.904122 2:-0.650141 3:-0.987952 4:-0.987952 5:-0.928003 6:0.84257 7:-0.890949 8:-0.933333 9:-0.933333 10:-1 11:-0.890949 12:-1 13:-0.810332 14:-0.780912 15:-0.998157 16:-0.904277 17:-0.998157 18:-1 19:-1 20:-1 21:-0.75 22:-0.801724 23:-0.962929 24:-0.960279 25:-0.61194 26:-0.932258 27:-0.8875 28:-0.945271 29:-0.832861 30:-0.971891 31:-0.355742 32:-0.97115 33:-0.864078 34:-1 35:-0.933333 36:-1 37:-1 38:-1 39:-0.742574 40:-0.768707 41:-1 42:-0.976744 43:-1 44:-0.158703 45:-0.596413 
-8192 1:-0.936293 2:-0.75564 3:-0.86747 4:-0.86747 5:-0.955217 6:0.894011 7:-0.932401 8:-1 9:-1 10:-1 11:-0.932401 12:-1 13:-0.661463 14:-0.864568 15:-1 16:-1 17:-1 18:-1 19:-1 20:-1 21:-0.6875 22:-0.965517 23:-0.985693 24:-0.980913 25:-0.970149 26:-0.970968 27:-0.975 28:-0.984727 29:-0.916431 30:-0.98817 31:-0.388889 32:-0.976263 33:-1 34:-1 35:-1 36:-1 37:-1 38:-1 39:-1 40:-0.904762 41:-1 42:-0.976744 43:-1 44:0.147143 45:-0.950673 
8192 1:-0.906598 2:-0.686685 3:-0.819277 4:-0.819277 5:-0.937369 6:0.877509 7:-0.905373 8:-0.933333 9:-0.933333 10:-1 11:-0.905373 12:-1 13:-0.712139 14:-0.843544 15:-0.999218 16:-0.922741 17:-0.999218 18:-1 19:-1 20:-1 21:-0.5 22:-0.948276 23:-0.98064 24:-0.976786 25:-0.940299 26:-0.954839 27:-0.875 28:-0.987078 29:-0.915014 30:-0.984723 31:-0.234973 32:-0.973585 33:-0.864078 34:-1 35:-1 36:-1 37:-0.925926 38:-1 39:-0.980198 40:-0.945578 41:-1 42:-1 43:-1 44:-0.042623 45:-0.874439 
-8192 1:-0.910418 2:-0.73861 3:-0.915663 4:-0.915663 5:-0.937379 6:0.89035 7:-0.915567 8:-1 9:-1 10:-1 11:-0.915567 12:-1 13:-0.468647 14:-0.860583 15:-0.999832 16:-0.978935 17:-0.999832 18:-1 19:-1 20:-1 21:-0.8125 22:-0.956897 23:-0.984841 24:-0.976786 25:-0.910448 26:-0.967742 27:-0.8875 28:-0.970999 29:-0.936261 30:-0.98755 31:-0.492754 32:-0.982106 33:-0.92233 34:-1 35:-0.933333 36:-1 37:-1 38:-0.882353 39:-0.980198 40:-0.891156 41:-0.882353 42:-0.930233 43:-1 44:0.0428571 45:-0.90583 
-8192 1:-0.899231 2:-0.696916 3:-0.975904 4:-0.975904 5:-0.925148 6:0.86258 7:-0.902738 8:-1 9:-1 10:-1 11:-0.902738 12:-1 13:-0.648699 14:-0.931306 15:-0.999777 16:-0.913061 17:-0.999777 18:-1 19:-1 20:-1 21:-0.8125 22:-0.991379 23:-0.995282 24:-0.993294 25:-0.940299 26:-0.990323 27:-0.9875 28:-0.993488 29:-0.981586 30:-0.996243 31:-0.285714 32:-0.989044 33:-0.980583 34:-1 35:-1 36:-1 37:-0.925926 38:-1 39:-1 40:-0.986395 41:-1 42:-0.976744 43:-1 44:0.489796 45:-0.977578 
-8192 1:-0.929899 2:-0.690789 3:-0.951807 4:-0.951807 5:-0.952695 6:0.872832 7:-0.927802 8:-0.933333 9:-0.933333 10:-1 11:-0.927802 12:-1 13:-0.775509 14:-0.888426 15:-0.999609 16:-0.933159 17:-0.999609 18:-1 19:-1 20:-1 21:-0.6875 22:-0.991379 23:-0.988923 24:-0.986072 25:-0.940299 26:-0.974194 27:-0.9875 28:-0.99083 29:-0.932011 30:-0.991557 31:-0.251701 32:-0.981862 33:-0.92233 34:-1 35:-1 36:-1 37:-1 38:-1 39:-0.960396 40:-0.986395 41:-0.882353 42:-1 43:-1 44:-0.0635569 45:-0.96861 
364.8676126196809 1:-0.65671 2:-0.745824 3:-0.891566 4:-0.891566 5:-0.702342 6:0.710336 7:-0.667693 8:-1 9:-1 10:-1 11:-0.667693 12:-1 13:0.267564 14:-0.492277 15:-0.999944 16:-0.999252 17:-0.999944 18:-1 19:-1 20:-1 21:-0.25 22:-0.939655 23:-0.855516 24:-0.938612 25:-0.910448 26:-0.841935 27:-0.8 28:-0.925891 29:-0.814448 30:-0.86313 31:-0.242424 32:-0.817042 33:-0.84466 34:-1 35:-1 36:-1 37:-1 38:-0.882353 39:-0.920792 40:-0.986395 41:-1 42:-0.930233 43:-1 44:0.501082 45:-0.883408 
-8192 1:-0.935998 2:-0.706072 3:-0.975904 4:-0.975904 5:-0.975197 6:0.926878 7:-0.936651 8:-0.933333 9:-0.933333 10:-1 11:-0.936651 12:-1 13:-0.729527 14:-0.931441 15:-1 16:-1 17:-1 18:-1 19:-1 20:-1 21:-0.875 22:-0.978448 23:-0.995264 24:-0.99381 25:-0.970149 26:-0.974194 27:-0.9875 28:-0.98924 29:-0.967422 30:-0.996255 31:-0.305556 32:-0.991479 33:-1 34:-1 35:-1 36:-1 37:-0.925926 38:-1 39:-1 40:-0.945578 41:-1 42:-1 43:-1 44:-0.217857 45:-0.973094 
-8192 1:-0.942673 2:-0.667975 3:-0.975904 4:-0.975904 5:-0.958862 6:0.831618 7:-0.955681 8:-1 9:-1 10:-1 11:-0.955681 12:-1 13:-0.409765 14:-0.973659 15:-1 16:-1 17:-1 18:-1 19:-1 20:-1 21:-0.9375 22:-1 23:-0.998647 24:-0.997421 25:-1 26:-1 27:-1 28:-0.996755 29:-0.981586 30:-0.999106 31:-0.52381 32:-0.995618 33:-1 34:-1 35:-1 36:-1 37:-1 38:-1 39:-1 40:-1 41:-1 42:-1 43:-1 44:-0.553061 45:-0.995516 
8192 1:-0.892073 2:-0.627092 3:-0.963855 4:-0.963855 5:-0.930261 6:0.863179 7:-0.903268 8:-1 9:-1 10:-1 11:-0.903268 12:-1 13:-0.752291 14:-0.862793 15:-1 16:-1 17:-1 18:-1 19:-1 20:-1 21:-0.75 22:-0.943966 23:-0.983883 24:-0.980913 25:-0.910448 26:-0.93871 27:-0.975 28:-0.981426 29:-0.934844 30:-0.987895 31:-0.361702 32:-0.985027 33:-0.825243 34:-1 35:-0.933333 36:-0.714286 37:-0.703704 38:-1 39:-0.861386 40:-0.931973 41:-1 42:-0.930233 43:-1 44:-0.112462 45:-0.928251 
-8192 1:-0.872935 2:-0.668263 3:-0.963855 4:-0.963855 5:-0.896448 6:0.823348 7:-0.869298 8:-0.966667 9:-0.966667 10:-1 11:-0.869298 12:-1 13:-0.320051 14:-0.968124 15:-1 16:-1 17:-1 18:-1 19:-1 20:-1 21:-0.9375 22:-1 23:-0.99851 24:-0.998968 25:-1 26:-1 27:-1 28:-0.998176 29:-0.995751 30:-0.998831 31:-0.166667 32:-0.993792 33:-0.980583 34:-1 35:-1 36:-1 37:-1 38:-1 39:-0.980198 40:-1 41:-1 42:-1 43:-1 44:0.0428571 45:-0.995516 
-8192 1:-0.897542 2:-0.668558 3:-0.951807 4:-0.951807 5:-0.933803 6:0.878318 7:-0.900879 8:-1 9:-1 10:-1 11:-0.900879 12:-1 13:-0.596802 14:-0.771088 15:-0.997152 16:-0.860055 17:-0.997152 18:-1 19:-1 20:-1 21:-0.5625 22:-0.814655 23:-0.960797 24:-0.944287 25:-0.731343 26:-0.877419 27:-0.8625 28:-0.968735 29:-0.84136 30:-0.96953 31:-0.174041 32:-0.968472 33:-0.553398 34:-1 35:-1 36:-1 37:-0.777778 38:-1 39:-0.940594 40:-0.959184 41:-1 42:-1 43:-1 44:-0.187863 45:-0.784753 
-8192 1:-0.896543 2:-0.719349 3:-0.831325 4:-0.831325 5:-0.926027 6:0.878587 7:-0.889392 8:-0.966667 9:-0.966667 10:-1 11:-0.889392 12:-1 13:-0.799719 14:-0.731463 15:-0.999777 16:-0.991346 17:-0.999777 18:-1 19:-1 20:-1 21:-0.5 22:-0.534483 23:-0.950209 24:-0.941192 25:-0.61194 26:-0.806452 27:-0.5875 28:-0.962561 29:-0.811615 30:-0.959047 31:-0.079602 32:-0.953013 33:-0.76699 34:-1 35:-0.933333 36:-1 37:-0.777778 38:-0.411765 39:-0.762376 40:-0.918367 41:-0.411765 42:-0.627907 43:-1 44:-0.0816631 45:-0.726457 
8192 1:-0.892872 2:-0.687383 3:-0.951807 4:-0.951807 5:-0.918744 6:0.853668 7:-0.908036 8:-0.866667 9:-0.866667 10:-1 11:-0.908036 12:-1 13:-0.833918 14:-0.768427 15:-0.997766 16:-0.891056 17:-0.997766 18:-1 19:-1 20:-1 21:-0.75 22:-0.939655 23:-0.960501 24:-0.977818 25:-0.940299 26:-0.941935 27:-0.9125 28:-0.939378 29:-0.852691 30:-0.968874 31:-0.428571 32:-0.944979 33:-0.941748 34:-1 35:-1 36:-1 37:-0.925926 38:-0.882353 39:-0.90099 40:-0.931973 41:-0.882353 42:-0.953488 43:-1 44:0.330884 45:-0.856502 
8192 1:-0.917157 2:-0.680265 3:-0.987952 4:-0.987952 5:-0.912491 6:0.786568 7:-0.965891 8:-1 9:-1 10:-1 11:-0.965891 12:-1 13:-0.713616 14:-0.991899 15:-1 16:-1 17:-1 18:-1 19:-1 20:-1 21:-1 22:-1 23:-0.999709 24:-0.999484 25:-1 26:-1 27:-1 28:-1 29:-0.998584 30:-0.999797 31:-1 32:-0.997931 33:-1 34:-1 35:-1 36:-1 37:-1 38:-1 39:-1 40:-1 41:-1 42:-1 43:-1 44:0.0428571 45:-1 
1318.539949374257 1:-0.286556 2:-0.750464 3:-0.831325 4:-0.831325 5:-0.302923 6:0.278981 7:-0.265687 8:-0.7 9:-0.7 10:-1 11:-0.265687 12:-1 13:-0.992177 14:0.698124 15:0.412432 16:0.883218 17:0.412432 18:-1 19:-1 20:-1 21:-0.4375 22:-0.5 23:0.454158 24:0.35414 25:-0.492537 26:0.477419 27:-0.325 28:0.00380163 29:-0.0368272 30:0.447211 31:-0.583945 32:0.735119 33:-0.436893 34:-1 35:-0.666667 36:-0.714286 37:-0.555556 38:-0.764706 39:-0.782178 40:-0.414966 41:-0.647059 42:-0.813953 43:-1 44:0.819257 45:-0.309417 
-8192 1:-0.92465 2:-0.72858 3:-0.831325 4:-0.831325 5:-0.952703 6:0.899945 7:-0.925727 8:-1 9:-1 10:-1 11:-0.925727 12:-1 13:-0.638383 14:-0.764036 15:-0.997878 16:-0.89609 17:-0.997878 18:-1 19:-1 20:-1 21:-0.5 22:-0.793103 23:-0.96066 24:-0.956668 25:-0.880597 26:-0.86129 27:-0.925 28:-0.971479 29:-0.794618 30:-0.967777 31:-0.589041 32:-0.964334 33:-0.747573 34:-1 35:-0.933333 36:-1 37:-0.407407 38:-0.882353 39:-0.861386 40:-0.904762 41:-0.882353 42:-0.837209 43:-0.666667 44:-0.0428571 45:-0.780269 
-8192 1:-0.921887 2:-0.742508 3:-0.939759 4:-0.939759 5:-0.947815 6:0.897835 7:-0.914621 8:-1 9:-1 10:-1 11:-0.914621 12:-1 13:-0.700381 14:-0.781572 15:-0.998157 16:-0.894859 17:-0.998157 18:-1 19:-1 20:-1 21:-0.625 22:-0.836207 23:-0.966274 24:-0.96389 25:-0.940299 26:-0.922581 27:-0.7625 28:-0.966813 29:-0.835694 30:-0.972046 31:-0.373219 32:-0.972368 33:-0.883495 34:-1 35:-1 36:-1 37:-0.925926 38:-0.647059 39:-0.80198 40:-0.70068 41:-0.647059 42:-0.883721 43:-1 44:-0.179976 45:-0.869955 
-8192 1:-0.874821 2:-0.606544 3:-1 4:-1 5:-0.907894 6:0.827651 7:-0.883572 8:-1 9:-1 10:-1 11:-0.883572 12:-1 13:-1 14:-0.823643 15:-1 16:-1 17:-1 18:-1 19:-1 20:-1 21:-1 22:-0.952586 23:-0.974209 24:-0.965437 25:-0.791045 26:-0.932258 27:-0.875 28:-1 29:-0.912181 30:-0.981062 31:-0.365079 32:-0.97322 33:-0.805825 34:-1 35:-1 36:-1 37:-0.925926 38:-0.882353 39:-0.841584 40:-0.972789 41:-1 42:-0.790698 43:-1 44:-0.271655 45:-0.928251 
-8192 1:-0.891353 2:-0.564205 3:-0.951807 4:-0.951807 5:-0.898901 6:0.754743 7:-0.872211 8:-1 9:-1 10:-1 11:-0.872211 12:-1 13:-0.924462 14:-0.780053 15:-1 16:-1 17:-1 18:-1 19:-1 20:-1 21:-0.875 22:-0.952586 23:-0.959185 24:-0.961826 25:-0.940299 26:-0.983871 27:-0.975 28:-0.918269 29:-0.820113 30:-0.971689 31:-0.322917 32:-0.945587 33:-1 34:-1 35:-1 36:-1 37:-1 38:-1 39:-0.881188 40:-0.918367 41:-1 42:-1 43:-1 44:0.0754464 45:-0.955157 
8192 1:-0.877274 2:-0.610795 3:-0.86747 4:-0.86747 5:-0.906023 6:0.819575 7:-0.873013 8:-1 9:-1 10:-1 11:-0.873013 12:-1 13:-0.772888 14:-0.875256 15:-0.999944 16:-0.992272 17:-0.999944 18:-1 19:-1 20:-1 21:-0.75 22:-0.965517 23:-0.986251 24:-0.981429 25:-0.970149 26:-0.948387 27:-0.9625 28:-0.994628 29:-0.951841 30:-0.989756 31:-0.238095 32:-0.983932 33:-0.92233 34:-1 35:-0.933333 36:-1 37:-0.777778 38:-1 39:-0.940594 40:-0.945578 41:-1 42:-0.976744 43:-1 44:0.0130612 45:-0.932735 
-8192 1:-0.865835 2:-0.676295 3:-0.987952 4:-0.987952 5:-0.893408 6:0.831159 7:-0.876684 8:-1 9:-1 10:-1 11:-0.876684 12:-1 13:-0.406635 14:-0.966109 15:-1 16:-1 17:-1 18:-1 19:-1 20:-1 21:-0.875 22:-1 23:-0.998388 24:-0.998968 25:-1 26:-0.996774 27:-0.975 28:-0.998652 29:-0.995751 30:-0.998724 31:-0.166667 32:-0.995374 33:-1 34:-1 35:-1 36:-1 37:-1 38:-1 39:-1 40:-1 41:-1 42:-1 43:-1 44:-0.478571 45:-0.995516 
8192 1:-0.936647 2:-0.729449 3:-0.963855 4:-0.963855 5:-0.957693 6:0.888649 7:-0.924348 8:-1 9:-1 10:-1 11:-0.924348 12:-1 13:-0.75695 14:-0.937748 15:-0.999944 16:-0.974552 17:-0.999944 18:-1 19:-1 20:-1 21:-0.6875 22:-0.982759 23:-0.996009 24:-0.995357 25:-1 26:-0.993548 27:-1 28:-0.995893 29:-0.974504 30:-0.996792 31:-0.473684 32:-0.991722 33:-0.941748 34:-1 35:-1 36:-1 37:-1 38:-1 39:-1 40:-0.918367 41:-1 42:-1 43:-1 44:-0.451128 45:-0.973094 
8192 1:-0.871612 2:-0.683543 3:-0.795181 4:-0.795181 5:-0.907924 6:0.86252 7:-0.864705 8:-1 9:-1 10:-1 11:-0.864705 12:-1 13:-0.550174 14:-0.831046 15:-0.99933 16:-0.940266 17:-0.99933 18:-1 19:-1 20:-1 21:-0.6875 22:-0.909483 23:-0.978508 24:-0.971112 25:-0.940299 26:-0.954839 27:-0.925 28:-0.974679 29:-0.932011 30:-0.982469 31:-0.52381 32:-0.944735 33:-0.980583 34:-1 35:-1 36:-1 37:-0.925926 38:-1 39:-0.90099 40:-0.931973 41:-1 42:-0.930233 43:-1 44:0.234402 45:-0.923767 
-8192 1:-0.895118 2:-0.669317 3:-0.759036 4:-0.759036 5:-0.91612 6:0.835392 7:-0.88255 8:-0.9 9:-0.9 10:-1 11:-0.88255 12:-1 13:-0.681305 14:-0.612182 15:-0.993745 16:-0.884872 17:-0.993745 18:-1 19:-1 20:-1 22:-0.288793 23:-0.894908 24:-0.884447 25:-0.522388 26:-0.809677 27:-0.7 28:-0.961364 29:-0.586402 30:-0.918214 31:-0.408419 32:-0.936579 33:-0.339806 34:0.142857 35:-0.933333 36:-1 37:-0.925926 38:-0.764706 39:-0.70297 40:-0.687075 41:-0.764706 42:-0.837209 43:0.333333 44:-0.152901 45:-0.403587 
-8192 1:-0.892472 2:-0.648379 3:-0.963855 4:-0.963855 5:-0.936494 6:0.887536 7:-0.914288 8:-1 9:-1 10:-1 11:-0.914288 12:-1 13:-0.799208 14:-0.915535 15:-1 16:-1 17:-1 18:-1 19:-1 20:-1 21:-0.6875 22:-0.991379 23:-0.993132 24:-0.990199 25:-0.970149 26:-0.990323 27:-0.975 28:-0.994185 29:-0.973088 30:-0.994729 31:-0.333333 32:-0.98941 33:-0.902913 34:-1 35:-1 36:-1 37:-1 38:-1 39:-1 40:-0.972789 41:-1 42:-0.953488 43:-1 44:-0.165714 45:-0.950673 
8192 1:-0.88725 2:-0.602328 3:-0.433735 4:-0.433735 5:-0.928444 6:0.857948 7:-0.895988 8:-0.8 9:-0.8 10:-1 11:-0.895988 12:-1 13:-0.803853 14:-0.70949 15:-0.994471 16:-0.834806 17:-0.994471 18:-1 19:-1 20:-1 21:-0.375 22:-0.616379 23:-0.935362 24:-0.924168 25:-0.432836 26:-0.829032 27:-0.7 28:-0.962121 29:-0.743626 30:-0.952572 31:-0.285714 32:-0.962751 33:-0.572816 34:-1 35:-1 36:-0.714286 37:-0.925926 38:-0.764706 39:-0.841584 40:-0.836735 41:-0.764706 42:-0.813953 43:-1 44:-0.151962 45:-0.627803 
-8192 1:-0.890939 2:-0.730631 3:-0.975904 4:-0.975904 5:-0.912077 6:0.85555 7:-0.883178 8:-1 9:-1 10:-1 11:-0.883178 12:-1 13:-0.530632 14:-0.957728 15:-0.999777 16:-0.817466 17:-0.999777 18:-1 19:-1 20:-1 21:-0.875 22:-1 23:-0.997892 24:-0.996389 25:-1 26:-0.993548 27:-1 28:-0.997441 29:-0.992918 30:-0.998235 31:0.111111 32:-0.992209 33:-0.980583 34:-1 35:-1 36:-1 37:-1 38:-1 39:-1 40:-1 41:-1 42:-1 43:-1 44:0.0428571 45:-0.982063 
8192 1:-0.902554 2:-0.723244 3:-0.987952 4:-0.987952 5:-0.937552 6:0.899911 7:-0.905752 8:-0.733333 9:-0.733333 10:-1 11:-0.905752 12:-1 13:-0.882688 14:-0.709372 15:-0.997096 16:-0.903451 17:-0.997096 18:-1 19:-1 20:-1 21:-0.4375 22:-0.564655 23:-0.941936 24:-0.915399 25:-0.58209 26:-0.822581 27:-0.675 28:-0.96217 29:-0.769122 30:-0.952536 31:-0.369919 32:-0.959221 33:-0.533981 34:-1 35:-1 36:-0.428571 37:-0.851852 38:-0.882353 39:-0.821782 40:-0.782313 41:-0.764706 42:-0.813953 43:-1 44:-0.0716028 45:-0.273543 
8192 1:-0.923453 2:-0.70444 3:-0.975904 4:-0.975904 5:-0.958571 6:0.908351 7:-0.929964 8:-1 9:-1 10:-1 11:-0.929964 12:-1 13:-0.587814 14:-0.873682 15:-1 16:-1 17:-1 18:-1 19:-1 20:-1 21:-0.6875 22:-0.952586 23:-0.986752 24:-0.977818 25:-0.940299 26:-0.903226 27:-1 28:-0.985822 29:-0.929178 30:-0.989529 31:-0.673203 32:-0.97955 33:-0.961165 34:-1 35:-1 36:-1 37:-0.777778 38:-1 39:-0.90099 40:-0.755102 41:-1 42:-0.953488 43:-1 44:-0.427451 45:-0.955157 
8192 1:-0.90409 2:-0.653787 3:-0.746988 4:-0.746988 5:-0.934651 6:0.86208 7:-0.907734 8:-0.833333 9:-0.833333 10:-1 11:-0.907734 12:-1 13:-0.89915 14:-0.685974 15:-0.998213 16:-0.952254 17:-0.998213 18:-1 19:-1 20:-1 21:-0.5 22:-0.551724 23:-0.927681 24:-0.885994 25:-0.61194 26:-0.86129 27:-0.85 28:-0.947337 29:-0.677054 30:-0.945118 31:-0.30131 32:-0.961899 33:-0.436893 34:-1 35:-0.866667 36:-1 37:-0.703704 38:-0.882353 39:-0.544554 40:-0.755102 41:-0.882353 42:-0.604651 43:-1 44:-0.289582 45:-0.659193 
4492.521993183393 1:-0.936736 2:-0.682776 3:0.228916 4:0.228916 5:-0.957064 6:0.864554 7:-0.928478 8:-0.633333 9:-0.633333 10:-1 11:-0.928478 12:-1 13:-0.886644 14:-0.378314 15:-0.975874 16:-0.826872 17:-0.975874 18:-1 19:-1 20:-1 21:-0.5 22:0.616379 23:-0.73003 24:-0.727624 25:-0.164179 26:-0.141935 27:0.15 28:-0.795831 29:1 30:-0.797729 31:-0.20736 32:-0.916494 33:0.825243 34:-0.142857 35:-0.2 36:-0.142857 37:0.925926 38:-0.294118 39:0.128713 40:-0.278912 41:-0.176471 42:0.209302 43:-0.666667 44:0.176443 45:0.668161 
-8192 1:-0.899256 2:-0.603935 3:-0.710843 4:-0.710843 5:-0.927746 6:0.833006 7:-0.890356 8:-1 9:-1 10:-1 11:-0.890356 12:-1 13:-0.813733 14:-0.781775 15:-0.999497 16:-0.974647 17:-0.999497 18:-1 19:-1 20:-1 21:-0.3125 22:-0.633621 23:-0.96182 24:-0.947382 25:-0.850746 26:-0.890323 27:-0.8875 28:-0.981133 29:-0.822946 30:-0.972094 31:-0.338624 32:-0.971759 33:-0.747573 34:-1 35:-0.933333 36:-1 37:-0.703704 38:-1 39:-0.861386 40:-0.823129 41:-1 42:-0.790698 43:-1 44:-0.221995 45:-0.735426 
8192 1:-0.950848 2:-0.73638 3:-0.771084 4:-0.771084 5:-0.970578 6:0.89196 7:-0.942358 8:-0.866667 9:-0.866667 10:-1 11:-0.942358 12:-1 13:-0.704633 14:-0.796885 15:-0.999442 16:-0.964734 17:-0.999442 18:-1 19:-1 20:-1 21:-0.3125 22:-0.849138 23:-0.969556 24:-0.964921 25:-0.731343 26:-0.893548 27:-1 28:-0.983569 29:-0.728045 30:-0.975529 31:-0.360967 32:-0.976506 33:-0.825243 34:-1 35:-1 36:-1 37:-0.777778 38:-1 39:-0.821782 40:-0.836735 41:-1 42:-0.906977 43:-1 44:0.199556 45:-0.860987 
-8192 1:-0.90192 2:-0.715501 3:-0.891566 4:-0.891566 5:-0.933422 6:0.886976 7:-0.905717 8:-0.9 9:-0.9 10:-1 11:-0.905717 12:-1 13:-0.375905 14:-0.89092 15:-1 16:-1 17:-1 18:-1 19:-1 20:-1 21:-0.75 22:-0.943966 23:-0.990066 24:-0.99381 25:-1 26:-0.993548 27:-0.95 28:-0.98497 29:-0.96034 30:-0.991879 31:-0.195402 32:-0.976993 33:-0.961165 34:-1 35:-1 36:-1 37:-1 38:-1 39:-1 40:-0.959184 41:-1 42:-0.976744 43:-1 44:-0.0650246 45:-0.964126 
8192 1:-0.901255 2:-0.582808 3:-0.795181 4:-0.795181 5:-0.929175 6:0.824039 7:-0.89574 8:-0.866667 9:-0.866667 10:-1 11:-0.89574 12:-1 13:-0.49816 14:-0.859076 15:-0.99866 16:-0.856196 17:-0.99866 18:-1 19:-1 20:-1 21:-0.625 22:-0.918103 23:-0.98219 24:-0.980397 25:-0.910448 26:-0.970968 27:-1 28:-0.986081 29:-0.910765 30:-0.987311 31:-0.21875 32:-0.978698 33:-0.902913 34:-1 35:-0.866667 36:-1 37:-1 38:-1 39:-0.960396 40:-0.931973 41:-1 42:-1 43:-1 44:-0.0549107 45:-0.941704 
8192 1:-0.896662 2:-0.688956 3:-0.566265 4:-0.566265 5:-0.921543 6:0.854664 7:-0.899865 8:-0.866667 9:-0.866667 10:-1 11:-0.899865 12:-1 13:-0.716688 14:-0.664445 15:-0.994583 16:-0.866885 17:-0.994583 18:-1 19:-1 20:-1 21:-0.25 22:-0.741379 23:-0.921348 24:-0.902502 25:-0.701493 26:-0.864516 27:-0.8 28:-0.960968 29:-0.694051 30:-0.93782 31:-0.493088 32:-0.920755 33:-0.572816 34:-1 35:-0.933333 36:-1 37:-0.777778 38:-1 39:-0.544554 40:-0.714286 41:-0.882353 42:-0.883721 43:-1 44:0.0764977 45:-0.721973 
-8192 1:-0.894805 2:-0.654435 3:-0.987952 4:-0.987952 5:-0.930484 6:0.869129 7:-0.909976 8:-0.966667 9:-0.966667 10:-0.971821 11:-0.909976 12:-0.971821 13:-0.4873 14:-0.845333 15:-0.999665 16:-0.966503 17:-0.999665 18:-0.6 19:-0.971821 20:-1 21:-0.75 22:-0.926724 23:-0.980866 24:-0.985556 25:-0.940299 26:-0.964516 27:-0.9875 28:-0.97498 29:-0.922096 30:-0.985033 31:-0.464286 32:-0.966281 33:-0.961165 34:-1 35:-1 36:-1 37:-0.851852 38:-1 39:-0.920792 40:-0.945578 41:-1 42:-0.976744 43:-1 44:0.191837 45:-0.852018 
8192 1:-0.92299 2:-0.643374 3:-1 4:-1 5:-0.954252 6:0.871081 7:-0.923182 8:-1 9:-1 10:-1 11:-0.923182 12:-1 13:-0.769201 14:-0.93892 15:-1 16:-1 17:-1 18:-1 19:-1 20:-1 21:-0.9375 22:-0.99569 23:-0.995783 24:-0.994841 25:-1 26:-1 27:-0.95 28:-0.998789 29:-0.973088 30:-0.996887 31:-0.166667 32:-0.991966 33:-1 34:-1 35:-1 36:-1 37:-1 38:-1 39:-0.980198 40:-0.986395 41:-1 42:-0.976744 43:-1 44:0.0428571 45:-0.959641 
8192 1:-0.900614 2:-0.696443 3:-0.975904 4:-0.975904 5:-0.937514 6:0.893229 7:-0.916344 8:-1 9:-1 10:-1 11:-0.916344 12:-1 13:-0.738689 14:-0.935312 15:-1 16:-1 17:-1 18:-1 19:-1 20:-1 21:-0.8125 22:-0.987069 23:-0.995698 24:-0.994841 25:-0.910448 26:-0.974194 27:-0.9875 28:-0.991686 29:-0.983003 30:-0.996589 31:-0.487179 32:-0.993183 33:-0.961165 34:-1 35:-1 36:-1 37:-1 38:-0.882353 39:-0.980198 40:-0.945578 41:-0.882353 42:-0.976744 43:-1 44:-0.197802 45:-0.959641 
-8192 1:-0.878501 2:-0.700323 3:-0.927711 4:-0.927711 5:-0.906395 6:0.85191 7:-0.876808 8:-0.933333 9:-0.933333 10:-1 11:-0.876808 12:-1 13:-0.863603 14:-0.789417 15:-1 16:-1 17:-1 18:-1 19:-1 20:-1 21:-0.4375 22:-0.909483 23:-0.969348 24:-0.972659 25:-0.910448 26:-0.893548 27:-0.975 28:-0.979226 29:-0.895184 30:-0.973859 31:-0.6 32:-0.926111 33:-0.92233 34:-1 35:-0.933333 36:-1 37:-0.555556 38:-1 39:-0.940594 40:-0.891156 41:-1 42:-0.976744 43:-1 44:0.529524 45:-0.860987 
8192 1:-0.923142 2:-0.714044 3:-0.963855 4:-0.963855 5:-0.953522 6:0.899286 7:-0.932675 8:-1 9:-1 10:-1 11:-0.932675 12:-1 13:-0.747394 14:-0.906072 15:-1 16:-1 17:-1 18:-1 19:-1 20:-1 21:-0.8125 22:-0.952586 23:-0.992075 24:-0.988651 25:-0.970149 26:-0.964516 27:-0.8875 28:-0.984173 29:-0.958924 30:-0.993703 31:-0.111111 32:-0.986853 33:-1 34:-1 35:-0.933333 36:-1 37:-1 38:-0.882353 39:-0.960396 40:-0.972789 41:-0.882353 42:-0.953488 43:-1 44:0.112381 45:-0.973094 
8192 1:-0.879295 2:-0.541003 3:-0.289157 4:-0.289157 5:-0.910198 6:0.800011 7:-0.890983 8:-0.833333 9:-0.833333 10:-1 11:-0.890983 12:-1 13:-0.704794 14:-0.699536 15:-0.99475 16:-0.861647 17:-0.99475 18:-1 19:-1 20:-1 21:-0.3125 22:-0.775862 23:-0.926684 24:-0.914883 25:-0.552239 26:-0.758065 27:-0.95 28:-0.960907 29:-0.711048 30:-0.949483 31:-0.333333 32:-0.95983 33:-0.436893 34:-1 35:-0.8 36:-0.714286 37:-0.851852 38:-1 39:-0.742574 40:-0.85034 41:-1 42:-0.953488 43:-1 44:0.119164 45:-0.654709 
8192 1:-0.923782 2:-0.697511 3:-1 4:-1 5:-0.961843 6:0.913635 7:-0.93688 8:-1 9:-1 10:-1 11:-0.93688 12:-1 13:-0.774878 14:-0.923663 15:-1 16:-1 17:-1 18:-1 19:-1 20:-1 21:-0.875 22:-0.982759 23:-0.994256 24:-0.99381 25:-0.910448 26:-0.983871 27:-1 28:-0.989288 29:-0.968839 30:-0.99554 31:-0.275362 32:-0.98941 33:-0.902913 34:-1 35:-1 36:-1 37:-0.851852 38:-1 39:-0.980198 40:-1 41:-1 42:-1 43:-1 44:-0.455901 45:-0.964126 
-8192 1:-0.91447 2:-0.736821 3:-1 4:-1 5:-0.947679 6:0.909728 7:-0.912028 8:-0.966667 9:-0.966667 10:-1 11:-0.912028 12:-1 13:-0.663177 14:-0.795103 15:-0.99933 16:-0.957353 17:-0.99933 18:-1 19:-1 20:-1 21:-0.625 22:-0.801724 23:-0.969792 24:-0.954088 25:-0.880597 26:-0.906452 27:-0.8375 28:-0.971933 29:-0.865439 30:-0.975135 31:-0.131944 32:-0.969446 33:-0.961165 34:-1 35:-0.933333 36:-1 37:-1 38:-1 39:-0.861386 40:-0.741497 41:-1 42:-0.953488 43:-1 44:-0.130952 45:-0.807175 
-8192 1:-0.921709 2:-0.620895 3:-0.987952 4:-0.987952 5:-0.96228 6:0.885131 7:-0.938491 8:-1 9:-1 10:-1 11:-0.938491 12:-1 13:-0.825063 14:-0.957537 15:-1 16:-1 17:-1 18:-1 19:-1 20:-1 21:-0.875 22:-0.99569 23:-0.997536 24:-0.998452 25:-0.970149 26:-0.993548 27:-1 28:-0.997013 29:-0.983003 30:-0.998223 31:-0.487179 32:-0.995496 33:-0.980583 34:-1 35:-1 36:-1 37:-1 38:-1 39:-0.980198 40:-0.972789 41:-1 42:-1 43:-1 44:-0.0373626 45:-0.977578 
-8192 1:-0.9081 2:-0.658635 3:-0.963855 4:-0.963855 5:-0.933103 6:0.85186 7:-0.898271 8:-0.966667 9:-0.966667 10:-1 11:-0.898271 12:-1 13:-0.792652 14:-0.929435 15:-0.999888 16:-0.959682 17:-0.999888 18:-1 19:-1 20:-1 21:-0.75 22:-0.978448 23:-0.994893 24:-0.993294 25:-1 26:-0.980645 27:-0.975 28:-0.992985 29:-0.975921 30:-0.996076 31:-0.62963 32:-0.989166 33:-1 34:-1 35:-1 36:-1 37:-1 38:-0.882353 39:-0.980198 40:-0.931973 41:-0.882353 42:-0.976744 43:-1 44:-0.188889 45:-0.96861 
-8192 1:-0.933186 2:-0.78325 3:-1 4:-1 5:-0.956405 6:0.914932 7:-0.927414 8:-0.866667 9:-0.866667 10:-1 11:-0.927414 12:-1 13:-0.753501 14:-0.716119 15:-0.997599 16:-0.911489 17:-0.997599 18:-1 19:-1 20:-1 21:-0.75 22:-0.836207 23:-0.947651 24:-0.934485 25:-0.791045 26:-0.854839 27:-0.8625 28:-0.922071 29:-0.720963 30:-0.954575 31:-0.208754 32:-0.961534 33:-0.61165 34:-1 35:-0.933333 36:-1 37:-0.925926 38:-1 39:-0.861386 40:-0.85034 41:-1 42:-0.883721 43:-1 44:-0.115152 45:-0.713004 
8192 1:-0.886316 2:-0.631602 3:-0.433735 4:-0.433735 5:-0.920033 6:0.848291 7:-0.886631 8:-0.666667 9:-0.666667 10:-1 11:-0.886631 12:-1 13:-0.684989 14:-0.627343 15:-0.989668 16:-0.802681 17:-0.989668 18:-1 19:-1 20:-1 21:-0.1875 22:-0.232759 23:-0.898727 24:-0.842662 25:-0.373134 26:-0.7 27:-0.6625 28:-0.953886 29:-0.621813 30:-0.924177 31:-0.365672 32:-0.948387 33:-0.825243 34:-1 35:-0.933333 36:-0.714286 37:-0.481481 38:-1 39:-0.940594 40:-0.782313 41:-1 42:-0.883721 43:-1 44:-0.143923 45:-0.2287 
-8192 1:-0.907392 2:-0.715005 3:-0.433735 4:-0.433735 5:-0.937281 6:0.886771 7:-0.909509 8:-0.7 9:-0.7 10:-1 11:-0.909509 12:-1 13:-0.858134 14:-0.709021 15:-0.991846 16:-0.731503 17:-0.991846 18:-1 19:-1 20:-1 21:-0.5 22:-0.646552 23:-0.941375 24:-0.921073 25:-0.61194 26:-0.73871 27:-0.875 28:-0.956356 29:-0.750708 30:-0.952429 31:-0.585687 32:-0.956178 33:-0.359223 34:-1 35:-0.733333 36:-0.428571 37:-0.62963 38:-0.882353 39:-0.782178 40:-0.836735 41:-0.882353 42:-0.651163 43:-1 44:-0.151574 45:-0.730942 
8192 1:-0.953021 2:-0.802944 3:-1 4:-1 5:-0.930698 6:0.812082 7:-0.942786 8:-1 9:-1 10:-1 11:-0.942786 12:-1 13:-0.214281 14:-0.988774 15:-1 16:-1 17:-1 18:-1 19:-1 20:-1 21:-0.9375 22:-1 23:-0.999657 24:-0.999484 25:-1 26:-1 27:-1 28:-0.998967 29:-0.997167 30:-0.999702 31:0.111111 32:-0.998174 33:-1 34:-1 35:-1 36:-1 37:-1 38:-1 39:-1 40:-1 41:-1 42:-1 43:-1 44:-0.304762 45:-1 
8192 1:-0.887548 2:-0.652422 3:-0.975904 4:-0.975904 5:-0.914579 6:0.839153 7:-0.885741 8:-0.933333 9:-0.933333 10:-1 11:-0.885741 12:-1 13:-0.809509 14:-0.90162 15:-0.999106 16:-0.811431 17:-0.999106 18:-1 19:-1 20:-1 21:-0.625 22:-0.969828 23:-0.991076 24:-0.989167 25:-0.940299 26:-0.970968 27:-0.9625 28:-0.992913 29:-0.967422 30:-0.99319 31:-0.166667 32:-0.979184 33:-0.961165 34:-1 35:-1 36:-1 37:-1 38:-1 39:-1 40:-0.972789 41:-1 42:-0.976744 43:-1 44:0.0428571 45:-0.973094 
8192 1:-0.908037 2:-0.663302 3:-0.819277 4:-0.819277 5:-0.938213 6:0.867692 7:-0.907557 8:-0.966667 9:-0.966667 10:-1 11:-0.907557 12:-1 13:-0.79869 14:-0.801821 15:-0.996928 16:-0.806789 17:-0.996928 18:-1 19:-1 20:-1 21:-0.625 22:-0.862069 23:-0.969436 24:-0.955636 25:-0.850746 26:-0.912903 27:-0.6625 28:-0.970738 29:-0.858357 30:-0.976602 31:-0.438944 32:-0.974194 33:-0.980583 34:-1 35:-0.933333 36:-0.714286 37:-0.851852 38:-0.882353 39:-0.940594 40:-0.891156 41:-0.882353 42:-0.906977 43:-1 44:-0.194625 45:-0.852018 
8192 1:-0.888161 2:-0.615974 3:-0.566265 4:-0.566265 5:-0.933685 6:0.87568 7:-0.8966 8:-0.466667 9:-0.466667 10:-1 11:-0.8966 12:-1 13:-0.739244 14:-0.662201 15:-0.997766 16:-0.949115 17:-0.997766 18:-1 19:-1 20:-1 21:-0.5 22:-0.75 23:-0.915132 24:-0.894248 25:-0.402985 26:-0.890323 27:-0.8625 28:-0.939691 29:-0.667139 30:-0.937033 31:-0.392655 32:-0.955447 33:-0.0679612 34:-1 35:-1 36:-1 37:-0.851852 38:-1 39:-0.683168 40:-0.605442 41:-0.882353 42:-0.674419 43:-1 44:-0.195763 45:-0.363229 
8192 1:-0.915967 2:-0.687053 3:-0.506024 4:-0.506024 5:-0.948284 6:0.888639 7:-0.91902 8:-0.833333 9:-0.833333 10:-1 11:-0.91902 12:-1 13:-0.725996 14:-0.609512 15:-0.995365 16:-0.915883 17:-0.995365 18:-1 19:-1 20:-1 21:-0.25 22:-0.435345 23:-0.893404 24:-0.87155 25:-0.402985 26:-0.680645 27:-0.2125 28:-0.946507 29:-0.474504 30:-0.917141 31:-0.390681 32:-0.945709 33:-0.398058 34:-0.714286 35:-0.8 36:-0.714286 37:-0.555556 38:-0.294118 39:-0.683168 40:-0.537415 41:-0.294118 42:-0.651163 43:-0.333333 44:-0.0412442 45:-0.26009 
-8192 1:-0.900421 2:-0.658701 3:-0.927711 4:-0.927711 5:-0.928487 6:0.854528 7:-0.891607 8:-0.966667 9:-0.966667 10:-1 11:-0.891607 12:-1 13:-0.798685 14:-0.792854 15:-0.999721 16:-0.98369 17:-0.999721 18:-1 19:-1 20:-1 21:-0.75 22:-0.836207 23:-0.967065 24:-0.960794 25:-0.970149 26:-0.922581 27:-0.7875 28:-0.952459 29:-0.859773 30:-0.974634 31:-0.4 32:-0.978941 33:-0.533981 34:-1 35:-1 36:-1 37:-0.703704 38:-0.882353 39:-0.881188 40:-0.863946 41:-0.882353 42:-0.860465 43:-1 44:-0.27 45:-0.623318 
-69.16134904044357 1:-0.898718 2:-0.592071 3:-0.807229 4:-0.807229 5:-0.922795 6:0.815855 7:-0.888565 8:-1 9:-1 10:-1 11:-0.888565 12:-1 13:-0.781604 14:-0.871149 15:-0.999832 16:-0.978767 17:-0.999832 18:-1 19:-1 20:-1 21:-0.625 22:-0.913793 23:-0.984963 24:-0.979881 25:-1 26:-0.96129 27:-0.9375 28:-0.985201 29:-0.929178 30:-0.98916 31:-0.150327 32:-0.982106 33:-0.980583 34:-0.714286 35:-0.933333 36:-1 37:-1 38:-1 39:-0.940594 40:-0.931973 41:-0.882353 42:-0.976744 43:-1 44:-0.10028 45:-0.946188 
-8192 1:-0.889047 2:-0.699165 3:-0.26506 4:-0.26506 5:-0.923255 6:0.877519 7:-0.894751 8:-0.733333 9:-0.733333 10:-1 11:-0.894751 12:-1 13:-0.593574 14:-0.644272 15:-0.998269 16:-0.960486 17:-0.998269 18:-1 19:-1 20:-1 21:-0.1875 22:-0.642241 23:-0.915301 24:-0.909724 25:-0.552239 26:-0.741935 27:-0.7375 28:-0.961647 29:-0.691218 30:-0.930569 31:-0.391172 32:-0.92185 33:-0.514563 34:-1 35:-0.866667 36:-0.428571 37:-0.703704 38:-1 39:-0.485149 40:-0.809524 41:-0.764706 42:-0.837209 43:-0.666667 44:0.12381 45:-0.556054 
-8192 1:-0.895866 2:-0.641035 3:-0.891566 4:-0.891566 5:-0.92722 6:0.853039 7:-0.89343 8:-0.8 9:-0.8 10:-1 11:-0.89343 12:-1 13:-0.719715 14:-0.723263 15:-0.999888 16:-0.996204 17:-0.999888 18:-1 19:-1 20:-1 21:-0.3125 22:-0.840517 23:-0.943206 24:-0.932938 25:-0.820896 26:-0.883871 27:-0.825 28:-0.969258 29:-0.763456 30:-0.956686 31:-0.325397 32:-0.958977 33:-0.572816 34:-0.714286 35:-0.866667 36:-1 37:-0.851852 38:-0.882353 39:-0.70297 40:-0.768707 41:-0.882353 42:-0.767442 43:-0.333333 44:-0.0688776 45:-0.699552 
8192 1:-0.911946 2:-0.774609 3:-0.963855 4:-0.963855 5:-0.937738 6:0.902211 7:-0.91126 8:-0.866667 9:-0.866667 10:-1 11:-0.91126 12:-1 13:-0.609089 14:-0.752015 15:-0.999106 16:-0.957004 17:-0.999106 18:-1 19:-1 20:-1 21:-0.75 22:-0.87931 23:-0.959964 24:-0.94893 25:-0.701493 26:-0.874194 27:-0.9375 28:-0.942538 29:-0.830028 30:-0.964676 31:-0.311295 32:-0.960803 33:-0.825243 34:-1 35:-0.866667 36:-1 37:-0.851852 38:-0.882353 39:-0.663366 40:-0.931973 41:-0.882353 42:-0.767442 43:-1 44:-0.138135 45:-0.735426 
8192 1:-0.885673 2:-0.543952 3:-0.421687 4:-0.421687 5:-0.923939 6:0.825736 7:-0.89915 8:-0.5 9:-0.5 10:-1 11:-0.89915 12:-1 13:-0.573989 14:-0.657519 15:-0.993913 16:-0.873844 17:-0.993913 18:-1 19:-1 20:-1 22:-0.806034 23:-0.906693 24:-0.894248 25:-0.761194 26:-0.819355 27:-0.9 28:-0.966076 29:-0.59915 30:-0.935375 31:-0.471831 32:-0.956908 33:-0.300971 34:-1 35:-0.933333 36:-1 37:-0.481481 38:-0.882353 39:-0.643564 40:-0.945578 41:-0.882353 42:-0.790698 43:-1 44:-0.148089 45:-0.587444 
-8192 1:-0.929121 2:-0.646354 3:-0.951807 4:-0.951807 5:-0.969906 6:0.900048 7:-0.961674 8:-1 9:-1 10:-1 11:-0.961674 12:-1 13:-0.80778 14:-0.935595 15:-1 16:-1 17:-1 18:-1 19:-1 20:-1 21:-0.9375 22:-0.974138 23:-0.995298 24:-0.995873 25:-0.940299 26:-0.983871 27:-0.975 28:-0.995318 29:-0.966006 30:-0.996613 31:-0.2 32:-0.991479 33:-0.92233 34:-1 35:-1 36:-1 37:-1 38:-1 39:-1 40:-0.959184 41:-1 42:-1 43:-1 44:0.00114286 45:-0.96861 
8192 1:-0.77383 2:-0.782964 3:-1 4:-1 5:-0.804852 6:0.794654 7:-0.781744 8:-1 9:-1 10:-1 11:-0.781744 12:-1 13:-0.600308 14:-0.955292 15:-1 16:-1 17:-1 18:-1 19:-1 20:-1 21:-0.9375 22:-0.99569 23:-0.997876 24:-0.998968 25:-1 26:-1 27:-1 28:-0.994818 29:-0.997167 30:-0.99808 31:0.111111 32:-0.993792 33:-1 34:-1 35:-1 36:-1 37:-1 38:-1 39:-1 40:-1 41:-1 42:-1 43:-1 44:0.390476 45:-1 
8192 1:-0.885041 2:-0.580324 3:-0.216867 4:-0.216867 5:-0.923274 6:0.839643 7:-0.883612 8:-0.866667 9:-0.866667 10:-1 11:-0.883612 12:-1 13:-0.640961 14:-0.679395 15:-0.99933 16:-0.983573 17:-0.99933 18:-1 19:-1 20:-1 21:0.0625 22:-0.534483 23:-0.921151 24:-0.911272 25:-0.940299 26:-0.8 27:-0.6875 28:-0.971604 29:-0.68272 30:-0.942936 31:-0.525926 32:-0.950091 33:-0.339806 34:-1 35:-0.933333 36:-1 37:-0.555556 38:-0.647059 39:-0.80198 40:-0.741497 41:-0.647059 42:-0.72093 43:-1 44:0.00114286 45:-0.623318 
-8192 1:-0.877914 2:-0.529745 3:-0.915663 4:-0.915663 5:-0.911517 6:0.80184 7:-0.870876 8:-0.966667 9:-0.966667 10:-1 11:-0.870876 12:-1 13:-0.661495 14:-0.878371 15:-0.999777 16:-0.969787 17:-0.999777 18:-1 19:-1 20:-1 21:-0.5625 22:-0.952586 23:-0.985927 24:-0.984524 25:-0.910448 26:-0.93871 27:-0.925 28:-0.98857 29:-0.943343 30:-0.990197 31:-0.512195 32:-0.983932 33:-0.980583 34:-1 35:-1 36:-1 37:-0.777778 38:-0.529412 39:-0.980198 40:-0.972789 41:-0.529412 42:-0.837209 43:-1 44:-0.236934 45:-0.923767 
-8192 1:-0.921251 2:-0.692366 3:-0.746988 4:-0.746988 5:-0.943916 6:0.868216 7:-0.916976 8:-0.733333 9:-0.733333 10:-1 11:-0.916976 12:-1 13:-0.917219 14:-0.642211 15:-0.990171 16:-0.789033 17:-0.990171 18:-1 19:-1 20:-1 21:-0.1875 22:-0.508621 23:-0.909916 24:-0.910756 25:-0.58209 26:-0.767742 27:-0.7875 28:-0.959775 29:-0.524079 30:-0.929806 31:-0.228487 32:-0.938405 33:-0.514563 34:-1 35:-0.733333 36:-0.714286 37:-0.777778 38:-0.764706 39:-0.465347 40:-0.85034 41:-0.882353 42:-0.674419 43:-1 44:0.0088173 45:-0.399103 
8192 1:-0.923056 2:-0.687457 3:-0.951807 4:-0.951807 5:-0.966068 6:0.922353 7:-0.93046 8:-0.966667 9:-0.966667 10:-1 11:-0.93046 12:-1 13:-0.6909 14:-0.855149 15:-0.999497 16:-0.942629 17:-0.999497 18:-1 19:-1 20:-1 21:-0.625 22:-0.935345 23:-0.983276 24:-0.985556 25:-0.910448 26:-0.970968 27:-0.95 28:-0.98593 29:-0.905099 30:-0.986679 31:-0.215686 32:-0.983445 33:-0.883495 34:-1 35:-1 36:-1 37:-1 38:-1 39:-0.960396 40:-0.891156 41:-1 42:-0.976744 43:-1 44:-0.294538 45:-0.90583 
-8192 1:-0.902382 2:-0.653495 3:-0.86747 4:-0.86747 5:-0.934022 6:0.863626 7:-0.900363 8:-0.966667 9:-0.966667 10:-1 11:-0.900363 12:-1 13:-0.811663 14:-0.722366 15:-0.999609 16:-0.986708 17:-0.999609 18:-1 19:-1 20:-1 21:-0.1875 22:-0.676724 23:-0.943232 24:-0.922105 25:-0.641791 26:-0.841935 27:-0.675 28:-0.974153 29:-0.749292 30:-0.956424 31:-0.250936 32:-0.960195 33:-0.262136 34:-1 35:-0.8 36:-1 37:-1 38:-1 39:-0.861386 40:-0.809524 41:-1 42:-0.72093 43:-1 44:-0.15634 45:-0.600897 
-8192 1:-0.899151 2:-0.602905 3:-0.566265 4:-0.566265 5:-0.942414 6:0.8725 7:-0.911397 8:-0.5 9:-0.5 10:-1 11:-0.911397 12:-1 13:-0.637463 14:-0.701396 15:-0.999609 16:-0.988964 17:-0.999609 18:-1 19:-1 20:-1 21:-0.0625 22:-0.844828 23:-0.931571 24:-0.920557 25:-0.880597 26:-0.86129 27:-0.7 28:-0.97476 29:-0.68272 30:-0.950067 31:-0.318519 32:-0.97042 33:-0.398058 34:-1 35:-0.866667 36:-1 37:-0.777778 38:-0.529412 39:-0.60396 40:-0.795918 41:-0.529412 42:-0.697674 43:-1 44:-0.202794 45:-0.565022 
8192 1:-0.901481 2:-0.740856 3:-0.831325 4:-0.831325 5:-0.933022 6:0.896376 7:-0.908235 8:-0.866667 9:-0.866667 10:-1 11:-0.908235 12:-1 13:-0.674548 14:-0.694878 15:-0.995309 16:-0.851751 17:-0.995309 18:-1 19:-1 20:-1 21:-0.375 22:-0.853448 23:-0.938901 24:-0.933454 25:-0.820896 26:-0.86129 27:-0.825 28:-0.965031 29:-0.759207 30:-0.948004 31:-0.707602 32:-0.945953 33:-0.883495 34:-1 35:-1 36:-1 37:-0.925926 38:-0.882353 39:-0.70297 40:-0.741497 41:-0.882353 42:-0.813953 43:-1 44:0.353885 45:-0.641256 
-8192 1:-0.897214 2:-0.671387 3:-0.638554 4:-0.638554 5:-0.928343 6:0.865262 7:-0.902298 8:-1 9:-1 10:-1 11:-0.902298 12:-1 13:-0.7012 14:-0.689111 15:-0.998827 16:-0.967151 17:-0.998827 18:-1 19:-1 20:-1 21:-0.25 22:-0.681034 23:-0.931031 24:-0.915914 25:-0.761194 26:-0.858065 27:-0.7625 28:-0.965148 29:-0.72238 30:-0.946144 31:-0.340102 32:-0.954474 33:-0.669903 34:-1 35:-0.533333 36:-1 37:-1 38:-0.764706 39:-0.623762 40:-0.714286 41:-0.764706 42:-0.651163 43:-1 44:0.079913 45:-0.690583 
-8192 1:-0.8981 2:-0.630791 3:-0.662651 4:-0.662651 5:-0.930858 6:0.854497 7:-0.899459 8:-0.366667 9:-0.366667 10:-1 11:-0.899459 12:-1 13:-0.774513 14:-0.611914 15:-0.988775 16:-0.801639 17:-0.988775 18:-1 19:-1 20:-1 21:0.0625 22:-0.599138 23:-0.890525 24:-0.854011 25:-0.552239 26:-0.777419 27:-0.7125 28:-0.961652 29:-0.526912 30:-0.918107 31:-0.273632 32:-0.948631 33:-0.359223 34:-1 35:-0.733333 36:-1 37:-0.62963 38:-0.882353 39:-0.643564 40:-0.809524 41:-0.764706 42:-0.860465 43:-1 44:-0.128358 45:-0.331839 
8192 1:-0.90793 2:-0.747824 3:-0.915663 4:-0.915663 5:-0.934088 6:0.889722 7:-0.913023 8:-1 9:-1 10:-1 11:-0.913023 12:-1 13:-0.577423 14:-0.873599 15:-0.99933 16:-0.898498 17:-0.99933 18:-1 19:-1 20:-1 21:-0.5625 22:-0.965517 23:-0.987461 24:-0.988651 25:-1 26:-0.980645 27:-0.9 28:-0.989474 29:-0.949008 30:-0.989517 31:-0.279279 32:-0.982593 33:-1 34:-1 35:-0.933333 36:-1 37:-1 38:-0.764706 39:-0.980198 40:-0.823129 41:-1 42:-1 43:-1 44:0.0146718 45:-0.928251 
-8192 1:-0.918791 2:-0.748271 3:-1 4:-1 5:-0.952069 6:0.917697 7:-0.918187 8:-0.866667 9:-0.866667 10:-1 11:-0.918187 12:-1 13:-0.682614 14:-0.774714 15:-1 16:-1 17:-1 18:-1 19:-1 20:-1 21:-0.75 22:-0.956897 23:-0.966422 24:-0.974207 25:-0.940299 26:-0.964516 27:-0.9625 28:-0.94898 29:-0.835694 30:-0.970413 31:-0.77208 32:-0.955691 33:-0.902913 34:-1 35:-0.933333 36:-0.428571 37:-0.62963 38:-1 39:-0.920792 40:-0.632653 41:-1 42:-0.883721 43:-1 44:0.283516 45:-0.573991 
-8192 1:-0.823178 2:-0.608228 3:-1 4:-1 5:-0.857037 6:0.785297 7:-0.830509 8:-1 9:-1 10:-1 11:-0.830509 12:-1 13:-0.823244 14:-0.934468 15:-1 16:-1 17:-1 18:-1 19:-1 20:-1 21:-1 22:-0.991379 23:-0.995313 24:-0.996389 25:-1 26:-0.993548 27:-1 28:-1 29:-0.990085 30:-0.996518 31:-0.583333 32:-0.974437 33:-0.980583 34:-1 35:-1 36:-1 37:-1 38:-1 39:-0.980198 40:-1 41:-1 42:-1 43:-1 44:0.564286 45:-0.986547 
-8192 1:-0.922449 2:-0.692022 3:-0.915663 4:-0.915663 5:-0.933725 6:0.838007 7:-0.911702 8:-1 9:-1 10:-1 11:-0.911702 12:-1 13:-0.718009 14:-0.947805 15:-1 16:-1 17:-1 18:-1 19:-1 20:-1 21:-0.875 22:-0.99569 23:-0.996879 24:-0.994841 25:-1 26:-0.996774 27:-1 28:-0.997288 29:-0.983003 30:-0.997567 31:-0.487179 32:-0.993427 33:-1 34:-1 35:-1 36:-1 37:-1 38:-1 39:-0.980198 40:-0.945578 41:-1 42:-1 43:-1 44:-0.197802 45:-0.96861 
-8192 1:-0.897339 2:-0.538023 3:0.349398 4:0.349398 5:-0.917961 6:0.782802 7:-0.892062 8:-0.8 9:-0.8 10:-1 11:-0.892062 12:-1 13:-0.744268 14:-0.564432 15:-0.996035 16:-0.948513 17:-0.996035 18:-1 19:-1 20:-1 21:-0.375 22:-0.405172 23:-0.850922 24:-0.82048 25:-0.462687 26:-0.748387 27:-0.7625 28:-0.910007 29:-0.212465 30:-0.897964 31:-0.257929 32:-0.949361 33:0.0873786 34:-1 35:-0.866667 36:-0.714286 37:-0.185185 38:-0.882353 39:-0.386139 40:-0.659864 41:-0.764706 42:-0.581395 43:-1 44:-0.026417 45:-0.515695 
-8192 1:-0.876061 2:-0.662626 3:-0.987952 4:-0.987952 5:-0.901705 6:0.829683 7:-0.876301 8:-1 9:-1 10:-1 11:-0.876301 12:-1 13:-0.63017 14:-0.952235 15:-1 16:-1 17:-1 18:-1 19:-1 20:-1 21:-0.9375 22:-1 23:-0.997253 24:-0.997421 25:-1 26:-1 27:-0.9875 28:-0.997498 29:-0.991501 30:-0.997877 31:-0.047619 32:-0.994035 33:-1 34:-1 35:-1 36:-1 37:-1 38:-1 39:-0.980198 40:-0.972789 41:-1 42:-1 43:-1 44:0.191837 45:-0.991031 
8192 1:-0.890742 2:-0.665373 3:-0.686747 4:-0.686747 5:-0.908949 6:0.822801 7:-0.885951 8:-0.766667 9:-0.766667 10:-1 11:-0.885951 12:-1 13:-0.844255 14:-0.67137 15:-0.991064 16:-0.778313 17:-0.991064 18:-1 19:-1 20:-1 21:-0.5625 22:-0.719828 23:-0.922101 24:-0.869487 25:-0.61194 26:-0.719355 27:-0.8375 28:-0.936657 29:-0.709632 30:-0.940217 31:-0.352751 32:-0.955691 33:-0.650485 34:-1 35:-0.8 36:-1 37:-0.333333 38:-1 39:-0.663366 40:-0.768707 41:-1 42:-0.813953 43:-1 44:-0.240638 45:-0.641256 
8192 1:-0.910182 2:-0.655383 3:-0.927711 4:-0.927711 5:-0.945664 6:0.880353 7:-0.913017 8:-0.9 9:-0.9 10:-1 11:-0.913017 12:-1 13:-0.822643 14:-0.687977 15:-0.996649 16:-0.910035 17:-0.996649 18:-1 19:-1 20:-1 21:-0.5625 22:-0.586207 23:-0.928037 24:-0.927263 25:-0.731343 26:-0.819355 27:-0.6375 28:-0.940054 29:-0.652975 30:-0.945774 31:-0.268293 32:-0.959586 33:-0.631068 34:-1 35:-0.866667 36:-0.714286 37:-0.777778 38:-0.764706 39:-0.524752 40:-0.70068 41:-0.647059 42:-0.674419 43:-1 44:-0.126713 45:-0.542601 
-8192 1:-0.894134 2:-0.58531 3:-0.445783 4:-0.445783 5:-0.935162 6:0.855841 7:-0.906087 8:-0.8 9:-0.8 10:-1 11:-0.906087 12:-1 13:-0.82752 14:-0.737704 15:-0.999051 16:-0.966178 17:-0.999051 18:-1 19:-1 20:-1 21:-0.125 22:-0.737069 23:-0.945831 24:-0.934485 25:-0.58209 26:-0.9 27:-0.8875 28:-0.979404 29:-0.756374 30:-0.9608 31:-0.325626 32:-0.961899 33:-0.631068 34:-1 35:-0.933333 36:-1 37:-0.851852 38:-0.882353 39:-0.861386 40:-0.863946 41:-0.882353 42:-0.813953 43:-1 44:-0.0837325 45:-0.784753 
-8192 1:-0.896252 2:-0.730167 3:-0.674699 4:-0.674699 5:-0.934601 6:0.906424 7:-0.90739 8:-0.833333 9:-0.833333 10:-1 11:-0.90739 12:-1 13:-0.6189 14:-0.610074 15:-0.993745 16:-0.876913 17:-0.993745 18:-1 19:-1 20:-1 21:-0.5 22:-0.676724 23:-0.901721 24:-0.887026 25:-0.671642 26:-0.803226 27:-0.675 28:-0.925827 29:-0.628895 30:-0.917367 31:-0.518378 32:-0.940231 33:-0.359223 34:-1 35:-0.866667 36:-1 37:-0.851852 38:-1 39:-0.405941 40:-0.959184 41:-1 42:-0.72093 43:-1 44:0.0626833 45:-0.569507 
8192 1:-0.952893 2:-0.739 3:-0.831325 4:-0.831325 5:-0.965176 6:0.872614 7:-0.937067 8:-0.833333 9:-0.833333 10:-1 11:-0.937067 12:-1 13:-0.707208 14:-0.796181 15:-0.99704 16:-0.819471 17:-0.99704 18:-1 19:-1 20:-1 21:-0.4375 22:-0.849138 23:-0.96847 24:-0.964921 25:-0.910448 26:-0.958065 27:-0.9625 28:-0.978725 29:-0.708215 30:-0.975374 31:-0.468599 32:-0.979306 33:-0.631068 34:-1 35:-1 36:-1 37:-1 38:-1 39:-0.960396 40:-0.768707 41:-1 42:-0.883721 43:-1 44:-0.33499 45:-0.762332 
-8192 1:-0.922128 2:-0.735073 3:-0.771084 4:-0.771084 5:-0.945519 6:0.888176 7:-0.926422 8:-0.866667 9:-0.866667 10:-1 11:-0.926422 12:-1 13:-0.630436 14:-0.729121 15:-0.994471 16:-0.792503 17:-0.994471 18:-1 19:-1 20:-1 21:-0.4375 22:-0.818966 23:-0.948594 24:-0.944803 25:-0.761194 26:-0.851613 27:-0.8625 28:-0.965711 29:-0.749292 30:-0.95838 31:-0.531835 32:-0.966768 33:-0.708738 34:-1 35:-0.8 36:0.142857 37:-0.62963 38:-1 39:-0.821782 40:-0.972789 41:-1 42:-0.883721 43:-1 44:-0.238363 45:-0.58296 
-8192 1:-0.926484 2:-0.629773 3:-0.975904 4:-0.975904 5:-0.957279 6:0.864043 7:-0.939777 8:-1 9:-1 10:-1 11:-0.939777 12:-1 13:-0.723936 14:-0.941772 15:-1 16:-1 17:-1 18:-1 19:-1 20:-1 21:-0.9375 22:-0.99569 23:-0.995942 24:-0.996905 25:-0.970149 26:-0.977419 27:-0.9875 28:-0.998386 29:-0.970255 30:-0.997114 31:-0.393939 32:-0.991357 33:-0.980583 34:-1 35:-1 36:-0.714286 37:-0.925926 38:-1 39:-1 40:-0.986395 41:-1 42:-1 43:-1 44:-0.146753 45:-0.995516 
-8192 1:-0.915337 2:-0.683574 3:-0.879518 4:-0.879518 5:-0.942964 6:0.874097 7:-0.914265 8:-0.833333 9:-0.833333 10:-1 11:-0.914265 12:-1 13:-0.736874 14:-0.739081 15:-0.997431 16:-0.900754 17:-0.997431 18:-1 19:-1 20:-1 21:-0.4375 22:-0.892241 23:-0.950069 24:-0.936033 25:-0.791045 26:-0.867742 27:-0.85 28:-0.967948 29:-0.753541 30:-0.961182 31:-0.333333 32:-0.963116 33:-0.825243 34:-1 35:-0.866667 36:-1 37:-0.851852 38:-1 39:-0.623762 40:-0.659864 41:-1 42:-0.906977 43:-1 44:-0.0822857 45:-0.690583 
-1684.383371417804 1:-0.854805 2:-0.516382 3:-1 4:-1 5:-0.841183 6:0.650599 7:-0.8489 8:-0.966667 9:-0.966667 10:-1 11:-0.8489 12:-1 13:-0.552002 14:-0.985921 15:-1 16:-1 17:-1 18:-1 19:-1 20:-1 21:-1 22:-1 23:-0.999377 24:-1 25:-1 26:-1 27:-1 28:-1 29:-0.998584 30:-0.999606 31:0.666667 32:-0.998539 33:-1 34:-1 35:-1 36:-1 37:-1 38:-1 39:-1 40:-1 41:-1 42:-1 43:-1 44:0.0428571 45:-1 
8192 1:-0.912949 2:-0.679741 3:-0.86747 4:-0.86747 5:-0.945853 6:0.885168 7:-0.912319 8:-0.166667 9:-0.166667 10:-1 11:-0.912319 12:-1 13:-0.724537 14:-0.524984 15:-0.994695 16:-0.93367 17:-0.994695 18:-1 19:-1 20:-1 21:-0.1875 22:-0.659483 23:-0.845155 24:-0.820996 25:-0.671642 26:-0.725806 27:0.1875 28:-0.927562 29:-0.253541 30:-0.879551 31:-0.387626 32:-0.93804 33:0.417476 34:-0.714286 35:-0.933333 36:-0.428571 37:-0.481481 38:-0.764706 39:0.70297 40:-0.346939 41:-0.529412 42:-0.534884 43:-0.666667 44:-0.130952 45:0.363229 
8192 1:-0.811448 2:-0.316487 3:-0.86747 4:-0.86747 5:-0.870774 6:0.736522 7:-0.844805 8:-1 9:-1 10:-1 11:-0.844805 12:-1 13:-0.822951 14:-0.936736 15:-1 16:-1 17:-1 18:-1 19:-1 20:-1 21:-0.6875 22:-0.991379 23:-0.994423 24:-0.991746 25:-1 26:-0.993548 27:-1 28:-0.99371 29:-0.985836 30:-0.996709 31:-0.0909091 32:-0.992209 33:-0.980583 34:-1 35:-1 36:-1 37:-0.925926 38:-1 39:-1 40:-1 41:-1 42:-1 43:-1 44:-0.241558 45:-0.96861 
8192 1:-0.899507 2:-0.632641 3:-0.819277 4:-0.819277 5:-0.925753 6:0.838641 7:-0.893076 8:-0.933333 9:-0.933333 10:-1 11:-0.893076 12:-1 13:-0.665517 14:-0.82525 15:-1 16:-1 17:-1 18:-1 19:-1 20:-1 21:-0.5 22:-0.905172 23:-0.97505 24:-0.965953 25:-0.791045 26:-0.941935 27:-0.9 28:-0.981654 29:-0.890935 30:-0.981372 31:-0.358974 32:-0.978089 33:-0.84466 34:-1 35:-1 36:-1 37:-0.925926 38:-1 39:-0.861386 40:-0.904762 41:-1 42:-0.953488 43:-1 44:-0.171062 45:-0.829596 
-8192 1:-0.923061 2:-0.681273 3:-0.26506 4:-0.26506 5:-0.9548 6:0.889214 7:-0.933663 8:-0.9 9:-0.9 10:-1 11:-0.933663 12:-1 13:-0.759603 14:-0.656917 15:-0.990227 16:-0.77456 17:-0.990227 18:-1 19:-1 20:-1 21:-0.4375 22:-0.685345 23:-0.916197 24:-0.91643 25:-0.820896 26:-0.754839 27:-0.8125 28:-0.9462 29:-0.528329 30:-0.93516 31:-0.351297 32:-0.957517 33:-0.728155 34:-0.714286 35:-0.8 36:-1 37:-0.703704 38:-1 39:-0.762376 40:-0.619048 41:-1 42:-0.790698 43:-1 44:-0.10077 45:-0.654709 
-8192 1:-0.883549 2:-0.548701 3:0.493976 4:0.493976 5:-0.913596 6:0.803877 7:-0.888148 8:-0.366667 9:-0.366667 10:-1 11:-0.888148 12:-1 13:-0.651648 14:-0.607271 15:-0.989836 16:-0.836252 17:-0.989836 18:-1 19:-1 20:-1 21:-0.375 22:-0.62069 23:-0.879894 24:-0.843694 25:-0.671642 26:-0.770968 27:-0.85 28:-0.929457 29:-0.502833 30:-0.916234 31:-0.431818 32:-0.955082 33:-0.320388 34:-1 35:-1 36:-1 37:-0.407407 38:-0.882353 39:-0.465347 40:-0.809524 41:-0.882353 42:-0.511628 43:-1 44:-0.0934253 45:-0.55157 
8192 1:-0.903846 2:-0.62453 3:-0.831325 4:-0.831325 5:-0.927388 6:0.83114 7:-0.88835 8:-0.733333 9:-0.733333 10:-1 11:-0.88835 12:-1 13:-0.678774 14:-0.794244 15:-0.99838 16:-0.907448 17:-0.99838 18:-1 19:-1 20:-1 21:-0.5 22:-0.689655 23:-0.966331 24:-0.963374 25:-0.910448 26:-0.945161 27:-0.9 28:-0.976514 29:-0.839943 30:-0.974944 31:-0.415205 32:-0.973341 33:-0.84466 34:-1 35:-0.866667 36:-1 37:-0.851852 38:-1 39:-0.920792 40:-0.863946 41:-1 42:-0.953488 43:-1 44:-0.341353 45:-0.798206 
8192 1:-0.863544 2:-0.566945 3:-0.53012 4:-0.53012 5:-0.8962 6:0.802208 7:-0.855952 8:-0.866667 9:-0.866667 10:-1 11:-0.855952 12:-1 13:-0.861762 14:-0.581682 15:-0.996984 16:-0.95563 17:-0.996984 18:-1 19:-1 20:-1 21:-0.5 22:0.780172 23:-0.868459 24:-0.828218 25:0.0746269 26:-0.496774 27:-0.6875 28:-0.902276 29:-0.575071 30:-0.905537 31:-0.291251 32:-0.932075 33:-0.533981 34:-1 35:-0.333333 36:-0.714286 37:-0.555556 38:-0.882353 39:-0.70297 40:-0.673469 41:-0.882353 42:-0.511628 43:-1 44:-0.13384 45:0.107623 
-8192 1:-0.887283 2:-0.659856 3:0.204819 4:0.204819 5:-0.916702 6:0.848228 7:-0.878726 8:-0.666667 9:-0.666667 10:-1 11:-0.878726 12:-1 13:-0.711692 14:-0.610341 15:-0.997822 16:-0.960248 17:-0.997822 18:-1 19:-1 20:-1 21:-0.0625 22:-0.387931 23:-0.894014 24:-0.858138 25:-0.432836 26:-0.664516 27:-0.6 28:-0.958653 29:-0.609065 30:-0.917475 31:-0.338147 32:-0.943883 33:-0.495146 34:-1 35:-0.666667 36:-0.714286 37:-0.333333 38:-0.882353 39:-0.722772 40:-0.70068 41:-0.882353 42:-0.837209 43:-1 44:0.0616813 45:-0.430493 
8192 1:-0.889669 2:-0.624862 3:-0.987952 4:-0.987952 5:-0.916211 6:0.828926 7:-0.874372 8:-1 9:-1 10:-1 11:-0.874372 12:-1 13:-0.709043 14:-0.924916 15:-1 16:-1 17:-1 18:-1 19:-1 20:-1 21:-0.75 22:-1 23:-0.994249 24:-0.994326 25:-0.970149 26:-0.996774 27:-0.9875 28:-0.991423 29:-0.977337 30:-0.995659 31:-0.607843 32:-0.985149 33:-0.980583 34:-1 35:-1 36:-1 37:-1 38:-1 39:-0.90099 40:-0.986395 41:-1 42:-0.930233 43:-1 44:0.226891 45:-0.941704 
8192 1:-0.90877 2:-0.614812 3:-0.939759 4:-0.939759 5:-0.935733 6:0.839537 7:-0.914 8:-0.9 9:-0.9 10:-1 11:-0.914 12:-1 13:-0.498383 14:-0.858104 15:-1 16:-1 17:-1 18:-1 19:-1 20:-1 21:-0.8125 22:-0.952586 23:-0.982341 24:-0.980913 25:-0.910448 26:-0.93871 27:-0.9625 28:-0.97517 29:-0.907932 30:-0.987156 31:-0.393939 32:-0.980523 33:-0.92233 34:-1 35:-0.933333 36:-1 37:-0.851852 38:-1 39:-0.960396 40:-0.959184 41:-1 42:-0.906977 43:-1 44:-0.0203463 45:-0.928251 
-8192 1:-0.873559 2:-0.606156 3:-0.746988 4:-0.746988 5:-0.900187 6:0.809017 7:-0.874203 8:-0.6 9:-0.6 10:-1 11:-0.874203 12:-1 13:-0.779921 14:-0.697387 15:-0.997766 16:-0.936936 17:-0.997766 18:-1 19:-1 20:-1 21:-0.375 22:-0.784483 23:-0.931573 24:-0.924168 25:-0.761194 26:-0.906452 27:-0.85 28:-0.959077 29:-0.764873 30:-0.948803 31:-0.381238 32:-0.946926 33:-0.61165 34:-1 35:-1 36:-0.714286 37:-0.777778 38:-1 39:-0.90099 40:-0.891156 41:-1 42:-0.837209 43:-1 44:0.111548 45:-0.775785 
-2070.900774082362 1:-0.915409 2:-0.81716 3:-0.963855 4:-0.963855 5:-0.956015 6:0.961303 7:-0.914406 8:-0.866667 9:-0.866667 10:-1 11:-0.914406 12:-1 13:-0.576324 14:-0.72062 15:-0.997152 16:-0.882827 17:-0.997152 18:-1 19:-1 20:-1 21:-0.5625 22:-0.866379 23:-0.953127 24:-0.955636 25:-0.641791 26:-0.577419 27:-0.7375 28:-0.962206 29:-0.798867 30:-0.955911 31:-0.79021 32:-0.874741 33:-0.262136 34:-1 35:-1 36:-1 37:-0.777778 38:-1 39:-0.841584 40:-0.795918 41:-0.882353 42:-0.883721 43:-1 44:0.4002 45:-0.668161 
-8192 1:-0.895003 2:-0.732481 3:-0.674699 4:-0.674699 5:-0.917916 6:0.864474 7:-0.898018 8:-0.8 9:-0.8 10:-1 11:-0.898018 12:-1 13:-0.6584 14:-0.690875 15:-0.998213 16:-0.945698 17:-0.998213 18:-1 19:-1 20:-1 21:-0.375 22:-0.788793 23:-0.936445 24:-0.952025 25:-0.850746 26:-0.874194 27:-0.7875 28:-0.962473 29:-0.764873 30:-0.946716 31:-0.481038 32:-0.935119 33:-0.68932 34:-1 35:-1 36:-1 37:-0.703704 38:-1 39:-0.564356 40:-0.904762 41:-1 42:-0.674419 43:-0.666667 44:-0.000855432 45:-0.672646 
-8192 1:-0.910378 2:-0.701469 3:-0.626506 4:-0.626506 5:-0.943171 6:0.891644 7:-0.914562 8:-0.766667 9:-0.766667 10:-1 11:-0.914562 12:-1 13:-0.824222 14:-0.547631 15:-0.993019 16:-0.901944 17:-0.993019 18:-1 19:-1 20:-1 21:-0.375 22:-0.275862 23:-0.862207 24:-0.814805 25:-0.492537 26:-0.609677 27:-0.2 28:-0.916561 29:-0.382436 30:-0.890308 31:-0.328757 32:-0.947657 33:-0.417476 34:-0.714286 35:-0.866667 36:-0.428571 37:-0.703704 38:-0.529412 39:-0.445545 40:-0.387755 41:-0.294118 42:-0.348837 43:-1 44:-0.188624 45:-0.0627803 
8192 1:-0.880103 2:-0.669814 3:-0.987952 4:-0.987952 5:-0.901391 6:0.824007 7:-0.880255 8:-0.966667 9:-0.966667 10:-1 11:-0.880255 12:-1 13:-0.697876 14:-0.778845 15:-0.996202 16:-0.801677 17:-0.996202 18:-1 19:-1 20:-1 21:-0.375 22:-0.797414 23:-0.963132 24:-0.960279 25:-0.820896 26:-0.896774 27:-0.8625 28:-0.978715 29:-0.876771 30:-0.971402 31:-0.469697 32:-0.95423 33:-0.883495 34:-1 35:-1 36:-1 37:-1 38:-0.882353 39:-0.960396 40:-0.986395 41:-0.882353 42:-0.906977 43:-1 44:0.161364 45:-0.686099 
8192 1:-0.899395 2:-0.562667 3:0.156627 4:0.156627 5:-0.939395 6:0.847069 7:-0.914565 8:-0.7 9:-0.7 10:-1 11:-0.914565 12:-1 13:-0.525004 14:-0.640065 15:-1 16:-1 17:-1 18:-1 19:-1 20:-1 21:-0.4375 22:-0.543103 23:-0.897917 24:-0.877225 25:-0.731343 26:-0.748387 27:-0.5125 28:-0.939303 29:-0.481586 30:-0.929007 31:-0.436876 32:-0.921363 33:-0.572816 34:-1 35:-0.8 36:-1 37:-0.407407 38:-0.647059 39:-0.782178 40:-0.659864 41:-0.764706 42:-0.651163 43:-1 44:0.176411 45:-0.466368 
8192 1:-0.892431 2:-0.638173 3:-0.915663 4:-0.915663 5:-0.925089 6:0.852797 7:-0.895349 8:-0.933333 9:-0.933333 10:-1 11:-0.895349 12:-1 13:-0.711964 14:-0.826996 15:-1 16:-1 17:-1 18:-1 19:-1 20:-1 21:-0.4375 22:-0.961207 23:-0.975956 24:-0.958731 25:-1 26:-0.974194 27:-0.9875 28:-0.986828 29:-0.903683 30:-0.981706 31:-0.227053 32:-0.973463 33:-0.76699 34:-1 35:-1 36:-1 37:-0.851852 38:-1 39:-0.960396 40:-0.986395 41:-1 42:-1 43:-1 44:-0.123395 45:-0.928251 
8192 1:-0.868992 2:-0.651776 3:-0.795181 4:-0.795181 5:-0.901891 6:0.839234 7:-0.876222 8:-0.933333 9:-0.933333 10:-1 11:-0.876222 12:-1 13:-0.477831 14:-0.830344 15:-0.999106 16:-0.925186 17:-0.999106 18:-1 19:-1 20:-1 21:-0.6875 22:-0.974138 23:-0.977104 24:-0.95512 25:-0.970149 26:-0.925806 27:-0.925 28:-0.974679 29:-0.929178 30:-0.982338 31:-0.477124 32:-0.977115 33:-0.864078 34:-1 35:-1 36:-1 37:-0.703704 38:-1 39:-0.881188 40:-0.945578 41:-1 42:-0.953488 43:-1 44:-0.141176 45:-0.919283 
8192 1:-0.906396 2:-0.649994 3:-0.156627 4:-0.156627 5:-0.945392 6:0.88505 7:-0.913981 8:-0.933333 9:-0.933333 10:-1 11:-0.913981 12:-1 13:-0.805489 14:-0.62855 15:-0.999274 16:-0.985836 17:-0.999274 18:-1 19:-1 20:-1 21:-0.25 22:-0.633621 23:-0.900864 24:-0.884447 25:-0.522388 26:-0.793548 27:-0.7375 28:-0.950185 29:-0.536827 30:-0.924642 31:-0.349593 32:-0.949604 33:-0.0679612 34:-0.714286 35:-0.866667 36:-0.142857 37:-0.407407 38:-0.882353 39:-0.108911 40:-0.782313 41:-0.882353 42:-0.488372 43:-1 44:-0.0843206 45:-0.215247 
-8192 1:-0.684016 2:-0.670229 3:-1 4:-1 5:-0.687177 6:0.594531 7:-0.697703 8:-0.966667 9:-0.966667 10:-1 11:-0.697703 12:-1 13:0.121321 14:-0.73822 15:-1 16:-1 17:-1 18:-1 19:-1 20:-1 21:-1 22:-0.978448 23:-0.954568 24:-0.984008 25:-1 26:-0.983871 27:-0.95 28:-1 29:-0.94051 30:-0.960944 31:-0.224806 32:-0.92112 33:-1 34:-0.714286 35:-1 36:-1 37:-1 38:-1 39:-0.980198 40:-1 41:-1 42:-0.976744 43:-1 44:0.503654 45:-0.928251 
-8192 1:-0.925446 2:-0.648256 3:-0.144578 4:-0.144578 5:-0.948723 6:0.852685 7:-0.920656 8:-0.766667 9:-0.766667 10:-1 11:-0.920656 12:-1 13:-0.696532 14:-0.634391 15:-0.994192 16:-0.886354 17:-0.994192 18:-1 19:-1 20:-1 21:-0.375 22:-0.525862 23:-0.901158 24:-0.872582 25:-0.492537 26:-0.741935 27:-0.9375 28:-0.942271 29:-0.356941 30:-0.926872 31:-0.333333 32:-0.957395 33:-0.0873786 34:-0.714286 35:-0.933333 36:-1 37:-0.481481 38:-0.882353 39:-0.544554 40:-0.863946 41:-1 42:-0.744186 43:-0.666667 44:0.0222292 45:-0.55157 
8192 1:-0.816283 2:-0.702491 3:-0.819277 4:-0.819277 5:-0.845424 6:0.800272 7:-0.833214 8:-0.833333 9:-0.833333 10:-1 11:-0.833214 12:-1 13:-0.234793 14:-0.851957 15:-0.999721 16:-0.966184 17:-0.999721 18:-1 19:-1 20:-1 21:-0.6875 22:-0.969828 23:-0.984252 24:-0.992778 25:-0.970149 26:-0.980645 27:-0.925 28:-0.981944 29:-0.964589 30:-0.986154 31:-0.615385 32:-0.938771 33:-0.902913 34:-1 35:-1 36:-1 37:-0.925926 38:-1 39:-1 40:-1 41:-1 42:-1 43:-1 44:0.845055 45:-0.959641 
8192 1:-0.901878 2:-0.703704 3:-0.939759 4:-0.939759 5:-0.931796 6:0.878132 7:-0.901599 8:-0.833333 9:-0.833333 10:-1 11:-0.901599 12:-1 13:-0.736066 14:-0.824136 15:-0.998548 16:-0.881767 17:-0.998548 18:-1 19:-1 20:-1 21:-0.625 22:-0.905172 23:-0.976449 24:-0.980913 25:-0.850746 26:-0.93871 27:-0.8625 28:-0.977971 29:-0.905099 30:-0.981158 31:-0.215686 32:-0.978941 33:-0.883495 34:-1 35:-1 36:-1 37:-0.851852 38:-1 39:-0.920792 40:-0.972789 41:-1 42:-0.953488 43:-1 44:-0.263866 45:-0.878924 
-8192 1:-0.897669 2:-0.548168 3:-0.939759 4:-0.939759 5:-0.952131 6:0.878991 7:-0.915245 8:-1 9:-1 10:-1 11:-0.915245 12:-1 13:-0.838753 14:-0.886517 15:-1 16:-1 17:-1 18:-1 19:-1 20:-1 21:-0.625 22:-0.978448 23:-0.987435 24:-0.993294 25:-1 26:-0.993548 27:-0.975 28:-0.988597 29:-0.934844 30:-0.991306 31:-0.361702 32:-0.983201 33:-0.980583 34:-1 35:-1 36:-1 37:-0.925926 38:-1 39:-0.841584 40:-0.904762 41:-1 42:-0.883721 43:-1 44:-0.28997 45:-0.928251 
-8192 1:-0.902542 2:-0.610307 3:-0.819277 4:-0.819277 5:-0.923091 6:0.816343 7:-0.891911 8:-0.866667 9:-0.866667 10:-1 11:-0.891911 12:-1 13:-0.776668 14:-0.774467 15:-0.996258 16:-0.822897 17:-0.996258 18:-1 19:-1 20:-1 21:-0.5 22:-0.887931 23:-0.959294 24:-0.944287 25:-0.940299 26:-0.925806 27:-0.925 28:-0.97387 29:-0.805949 30:-0.970353 31:-0.154589 32:-0.967742 33:-0.92233 34:-1 35:-1 36:-1 37:-1 38:-1 39:-0.90099 40:-0.877551 41:-1 42:-0.930233 43:-1 44:-0.183851 45:-0.820628 
8192 1:-0.949552 2:-0.816143 3:-0.855422 4:-0.855422 5:-0.949644 6:0.876656 7:-0.937676 8:-1 9:-1 10:-1 11:-0.937676 12:-1 13:-0.622634 14:-0.843134 15:-1 16:-1 17:-1 18:-1 19:-1 20:-1 21:-0.625 22:-0.965517 23:-0.982554 24:-0.987619 25:-0.910448 26:-0.967742 27:-0.925 28:-0.983188 29:-0.889518 30:-0.984652 31:-0.0295359 32:-0.98101 33:-0.980583 34:-1 35:-0.933333 36:-1 37:-1 38:-1 39:-0.90099 40:-0.877551 41:-1 42:-0.976744 43:-1 44:0.00325497 45:-0.96861 
8192 1:-0.890694 2:-0.680117 3:-0.843373 4:-0.843373 5:-0.916232 6:0.848217 7:-0.895675 8:-1 9:-1 10:-1 11:-0.895675 12:-1 13:-0.585013 14:-0.90523 15:-0.996984 16:-0.306775 17:-0.996984 18:-1 19:-1 20:-1 21:-0.75 22:-0.952586 23:-0.991829 24:-0.986072 25:-1 26:-0.967742 27:-1 28:-0.988368 29:-0.970255 30:-0.993608 31:-0.69697 32:-0.985636 33:-0.92233 34:-1 35:-1 36:-1 37:-0.925926 38:-1 39:-0.980198 40:-0.904762 41:-1 42:-1 43:-1 44:-0.146753 45:-0.950673 
-8192 1:-0.935743 2:-0.787354 3:-0.939759 4:-0.939759 5:-0.953107 6:0.902532 7:-0.923185 8:-1 9:-1 10:-1 11:-0.923185 12:-1 13:-0.59429 14:-0.944255 15:-0.99933 16:-0.610196 17:-0.99933 18:-1 19:-1 20:-1 21:-0.6875 22:-0.991379 23:-0.996931 24:-0.996389 25:-1 26:-0.996774 27:-1 28:-0.996916 29:-0.983003 30:-0.997305 31:-0.230769 32:-0.988558 33:-1 34:-1 35:-1 36:-1 37:-1 38:-1 39:-0.980198 40:-0.972789 41:-1 42:-1 43:-1 44:0.283516 45:-0.982063 
-8192 1:-0.952735 2:-0.862783 3:-1 4:-1 5:-0.950794 6:0.892616 7:-0.942664 8:-1 9:-1 10:-1 11:-0.942664 12:-1 13:-0.382649 14:-0.969746 15:-0.999888 16:-0.84722 17:-0.999888 18:-1 19:-1 20:-1 21:-0.875 22:-0.99569 23:-0.998847 24:-0.997937 25:-1 26:-1 27:-1 28:-0.998321 29:-0.992918 30:-0.998915 31:-0.444444 32:-0.997444 33:-0.961165 34:-1 35:-1 36:-1 37:-1 38:-1 39:-1 40:-1 41:-1 42:-1 43:-1 44:0.0428571 45:-0.995516 
-8192 1:-0.830876 2:-0.381057 3:-0.433735 4:-0.433735 5:-0.871099 6:0.725332 7:-0.837904 8:-0.966667 9:-0.966667 10:-1 11:-0.837904 12:-1 13:-0.801957 14:-0.759673 15:-0.999497 16:-0.981759 17:-0.999497 18:-1 19:-1 20:-1 21:-0.25 22:-0.780172 23:-0.946831 24:-0.936549 25:-0.850746 26:-0.883871 27:-0.775 28:-0.973714 29:-0.842776 30:-0.966668 31:-0.404762 32:-0.96409 33:-0.825243 34:-1 35:-0.8 36:-1 37:-0.851852 38:-1 39:-0.782178 40:-0.918367 41:-1 42:-0.860465 43:-1 44:-0.0316327 45:-0.721973 
8192 1:-0.872819 2:-0.573035 3:-0.783133 4:-0.783133 5:-0.91978 6:0.850852 7:-0.889257 8:-0.433333 9:-0.433333 10:-1 11:-0.889257 12:-1 13:-0.754567 14:-0.592166 15:-0.999888 16:-0.998278 17:-0.999888 18:-1 19:-1 20:-1 21:-0.3125 22:-0.594828 23:-0.874481 24:-0.83544 25:-0.671642 26:-0.690323 27:-0.375 28:-0.934162 29:-0.55949 30:-0.909997 31:-0.316239 32:-0.942179 33:-0.0485437 34:-1 35:-0.866667 36:-0.714286 37:-0.555556 38:-0.529412 39:-0.346535 40:-0.687075 41:-0.529412 42:0.139535 43:-1 44:-0.0841575 45:-0.443946 
8192 1:-0.885306 2:-0.685294 3:-0.963855 4:-0.963855 5:-0.915503 6:0.858312 7:-0.87345 8:-1 9:-1 10:-1 11:-0.87345 12:-1 13:-0.714801 14:-0.893464 15:-0.999386 16:-0.881386 17:-0.999386 18:-1 19:-1 20:-1 21:-0.625 22:-0.952586 23:-0.990221 24:-0.986588 25:-0.910448 26:-0.980645 27:-0.9875 28:-0.991723 29:-0.966006 30:-0.992201 31:-0.6 32:-0.982593 33:-1 34:-1 35:-1 36:-1 37:-0.925926 38:-1 39:-0.960396 40:-1 41:-1 42:-0.953488 43:-1 44:-0.0822857 45:-0.932735 
8192 1:-0.851378 2:-0.483738 3:-0.566265 4:-0.566265 5:-0.905342 6:0.818333 7:-0.873045 8:-0.866667 9:-0.866667 10:-1 11:-0.873045 12:-1 13:-0.851132 14:-0.841232 15:-0.999218 16:-0.935528 17:-0.999218 18:-1 19:-1 20:-1 21:-0.5625 22:-0.892241 23:-0.976748 24:-0.975754 25:-0.940299 26:-0.967742 27:-0.7875 28:-0.982347 29:-0.926346 30:-0.984318 31:-0.433962 32:-0.976993 33:-0.786408 34:-1 35:-1 36:-0.714286 37:-0.925926 38:-0.882353 39:-0.861386 40:-0.959184 41:-0.882353 42:-0.906977 43:-1 44:0.180593 45:-0.798206 
-8192 1:-0.929746 2:-0.69947 3:-0.86747 4:-0.86747 5:-0.962284 6:0.90297 7:-0.921954 8:-0.966667 9:-0.966667 10:-1 11:-0.921954 12:-1 13:-0.878641 14:-0.783304 15:-1 16:-1 17:-1 18:-1 19:-1 20:-1 21:-0.5 22:-0.775862 23:-0.964861 24:-0.946866 25:-0.970149 26:-0.893548 27:-0.75 28:-0.973346 29:-0.787535 30:-0.972452 31:-0.426049 32:-0.972976 33:-0.92233 34:-1 35:-0.933333 36:-1 37:-0.925926 38:-0.882353 39:-0.742574 40:-0.768707 41:-0.882353 42:-0.813953 43:-1 44:-0.0883633 45:-0.730942 
8192 1:-0.864541 2:-0.621277 3:-0.771084 4:-0.771084 5:-0.897095 6:0.82313 7:-0.868641 8:-0.8 9:-0.8 10:-1 11:-0.868641 12:-1 13:-0.5712 14:-0.857732 15:-1 16:-1 17:-1 18:-1 19:-1 20:-1 21:-0.625 22:-0.974138 23:-0.983008 24:-0.981429 25:-0.970149 26:-0.977419 27:-0.975 28:-0.983998 29:-0.947592 30:-0.987096 31:-0.210526 32:-0.981254 33:-0.961165 34:-1 35:-1 36:-1 37:-1 38:-1 39:-0.940594 40:-0.959184 41:-1 42:-0.906977 43:-1 44:-0.0120301 45:-0.910314 
-8192 1:-0.899669 2:-0.635248 3:-0.759036 4:-0.759036 5:-0.945012 6:0.891482 7:-0.921264 8:-1 9:-1 10:-1 11:-0.921264 12:-1 13:-0.643999 14:-0.870421 15:-1 16:-1 17:-1 18:-1 19:-1 20:-1 21:-0.875 22:-0.935345 23:-0.985514 24:-0.981429 25:-0.940299 26:-0.977419 27:-0.8875 28:-0.956233 29:-0.936261 30:-0.989052 31:-0.130435 32:-0.98454 33:-0.980583 34:-1 35:-1 36:-1 37:-1 38:-1 39:-0.920792 40:-0.877551 41:-1 42:-0.883721 43:-1 44:-0.0931677 45:-0.883408 
8192 1:-0.821263 2:-0.699807 3:-1 4:-1 5:-0.843525 6:0.785262 7:-0.803794 8:-1 9:-1 10:-1 11:-0.803794 12:-1 13:-0.496279 14:-0.964805 15:-1 16:-1 17:-1 18:-1 19:-1 20:-1 21:-0.75 22:-1 23:-0.998369 24:-0.998968 25:-1 26:-0.993548 27:-1 28:-0.998503 29:-0.997167 30:-0.998652 31:0.111111 32:-0.996105 33:-1 34:-1 35:-1 36:-1 37:-1 38:-1 39:-1 40:-0.986395 41:-1 42:-1 43:-1 44:0.390476 45:-0.991031 
8192 1:-0.867065 2:-0.554572 3:0.325301 4:0.325301 5:-0.893933 6:0.784757 7:-0.866915 8:-0.466667 9:-0.466667 10:-1 11:-0.866915 12:-1 13:-0.80758 14:-0.558448 15:-0.995756 16:-0.944554 17:-0.995756 18:-1 19:-1 20:-1 21:-0.3125 22:-0.560345 23:-0.851818 24:-0.842662 25:-0.58209 26:-0.729032 27:-0.675 28:-0.919303 29:-0.498584 30:-0.895269 31:-0.239437 32:-0.904078 33:-0.805825 34:-1 35:-0.733333 36:-0.428571 37:-0.407407 38:-1 39:0.049505 40:-0.591837 41:-1 42:-0.534884 43:-1 44:-0.0717103 45:-0.412556 
8192 1:-0.915153 2:-0.670073 3:-0.951807 4:-0.951807 5:-0.945427 6:0.875614 7:-0.91185 8:-0.933333 9:-0.933333 10:-1 11:-0.91185 12:-1 13:-0.748666 14:-0.842657 15:-0.999218 16:-0.925166 17:-0.999218 18:-1 19:-1 20:-1 21:-0.625 22:-0.931034 23:-0.980004 24:-0.97885 25:-0.761194 26:-0.906452 27:-0.9375 28:-0.982179 29:-0.898017 30:-0.984568 31:-0.406393 32:-0.971759 33:-0.84466 34:-1 35:-0.933333 36:-1 37:-0.777778 38:-1 39:-0.90099 40:-0.945578 41:-1 42:-0.953488 43:-1 44:-0.0857143 45:-0.816143 
