svm_type epsilon_svr
kernel_type rbf
gamma 0.125
nr_class 2
total_sv 2348
rho -2.19487
SV
8 1:-0.883359 2:-0.914362 3:-0.775862 4:-0.973866 5:-0.816874 6:-0.779468 7:-0.791408 8:-0.779468 9:-0.982461 10:-0.791045 11:-0.911383 12:0.820636 13:-0.867228 14:-0.967742 15:-0.975984 16:-0.967742 17:-0.967742 18:-0.93871 19:-0.976048 21:-0.828042 22:-0.0990991 23:-0.976263 24:-1 25:-0.867228 26:-1 27:-0.983558 29:-0.896601 30:-0.933117 31:-0.895522 32:-0.948829 33:-0.82186 34:-0.948829 35:-0.871508 36:-0.809888 37:-1 38:-1 39:-1 40:-1 41:-0.848739 42:-1 43:-1 44:-1 45:-0.851852 46:-1 47:-0.980198 48:-0.85034 49:-1 50:-0.906977 51:-1 52:0.0992278 53:-1 54:-1 55:-0.860577 56:-0.4375 57:-0.828704 58:-0.98048 
0.2928598448869739 1:-0.878054 2:-0.388641 3:-0.189655 4:-0.810631 5:-0.813425 6:0.262357 7:-0.834039 8:0.262357 9:-0.771989 10:-0.223881 11:-0.91505 12:0.837931 13:-0.886771 14:-0.580645 15:-0.956605 16:-0.580645 17:-0.580645 18:-0.409677 19:-0.0299401 21:0.116402 22:-0.0133333 23:-0.932075 24:-1 25:-0.886771 26:-1 27:-0.858279 29:-0.293201 30:-0.497697 31:0.168443 32:-0.380746 33:-0.700356 34:-0.380746 35:0.49162 36:-0.48036 37:-0.991288 38:-0.910889 39:-0.991288 40:-1 41:-0.411765 42:-1 43:-0.6 44:-0.428571 45:0.333333 46:-1 47:-0.60396 48:-0.52381 49:-1 50:-0.465116 51:-1 52:0.0678857 53:-1 54:-1 55:0.346154 56:-0.5 57:0.152778 58:-0.861747 
2.049424761913809 1:-0.873661 2:-0.332144 3:-0.37931 4:-0.828747 5:-0.831981 6:-0.673004 7:-0.952468 8:-0.673004 9:-0.79675 10:0.164179 11:-0.907645 12:0.841361 13:-0.872188 14:-0.193548 15:-0.90773 16:-0.193548 17:-0.193548 18:-0.477419 19:-0.616766 21:0.015873 22:-0.0273752 23:-0.93451 24:-1 25:-0.872188 26:-1 27:-0.896957 29:-0.415014 30:-0.448217 31:-0.385928 32:-0.601041 33:-0.786557 34:-0.601041 35:-0.312849 36:-0.494905 37:-0.991679 38:-0.905896 39:-0.991679 40:-1 41:-0.142857 42:-0.875 43:-0.933333 44:-0.714286 45:-0.111111 46:-0.882353 47:-0.0891089 48:-0.673469 49:-0.882353 50:-0.186047 51:-1 52:0.118427 53:-1 54:-1 55:0.216346 56:-0.375 57:0.217593 58:-0.86926 
8 1:-0.982832 2:-0.999405 3:-1 4:-0.999927 5:-0.968625 6:-1 7:-1 8:-1 9:-1 10:-1 11:-0.984856 12:0.947334 13:-0.985556 14:-1 15:-1 16:-1 17:-1 18:-1 19:-1 21:-0.997354 22:0.333333 23:-0.997809 24:-1 25:-0.985556 26:-1 27:-1 29:-0.998584 30:-0.998976 31:-1 32:-0.998265 33:-0.452803 34:-0.998265 35:-1 36:-0.984469 37:-1 38:-1 39:-1 40:-1 41:-1 42:-1 43:-1 44:-1 45:-1 46:-1 47:-1 48:-1 49:-1 50:-1 51:-1 52:0.0428571 53:-1 54:-1 55:-1 56:-1 57:-1 58:-0.99975 
-8 1:-0.895191 2:-0.870354 3:-0.918103 4:-0.971828 5:-0.835132 6:-0.91635 7:-0.926559 8:-0.91635 9:-0.963374 10:-0.820896 11:-0.926826 12:0.854788 13:-0.890006 14:-0.967742 15:-0.977708 16:-0.967742 17:-0.967742 18:-0.93871 19:-0.844311 21:-0.828042 22:0.0542636 23:-0.970177 24:-1 25:-0.890006 26:-1 27:-0.976535 29:-0.879603 30:-0.914008 31:-0.882729 32:-0.947962 33:-0.831847 34:-0.947962 35:-0.798883 36:-0.799675 37:-0.999944 38:-0.996185 39:-0.999944 40:-1 41:-0.714286 42:-1 43:-1 44:-1 45:-0.925926 46:-0.647059 47:-0.980198 48:-0.904762 49:-0.529412 50:-0.930233 51:-1 52:0.0671096 53:-1 54:-1 55:-0.798077 56:-0.5625 57:-0.921296 58:-0.978417 
8 1:-0.891321 2:-0.733571 3:-0.818966 4:-0.915209 5:-0.780366 6:-0.946768 7:-0.984392 8:-0.946768 9:-0.906629 10:-0.731343 11:-0.946981 12:0.868955 13:-0.914624 14:-0.741935 15:-0.940442 16:-0.741935 17:-0.741935 18:-0.790323 19:-0.88024 21:-0.478836 22:-0.00319489 23:-0.958004 24:-1 25:-0.914624 26:-1 27:-0.939919 29:-0.558074 30:-0.800034 31:-0.803838 32:-0.785776 33:-0.76882 34:-0.785776 35:-0.787709 36:-0.667941 37:-0.996426 38:-0.918467 39:-0.996426 40:-1 41:-0.630252 42:-1 43:-0.733333 44:-0.428571 45:-0.777778 46:-0.882353 47:-0.485149 48:-0.795918 49:-0.882353 50:-0.604651 51:-1 52:0.126152 53:-1 54:-1 55:-0.538462 56:-0.5 57:-0.439815 58:-0.942536 
4.630855422880993 1:-0.468669 2:-0.314897 3:-0.762931 4:-0.382879 5:-0.88019 6:-0.771863 7:-0.990789 8:-0.771863 9:-0.385092 10:-0.61194 11:-0.488304 12:0.459759 13:-0.445907 14:-0.709677 15:-0.990774 16:-0.709677 17:-0.709677 18:-0.293548 19:-0.712575 21:-0.222222 22:-0.74171 23:0.0819233 24:-1 25:-0.445907 26:-1 27:-0.761109 29:-0.46034 30:-0.373827 31:-0.780384 32:-0.725932 33:-0.959273 34:-0.725932 35:-0.715084 36:0.0944146 37:-0.441249 38:0.755127 39:-0.441249 40:-1 41:-0.411765 42:-1 43:-0.933333 44:-1 45:-0.481481 46:-1 47:-0.762376 48:-0.877551 49:-1 50:-0.906977 51:-1 52:0.883695 53:-1 54:-1 55:-0.245192 57:-0.555556 58:-0.396954 
-8 1:-0.894643 2:-0.91793 3:-0.961207 4:-0.982123 5:-0.863024 6:-1 7:-1 8:-1 9:-0.971628 10:-0.880597 11:-0.925159 12:0.8745 13:-0.890443 14:-1 15:-1 16:-1 17:-1 18:-0.951613 19:-0.94012 21:-0.899471 22:0.12 23:-0.969446 24:-1 25:-0.890443 26:-1 27:-0.964036 29:-0.930595 30:-0.941989 31:-0.899787 32:-0.940156 33:-0.696603 34:-0.940156 35:-0.888268 36:-0.836916 37:-1 38:-1 39:-1 40:-1 41:-0.983193 42:-1 43:-0.933333 44:-1 45:-1 46:-1 47:-0.90099 48:-0.931973 49:-1 50:-0.930233 51:-1 52:0.00114286 53:-1 54:-1 55:-0.841346 56:-0.8125 57:-0.935185 58:-0.98544 
-8 1:-0.948711 2:-0.986916 3:-0.987069 4:-0.996913 5:-0.8772 6:-0.992395 7:-0.942655 8:-0.992395 9:-0.997421 10:-0.970149 11:-0.963788 12:0.874678 13:-0.93312 14:-1 15:-1 16:-1 17:-1 18:-1 19:-0.976048 21:-0.978836 22:-0.151515 23:-0.99294 24:-1 25:-0.93312 26:-1 27:-0.995447 29:-0.970255 30:-0.990787 31:-0.982942 32:-0.989592 33:-0.711142 34:-0.989592 35:-0.988827 36:-0.936417 37:-1 38:-1 39:-1 40:-1 41:-0.983193 42:-1 43:-1 44:-1 45:-1 46:-1 47:-1 48:-0.959184 49:-1 50:-1 51:-1 52:0.232468 53:-1 54:-1 55:-0.971154 56:-0.9375 57:-0.976852 58:-0.99746 
8 1:-0.89567 2:-0.915552 3:-0.831897 4:-0.975071 5:-0.839051 6:-0.992395 7:-0.992463 8:-0.992395 9:-0.973691 10:-0.850746 11:-0.930422 12:0.866903 13:-0.894761 14:-0.903226 15:-0.9245 16:-0.903226 17:-0.903226 18:-0.964516 19:-0.916168 21:-0.81746 22:0.0311111 23:-0.974315 24:-1 25:-0.894761 26:-1 27:-0.97395 29:-0.895184 30:-0.934141 31:-0.776119 32:-0.959237 33:-0.851293 34:-0.959237 35:-0.765363 36:-0.811957 37:-0.998325 38:-0.870803 39:-0.998325 40:-1 41:-0.865546 42:-1 43:-1 44:-1 45:-0.925926 46:-1 47:-0.80198 48:-0.945578 49:-1 50:-0.930233 51:-1 52:-0.110095 53:-1 54:-1 55:-0.8125 56:-0.6875 57:-0.787037 58:-0.980885 
-8 1:-0.895179 2:-0.913173 3:-0.75431 4:-0.966194 5:-0.845656 6:-0.847909 7:-0.888584 8:-0.847909 9:-0.96131 10:-0.820896 11:-0.920866 12:0.847489 13:-0.884615 14:-1 15:-1 16:-1 17:-1 18:-0.925806 19:-0.784431 21:-0.796296 22:-0.030303 23:-0.968229 24:-1 25:-0.884615 26:-1 27:-0.973726 29:-0.86119 30:-0.908889 31:-0.720682 32:-0.915872 33:-0.77317 34:-0.915872 35:-0.653631 36:-0.777943 37:-0.997934 38:-0.882232 39:-0.997934 40:-1 41:-0.966387 42:-0.875 43:-0.866667 44:-1 45:-1 46:-0.764706 47:-0.90099 48:-0.918367 49:-0.882353 50:-0.953488 51:-1 52:0.137662 53:-1 54:-1 55:-0.817308 56:-0.5625 57:-0.773148 58:-0.973683 
8 1:-0.860114 2:-0.77758 3:-0.525862 4:-0.939577 5:-0.83939 6:-0.673004 7:-0.865596 8:-0.673004 9:-0.929327 10:-0.850746 11:-0.893761 12:0.834821 13:-0.854917 14:-0.83871 15:-0.947819 16:-0.83871 17:-0.83871 18:-0.816129 19:-0.688623 21:-0.693122 22:-0.208333 23:-0.957273 24:-1 25:-0.854917 26:-1 27:-0.955068 29:-0.820113 30:-0.799693 31:-0.458422 32:-0.903729 33:-0.854362 34:-0.903729 35:-0.50838 36:-0.700307 37:-0.998716 38:-0.958925 39:-0.998716 40:-1 41:-0.848739 42:-1 43:-0.8 44:-1 45:-0.62963 46:-0.647059 47:-0.80198 48:-0.782313 49:-0.764706 50:-0.767442 51:-1 52:0.270982 53:-1 54:-1 55:-0.634615 56:-0.5 57:-0.689815 58:-0.952946 
-8 1:-0.896792 2:-0.775795 3:-0.211207 4:-0.911728 5:-0.827609 6:-0.764259 7:-0.933599 8:-0.764259 9:-0.883415 10:-0.61194 11:-0.917813 12:0.820793 13:-0.891396 14:-0.709677 15:-0.935634 16:-0.709677 17:-0.709677 18:-0.845161 19:-0.844311 21:-0.373016 22:-0.0761905 23:-0.944614 24:-1 25:-0.891396 26:-1 27:-0.960922 29:-0.604816 30:-0.769323 31:-0.814499 32:-0.796184 33:-0.788706 34:-0.796184 35:-0.675978 36:-0.643895 37:-0.988942 38:-0.757683 39:-0.988942 40:-1 41:-0.647059 42:-1 43:-0.866667 44:-0.714286 45:-0.407407 46:-1 47:-0.663366 48:-0.755102 49:-1 50:-0.651163 51:-1 52:0.154592 53:-1 54:-1 55:-0.538462 56:-0.1875 57:-0.523148 58:-0.934129 
8 1:-0.949494 2:-0.979185 3:-0.978448 4:-0.994498 5:-0.891905 6:-0.969582 7:-0.867453 8:-0.969582 9:-0.994841 10:-1 11:-0.975126 12:0.92161 13:-0.944048 14:-0.967742 15:-0.88936 16:-0.967742 17:-0.967742 18:-0.987097 19:-0.976048 21:-0.941799 22:0.0505051 23:-0.990262 24:-1 25:-0.944048 26:-1 27:-0.994446 29:-0.954674 30:-0.978843 31:-0.98081 32:-0.995663 33:-0.930452 34:-0.995663 35:-0.98324 36:-0.910532 37:-1 38:-1 39:-1 40:-1 41:-0.932773 42:-1 43:-1 44:-1 45:-1 46:-0.882353 47:-0.90099 48:-0.972789 49:-0.882353 50:-0.953488 51:-1 52:-0.178355 53:-1 54:-1 55:-0.980769 56:-0.625 57:-0.976852 58:-0.995278 
-8 1:-0.876278 2:-0.85727 3:-0.762931 4:-0.947876 5:-0.844455 6:-0.961977 7:-0.981894 8:-0.961977 9:-0.912303 10:-0.850746 11:-0.909495 12:0.85155 13:-0.872374 14:-0.967742 15:-0.987909 16:-0.967742 17:-0.967742 18:-0.880645 19:-0.748503 21:-0.706349 22:0.0453333 23:-0.960925 24:-1 25:-0.872374 26:-1 27:-0.947146 29:-0.824363 30:-0.844395 31:-0.671642 32:-0.919341 33:-0.858634 34:-0.919341 35:-0.765363 36:-0.722446 37:-0.998548 38:-0.946206 39:-0.998548 40:-1 41:-0.882353 42:-1 43:-1 44:-0.714286 45:-0.62963 46:-0.882353 47:-0.663366 48:-0.768707 49:-0.882353 50:-0.813953 51:-1 52:-0.0155429 53:-1 54:-1 55:-0.596154 56:-0.625 57:-0.773148 58:-0.959469 
8 1:-0.882367 2:-0.935177 3:-0.896552 4:-0.982907 5:-0.853174 6:-0.931559 7:-0.901455 8:-0.931559 9:-0.977302 10:-0.880597 11:-0.912066 12:0.854158 13:-0.886479 14:-0.967742 15:-0.963441 16:-0.967742 17:-0.967742 18:-0.970968 19:-0.952096 21:-0.912698 22:0.116279 23:-0.972855 24:-1 25:-0.886479 26:-1 27:-0.98571 29:-0.94051 30:-0.947108 31:-0.895522 32:-0.966175 33:-0.820747 34:-0.966175 35:-0.938547 36:-0.842618 37:-0.998716 38:-0.856111 39:-0.998716 40:-1 41:-0.966387 42:-1 43:-1 44:-1 45:-1 46:-1 47:-0.960396 48:-0.945578 49:-1 50:-0.930233 51:-1 52:0.115615 53:-1 54:-1 55:-0.865385 56:-0.625 57:-0.782407 58:-0.986394 
-6.960476930176839 1:-0.907448 2:-0.876896 3:-0.668103 4:-0.946648 5:-0.818672 6:-0.863118 7:-0.936313 8:-0.863118 9:-0.94016 10:-0.761194 11:-0.929205 12:0.821634 13:-0.887902 14:-1 15:-1 16:-1 17:-1 18:-0.858065 19:-0.868263 21:-0.619048 22:0.0590112 23:-0.970177 24:-1 25:-0.887902 26:-1 27:-0.955898 29:-0.705382 30:-0.878178 31:-0.799574 32:-0.863833 33:-0.766821 34:-0.863833 35:-0.748603 36:-0.729125 37:-0.99933 38:-0.975741 39:-0.99933 40:-1 41:-0.663866 42:-1 43:-1 44:-1 45:-0.481481 46:-1 47:-0.742574 48:-0.823129 49:-1 50:-0.744186 51:-1 52:0.0378674 53:-1 54:-1 55:-0.658654 56:-0.5625 57:-0.611111 58:-0.961341 
-8 1:-0.909309 2:-0.989295 3:-0.99569 4:-0.996427 5:-0.87424 6:-0.977186 7:-0.85 8:-0.977186 9:-0.996905 10:-1 11:-0.938491 12:0.891767 13:-0.917147 14:-1 15:-1 16:-1 17:-1 18:-0.983871 19:-0.988024 21:-0.973545 22:0.111111 23:-0.99294 24:-1 25:-0.917147 26:-1 27:-0.998386 29:-0.984419 30:-0.988398 31:-0.976546 32:-0.981787 33:-0.559244 34:-0.981787 35:-0.994413 36:-0.929112 37:-1 38:-1 39:-1 40:-1 41:-1 42:-1 43:-1 44:-1 45:-1 46:-1 47:-1 48:-0.986395 49:-1 50:-1 51:-1 52:-0.130952 53:-1 54:-1 55:-0.980769 56:-0.9375 57:-0.976852 58:-0.996912 
-8 1:-0.905608 2:-0.958965 3:-0.99569 4:-0.989004 5:-0.841949 6:-0.961977 7:-0.91549 8:-0.961977 9:-0.98504 10:-0.910448 11:-0.957524 12:0.923155 13:-0.918708 14:-0.967742 15:-0.943566 16:-0.967742 17:-0.967742 18:-0.967742 19:-0.952096 21:-0.925926 22:0.263158 23:-0.986732 24:-1 25:-0.918708 26:-1 27:-0.985126 29:-0.947592 30:-0.964511 31:-0.965885 32:-0.947095 33:-0.567209 34:-0.947095 35:-0.972067 36:-0.876717 37:-0.999888 38:-0.980686 39:-0.999888 40:-1 41:-0.915966 42:-1 43:-0.933333 44:-1 45:-0.925926 46:-1 47:-0.960396 48:-0.959184 49:-1 50:-0.976744 51:-1 52:-0.176692 53:-1 54:-1 55:-0.9375 56:-0.8125 57:-0.949074 58:-0.991426 
-8 1:-0.925461 2:-0.926851 3:-0.922414 4:-0.981401 5:-0.863861 6:-1 7:-1 8:-1 9:-0.978334 10:-0.850746 11:-0.960115 12:0.908608 13:-0.921119 14:-1 15:-1 16:-1 17:-1 18:-0.958065 19:-0.976048 21:-0.851852 22:0.128205 23:-0.982958 24:-1 25:-0.921119 26:-1 27:-0.984409 29:-0.890935 30:-0.93653 31:-0.921109 32:-0.961839 33:-0.813951 34:-0.961839 35:-0.949721 36:-0.835381 37:-0.999106 38:-0.907914 39:-0.999106 40:-1 41:-0.94958 42:-1 43:-0.933333 44:-1 45:-1 46:-1 47:-0.861386 48:-0.768707 49:-1 50:-1 51:-1 52:0.0695971 53:-1 54:-1 55:-0.903846 56:-0.5625 57:-0.763889 58:-0.985178 
-8 1:-0.866392 2:-0.963723 3:-0.926724 4:-0.991027 5:-0.830171 6:-1 7:-1 8:-1 9:-0.99123 10:-0.910448 11:-0.898729 12:0.829315 13:-0.84836 14:-1 15:-1 16:-1 17:-1 18:-0.980645 19:-0.94012 21:-0.94709 22:0.015873 23:-0.98734 24:-1 25:-0.84836 26:-1 27:-0.987472 29:-0.971671 30:-0.976796 31:-0.959488 32:-0.974848 33:-0.748969 34:-0.974848 35:-0.944134 36:-0.889169 37:-1 38:-1 39:-1 40:-1 41:-0.966387 42:-1 43:-0.933333 44:-1 45:-0.851852 46:-1 47:-0.980198 48:-0.972789 49:-1 50:-0.976744 51:-1 52:0.092517 53:-1 54:-1 55:-0.927885 56:-0.75 57:-0.944444 58:-0.992976 
-8 1:-0.932736 2:-0.88879 3:-0.849138 4:-0.974227 5:-0.873472 6:-0.847909 7:-0.854146 8:-0.847909 9:-0.978334 10:-0.820896 11:-0.963631 12:0.911315 13:-0.92767 14:-0.967742 15:-0.97565 16:-0.967742 17:-0.967742 18:-0.903226 19:-0.892216 21:-0.822751 22:0.139601 23:-0.975533 24:-1 25:-0.92767 26:-1 27:-0.961617 29:-0.835694 30:-0.922539 31:-0.82516 32:-0.966175 33:-0.880611 34:-0.966175 35:-0.748603 36:-0.802925 37:-1 38:-1 39:-1 40:-1 41:-0.882353 42:-1 43:-0.933333 44:-1 45:-0.777778 46:-1 47:-0.80198 48:-0.85034 49:-1 50:-0.953488 51:-1 52:0.0517705 53:-1 54:-1 55:-0.793269 56:-0.75 57:-0.824074 58:-0.979084 
-8 1:-0.907208 2:-0.980969 3:-0.965517 4:-0.987373 5:-0.886211 6:-0.954373 7:-0.911461 8:-0.954373 9:-0.994326 10:-0.970149 11:-0.91753 12:0.848938 13:-0.899929 14:-1 15:-1 16:-1 17:-1 18:-0.990323 19:-0.964072 21:-0.910053 22:-0.111111 23:-0.985149 24:-1 25:-0.899929 26:-1 27:-0.985654 29:-0.946176 30:-0.982938 31:-0.936034 32:-0.901127 33:-0.293853 34:-0.901127 35:-0.994413 36:-0.859096 37:-0.999888 38:-0.983138 39:-0.999888 40:-1 41:-1 42:-1 43:-1 44:-1 45:-1 46:-1 47:-0.960396 48:-0.85034 49:-1 50:-1 51:-1 52:0.0695971 53:-1 54:-1 55:-0.980769 56:-0.6875 57:-0.972222 58:-0.98897 
8 1:-0.902503 2:-0.997621 3:-1 4:-0.999579 5:-0.851401 6:-1 7:-1 8:-1 9:-0.998968 10:-1 11:-0.920179 12:0.836192 13:-0.89232 14:-1 15:-1 16:-1 17:-1 18:-1 19:-1 21:-0.997354 22:0.333333 23:-0.99574 24:-1 25:-0.89232 26:-1 27:-1 29:-0.998584 30:-0.998635 31:-1 32:-0.993929 33:-0.128043 34:-0.993929 35:-1 36:-0.976711 37:-1 38:-1 39:-1 40:-1 41:-1 42:-1 43:-1 44:-1 45:-1 46:-1 47:-1 48:-1 49:-1 50:-1 51:-1 52:0.0428571 53:-1 54:-1 55:-1 56:-1 57:-1 58:-0.999535 
8 1:-0.968123 2:-0.967291 3:-1 4:-0.988877 5:-0.916515 6:-0.954373 7:-0.899725 8:-0.954373 9:-0.99123 10:-1 11:-0.98006 12:0.908657 13:-0.956914 14:-1 15:-1 16:-1 17:-1 18:-1 19:-0.976048 21:-0.886243 22:-0.340502 23:-0.988314 24:-1 25:-0.956914 26:-1 27:-0.986487 29:-0.869688 30:-0.973383 31:-0.98081 32:-0.99046 33:-0.922831 34:-0.99046 35:-0.977654 36:-0.871439 37:-1 38:-1 39:-1 40:-1 41:-0.966387 42:-1 43:-0.933333 44:-1 45:-1 46:-1 47:-0.920792 48:-0.986395 49:-1 50:-0.976744 51:-1 52:0.345622 53:-1 54:-1 55:-0.971154 56:-0.6875 57:-0.990741 58:-0.990723 
6.824122481771834 1:-0.858873 2:-0.740113 3:-0.409483 4:-0.877057 5:-0.765455 6:-0.406844 7:-0.87996 8:-0.406844 9:-0.834924 10:-0.522388 11:-0.890362 12:0.768119 13:-0.848708 14:-0.612903 15:-0.938338 16:-0.612903 17:-0.612903 18:-0.596774 19:-0.808383 21:-0.26455 22:0.0718954 23:-0.955204 24:-1 25:-0.848708 26:-1 27:-0.951878 29:-0.567989 30:-0.704146 31:-0.560768 32:-0.511709 33:-0.636294 34:-0.511709 35:-0.441341 36:-0.598968 37:-0.991232 38:-0.861949 39:-0.991232 40:-1 41:-0.697479 42:-1 43:-0.733333 44:-1 45:-0.037037 46:-0.764706 47:-0.722772 48:-0.727891 49:-0.764706 50:-0.72093 51:-1 52:-0.0525677 53:-1 54:-1 55:-0.163462 56:-0.0625 57:-0.175926 58:-0.916886 
8 1:-0.893551 2:-0.802557 3:-0.340517 4:-0.925377 5:-0.805272 6:-0.703422 7:-0.901228 8:-0.703422 9:-0.935001 10:-0.462687 11:-0.920695 12:0.815687 13:-0.885939 14:-0.967742 15:-0.991544 16:-0.967742 17:-0.967742 18:-0.783871 19:-0.736527 21:-0.542328 22:-0.0254351 23:-0.959708 24:-1 25:-0.885939 26:-1 27:-0.939134 29:-0.648725 30:-0.829722 31:-0.599147 32:-0.91327 33:-0.893689 34:-0.91327 35:-0.486034 36:-0.680827 37:-1 38:-1 39:-1 40:-1 41:-0.764706 42:-1 43:-0.733333 44:-0.714286 45:-0.703704 46:-0.764706 47:-0.60396 48:-0.782313 49:-0.882353 50:-0.604651 51:-1 52:0.114056 53:-1 54:-1 55:-0.461538 56:-0.5625 57:-0.625 58:-0.946805 
-8 1:-0.890603 2:-0.849539 3:-0.814655 4:-0.960009 5:-0.834217 6:-0.992395 7:-0.995286 8:-0.992395 9:-0.957183 10:-0.880597 11:-0.922518 12:0.851273 13:-0.889626 14:-0.903226 15:-0.952782 16:-0.903226 17:-0.903226 18:-0.912903 19:-0.784431 21:-0.716931 22:-0.00289855 23:-0.969203 24:-1 25:-0.889626 26:-1 27:-0.952516 29:-0.838527 30:-0.880908 31:-0.739872 32:-0.925412 33:-0.829827 34:-0.925412 35:-0.748603 36:-0.760551 37:-0.998771 38:-0.940747 39:-0.998771 40:-1 41:-0.579832 42:-1 43:-1 44:-1 45:-0.777778 46:-0.764706 47:-0.782178 48:-0.809524 49:-0.764706 50:-0.906977 51:-1 52:0.124472 53:-1 54:-1 55:-0.745192 56:-0.6875 57:-0.75 58:-0.969557 
8 1:-0.909314 2:-0.941719 3:-0.909483 4:-0.974949 5:-0.830911 6:-0.969582 7:-0.969996 8:-0.969582 9:-0.968532 10:-0.910448 11:-0.929831 12:0.830651 13:-0.891156 14:-0.967742 15:-0.974955 16:-0.967742 17:-0.967742 18:-0.916129 19:-0.904192 21:-0.820106 22:-0.120567 23:-0.974924 24:-1 25:-0.891156 26:-1 27:-0.981935 29:-0.868272 30:-0.948814 31:-0.923241 32:-0.941023 33:-0.785889 34:-0.941023 35:-0.888268 36:-0.815041 37:-0.998716 38:-0.901427 39:-0.998716 40:-1 41:-0.94958 42:-1 43:-0.666667 44:-1 45:-0.851852 46:-1 47:-0.960396 48:-0.959184 49:-1 50:-0.976744 51:-1 52:0.242553 53:-1 54:-1 55:-0.850962 56:-0.5 57:-0.921296 58:-0.981481 
-8 1:-0.893139 2:-0.641986 3:-0.711207 4:-0.875925 5:-0.822537 6:-0.498099 7:-0.899352 8:-0.498099 9:-0.846789 10:-0.671642 11:-0.924186 12:0.840976 13:-0.891253 14:-0.322581 15:-0.893075 16:-0.322581 17:-0.322581 18:-0.758065 19:-0.724551 21:-0.203704 22:-0.108808 23:-0.942422 24:-1 25:-0.891253 26:-1 27:-0.956123 29:-0.454674 30:-0.704829 31:-0.767591 32:-0.661752 33:-0.750349 34:-0.661752 35:-0.659218 36:-0.576003 37:-0.998771 38:-0.980831 39:-0.998771 40:-1 41:-0.00840336 42:-1 43:-0.933333 44:-1 45:-0.333333 46:-1 47:-0.60396 48:-0.823129 49:-1 50:-0.837209 51:-1 52:0.140118 53:-1 54:-1 55:-0.399038 56:0.0625 57:-0.481481 58:-0.907299 
8 1:-0.889039 2:-0.724056 3:-0.862069 4:-0.918878 5:-0.841012 6:-1 7:-1 8:-1 9:-0.855558 10:-0.58209 11:-0.925247 12:0.86732 13:-0.889425 14:-0.967742 15:-0.99222 16:-0.967742 17:-0.967742 18:-0.796774 19:-0.676647 21:-0.44709 22:-0.00747384 23:-0.94717 24:-1 25:-0.889425 26:-1 27:-0.923842 29:-0.685552 30:-0.77137 31:-0.759062 32:-0.579358 33:-0.525589 34:-0.579358 35:-0.703911 36:-0.653928 37:-1 38:-1 39:-1 40:-1 41:-0.613445 42:-1 43:-1 44:-1 45:-0.555556 46:-1 47:-0.386139 48:-0.673469 49:-0.882353 50:-0.883721 51:-1 52:0.0194747 53:-1 54:-1 55:-0.509615 56:-0.625 57:-0.541667 58:-0.937706 
-8 1:-0.933825 2:-0.950045 3:-0.905172 4:-0.984611 5:-0.873838 6:-0.901141 7:-0.842123 8:-0.901141 9:-0.987103 10:-0.940299 11:-0.969101 12:0.924066 13:-0.928828 14:-1 15:-1 16:-1 17:-1 18:-0.948387 19:-0.928144 21:-0.89418 22:-0.0502283 23:-0.974315 24:-1 25:-0.928828 26:-1 27:-0.976667 29:-0.898017 30:-0.962123 31:-0.901919 32:-0.974848 33:-0.852163 34:-0.974848 35:-0.882682 36:-0.847698 37:-0.998548 38:-0.819592 39:-0.998548 40:-1 41:-0.89916 42:-1 43:-1 44:-1 45:-1 46:-1 47:-1 48:-0.931973 49:-1 50:-0.930233 51:-1 52:0.171429 53:-1 54:-1 55:-0.951923 56:-0.75 57:-0.916667 58:-0.987217 
8 1:-0.934091 2:-0.925067 3:-0.918103 4:-0.983606 5:-0.899484 6:-0.969582 7:-0.954361 8:-0.969582 9:-0.97885 10:-1 11:-0.959728 12:0.921678 13:-0.934683 14:-0.967742 15:-0.961904 16:-0.967742 17:-0.967742 18:-0.922581 19:-0.856287 21:-0.851852 22:-0.030303 23:-0.983445 24:-1 25:-0.934683 26:-1 27:-0.983923 29:-0.907932 30:-0.957686 31:-0.880597 32:-0.954033 33:-0.746158 34:-0.954033 35:-0.843575 36:-0.839672 37:-0.998492 38:-0.823985 39:-0.998492 40:-1 41:-0.89916 42:-1 43:-1 44:-1 45:-0.925926 46:-0.647059 47:-0.920792 48:-1 49:-0.647059 50:-0.883721 51:-1 52:0.0744589 53:-1 54:-1 55:-0.884615 56:-0.625 57:-0.902778 58:-0.985905 
-8 1:-0.910598 2:-0.533155 3:-0.642241 4:-0.884093 5:-0.863586 6:-0.787072 7:-0.954297 8:-0.787072 9:-0.884963 10:-0.820896 11:-0.946547 12:0.90207 13:-0.913922 14:-0.354839 15:-0.891003 16:-0.354839 17:-0.354839 18:-0.767742 19:-0.60479 21:-0.187831 22:-0.0025974 23:-0.939257 24:-1 25:-0.913922 26:-1 27:-0.921714 29:-0.456091 30:-0.676506 31:-0.592751 32:-0.549003 33:-0.643717 34:-0.549003 35:-0.603352 36:-0.575836 37:-0.999665 38:-0.994404 39:-0.999665 40:-1 41:-0.176471 42:-1 43:-0.866667 44:-0.714286 45:-0.777778 46:-0.882353 47:-0.465347 48:-0.714286 49:-0.882353 50:-0.627907 51:-1 52:0.0780705 53:-1 54:-1 55:-0.225962 56:-0.4375 57:-0.421296 58:-0.907227 
-7.681676336944885 1:-0.927382 2:-0.944692 3:-0.943966 4:-0.986083 5:-0.880578 6:-0.992395 7:-0.986591 8:-0.992395 9:-0.980397 10:-1 11:-0.936394 12:0.855455 13:-0.921105 14:-1 15:-1 16:-1 17:-1 18:-0.980645 19:-0.928144 21:-0.883598 22:-0.308642 23:-0.985514 24:-1 25:-0.921105 26:-1 27:-0.980776 29:-0.924929 30:-0.967582 31:-0.98081 32:-0.951431 33:-0.684789 34:-0.951431 35:-0.932961 36:-0.857574 37:-0.995756 38:-0.417728 39:-0.995756 40:-1 41:-0.915966 42:-1 43:-1 44:-1 45:-1 46:-1 47:-1 48:-0.986395 49:-1 50:-1 51:-1 52:0.235979 53:-1 54:-1 55:-0.9375 56:-0.75 57:-0.898148 58:-0.988743 
-8 1:-0.931365 2:-0.990485 3:-1 4:-0.997087 5:-0.860955 6:-0.984791 7:-0.878939 8:-0.984791 9:-0.996905 10:-1 11:-0.955613 12:0.88043 13:-0.924192 14:-0.935484 15:-0.595789 16:-0.935484 17:-0.935484 18:-0.993548 19:-1 21:-0.978836 22:0.0666667 23:-0.993061 24:-1 25:-0.924192 26:-1 27:-0.998628 29:-0.98017 30:-0.991469 31:-1 32:-0.99046 33:-0.720503 34:-0.99046 35:-1 36:-0.938105 37:-1 38:-1 39:-1 40:-1 41:-0.966387 42:-1 43:-1 44:-1 45:-1 46:-1 47:-0.980198 48:-1 49:-1 50:-1 51:-1 52:0.112381 53:-1 54:-1 55:-0.971154 56:-0.9375 57:-0.990741 58:-0.997579 
8 1:-0.899045 2:-0.904252 3:-0.87069 4:-0.960292 5:-0.815952 6:-0.589354 7:-0.743643 8:-0.589354 9:-0.944803 10:-0.940299 11:-0.932305 12:0.845329 13:-0.903937 14:-0.967742 15:-0.984149 16:-0.967742 17:-0.967742 18:-0.893548 19:-0.964072 21:-0.714286 22:-0.00952381 23:-0.97675 24:-1 25:-0.903937 26:-1 27:-0.983539 29:-0.803116 30:-0.919126 31:-0.91258 32:-0.893322 33:-0.754887 34:-0.893322 35:-0.877095 36:-0.764561 37:-0.998213 38:-0.913202 39:-0.998213 40:-1 41:-0.848739 42:-1 43:-0.933333 44:-1 45:-0.851852 46:-1 47:-0.920792 48:-0.972789 49:-1 50:-0.860465 51:-1 52:0.0279592 53:-1 54:-1 55:-0.846154 56:-0.125 57:-0.824074 58:-0.970535 
-8 1:-0.870797 2:-0.973238 3:-0.982759 4:-0.991416 5:-0.806327 6:-0.961977 7:-0.89233 8:-0.961977 9:-0.992778 10:-1 11:-0.897515 12:0.798419 13:-0.865883 14:-1 15:-1 16:-1 17:-1 18:-0.993548 19:-0.976048 21:-0.944444 22:-0.272727 23:-0.983323 24:-1 25:-0.865883 26:-1 27:-0.990649 29:-0.970255 30:-0.970653 31:-0.959488 32:-0.946227 33:-0.439567 34:-0.946227 35:-0.977654 36:-0.895059 37:-0.999944 38:-0.987696 39:-0.999944 40:-1 41:-0.983193 42:-1 43:-1 44:-1 45:-1 46:-1 47:-0.940594 48:-0.931973 49:-1 50:-1 51:-1 52:0.137662 53:-1 54:-1 55:-0.961538 56:-0.6875 57:-0.953704 58:-0.993656 
8 1:-0.910925 2:-0.859054 3:-0.771552 4:-0.950277 5:-0.826305 6:-0.8327 7:-0.916502 8:-0.8327 9:-0.934485 10:-0.462687 11:-0.936162 12:0.84009 13:-0.901521 14:-0.903226 15:-0.961983 16:-0.903226 17:-0.903226 18:-0.829032 19:-0.94012 21:-0.637566 22:0.0666667 23:-0.978332 24:-1 25:-0.901521 26:-1 27:-0.958631 29:-0.71813 30:-0.866917 31:-0.865672 32:-0.908066 33:-0.831124 34:-0.908066 35:-0.871508 36:-0.735702 37:-0.999888 38:-0.995663 39:-0.999888 40:-1 41:-0.747899 42:-1 43:-0.8 44:-1 45:-0.777778 46:-1 47:-0.762376 48:-0.85034 49:-1 50:-0.860465 51:-1 52:-0.00928571 53:-1 54:-1 55:-0.634615 56:-0.5625 57:-0.805556 58:-0.963141 
-8 1:-0.888868 2:-0.822777 3:-0.875 4:-0.962639 5:-0.853388 6:-0.574144 7:-0.717543 8:-0.574144 9:-0.97008 10:-0.970149 11:-0.911427 12:0.840351 13:-0.894553 14:-0.645161 15:-0.81475 16:-0.645161 17:-0.645161 18:-0.945161 19:-0.928144 21:-0.804233 22:-0.260726 23:-0.951917 24:-1 25:-0.894553 26:-1 27:-0.963404 29:-0.858357 30:-0.921174 31:-0.925373 32:-0.912402 33:-0.786157 34:-0.912402 35:-0.865922 36:-0.762499 37:-1 38:-1 39:-1 40:-1 41:-0.89916 42:-1 43:-1 44:-1 45:-1 46:-1 47:-0.960396 48:-0.931973 49:-1 50:-0.953488 51:-1 52:0.404243 53:-1 54:-1 55:-0.826923 56:-0.625 57:-0.828704 58:-0.970034 
-8 1:-0.907301 2:-0.854891 3:-0.762931 4:-0.954079 5:-0.847348 6:-0.878327 7:-0.934271 8:-0.878327 9:-0.934485 10:-0.850746 11:-0.953234 12:0.912809 13:-0.921614 14:-1 15:-1 16:-1 17:-1 18:-0.877419 19:-0.592814 21:-0.695767 22:-0.025641 23:-0.970055 24:-1 25:-0.921614 26:-1 27:-0.955081 29:-0.780453 30:-0.868282 31:-0.620469 32:-0.901995 33:-0.80514 34:-0.901995 35:-0.743017 36:-0.740236 37:-1 38:-1 39:-1 40:-1 41:-0.781513 42:-1 43:-0.733333 44:-1 45:-0.925926 46:-0.882353 47:-0.821782 48:-0.70068 49:-0.764706 50:-0.813953 51:-1 52:0.0562271 53:-1 54:-1 55:-0.581731 56:-0.625 57:-0.805556 58:-0.964358 
1.738402792676133 1:-0.900652 2:-0.4719 3:0.00431034 4:-0.830203 5:-0.870955 6:-0.977186 7:-0.996655 8:-0.977186 9:-0.784885 10:-0.104478 11:-0.930283 12:0.883459 13:-0.903758 14:-0.903226 15:-0.988833 16:-0.903226 17:-0.903226 18:-0.441935 19:0.413174 21:0.15873 22:-0.00342231 23:-0.93171 24:-1 25:-0.903758 26:-1 27:-0.849431 29:-0.311615 30:-0.454018 31:0.592751 32:-0.894189 33:-0.942906 34:-0.894189 35:0.357542 36:-0.480633 37:-0.996426 38:-0.959233 39:-0.996426 40:-1 41:-0.495798 42:-1 43:-0.8 44:-0.714286 45:-0.703704 46:0.411765 47:0.485149 48:-0.0612245 49:0.411765 50:0.44186 51:-1 52:0.0706952 53:-1 54:-1 55:0.798077 56:-0.5625 57:0.00925926 58:-0.861891 
8 1:-0.901988 2:-0.97978 3:-0.978448 4:-0.995246 5:-0.843911 6:-0.961977 7:-0.809399 8:-0.961977 9:-0.995357 10:-0.970149 11:-0.938644 12:0.880895 13:-0.90927 14:-0.967742 15:-0.872721 16:-0.967742 17:-0.967742 18:-0.987097 19:-0.988024 21:-0.970899 22:0.166667 23:-0.986975 24:-1 25:-0.90927 26:-1 27:-0.997433 29:-0.978754 30:-0.98635 31:-0.985075 32:-0.974848 33:-0.535954 34:-0.974848 35:-0.994413 36:-0.920218 37:-1 38:-1 39:-1 40:-1 41:-0.915966 42:-1 43:-1 44:-1 45:-1 46:-1 47:-1 48:-0.972789 49:-1 50:-1 51:-1 52:0.173214 53:-1 54:-1 55:-0.995192 56:-0.875 57:-0.976852 58:-0.996172 
-8 1:-0.893774 2:-0.922093 3:-0.965517 4:-0.964491 5:-0.851413 6:-0.870722 7:-0.909811 8:-0.870722 9:-0.974207 10:-1 11:-0.930997 12:0.882429 13:-0.905926 14:-0.419355 15:-0.681155 16:-0.419355 17:-0.419355 18:-0.958065 19:-0.94012 21:-0.78836 22:-0.24183 23:-0.969203 24:-1 25:-0.905926 26:-1 27:-0.970548 29:-0.856941 30:-0.920833 31:-0.93177 32:-0.796184 33:-0.476663 34:-0.796184 35:-0.916201 36:-0.769039 37:-0.998604 38:-0.92422 39:-0.998604 40:-1 41:-0.831933 42:-1 43:-1 44:-1 45:-0.925926 46:-1 47:-0.920792 48:-0.877551 49:-1 50:-0.953488 51:-1 52:0.370028 53:-1 54:-1 55:-0.875 56:-0.5625 57:-0.893519 58:-0.971608 
8 1:-0.896368 2:-0.747844 3:-0.642241 4:-0.923004 5:-0.842806 6:-0.802281 7:-0.936176 8:-0.802281 9:-0.880836 10:-0.343284 11:-0.932189 12:0.873486 13:-0.900573 14:-0.645161 15:-0.909842 16:-0.645161 17:-0.645161 18:-0.664516 19:-0.844311 21:-0.5 22:-0.118841 23:-0.947535 24:-1 25:-0.900573 26:-1 27:-0.958659 29:-0.675637 30:-0.789114 31:-0.850746 32:-0.717259 33:-0.664078 34:-0.717259 35:-0.731844 36:-0.662302 37:-1 38:-1 39:-1 40:-1 41:-0.327731 42:-1 43:-0.933333 44:-0.714286 45:0.111111 46:-0.882353 47:-0.861386 48:-0.836735 49:-0.882353 50:-0.72093 51:-1 52:0.0791304 53:-1 54:-1 55:-0.5 56:-0.3125 57:-0.550926 58:-0.940616 
-8 1:-0.915088 2:-0.969075 3:-0.952586 4:-0.992616 5:-0.854353 6:-1 7:-1 8:-1 9:-0.990714 10:-0.940299 11:-0.955634 12:0.909631 13:-0.918115 14:-1 15:-1 16:-1 17:-1 18:-0.980645 19:-1 21:-0.939153 22:0.142857 23:-0.988558 24:-1 25:-0.918115 26:-1 27:-0.989571 29:-0.961756 30:-0.974066 31:-0.959488 32:-0.983521 33:-0.801155 34:-0.983521 35:-0.977654 36:-0.898942 37:-0.999442 38:-0.857551 39:-0.999442 40:-1 41:-0.932773 42:-1 43:-1 44:-1 45:-0.851852 46:-1 47:-0.980198 48:-0.986395 49:-1 50:-1 51:-1 52:-0.106122 53:-1 54:-1 55:-0.956731 56:-0.75 57:-0.925926 58:-0.994085 
-8 1:-0.893935 2:-0.801368 3:-0.551724 4:-0.927922 5:-0.865042 6:-0.931559 7:-0.976404 8:-0.931559 9:-0.912303 10:-0.820896 11:-0.92784 12:0.88476 13:-0.890568 14:-0.806452 15:-0.947478 16:-0.806452 17:-0.806452 18:-0.829032 19:-0.736527 21:-0.539683 22:-0.133333 23:-0.934023 24:-1 25:-0.890568 26:-1 27:-0.963997 29:-0.71813 30:-0.761474 31:-0.545842 32:-0.778838 33:-0.719366 34:-0.778838 35:-0.620112 36:-0.662407 37:-0.998771 38:-0.967045 39:-0.998771 40:-1 41:-0.848739 42:-1 43:-0.866667 44:-1 45:-1 46:-0.764706 47:-0.782178 48:-0.605442 49:-0.764706 50:-0.627907 51:-1 52:0.241 53:-1 54:-1 55:-0.509615 56:-0.25 57:-0.615741 58:-0.940652 
8 1:-0.927376 2:-0.998811 3:-1 4:-0.999556 5:-0.853604 6:-1 7:-1 8:-1 9:-0.999484 10:-1 11:-0.910413 12:0.759819 13:-0.901281 14:-1 15:-1 16:-1 17:-1 18:-1 19:-1 21:-0.997354 22:0.777778 23:-0.997809 24:-1 25:-0.901281 26:-1 27:-0.998466 29:-0.997167 30:-0.999659 31:-0.997868 32:-0.994796 33:-0.278987 34:-0.994796 35:-1 36:-0.976711 37:-1 38:-1 39:-1 40:-1 41:-1 42:-1 43:-1 44:-1 45:-1 46:-1 47:-1 48:-0.986395 49:-1 50:-1 51:-1 52:-0.304762 53:-1 54:-1 55:-1 56:-0.9375 57:-1 58:-0.999535 
-8 1:-0.883799 2:-0.986916 3:-0.99569 4:-0.996708 5:-0.8463 6:-0.977186 7:-0.838018 8:-0.977186 9:-0.994326 10:-1 11:-0.918454 12:0.863201 13:-0.893258 14:-0.967742 15:-0.81972 16:-0.967742 17:-0.967742 18:-0.993548 19:-0.976048 21:-0.978836 22:0.185185 23:-0.989775 24:-1 25:-0.893258 26:-1 27:-1 29:-0.988669 30:-0.992493 31:-0.978678 32:-0.979185 33:-0.456041 34:-0.979185 35:-0.988827 36:-0.93428 37:-1 38:-1 39:-1 40:-1 41:-1 42:-1 43:-1 44:-1 45:-0.925926 46:-1 47:-0.980198 48:-0.972789 49:-1 50:-1 51:-1 52:-0.304762 53:-1 54:-1 55:-0.980769 56:-1 57:-0.976852 58:-0.997305 
8 1:-0.925562 2:-0.861433 3:-0.741379 4:-0.958519 5:-0.85775 6:-0.847909 7:-0.909091 8:-0.847909 9:-0.966469 10:-0.641791 11:-0.955575 12:0.890348 13:-0.918621 14:-0.806452 15:-0.908939 16:-0.806452 17:-0.806452 18:-0.867742 19:-0.916168 21:-0.677249 22:0.0518519 23:-0.971272 24:-1 25:-0.918621 26:-1 27:-0.970024 29:-0.746459 30:-0.870671 31:-0.833689 32:-0.89072 33:-0.759588 34:-0.89072 35:-0.75419 36:-0.752486 37:-0.998883 38:-0.948058 39:-0.998883 40:-1 41:-0.798319 42:-1 43:-1 44:-0.714286 45:-0.777778 46:-0.764706 47:-0.683168 48:-0.768707 49:-0.764706 50:-0.837209 51:-1 52:-0.0150794 53:-1 54:-1 55:-0.735577 56:-0.5 57:-0.685185 58:-0.967542 
-8 1:-0.90399 2:-0.910794 3:-0.762931 4:-0.969328 5:-0.849756 6:-0.91635 7:-0.932504 8:-0.91635 9:-0.959247 10:-0.761194 11:-0.932538 12:0.86537 13:-0.905739 14:-0.935484 15:-0.959025 16:-0.935484 17:-0.935484 18:-0.890323 19:-0.868263 21:-0.761905 22:-0.138047 23:-0.976506 24:-1 25:-0.905739 26:-1 27:-0.971002 29:-0.86119 30:-0.910595 31:-0.716418 32:-0.907199 33:-0.724401 34:-0.907199 35:-0.821229 36:-0.788131 37:-0.998213 38:-0.887813 39:-0.998213 40:-1 41:-0.747899 42:-1 43:-0.933333 44:-0.714286 45:-0.62963 46:-0.764706 47:-0.821782 48:-0.768707 49:-0.764706 50:-0.813953 51:-1 52:0.0744589 53:-1 54:-1 55:-0.778846 56:-0.625 57:-0.703704 58:-0.97596 
-8 1:-0.874521 2:-0.964318 3:-0.926724 4:-0.988526 5:-0.785499 6:-0.931559 7:-0.854097 8:-0.931559 9:-0.989683 10:-0.910448 11:-0.908522 12:0.803733 13:-0.866322 14:-1 15:-1 16:-1 17:-1 18:-0.941935 19:-0.988024 21:-0.915344 22:-0.030303 23:-0.98661 24:-1 25:-0.866322 26:-1 27:-0.996521 29:-0.954674 30:-0.967582 31:-0.96162 32:-0.98699 33:-0.897925 34:-0.98699 35:-0.955307 36:-0.879764 37:-0.999944 38:-0.990737 39:-0.999944 40:-1 41:-0.915966 42:-1 43:-0.933333 44:-1 45:-0.62963 46:-1 47:-0.960396 48:-0.945578 49:-1 50:-0.953488 51:-1 52:0.137662 53:-1 54:-1 55:-0.9375 56:-0.875 57:-0.953704 58:-0.99182 
8 1:-0.876853 2:-0.961344 3:-0.974138 4:-0.986379 5:-0.837655 6:-1 7:-1 8:-1 9:-0.988651 10:-1 11:-0.905885 12:0.835192 13:-0.872338 14:-1 15:-1 16:-1 17:-1 18:-0.980645 19:-0.916168 21:-0.915344 22:0.0980392 23:-0.976872 24:-1 25:-0.872338 26:-1 27:-0.988388 29:-0.953258 30:-0.955298 31:-0.886994 32:-0.969644 33:-0.798779 34:-0.969644 35:-0.949721 36:-0.861858 37:-0.999888 38:-0.984349 39:-0.999888 40:-1 41:-0.966387 42:-1 43:-1 44:-1 45:-1 46:-1 47:-0.861386 48:-0.931973 49:-1 50:-0.883721 51:-1 52:-0.0798319 53:-1 54:-1 55:-0.913462 56:-0.5625 57:-0.944444 58:-0.989375 
4.239572736291263 1:-0.876175 2:-0.409456 3:0.74569 4:-0.799391 5:-0.793243 6:-0.695817 7:-0.962248 8:-0.695817 9:-0.703895 10:0.134328 11:-0.90005 12:0.784068 13:-0.861326 14:-1 15:-1 16:-1 17:-1 18:-0.264516 19:-0.221557 21:0.187831 22:-0.0745379 23:-0.937918 24:-1 25:-0.861326 26:-1 27:-0.961861 29:-0.209632 30:-0.460843 31:-0.15565 32:-0.870772 33:-0.940969 34:-0.870772 35:0.111732 36:-0.472831 37:-0.999609 38:-0.996225 39:-0.999609 40:-1 41:-0.327731 42:-1 43:-0.266667 44:-0.714286 45:0.185185 46:-0.529412 47:-0.227723 48:-0.428571 49:-0.529412 50:-0.348837 51:-1 52:0.115615 53:-1 54:-1 55:0.25 56:1 57:-0.0509259 58:-0.857777 
-8 1:-0.885957 2:-0.882248 3:-0.827586 4:-0.96527 5:-0.838532 6:-0.885932 7:-0.918648 8:-0.885932 9:-0.960279 10:-0.880597 11:-0.924692 12:0.869661 13:-0.895315 14:-0.967742 15:-0.981892 16:-0.967742 17:-0.967742 18:-0.877419 19:-0.844311 21:-0.785714 22:-0.0070922 23:-0.971272 24:-1 25:-0.895315 26:-1 27:-0.981368 29:-0.868272 30:-0.896605 31:-0.769723 32:-0.942758 33:-0.849744 34:-0.942758 35:-0.826816 36:-0.775659 37:-0.999553 38:-0.97521 39:-0.999553 40:-1 41:-0.865546 42:-1 43:-1 44:-1 45:-0.555556 46:-0.882353 47:-0.841584 48:-0.85034 49:-0.882353 50:-0.906977 51:-1 52:0.0206687 53:-1 54:-1 55:-0.721154 56:-0.3125 57:-0.796296 58:-0.973158 
-8 1:-0.904192 2:-0.734761 3:-0.603448 4:-0.913742 5:-0.848922 6:-0.885932 7:-0.967122 8:-0.885932 9:-0.90147 10:-0.731343 11:-0.922906 12:0.838154 13:-0.894003 14:-1 15:-1 16:-1 17:-1 18:-0.848387 19:-0.712575 21:-0.439153 22:-0.0276775 23:-0.947292 24:-1 25:-0.894003 26:-1 27:-0.945796 29:-0.609065 30:-0.742024 31:-0.460554 32:-0.786644 33:-0.773662 34:-0.786644 35:-0.413408 36:-0.641298 37:-0.991735 38:-0.814654 39:-0.991735 40:-1 41:-0.781513 42:-1 43:-0.933333 44:-0.142857 45:-0.703704 46:-0.882353 47:-0.544554 48:-0.70068 49:-0.882353 50:-0.790698 51:-1 52:0.114389 53:-1 54:-1 55:-0.5 56:-0.4375 57:-0.578704 58:-0.933187 
-8 1:-0.946981 2:-0.886411 3:-0.905172 4:-0.968453 5:-0.915268 6:-1 7:-1 8:-1 9:-0.965437 10:-0.940299 11:-0.962725 12:0.917078 13:-0.939044 14:-0.83871 15:-0.900385 16:-0.83871 17:-0.83871 18:-0.922581 19:-0.94012 21:-0.727513 22:-0.183673 23:-0.969446 24:-1 25:-0.939044 26:-1 27:-0.97811 29:-0.793201 30:-0.913667 31:-0.889126 32:-0.905464 33:-0.726983 34:-0.905464 35:-0.905028 36:-0.769391 37:-0.99866 38:-0.918177 39:-0.99866 40:-1 41:-0.781513 42:-1 43:-0.8 44:-1 45:-0.851852 46:-0.882353 47:-0.861386 48:-0.945578 49:-0.882353 50:-0.930233 51:-1 52:0.092517 53:-1 54:-1 55:-0.817308 56:-0.5 57:-0.810185 58:-0.971691 
8 1:-0.927965 2:-0.976806 3:-0.991379 4:-0.993397 5:-0.880602 6:-0.977186 7:-0.916635 8:-0.977186 9:-0.986072 10:-1 11:-0.955233 12:0.90533 13:-0.934172 14:-0.967742 15:-0.907218 16:-0.967742 17:-0.967742 18:-0.987097 19:-0.976048 21:-0.944444 22:-0.111111 23:-0.990383 24:-1 25:-0.934172 26:-1 27:-0.994489 29:-0.963173 30:-0.982256 31:-0.96162 32:-0.959237 33:-0.451761 34:-0.959237 35:-0.98324 36:-0.902286 37:-1 38:-1 39:-1 40:-1 41:-0.983193 42:-1 43:-0.866667 44:-1 45:-1 46:-0.882353 47:-0.920792 48:-0.986395 49:-0.882353 50:-0.976744 51:-1 52:-0.0730159 53:-1 54:-1 55:-0.966346 56:-0.8125 57:-0.990741 58:-0.994443 
-8 1:-0.894276 2:-0.708594 3:-0.762931 4:-0.921584 5:-0.859787 6:-0.779468 7:-0.930097 8:-0.779468 9:-0.911272 10:-0.731343 11:-0.916862 12:0.850053 13:-0.892498 14:-0.354839 15:-0.839036 16:-0.354839 17:-0.354839 18:-0.832258 19:-0.94012 21:-0.460317 22:-0.00152207 23:-0.950578 24:-1 25:-0.892498 26:-1 27:-0.94855 29:-0.691218 30:-0.760109 31:-0.82516 32:-0.780572 33:-0.744009 34:-0.780572 35:-0.798883 36:-0.651427 37:-0.995811 38:-0.896709 39:-0.995811 40:-1 41:-0.310924 42:-1 43:-1 44:-1 45:-0.703704 46:-1 47:-0.425743 48:-0.85034 49:-1 50:-0.697674 51:-1 52:0.0952381 53:-1 54:-1 55:-0.658654 56:-0.4375 57:-0.421296 58:-0.936824 
-8 1:-0.897021 2:-0.909605 3:-0.814655 4:-0.977444 5:-0.8316 6:-1 7:-1 8:-1 9:-0.974207 10:-0.820896 11:-0.940019 12:0.883944 13:-0.91485 14:-0.903226 15:-0.916632 16:-0.903226 17:-0.903226 18:-0.958065 19:-0.952096 21:-0.84127 22:0.0140845 23:-0.978454 24:-1 25:-0.91485 26:-1 27:-0.981569 29:-0.90085 30:-0.940624 31:-0.921109 32:-0.973981 33:-0.89519 34:-0.973981 35:-0.905028 36:-0.822974 37:-0.999944 38:-0.995245 39:-0.999944 40:-1 41:-0.781513 42:-1 43:-0.933333 44:-1 45:-1 46:-0.882353 47:-0.90099 48:-0.945578 49:-0.882353 50:-0.837209 51:-1 52:0.0575453 53:-1 54:-1 55:-0.860577 56:-0.625 57:-0.856481 58:-0.982972 
8 1:-0.911775 2:-0.932203 3:-0.887931 4:-0.979828 5:-0.883111 6:-1 7:-1 8:-1 9:-0.97627 10:-1 11:-0.939359 12:0.896757 13:-0.909763 14:-1 15:-1 16:-1 17:-1 18:-0.96129 19:-0.856287 21:-0.862434 22:0.0416667 23:-0.975776 24:-1 25:-0.909763 26:-1 27:-0.981195 29:-0.910765 30:-0.937212 31:-0.791045 32:-0.93582 33:-0.711246 34:-0.93582 35:-0.854749 36:-0.823623 37:-0.998827 38:-0.888464 39:-0.998827 40:-1 41:-0.94958 42:-1 43:-0.933333 44:-1 45:-0.925926 46:-0.647059 47:-0.821782 48:-0.877551 49:-0.647059 50:-0.744186 51:-1 52:-0.0875 53:-1 54:-1 55:-0.817308 56:-0.625 57:-0.805556 58:-0.983091 
8 1:-0.893886 2:-0.866786 3:-0.844828 4:-0.956699 5:-0.815651 6:-0.680608 7:-0.817075 8:-0.680608 9:-0.939128 10:-0.820896 11:-0.932903 12:0.857186 13:-0.908153 14:-0.870968 15:-0.941832 16:-0.870968 17:-0.870968 18:-0.916129 19:-0.676647 21:-0.743386 22:-0.142857 23:-0.967864 24:-1 25:-0.908153 26:-1 27:-0.967897 29:-0.803116 30:-0.880566 31:-0.707889 32:-0.882914 33:-0.753188 34:-0.882914 35:-0.793296 36:-0.754845 37:-0.999442 38:-0.975115 39:-0.999442 40:-1 41:-0.882353 42:-1 43:-0.733333 44:-0.714286 45:-0.777778 46:-0.764706 47:-0.861386 48:-0.70068 49:-1 50:-0.883721 51:-1 52:0.221633 53:-1 54:-1 55:-0.735577 56:-0.5 57:-0.791667 58:-0.968138 
-8 1:-0.907783 2:-0.821588 3:-0.836207 4:-0.947593 5:-0.840918 6:-0.923954 7:-0.963983 8:-0.923954 9:-0.927263 10:-0.970149 11:-0.932934 12:0.851197 13:-0.903769 14:-1 15:-1 16:-1 17:-1 18:-0.903226 19:-0.976048 21:-0.592593 22:-0.0434783 23:-0.968837 24:-1 25:-0.903769 26:-1 27:-0.935762 29:-0.740793 30:-0.839959 31:-0.865672 32:-0.908933 33:-0.841251 34:-0.908933 35:-0.927374 36:-0.72426 37:-0.992963 38:-0.740707 39:-0.992963 40:-1 41:-0.630252 42:-1 43:-1 44:-1 45:-0.851852 46:-1 47:-0.683168 48:-0.931973 49:-1 50:-0.953488 51:-1 52:0.0428571 53:-1 54:-1 55:-0.735577 56:-0.6875 57:-0.523148 58:-0.959981 
8 1:-0.896197 2:-0.638418 3:-0.357759 4:-0.866614 5:-0.825153 6:-0.741445 7:-0.951765 8:-0.741445 9:-0.853495 10:-0.492537 11:-0.9277 12:0.846665 13:-0.896234 14:-0.709677 15:-0.957368 16:-0.709677 17:-0.709677 18:-0.745161 19:-0.700599 21:-0.214286 22:0.0541176 23:-0.937553 24:-1 25:-0.896234 26:-1 27:-0.911531 29:-0.399433 30:-0.676164 31:-0.688699 32:-0.784909 33:-0.852311 34:-0.784909 35:-0.575419 36:-0.560783 37:-0.990729 38:-0.865444 39:-0.990729 40:-1 41:-0.647059 42:-1 43:-0.933333 44:-1 45:-0.777778 46:-0.882353 47:-0.70297 48:-0.823129 49:-0.882353 50:-0.72093 51:-1 52:0.0796639 53:-1 54:-1 55:-0.375 56:-0.4375 57:-0.291667 58:-0.900657 
8 1:-0.868212 2:-0.586084 3:-0.517241 4:-0.897018 5:-0.827656 6:-0.695817 7:-0.926533 8:-0.695817 9:-0.880836 10:-0.164179 11:-0.904145 12:0.838579 13:-0.869964 14:-0.870968 15:-0.97547 16:-0.870968 17:-0.870968 18:-0.748387 19:-0.652695 21:-0.404762 22:-0.0516039 23:-0.950578 24:-1 25:-0.869964 26:-1 27:-0.940314 29:-0.66289 30:-0.685378 31:-0.351812 32:-0.837814 33:-0.855828 34:-0.837814 35:-0.536313 36:-0.611402 37:-0.997096 38:-0.945432 39:-0.997096 40:-1 41:-0.361345 42:-1 43:-0.733333 44:-1 45:-0.703704 46:-0.882353 47:-0.465347 48:-0.755102 49:-0.882353 50:-0.44186 51:-1 52:0.143216 53:-1 54:-1 55:-0.221154 56:-0.375 57:-0.310185 58:-0.921859 
8 1:-0.939513 2:-0.647933 3:-0.577586 4:-0.893586 5:-0.889225 6:-0.307985 7:-0.838244 8:-0.307985 9:-0.888574 10:-0.731343 11:-0.955749 12:0.889988 13:-0.938495 14:-0.516129 15:-0.910975 16:-0.516129 17:-0.516129 18:-0.883871 19:-0.712575 21:-0.185185 22:-0.147318 23:-0.941449 24:-1 25:-0.938495 26:-1 27:-0.942011 29:-0.305949 30:-0.70244 31:-0.722814 32:-0.516912 33:-0.584392 34:-0.516912 35:-0.73743 36:-0.5873 37:-0.984698 38:-0.721723 39:-0.984698 40:-1 41:-0.428571 42:-1 43:-0.733333 44:-1 45:-1 46:-0.764706 47:-0.683168 48:-0.836735 49:-0.882353 50:-0.883721 51:-1 52:0.210649 53:-1 54:-1 55:-0.394231 56:-0.3125 57:-0.523148 58:-0.912081 
8 1:-0.834943 2:-0.986916 3:-0.99569 4:-0.996962 5:-0.692649 6:-0.954373 7:-0.650718 8:-0.954373 9:-0.995357 10:-1 11:-0.916301 12:0.8239 13:-0.87816 14:-0.967742 15:-0.805631 16:-0.967742 17:-0.967742 18:-0.990323 19:-1 21:-0.984127 23:-0.99367 24:-1 25:-0.87816 26:-1 27:-1 29:-0.990085 30:-0.994199 31:-0.995736 32:-0.985256 33:-0.584584 34:-0.985256 35:-0.994413 36:-0.945308 37:-1 38:-1 39:-1 40:-1 41:-0.94958 42:-1 43:-1 44:-1 45:-1 46:-1 47:-1 48:-1 49:-1 50:-1 51:-1 52:0.0428571 53:-1 54:-1 55:-0.990385 56:-1 57:-0.986111 58:-0.998056 
-3.332618165240318 1:-0.90081 2:-0.994053 3:-1 4:-0.99826 5:-0.854534 6:-0.992395 7:-0.903183 8:-0.992395 9:-0.997421 10:-1 11:-0.934676 12:0.881428 13:-0.900336 14:-1 15:-1 16:-1 17:-1 18:-1 19:-0.988024 21:-0.986772 22:-0.111111 23:-0.996105 24:-1 25:-0.900336 26:-1 27:-0.997934 29:-0.992918 30:-0.994199 31:-0.991471 32:-0.982654 33:-0.187187 34:-0.982654 35:-0.994413 36:-0.952363 37:-1 38:-1 39:-1 40:-1 41:-1 42:-1 43:-1 44:-1 45:-1 46:-1 47:-0.960396 48:-1 49:-1 50:-1 51:-1 52:0.0428571 53:-1 54:-1 55:-1 56:-0.9375 57:-1 58:-0.998474 
-8 1:-0.915837 2:-0.772822 3:-0.586207 4:-0.943267 5:-0.874881 6:-0.885932 7:-0.950078 8:-0.885932 9:-0.909724 10:-0.820896 11:-0.943305 12:0.892553 13:-0.917668 14:-0.580645 15:-0.855539 16:-0.580645 17:-0.580645 18:-0.9 19:-0.988024 21:-0.550265 22:-0.120275 23:-0.965794 24:-1 25:-0.917668 26:-1 27:-0.962775 29:-0.726629 30:-0.857362 31:-0.812367 32:-0.806592 33:-0.688456 34:-0.806592 35:-0.815642 36:-0.702146 37:-0.997096 38:-0.901118 39:-0.997096 40:-1 41:-0.344538 42:-1 43:-0.933333 44:-1 45:-0.851852 46:-1 47:-0.762376 48:-0.741497 49:-1 50:-0.883721 51:-1 52:0.0858616 53:-1 54:-1 55:-0.764423 56:-0.4375 57:-0.625 58:-0.953506 
-8 1:-0.915857 2:-0.995242 3:-0.99569 4:-0.996653 5:-0.8551 6:-1 7:-1 8:-1 9:-0.995357 10:-1 11:-0.929621 12:0.838203 13:-0.919242 14:-0.967742 15:-0.822477 16:-0.967742 17:-0.967742 18:-0.996774 19:-1 21:-0.97619 22:-0.384615 23:-0.994766 24:-1 25:-0.919242 26:-1 27:-0.995593 29:-0.983003 30:-0.98908 31:-0.985075 32:-0.981787 33:-0.531315 34:-0.981787 35:-1 36:-0.934118 37:-1 38:-1 39:-1 40:-1 41:-1 42:-1 43:-1 44:-1 45:-1 46:-1 47:-0.960396 48:-0.931973 49:-1 50:-1 51:-1 52:0.604396 53:-1 54:-1 55:-0.980769 56:-0.9375 57:-0.972222 58:-0.997293 
8 1:-0.833115 2:-0.734761 3:-0.50431 4:-0.876182 5:-0.710565 6:-0.528517 7:-0.905256 8:-0.528517 9:-0.88032 10:-0.58209 11:-0.872815 12:0.72456 13:-0.87389 14:-0.83871 15:-0.974489 16:-0.83871 17:-0.83871 18:-0.658065 19:-0.688623 21:-0.388889 22:-0.204848 23:-0.932928 24:-1 25:-0.87389 26:-1 27:-0.942196 29:-0.611898 30:-0.780925 31:-0.801706 32:-0.741544 33:-0.808846 34:-0.741544 35:-0.731844 36:-0.615512 37:-0.996761 38:-0.94936 39:-0.996761 40:-1 41:-0.630252 42:-1 43:-0.4 44:-0.714286 45:-0.037037 46:-0.647059 47:-0.742574 48:-0.795918 49:-0.882353 50:-0.627907 51:-1 52:0.259013 53:-1 54:-1 55:-0.317308 56:-0.1875 57:-0.486111 58:-0.923469 
8 1:-0.865858 2:-0.728219 3:-0.521552 4:-0.901778 5:-0.831209 6:-0.551331 7:-0.886398 8:-0.551331 9:-0.893216 10:-0.731343 11:-0.90431 12:0.846267 13:-0.875404 14:-0.774194 15:-0.954998 16:-0.774194 17:-0.774194 18:-0.796774 19:-0.664671 21:-0.494709 22:-0.178571 23:-0.917833 24:-1 25:-0.875404 26:-1 27:-0.961451 29:-0.684136 30:-0.768981 31:-0.714286 32:-0.579358 33:-0.608 34:-0.579358 35:-0.631285 36:-0.617014 37:-0.995365 38:-0.90869 39:-0.995365 40:-1 41:-0.613445 42:-1 43:-1 44:-1 45:-0.851852 46:-1 47:-0.683168 48:-0.85034 49:-1 50:-0.651163 51:-1 52:0.201148 53:-1 54:-1 55:-0.355769 56:-0.0625 57:-0.481481 58:-0.924053 
-8 1:-0.895371 2:-0.592626 3:-0.668103 4:-0.867899 5:-0.835094 6:-0.422053 7:-0.891132 8:-0.422053 9:-0.845757 10:-0.731343 11:-0.922881 12:0.84371 13:-0.89549 14:0.16129 15:-0.827817 16:0.16129 17:0.16129 18:-0.687097 19:-0.844311 21:-0.10582 22:-0.0759076 23:-0.929032 24:-1 25:-0.89549 26:-1 27:-0.934481 29:-0.429178 30:-0.685037 31:-0.782516 32:-0.417173 33:-0.595924 34:-0.417173 35:-0.709497 36:-0.556479 37:-0.994471 38:-0.918973 39:-0.994471 40:-1 41:-0.092437 42:-1 43:-1 44:-1 45:0.037037 46:-1 47:-0.544554 48:-0.741497 49:-1 50:-0.860465 51:-1 52:0.151273 53:-1 54:-1 55:-0.442308 56:-0.25 57:-0.578704 58:-0.898737 
-8 1:-0.92117 2:-0.977996 3:-0.952586 4:-0.992509 5:-0.878911 6:-0.977186 7:-0.926238 8:-0.977186 9:-0.987619 10:-1 11:-0.965502 12:0.945545 13:-0.924169 14:-1 15:-1 16:-1 17:-1 18:-0.980645 19:-0.976048 21:-0.949735 22:0.047619 23:-0.983567 24:-1 25:-0.924169 26:-1 27:-0.989042 29:-0.961756 30:-0.982597 31:-0.957356 32:-0.9549 33:-0.463308 34:-0.9549 35:-0.927374 36:-0.895059 37:-1 38:-1 39:-1 40:-1 41:-0.94958 42:-1 43:-0.933333 44:-1 45:-1 46:-1 47:-0.960396 48:-0.931973 49:-1 50:-0.976744 51:-1 52:0.117347 53:-1 54:-1 55:-0.956731 56:-0.75 57:-0.907407 58:-0.993656 
8 1:-0.980425 2:-0.999405 3:-1 4:-0.999953 5:-0.951622 6:-1 7:-1 8:-1 9:-1 10:-1 11:-0.967086 12:0.884913 13:-0.993563 14:-1 15:-1 16:-1 17:-1 18:-1 19:-1 21:-1 22:0.333333 23:-1 24:-1 25:-0.993563 26:-1 27:-1 29:-0.998584 30:-0.999659 31:-1 32:-0.998265 33:-0.399156 34:-0.998265 35:-1 36:-0.986562 37:-1 38:-1 39:-1 40:-1 41:-1 42:-1 43:-1 44:-1 45:-1 46:-1 47:-1 48:-1 49:-1 50:-1 51:-1 52:0.0428571 53:-1 54:-1 55:-1 56:-1 57:-1 58:-0.999797 
-8 1:-0.910304 2:-0.86738 3:-0.728448 4:-0.960292 5:-0.842967 6:-0.984791 7:-0.990505 8:-0.984791 9:-0.959763 10:-0.552239 11:-0.940296 12:0.867798 13:-0.907673 14:-0.83871 15:-0.920746 16:-0.83871 17:-0.83871 18:-0.874194 19:-0.928144 21:-0.669312 22:-0.185185 23:-0.972368 24:-1 25:-0.907673 26:-1 27:-0.979746 29:-0.79745 30:-0.884661 31:-0.793177 32:-0.915004 33:-0.804707 34:-0.915004 35:-0.776536 36:-0.760309 37:-0.995867 38:-0.79928 39:-0.995867 40:-1 41:-0.865546 42:-1 43:-0.933333 44:-1 45:-0.925926 46:-0.882353 47:-0.683168 48:-0.863946 49:-1 50:-0.767442 51:-1 52:0.028373 53:-1 54:-1 55:-0.697115 56:-0.3125 57:-0.453704 58:-0.969497 
-8 1:-0.932275 2:-0.905442 3:-0.87931 4:-0.976884 5:-0.877127 6:-0.954373 7:-0.951263 8:-0.954373 9:-0.968532 10:-0.970149 11:-0.965133 12:0.919851 13:-0.94081 14:-1 15:-1 16:-1 17:-1 18:-0.903226 19:-0.928144 21:-0.814815 22:-0.049505 23:-0.978576 24:-1 25:-0.94081 26:-1 27:-0.972358 29:-0.858357 30:-0.939942 31:-0.878465 32:-0.94536 33:-0.785188 34:-0.94536 35:-0.905028 36:-0.813555 37:-0.999944 38:-0.995359 39:-0.999944 40:-1 41:-0.865546 42:-1 43:-0.933333 44:-1 45:-0.62963 46:-1 47:-0.920792 48:-0.823129 49:-1 50:-0.860465 51:-1 52:0.0325318 53:-1 54:-1 55:-0.826923 56:-0.6875 57:-0.782407 58:-0.981195 
8 1:-0.974403 2:-0.968481 3:-0.982759 4:-0.991107 5:-0.946572 6:-0.870722 7:-0.646338 8:-0.870722 9:-0.995357 10:-0.850746 11:-0.965228 12:0.89126 13:-0.942619 14:-1 15:-1 16:-1 17:-1 18:-0.977419 19:-0.988024 21:-0.910053 22:-0.225806 23:-0.986366 24:-1 25:-0.942619 26:-1 27:-0.990152 29:-0.913598 30:-0.978843 31:-0.978678 32:-0.959237 33:-0.589563 34:-0.959237 35:-0.98324 36:-0.876991 37:-0.998995 38:-0.786046 39:-0.998995 40:-1 41:-0.966387 42:-1 43:-1 44:-1 45:-1 46:-1 47:-0.940594 48:-0.972789 49:-1 50:-1 51:-1 52:0.21106 53:-1 54:-1 55:-0.975962 56:-0.6875 57:-0.949074 58:-0.991462 
8 1:-0.923417 2:-0.865001 3:-0.883621 4:-0.971891 5:-0.879268 6:-0.984791 7:-0.986618 8:-0.984791 9:-0.972659 10:-0.940299 11:-0.95815 12:0.92139 13:-0.921879 14:-0.806452 15:-0.865955 16:-0.806452 17:-0.806452 18:-0.93871 19:-0.964072 21:-0.791005 22:0.146417 23:-0.977602 24:-1 25:-0.921879 26:-1 27:-0.968913 29:-0.849858 30:-0.91742 31:-0.906183 32:-0.899393 33:-0.674189 34:-0.899393 35:-0.893855 36:-0.790214 37:-1 38:-1 39:-1 40:-1 41:-0.697479 42:-1 43:-1 44:-1 45:-0.703704 46:-1 47:-0.980198 48:-0.891156 49:-1 50:-1 51:-1 52:0.0136182 53:-1 54:-1 55:-0.918269 56:-0.6875 57:-0.680556 58:-0.976413 
-8 1:-0.917607 2:-0.970859 3:-1 4:-0.993735 5:-0.851757 6:-0.984791 7:-0.94153 8:-0.984791 9:-0.996905 10:-1 11:-0.947895 12:0.881088 13:-0.912983 14:-1 15:-1 16:-1 17:-1 18:-1 19:-0.976048 21:-0.94709 22:0.0666667 23:-0.990749 24:-1 25:-0.912983 26:-1 27:-0.997498 29:-0.966006 30:-0.979526 31:-0.989339 32:-0.967042 33:-0.533666 34:-0.967042 35:-0.972067 36:-0.908107 37:-1 38:-1 39:-1 40:-1 41:-0.865546 42:-1 43:-1 44:-1 45:-1 46:-1 47:-0.960396 48:-0.986395 49:-1 50:-1 51:-1 52:0.00114286 53:-1 54:-1 55:-0.961538 56:-0.9375 57:-0.967593 58:-0.995039 
8 1:-0.900047 2:-0.850134 3:-0.801724 4:-0.962883 5:-0.837045 6:-0.992395 7:-0.994923 8:-0.992395 9:-0.960279 10:-0.61194 11:-0.925251 12:0.84257 13:-0.886757 14:-0.935484 15:-0.966098 16:-0.935484 17:-0.935484 18:-0.932258 19:-0.892216 21:-0.738095 22:0.00840336 23:-0.97115 24:-1 25:-0.886757 26:-1 27:-0.945271 29:-0.832861 30:-0.879202 31:-0.776119 32:-0.92281 33:-0.810332 34:-0.92281 35:-0.782123 36:-0.769441 37:-0.998157 38:-0.904277 39:-0.998157 40:-1 41:-0.882353 42:-1 43:-0.933333 44:-1 45:-1 46:-1 47:-0.742574 48:-0.768707 49:-1 50:-0.976744 51:-1 52:0.0165666 53:-1 54:-1 55:-0.759615 56:-0.75 57:-0.583333 58:-0.971703 
8 1:-0.902518 2:-0.923283 3:-0.948276 4:-0.980594 5:-0.854066 6:-0.885932 7:-0.85512 8:-0.885932 9:-0.976786 10:-0.940299 11:-0.934603 12:0.877509 13:-0.901149 14:-0.935484 15:-0.935502 16:-0.935484 17:-0.935484 18:-0.954839 19:-0.88024 21:-0.875661 22:0.0928962 23:-0.973585 24:-1 25:-0.901149 26:-1 27:-0.987078 29:-0.915014 30:-0.93653 31:-0.940299 32:-0.938422 33:-0.712139 34:-0.938422 35:-0.905028 36:-0.83167 37:-0.999218 38:-0.922741 39:-0.999218 40:-1 41:-0.882353 42:-1 43:-1 44:-1 45:-0.925926 46:-1 47:-0.980198 48:-0.945578 49:-1 50:-1 51:-1 52:0.162529 53:-1 54:-1 55:-0.9375 56:-0.5 57:-0.87037 58:-0.984534 
-8 1:-0.90633 2:-0.963128 3:-0.956897 4:-0.984795 5:-0.878251 6:-0.946768 7:-0.913973 8:-0.946768 9:-0.976786 10:-0.910448 11:-0.934614 12:0.89035 13:-0.91132 14:-1 15:-1 16:-1 17:-1 18:-0.967742 19:-0.892216 21:-0.888889 22:0.0434783 23:-0.982106 24:-1 25:-0.91132 26:-1 27:-0.970999 29:-0.936261 30:-0.960075 31:-0.884861 32:-0.910668 33:-0.468647 34:-0.910668 35:-0.899441 36:-0.848598 37:-0.999832 38:-0.978935 39:-0.999832 40:-1 41:-0.932773 42:-1 43:-0.933333 44:-1 45:-1 46:-0.882353 47:-0.980198 48:-0.891156 49:-0.882353 50:-0.930233 51:-1 52:0.178882 53:-1 54:-1 55:-0.899038 56:-0.8125 57:-0.902778 58:-0.98736 
-8 1:-0.895167 2:-0.983943 3:-0.991379 4:-0.995235 5:-0.858831 6:-0.984791 7:-0.923919 8:-0.984791 9:-0.993294 10:-0.940299 11:-0.922399 12:0.86258 13:-0.898519 14:-1 15:-1 16:-1 17:-1 18:-0.990323 19:-0.988024 21:-0.970899 22:-0.428571 23:-0.989044 24:-1 25:-0.898519 26:-1 27:-0.993488 29:-0.981586 30:-0.988739 31:-0.972281 32:-0.980919 33:-0.648699 34:-0.980919 35:-0.98324 36:-0.918866 37:-0.999777 38:-0.913061 39:-0.999777 40:-1 41:-0.983193 42:-1 43:-1 44:-1 45:-0.925926 46:-1 47:-1 48:-0.986395 49:-1 50:-0.976744 51:-1 52:0.489796 53:-1 54:-1 55:-0.975962 56:-0.8125 57:-0.976852 58:-0.996053 
-8 1:-0.925769 2:-0.95956 3:-0.991379 4:-0.988877 5:-0.855977 6:-0.969582 7:-0.93315 8:-0.969582 9:-0.986072 10:-0.940299 11:-0.949907 12:0.872832 13:-0.923528 14:-0.935484 15:-0.888398 16:-0.935484 17:-0.935484 18:-0.974194 19:-0.988024 21:-0.915344 22:-0.0748299 23:-0.981862 24:-1 25:-0.923528 26:-1 27:-0.99083 29:-0.932011 30:-0.971677 31:-0.98081 32:-0.972246 33:-0.775509 34:-0.972246 35:-0.977654 36:-0.876262 37:-0.999609 38:-0.933159 39:-0.999609 40:-1 41:-0.932773 42:-1 43:-1 44:-1 45:-1 46:-1 47:-0.960396 48:-0.986395 49:-0.882353 50:-1 51:-1 52:0.0215743 53:-1 54:-1 55:-0.9375 56:-0.6875 57:-0.967593 58:-0.991367 
-8 1:-0.931855 2:-0.983348 3:-0.978448 4:-0.995217 5:-0.863096 6:-0.984791 7:-0.924195 8:-0.984791 9:-0.99381 10:-0.970149 11:-0.972377 12:0.926878 13:-0.932357 14:-0.935484 15:-0.746896 16:-0.935484 17:-0.935484 18:-0.974194 19:-0.988024 21:-0.960317 22:-0.111111 23:-0.991479 24:-1 25:-0.932357 26:-1 27:-0.98924 29:-0.967422 30:-0.987033 31:-0.987207 32:-0.985256 33:-0.729527 34:-0.985256 35:-0.988827 36:-0.919 37:-1 38:-1 39:-1 40:-1 41:-1 42:-1 43:-1 44:-1 45:-0.925926 46:-1 47:-1 48:-0.945578 49:-1 50:-1 51:-1 52:-0.130952 53:-1 54:-1 55:-0.975962 56:-0.875 57:-0.972222 58:-0.996065 
8 1:-0.888024 2:-0.940529 3:-0.943966 4:-0.983837 5:-0.826309 6:-0.977186 7:-0.965288 8:-0.977186 9:-0.980913 10:-0.910448 11:-0.927505 12:0.863179 13:-0.899048 14:-1 15:-1 16:-1 17:-1 18:-0.93871 19:-0.976048 21:-0.883598 22:0.0212766 23:-0.985027 24:-1 25:-0.899048 26:-1 27:-0.981426 29:-0.934844 30:-0.948473 31:-0.914712 32:-0.955768 33:-0.752291 34:-0.955768 35:-0.960894 36:-0.850794 37:-1 38:-1 39:-1 40:-1 41:-0.848739 42:-1 43:-0.933333 44:-0.714286 45:-0.703704 46:-1 47:-0.861386 48:-0.931973 49:-1 50:-0.930233 51:-1 52:0.198176 53:-1 54:-1 55:-0.894231 56:-0.75 57:-0.925926 58:-0.987706 
-8 1:-0.893481 2:-0.86738 3:-0.814655 4:-0.960752 5:-0.845623 6:-0.969582 7:-0.980789 8:-0.969582 9:-0.944287 10:-0.731343 11:-0.931042 12:0.878318 13:-0.896664 14:-1 15:-1 16:-1 17:-1 18:-0.877419 19:-0.868263 21:-0.743386 22:0.321534 23:-0.968472 24:-1 25:-0.896664 26:-1 27:-0.968735 29:-0.84136 30:-0.872718 31:-0.8742 32:-0.826539 33:-0.596802 34:-0.826539 35:-0.837989 36:-0.75968 37:-0.997152 38:-0.860055 39:-0.997152 40:-1 41:-0.613445 42:-1 43:-1 44:-1 45:-0.777778 46:-1 47:-0.940594 48:-0.959184 49:-1 50:-1 51:-1 52:-0.114033 53:-1 54:-1 55:-0.692308 56:-0.5625 57:-0.777778 58:-0.969342 
-8 1:-0.892484 2:-0.775795 3:-0.534483 4:-0.950163 5:-0.86928 6:-0.893536 7:-0.946986 8:-0.893536 9:-0.941192 10:-0.61194 11:-0.923277 12:0.878587 13:-0.885203 14:-0.967742 15:-0.987357 16:-0.967742 17:-0.967742 18:-0.806452 19:-0.60479 21:-0.690476 22:0.0945274 23:-0.953013 24:-1 25:-0.885203 26:-1 27:-0.962561 29:-0.811615 30:-0.863505 31:-0.782516 32:-0.89072 33:-0.799719 34:-0.89072 35:-0.648045 36:-0.72031 37:-0.999777 38:-0.991346 39:-0.999777 40:-1 41:-0.798319 42:-1 43:-0.933333 44:-1 45:-0.777778 46:-0.411765 47:-0.762376 48:-0.918367 49:-0.411765 50:-0.627907 51:-1 52:0.0584222 53:-1 54:-1 55:-0.432692 56:-0.5 57:-0.717593 58:-0.95886 
-8 1:-0.872881 2:-0.842997 3:-0.87931 4:-0.931289 5:-0.786832 6:-0.467681 7:-0.807511 8:-0.467681 9:-0.94016 10:-0.850746 11:-0.910096 12:0.812331 13:-0.8822 14:-0.935484 15:-0.981637 16:-0.935484 17:-0.935484 18:-0.912903 19:-0.820359 21:-0.626984 22:-0.087344 23:-0.963603 24:-1 25:-0.8822 26:-1 27:-0.948348 29:-0.736544 30:-0.817437 31:-0.686567 32:-0.752819 33:-0.671026 34:-0.752819 35:-0.826816 36:-0.697626 37:-0.998771 38:-0.965435 39:-0.998771 40:-1 41:-0.848739 42:-1 43:-0.933333 44:-1 45:-0.777778 46:-1 47:-0.663366 48:-0.836735 49:-1 50:-0.883721 51:-1 52:0.19343 53:-1 54:-1 55:-0.596154 56:-0.5 57:-0.722222 58:-0.952123 
8 1:-0.888821 2:-0.912578 3:-0.939655 4:-0.960456 5:-0.854391 6:-0.969582 7:-0.980932 8:-0.969582 9:-0.977818 10:-0.940299 11:-0.916005 12:0.853668 13:-0.903805 14:-0.870968 15:-0.936336 16:-0.870968 17:-0.870968 18:-0.941935 19:-0.916168 21:-0.806878 22:-0.390476 23:-0.944979 24:-1 25:-0.903805 26:-1 27:-0.939378 29:-0.852691 30:-0.931752 31:-0.852878 32:-0.928014 33:-0.833918 34:-0.928014 35:-0.927374 36:-0.757035 37:-0.997766 38:-0.891056 39:-0.997766 40:-1 41:-0.94958 42:-1 43:-1 44:-1 45:-0.925926 46:-0.882353 47:-0.90099 48:-0.931973 49:-0.882353 50:-0.953488 51:-1 52:0.50966 53:-1 54:-1 55:-0.841346 56:-0.75 57:-0.851852 58:-0.968686 
8 1:-0.913054 2:-0.999405 3:-1 4:-0.999662 5:-0.851076 6:-0.992395 7:-0.658879 8:-0.992395 9:-0.999484 10:-1 11:-0.909761 12:0.786568 13:-0.961532 14:-1 15:-1 16:-1 17:-1 18:-1 19:-1 21:-0.997354 22:0.333333 23:-0.997931 24:-1 25:-0.961532 26:-1 27:-1 29:-0.998584 30:-0.999318 31:-1 32:-0.998265 33:-0.713616 34:-0.998265 35:-1 36:-0.979069 37:-1 38:-1 39:-1 40:-1 41:-1 42:-1 43:-1 44:-1 45:-1 46:-1 47:-1 48:-1 49:-1 50:-1 51:-1 52:0.0428571 53:-1 54:-1 55:-1 56:-1 57:-1 58:-0.999606 
0.6625758377789693 1:-0.283802 2:0.299435 3:-0.5 4:0.454171 5:-0.883772 6:-0.893536 7:-0.998175 8:-0.893536 9:0.35414 10:-0.492537 11:-0.301063 12:0.278981 13:-0.262881 14:-0.709677 15:-0.996084 16:-0.709677 17:-0.709677 18:0.477419 19:-0.353293 21:0.103175 22:-0.66324 23:0.735119 24:-1 25:-0.262881 26:-1 27:0.00380163 29:-0.0368272 30:0.407951 31:-0.098081 32:-0.875976 33:-0.992177 34:-0.875976 35:-0.435754 36:0.700069 37:0.412432 38:0.883218 39:0.412432 40:-1 41:-0.512605 42:-1 43:-0.666667 44:-0.714286 45:-0.555556 46:-0.764706 47:-0.782178 48:-0.414966 49:-0.647059 50:-0.813953 51:-1 52:0.82232 53:-1 54:-1 55:0.298077 56:-0.4375 57:-0.287037 58:0.447264 
8 1:-0.920531 2:-0.864407 3:-0.793103 4:-0.960614 5:-0.873579 6:-0.893536 7:-0.932997 8:-0.893536 9:-0.956668 10:-0.880597 11:-0.949915 12:0.899945 13:-0.921458 14:-1 15:-1 16:-1 17:-1 18:-0.86129 19:-0.928144 21:-0.708995 22:-0.159817 23:-0.964334 24:-1 25:-0.921458 26:-1 27:-0.971479 29:-0.794618 30:-0.910254 31:-0.842217 32:-0.843886 33:-0.638383 34:-0.843886 35:-0.810056 36:-0.752674 37:-0.997878 38:-0.89609 39:-0.997878 40:-1 41:-0.781513 42:-1 43:-0.933333 44:-1 45:-0.407407 46:-0.882353 47:-0.861386 48:-0.904762 49:-0.882353 50:-0.837209 51:-0.666667 52:0.128571 53:-1 54:-1 55:-0.826923 56:-0.5 57:-0.773148 58:-0.967589 
-8 1:-0.917774 2:-0.860839 3:-0.836207 4:-0.966228 5:-0.880067 6:-0.961977 7:-0.972118 8:-0.961977 9:-0.96389 10:-0.940299 11:-0.945035 12:0.897835 13:-0.910375 14:-1 15:-1 16:-1 17:-1 18:-0.922581 19:-0.772455 21:-0.719577 22:0.002849 23:-0.972368 24:-1 25:-0.910375 26:-1 27:-0.966813 29:-0.835694 30:-0.886709 31:-0.692964 32:-0.888985 33:-0.700381 34:-0.888985 35:-0.776536 36:-0.770096 37:-0.998157 38:-0.894859 39:-0.998157 40:-1 41:-0.89916 42:-1 43:-1 44:-1 45:-0.925926 46:-0.647059 47:-0.80198 48:-0.70068 49:-0.647059 50:-0.883721 51:-1 52:0.0339438 53:-1 54:-1 55:-0.735577 56:-0.625 57:-0.865741 58:-0.971858 
8 1:-0.870809 2:-0.885816 3:-0.952586 4:-0.974162 5:-0.816738 6:-1 7:-1 8:-1 9:-0.965437 10:-0.791045 11:-0.905171 12:0.827651 13:-0.879396 14:-1 15:-1 16:-1 17:-1 18:-0.932258 19:-0.88024 21:-0.843915 22:-0.026455 23:-0.97322 24:-1 25:-0.879396 26:-1 27:-1 29:-0.912181 30:-0.917761 31:-0.901919 32:-1 33:-1 34:-1 35:-0.932961 36:-0.811896 37:-1 38:-1 39:-1 40:-1 41:-0.831933 42:-1 43:-1 44:-1 45:-0.925926 46:-0.882353 47:-0.841584 48:-0.972789 49:-1 50:-0.790698 51:-1 52:-0.0399093 53:-1 54:-1 55:-0.802885 56:-1 57:-0.925926 58:-0.980873 
-8 1:-0.887305 2:-0.909605 3:-0.952586 4:-0.959139 5:-0.797017 6:-0.969582 7:-0.981544 8:-0.969582 9:-0.961826 10:-0.940299 11:-0.896191 12:0.754743 13:-0.86806 14:-1 15:-1 16:-1 17:-1 18:-0.983871 19:-0.976048 21:-0.793651 22:-0.229167 23:-0.945587 24:-1 25:-0.86806 26:-1 27:-0.918269 29:-0.820113 30:-0.911278 31:-0.940299 32:-0.966175 33:-0.924462 34:-0.966175 35:-0.98324 36:-0.768587 37:-1 38:-1 39:-1 40:-1 41:-1 42:-1 43:-1 44:-1 45:-1 46:-1 47:-0.881188 48:-0.918367 49:-1 50:-1 51:-1 52:0.319866 53:-1 54:-1 55:-0.908654 56:-0.875 57:-0.953704 58:-0.9715 
8 1:-0.873256 2:-0.952423 3:-0.965517 4:-0.986205 5:-0.818718 6:-0.91635 7:-0.851214 8:-0.91635 9:-0.981429 10:-0.970149 11:-0.903302 12:0.819575 13:-0.86886 14:-1 15:-1 16:-1 17:-1 18:-0.948387 19:-0.964072 21:-0.925926 22:-0.161905 23:-0.983932 24:-1 25:-0.86886 26:-1 27:-0.994628 29:-0.951841 30:-0.961781 31:-0.955224 32:-0.965308 33:-0.772888 34:-0.965308 35:-0.932961 36:-0.863177 37:-0.999944 38:-0.992272 39:-0.999944 40:-1 41:-0.932773 42:-1 43:-0.933333 44:-1 45:-0.777778 46:-1 47:-0.940594 48:-0.945578 49:-1 50:-0.976744 51:-1 52:0.132245 53:-1 54:-1 55:-0.894231 56:-0.75 57:-0.930556 58:-0.989566 
-8 1:-0.861843 2:-0.997026 3:-1 4:-0.998341 5:-0.849226 6:-0.992395 7:-0.899032 8:-0.992395 9:-0.998968 10:-1 11:-0.890705 12:0.831159 13:-0.872522 14:-1 15:-1 16:-1 17:-1 18:-0.996774 19:-0.976048 21:-0.992063 22:1 23:-0.995374 24:-1 25:-0.872522 26:-1 27:-0.998652 29:-0.995751 30:-0.994881 31:-0.991471 32:-0.987858 33:-0.406635 34:-0.987858 35:-0.988827 36:-0.953444 37:-1 38:-1 39:-1 40:-1 41:-1 42:-1 43:-1 44:-1 45:-1 46:-1 47:-1 48:-1 49:-1 50:-1 51:-1 52:-0.478571 53:-1 54:-1 55:-0.995192 56:-0.875 57:-0.99537 58:-0.998533 
8 1:-0.932503 2:-0.986322 3:-0.982759 4:-0.995962 5:-0.873984 6:-0.977186 7:-0.866382 8:-0.977186 9:-0.995357 10:-1 11:-0.954898 12:0.888649 13:-0.920081 14:-1 15:-1 16:-1 17:-1 18:-0.993548 19:-1 21:-0.957672 22:-0.0175439 23:-0.991722 24:-1 25:-0.920081 26:-1 27:-0.995893 29:-0.974504 30:-0.988057 31:-0.96162 32:-0.988725 33:-0.75695 34:-0.988725 35:-0.994413 36:-0.925267 37:-0.999944 38:-0.974552 39:-0.999944 40:-1 41:-0.94958 42:-1 43:-1 44:-1 45:-1 46:-1 47:-1 48:-0.918367 49:-1 50:-1 51:-1 52:-0.0120301 53:-1 54:-1 55:-0.985577 56:-0.6875 57:-0.972222 58:-0.996602 
8 1:-0.867607 2:-0.947666 3:-0.909483 4:-0.978462 5:-0.852602 6:-0.870722 7:-0.851892 8:-0.870722 9:-0.971112 10:-0.940299 11:-0.9052 12:0.86252 13:-0.860571 14:-1 15:-1 16:-1 17:-1 18:-0.954839 19:-0.928144 21:-0.883598 22:-0.292517 23:-0.944735 24:-1 25:-0.860571 26:-1 27:-0.974679 29:-0.932011 30:-0.951544 31:-0.846482 32:-0.893322 33:-0.550174 34:-0.893322 35:-0.916201 36:-0.819252 37:-0.99933 38:-0.940266 39:-0.99933 40:-1 41:-0.983193 42:-1 43:-1 44:-1 45:-0.925926 46:-1 47:-0.90099 48:-0.931973 49:-1 50:-0.930233 51:-1 52:0.362099 53:-1 54:-1 55:-0.889423 56:-0.6875 57:-0.921296 58:-0.98228 
-8 1:-0.891063 2:-0.58311 3:-0.288793 4:-0.894863 5:-0.845976 6:-0.847909 7:-0.964018 8:-0.847909 9:-0.884447 10:-0.522388 11:-0.913384 12:0.835392 13:-0.878375 14:-0.903226 15:-0.981979 16:-0.903226 17:-0.903226 18:-0.809677 19:-0.712575 21:-0.306878 22:-0.0807736 23:-0.936579 24:-1 25:-0.878375 26:-1 27:-0.961364 29:-0.586402 30:-0.706193 31:-0.47548 32:-0.633998 33:-0.681305 34:-0.633998 35:-0.346369 36:-0.601797 37:-0.993745 38:-0.884872 39:-0.993745 40:-1 41:-0.428571 42:-0.5 43:-0.933333 44:-1 45:-0.925926 46:-0.764706 47:-0.70297 48:-0.687075 49:-0.764706 50:-0.837209 51:0.333333 52:0.0748903 53:-1 54:-1 55:-0.432692 57:-0.384259 58:-0.918031 
-8 1:-0.888422 2:-0.969075 3:-0.991379 4:-0.993086 5:-0.836224 6:-0.977186 7:-0.920277 8:-0.977186 9:-0.990199 10:-0.970149 11:-0.93373 12:0.887536 13:-0.910044 14:-1 15:-1 16:-1 17:-1 18:-0.990323 19:-0.976048 21:-0.955026 22:0.2 23:-0.98941 24:-1 25:-0.910044 26:-1 27:-0.994185 29:-0.973088 30:-0.981914 31:-0.978678 32:-0.984389 33:-0.799208 34:-0.984389 35:-0.955307 36:-0.903196 37:-1 38:-1 39:-1 40:-1 41:-0.915966 42:-1 43:-1 44:-1 45:-1 46:-1 47:-1 48:-0.972789 49:-1 50:-0.953488 51:-1 52:-0.0614286 53:-1 54:-1 55:-0.947115 56:-0.6875 57:-0.949074 58:-0.994539 
4.253886320383822 1:-0.883211 2:-0.779958 3:-0.616379 4:-0.935317 5:-0.814775 6:-0.642586 7:-0.862738 8:-0.642586 9:-0.924168 10:-0.432836 11:-0.925691 12:0.857948 13:-0.891784 14:-0.806452 15:-0.941493 16:-0.806452 17:-0.806452 18:-0.829032 19:-0.712575 21:-0.587302 22:0.142857 23:-0.962751 24:-1 25:-0.891784 26:-1 27:-0.962121 29:-0.743626 30:-0.81266 31:-0.671642 32:-0.861232 33:-0.803853 34:-0.861232 35:-0.614525 36:-0.698478 37:-0.994471 38:-0.834806 39:-0.994471 40:-1 41:-0.630252 42:-1 43:-1 44:-0.714286 45:-0.925926 46:-0.764706 47:-0.841584 48:-0.836735 49:-0.764706 50:-0.813953 51:-1 52:-0.00298273 53:-1 54:-1 55:-0.538462 56:-0.375 57:-0.615741 58:-0.952385 
-8 1:-0.886893 2:-0.992864 3:-1 4:-0.997845 5:-0.874535 6:-0.984791 7:-0.840263 8:-0.984791 9:-0.996389 10:-1 11:-0.909348 12:0.85555 13:-0.879002 14:-1 15:-1 16:-1 17:-1 18:-0.993548 19:-1 21:-0.986772 22:-0.111111 23:-0.992209 24:-1 25:-0.879002 26:-1 27:-0.997441 29:-0.992918 30:-0.994881 31:-0.985075 32:-0.987858 33:-0.530632 34:-0.987858 35:-0.988827 36:-0.945118 37:-0.999777 38:-0.817466 39:-0.999777 40:-1 41:-0.983193 42:-1 43:-1 44:-1 45:-1 46:-1 47:-1 48:-1 49:-1 50:-1 51:-1 52:0.0428571 53:-1 54:-1 55:-0.971154 56:-0.875 57:-0.981481 58:-0.998044 
8 1:-0.898483 2:-0.76747 3:-0.564655 4:-0.941891 5:-0.871094 6:-0.992395 7:-0.99675 8:-0.992395 9:-0.915399 10:-0.58209 11:-0.934786 12:0.899911 13:-0.901527 14:-0.741935 15:-0.913198 16:-0.741935 17:-0.741935 18:-0.822581 19:-0.688623 21:-0.616402 22:-0.0243902 23:-0.959221 24:-1 25:-0.901527 26:-1 27:-0.96217 29:-0.769122 30:-0.809589 31:-0.454158 32:-0.925412 33:-0.882688 34:-0.925412 35:-0.575419 36:-0.698362 37:-0.997096 38:-0.903451 39:-0.997096 40:-1 41:-0.596639 42:-1 43:-1 44:-0.428571 45:-0.851852 46:-0.882353 47:-0.821782 48:-0.782313 49:-0.764706 50:-0.813953 51:-1 52:0.0937282 53:-1 54:-1 55:-0.5 56:-0.4375 57:-0.25 58:-0.95235 
8 1:-0.919337 2:-0.957776 3:-0.952586 4:-0.986706 5:-0.862335 6:-0.984791 7:-0.971945 8:-0.984791 9:-0.977818 10:-0.940299 11:-0.955775 12:0.908351 13:-0.925685 14:-1 15:-1 16:-1 17:-1 18:-0.903226 19:-1 21:-0.888889 22:-0.163399 23:-0.97955 24:-1 25:-0.925685 26:-1 27:-0.985822 29:-0.929178 30:-0.961099 31:-0.910448 32:-0.939289 33:-0.587814 34:-0.939289 35:-0.960894 36:-0.861613 37:-1 38:-1 39:-1 40:-1 41:-0.966387 42:-1 43:-1 44:-1 45:-0.777778 46:-1 47:-0.90099 48:-0.755102 49:-1 50:-0.953488 51:-1 52:-0.0184874 53:-1 54:-1 55:-0.961538 56:-0.6875 57:-0.953704 58:-0.98934 
-2.663179316765286 1:-0.886378 2:-0.292299 3:-0.443966 4:-0.769742 5:-0.776831 6:0.239544 7:-0.865949 8:0.239544 9:-0.7431 10:0.522388 11:-0.929245 12:0.828244 13:-0.899742 14:-0.0645161 15:-0.920369 16:-0.0645161 17:-0.0645161 18:-0.506452 19:-0.772455 21:0.497354 22:-0.022111 23:-0.932441 24:-1 25:-0.899742 26:-1 27:-0.893331 29:0.130312 30:-0.478246 31:-0.724947 32:-0.0477016 33:-0.620953 34:-0.0477016 35:-0.664804 36:-0.446451 37:-0.986262 38:-0.884409 39:-0.986262 40:-1 41:0.647059 42:-1 43:-0.933333 44:-1 45:-0.481481 46:-1 47:0.168317 48:-0.918367 49:-1 50:-0.581395 51:-0.666667 52:0.0493832 53:-1 54:-1 55:0.0817308 56:-0.1875 57:-0.087963 58:-0.843419 
8 1:-0.900015 2:-0.754981 3:-0.551724 4:-0.927636 5:-0.838743 6:-0.840304 7:-0.94516 8:-0.840304 9:-0.885994 10:-0.61194 11:-0.931889 12:0.86208 13:-0.903504 14:-0.83871 15:-0.956404 16:-0.83871 17:-0.83871 18:-0.86129 19:-0.856287 21:-0.507937 22:0.141194 23:-0.961899 24:-1 25:-0.903504 26:-1 27:-0.947337 29:-0.677054 30:-0.828016 31:-0.801706 32:-0.920208 33:-0.89915 34:-0.920208 35:-0.748603 36:-0.675114 37:-0.998213 38:-0.952254 39:-0.998213 40:-1 41:-0.512605 42:-1 43:-0.866667 44:-1 45:-0.703704 46:-0.882353 47:-0.544554 48:-0.755102 49:-0.882353 50:-0.604651 51:-1 52:-0.0436681 53:-1 54:-1 55:-0.399038 56:-0.5 57:-0.648148 58:-0.944933 
3.542052227507472 1:-0.932592 2:-0.12697 3:0.616379 4:-0.72999 5:-0.852245 6:-0.224335 7:-0.928455 8:-0.224335 9:-0.727624 10:-0.164179 11:-0.95427 12:0.864554 13:-0.924202 14:-0.645161 15:-0.974238 16:-0.645161 17:-0.645161 18:-0.141935 19:0.101796 21:1 22:-0.0714791 23:-0.916494 24:-1 25:-0.924202 26:-1 27:-0.795831 29:1 30:-0.379628 31:0.484009 32:-0.666088 33:-0.886644 34:-0.666088 35:0.581006 36:-0.369436 37:-0.975874 38:-0.826872 39:-0.975874 40:-1 41:0.579832 42:-0.625 43:-0.2 44:-0.142857 45:0.925926 46:-0.294118 47:0.128713 48:-0.278912 49:-0.176471 50:0.209302 51:-0.666667 52:0.26058 53:-1 54:-1 55:1 56:-0.5 57:0.722222 58:-0.797558 
-8 1:-0.895192 2:-0.911983 3:-0.633621 4:-0.961775 5:-0.815523 6:-0.81749 7:-0.88167 8:-0.81749 9:-0.947382 10:-0.850746 11:-0.924994 12:0.833006 13:-0.886164 14:-1 15:-1 16:-1 17:-1 18:-0.890323 19:-0.892216 21:-0.730159 22:0.015873 23:-0.971759 24:-1 25:-0.886164 26:-1 27:-0.981133 29:-0.822946 30:-0.893534 31:-0.897655 32:-0.921943 33:-0.813733 34:-0.921943 35:-0.815642 36:-0.770298 37:-0.999497 38:-0.974647 39:-0.999497 40:-1 41:-0.781513 42:-1 43:-0.933333 44:-1 45:-0.703704 46:-1 47:-0.861386 48:-0.823129 49:-1 50:-0.790698 51:-1 52:0.00975057 53:-1 54:-1 55:-0.735577 56:-0.3125 57:-0.726852 58:-0.971906 
8 1:-0.946673 2:-0.91912 3:-0.849138 4:-0.96951 5:-0.877212 6:-0.855513 7:-0.882726 8:-0.855513 9:-0.964921 10:-0.731343 11:-0.967765 12:0.89196 13:-0.938051 14:-0.870968 15:-0.917565 16:-0.870968 17:-0.870968 18:-0.893548 19:-1 21:-0.743386 22:-0.184801 23:-0.976506 24:-1 25:-0.938051 26:-1 27:-0.983569 29:-0.728045 30:-0.933117 31:-0.916844 32:-0.901127 33:-0.704633 34:-0.901127 35:-0.921788 36:-0.785311 37:-0.999442 38:-0.964734 39:-0.999442 40:-1 41:-0.848739 42:-1 43:-1 44:-1 45:-0.777778 46:-1 47:-0.821782 48:-0.836735 49:-1 50:-0.906977 51:-1 52:0.307624 53:-1 54:-1 55:-0.807692 56:-0.3125 57:-0.856481 58:-0.97534 
-8 1:-0.89785 2:-0.96967 3:-0.943966 4:-0.990019 5:-0.867487 6:-0.931559 7:-0.832739 8:-0.931559 9:-0.99381 10:-1 11:-0.930662 12:0.886976 13:-0.901492 14:-0.903226 15:-0.813845 16:-0.903226 17:-0.903226 18:-0.993548 19:-0.952096 21:-0.941799 22:-0.264368 23:-0.976993 24:-1 25:-0.901492 26:-1 27:-0.98497 29:-0.96034 30:-0.970653 31:-0.940299 32:-0.930616 33:-0.375905 34:-0.930616 35:-0.960894 36:-0.87874 37:-1 38:-1 39:-1 40:-1 41:-0.966387 42:-1 43:-1 44:-1 45:-1 46:-1 47:-1 48:-0.959184 49:-1 50:-0.976744 51:-1 52:0.22266 53:-1 54:-1 55:-0.966346 56:-0.75 57:-0.962963 58:-0.991689 
8 1:-0.897186 2:-0.961939 3:-0.918103 4:-0.982144 5:-0.805682 6:-0.870722 7:-0.821721 8:-0.870722 9:-0.980397 10:-0.910448 11:-0.926422 12:0.824039 13:-0.891536 14:-0.870968 15:-0.85994 16:-0.870968 17:-0.870968 18:-0.970968 19:-1 21:-0.888889 22:-0.0416667 23:-0.978698 24:-1 25:-0.891536 26:-1 27:-0.986081 29:-0.910765 30:-0.967582 31:-0.959488 32:-0.901127 33:-0.49816 34:-0.901127 35:-0.955307 36:-0.847101 37:-0.99866 38:-0.856196 39:-0.99866 40:-1 41:-0.915966 42:-1 43:-0.866667 44:-1 45:-1 46:-1 47:-0.960396 48:-0.931973 49:-1 50:-1 51:-1 52:0.108036 53:-1 54:-1 55:-0.903846 56:-0.625 57:-0.939815 58:-0.987122 
8 1:-0.892603 2:-0.802557 3:-0.741379 4:-0.921303 5:-0.855124 6:-0.726236 7:-0.913533 8:-0.726236 9:-0.902502 10:-0.701493 11:-0.9188 12:0.854664 13:-0.895652 14:-0.870968 15:-0.967922 16:-0.870968 17:-0.870968 18:-0.864516 19:-0.808383 21:-0.5 22:-0.262673 23:-0.920755 24:-1 25:-0.895652 26:-1 27:-0.960968 29:-0.694051 30:-0.799693 31:-0.513859 32:-0.756288 33:-0.716688 34:-0.756288 35:-0.72067 36:-0.653724 37:-0.994583 38:-0.866885 39:-0.994583 40:-1 41:-0.630252 42:-1 43:-0.933333 44:-1 45:-0.777778 46:-1 47:-0.544554 48:-0.714286 49:-0.882353 50:-0.883721 51:-1 52:0.278341 53:-1 54:-1 55:-0.586538 56:-0.25 57:-0.712963 58:-0.937635 
-8 1:-0.89075 2:-0.964318 3:-0.926724 4:-0.98082 5:-0.839044 6:-0.992395 7:-0.990229 8:-0.992395 9:-0.985556 10:-0.940299 11:-0.927728 12:0.869129 13:-0.905741 14:-0.967742 15:-0.967375 16:-0.967742 17:-0.967742 18:-0.964516 19:-0.988024 21:-0.896825 22:-0.333333 23:-0.966281 24:-0.971821 25:-0.905741 26:-0.971821 27:-0.97498 29:-0.922096 30:-0.962805 31:-0.886994 32:-0.891587 33:-0.4873 34:-0.891587 35:-0.955307 36:-0.833447 37:-0.999665 38:-0.966503 39:-0.999665 40:-0.6 41:-0.966387 42:-1 43:-1 44:-1 45:-0.851852 46:-1 47:-0.920792 48:-0.945578 49:-1 50:-0.976744 51:-1 52:0.452551 53:-0.971821 54:-1 55:-0.903846 56:-0.75 57:-0.847222 58:-0.984844 
8 1:-0.918875 2:-0.986322 3:-0.99569 4:-0.995737 5:-0.833893 6:-1 7:-1 8:-1 9:-0.994841 10:-1 11:-0.951462 12:0.871081 13:-0.918918 14:-1 15:-1 16:-1 17:-1 18:-1 19:-0.952096 21:-0.973545 22:0.2 23:-0.991966 24:-1 25:-0.918918 26:-1 27:-0.998789 29:-0.973088 30:-0.98908 31:-0.970149 32:-0.988725 33:-0.769201 34:-0.988725 35:-0.938547 36:-0.926431 37:-1 38:-1 39:-1 40:-1 41:-1 42:-1 43:-1 44:-1 45:-1 46:-1 47:-0.980198 48:-0.986395 49:-1 50:-0.976744 51:-1 52:0.0428571 53:-1 54:-1 55:-0.975962 56:-0.9375 57:-0.958333 58:-0.996697 
8 1:-0.896547 2:-0.983943 3:-0.987069 4:-0.995651 5:-0.858611 6:-0.984791 7:-0.916998 8:-0.984791 9:-0.994841 10:-0.910448 11:-0.934748 12:0.893229 13:-0.912095 14:-1 15:-1 16:-1 17:-1 18:-0.974194 19:-0.988024 21:-0.968254 22:-0.384615 23:-0.993183 24:-1 25:-0.912095 26:-1 27:-0.991686 29:-0.983003 30:-0.986009 31:-0.982942 32:-0.98699 33:-0.738689 34:-0.98699 35:-0.977654 36:-0.922846 37:-1 38:-1 39:-1 40:-1 41:-0.966387 42:-1 43:-1 44:-1 45:-1 46:-0.882353 47:-0.980198 48:-0.945578 49:-0.882353 50:-0.976744 51:-1 52:0.123077 53:-1 54:-1 55:-0.975962 56:-0.8125 57:-0.958333 58:-0.996399 
8 1:-0.874481 2:-0.962533 3:-0.909483 4:-0.969302 5:-0.860418 6:-0.954373 7:-0.963215 8:-0.954373 9:-0.972659 10:-0.910448 11:-0.903673 12:0.85191 13:-0.872647 14:-0.935484 15:-0.95906 16:-0.935484 17:-0.935484 18:-0.893548 19:-0.976048 21:-0.857143 22:-0.573333 23:-0.926111 24:-1 25:-0.872647 26:-1 27:-0.979226 29:-0.895184 30:-0.95871 31:-0.944563 32:-0.954033 33:-0.863603 34:-0.954033 35:-0.949721 36:-0.777891 37:-1 38:-1 39:-1 40:-1 41:-0.932773 42:-1 43:-0.933333 44:-1 45:-0.555556 46:-1 47:-0.940594 48:-0.891156 49:-1 50:-0.976744 51:-1 52:0.640762 53:-1 54:-1 55:-0.956731 56:-0.4375 57:-0.856481 58:-0.973671 
8 1:-0.919026 2:-0.974428 3:-0.952586 4:-0.992029 5:-0.866809 6:-0.977186 7:-0.930564 8:-0.977186 9:-0.988651 10:-0.970149 11:-0.950733 12:0.899286 13:-0.92839 14:-1 15:-1 16:-1 17:-1 18:-0.964516 19:-0.892216 21:-0.94709 22:-0.0222222 23:-0.986853 24:-1 25:-0.92839 26:-1 27:-0.984173 29:-0.958924 30:-0.975431 31:-0.925373 32:-0.97745 33:-0.747394 34:-0.97745 35:-0.921788 36:-0.893794 37:-1 38:-1 39:-1 40:-1 41:-1 42:-1 43:-0.933333 44:-1 45:-1 46:-0.882353 47:-0.960396 48:-0.972789 49:-0.882353 50:-0.953488 51:-1 52:0.251429 53:-1 54:-1 55:-0.927885 56:-0.8125 57:-0.972222 58:-0.993513 
8 1:-0.875273 2:-0.818614 3:-0.775862 4:-0.926639 5:-0.786211 6:-0.551331 7:-0.848013 8:-0.551331 9:-0.914883 10:-0.552239 11:-0.907472 12:0.800011 13:-0.88679 14:-0.83871 15:-0.956994 16:-0.83871 17:-0.83871 18:-0.758065 19:-0.952096 21:-0.55291 22:-0.0764228 23:-0.95983 24:-1 25:-0.88679 26:-1 27:-0.960907 29:-0.711048 30:-0.825968 31:-0.837953 32:-0.763226 33:-0.704794 34:-0.763226 35:-0.709497 36:-0.688589 37:-0.99475 38:-0.861647 39:-0.99475 40:-1 41:-0.512605 42:-1 43:-0.8 44:-0.714286 45:-0.851852 46:-1 47:-0.742574 48:-0.85034 49:-1 50:-0.953488 51:-1 52:0.241254 53:-1 54:-1 55:-0.735577 56:-0.3125 57:-0.643519 58:-0.949297 
8 1:-0.919665 2:-0.96967 3:-0.982759 4:-0.99421 5:-0.859108 6:-1 7:-1 8:-1 9:-0.99381 10:-0.910448 11:-0.959043 12:0.913635 13:-0.932585 14:-1 15:-1 16:-1 17:-1 18:-0.983871 19:-1 21:-0.957672 22:0.0434783 23:-0.98941 24:-1 25:-0.932585 26:-1 27:-0.989288 29:-0.968839 30:-0.979184 31:-0.991471 32:-0.985256 33:-0.774878 34:-0.985256 35:-0.994413 36:-0.911272 37:-1 38:-1 39:-1 40:-1 41:-0.915966 42:-1 43:-1 44:-1 45:-0.851852 46:-1 47:-0.980198 48:-1 49:-1 50:-1 51:-1 52:-0.183851 53:-1 54:-1 55:-0.951923 56:-0.875 57:-0.962963 58:-0.995349 
0.957377333020614 1:-0.901346 2:-0.760333 3:-0.418103 4:-0.928213 5:-0.852754 6:-0.931559 7:-0.976309 8:-0.931559 9:-0.928295 10:-0.373134 11:-0.927462 12:0.859336 13:-0.890324 14:-1 15:-1 16:-1 17:-1 18:-0.735484 19:-0.580838 21:-0.539683 22:-0.0545455 23:-0.946561 24:-1 25:-0.890324 26:-1 27:-0.95786 29:-0.689802 30:-0.798328 31:-0.375267 32:-0.939289 33:-0.922652 34:-0.939289 35:-0.452514 36:-0.671384 37:-0.995532 38:-0.87968 39:-0.995532 40:-1 41:-0.781513 42:-1 43:-0.533333 44:-1 45:-0.777778 46:-1 47:-0.821782 48:-0.836735 49:-1 50:-0.697674 51:-1 52:0.213506 53:-1 54:-1 55:-0.322115 56:-0.375 57:-0.555556 58:-0.943693 
-8 1:-0.910373 2:-0.903657 3:-0.801724 4:-0.969746 5:-0.877418 6:-1 7:-1 8:-1 9:-0.954088 10:-0.880597 11:-0.944898 12:0.909728 13:-0.907789 14:-0.967742 15:-0.979231 16:-0.967742 17:-0.967742 18:-0.906452 19:-0.844311 21:-0.806878 22:-0.0277778 23:-0.969446 24:-1 25:-0.907789 26:-1 27:-0.971933 29:-0.865439 30:-0.879884 31:-0.599147 32:-0.888118 33:-0.663177 34:-0.888118 35:-0.787709 36:-0.78354 37:-0.99933 38:-0.957353 39:-0.99933 40:-1 41:-0.966387 42:-1 43:-0.933333 44:-1 45:-1 46:-1 47:-0.861386 48:-0.741497 49:-1 50:-0.953488 51:-1 52:0.021131 53:-1 54:-1 55:-0.831731 56:-0.625 57:-0.800926 58:-0.974947 
-8 1:-0.917597 2:-0.994648 3:-0.99569 4:-0.997489 5:-0.823422 6:-0.992395 7:-0.930542 8:-0.992395 9:-0.998452 10:-0.970149 11:-0.959478 12:0.885131 13:-0.934193 14:-1 15:-1 16:-1 17:-1 18:-0.993548 19:-1 21:-0.981481 22:0.230769 23:-0.995496 24:-1 25:-0.934193 26:-1 27:-0.997013 29:-0.983003 30:-0.993858 31:-0.989339 32:-0.994796 33:-0.825063 34:-0.994796 35:-0.988827 36:-0.944928 37:-1 38:-1 39:-1 40:-1 41:-0.983193 42:-1 43:-1 44:-1 45:-1 46:-1 47:-0.980198 48:-0.972789 49:-1 50:-1 51:-1 52:-0.0373626 53:-1 54:-1 55:-0.990385 56:-0.875 57:-0.976852 58:-0.998032 
-8 1:-0.904016 2:-0.988701 3:-0.978448 4:-0.994846 5:-0.841001 6:-0.977186 7:-0.894152 8:-0.977186 9:-0.993294 10:-1 11:-0.930343 12:0.85186 13:-0.894062 14:-0.967742 15:-0.882195 16:-0.967742 17:-0.967742 18:-0.980645 19:-0.976048 21:-0.962963 22:0.185185 23:-0.989166 24:-1 25:-0.894062 26:-1 27:-0.992985 29:-0.975921 30:-0.985668 31:-0.944563 32:-0.987858 33:-0.792652 34:-0.987858 35:-0.977654 36:-0.917007 37:-0.999888 38:-0.959682 39:-0.999888 40:-1 41:-1 42:-1 43:-1 44:-1 45:-1 46:-0.882353 47:-0.980198 48:-0.931973 49:-0.882353 50:-0.976744 51:-1 52:-0.0730159 53:-1 54:-1 55:-0.975962 56:-0.75 57:-0.967593 58:-0.995886 
-8 1:-0.929049 2:-0.831103 3:-0.836207 4:-0.947606 5:-0.899043 6:-1 7:-1 8:-1 9:-0.934485 10:-0.791045 11:-0.953613 12:0.914932 13:-0.92314 14:-0.870968 15:-0.951885 16:-0.870968 17:-0.870968 18:-0.854839 19:-0.868263 21:-0.592593 22:0.023569 23:-0.961534 24:-1 25:-0.92314 26:-1 27:-0.922071 29:-0.720963 30:-0.833817 31:-0.537313 32:-0.85863 33:-0.753501 34:-0.85863 35:-0.75419 36:-0.705065 37:-0.997599 38:-0.911489 39:-0.997599 40:-1 41:-0.663866 42:-1 43:-0.933333 44:-1 45:-0.925926 46:-1 47:-0.861386 48:-0.85034 49:-1 50:-0.883721 51:-1 52:0.063925 53:-1 54:-1 55:-0.682692 56:-0.75 57:-0.703704 58:-0.954389 
8 1:-0.882279 2:-0.750223 3:-0.232759 4:-0.898683 5:-0.82841 6:-0.642586 7:-0.912262 8:-0.642586 9:-0.842662 10:-0.373134 11:-0.917292 12:0.848291 13:-0.882448 14:-0.677419 15:-0.937671 16:-0.677419 17:-0.677419 18:-0.7 19:-0.676647 21:-0.349206 22:0.0547264 23:-0.948387 24:-1 25:-0.882448 26:-1 27:-0.953886 29:-0.621813 30:-0.742024 31:-0.594883 32:-0.651344 33:-0.684989 34:-0.651344 35:-0.581006 36:-0.616861 37:-0.989668 38:-0.802681 39:-0.989668 40:-1 41:-0.848739 42:-1 43:-0.933333 44:-0.714286 45:-0.481481 46:-1 47:-0.940594 48:-0.782313 49:-1 50:-0.883721 51:-1 52:0.0584222 53:-1 54:-1 55:-0.0913462 56:-0.1875 57:-0.203704 58:-0.923993 
-8 1:-0.90331 2:-0.754981 3:-0.646552 4:-0.94133 5:-0.867256 6:-0.642586 7:-0.848721 8:-0.642586 9:-0.921073 10:-0.61194 11:-0.934515 12:0.886771 13:-0.905275 14:-0.709677 15:-0.903278 16:-0.709677 17:-0.709677 18:-0.73871 19:-0.88024 21:-0.563492 22:-0.0809793 23:-0.956178 24:-1 25:-0.905275 26:-1 27:-0.956356 29:-0.750708 30:-0.828698 31:-0.799574 32:-0.908933 33:-0.858134 34:-0.908933 35:-0.726257 36:-0.698013 37:-0.991846 38:-0.731503 39:-0.991846 40:-1 41:-0.445378 42:-1 43:-0.733333 44:-0.428571 45:-0.62963 46:-0.882353 47:-0.782178 48:-0.836735 49:-0.882353 50:-0.651163 51:-1 52:0.119451 53:-1 54:-1 55:-0.591346 56:-0.5 57:-0.722222 58:-0.952242 
8 1:-0.884121 2:-0.628308 3:-0.75 4:-0.915087 5:-0.82113 6:-0.726236 7:-0.919846 8:-0.726236 9:-0.894248 10:-0.402985 11:-0.930925 12:0.87568 13:-0.892394 14:-0.483871 15:-0.881056 16:-0.483871 17:-0.483871 18:-0.890323 19:-0.868263 21:-0.433862 22:0.0734463 23:-0.955447 24:-1 25:-0.892394 26:-1 27:-0.939691 29:-0.667139 30:-0.739976 31:-0.628998 32:-0.758023 33:-0.739244 34:-0.758023 35:-0.703911 36:-0.651494 37:-0.997766 38:-0.949115 39:-0.997766 40:-1 41:-0.193277 42:-1 43:-1 44:-1 45:-0.851852 46:-1 47:-0.683168 48:-0.605442 49:-0.882353 50:-0.674419 51:-1 52:0.0782082 53:-1 54:-1 55:-0.504808 56:-0.5 57:-0.342593 58:-0.936848 
8 1:-0.911867 2:-0.641986 3:-0.435345 4:-0.89336 5:-0.854237 6:-0.688213 7:-0.927275 8:-0.688213 9:-0.87155 10:-0.402985 11:-0.945503 12:0.888639 13:-0.914765 14:-0.83871 15:-0.970388 16:-0.83871 17:-0.83871 18:-0.680645 19:-0.245509 21:-0.248677 22:0.00358423 23:-0.945709 24:-1 25:-0.914765 26:-1 27:-0.946507 29:-0.474504 30:-0.707217 31:-0.234542 32:-0.680833 33:-0.725996 34:-0.680833 35:-0.296089 36:-0.599145 37:-0.995365 38:-0.915883 39:-0.995365 40:-1 41:-0.478992 42:-0.875 43:-0.8 44:-0.714286 45:-0.555556 46:-0.294118 47:-0.683168 48:-0.537415 49:-0.294118 50:-0.651163 51:-0.333333 52:0.093318 53:-1 54:-1 55:-0.110577 56:-0.25 57:-0.236111 58:-0.916958 
-8 1:-0.896354 2:-0.861433 3:-0.836207 4:-0.96702 5:-0.841031 6:-0.954373 7:-0.965744 8:-0.954373 9:-0.960794 10:-0.970149 11:-0.925734 12:0.854528 13:-0.887413 14:-0.967742 15:-0.980937 16:-0.967742 17:-0.967742 18:-0.922581 19:-0.796407 21:-0.769841 22:0.12 23:-0.978941 24:-1 25:-0.887413 26:-1 27:-0.952459 29:-0.859773 30:-0.896263 31:-0.850746 32:-0.927147 33:-0.798685 34:-0.927147 35:-0.832402 36:-0.781306 37:-0.999721 38:-0.98369 39:-0.999721 40:-1 41:-0.596639 42:-1 43:-1 44:-1 45:-0.703704 46:-0.882353 47:-0.881188 48:-0.863946 49:-0.882353 50:-0.860465 51:-1 52:-0.0197143 53:-1 54:-1 55:-0.8125 56:-0.75 57:-0.611111 58:-0.974446 
8 1:-0.95245 2:-0.944098 3:-0.961207 4:-0.977585 5:-0.901006 6:-0.855513 7:-0.840886 8:-0.855513 9:-0.973175 10:-1 11:-0.965806 12:0.898827 13:-0.940219 14:-0.935484 15:-0.944077 16:-0.935484 17:-0.935484 18:-0.96129 19:-0.94012 21:-0.804233 22:-0.364103 23:-0.964334 24:-1 25:-0.940219 26:-1 27:-0.987932 29:-0.81728 30:-0.950862 31:-0.950959 32:-0.925412 33:-0.697682 34:-0.925412 35:-0.938547 36:-0.811285 37:-0.999832 38:-0.985646 39:-0.999832 40:-1 41:-0.815126 42:-1 43:-0.866667 44:-1 45:-1 46:-1 47:-0.920792 48:-0.918367 49:-1 50:-0.953488 51:-1 52:0.395824 53:-1 54:-1 55:-0.947115 56:-0.375 57:-0.847222 58:-0.980754 
-5.25872066534984 1:-0.888183 2:-0.3708 3:0.198276 4:-0.842116 5:-0.851977 6:-0.855513 7:-0.977222 8:-0.855513 9:-0.794687 10:0.343284 11:-0.920579 12:0.8653 13:-0.885561 14:-0.548387 15:-0.94396 16:-0.548387 17:-0.548387 18:-0.448387 19:0.664671 21:-0.0661376 22:0.11746 23:-0.925989 24:-1 25:-0.885561 26:-1 27:-0.903099 29:-0.406516 30:-0.509299 31:-0.149254 32:-0.657415 33:-0.801218 34:-0.657415 35:0.296089 36:-0.506654 37:-0.998604 38:-0.982876 39:-0.998604 40:-1 41:-0.277311 42:-1 43:-0.666667 44:-0.714286 45:-0.481481 46:-0.764706 47:-0.405941 48:-0.510204 49:-0.647059 50:-0.209302 51:-1 52:0.00809524 53:-1 54:-1 55:0.379808 56:-0.375 57:0.467593 58:-0.875174 
-8 1:-0.885005 2:-0.781742 3:-0.642241 4:-0.915256 5:-0.859878 6:-0.536122 7:-0.863914 8:-0.536122 9:-0.909724 10:-0.552239 11:-0.920509 12:0.877519 13:-0.890549 14:-0.741935 15:-0.94041 16:-0.741935 17:-0.741935 18:-0.741935 19:-0.748503 21:-0.529101 22:-0.196347 23:-0.92185 24:-1 25:-0.890549 26:-1 27:-0.961647 29:-0.691218 30:-0.816414 31:-0.729211 32:-0.623591 33:-0.593574 34:-0.623591 35:-0.681564 36:-0.633681 37:-0.998269 38:-0.960486 39:-0.998269 40:-1 41:-0.579832 42:-1 43:-0.866667 44:-0.428571 45:-0.703704 46:-1 47:-0.485149 48:-0.809524 49:-0.764706 50:-0.837209 51:-0.666667 52:0.285714 53:-1 54:-1 55:-0.4375 56:-0.1875 57:-0.541667 58:-0.930385 
-8 1:-0.891809 2:-0.839429 3:-0.840517 4:-0.94316 5:-0.832803 6:-0.931559 7:-0.970102 8:-0.931559 9:-0.932938 10:-0.820896 11:-0.924469 12:0.853039 13:-0.889232 14:-0.806452 15:-0.93345 16:-0.806452 17:-0.806452 18:-0.883871 19:-0.832335 21:-0.624339 22:-0.0634921 23:-0.958977 24:-1 25:-0.889232 26:-1 27:-0.969258 29:-0.763456 30:-0.85668 31:-0.769723 32:-0.825672 33:-0.719715 34:-0.825672 35:-0.826816 36:-0.712163 37:-0.999888 38:-0.996204 39:-0.999888 40:-1 41:-0.630252 42:-0.875 43:-0.866667 44:-1 45:-0.851852 46:-0.882353 47:-0.70297 48:-0.768707 49:-0.882353 50:-0.767442 51:-0.333333 52:0.0676871 53:-1 54:-1 55:-0.639423 56:-0.3125 57:-0.689815 58:-0.956499 
8 1:-0.907854 2:-0.839429 3:-0.87931 4:-0.959918 5:-0.895018 6:-0.977186 7:-0.98589 8:-0.977186 9:-0.94893 10:-0.701493 11:-0.934972 12:0.902211 13:-0.907022 14:-0.870968 15:-0.937185 16:-0.870968 17:-0.870968 18:-0.874194 19:-0.94012 21:-0.724868 22:-0.030303 23:-0.960803 24:-1 25:-0.907022 26:-1 27:-0.942538 29:-0.830028 30:-0.890462 31:-0.863539 32:-0.828274 33:-0.609089 34:-0.828274 35:-0.899441 36:-0.74073 37:-0.999106 38:-0.957004 39:-0.999106 40:-1 41:-0.848739 42:-1 43:-0.866667 44:-1 45:-0.851852 46:-0.882353 47:-0.663366 48:-0.931973 49:-0.882353 50:-0.767442 51:-1 52:0.0859504 53:-1 54:-1 55:-0.826923 56:-0.75 57:-0.726852 58:-0.964489 
8 1:-0.881637 2:-0.688968 3:-0.806034 4:-0.906649 5:-0.787584 6:-0.634981 7:-0.902767 8:-0.634981 9:-0.894248 10:-0.761194 11:-0.921192 12:0.825736 13:-0.894939 14:-0.516129 15:-0.898546 16:-0.516129 17:-0.516129 18:-0.819355 19:-0.904192 21:-0.367725 22:-0.15493 23:-0.956908 24:-1 25:-0.894939 26:-1 27:-0.966076 29:-0.59915 30:-0.773759 31:-0.918977 32:-0.565481 33:-0.573989 34:-0.565481 35:-0.821229 36:-0.646842 37:-0.993913 38:-0.873844 39:-0.993913 40:-1 41:-0.394958 42:-1 43:-0.933333 44:-1 45:-0.481481 46:-0.882353 47:-0.643564 48:-0.945578 49:-0.882353 50:-0.790698 51:-1 52:0.130986 53:-1 54:-1 55:-0.615385 57:-0.574074 58:-0.93519 
-8 1:-0.924992 2:-0.983943 3:-0.974138 4:-0.995251 5:-0.835281 6:-0.969582 7:-0.84736 8:-0.969582 9:-0.995873 10:-0.940299 11:-0.967094 12:0.900048 13:-0.957325 14:-1 15:-1 16:-1 17:-1 18:-0.983871 19:-0.976048 21:-0.960317 22:-0.04 23:-0.991479 24:-1 25:-0.957325 26:-1 27:-0.995318 29:-0.966006 30:-0.986692 31:-0.978678 32:-0.989592 33:-0.80778 34:-0.989592 35:-0.988827 36:-0.923127 37:-1 38:-1 39:-1 40:-1 41:-0.932773 42:-1 43:-1 44:-1 45:-1 46:-1 47:-1 48:-0.959184 49:-1 50:-1 51:-1 52:0.0845714 53:-1 54:-1 55:-0.966346 56:-0.9375 57:-0.967593 58:-0.996423 
8 1:-0.770034 2:-0.989295 3:-0.99569 4:-0.997829 5:-0.89891 6:-1 7:-1 8:-1 9:-0.998968 10:-1 11:-0.802275 12:0.794654 13:-0.777793 14:-1 15:-1 16:-1 17:-1 18:-1 19:-1 21:-0.997354 22:-0.111111 23:-0.993792 24:-1 25:-0.777793 26:-1 27:-0.994818 29:-0.997167 30:-0.996246 31:-1 32:-0.989592 33:-0.600308 34:-0.989592 35:-0.994413 36:-0.942697 37:-1 38:-1 39:-1 40:-1 41:-1 42:-1 43:-1 44:-1 45:-1 46:-1 47:-1 48:-1 49:-1 50:-1 51:-1 52:0.390476 53:-1 54:-1 55:-0.990385 56:-0.9375 57:-1 58:-0.997889 
8 1:-0.881007 2:-0.743681 3:-0.534483 4:-0.921106 5:-0.804525 6:-0.505703 7:-0.844268 8:-0.505703 9:-0.911272 10:-0.940299 11:-0.920528 12:0.839643 13:-0.879436 14:-0.870968 15:-0.968002 16:-0.870968 17:-0.870968 18:-0.8 19:-0.700599 21:-0.510582 22:-0.182222 23:-0.950091 24:-1 25:-0.879436 26:-1 27:-0.971604 29:-0.68272 30:-0.810954 31:-0.637527 32:-0.690373 33:-0.640961 34:-0.690373 35:-0.581006 36:-0.668577 37:-0.99933 38:-0.983573 39:-0.99933 40:-1 41:-0.428571 42:-1 43:-0.933333 44:-1 45:-0.555556 46:-0.647059 47:-0.80198 48:-0.741497 49:-0.647059 50:-0.72093 51:-1 52:0.18654 53:-1 54:-1 55:-0.490385 56:0.0625 57:-0.611111 58:-0.942751 
-8 1:-0.873895 2:-0.972049 3:-0.952586 4:-0.98588 5:-0.780967 6:-0.946768 7:-0.907461 8:-0.946768 9:-0.984524 10:-0.910448 11:-0.908788 12:0.80184 13:-0.866727 14:-0.967742 15:-0.95586 16:-0.967742 17:-0.967742 18:-0.93871 19:-0.928144 21:-0.902116 22:-0.0243902 23:-0.983932 24:-1 25:-0.866727 26:-1 27:-0.98857 29:-0.943343 30:-0.967582 31:-0.96162 32:-0.947095 33:-0.661495 34:-0.947095 35:-0.927374 36:-0.866271 37:-0.999777 38:-0.969787 39:-0.999777 40:-1 41:-0.983193 42:-1 43:-1 44:-1 45:-0.777778 46:-0.529412 47:-0.980198 48:-0.972789 49:-0.529412 50:-0.837209 51:-1 52:0.220906 53:-1 54:-1 55:-0.918269 56:-0.5625 57:-0.921296 58:-0.990007 
-8 1:-0.917139 2:-0.614035 3:-0.508621 4:-0.909871 5:-0.856712 6:-0.840304 7:-0.955943 8:-0.840304 9:-0.910756 10:-0.58209 11:-0.941141 12:0.868216 13:-0.912725 14:-0.741935 15:-0.943962 16:-0.741935 17:-0.741935 18:-0.767742 19:-0.796407 21:-0.39418 22:-0.00296736 23:-0.938405 24:-1 25:-0.912725 26:-1 27:-0.959775 29:-0.524079 30:-0.742365 31:-0.692964 32:-0.918474 33:-0.917219 34:-0.918474 35:-0.486034 36:-0.631633 37:-0.990171 38:-0.789033 39:-0.990171 40:-1 41:-0.579832 42:-1 43:-0.733333 44:-0.714286 45:-0.777778 46:-0.764706 47:-0.465347 48:-0.85034 49:-0.882353 50:-0.674419 51:-1 52:0.138788 53:-1 54:-1 55:-0.528846 56:-0.1875 57:-0.37963 58:-0.929622 
8 1:-0.918941 2:-0.929825 3:-0.935345 4:-0.983229 5:-0.854425 6:-0.969582 7:-0.955372 8:-0.969582 9:-0.985556 10:-0.910448 11:-0.963262 12:0.922353 13:-0.92618 14:-0.967742 15:-0.962748 16:-0.967742 17:-0.967742 18:-0.970968 19:-0.952096 21:-0.857143 22:0.0196078 23:-0.983445 24:-1 25:-0.92618 26:-1 27:-0.98593 29:-0.905099 30:-0.954615 31:-0.929638 32:-0.942758 33:-0.6909 34:-0.942758 35:-0.888268 36:-0.843199 37:-0.999497 38:-0.942629 39:-0.999497 40:-1 41:-0.89916 42:-1 43:-1 44:-1 45:-1 46:-1 47:-0.960396 48:-0.891156 49:-1 50:-0.976744 51:-1 52:-0.0798319 53:-1 54:-1 55:-0.932692 56:-0.625 57:-0.902778 58:-0.98649 
-8 1:-0.89831 2:-0.784121 3:-0.676724 4:-0.943186 5:-0.838607 6:-0.91635 7:-0.963442 8:-0.91635 9:-0.922105 10:-0.641791 11:-0.931261 12:0.863626 13:-0.896149 14:-0.967742 15:-0.988903 16:-0.967742 17:-0.967742 18:-0.841935 19:-0.688623 21:-0.626984 22:0.00374532 23:-0.960195 24:-1 25:-0.896149 26:-1 27:-0.974153 29:-0.749292 30:-0.845419 31:-0.765458 32:-0.882914 33:-0.811663 34:-0.882914 35:-0.743017 36:-0.711272 37:-0.999609 38:-0.986708 39:-0.999609 40:-1 41:-0.361345 42:-1 43:-0.8 44:-1 45:-1 46:-1 47:-0.861386 48:-0.809524 49:-1 50:-0.72093 51:-1 52:0.113162 53:-1 54:-1 55:-0.5625 56:-0.1875 57:-0.587963 58:-0.956237 
-8 1:-0.895087 2:-0.743087 3:-0.844828 4:-0.931526 5:-0.815043 6:-0.726236 7:-0.900665 8:-0.726236 9:-0.920557 10:-0.880597 11:-0.939641 12:0.8725 13:-0.907159 14:-0.516129 15:-0.861805 16:-0.516129 17:-0.516129 18:-0.86129 19:-0.712575 21:-0.539683 22:0.0666667 23:-0.97042 24:-1 25:-0.907159 26:-1 27:-0.97476 29:-0.68272 30:-0.806176 31:-0.712154 32:-0.728534 33:-0.637463 34:-0.728534 35:-0.776536 36:-0.690436 37:-0.999609 38:-0.988964 39:-0.999609 40:-1 41:-0.478992 42:-1 43:-0.866667 44:-1 45:-0.777778 46:-0.529412 47:-0.60396 48:-0.795918 49:-0.529412 50:-0.697674 51:-1 52:0.0382222 53:-1 54:-1 55:-0.596154 56:-0.0625 57:-0.550926 58:-0.949881 
8 1:-0.897411 2:-0.844781 3:-0.853448 4:-0.938856 5:-0.879297 6:-0.893536 7:-0.956755 8:-0.893536 9:-0.933454 10:-0.820896 11:-0.930262 12:0.896376 13:-0.904004 14:-0.870968 15:-0.958746 16:-0.870968 17:-0.870968 18:-0.86129 19:-0.832335 21:-0.574074 22:-0.48538 23:-0.945953 24:-1 25:-0.904004 26:-1 27:-0.965031 29:-0.759207 30:-0.846101 31:-0.763326 32:-0.782307 33:-0.674548 34:-0.782307 35:-0.821229 36:-0.683961 37:-0.995309 38:-0.851751 39:-0.995309 40:-1 41:-0.89916 42:-1 43:-1 44:-1 45:-0.925926 46:-0.882353 47:-0.70297 48:-0.741497 49:-0.882353 50:-0.813953 51:-1 52:0.549039 53:-1 54:-1 55:-0.600962 56:-0.375 57:-0.62963 58:-0.947818 
-8 1:-0.893154 2:-0.783527 3:-0.681034 4:-0.930986 5:-0.84694 6:-0.771863 7:-0.917867 8:-0.771863 9:-0.915914 10:-0.761194 11:-0.92559 12:0.865262 13:-0.89808 14:-1 15:-1 16:-1 17:-1 18:-0.858065 19:-0.772455 21:-0.550265 22:-0.160745 23:-0.954474 24:-1 25:-0.89808 26:-1 27:-0.965148 29:-0.72238 30:-0.817096 31:-0.648188 32:-0.774501 33:-0.7012 34:-0.774501 35:-0.743017 36:-0.678231 37:-0.998827 38:-0.967151 39:-0.998827 40:-1 41:-0.714286 42:-1 43:-0.533333 44:-1 45:-1 46:-0.764706 47:-0.623762 48:-0.714286 49:-0.764706 50:-0.651163 51:-1 52:0.206962 53:-1 54:-1 55:-0.615385 56:-0.25 57:-0.680556 58:-0.945958 
-8 1:-0.894038 2:-0.628903 3:-0.599138 4:-0.890481 5:-0.828032 6:-0.787072 7:-0.951637 8:-0.787072 9:-0.854011 10:-0.552239 11:-0.928102 12:0.854497 13:-0.895247 14:-0.387097 15:-0.890426 16:-0.387097 17:-0.387097 18:-0.777419 19:-0.724551 21:-0.283069 22:0.0189055 23:-0.948631 24:-1 25:-0.895247 26:-1 27:-0.961652 29:-0.526912 30:-0.695615 31:-0.63113 32:-0.730269 33:-0.774513 34:-0.730269 35:-0.564246 36:-0.601531 37:-0.988775 38:-0.801639 39:-0.988775 40:-1 41:-0.445378 42:-1 43:-0.733333 44:-1 45:-0.62963 46:-0.882353 47:-0.643564 48:-0.809524 49:-0.764706 50:-0.860465 51:-1 52:0.0272921 53:-1 54:-1 55:-0.552885 56:0.0625 57:-0.310185 58:-0.917924 
8 1:-0.903847 2:-0.963128 3:-0.965517 4:-0.987415 5:-0.882543 6:-0.946768 7:-0.89637 8:-0.946768 9:-0.988651 10:-1 11:-0.931327 12:0.889722 13:-0.908781 14:-1 15:-1 16:-1 17:-1 18:-0.980645 19:-0.904192 21:-0.912698 22:0.00900901 23:-0.982593 24:-1 25:-0.908781 26:-1 27:-0.989474 29:-0.949008 30:-0.95871 31:-0.880597 32:-0.941023 33:-0.577423 34:-0.941023 35:-0.916201 36:-0.861531 37:-0.99933 38:-0.898498 39:-0.99933 40:-1 41:-1 42:-1 43:-0.933333 44:-1 45:-1 46:-0.764706 47:-0.980198 48:-0.823129 49:-1 50:-1 51:-1 52:0.127413 53:-1 54:-1 55:-0.951923 56:-0.5625 57:-0.925926 58:-0.989328 
-4.870663579238989 1:-0.914685 2:-0.958371 3:-0.956897 4:-0.966376 5:-0.882751 6:-1 7:-1 8:-1 9:-0.974207 10:-0.940299 11:-0.949283 12:0.917697 13:-0.913934 14:-0.870968 15:-0.925199 16:-0.870968 17:-0.870968 18:-0.964516 19:-0.964072 21:-0.769841 22:-0.566952 23:-0.955691 24:-1 25:-0.913934 26:-1 27:-0.94898 29:-0.835694 30:-0.927999 31:-0.872068 32:-0.882914 33:-0.682614 34:-0.882914 35:-0.960894 36:-0.763282 37:-1 38:-1 39:-1 40:-1 41:-0.915966 42:-1 43:-0.933333 44:-0.428571 45:-0.62963 46:-1 47:-0.920792 48:-0.632653 49:-1 50:-0.883721 51:-1 52:0.497436 53:-1 54:-1 55:-0.884615 56:-0.75 57:-0.560185 58:-0.970225 
-8 1:-0.819277 2:-0.992864 3:-0.991379 4:-0.995267 5:-0.817523 6:-1 7:-1 8:-1 9:-0.996389 10:-1 11:-0.854386 12:0.785297 13:-0.82645 14:-1 15:-1 16:-1 17:-1 18:-0.993548 19:-1 21:-0.981481 22:-0.666667 23:-0.974437 24:-1 25:-0.82645 26:-1 27:-1 29:-0.990085 30:-0.990445 31:-0.978678 32:-0.99046 33:-0.823244 34:-0.99046 35:-0.994413 36:-0.922007 37:-1 38:-1 39:-1 40:-1 41:-0.983193 42:-1 43:-1 44:-1 45:-1 46:-1 47:-0.980198 48:-1 49:-1 50:-1 51:-1 52:0.825 53:-1 54:-1 55:-0.980769 56:-1 57:-0.986111 58:-0.996327 
-8 1:-0.918334 2:-0.995242 3:-0.99569 4:-0.996832 5:-0.856552 6:-0.946768 7:-0.608129 8:-0.946768 9:-0.994841 10:-1 11:-0.930965 12:0.838007 13:-0.907463 14:-1 15:-1 16:-1 17:-1 18:-0.996774 19:-1 21:-0.97619 22:0.025641 23:-0.993427 24:-1 25:-0.907463 26:-1 27:-0.997288 29:-0.983003 30:-0.993175 31:-0.974414 32:-0.989592 33:-0.718009 34:-0.989592 35:-0.994413 36:-0.935258 37:-1 38:-1 39:-1 40:-1 41:-1 42:-1 43:-1 44:-1 45:-1 46:-1 47:-0.980198 48:-0.945578 49:-1 50:-1 51:-1 52:0.283516 53:-1 54:-1 55:-1 56:-0.875 57:-0.967593 58:-0.997377 
-8 1:-0.893278 2:-0.571216 3:-0.405172 4:-0.850879 5:-0.784823 6:-0.148289 7:-0.857848 8:-0.148289 9:-0.82048 10:-0.462687 11:-0.915223 12:0.782802 13:-0.887867 14:-0.806452 15:-0.974573 16:-0.806452 17:-0.806452 18:-0.748387 19:-0.772455 21:-0.0238095 22:0.0149611 23:-0.949361 24:-1 25:-0.887867 26:-1 27:-0.910007 29:-0.212465 30:-0.696639 31:-0.571429 32:-0.583695 33:-0.744268 34:-0.583695 35:-0.513966 36:-0.554355 37:-0.996035 38:-0.948513 39:-0.996035 40:-1 41:-0.0588235 42:-1 43:-0.866667 44:-0.714286 45:-0.185185 46:-0.882353 47:-0.386139 48:-0.659864 49:-0.764706 50:-0.581395 51:-1 52:0.123365 53:-1 54:-1 55:-0.129808 56:-0.375 57:-0.5 58:-0.897783 
8 1:-0.912434 2:-0.980375 3:-0.956897 4:-0.993444 5:-0.843872 6:-1 7:-1 8:-1 9:-0.993294 10:-1 11:-0.938183 12:0.858472 13:-0.896755 14:-1 15:-1 16:-1 17:-1 18:-0.993548 19:-0.988024 21:-0.944444 22:0.0666667 23:-0.991357 24:-1 25:-0.896755 26:-1 27:-0.997175 29:-0.966006 30:-0.979184 31:-0.959488 32:-0.96791 33:-0.56543 34:-0.96791 35:-0.932961 36:-0.906562 37:-1 38:-1 39:-1 40:-1 41:-0.94958 42:-1 43:-1 44:-1 45:-0.925926 46:-1 47:-0.90099 48:-1 49:-1 50:-1 51:-1 52:-0.499429 53:-1 54:-1 55:-0.961538 56:-0.9375 57:-0.930556 58:-0.994884 
-8 1:-0.872046 2:-0.989295 3:-1 4:-0.997206 5:-0.84286 6:-0.992395 7:-0.937069 8:-0.992395 9:-0.997421 10:-1 11:-0.89899 12:0.829683 13:-0.87214 14:-1 15:-1 16:-1 17:-1 18:-1 19:-0.988024 21:-0.984127 22:0.142857 23:-0.994035 24:-1 25:-0.87214 26:-1 27:-0.997498 29:-0.991501 30:-0.991469 31:-0.987207 32:-0.987858 33:-0.63017 34:-0.987858 35:-0.988827 36:-0.93966 37:-1 38:-1 39:-1 40:-1 41:-1 42:-1 43:-1 44:-1 45:-1 46:-1 47:-0.980198 48:-0.972789 49:-1 50:-1 51:-1 52:0.191837 53:-1 54:-1 55:-0.980769 56:-0.9375 57:-0.990741 58:-0.997687 
8 1:-0.886696 2:-0.75617 3:-0.719828 4:-0.922056 5:-0.844139 6:-0.802281 7:-0.93695 8:-0.802281 9:-0.869487 10:-0.61194 11:-0.906224 12:0.822801 13:-0.881769 14:-0.774194 15:-0.943322 16:-0.774194 17:-0.774194 18:-0.719355 19:-0.844311 21:-0.492063 22:-0.0679612 23:-0.955691 24:-1 25:-0.881769 26:-1 27:-0.936657 29:-0.709632 30:-0.794916 31:-0.509595 32:-0.867303 33:-0.844255 34:-0.867303 35:-0.597765 36:-0.660604 37:-0.991064 38:-0.778313 39:-0.991064 40:-1 41:-0.697479 42:-1 43:-0.8 44:-1 45:-0.333333 46:-1 47:-0.663366 48:-0.768707 49:-1 50:-0.813953 51:-1 52:0.113731 53:-1 54:-1 55:-0.524038 56:-0.5625 57:-0.62963 58:-0.940032 
8 1:-0.906094 2:-0.748439 3:-0.586207 4:-0.927992 5:-0.839486 6:-0.954373 7:-0.984254 8:-0.954373 9:-0.927263 10:-0.731343 11:-0.942887 12:0.880353 13:-0.908775 14:-0.903226 15:-0.973713 16:-0.903226 17:-0.903226 18:-0.819355 19:-0.652695 21:-0.52381 22:0.00813008 23:-0.959586 24:-1 25:-0.908775 26:-1 27:-0.940054 29:-0.652975 30:-0.808224 31:-0.441365 32:-0.860364 33:-0.822643 34:-0.860364 35:-0.569832 36:-0.677104 37:-0.996649 38:-0.910035 39:-0.996649 40:-1 41:-0.680672 42:-1 43:-0.866667 44:-0.714286 45:-0.777778 46:-0.764706 47:-0.524752 48:-0.70068 49:-0.647059 50:-0.674419 51:-1 52:0.0343786 53:-1 54:-1 55:-0.451923 56:-0.5625 57:-0.527778 58:-0.945589 
-8 1:-0.89008 2:-0.857865 3:-0.737069 4:-0.945786 5:-0.806848 6:-0.65019 7:-0.839821 8:-0.65019 9:-0.934485 10:-0.58209 11:-0.9324 12:0.855841 13:-0.901861 14:-0.806452 15:-0.930241 16:-0.806452 17:-0.806452 18:-0.9 19:-0.892216 21:-0.634921 22:-0.044316 23:-0.961899 24:-1 25:-0.901861 26:-1 27:-0.979404 29:-0.756374 30:-0.864528 31:-0.891258 32:-0.897658 33:-0.82752 34:-0.897658 35:-0.810056 36:-0.726511 37:-0.999051 38:-0.966178 39:-0.999051 40:-1 41:-0.680672 42:-1 43:-0.933333 44:-1 45:-0.851852 46:-0.882353 47:-0.861386 48:-0.863946 49:-0.882353 50:-0.813953 51:-1 52:0.145334 53:-1 54:-1 55:-0.697115 56:-0.125 57:-0.777778 58:-0.960613 
-8 1:-0.892194 2:-0.574784 3:-0.676724 4:-0.901677 5:-0.874319 6:-0.794677 7:-0.948066 8:-0.794677 9:-0.887026 10:-0.671642 11:-0.931839 12:0.906424 13:-0.90316 14:-0.83871 15:-0.967888 16:-0.83871 17:-0.83871 18:-0.803226 19:-0.688623 21:-0.402116 22:-0.259823 23:-0.940231 24:-1 25:-0.90316 26:-1 27:-0.925827 29:-0.628895 30:-0.742706 31:-0.784648 32:-0.590633 33:-0.6189 34:-0.590633 35:-0.743017 36:-0.599703 37:-0.993745 38:-0.876913 39:-0.993745 40:-1 41:-0.445378 42:-1 43:-0.866667 44:-1 45:-0.851852 46:-1 47:-0.405941 48:-0.959184 49:-1 50:-0.72093 51:-1 52:0.221293 53:-1 54:-1 55:-0.399038 56:-0.5 57:-0.555556 58:-0.917184 
8 1:-0.948714 2:-0.922093 3:-0.849138 4:-0.968424 5:-0.878433 6:-0.893536 7:-0.916537 8:-0.893536 9:-0.964921 10:-0.910448 11:-0.962371 12:0.872614 13:-0.932772 14:-0.83871 15:-0.900474 16:-0.83871 17:-0.83871 18:-0.958065 19:-0.964072 21:-0.685185 22:-0.0724638 23:-0.979306 24:-1 25:-0.932772 26:-1 27:-0.978725 29:-0.708215 30:-0.909572 31:-0.842217 32:-0.898526 33:-0.707208 34:-0.898526 35:-0.865922 36:-0.784612 37:-0.99704 38:-0.819471 39:-0.99704 40:-1 41:-0.680672 42:-1 43:-1 44:-1 45:-1 46:-1 47:-0.960396 48:-0.768707 49:-1 50:-0.883721 51:-1 52:0.00759144 53:-1 54:-1 55:-0.850962 56:-0.4375 57:-0.75463 58:-0.975185 
-8 1:-0.891187 2:-0.917336 3:-0.875 4:-0.971376 5:-0.812079 6:-0.908745 7:-0.921138 8:-0.908745 9:-0.960794 10:-0.940299 11:-0.92426 12:0.836085 13:-0.889861 14:-0.967742 15:-0.978057 16:-0.967742 17:-0.967742 18:-0.954839 19:-0.844311 21:-0.81746 22:0.244444 23:-0.974072 24:-1 25:-0.889861 26:-1 27:-0.967272 29:-0.873938 30:-0.91742 31:-0.778252 32:-0.930616 33:-0.779308 34:-0.930616 35:-0.837989 36:-0.803394 37:-1 38:-1 39:-1 40:-1 41:-0.882353 42:-1 43:-0.933333 44:-1 45:-1 46:-1 47:-0.722772 48:-0.863946 49:-1 50:-0.976744 51:-1 52:-0.0961905 53:-1 54:-1 55:-0.826923 56:-0.6875 57:-0.814815 58:-0.97918 
