svm_type epsilon_svr
kernel_type rbf
gamma 0.125
nr_class 2
total_sv 2330
rho -2.1038
SV
8 1:-0.883359 2:-0.891485 3:-0.748184 4:-0.972544 5:-0.816874 6:-0.779468 7:-0.721401 8:-0.779468 9:-0.98085 10:-0.766667 11:-0.911383 12:0.833487 13:-0.867228 14:-0.967742 15:-0.974305 16:-0.967742 17:-0.967742 18:-0.933798 19:-0.976048 21:-0.828042 22:-0.0990991 23:-0.976122 24:-1 25:-0.867228 26:-1 27:-0.981541 29:-0.896601 30:-0.919836 31:-0.895522 32:-0.948829 33:-0.82093 34:-0.948829 35:-0.871508 36:-0.804549 37:-1 38:-1 39:-1 40:-1 41:-0.848739 42:-1 43:-1 44:-1 45:-0.851852 46:-1 47:-0.979592 48:-0.85034 49:-1 50:-0.906977 51:-1 52:0.0992278 53:-1 54:-1 55:-0.860577 56:-0.4375 57:-0.834081 58:-0.979373 
0.2793652195281129 1:-0.878054 2:-0.22532 3:-0.0895884 4:-0.801049 5:-0.813425 6:0.262357 7:-0.778339 8:0.262357 9:-0.751056 10:-0.133333 11:-0.91505 12:0.850905 13:-0.886771 14:-0.580645 15:-0.95357 16:-0.580645 17:-0.580645 18:-0.362369 19:-0.0299401 21:0.116402 22:-0.0133333 23:-0.931672 24:-1 25:-0.886771 26:-1 27:-0.840895 29:-0.293201 30:-0.397955 31:0.168443 32:-0.380746 33:-0.69879 34:-0.380746 35:0.49162 36:-0.465767 37:-0.990726 38:-0.910778 39:-0.990726 40:-1 41:-0.411765 42:-1 43:-0.454545 44:-0.428571 45:0.333333 46:-1 47:-0.591837 48:-0.52381 49:-1 50:-0.465116 51:-1 52:0.0678857 53:-1 54:-1 55:0.346154 56:-0.5 57:0.116592 58:-0.853908 
2.476262827794058 1:-0.873661 2:-0.15373 3:-0.302663 4:-0.820081 5:-0.831981 6:-0.673004 7:-0.936516 8:-0.673004 9:-0.778091 10:0.3 11:-0.907645 12:0.854359 13:-0.872188 14:-0.193548 15:-0.901279 16:-0.193548 17:-0.193548 18:-0.43554 19:-0.616766 21:0.015873 22:-0.0273752 23:-0.934121 24:-1 25:-0.872188 26:-1 27:-0.884318 29:-0.415014 30:-0.33865 31:-0.385928 32:-0.601041 33:-0.785441 34:-0.601041 35:-0.312849 36:-0.480721 37:-0.991142 38:-0.905779 39:-0.991142 40:-1 41:-0.142857 42:-0.875 43:-0.909091 44:-0.714286 45:-0.111111 46:-0.882353 47:-0.0612245 48:-0.673469 49:-0.882353 50:-0.186047 51:-1 52:0.118427 53:-1 54:-1 55:0.216346 56:-0.375 57:0.179372 58:-0.861846 
8 1:-0.982832 2:-0.999246 3:-1 4:-0.999924 5:-0.968625 6:-1 7:-1 8:-1 9:-1 10:-1 11:-0.984856 12:0.96108 13:-0.985556 14:-1 15:-1 16:-1 17:-1 18:-1 19:-1 21:-0.997354 22:0.333333 23:-0.997796 24:-1 25:-0.985556 26:-1 27:-1 29:-0.998584 30:-0.998773 31:-1 32:-0.998265 33:-0.449944 34:-0.998265 35:-1 36:-0.984032 37:-1 38:-1 39:-1 40:-1 41:-1 42:-1 43:-1 44:-1 45:-1 46:-1 47:-1 48:-1 49:-1 50:-1 51:-1 52:0.0428571 53:-1 54:-1 55:-1 56:-1 57:-1 58:-0.999735 
-8 1:-0.895191 2:-0.83572 3:-0.90799 4:-0.970403 5:-0.835132 6:-0.91635 7:-0.901911 8:-0.91635 9:-0.960011 10:-0.8 11:-0.926826 12:0.867881 13:-0.890006 14:-0.967742 15:-0.976149 16:-0.967742 17:-0.967742 18:-0.933798 19:-0.844311 21:-0.828042 22:0.0542636 23:-0.969999 24:-1 25:-0.890006 26:-1 27:-0.973657 29:-0.879603 30:-0.896933 31:-0.882729 32:-0.947962 33:-0.830969 34:-0.947962 35:-0.798883 36:-0.79405 37:-0.999941 38:-0.996181 39:-0.999941 40:-1 41:-0.714286 42:-1 43:-1 44:-1 45:-0.925926 46:-0.647059 47:-0.979592 48:-0.904762 49:-0.529412 50:-0.930233 51:-1 52:0.0671096 53:-1 54:-1 55:-0.798077 56:-0.5625 57:-0.923767 58:-0.977193 
8 1:-0.891321 2:-0.662396 3:-0.79661 4:-0.910919 5:-0.780366 6:-0.946768 7:-0.979154 8:-0.946768 9:-0.898057 10:-0.7 11:-0.946981 12:0.882148 13:-0.914624 14:-0.741935 15:-0.936278 16:-0.741935 17:-0.741935 18:-0.773519 19:-0.88024 21:-0.478836 22:-0.00319489 23:-0.957754 24:-1 25:-0.914624 26:-1 27:-0.932549 29:-0.558074 30:-0.760327 31:-0.803838 32:-0.785776 33:-0.767612 34:-0.785776 35:-0.787709 36:-0.658616 37:-0.996195 38:-0.918366 39:-0.996195 40:-1 41:-0.630252 42:-1 43:-0.636364 44:-0.428571 45:-0.777778 46:-0.882353 47:-0.469388 48:-0.795918 49:-0.882353 50:-0.604651 51:-1 52:0.126152 53:-1 54:-1 55:-0.538462 56:-0.5 57:-0.457399 58:-0.939277 
6.705427631512894 1:-0.468669 2:-0.131876 3:-0.733656 4:-0.351654 5:-0.88019 6:-0.771863 7:-0.987698 8:-0.771863 9:-0.32864 10:-0.566667 11:-0.488304 12:0.470063 13:-0.445907 14:-0.709677 15:-0.990129 16:-0.709677 17:-0.709677 18:-0.236934 19:-0.712575 21:-0.222222 22:-0.74171 23:0.0883487 24:-1 25:-0.445907 26:-1 27:-0.731805 29:-0.46034 30:-0.249489 31:-0.780384 32:-0.725932 33:-0.95906 34:-0.725932 35:-0.715084 36:0.125148 37:-0.405208 38:0.757307 39:-0.405208 40:-1 41:-0.411765 42:-1 43:-0.909091 44:-1 45:-0.481481 46:-1 47:-0.755102 48:-0.877551 49:-1 50:-0.906977 51:-1 52:0.883695 53:-1 54:-1 55:-0.245192 57:-0.569507 58:-0.36276 
-8 1:-0.894643 2:-0.896006 3:-0.956416 4:-0.981219 5:-0.863024 6:-1 7:-1 8:-1 9:-0.969023 10:-0.866667 11:-0.925159 12:0.887731 13:-0.890443 14:-1 15:-1 16:-1 17:-1 18:-0.947735 19:-0.94012 21:-0.899471 22:0.12 23:-0.969265 24:-1 25:-0.890443 26:-1 27:-0.959624 29:-0.930595 30:-0.93047 31:-0.899787 32:-0.940156 33:-0.695018 34:-0.940156 35:-0.888268 36:-0.832336 37:-1 38:-1 39:-1 40:-1 41:-0.983193 42:-1 43:-0.909091 44:-1 45:-1 46:-1 47:-0.897959 48:-0.931973 49:-1 50:-0.930233 51:-1 52:0.00114286 53:-1 54:-1 55:-0.841346 56:-0.8125 57:-0.93722 58:-0.984615 
-8 1:-0.948711 2:-0.983421 3:-0.985472 4:-0.996757 5:-0.8772 6:-0.992395 7:-0.923409 8:-0.992395 9:-0.997184 10:-0.966667 11:-0.963788 12:0.887911 13:-0.93312 14:-1 15:-1 16:-1 17:-1 18:-1 19:-0.976048 21:-0.978836 22:-0.151515 23:-0.992898 24:-1 25:-0.93312 26:-1 27:-0.994889 29:-0.970255 30:-0.988957 31:-0.982942 32:-0.989592 33:-0.709633 34:-0.989592 35:-0.988827 36:-0.934632 37:-1 38:-1 39:-1 40:-1 41:-0.983193 42:-1 43:-1 44:-1 45:-1 46:-1 47:-1 48:-0.959184 49:-1 50:-1 51:-1 52:0.232468 53:-1 54:-1 55:-0.971154 56:-0.9375 57:-0.977578 58:-0.997316 
8 1:-0.89567 2:-0.892992 3:-0.811138 4:-0.97381 5:-0.839051 6:-0.992395 7:-0.989933 8:-0.992395 9:-0.971276 10:-0.833333 11:-0.930422 12:0.880082 13:-0.894761 14:-0.903226 15:-0.919221 16:-0.903226 17:-0.903226 18:-0.961672 19:-0.916168 21:-0.81746 22:0.0311111 23:-0.974163 24:-1 25:-0.894761 26:-1 27:-0.970754 29:-0.895184 30:-0.921063 31:-0.776119 32:-0.959237 33:-0.850516 34:-0.959237 35:-0.765363 36:-0.806677 37:-0.998217 38:-0.870643 39:-0.998217 40:-1 41:-0.865546 42:-1 43:-1 44:-1 45:-0.925926 46:-1 47:-0.795918 48:-0.945578 49:-1 50:-0.930233 51:-1 52:-0.110095 53:-1 54:-1 55:-0.8125 56:-0.6875 57:-0.793722 58:-0.979801 
-8 1:-0.895179 2:-0.889977 3:-0.723971 4:-0.964483 5:-0.845656 6:-0.847909 7:-0.85119 8:-0.847909 9:-0.957758 10:-0.8 11:-0.920866 12:0.86053 13:-0.884615 14:-1 15:-1 16:-1 17:-1 18:-0.919861 19:-0.784431 21:-0.796296 22:-0.030303 23:-0.96804 24:-1 25:-0.884615 26:-1 27:-0.970503 29:-0.86119 30:-0.890798 31:-0.720682 32:-0.915872 33:-0.771985 34:-0.915872 35:-0.653631 36:-0.771707 37:-0.9978 38:-0.882085 39:-0.9978 40:-1 41:-0.966387 42:-0.875 43:-0.818182 44:-1 45:-1 46:-0.764706 47:-0.897959 48:-0.918367 49:-0.882353 50:-0.953488 51:-1 52:0.137662 53:-1 54:-1 55:-0.817308 56:-0.5625 57:-0.780269 58:-0.97219 
8 1:-0.860114 2:-0.718161 3:-0.467312 4:-0.93652 5:-0.83939 6:-0.673004 7:-0.820488 8:-0.673004 9:-0.922839 10:-0.833333 11:-0.893761 12:0.847773 13:-0.854917 14:-0.83871 15:-0.94417 16:-0.83871 17:-0.83871 18:-0.801394 19:-0.688623 21:-0.693122 22:-0.208333 23:-0.95702 24:-1 25:-0.854917 26:-1 27:-0.949557 29:-0.820113 30:-0.759918 31:-0.458422 32:-0.903729 33:-0.853601 34:-0.903729 35:-0.50838 36:-0.691891 37:-0.998633 38:-0.958874 39:-0.998633 40:-1 41:-0.848739 42:-1 43:-0.727273 44:-1 45:-0.62963 46:-0.647059 47:-0.795918 48:-0.782313 49:-0.764706 50:-0.767442 51:-1 52:0.270982 53:-1 54:-1 55:-0.634615 56:-0.5 57:-0.699552 58:-0.950278 
-8 1:-0.896792 2:-0.715901 3:-0.113801 4:-0.907261 5:-0.827609 6:-0.764259 7:-0.911314 8:-0.764259 9:-0.872712 10:-0.566667 11:-0.917813 12:0.833645 13:-0.891396 14:-0.709677 15:-0.931133 16:-0.709677 17:-0.709677 18:-0.832753 19:-0.844311 21:-0.373016 22:-0.0761905 23:-0.944285 24:-1 25:-0.891396 26:-1 27:-0.956129 29:-0.604816 30:-0.723517 31:-0.814499 32:-0.796184 33:-0.787602 34:-0.796184 35:-0.675978 36:-0.633894 37:-0.988229 38:-0.757382 39:-0.988229 40:-1 41:-0.647059 42:-1 43:-0.818182 44:-0.714286 45:-0.407407 46:-1 47:-0.653061 48:-0.755102 49:-1 50:-0.651163 51:-1 52:0.154592 53:-1 54:-1 55:-0.538462 56:-0.1875 57:-0.538117 58:-0.930394 
8 1:-0.949494 2:-0.973625 3:-0.975787 4:-0.99422 5:-0.891905 6:-0.969582 7:-0.822969 8:-0.969582 9:-0.994368 10:-1 11:-0.975126 12:0.935175 13:-0.944048 14:-0.967742 15:-0.881624 16:-0.967742 17:-0.967742 18:-0.986063 19:-0.976048 21:-0.941799 22:0.0505051 23:-0.990204 24:-1 25:-0.944048 26:-1 27:-0.993765 29:-0.954674 30:-0.974642 31:-0.98081 32:-0.995663 33:-0.930088 34:-0.995663 35:-0.98324 36:-0.90802 37:-1 38:-1 39:-1 40:-1 41:-0.932773 42:-1 43:-1 44:-1 45:-1 46:-0.882353 47:-0.897959 48:-0.972789 49:-0.882353 50:-0.953488 51:-1 52:-0.178355 53:-1 54:-1 55:-0.980769 56:-0.625 57:-0.977578 58:-0.99501 
-8 1:-0.876278 2:-0.819141 3:-0.733656 4:-0.945238 5:-0.844455 6:-0.961977 7:-0.975817 8:-0.961977 9:-0.904252 10:-0.833333 11:-0.909495 12:0.864619 13:-0.872374 14:-0.967742 15:-0.987064 16:-0.967742 17:-0.967742 18:-0.87108 19:-0.748503 21:-0.706349 22:0.0453333 23:-0.960693 24:-1 25:-0.872374 26:-1 27:-0.940663 29:-0.824363 30:-0.813497 31:-0.671642 32:-0.919341 33:-0.857895 34:-0.919341 35:-0.765363 36:-0.714652 37:-0.998454 38:-0.946139 39:-0.998454 40:-1 41:-0.882353 42:-1 43:-1 44:-0.714286 45:-0.62963 46:-0.882353 47:-0.653061 48:-0.768707 49:-0.882353 50:-0.813953 51:-1 52:-0.0155429 53:-1 54:-1 55:-0.596154 56:-0.625 57:-0.780269 58:-0.95717 
8 1:-0.882367 2:-0.91786 3:-0.883777 4:-0.982043 5:-0.853174 6:-0.931559 7:-0.868382 8:-0.931559 9:-0.975218 10:-0.866667 11:-0.912066 12:0.867246 13:-0.886479 14:-0.967742 15:-0.960885 16:-0.967742 17:-0.967742 18:-0.968641 19:-0.952096 21:-0.912698 22:0.116279 23:-0.972693 24:-1 25:-0.886479 26:-1 27:-0.983957 29:-0.94051 30:-0.936605 31:-0.895522 32:-0.966175 33:-0.819811 34:-0.966175 35:-0.938547 36:-0.838198 37:-0.998633 38:-0.855932 39:-0.998633 40:-1 41:-0.966387 42:-1 43:-1 44:-1 45:-1 46:-1 47:-0.959184 48:-0.945578 49:-1 50:-0.930233 51:-1 52:0.115615 53:-1 54:-1 55:-0.865385 56:-0.625 57:-0.789238 58:-0.985623 
-8 1:-0.907448 2:-0.844009 3:-0.627119 4:-0.943948 5:-0.818672 6:-0.863118 7:-0.914938 8:-0.863118 9:-0.934666 10:-0.733333 11:-0.929205 12:0.834492 13:-0.887902 14:-1 15:-1 16:-1 17:-1 18:-0.84669 19:-0.868263 21:-0.619048 22:0.0590112 23:-0.969999 24:-1 25:-0.887902 26:-1 27:-0.950489 29:-0.705382 30:-0.853988 31:-0.799574 32:-0.863833 33:-0.765602 34:-0.863833 35:-0.748603 36:-0.721518 37:-0.999287 38:-0.975711 39:-0.999287 40:-1 41:-0.663866 42:-1 43:-1 44:-1 45:-0.481481 46:-1 47:-0.734694 48:-0.823129 49:-1 50:-0.744186 51:-1 52:0.0378674 53:-1 54:-1 55:-0.658654 56:-0.5625 57:-0.623318 58:-0.959149 
-8 1:-0.909309 2:-0.986436 3:-0.995157 4:-0.996246 5:-0.87424 6:-0.977186 7:-0.799658 8:-0.977186 9:-0.996621 10:-1 11:-0.938491 12:0.905121 13:-0.917147 14:-1 15:-1 16:-1 17:-1 18:-0.982578 19:-0.988024 21:-0.973545 22:0.111111 23:-0.992898 24:-1 25:-0.917147 26:-1 27:-0.998188 29:-0.984419 30:-0.986094 31:-0.976546 32:-0.981787 33:-0.556941 34:-0.981787 35:-0.994413 36:-0.927122 37:-1 38:-1 39:-1 40:-1 41:-1 42:-1 43:-1 44:-1 45:-1 46:-1 47:-1 48:-0.986395 49:-1 50:-1 51:-1 52:-0.130952 53:-1 54:-1 55:-0.980769 56:-0.9375 57:-0.977578 58:-0.996736 
-8 1:-0.905608 2:-0.948003 3:-0.995157 4:-0.988448 5:-0.841949 6:-0.961977 7:-0.887127 8:-0.961977 9:-0.983667 10:-0.9 11:-0.957524 12:0.936731 13:-0.918708 14:-0.967742 15:-0.93962 16:-0.967742 17:-0.967742 18:-0.965157 19:-0.952096 21:-0.925926 22:0.263158 23:-0.986653 24:-1 25:-0.918708 26:-1 27:-0.983301 29:-0.947592 30:-0.957464 31:-0.965885 32:-0.947095 33:-0.564947 34:-0.947095 35:-0.972067 36:-0.873255 37:-0.999881 38:-0.980662 39:-0.999881 40:-1 41:-0.915966 42:-1 43:-0.909091 44:-1 45:-0.925926 46:-1 47:-0.959184 48:-0.959184 49:-1 50:-0.976744 51:-1 52:-0.176692 53:-1 54:-1 55:-0.9375 56:-0.8125 57:-0.950673 58:-0.99094 
-8 1:-0.925461 2:-0.90731 3:-0.912833 4:-0.98046 5:-0.863861 6:-1 7:-1 8:-1 9:-0.976345 10:-0.833333 11:-0.960115 12:0.922081 13:-0.921119 14:-1 15:-1 16:-1 17:-1 18:-0.954704 19:-0.976048 21:-0.851852 22:0.128205 23:-0.982857 24:-1 25:-0.921119 26:-1 27:-0.982497 29:-0.890935 30:-0.923926 31:-0.921109 32:-0.961839 33:-0.812979 34:-0.961839 35:-0.949721 36:-0.830758 37:-0.999049 38:-0.9078 39:-0.999049 40:-1 41:-0.94958 42:-1 43:-0.909091 44:-1 45:-1 46:-1 47:-0.857143 48:-0.768707 49:-1 50:-1 51:-1 52:0.0695971 53:-1 54:-1 55:-0.903846 56:-0.5625 57:-0.7713 58:-0.984337 
-8 1:-0.866392 2:-0.954032 3:-0.917676 4:-0.990573 5:-0.830171 6:-1 7:-1 8:-1 9:-0.990425 10:-0.9 11:-0.898729 12:0.842228 13:-0.84836 14:-1 15:-1 16:-1 17:-1 18:-0.979094 19:-0.94012 21:-0.94709 22:0.015873 23:-0.987265 24:-1 25:-0.84836 26:-1 27:-0.985935 29:-0.971671 30:-0.972188 31:-0.959488 32:-0.974848 33:-0.747658 34:-0.974848 35:-0.944134 36:-0.886057 37:-1 38:-1 39:-1 40:-1 41:-0.966387 42:-1 43:-0.909091 44:-1 45:-0.851852 46:-1 47:-0.979592 48:-0.972789 49:-1 50:-0.976744 51:-1 52:0.092517 53:-1 54:-1 55:-0.927885 56:-0.75 57:-0.946188 58:-0.992578 
-8 1:-0.932736 2:-0.859081 3:-0.830508 4:-0.972923 5:-0.873472 6:-0.847909 7:-0.805195 8:-0.847909 9:-0.976345 10:-0.8 11:-0.963631 12:0.924806 13:-0.92767 14:-0.967742 15:-0.973948 16:-0.967742 17:-0.967742 18:-0.89547 19:-0.892216 21:-0.822751 22:0.139601 23:-0.975387 24:-1 25:-0.92767 26:-1 27:-0.956909 29:-0.835694 30:-0.907157 31:-0.82516 32:-0.966175 33:-0.879988 34:-0.966175 35:-0.748603 36:-0.797391 37:-1 38:-1 39:-1 40:-1 41:-0.882353 42:-1 43:-0.909091 44:-1 45:-0.777778 46:-1 47:-0.795918 48:-0.85034 49:-1 50:-0.953488 51:-1 52:0.0517705 53:-1 54:-1 55:-0.793269 56:-0.75 57:-0.829596 58:-0.977898 
-8 1:-0.907208 2:-0.975885 3:-0.961259 4:-0.986734 5:-0.886211 6:-0.954373 7:-0.881747 8:-0.954373 9:-0.993805 10:-0.966667 11:-0.91753 12:0.861989 13:-0.899929 14:-1 15:-1 16:-1 17:-1 18:-0.989547 19:-0.964072 21:-0.910053 22:-0.111111 23:-0.985061 24:-1 25:-0.899929 26:-1 27:-0.983894 29:-0.946176 30:-0.97955 31:-0.936034 32:-0.901127 33:-0.290164 34:-0.901127 35:-0.994413 36:-0.855139 37:-0.999881 38:-0.983117 39:-0.999881 40:-1 41:-1 42:-1 43:-1 44:-1 45:-1 46:-1 47:-0.959184 48:-0.85034 49:-1 50:-1 51:-1 52:0.0695971 53:-1 54:-1 55:-0.980769 56:-0.6875 57:-0.973094 58:-0.988344 
8 1:-0.902503 2:-0.996986 3:-1 4:-0.999558 5:-0.851401 6:-1 7:-1 8:-1 9:-0.998874 10:-1 11:-0.920179 12:0.849154 13:-0.89232 14:-1 15:-1 16:-1 17:-1 18:-1 19:-1 21:-0.997354 22:0.333333 23:-0.995714 24:-1 25:-0.89232 26:-1 27:-1 29:-0.998584 30:-0.998364 31:-1 32:-0.993929 33:-0.123488 34:-0.993929 35:-1 36:-0.976057 37:-1 38:-1 39:-1 40:-1 41:-1 42:-1 43:-1 44:-1 45:-1 46:-1 47:-1 48:-1 49:-1 50:-1 51:-1 52:0.0428571 53:-1 54:-1 55:-1 56:-1 57:-1 58:-0.999509 
8 1:-0.968123 2:-0.958553 3:-1 4:-0.988314 5:-0.916515 6:-0.954373 7:-0.866071 8:-0.954373 9:-0.990425 10:-1 11:-0.98006 12:0.922129 13:-0.956914 14:-1 15:-1 16:-1 17:-1 18:-1 19:-0.976048 21:-0.886243 22:-0.340502 23:-0.988245 24:-1 25:-0.956914 26:-1 27:-0.98483 29:-0.869688 30:-0.968098 31:-0.98081 32:-0.99046 33:-0.922428 34:-0.99046 35:-0.977654 36:-0.867828 37:-1 38:-1 39:-1 40:-1 41:-0.966387 42:-1 43:-0.909091 44:-1 45:-1 46:-1 47:-0.918367 48:-0.986395 49:-1 50:-0.976744 51:-1 52:0.345622 53:-1 54:-1 55:-0.971154 56:-0.6875 57:-0.991031 58:-0.990197 
8 1:-0.893551 2:-0.749812 3:-0.25908 4:-0.921601 5:-0.805272 6:-0.703422 7:-0.868079 8:-0.703422 9:-0.929034 10:-0.4 11:-0.920695 12:0.828504 13:-0.885939 14:-0.967742 15:-0.990953 16:-0.967742 17:-0.967742 18:-0.766551 19:-0.736527 21:-0.542328 22:-0.0254351 23:-0.959469 24:-1 25:-0.885939 26:-1 27:-0.931668 29:-0.648725 30:-0.79591 31:-0.599147 32:-0.91327 33:-0.893134 34:-0.91327 35:-0.486034 36:-0.671863 37:-1 38:-1 39:-1 40:-1 41:-0.764706 42:-1 43:-0.636364 44:-0.714286 45:-0.703704 46:-0.764706 47:-0.591837 48:-0.782313 49:-0.882353 50:-0.604651 51:-1 52:0.114056 53:-1 54:-1 55:-0.461538 56:-0.5625 57:-0.636771 58:-0.943789 
-8 1:-0.890603 2:-0.809344 3:-0.791768 4:-0.957986 5:-0.834217 6:-0.992395 7:-0.993704 8:-0.992395 9:-0.953253 10:-0.866667 11:-0.922518 12:0.86434 13:-0.889626 14:-0.903226 15:-0.94948 16:-0.903226 17:-0.903226 18:-0.905923 19:-0.784431 21:-0.716931 22:-0.00289855 23:-0.96902 24:-1 25:-0.889626 26:-1 27:-0.946692 29:-0.838527 30:-0.85726 31:-0.739872 32:-0.925412 33:-0.828938 34:-0.925412 35:-0.748603 36:-0.753827 37:-0.998692 38:-0.940673 39:-0.998692 40:-1 41:-0.579832 42:-1 43:-1 44:-1 45:-0.777778 46:-0.764706 47:-0.77551 48:-0.809524 49:-0.764706 50:-0.906977 51:-1 52:0.124472 53:-1 54:-1 55:-0.745192 56:-0.6875 57:-0.757848 58:-0.967831 
8 1:-0.909314 2:-0.926149 3:-0.898305 4:-0.973682 5:-0.830911 6:-0.969582 7:-0.959926 8:-0.969582 9:-0.965643 10:-0.9 11:-0.929831 12:0.843573 13:-0.891156 14:-0.967742 15:-0.973204 16:-0.967742 17:-0.967742 18:-0.909408 19:-0.904192 21:-0.820106 22:-0.120567 23:-0.974775 24:-1 25:-0.891156 26:-1 27:-0.979719 29:-0.868272 30:-0.93865 31:-0.923241 32:-0.941023 33:-0.78477 34:-0.941023 35:-0.888268 36:-0.809847 37:-0.998633 38:-0.901305 39:-0.998633 40:-1 41:-0.94958 42:-1 43:-0.545455 44:-1 45:-0.851852 46:-1 47:-0.959184 48:-0.959184 49:-1 50:-0.976744 51:-1 52:0.242553 53:-1 54:-1 55:-0.850962 56:-0.5 57:-0.923767 58:-0.980431 
-8 1:-0.893139 2:-0.546345 3:-0.675545 4:-0.869647 5:-0.822537 6:-0.498099 7:-0.865573 8:-0.498099 9:-0.832723 10:-0.633333 11:-0.924186 12:0.853971 13:-0.891253 14:-0.322581 15:-0.885598 16:-0.322581 17:-0.322581 18:-0.738676 19:-0.724551 21:-0.203704 22:-0.108808 23:-0.94208 24:-1 25:-0.891253 26:-1 27:-0.95074 29:-0.454674 30:-0.646217 31:-0.767591 32:-0.661752 33:-0.749045 34:-0.661752 35:-0.659218 36:-0.564096 37:-0.998692 38:-0.980808 39:-0.998692 40:-1 41:-0.00840336 42:-1 43:-0.909091 44:-1 45:-0.333333 46:-1 47:-0.591837 48:-0.823129 49:-1 50:-0.837209 51:-1 52:0.140118 53:-1 54:-1 55:-0.399038 56:0.0625 57:-0.497758 58:-0.902043 
8 1:-0.889039 2:-0.650339 3:-0.845036 4:-0.914774 5:-0.841012 6:-1 7:-1 8:-1 9:-0.842298 10:-0.533333 11:-0.925247 12:0.880501 13:-0.889425 14:-0.967742 15:-0.991675 16:-0.967742 17:-0.967742 18:-0.780488 19:-0.676647 21:-0.44709 22:-0.00747384 23:-0.946856 24:-1 25:-0.889425 26:-1 27:-0.9145 29:-0.685552 30:-0.725971 31:-0.759062 32:-0.579358 33:-0.52311 34:-0.579358 35:-0.703911 36:-0.644209 37:-1 38:-1 39:-1 40:-1 41:-0.613445 42:-1 43:-1 44:-1 45:-0.555556 46:-1 47:-0.367347 48:-0.673469 49:-0.882353 50:-0.883721 51:-1 52:0.0194747 53:-1 54:-1 55:-0.509615 56:-0.625 57:-0.556054 58:-0.934174 
-8 1:-0.933825 2:-0.936699 3:-0.893462 4:-0.983832 5:-0.873838 6:-0.901141 7:-0.789137 8:-0.901141 9:-0.985919 10:-0.933333 11:-0.969101 12:0.937648 13:-0.928828 14:-1 15:-1 16:-1 17:-1 18:-0.944251 19:-0.928144 21:-0.89418 22:-0.0502283 23:-0.974163 24:-1 25:-0.928828 26:-1 27:-0.973805 29:-0.898017 30:-0.954601 31:-0.901919 32:-0.974848 33:-0.851391 34:-0.974848 35:-0.882682 36:-0.843421 37:-0.998454 38:-0.819367 39:-0.998454 40:-1 41:-0.89916 42:-1 43:-1 44:-1 45:-1 46:-1 47:-1 48:-0.931973 49:-1 50:-0.930233 51:-1 52:0.171429 53:-1 54:-1 55:-0.951923 56:-0.75 57:-0.919283 58:-0.986492 
8 1:-0.934091 2:-0.905049 3:-0.90799 4:-0.982776 5:-0.899484 6:-0.969582 7:-0.939043 8:-0.969582 9:-0.976908 10:-1 11:-0.959728 12:0.935243 13:-0.934683 14:-0.967742 15:-0.95924 16:-0.967742 17:-0.967742 18:-0.916376 19:-0.856287 21:-0.851852 22:-0.030303 23:-0.983347 24:-1 25:-0.934683 26:-1 27:-0.981951 29:-0.907932 30:-0.949284 31:-0.880597 32:-0.954033 33:-0.744832 34:-0.954033 35:-0.843575 36:-0.835169 37:-0.998395 38:-0.823766 39:-0.998395 40:-1 41:-0.89916 42:-1 43:-1 44:-1 45:-0.925926 46:-0.647059 47:-0.918367 48:-1 49:-0.647059 50:-0.883721 51:-1 52:0.0744589 53:-1 54:-1 55:-0.884615 56:-0.625 57:-0.90583 58:-0.985106 
-8 1:-0.910598 2:-0.40844 3:-0.598063 4:-0.878228 5:-0.863586 6:-0.787072 7:-0.938959 8:-0.787072 9:-0.874402 10:-0.8 11:-0.946547 12:0.915496 13:-0.913922 14:-0.354839 15:-0.883381 16:-0.354839 17:-0.354839 18:-0.749129 19:-0.60479 21:-0.187831 22:-0.0025974 23:-0.938897 24:-1 25:-0.913922 26:-1 27:-0.912112 29:-0.456091 30:-0.61227 31:-0.592751 32:-0.549003 33:-0.641856 34:-0.549003 35:-0.603352 36:-0.563924 37:-0.999643 38:-0.994398 39:-0.999643 40:-1 41:-0.176471 42:-1 43:-0.818182 44:-0.714286 45:-0.777778 46:-0.882353 47:-0.44898 48:-0.714286 49:-0.882353 50:-0.627907 51:-1 52:0.0780705 53:-1 54:-1 55:-0.225962 56:-0.4375 57:-0.439462 58:-0.901967 
-8 1:-0.931365 2:-0.987943 3:-1 4:-0.996939 5:-0.860955 6:-0.984791 7:-0.838308 8:-0.984791 9:-0.996621 10:-1 11:-0.955613 12:0.893704 13:-0.924192 14:-0.935484 15:-0.567525 16:-0.935484 17:-0.935484 18:-0.993031 19:-1 21:-0.978836 22:0.0666667 23:-0.99302 24:-1 25:-0.924192 26:-1 27:-0.998459 29:-0.98017 30:-0.989775 31:-1 32:-0.99046 33:-0.719043 34:-0.99046 35:-1 36:-0.936367 37:-1 38:-1 39:-1 40:-1 41:-0.966387 42:-1 43:-1 44:-1 45:-1 46:-1 47:-0.979592 48:-1 49:-1 50:-1 51:-1 52:0.112381 53:-1 54:-1 55:-0.971154 56:-0.9375 57:-0.991031 58:-0.997442 
8 1:-0.899045 2:-0.878674 3:-0.854722 4:-0.958283 5:-0.815952 6:-0.589354 7:-0.657606 8:-0.589354 9:-0.939735 10:-0.933333 11:-0.932305 12:0.858355 13:-0.903937 14:-0.967742 15:-0.983041 16:-0.967742 17:-0.967742 18:-0.885017 19:-0.964072 21:-0.714286 22:-0.00952381 23:-0.976612 24:-1 25:-0.903937 26:-1 27:-0.981519 29:-0.803116 30:-0.903067 31:-0.91258 32:-0.893322 33:-0.753607 34:-0.893322 35:-0.877095 36:-0.757949 37:-0.998098 38:-0.913094 39:-0.998098 40:-1 41:-0.848739 42:-1 43:-0.909091 44:-1 45:-0.851852 46:-1 47:-0.918367 48:-0.972789 49:-1 50:-0.860465 51:-1 52:0.0279592 53:-1 54:-1 55:-0.846154 56:-0.125 57:-0.829596 58:-0.968864 
8 1:-0.910925 2:-0.821402 3:-0.743341 4:-0.947762 5:-0.826305 6:-0.8327 7:-0.888479 8:-0.8327 9:-0.928471 10:-0.4 11:-0.936162 12:0.853079 13:-0.901521 14:-0.903226 15:-0.959325 16:-0.903226 17:-0.903226 18:-0.815331 19:-0.94012 21:-0.637566 22:0.0666667 23:-0.978204 24:-1 25:-0.901521 26:-1 27:-0.953557 29:-0.71813 30:-0.840491 31:-0.865672 32:-0.908066 33:-0.830242 34:-0.908066 35:-0.871508 36:-0.72828 37:-0.999881 38:-0.995658 39:-0.999881 40:-1 41:-0.747899 42:-1 43:-0.727273 44:-1 45:-0.777778 46:-1 47:-0.755102 48:-0.85034 49:-1 50:-0.860465 51:-1 52:-0.00928571 53:-1 54:-1 55:-0.634615 56:-0.5625 57:-0.811659 58:-0.961051 
-8 1:-0.888868 2:-0.775433 3:-0.859564 4:-0.960749 5:-0.853388 6:-0.574144 7:-0.622746 8:-0.574144 9:-0.967333 10:-0.966667 11:-0.911427 12:0.853341 13:-0.894553 14:-0.645161 15:-0.801796 16:-0.645161 17:-0.645161 18:-0.940767 19:-0.928144 21:-0.804233 22:-0.260726 23:-0.951632 24:-1 25:-0.894553 26:-1 27:-0.958914 29:-0.858357 30:-0.905521 31:-0.925373 32:-0.912402 33:-0.78504 34:-0.912402 35:-0.865922 36:-0.755829 37:-1 38:-1 39:-1 40:-1 41:-0.89916 42:-1 43:-1 44:-1 45:-1 46:-1 47:-0.959184 48:-0.931973 49:-1 50:-0.953488 51:-1 52:0.404243 53:-1 54:-1 55:-0.826923 56:-0.625 57:-0.834081 58:-0.968335 
-8 1:-0.907301 2:-0.816127 3:-0.733656 4:-0.951755 5:-0.847348 6:-0.878327 7:-0.912212 8:-0.878327 9:-0.928471 10:-0.833333 11:-0.953234 12:0.926311 13:-0.921614 14:-1 15:-1 16:-1 17:-1 18:-0.867596 19:-0.592814 21:-0.695767 22:-0.025641 23:-0.969877 24:-1 25:-0.921614 26:-1 27:-0.949571 29:-0.780453 30:-0.842127 31:-0.620469 32:-0.901995 33:-0.804122 34:-0.901995 35:-0.743017 36:-0.732942 37:-1 38:-1 39:-1 40:-1 41:-0.781513 42:-1 43:-0.636364 44:-1 45:-0.925926 46:-0.882353 47:-0.816327 48:-0.70068 49:-0.764706 50:-0.813953 51:-1 52:0.0562271 53:-1 54:-1 55:-0.581731 56:-0.625 57:-0.811659 58:-0.962337 
8 1:-0.901988 2:-0.974378 3:-0.975787 4:-0.995005 5:-0.843911 6:-0.961977 7:-0.745431 8:-0.961977 9:-0.994931 10:-0.966667 11:-0.938644 12:0.894172 13:-0.90927 14:-0.967742 15:-0.863821 16:-0.967742 17:-0.967742 18:-0.986063 19:-0.988024 21:-0.970899 22:0.166667 23:-0.986898 24:-1 25:-0.90927 26:-1 27:-0.997118 29:-0.978754 30:-0.98364 31:-0.985075 32:-0.974848 33:-0.533529 34:-0.974848 35:-0.994413 36:-0.917978 37:-1 38:-1 39:-1 40:-1 41:-0.915966 42:-1 43:-1 44:-1 45:-1 46:-1 47:-1 48:-0.972789 49:-1 50:-1 51:-1 52:0.173214 53:-1 54:-1 55:-0.995192 56:-0.875 57:-0.977578 58:-0.995955 
-8 1:-0.893774 2:-0.901281 3:-0.961259 4:-0.962694 5:-0.851413 6:-0.870722 7:-0.879542 8:-0.870722 9:-0.971839 10:-1 11:-0.930997 12:0.895717 13:-0.905926 14:-0.419355 15:-0.65886 16:-0.419355 17:-0.419355 18:-0.954704 19:-0.94012 21:-0.78836 22:-0.24183 23:-0.96902 24:-1 25:-0.905926 26:-1 27:-0.966935 29:-0.856941 30:-0.905112 31:-0.93177 32:-0.796184 33:-0.473929 34:-0.796184 35:-0.916201 36:-0.762553 37:-0.998514 38:-0.924126 39:-0.998514 40:-1 41:-0.831933 42:-1 43:-1 44:-1 45:-0.925926 46:-1 47:-0.918367 48:-0.877551 49:-1 50:-0.953488 51:-1 52:0.370028 53:-1 54:-1 55:-0.875 56:-0.5625 57:-0.896861 58:-0.969998 
8 1:-0.896368 2:-0.680482 3:-0.598063 4:-0.919108 5:-0.842806 6:-0.802281 7:-0.914756 8:-0.802281 9:-0.869896 10:-0.266667 11:-0.932189 12:0.886711 13:-0.900573 14:-0.645161 15:-0.903537 16:-0.645161 17:-0.645161 18:-0.637631 19:-0.844311 21:-0.5 22:-0.118841 23:-0.947223 24:-1 25:-0.900573 26:-1 27:-0.953588 29:-0.675637 30:-0.747239 31:-0.850746 32:-0.717259 33:-0.662323 34:-0.717259 35:-0.731844 36:-0.652819 37:-1 38:-1 39:-1 40:-1 41:-0.327731 42:-1 43:-0.909091 44:-0.714286 45:0.111111 46:-0.882353 47:-0.857143 48:-0.836735 49:-0.882353 50:-0.72093 51:-1 52:0.0791304 53:-1 54:-1 55:-0.5 56:-0.3125 57:-0.565022 58:-0.937249 
-8 1:-0.915088 2:-0.960814 3:-0.946731 4:-0.992242 5:-0.854353 6:-1 7:-1 8:-1 9:-0.989862 10:-0.933333 11:-0.955634 12:0.92311 13:-0.918115 14:-1 15:-1 16:-1 17:-1 18:-0.979094 19:-1 21:-0.939153 22:0.142857 23:-0.98849 24:-1 25:-0.918115 26:-1 27:-0.988291 29:-0.961756 30:-0.968916 31:-0.959488 32:-0.983521 33:-0.800116 34:-0.983521 35:-0.977654 36:-0.896104 37:-0.999406 38:-0.857374 39:-0.999406 40:-1 41:-0.932773 42:-1 43:-1 44:-1 45:-0.851852 46:-1 47:-0.979592 48:-0.986395 49:-1 50:-1 51:-1 52:-0.106122 53:-1 54:-1 55:-0.956731 56:-0.75 57:-0.928251 58:-0.99375 
-8 1:-0.893935 2:-0.748304 3:-0.496368 4:-0.924275 5:-0.865042 6:-0.931559 7:-0.968485 8:-0.931559 9:-0.904252 10:-0.8 11:-0.92784 12:0.898064 13:-0.890568 14:-0.806452 15:-0.943805 16:-0.806452 17:-0.806452 18:-0.815331 19:-0.736527 21:-0.539683 22:-0.133333 23:-0.933631 24:-1 25:-0.890568 26:-1 27:-0.959581 29:-0.71813 30:-0.71411 31:-0.545842 32:-0.778838 33:-0.7179 34:-0.778838 35:-0.620112 36:-0.652926 37:-0.998692 38:-0.967004 39:-0.998692 40:-1 41:-0.848739 42:-1 43:-0.818182 44:-1 45:-1 46:-0.764706 47:-0.77551 48:-0.605442 49:-0.764706 50:-0.627907 51:-1 52:0.241 53:-1 54:-1 55:-0.509615 56:-0.25 57:-0.627803 58:-0.937287 
8 1:-0.927376 2:-0.998493 3:-1 4:-0.999534 5:-0.853604 6:-1 7:-1 8:-1 9:-0.999437 10:-1 11:-0.910413 12:0.772241 13:-0.901281 14:-1 15:-1 16:-1 17:-1 18:-1 19:-1 21:-0.997354 22:0.777778 23:-0.997796 24:-1 25:-0.901281 26:-1 27:-0.998278 29:-0.997167 30:-0.999591 31:-0.997868 32:-0.994796 33:-0.27522 34:-0.994796 35:-1 36:-0.976057 37:-1 38:-1 39:-1 40:-1 41:-1 42:-1 43:-1 44:-1 45:-1 46:-1 47:-1 48:-0.986395 49:-1 50:-1 51:-1 52:-0.304762 53:-1 54:-1 55:-1 56:-0.9375 57:-1 58:-0.999509 
-8 1:-0.883799 2:-0.983421 3:-0.995157 4:-0.996541 5:-0.8463 6:-0.977186 7:-0.783654 8:-0.977186 9:-0.993805 10:-1 11:-0.918454 12:0.876353 13:-0.893258 14:-0.967742 15:-0.807113 16:-0.967742 17:-0.967742 18:-0.993031 19:-0.976048 21:-0.978836 22:0.185185 23:-0.989714 24:-1 25:-0.893258 26:-1 27:-1 29:-0.988669 30:-0.991002 31:-0.978678 32:-0.979185 33:-0.453199 34:-0.979185 35:-0.988827 36:-0.932434 37:-1 38:-1 39:-1 40:-1 41:-1 42:-1 43:-1 44:-1 45:-0.925926 46:-1 47:-0.979592 48:-0.972789 49:-1 50:-1 51:-1 52:-0.304762 53:-1 54:-1 55:-0.980769 56:-1 57:-0.977578 58:-0.997152 
8 1:-0.925562 2:-0.824416 3:-0.709443 4:-0.95642 5:-0.85775 6:-0.847909 7:-0.87858 8:-0.847909 9:-0.963391 10:-0.6 11:-0.955575 12:0.903692 13:-0.918621 14:-0.806452 15:-0.902572 16:-0.806452 17:-0.806452 18:-0.857143 19:-0.916168 21:-0.677249 22:0.0518519 23:-0.971101 24:-1 25:-0.918621 26:-1 27:-0.966347 29:-0.746459 30:-0.84499 31:-0.833689 32:-0.89072 33:-0.758331 34:-0.89072 35:-0.75419 36:-0.745535 37:-0.998811 38:-0.947994 39:-0.998811 40:-1 41:-0.798319 42:-1 43:-1 44:-0.714286 45:-0.777778 46:-0.764706 47:-0.673469 48:-0.768707 49:-0.764706 50:-0.837209 51:-1 52:-0.0150794 53:-1 54:-1 55:-0.735577 56:-0.5 57:-0.695067 58:-0.965701 
-8 1:-0.90399 2:-0.886963 3:-0.733656 4:-0.967776 5:-0.849756 6:-0.91635 7:-0.909851 8:-0.91635 9:-0.955505 10:-0.733333 11:-0.932538 12:0.878537 13:-0.905739 14:-0.935484 15:-0.95616 16:-0.935484 17:-0.935484 18:-0.881533 19:-0.868263 21:-0.761905 22:-0.138047 23:-0.976367 24:-1 25:-0.905739 26:-1 27:-0.967445 29:-0.86119 30:-0.892843 31:-0.716418 32:-0.907199 33:-0.722961 34:-0.907199 35:-0.821229 36:-0.782181 37:-0.998098 38:-0.887674 39:-0.998098 40:-1 41:-0.747899 42:-1 43:-0.909091 44:-0.714286 45:-0.62963 46:-0.764706 47:-0.816327 48:-0.768707 49:-0.764706 50:-0.813953 51:-1 52:0.0744589 53:-1 54:-1 55:-0.778846 56:-0.625 57:-0.713004 58:-0.974597 
-8 1:-0.874521 2:-0.954785 3:-0.917676 4:-0.987946 5:-0.785499 6:-0.931559 7:-0.80513 8:-0.931559 9:-0.988736 10:-0.9 11:-0.908522 12:0.816465 13:-0.866322 14:-1 15:-1 16:-1 17:-1 18:-0.937282 19:-0.988024 21:-0.915344 22:-0.030303 23:-0.98653 24:-1 25:-0.866322 26:-1 27:-0.996094 29:-0.954674 30:-0.961145 31:-0.96162 32:-0.98699 33:-0.897391 34:-0.98699 35:-0.955307 36:-0.876387 37:-0.999941 38:-0.990726 39:-0.999941 40:-1 41:-0.915966 42:-1 43:-0.909091 44:-1 45:-0.62963 46:-1 47:-0.959184 48:-0.945578 49:-1 50:-0.953488 51:-1 52:0.137662 53:-1 54:-1 55:-0.9375 56:-0.875 57:-0.955157 58:-0.991356 
8 1:-0.876853 2:-0.951017 3:-0.970944 4:-0.98569 5:-0.837655 6:-1 7:-1 8:-1 9:-0.987609 10:-1 11:-0.905885 12:0.848146 13:-0.872338 14:-1 15:-1 16:-1 17:-1 18:-0.979094 19:-0.916168 21:-0.915344 22:0.0980392 23:-0.976734 24:-1 25:-0.872338 26:-1 27:-0.986963 29:-0.953258 30:-0.946421 31:-0.886994 32:-0.969644 33:-0.797728 34:-0.969644 35:-0.949721 36:-0.857979 37:-0.999881 38:-0.98433 39:-0.999881 40:-1 41:-0.966387 42:-1 43:-1 44:-1 45:-1 46:-1 47:-0.857143 48:-0.931973 49:-1 50:-0.883721 51:-1 52:-0.0798319 53:-1 54:-1 55:-0.913462 56:-0.5625 57:-0.946188 58:-0.988773 
-8 1:-0.90994 2:-0.958553 3:-0.966102 4:-0.987921 5:-0.840604 6:-1 7:-1 8:-1 9:-0.988736 10:-1 11:-0.94236 12:0.885255 13:-0.911138 14:-1 15:-1 16:-1 17:-1 18:-0.97561 19:-0.868263 21:-0.907407 22:0.206349 23:-0.983959 24:-1 25:-0.911138 26:-1 27:-0.97378 29:-0.941926 30:-0.957464 31:-0.938166 32:-0.99046 33:-0.924904 34:-0.99046 35:-0.899441 36:-0.871669 37:-0.999762 38:-0.962978 39:-0.999762 40:-1 41:-0.966387 42:-1 43:-1 44:-1 45:-0.925926 46:-0.882353 47:-0.857143 48:-0.972789 49:-0.882353 50:-0.976744 51:-1 52:-0.0564626 53:-1 54:-1 55:-0.951923 56:-0.8125 57:-0.910314 58:-0.990726 
3.143451788147309 1:-0.876175 2:-0.251696 3:0.961259 4:-0.78924 5:-0.793243 6:-0.695817 7:-0.949577 8:-0.695817 9:-0.676711 10:0.266667 11:-0.90005 12:0.796662 13:-0.861326 14:-1 15:-1 16:-1 17:-1 18:-0.205575 19:-0.221557 21:0.187831 22:-0.0745379 23:-0.93755 24:-1 25:-0.861326 26:-1 27:-0.957183 29:-0.209632 30:-0.353783 31:-0.15565 32:-0.870772 33:-0.940661 34:-0.870772 35:0.111732 36:-0.458027 37:-0.999584 38:-0.996221 39:-0.999584 40:-1 41:-0.327731 42:-1 44:-0.714286 45:0.185185 46:-0.529412 47:-0.204082 48:-0.428571 49:-0.529412 50:-0.348837 51:-1 52:0.115615 53:-1 54:-1 55:0.25 56:1 57:-0.0807175 58:-0.849712 
-8 1:-0.885957 2:-0.850791 3:-0.806295 4:-0.963512 5:-0.838532 6:-0.885932 7:-0.891345 8:-0.885932 9:-0.956632 10:-0.866667 11:-0.924692 12:0.882859 13:-0.895315 14:-0.967742 15:-0.980625 16:-0.967742 17:-0.967742 18:-0.867596 19:-0.844311 21:-0.785714 22:-0.0070922 23:-0.971101 24:-1 25:-0.895315 26:-1 27:-0.979083 29:-0.868272 30:-0.876074 31:-0.769723 32:-0.942758 33:-0.848959 34:-0.942758 35:-0.826816 36:-0.769359 37:-0.999524 38:-0.975179 39:-0.999524 40:-1 41:-0.865546 42:-1 43:-1 44:-1 45:-0.555556 46:-0.882353 47:-0.836735 48:-0.85034 49:-0.882353 50:-0.906977 51:-1 52:0.0206687 53:-1 54:-1 55:-0.721154 56:-0.3125 57:-0.802691 58:-0.971636 
-8 1:-0.904192 2:-0.663904 3:-0.554479 4:-0.909378 5:-0.848922 6:-0.885932 7:-0.956088 8:-0.885932 9:-0.892425 10:-0.7 11:-0.922906 12:0.851129 13:-0.894003 14:-1 15:-1 16:-1 17:-1 18:-0.836237 19:-0.712575 21:-0.439153 22:-0.0276775 23:-0.946979 24:-1 25:-0.894003 26:-1 27:-0.939148 29:-0.609065 30:-0.690798 31:-0.460554 32:-0.786644 33:-0.772479 34:-0.786644 35:-0.413408 36:-0.631225 37:-0.991201 38:-0.814424 39:-0.991201 40:-1 41:-0.781513 42:-1 43:-0.909091 44:-0.142857 45:-0.703704 46:-0.882353 47:-0.530612 48:-0.70068 49:-0.882353 50:-0.790698 51:-1 52:0.114389 53:-1 54:-1 55:-0.5 56:-0.4375 57:-0.591928 58:-0.929399 
-8 1:-0.946981 2:-0.856066 3:-0.893462 4:-0.966857 5:-0.915268 6:-1 7:-1 8:-1 9:-0.962264 10:-0.933333 11:-0.962725 12:0.930611 13:-0.939044 14:-0.83871 15:-0.893419 16:-0.83871 17:-0.83871 18:-0.916376 19:-0.94012 21:-0.727513 22:-0.183673 23:-0.969265 24:-1 25:-0.939044 26:-1 27:-0.975425 29:-0.793201 30:-0.896524 31:-0.889126 32:-0.905464 33:-0.725556 34:-0.905464 35:-0.905028 36:-0.762915 37:-0.998573 38:-0.918076 39:-0.998573 40:-1 41:-0.781513 42:-1 43:-0.727273 44:-1 45:-0.851852 46:-0.882353 47:-0.857143 48:-0.945578 49:-0.882353 50:-0.930233 51:-1 52:0.092517 53:-1 54:-1 55:-0.817308 56:-0.5 57:-0.816143 58:-0.970086 
8 1:-0.925914 2:-0.963075 3:-0.961259 4:-0.992921 5:-0.879997 6:-0.992395 7:-0.963606 8:-0.992395 9:-0.993241 10:-1 11:-0.955011 12:0.921895 13:-0.921356 14:-1 15:-1 16:-1 17:-1 18:-0.972125 19:-0.988024 21:-0.944444 22:-0.111111 23:-0.988367 24:-1 25:-0.921356 26:-1 27:-0.99097 29:-0.963173 30:-0.978323 31:-0.976546 32:-0.975716 33:-0.678056 34:-0.975716 35:-0.988827 36:-0.897924 37:-1 38:-1 39:-1 40:-1 41:-0.932773 42:-1 43:-1 44:-1 45:-1 46:-0.882353 47:-0.918367 48:-0.931973 49:-0.882353 50:-0.953488 51:-1 52:0.0042328 53:-1 54:-1 55:-0.947115 56:-0.6875 57:-0.914798 58:-0.993952 
8 1:-0.927965 2:-0.97061 3:-0.990315 4:-0.993063 5:-0.880602 6:-0.977186 7:-0.888656 8:-0.977186 9:-0.984793 10:-1 11:-0.955233 12:0.918779 13:-0.934172 14:-0.967742 15:-0.90073 16:-0.967742 17:-0.967742 18:-0.986063 19:-0.976048 21:-0.944444 22:-0.111111 23:-0.990326 24:-1 25:-0.934172 26:-1 27:-0.993813 29:-0.963173 30:-0.978732 31:-0.96162 32:-0.959237 33:-0.448897 34:-0.959237 35:-0.98324 36:-0.899542 37:-1 38:-1 39:-1 40:-1 41:-0.983193 42:-1 43:-0.818182 44:-1 45:-1 46:-0.882353 47:-0.918367 48:-0.986395 49:-0.882353 50:-0.976744 51:-1 52:-0.0730159 53:-1 54:-1 55:-0.966346 56:-0.8125 57:-0.991031 58:-0.994128 
-8 1:-0.894276 2:-0.630746 3:-0.733656 4:-0.917616 5:-0.859787 6:-0.779468 7:-0.906637 8:-0.779468 9:-0.903126 10:-0.7 11:-0.916862 12:0.863113 13:-0.892498 14:-0.354839 15:-0.827781 16:-0.354839 17:-0.354839 18:-0.818815 19:-0.94012 21:-0.460317 22:-0.00152207 23:-0.950285 24:-1 25:-0.892498 26:-1 27:-0.942239 29:-0.691218 30:-0.712474 31:-0.82516 32:-0.780572 33:-0.742671 34:-0.780572 35:-0.798883 36:-0.641638 37:-0.995541 38:-0.89658 39:-0.995541 40:-1 41:-0.310924 42:-1 43:-1 44:-1 45:-0.703704 46:-1 47:-0.408163 48:-0.85034 49:-1 50:-0.697674 51:-1 52:0.0952381 53:-1 54:-1 55:-0.658654 56:-0.4375 57:-0.439462 58:-0.933242 
-8 1:-0.897021 2:-0.885456 3:-0.791768 4:-0.976303 5:-0.8316 6:-1 7:-1 8:-1 9:-0.971839 10:-0.8 11:-0.940019 12:0.897242 13:-0.91485 14:-0.903226 15:-0.910803 16:-0.903226 17:-0.903226 18:-0.954704 19:-0.952096 21:-0.84127 22:0.0140845 23:-0.978326 24:-1 25:-0.91485 26:-1 27:-0.979308 29:-0.90085 30:-0.928834 31:-0.921109 32:-0.973981 33:-0.894642 34:-0.973981 35:-0.905028 36:-0.818003 37:-0.999941 38:-0.995239 39:-0.999941 40:-1 41:-0.781513 42:-1 43:-0.909091 44:-1 45:-1 46:-0.882353 47:-0.897959 48:-0.945578 49:-0.882353 50:-0.837209 51:-1 52:0.0575453 53:-1 54:-1 55:-0.860577 56:-0.625 57:-0.860987 58:-0.982006 
8 1:-0.911775 2:-0.914092 3:-0.874092 4:-0.978807 5:-0.883111 6:-1 7:-1 8:-1 9:-0.974092 10:-1 11:-0.939359 12:0.910146 13:-0.909763 14:-1 15:-1 16:-1 17:-1 18:-0.958188 19:-0.856287 21:-0.862434 22:0.0416667 23:-0.975632 24:-1 25:-0.909763 26:-1 27:-0.978888 29:-0.910765 30:-0.924744 31:-0.791045 32:-0.93582 33:-0.709737 34:-0.93582 35:-0.854749 36:-0.81867 37:-0.998752 38:-0.888326 39:-0.998752 40:-1 41:-0.94958 42:-1 43:-0.909091 44:-1 45:-0.925926 46:-0.647059 47:-0.816327 48:-0.877551 49:-0.647059 50:-0.744186 51:-1 52:-0.0875 53:-1 54:-1 55:-0.817308 56:-0.625 57:-0.811659 58:-0.982132 
8 1:-0.893886 2:-0.831198 3:-0.825666 4:-0.954508 5:-0.815651 6:-0.680608 7:-0.755683 8:-0.680608 9:-0.93354 10:-0.8 11:-0.932903 12:0.870296 13:-0.908153 14:-0.870968 15:-0.937764 16:-0.870968 17:-0.870968 18:-0.909408 19:-0.676647 21:-0.743386 22:-0.142857 23:-0.967673 24:-1 25:-0.908153 26:-1 27:-0.963959 29:-0.803116 30:-0.856851 31:-0.707889 32:-0.882914 33:-0.751899 34:-0.882914 35:-0.793296 36:-0.747961 37:-0.999406 38:-0.975085 39:-0.999406 40:-1 41:-0.882353 42:-1 43:-0.636364 44:-0.714286 45:-0.777778 46:-0.764706 47:-0.857143 48:-0.70068 49:-1 50:-0.883721 51:-1 52:0.221633 53:-1 54:-1 55:-0.735577 56:-0.5 57:-0.798206 58:-0.966331 
-8 1:-0.907783 2:-0.773926 3:-0.815981 4:-0.944941 5:-0.840918 6:-0.923954 7:-0.951895 8:-0.923954 9:-0.920586 10:-0.966667 11:-0.932934 12:0.864265 13:-0.903769 14:-1 15:-1 16:-1 17:-1 18:-0.89547 19:-0.976048 21:-0.592593 22:-0.0434783 23:-0.968652 24:-1 25:-0.903769 26:-1 27:-0.927882 29:-0.740793 30:-0.80818 31:-0.865672 32:-0.908933 33:-0.840422 34:-0.908933 35:-0.927374 36:-0.716517 37:-0.992509 38:-0.740385 39:-0.992509 40:-1 41:-0.630252 42:-1 43:-1 44:-1 45:-0.851852 46:-1 47:-0.673469 48:-0.931973 49:-1 50:-0.953488 51:-1 52:0.0428571 53:-1 54:-1 55:-0.735577 56:-0.6875 57:-0.538117 58:-0.957712 
8 1:-0.896197 2:-0.541824 3:-0.27845 4:-0.859864 5:-0.825153 6:-0.741445 7:-0.935576 8:-0.741445 9:-0.840045 10:-0.433333 11:-0.9277 12:0.859701 13:-0.896234 14:-0.709677 15:-0.954387 16:-0.709677 17:-0.709677 18:-0.724739 19:-0.700599 21:-0.214286 22:0.0541176 23:-0.937182 24:-1 25:-0.896234 26:-1 27:-0.900679 29:-0.399433 30:-0.611861 31:-0.688699 32:-0.784909 33:-0.85154 34:-0.784909 35:-0.575419 36:-0.548449 37:-0.990131 38:-0.865277 39:-0.990131 40:-1 41:-0.647059 42:-1 43:-0.909091 44:-1 45:-0.777778 46:-0.882353 47:-0.693878 48:-0.823129 49:-0.882353 50:-0.72093 51:-1 52:0.0796639 53:-1 54:-1 55:-0.375 56:-0.4375 57:-0.313901 58:-0.895024 
8 1:-0.868212 2:-0.475509 3:-0.457627 4:-0.891808 5:-0.827656 6:-0.695817 7:-0.901877 8:-0.695817 9:-0.869896 10:-0.0666667 11:-0.904145 12:0.851557 13:-0.869964 14:-0.870968 15:-0.973755 16:-0.870968 17:-0.870968 18:-0.728223 19:-0.652695 21:-0.404762 22:-0.0516039 23:-0.950285 24:-1 25:-0.869964 26:-1 27:-0.932993 29:-0.66289 30:-0.622904 31:-0.351812 32:-0.837814 33:-0.855075 34:-0.837814 35:-0.536313 36:-0.60049 37:-0.996909 38:-0.945364 39:-0.996909 40:-1 41:-0.361345 42:-1 43:-0.636364 44:-1 45:-0.703704 46:-0.882353 47:-0.44898 48:-0.755102 49:-0.882353 50:-0.44186 51:-1 52:0.143216 53:-1 54:-1 55:-0.221154 56:-0.375 57:-0.331839 58:-0.917428 
6.14351341808054 1:-0.939513 2:-0.553881 3:-0.525424 4:-0.888201 5:-0.889225 6:-0.307985 7:-0.783956 8:-0.307985 9:-0.878344 10:-0.7 11:-0.955749 12:0.903329 13:-0.938495 14:-0.516129 15:-0.90475 16:-0.516129 17:-0.516129 18:-0.874564 19:-0.712575 21:-0.185185 22:-0.147318 23:-0.941101 24:-1 25:-0.938495 26:-1 27:-0.934898 29:-0.305949 30:-0.643354 31:-0.722814 32:-0.516912 33:-0.582221 34:-0.516912 35:-0.73743 36:-0.575711 37:-0.983711 38:-0.721377 39:-0.983711 40:-1 41:-0.428571 42:-1 43:-0.636364 44:-1 45:-1 46:-0.764706 47:-0.673469 48:-0.836735 49:-0.882353 50:-0.883721 51:-1 52:0.210649 53:-1 54:-1 55:-0.394231 56:-0.3125 57:-0.538117 58:-0.907095 
8 1:-0.834943 2:-0.983421 3:-0.995157 4:-0.996808 5:-0.692649 6:-0.954373 7:-0.533493 8:-0.954373 9:-0.994931 10:-1 11:-0.916301 12:0.836775 13:-0.87816 14:-0.967742 15:-0.792039 16:-0.967742 17:-0.967742 18:-0.989547 19:-1 21:-0.984127 23:-0.993633 24:-1 25:-0.87816 26:-1 27:-1 29:-0.990085 30:-0.993047 31:-0.995736 32:-0.985256 33:-0.582413 34:-0.985256 35:-0.994413 36:-0.943772 37:-1 38:-1 39:-1 40:-1 41:-0.94958 42:-1 43:-1 44:-1 45:-1 46:-1 47:-1 48:-1 49:-1 50:-1 51:-1 52:0.0428571 53:-1 54:-1 55:-0.990385 56:-1 57:-0.986547 58:-0.997946 
-8 1:-0.915837 2:-0.712133 3:-0.535109 4:-0.940396 5:-0.874881 6:-0.885932 7:-0.933323 8:-0.885932 9:-0.901436 10:-0.8 11:-0.943305 12:0.905913 13:-0.917668 14:-0.580645 15:-0.845437 16:-0.580645 17:-0.580645 18:-0.891986 19:-0.988024 21:-0.550265 22:-0.120275 23:-0.965591 24:-1 25:-0.917668 26:-1 27:-0.958209 29:-0.726629 30:-0.829039 31:-0.812367 32:-0.806592 33:-0.686829 34:-0.806592 35:-0.815642 36:-0.693782 37:-0.996909 38:-0.900996 39:-0.996909 40:-1 41:-0.344538 42:-1 43:-0.909091 44:-1 45:-0.851852 46:-1 47:-0.755102 48:-0.741497 49:-1 50:-0.883721 51:-1 52:0.0858616 53:-1 54:-1 55:-0.764423 56:-0.4375 57:-0.636771 58:-0.95087 
-8 1:-0.915857 2:-0.993971 3:-0.995157 4:-0.996484 5:-0.8551 6:-1 7:-1 8:-1 9:-0.994931 10:-1 11:-0.929621 12:0.851178 13:-0.919242 14:-0.967742 15:-0.810064 16:-0.967742 17:-0.967742 18:-0.996516 19:-1 21:-0.97619 22:-0.384615 23:-0.994735 24:-1 25:-0.919242 26:-1 27:-0.995052 29:-0.983003 30:-0.986912 31:-0.985075 32:-0.981787 33:-0.528867 34:-0.981787 35:-1 36:-0.932268 37:-1 38:-1 39:-1 40:-1 41:-1 42:-1 43:-1 44:-1 45:-1 46:-1 47:-0.959184 48:-0.931973 49:-1 50:-1 51:-1 52:0.604396 53:-1 54:-1 55:-0.980769 56:-0.9375 57:-0.973094 58:-0.99714 
8 1:-0.833115 2:-0.663904 3:-0.443099 4:-0.869917 5:-0.710565 6:-0.528517 7:-0.873459 8:-0.528517 9:-0.869333 10:-0.533333 11:-0.872815 12:0.736734 13:-0.87389 14:-0.83871 15:-0.972705 16:-0.83871 17:-0.83871 18:-0.630662 19:-0.688623 21:-0.388889 22:-0.204848 23:-0.932529 24:-1 25:-0.87389 26:-1 27:-0.935105 29:-0.611898 30:-0.737423 31:-0.801706 32:-0.741544 33:-0.807847 34:-0.741544 35:-0.731844 36:-0.604715 37:-0.996552 38:-0.949297 39:-0.996552 40:-1 41:-0.630252 42:-1 43:-0.181818 44:-0.714286 45:-0.037037 46:-0.647059 47:-0.734694 48:-0.795918 49:-0.882353 50:-0.627907 51:-1 52:0.259013 53:-1 54:-1 55:-0.317308 56:-0.1875 57:-0.502242 58:-0.919129 
8 1:-0.865858 2:-0.655614 3:-0.46247 4:-0.896808 5:-0.831209 6:-0.551331 7:-0.848271 8:-0.551331 9:-0.883413 10:-0.7 11:-0.90431 12:0.8593 13:-0.875404 14:-0.774194 15:-0.951851 16:-0.774194 17:-0.774194 18:-0.780488 19:-0.664671 21:-0.494709 22:-0.178571 23:-0.917345 24:-1 25:-0.875404 26:-1 27:-0.956722 29:-0.684136 30:-0.723108 31:-0.714286 32:-0.579358 33:-0.605952 34:-0.579358 35:-0.631285 36:-0.606259 37:-0.995066 38:-0.908576 39:-0.995066 40:-1 41:-0.613445 42:-1 43:-1 44:-1 45:-0.851852 46:-1 47:-0.673469 48:-0.85034 49:-1 50:-0.651163 51:-1 52:0.201148 53:-1 54:-1 55:-0.355769 56:-0.0625 57:-0.497758 58:-0.919746 
-8 1:-0.895371 2:-0.483798 3:-0.627119 4:-0.861215 5:-0.835094 6:-0.422053 7:-0.854595 8:-0.422053 9:-0.831597 10:-0.7 11:-0.922881 12:0.856725 13:-0.89549 14:0.16129 15:-0.815777 16:0.16129 17:0.16129 18:-0.662021 19:-0.844311 21:-0.10582 22:-0.0759076 23:-0.928611 24:-1 25:-0.89549 26:-1 27:-0.926444 29:-0.429178 30:-0.622495 31:-0.782516 32:-0.417173 33:-0.593813 34:-0.417173 35:-0.709497 36:-0.544024 37:-0.994114 38:-0.918873 39:-0.994114 40:-1 41:-0.092437 42:-1 43:-1 44:-1 45:0.037037 46:-1 47:-0.530612 48:-0.741497 49:-1 50:-0.860465 51:-1 52:0.151273 53:-1 54:-1 55:-0.442308 56:-0.25 57:-0.591928 58:-0.892995 
-8 1:-0.92117 2:-0.972118 3:-0.946731 4:-0.99213 5:-0.878911 6:-0.977186 7:-0.901482 8:-0.977186 9:-0.986483 10:-1 11:-0.965502 12:0.959278 13:-0.924169 14:-1 15:-1 16:-1 17:-1 18:-0.979094 19:-0.976048 21:-0.949735 22:0.047619 23:-0.983469 24:-1 25:-0.924169 26:-1 27:-0.987698 29:-0.961756 30:-0.979141 31:-0.957356 32:-0.9549 33:-0.460504 34:-0.9549 35:-0.927374 36:-0.892112 37:-1 38:-1 39:-1 40:-1 41:-0.94958 42:-1 43:-0.909091 44:-1 45:-1 46:-1 47:-0.959184 48:-0.931973 49:-1 50:-0.976744 51:-1 52:0.117347 53:-1 54:-1 55:-0.956731 56:-0.75 57:-0.910314 58:-0.993296 
8 1:-0.980425 2:-0.999246 3:-1 4:-0.999951 5:-0.951622 6:-1 7:-1 8:-1 9:-1 10:-1 11:-0.967086 12:0.898218 13:-0.993563 14:-1 15:-1 16:-1 17:-1 18:-1 19:-1 21:-1 22:0.333333 23:-1 24:-1 25:-0.993563 26:-1 27:-1 29:-0.998584 30:-0.999591 31:-1 32:-0.998265 33:-0.396017 34:-0.998265 35:-1 36:-0.986185 37:-1 38:-1 39:-1 40:-1 41:-1 42:-1 43:-1 44:-1 45:-1 46:-1 47:-1 48:-1 49:-1 50:-1 51:-1 52:0.0428571 53:-1 54:-1 55:-1 56:-1 57:-1 58:-0.999786 
-8 1:-0.910304 2:-0.831952 3:-0.694915 4:-0.958283 5:-0.842967 6:-0.984791 7:-0.987319 8:-0.984791 9:-0.956069 10:-0.5 11:-0.940296 12:0.880982 13:-0.907673 14:-0.83871 15:-0.915204 16:-0.83871 17:-0.83871 18:-0.864111 19:-0.928144 21:-0.669312 22:-0.185185 23:-0.972204 24:-1 25:-0.907673 26:-1 27:-0.977262 29:-0.79745 30:-0.861759 31:-0.793177 32:-0.915004 33:-0.803687 34:-0.915004 35:-0.776536 36:-0.753578 37:-0.995601 38:-0.799031 39:-0.995601 40:-1 41:-0.865546 42:-1 43:-0.909091 44:-1 45:-0.925926 46:-0.882353 47:-0.673469 48:-0.863946 49:-1 50:-0.767442 51:-1 52:0.028373 53:-1 54:-1 55:-0.697115 56:-0.3125 57:-0.470852 58:-0.967768 
-8 1:-0.932275 2:-0.880181 3:-0.864407 4:-0.975714 5:-0.877127 6:-0.954373 7:-0.934906 8:-0.954373 9:-0.965643 10:-0.966667 11:-0.965133 12:0.933403 13:-0.94081 14:-1 15:-1 16:-1 17:-1 18:-0.89547 19:-0.928144 21:-0.814815 22:-0.049505 23:-0.978449 24:-1 25:-0.94081 26:-1 27:-0.968967 29:-0.858357 30:-0.928016 31:-0.878465 32:-0.94536 33:-0.784066 34:-0.94536 35:-0.905028 36:-0.808319 37:-0.999941 38:-0.995353 39:-0.999941 40:-1 41:-0.865546 42:-1 43:-0.909091 44:-1 45:-0.62963 46:-1 47:-0.918367 48:-0.823129 49:-1 50:-0.860465 51:-1 52:0.0325318 53:-1 54:-1 55:-0.826923 56:-0.6875 57:-0.789238 58:-0.980129 
8 1:-0.974403 2:-0.96006 3:-0.98063 4:-0.990657 5:-0.946572 6:-0.870722 7:-0.527643 8:-0.870722 9:-0.994931 10:-0.833333 11:-0.965228 12:0.90461 13:-0.942619 14:-1 15:-1 16:-1 17:-1 18:-0.97561 19:-0.988024 21:-0.910053 22:-0.225806 23:-0.986285 24:-1 25:-0.942619 26:-1 27:-0.988944 29:-0.913598 30:-0.974642 31:-0.978678 32:-0.959237 33:-0.587419 34:-0.959237 35:-0.98324 36:-0.873537 37:-0.99893 38:-0.785781 39:-0.99893 40:-1 41:-0.966387 42:-1 43:-1 44:-1 45:-1 46:-1 47:-0.938776 48:-0.972789 49:-1 50:-1 51:-1 52:0.21106 53:-1 54:-1 55:-0.975962 56:-0.6875 57:-0.950673 58:-0.990978 
8 1:-0.923417 2:-0.828937 3:-0.869249 4:-0.970468 5:-0.879268 6:-0.984791 7:-0.982126 8:-0.984791 9:-0.970149 10:-0.933333 11:-0.95815 12:0.934952 13:-0.921879 14:-0.806452 15:-0.856582 16:-0.806452 17:-0.806452 18:-0.933798 19:-0.964072 21:-0.791005 22:0.146417 23:-0.977469 24:-1 25:-0.921879 26:-1 27:-0.965099 29:-0.849858 30:-0.901022 31:-0.906183 32:-0.899393 33:-0.672487 34:-0.899393 35:-0.893855 36:-0.784323 37:-1 38:-1 39:-1 40:-1 41:-0.697479 42:-1 43:-1 44:-1 45:-0.703704 46:-1 47:-0.979592 48:-0.891156 49:-1 50:-1 51:-1 52:0.0136182 53:-1 54:-1 55:-0.918269 56:-0.6875 57:-0.690583 58:-0.975076 
-8 1:-0.917607 2:-0.963075 3:-1 4:-0.993418 5:-0.851757 6:-0.984791 7:-0.921906 8:-0.984791 9:-0.996621 10:-1 11:-0.947895 12:0.894366 13:-0.912983 14:-1 15:-1 16:-1 17:-1 18:-1 19:-0.976048 21:-0.94709 22:0.0666667 23:-0.990694 24:-1 25:-0.912983 26:-1 27:-0.997191 29:-0.966006 30:-0.97546 31:-0.989339 32:-0.967042 33:-0.53123 34:-0.967042 35:-0.972067 36:-0.905527 37:-1 38:-1 39:-1 40:-1 41:-0.865546 42:-1 43:-1 44:-1 45:-1 46:-1 47:-0.959184 48:-0.986395 49:-1 50:-1 51:-1 52:0.00114286 53:-1 54:-1 55:-0.961538 56:-0.9375 57:-0.96861 58:-0.994758 
8 1:-0.900047 2:-0.810098 3:-0.77724 4:-0.961005 5:-0.837045 6:-0.992395 7:-0.993219 8:-0.992395 9:-0.956632 10:-0.566667 11:-0.925251 12:0.855576 13:-0.886757 14:-0.935484 15:-0.963727 16:-0.935484 17:-0.935484 18:-0.926829 19:-0.892216 21:-0.738095 22:0.00840336 23:-0.970979 24:-1 25:-0.886757 26:-1 27:-0.938557 29:-0.832861 30:-0.855215 31:-0.776119 32:-0.92281 33:-0.809341 34:-0.92281 35:-0.782123 36:-0.762966 37:-0.998038 38:-0.904158 39:-0.998038 40:-1 41:-0.882353 42:-1 43:-0.909091 44:-1 45:-1 46:-1 47:-0.734694 48:-0.768707 49:-1 50:-0.976744 51:-1 52:0.0165666 53:-1 54:-1 55:-0.759615 56:-0.75 57:-0.596413 58:-0.970099 
8 1:-0.902518 2:-0.902788 3:-0.941889 4:-0.979612 5:-0.854066 6:-0.885932 7:-0.806496 8:-0.885932 9:-0.974655 10:-0.933333 11:-0.934603 12:0.890762 13:-0.901149 14:-0.935484 15:-0.930992 16:-0.935484 17:-0.935484 18:-0.95122 19:-0.88024 21:-0.875661 22:0.0928962 23:-0.973428 24:-1 25:-0.901149 26:-1 27:-0.985493 29:-0.915014 30:-0.923926 31:-0.940299 32:-0.938422 33:-0.710635 34:-0.938422 35:-0.905028 36:-0.826942 37:-0.999168 38:-0.922645 39:-0.999168 40:-1 41:-0.882353 42:-1 43:-1 44:-1 45:-0.925926 46:-1 47:-0.979592 48:-0.945578 49:-1 50:-1 51:-1 52:0.162529 53:-1 54:-1 55:-0.9375 56:-0.5 57:-0.874439 58:-0.983657 
-8 1:-0.90633 2:-0.953278 3:-0.951574 4:-0.984026 5:-0.878251 6:-0.946768 7:-0.885101 8:-0.946768 9:-0.974655 10:-0.9 11:-0.934614 12:0.903694 13:-0.91132 14:-1 15:-1 16:-1 17:-1 18:-0.965157 19:-0.892216 21:-0.888889 22:0.0434783 23:-0.982 24:-1 25:-0.91132 26:-1 27:-0.967442 29:-0.936261 30:-0.952147 31:-0.884861 32:-0.910668 33:-0.465871 34:-0.910668 35:-0.899441 36:-0.844346 37:-0.999822 38:-0.978909 39:-0.999822 40:-1 41:-0.932773 42:-1 43:-0.909091 44:-1 45:-1 46:-0.882353 47:-0.979592 48:-0.891156 49:-0.882353 50:-0.930233 51:-1 52:0.178882 53:-1 54:-1 55:-0.899038 56:-0.8125 57:-0.90583 58:-0.986643 
-8 1:-0.895167 2:-0.979653 3:-0.990315 4:-0.994994 5:-0.858831 6:-0.984791 7:-0.898385 8:-0.984791 9:-0.992678 10:-0.933333 11:-0.922399 12:0.875727 13:-0.898519 14:-1 15:-1 16:-1 17:-1 18:-0.989547 19:-0.988024 21:-0.970899 22:-0.428571 23:-0.988979 24:-1 25:-0.898519 26:-1 27:-0.99269 29:-0.981586 30:-0.986503 31:-0.972281 32:-0.980919 33:-0.646863 34:-0.980919 35:-0.98324 36:-0.916588 37:-0.999762 38:-0.912953 39:-0.999762 40:-1 41:-0.983193 42:-1 43:-1 44:-1 45:-0.925926 46:-1 47:-1 48:-0.986395 49:-1 50:-0.976744 51:-1 52:0.489796 53:-1 54:-1 55:-0.975962 56:-0.8125 57:-0.977578 58:-0.995829 
-8 1:-0.925769 2:-0.948757 3:-0.990315 4:-0.988314 5:-0.855977 6:-0.969582 7:-0.910714 8:-0.969582 9:-0.984793 10:-0.933333 11:-0.949907 12:0.886052 13:-0.923528 14:-0.935484 15:-0.880594 16:-0.935484 17:-0.935484 18:-0.972125 19:-0.988024 21:-0.915344 22:-0.0748299 23:-0.981755 24:-1 25:-0.923528 26:-1 27:-0.989705 29:-0.932011 30:-0.966053 31:-0.98081 32:-0.972246 33:-0.774336 34:-0.972246 35:-0.977654 36:-0.872787 37:-0.999584 38:-0.933076 39:-0.999584 40:-1 41:-0.932773 42:-1 43:-1 44:-1 45:-1 46:-1 47:-0.959184 48:-0.986395 49:-0.882353 50:-1 51:-1 52:0.0215743 53:-1 54:-1 55:-0.9375 56:-0.6875 57:-0.96861 58:-0.990877 
1.522158108776296 1:-0.653164 2:-0.69254 3:-0.932203 4:-0.848159 5:-0.881611 6:-0.931559 7:-0.984259 8:-0.931559 9:-0.932977 10:-0.9 11:-0.699912 12:0.722409 13:-0.663995 14:-1 15:-1 16:-1 17:-1 18:-0.829268 19:-0.808383 21:-0.703704 22:-0.333333 23:-0.815955 24:-1 25:-0.663995 26:-1 27:-0.9168 29:-0.814448 30:-0.883436 31:-0.901919 32:1 33:0.274186 34:1 35:-0.916201 36:-0.468137 37:-0.999941 38:-0.999251 39:-0.999941 40:-1 41:-0.865546 42:-1 43:-1 44:-1 45:-1 46:-0.882353 47:-0.918367 48:-0.986395 49:-1 50:-0.930233 51:-1 52:0.548485 53:-1 54:-1 55:-0.908654 56:-0.25 57:-0.883408 58:-0.855181 
-8 1:-0.931855 2:-0.9789 3:-0.975787 4:-0.994975 5:-0.863096 6:-0.984791 7:-0.898754 8:-0.984791 9:-0.993241 10:-0.966667 11:-0.972377 12:0.94048 13:-0.932357 14:-0.935484 15:-0.729198 16:-0.935484 17:-0.935484 18:-0.972125 19:-0.988024 21:-0.960317 22:-0.111111 23:-0.991428 24:-1 25:-0.932357 26:-1 27:-0.98792 29:-0.967422 30:-0.984458 31:-0.987207 32:-0.985256 33:-0.728113 34:-0.985256 35:-0.988827 36:-0.916726 37:-1 38:-1 39:-1 40:-1 41:-1 42:-1 43:-1 44:-1 45:-0.925926 46:-1 47:-1 48:-0.945578 49:-1 50:-1 51:-1 52:-0.130952 53:-1 54:-1 55:-0.975962 56:-0.875 57:-0.973094 58:-0.995842 
8 1:-0.888024 2:-0.924642 3:-0.937046 4:-0.983019 5:-0.826309 6:-0.977186 7:-0.953638 8:-0.977186 9:-0.979161 10:-0.9 11:-0.927505 12:0.87633 13:-0.899048 14:-1 15:-1 16:-1 17:-1 18:-0.933798 19:-0.976048 21:-0.883598 22:0.0212766 23:-0.984938 24:-1 25:-0.899048 26:-1 27:-0.979148 29:-0.934844 30:-0.938241 31:-0.914712 32:-0.955768 33:-0.750997 34:-0.955768 35:-0.960894 36:-0.846604 37:-1 38:-1 39:-1 40:-1 41:-0.848739 42:-1 43:-0.909091 44:-0.714286 45:-0.703704 46:-1 47:-0.857143 48:-0.931973 49:-1 50:-0.930233 51:-1 52:0.198176 53:-1 54:-1 55:-0.894231 56:-0.75 57:-0.928251 58:-0.987009 
-8 1:-0.893481 2:-0.831952 3:-0.791768 4:-0.958766 5:-0.845623 6:-0.969582 7:-0.974342 8:-0.969582 9:-0.939172 10:-0.7 11:-0.931042 12:0.891576 13:-0.896664 14:-1 15:-1 16:-1 17:-1 18:-0.867596 19:-0.868263 21:-0.743386 22:0.321534 23:-0.968285 24:-1 25:-0.896664 26:-1 27:-0.9649 29:-0.84136 30:-0.847444 31:-0.8742 32:-0.826539 33:-0.594695 34:-0.826539 35:-0.837989 36:-0.752931 37:-0.996968 38:-0.859881 39:-0.996968 40:-1 41:-0.613445 42:-1 43:-1 44:-1 45:-0.777778 46:-1 47:-0.938776 48:-0.959184 49:-1 50:-1 51:-1 52:-0.114033 53:-1 54:-1 55:-0.692308 56:-0.5625 57:-0.784753 58:-0.967604 
-8 1:-0.892484 2:-0.715901 3:-0.476998 4:-0.947641 5:-0.86928 6:-0.893536 7:-0.929194 8:-0.893536 9:-0.935793 10:-0.566667 11:-0.923277 12:0.891847 13:-0.885203 14:-0.967742 15:-0.986473 16:-0.967742 17:-0.967742 18:-0.790941 19:-0.60479 21:-0.690476 22:0.0945274 23:-0.952734 24:-1 25:-0.885203 26:-1 27:-0.957969 29:-0.811615 30:-0.836401 31:-0.782516 32:-0.89072 33:-0.798672 34:-0.89072 35:-0.648045 36:-0.712456 37:-0.999762 38:-0.991335 39:-0.999762 40:-1 41:-0.798319 42:-1 43:-0.909091 44:-1 45:-0.777778 46:-0.411765 47:-0.755102 48:-0.918367 49:-0.411765 50:-0.627907 51:-1 52:0.0584222 53:-1 54:-1 55:-0.432692 56:-0.5 57:-0.726457 58:-0.956528 
8 1:-0.888821 2:-0.889224 3:-0.932203 4:-0.958455 5:-0.854391 6:-0.969582 7:-0.974533 8:-0.969582 9:-0.975781 10:-0.933333 11:-0.916005 12:0.866753 13:-0.903805 14:-0.870968 15:-0.931884 16:-0.870968 17:-0.870968 18:-0.937282 19:-0.916168 21:-0.806878 22:-0.390476 23:-0.944652 24:-1 25:-0.903805 26:-1 27:-0.931942 29:-0.852691 30:-0.9182 31:-0.852878 32:-0.928014 33:-0.833051 34:-0.928014 35:-0.927374 36:-0.750213 37:-0.997622 38:-0.890921 39:-0.997622 40:-1 41:-0.94958 42:-1 43:-1 44:-1 45:-0.925926 46:-0.882353 47:-0.897959 48:-0.931973 49:-0.882353 50:-0.953488 51:-1 52:0.50966 53:-1 54:-1 55:-0.841346 56:-0.75 57:-0.856502 58:-0.966911 
8 1:-0.913054 2:-0.999246 3:-1 4:-0.999645 5:-0.851076 6:-0.992395 7:-0.544393 8:-0.992395 9:-0.999437 10:-1 11:-0.909761 12:0.799179 13:-0.961532 14:-1 15:-1 16:-1 17:-1 18:-1 19:-1 21:-0.997354 22:0.333333 23:-0.997918 24:-1 25:-0.961532 26:-1 27:-1 29:-0.998584 30:-0.999182 31:-1 32:-0.998265 33:-0.71212 34:-0.998265 35:-1 36:-0.978481 37:-1 38:-1 39:-1 40:-1 41:-1 42:-1 43:-1 44:-1 45:-1 46:-1 47:-1 48:-1 49:-1 50:-1 51:-1 52:0.0428571 53:-1 54:-1 55:-1 56:-1 57:-1 58:-0.999584 
2.210080375014683 1:-0.283802 2:0.646571 3:-0.438257 4:0.52775 5:-0.883772 6:-0.893536 7:-0.997563 8:-0.893536 9:0.478457 10:-0.433333 11:-0.301063 12:0.288009 13:-0.262881 14:-0.709677 15:-0.99581 16:-0.709677 17:-0.709677 18:0.595819 19:-0.353293 21:0.103175 22:-0.66324 23:0.745423 24:-1 25:-0.262881 26:-1 27:0.126932 29:-0.0368272 30:0.687526 31:-0.098081 32:-0.875976 33:-0.992136 34:-0.875976 35:-0.435754 36:0.74781 37:0.503537 38:0.885557 39:0.503537 40:-1 41:-0.512605 42:-1 43:-0.545455 44:-0.714286 45:-0.555556 46:-0.764706 47:-0.77551 48:-0.414966 49:-0.647059 50:-0.813953 51:-1 52:0.82232 53:-1 54:-1 55:0.298077 56:-0.4375 57:-0.309417 58:0.529328 
-8 1:-0.917774 2:-0.823662 3:-0.815981 4:-0.964519 5:-0.880067 6:-0.961977 7:-0.962761 8:-0.961977 9:-0.960574 10:-0.933333 11:-0.945035 12:0.911231 13:-0.910375 14:-1 15:-1 16:-1 17:-1 18:-0.916376 19:-0.772455 21:-0.719577 22:0.002849 23:-0.972204 24:-1 25:-0.910375 26:-1 27:-0.962742 29:-0.835694 30:-0.864213 31:-0.692964 32:-0.888985 33:-0.698816 34:-0.888985 35:-0.776536 36:-0.76364 37:-0.998038 38:-0.894729 39:-0.998038 40:-1 41:-0.89916 42:-1 43:-1 44:-1 45:-0.925926 46:-0.647059 47:-0.795918 48:-0.70068 49:-0.647059 50:-0.883721 51:-1 52:0.0339438 53:-1 54:-1 55:-0.735577 56:-0.625 57:-0.869955 58:-0.970262 
8 1:-0.870809 2:-0.855313 3:-0.946731 4:-0.972855 5:-0.816738 6:-1 7:-1 8:-1 9:-0.962264 10:-0.766667 11:-0.905171 12:0.840552 13:-0.879396 14:-1 15:-1 16:-1 17:-1 18:-0.926829 19:-0.88024 21:-0.843915 22:-0.026455 23:-0.973061 24:-1 25:-0.879396 26:-1 27:-1 29:-0.912181 30:-0.901431 31:-0.901919 32:-1 33:-1 34:-1 35:-0.932961 36:-0.806614 37:-1 38:-1 39:-1 40:-1 41:-0.831933 42:-1 43:-1 44:-1 45:-0.925926 46:-0.882353 47:-0.836735 48:-0.972789 49:-1 50:-0.790698 51:-1 52:-0.0399093 53:-1 54:-1 55:-0.802885 56:-1 57:-0.928251 58:-0.979789 
-8 1:-0.887305 2:-0.885456 3:-0.946731 4:-0.957072 5:-0.797017 6:-0.969582 7:-0.975349 8:-0.969582 9:-0.958322 10:-0.933333 11:-0.896191 12:0.767129 13:-0.86806 14:-1 15:-1 16:-1 17:-1 18:-0.982578 19:-0.976048 21:-0.793651 22:-0.229167 23:-0.945264 24:-1 25:-0.86806 26:-1 27:-0.908244 29:-0.820113 30:-0.893661 31:-0.940299 32:-0.966175 33:-0.924068 34:-0.966175 35:-0.98324 36:-0.762089 37:-1 38:-1 39:-1 40:-1 41:-1 42:-1 43:-1 44:-1 45:-1 46:-1 47:-0.877551 48:-0.918367 49:-1 50:-1 51:-1 52:0.319866 53:-1 54:-1 55:-0.908654 56:-0.875 57:-0.955157 58:-0.969884 
8 1:-0.873256 2:-0.939714 3:-0.961259 4:-0.985507 5:-0.818718 6:-0.91635 7:-0.801278 8:-0.91635 9:-0.979724 10:-0.966667 11:-0.903302 12:0.832419 13:-0.86886 14:-1 15:-1 16:-1 17:-1 18:-0.944251 19:-0.964072 21:-0.925926 22:-0.161905 23:-0.983836 24:-1 25:-0.86886 26:-1 27:-0.993969 29:-0.951841 30:-0.954192 31:-0.955224 32:-0.965308 33:-0.771702 34:-0.965308 35:-0.932961 36:-0.859334 37:-0.999941 38:-0.992262 39:-0.999941 40:-1 41:-0.932773 42:-1 43:-0.909091 44:-1 45:-0.777778 46:-1 47:-0.938776 48:-0.945578 49:-1 50:-0.976744 51:-1 52:0.132245 53:-1 54:-1 55:-0.894231 56:-0.75 57:-0.932735 58:-0.988974 
-8 1:-0.861843 2:-0.996232 3:-1 4:-0.998257 5:-0.849226 6:-0.992395 7:-0.865145 8:-0.992395 9:-0.998874 10:-1 11:-0.890705 12:0.844085 13:-0.872522 14:-1 15:-1 16:-1 17:-1 18:-0.996516 19:-0.976048 21:-0.992063 22:1 23:-0.995347 24:-1 25:-0.872522 26:-1 27:-0.998487 29:-0.995751 30:-0.993865 31:-0.991471 32:-0.987858 33:-0.403535 34:-0.987858 35:-0.988827 36:-0.952137 37:-1 38:-1 39:-1 40:-1 41:-1 42:-1 43:-1 44:-1 45:-1 46:-1 47:-1 48:-1 49:-1 50:-1 51:-1 52:-0.478571 53:-1 54:-1 55:-0.995192 56:-0.875 57:-0.995516 58:-0.99845 
8 1:-0.932503 2:-0.982668 3:-0.98063 4:-0.995758 5:-0.873984 6:-0.977186 7:-0.821538 8:-0.977186 9:-0.994931 10:-1 11:-0.954898 12:0.901981 13:-0.920081 14:-1 15:-1 16:-1 17:-1 18:-0.993031 19:-1 21:-0.957672 22:-0.0175439 23:-0.991673 24:-1 25:-0.920081 26:-1 27:-0.995389 29:-0.974504 30:-0.985685 31:-0.96162 32:-0.988725 33:-0.75568 34:-0.988725 35:-0.994413 36:-0.923168 37:-0.999941 38:-0.974521 39:-0.999941 40:-1 41:-0.94958 42:-1 43:-1 44:-1 45:-1 46:-1 47:-1 48:-0.918367 49:-1 50:-1 51:-1 52:-0.0120301 53:-1 54:-1 55:-0.985577 56:-0.6875 57:-0.973094 58:-0.996409 
8 1:-0.867607 2:-0.933685 3:-0.898305 4:-0.977372 5:-0.852602 6:-0.870722 7:-0.802184 8:-0.870722 9:-0.96846 10:-0.933333 11:-0.9052 12:0.875667 13:-0.860571 14:-1 15:-1 16:-1 17:-1 18:-0.95122 19:-0.928144 21:-0.883598 22:-0.292517 23:-0.944407 24:-1 25:-0.860571 26:-1 27:-0.971573 29:-0.932011 30:-0.941922 31:-0.846482 32:-0.893322 33:-0.547823 34:-0.893322 35:-0.916201 36:-0.814176 37:-0.999287 38:-0.940192 39:-0.999287 40:-1 41:-0.983193 42:-1 43:-1 44:-1 45:-0.925926 46:-1 47:-0.897959 48:-0.931973 49:-1 50:-0.930233 51:-1 52:0.362099 53:-1 54:-1 55:-0.889423 56:-0.6875 57:-0.923767 58:-0.981275 
-8 1:-0.891063 2:-0.471741 3:-0.200969 4:-0.889544 5:-0.845976 6:-0.847909 7:-0.951942 8:-0.847909 9:-0.873838 10:-0.466667 11:-0.913384 12:0.848348 13:-0.878375 14:-0.903226 15:-0.980719 16:-0.903226 17:-0.903226 18:-0.794425 19:-0.712575 21:-0.306878 22:-0.0807736 23:-0.936203 24:-1 25:-0.878375 26:-1 27:-0.956624 29:-0.586402 30:-0.647853 31:-0.47548 32:-0.633998 33:-0.67964 34:-0.633998 35:-0.346369 36:-0.590615 37:-0.993342 38:-0.884729 39:-0.993342 40:-1 41:-0.428571 42:-0.5 43:-0.909091 44:-1 45:-0.925926 46:-0.764706 47:-0.693878 48:-0.687075 49:-0.764706 50:-0.837209 51:1 52:0.0748903 53:-1 54:-1 55:-0.432692 57:-0.403587 58:-0.913383 
-8 1:-0.888422 2:-0.960814 3:-0.990315 4:-0.992736 5:-0.836224 6:-0.977186 7:-0.89352 8:-0.977186 9:-0.989299 10:-0.966667 11:-0.93373 12:0.90086 13:-0.910044 14:-1 15:-1 16:-1 17:-1 18:-0.989547 19:-0.976048 21:-0.955026 22:0.2 23:-0.989347 24:-1 25:-0.910044 26:-1 27:-0.993472 29:-0.973088 30:-0.978323 31:-0.978678 32:-0.984389 33:-0.798159 34:-0.984389 35:-0.955307 36:-0.900477 37:-1 38:-1 39:-1 40:-1 41:-0.915966 42:-1 43:-1 44:-1 45:-1 46:-1 47:-1 48:-0.972789 49:-1 50:-0.953488 51:-1 52:-0.0614286 53:-1 54:-1 55:-0.947115 56:-0.6875 57:-0.950673 58:-0.994229 
8 1:-0.883211 2:-0.721176 3:-0.569007 4:-0.932044 5:-0.814775 6:-0.642586 7:-0.816671 8:-0.642586 9:-0.917206 10:-0.366667 11:-0.925691 12:0.871063 13:-0.891784 14:-0.806452 15:-0.937402 16:-0.806452 17:-0.806452 18:-0.815331 19:-0.712575 21:-0.587302 22:0.142857 23:-0.96253 24:-1 25:-0.891784 26:-1 27:-0.957474 29:-0.743626 30:-0.77546 31:-0.671642 32:-0.861232 33:-0.802828 34:-0.861232 35:-0.614525 36:-0.690011 37:-0.994114 38:-0.834601 39:-0.994114 40:-1 41:-0.630252 42:-1 43:-1 44:-0.714286 45:-0.925926 46:-0.764706 47:-0.836735 48:-0.836735 49:-0.764706 50:-0.813953 51:-1 52:-0.00298273 53:-1 54:-1 55:-0.538462 56:-0.375 57:-0.627803 58:-0.949686 
-8 1:-0.886893 2:-0.990957 3:-1 4:-0.997736 5:-0.874535 6:-0.984791 7:-0.786652 8:-0.984791 9:-0.996057 10:-1 11:-0.909348 12:0.868648 13:-0.879002 14:-1 15:-1 16:-1 17:-1 18:-0.993031 19:-1 21:-0.986772 22:-0.111111 23:-0.992163 24:-1 25:-0.879002 26:-1 27:-0.997127 29:-0.992918 30:-0.993865 31:-0.985075 32:-0.987858 33:-0.528179 34:-0.987858 35:-0.988827 36:-0.943576 37:-0.999762 38:-0.817239 39:-0.999762 40:-1 41:-0.983193 42:-1 43:-1 44:-1 45:-1 46:-1 47:-1 48:-1 49:-1 50:-1 51:-1 52:0.0428571 53:-1 54:-1 55:-0.971154 56:-0.875 57:-0.982063 58:-0.997933 
8 1:-0.898483 2:-0.70535 3:-0.510896 4:-0.938951 5:-0.871094 6:-0.992395 7:-0.99566 8:-0.992395 9:-0.907632 10:-0.533333 11:-0.934786 12:0.913322 13:-0.901527 14:-0.741935 15:-0.907129 16:-0.741935 17:-0.741935 18:-0.808362 19:-0.688623 21:-0.616402 22:-0.0243902 23:-0.958979 24:-1 25:-0.901527 26:-1 27:-0.95753 29:-0.769122 30:-0.771779 31:-0.454158 32:-0.925412 33:-0.882075 34:-0.925412 35:-0.575419 36:-0.689891 37:-0.996909 38:-0.903331 39:-0.996909 40:-1 41:-0.596639 42:-1 43:-1 44:-0.428571 45:-0.851852 46:-0.882353 47:-0.816327 48:-0.782313 49:-0.764706 50:-0.813953 51:-1 52:0.0937282 53:-1 54:-1 55:-0.5 56:-0.4375 57:-0.273543 58:-0.949648 
8 1:-0.919337 2:-0.946496 3:-0.946731 4:-0.986033 5:-0.862335 6:-0.984791 7:-0.962529 8:-0.984791 9:-0.975781 10:-0.933333 11:-0.955775 12:0.921822 13:-0.925685 14:-1 15:-1 16:-1 17:-1 18:-0.89547 19:-1 21:-0.888889 22:-0.163399 23:-0.979428 24:-1 25:-0.925685 26:-1 27:-0.984083 29:-0.929178 30:-0.953374 31:-0.910448 32:-0.939289 33:-0.585661 34:-0.939289 35:-0.960894 36:-0.857726 37:-1 38:-1 39:-1 40:-1 41:-0.966387 42:-1 43:-1 44:-1 45:-0.777778 46:-1 47:-0.897959 48:-0.755102 49:-1 50:-0.953488 51:-1 52:-0.0184874 53:-1 54:-1 55:-0.961538 56:-0.6875 57:-0.955157 58:-0.988735 
-1.093949261816735 1:-0.886378 2:-0.10324 3:-0.375303 4:-0.758091 5:-0.776831 6:0.239544 7:-0.82096 8:0.239544 9:-0.719516 10:0.7 11:-0.929245 12:0.841149 13:-0.899742 14:-0.0645161 15:-0.914801 16:-0.0645161 17:-0.0645161 18:-0.466899 19:-0.772455 21:0.497354 22:-0.022111 23:-0.932039 24:-1 25:-0.899742 26:-1 27:-0.880246 29:0.130312 30:-0.374642 31:-0.724947 32:-0.0477016 33:-0.618973 34:-0.0477016 35:-0.664804 36:-0.430906 37:-0.985375 38:-0.884266 39:-0.985375 40:-1 41:0.647059 42:-1 43:-0.909091 44:-1 45:-0.481481 46:-1 47:0.204082 48:-0.918367 49:-1 50:-0.581395 51:-0.5 52:0.0493832 53:-1 54:-1 55:0.0817308 56:-0.1875 57:-0.116592 58:-0.834541 
8 1:-0.900015 2:-0.689525 3:-0.496368 4:-0.923975 5:-0.838743 6:-0.840304 7:-0.926755 8:-0.840304 9:-0.875528 10:-0.566667 11:-0.931889 12:0.875224 13:-0.903504 14:-0.83871 15:-0.953355 16:-0.83871 17:-0.83871 18:-0.850174 19:-0.856287 21:-0.507937 22:0.141194 23:-0.961673 24:-1 25:-0.903504 26:-1 27:-0.940877 29:-0.677054 30:-0.793865 31:-0.801706 32:-0.920208 33:-0.898623 34:-0.920208 35:-0.748603 36:-0.665991 37:-0.998098 38:-0.952195 39:-0.998098 40:-1 41:-0.512605 42:-1 43:-0.818182 44:-1 45:-0.703704 46:-0.882353 47:-0.530612 48:-0.755102 49:-0.882353 50:-0.604651 51:-1 52:-0.0436681 53:-1 54:-1 55:-0.399038 56:-0.5 57:-0.659193 58:-0.94181 
2.660097909918286 1:-0.932592 2:0.106255 3:0.815981 4:-0.716327 5:-0.852245 6:-0.224335 7:-0.904444 8:-0.224335 9:-0.702619 10:-0.0666667 11:-0.95427 12:0.877715 13:-0.924202 14:-0.645161 15:-0.972437 16:-0.645161 17:-0.645161 18:-0.0731707 19:0.101796 21:1 22:-0.0714791 23:-0.915998 24:-1 25:-0.924202 26:-1 27:-0.770787 29:1 30:-0.256442 31:0.484009 32:-0.666088 33:-0.886051 34:-0.666088 35:0.581006 36:-0.351728 37:-0.974318 38:-0.826657 39:-0.974318 40:-1 41:0.579832 42:-0.625 43:0.0909091 44:-0.142857 45:0.925926 46:-0.294118 47:0.163265 48:-0.278912 49:-0.176471 50:0.209302 51:-0.5 52:0.26058 53:-1 54:-1 55:1 56:-0.5 57:0.668161 58:-0.786079 
-8 1:-0.895192 2:-0.88847 3:-0.588378 4:-0.95984 5:-0.815523 6:-0.81749 7:-0.841956 8:-0.81749 9:-0.942551 10:-0.833333 11:-0.924994 12:0.845944 13:-0.886164 14:-1 15:-1 16:-1 17:-1 18:-0.881533 19:-0.892216 21:-0.730159 22:0.015873 23:-0.971591 24:-1 25:-0.886164 26:-1 27:-0.978819 29:-0.822946 30:-0.872393 31:-0.897655 32:-0.921943 33:-0.812759 34:-0.921943 35:-0.815642 36:-0.763847 37:-0.999465 38:-0.974615 39:-0.999465 40:-1 41:-0.781513 42:-1 43:-0.909091 44:-1 45:-0.703704 46:-1 47:-0.857143 48:-0.823129 49:-1 50:-0.790698 51:-1 52:0.00975057 53:-1 54:-1 55:-0.735577 56:-0.3125 57:-0.735426 58:-0.970313 
8 1:-0.946673 2:-0.897513 3:-0.830508 4:-0.967967 5:-0.877212 6:-0.855513 7:-0.843367 8:-0.855513 9:-0.961701 10:-0.7 11:-0.967765 12:0.905315 13:-0.938051 14:-0.870968 15:-0.911801 16:-0.870968 17:-0.870968 18:-0.885017 19:-1 21:-0.743386 22:-0.184801 23:-0.976367 24:-1 25:-0.938051 26:-1 27:-0.981554 29:-0.728045 30:-0.919836 31:-0.916844 32:-0.901127 33:-0.70309 34:-0.901127 35:-0.921788 36:-0.779282 37:-0.999406 38:-0.96469 39:-0.999406 40:-1 41:-0.848739 42:-1 43:-1 44:-1 45:-0.777778 46:-1 47:-0.816327 48:-0.836735 49:-1 50:-0.906977 51:-1 52:0.307624 53:-1 54:-1 55:-0.807692 56:-0.3125 57:-0.860987 58:-0.973942 
-8 1:-0.89785 2:-0.961567 3:-0.937046 4:-0.989514 5:-0.867487 6:-0.931559 7:-0.776604 8:-0.931559 9:-0.993241 10:-1 11:-0.930662 12:0.900296 13:-0.901492 14:-0.903226 15:-0.800828 16:-0.903226 17:-0.903226 18:-0.993031 19:-0.952096 21:-0.941799 22:-0.264368 23:-0.976857 24:-1 25:-0.901492 26:-1 27:-0.983126 29:-0.96034 30:-0.964826 31:-0.940299 32:-0.930616 33:-0.372645 34:-0.930616 35:-0.960894 36:-0.875335 37:-1 38:-1 39:-1 40:-1 41:-0.966387 42:-1 43:-1 44:-1 45:-1 46:-1 47:-1 48:-0.959184 49:-1 50:-0.976744 51:-1 52:0.22266 53:-1 54:-1 55:-0.966346 56:-0.75 57:-0.964126 58:-0.991217 
8 1:-0.897186 2:-0.951771 3:-0.90799 4:-0.981241 5:-0.805682 6:-0.870722 7:-0.761888 8:-0.870722 9:-0.978598 10:-0.9 11:-0.926422 12:0.836915 13:-0.891536 14:-0.870968 15:-0.850146 16:-0.870968 17:-0.870968 18:-0.968641 19:-1 21:-0.888889 22:-0.0416667 23:-0.978571 24:-1 25:-0.891536 26:-1 27:-0.984374 29:-0.910765 30:-0.961145 31:-0.959488 32:-0.901127 33:-0.495538 34:-0.901127 35:-0.955307 36:-0.842807 37:-0.998573 38:-0.856018 39:-0.998573 40:-1 41:-0.915966 42:-1 43:-0.818182 44:-1 45:-1 46:-1 47:-0.959184 48:-0.931973 49:-1 50:-1 51:-1 52:0.108036 53:-1 54:-1 55:-0.903846 56:-0.625 57:-0.941704 58:-0.986391 
8 1:-0.892603 2:-0.749812 3:-0.709443 4:-0.917321 5:-0.855124 6:-0.726236 7:-0.884513 8:-0.726236 9:-0.893551 10:-0.666667 11:-0.9188 12:0.867756 13:-0.895652 14:-0.870968 15:-0.965679 16:-0.870968 17:-0.870968 18:-0.853659 19:-0.808383 21:-0.5 22:-0.262673 23:-0.920284 24:-1 25:-0.895652 26:-1 27:-0.956181 29:-0.694051 30:-0.759918 31:-0.513859 32:-0.756288 33:-0.715208 34:-0.756288 35:-0.72067 36:-0.644 37:-0.994233 38:-0.866719 39:-0.994233 40:-1 41:-0.630252 42:-1 43:-0.909091 44:-1 45:-0.777778 46:-1 47:-0.530612 48:-0.714286 49:-0.882353 50:-0.883721 51:-1 52:0.278341 53:-1 54:-1 55:-0.586538 56:-0.25 57:-0.721973 58:-0.934099 
-8 1:-0.89075 2:-0.954785 3:-0.917676 4:-0.979849 5:-0.839044 6:-0.992395 7:-0.98695 8:-0.992395 9:-0.98423 10:-0.933333 11:-0.927728 12:0.882323 13:-0.905741 14:-0.967742 15:-0.965094 16:-0.967742 17:-0.967742 18:-0.961672 19:-0.988024 21:-0.896825 22:-0.333333 23:-0.966081 24:-0.971821 25:-0.905741 26:-0.971821 27:-0.971911 29:-0.922096 30:-0.955419 31:-0.886994 32:-0.891587 33:-0.484621 34:-0.891587 35:-0.955307 36:-0.82877 37:-0.999643 38:-0.966462 39:-0.999643 40:-0.6 41:-0.966387 42:-1 43:-1 44:-1 45:-0.851852 46:-1 47:-0.918367 48:-0.945578 49:-1 50:-0.976744 51:-1 52:0.452551 53:-0.971821 54:-1 55:-0.903846 56:-0.75 57:-0.852018 58:-0.983985 
8 1:-0.918875 2:-0.982668 3:-0.995157 4:-0.995521 5:-0.833893 6:-1 7:-1 8:-1 9:-0.994368 10:-1 11:-0.951462 12:0.884289 13:-0.918918 14:-1 15:-1 16:-1 17:-1 18:-1 19:-0.952096 21:-0.973545 22:0.2 23:-0.991918 24:-1 25:-0.918918 26:-1 27:-0.998641 29:-0.973088 30:-0.986912 31:-0.970149 32:-0.988725 33:-0.767995 34:-0.988725 35:-0.938547 36:-0.924365 37:-1 38:-1 39:-1 40:-1 41:-1 42:-1 43:-1 44:-1 45:-1 46:-1 47:-0.979592 48:-0.986395 49:-1 50:-0.976744 51:-1 52:0.0428571 53:-1 54:-1 55:-0.975962 56:-0.9375 57:-0.959641 58:-0.99651 
8 1:-0.896547 2:-0.979653 3:-0.985472 4:-0.995431 5:-0.858611 6:-0.984791 7:-0.889142 8:-0.984791 9:-0.994368 10:-0.9 11:-0.934748 12:0.906593 13:-0.912095 14:-1 15:-1 16:-1 17:-1 18:-0.972125 19:-0.988024 21:-0.968254 22:-0.384615 23:-0.993143 24:-1 25:-0.912095 26:-1 27:-0.990666 29:-0.983003 30:-0.983231 31:-0.982942 32:-0.98699 33:-0.737324 34:-0.98699 35:-0.977654 36:-0.920679 37:-1 38:-1 39:-1 40:-1 41:-0.966387 42:-1 43:-1 44:-1 45:-1 46:-0.882353 47:-0.979592 48:-0.945578 49:-0.882353 50:-0.976744 51:-1 52:0.123077 53:-1 54:-1 55:-0.975962 56:-0.8125 57:-0.959641 58:-0.996195 
8 1:-0.874481 2:-0.952524 3:-0.898305 4:-0.967749 5:-0.860418 6:-0.954373 7:-0.950869 8:-0.954373 9:-0.970149 10:-0.9 11:-0.903673 12:0.864982 13:-0.872647 14:-0.935484 15:-0.956197 16:-0.935484 17:-0.935484 18:-0.885017 19:-0.976048 21:-0.857143 22:-0.573333 23:-0.925672 24:-1 25:-0.872647 26:-1 27:-0.976678 29:-0.895184 30:-0.950511 31:-0.944563 32:-0.954033 33:-0.86289 34:-0.954033 35:-0.949721 36:-0.771653 37:-1 38:-1 39:-1 40:-1 41:-0.932773 42:-1 43:-0.909091 44:-1 45:-0.555556 46:-1 47:-0.938776 48:-0.891156 49:-1 50:-0.976744 51:-1 52:0.640762 53:-1 54:-1 55:-0.956731 56:-0.4375 57:-0.860987 58:-0.972178 
8 1:-0.919026 2:-0.967596 3:-0.946731 4:-0.991625 5:-0.866809 6:-0.977186 7:-0.907261 8:-0.977186 9:-0.987609 10:-0.966667 11:-0.950733 12:0.912692 13:-0.92839 14:-1 15:-1 16:-1 17:-1 18:-0.961672 19:-0.892216 21:-0.94709 22:-0.0222222 23:-0.986775 24:-1 25:-0.92839 26:-1 27:-0.982232 29:-0.958924 30:-0.970552 31:-0.925373 32:-0.97745 33:-0.746074 34:-0.97745 35:-0.921788 36:-0.890811 37:-1 38:-1 39:-1 40:-1 41:-1 42:-1 43:-0.909091 44:-1 45:-1 46:-0.882353 47:-0.959184 48:-0.972789 49:-0.882353 50:-0.953488 51:-1 52:0.251429 53:-1 54:-1 55:-0.927885 56:-0.8125 57:-0.973094 58:-0.993145 
8 1:-0.875273 2:-0.770158 3:-0.748184 4:-0.922927 5:-0.786211 6:-0.551331 7:-0.797004 8:-0.551331 9:-0.907068 10:-0.5 11:-0.907472 12:0.812717 13:-0.88679 14:-0.83871 15:-0.953987 16:-0.83871 17:-0.83871 18:-0.738676 19:-0.952096 21:-0.55291 22:-0.0764228 23:-0.959591 24:-1 25:-0.88679 26:-1 27:-0.956112 29:-0.711048 30:-0.791411 31:-0.837953 32:-0.763226 33:-0.703251 34:-0.763226 35:-0.709497 36:-0.679844 37:-0.994412 38:-0.861475 39:-0.994412 40:-1 41:-0.512605 42:-1 43:-0.727273 44:-0.714286 45:-0.851852 46:-1 47:-0.734694 48:-0.85034 49:-1 50:-0.953488 51:-1 52:0.241254 53:-1 54:-1 55:-0.735577 56:-0.3125 57:-0.654709 58:-0.946422 
8 1:-0.919665 2:-0.961567 3:-0.98063 4:-0.993917 5:-0.859108 6:-1 7:-1 8:-1 9:-0.993241 10:-0.9 11:-0.959043 12:0.927143 13:-0.932585 14:-1 15:-1 16:-1 17:-1 18:-0.982578 19:-1 21:-0.957672 22:0.0434783 23:-0.989347 24:-1 25:-0.932585 26:-1 27:-0.987974 29:-0.968839 30:-0.975051 31:-0.991471 32:-0.985256 33:-0.773702 34:-0.985256 35:-0.994413 36:-0.90878 37:-1 38:-1 39:-1 40:-1 41:-0.915966 42:-1 43:-1 44:-1 45:-0.851852 46:-1 47:-0.979592 48:-1 49:-1 50:-1 51:-1 52:-0.183851 53:-1 54:-1 55:-0.951923 56:-0.875 57:-0.964126 58:-0.995086 
-8 1:-0.910373 2:-0.87792 3:-0.77724 4:-0.968215 5:-0.877418 6:-1 7:-1 8:-1 9:-0.949873 10:-0.866667 11:-0.944898 12:0.923209 13:-0.907789 14:-0.967742 15:-0.977779 16:-0.967742 17:-0.967742 18:-0.898955 19:-0.844311 21:-0.806878 22:-0.0277778 23:-0.969265 24:-1 25:-0.907789 26:-1 27:-0.96849 29:-0.865439 30:-0.856033 31:-0.599147 32:-0.888118 33:-0.661417 34:-0.888118 35:-0.787709 36:-0.777461 37:-0.999287 38:-0.9573 39:-0.999287 40:-1 41:-0.966387 42:-1 43:-0.909091 44:-1 45:-1 46:-1 47:-0.857143 48:-0.741497 49:-1 50:-0.953488 51:-1 52:0.021131 53:-1 54:-1 55:-0.831731 56:-0.625 57:-0.807175 58:-0.973526 
-8 1:-0.917597 2:-0.993218 3:-0.995157 4:-0.997362 5:-0.823422 6:-0.992395 7:-0.907231 8:-0.992395 9:-0.99831 10:-0.966667 11:-0.959478 12:0.898438 13:-0.934193 14:-1 15:-1 16:-1 17:-1 18:-0.993031 19:-1 21:-0.981481 22:0.230769 23:-0.995469 24:-1 25:-0.934193 26:-1 27:-0.996647 29:-0.983003 30:-0.992638 31:-0.989339 32:-0.994796 33:-0.824149 34:-0.994796 35:-0.988827 36:-0.943382 37:-1 38:-1 39:-1 40:-1 41:-0.983193 42:-1 43:-1 44:-1 45:-1 46:-1 47:-0.979592 48:-0.972789 49:-1 50:-1 51:-1 52:-0.0373626 53:-1 54:-1 55:-0.990385 56:-0.875 57:-0.977578 58:-0.997921 
-8 1:-0.904016 2:-0.985682 3:-0.975787 4:-0.994585 5:-0.841001 6:-0.977186 7:-0.858627 8:-0.977186 9:-0.992678 10:-1 11:-0.930343 12:0.864932 13:-0.894062 14:-0.967742 15:-0.873957 16:-0.967742 17:-0.967742 18:-0.979094 19:-0.976048 21:-0.962963 22:0.185185 23:-0.989102 24:-1 25:-0.894062 26:-1 27:-0.992125 29:-0.975921 30:-0.982822 31:-0.944563 32:-0.987858 33:-0.791569 34:-0.987858 35:-0.977654 36:-0.914676 37:-0.999881 38:-0.959632 39:-0.999881 40:-1 41:-1 42:-1 43:-1 44:-1 45:-1 46:-0.882353 47:-0.979592 48:-0.931973 49:-0.882353 50:-0.976744 51:-1 52:-0.0730159 53:-1 54:-1 55:-0.975962 56:-0.75 57:-0.96861 58:-0.995653 
-8 1:-0.929049 2:-0.785983 3:-0.815981 4:-0.944955 5:-0.899043 6:-1 7:-1 8:-1 9:-0.928471 10:-0.766667 11:-0.953613 12:0.928449 13:-0.92314 14:-0.870968 15:-0.94852 16:-0.870968 17:-0.870968 18:-0.843206 19:-0.868263 21:-0.592593 22:0.023569 23:-0.961305 24:-1 25:-0.92314 26:-1 27:-0.912512 29:-0.720963 30:-0.800818 31:-0.537313 32:-0.85863 33:-0.752213 34:-0.85863 35:-0.75419 36:-0.696783 37:-0.997444 38:-0.91138 39:-0.997444 40:-1 41:-0.663866 42:-1 43:-0.909091 44:-1 45:-0.925926 46:-1 47:-0.857143 48:-0.85034 49:-1 50:-0.883721 51:-1 52:0.063925 53:-1 54:-1 55:-0.682692 56:-0.75 57:-0.713004 58:-0.951803 
8 1:-0.882279 2:-0.683497 3:-0.138015 4:-0.893556 5:-0.82841 6:-0.642586 7:-0.882815 8:-0.642586 9:-0.828217 10:-0.3 11:-0.917292 12:0.861338 13:-0.882448 14:-0.677419 15:-0.933312 16:-0.677419 17:-0.677419 18:-0.675958 19:-0.676647 21:-0.349206 22:0.0547264 23:-0.948081 24:-1 25:-0.882448 26:-1 27:-0.948229 29:-0.621813 30:-0.690798 31:-0.594883 32:-0.651344 33:-0.683343 34:-0.651344 35:-0.581006 36:-0.606101 37:-0.989002 38:-0.802436 39:-0.989002 40:-1 41:-0.848739 42:-1 43:-0.909091 44:-0.714286 45:-0.481481 46:-1 47:-0.938776 48:-0.782313 49:-1 50:-0.883721 51:-1 52:0.0584222 53:-1 54:-1 55:-0.0913462 56:-0.1875 57:-0.2287 58:-0.919683 
-8 1:-0.90331 2:-0.689525 3:-0.602906 4:-0.938361 5:-0.867256 6:-0.642586 7:-0.79795 8:-0.642586 9:-0.913827 10:-0.566667 11:-0.934515 12:0.900089 13:-0.905275 14:-0.709677 15:-0.896515 16:-0.709677 17:-0.709677 18:-0.71777 19:-0.88024 21:-0.563492 22:-0.0809793 23:-0.955917 24:-1 25:-0.905275 26:-1 27:-0.951002 29:-0.750708 30:-0.794683 31:-0.799574 32:-0.908933 33:-0.857393 34:-0.908933 35:-0.726257 36:-0.689533 37:-0.99132 38:-0.731169 39:-0.99132 40:-1 41:-0.445378 42:-1 43:-0.636364 44:-0.428571 45:-0.62963 46:-0.882353 47:-0.77551 48:-0.836735 49:-0.882353 50:-0.651163 51:-1 52:0.119451 53:-1 54:-1 55:-0.591346 56:-0.5 57:-0.730942 58:-0.949534 
5.510876607263025 1:-0.883508 2:-0.977393 3:-0.966102 4:-0.990575 5:-0.838107 6:-0.984791 7:-0.9449 8:-0.984791 9:-0.988172 10:-0.933333 11:-0.911846 12:0.852135 13:-0.881559 14:-0.935484 15:-0.852624 16:-0.935484 17:-0.935484 18:-0.968641 19:-0.964072 21:-0.952381 23:-0.979061 24:-1 25:-0.881559 26:-1 27:-0.992043 29:-0.967422 30:-0.977096 31:-0.927505 32:-0.980919 33:-0.808514 34:-0.980919 35:-0.977654 36:-0.886264 37:-0.999049 38:-0.811197 39:-0.999049 40:-1 41:-0.966387 42:-1 43:-1 44:-1 45:-1 46:-1 47:-1 48:-0.972789 49:-1 50:-0.976744 51:-1 52:0.216667 53:-1 54:-1 55:-0.966346 56:-0.625 57:-0.973094 58:-0.992603 
8 1:-0.884121 2:-0.529013 3:-0.719128 4:-0.910791 5:-0.82113 6:-0.726236 7:-0.892945 8:-0.726236 9:-0.88454 10:-0.333333 11:-0.930925 12:0.88892 13:-0.892394 14:-0.483871 15:-0.872739 16:-0.483871 17:-0.483871 18:-0.881533 19:-0.868263 21:-0.433862 22:0.0734463 23:-0.955183 24:-1 25:-0.892394 26:-1 27:-0.932293 29:-0.667139 30:-0.688344 31:-0.628998 32:-0.758023 33:-0.737882 34:-0.758023 35:-0.703911 36:-0.641707 37:-0.997622 38:-0.949052 39:-0.997622 40:-1 41:-0.193277 42:-1 43:-1 44:-1 45:-0.851852 46:-1 47:-0.673469 48:-0.605442 49:-0.882353 50:-0.674419 51:-1 52:0.0782082 53:-1 54:-1 55:-0.504808 56:-0.5 57:-0.363229 58:-0.933267 
8 1:-0.911867 2:-0.546345 3:-0.365617 4:-0.887964 5:-0.854237 6:-0.688213 7:-0.902867 8:-0.688213 9:-0.859758 10:-0.333333 11:-0.945503 12:0.90197 13:-0.914765 14:-0.83871 15:-0.968317 16:-0.83871 17:-0.83871 18:-0.655052 19:-0.245509 21:-0.248677 22:0.00358423 23:-0.945387 24:-1 25:-0.914765 26:-1 27:-0.939946 29:-0.474504 30:-0.64908 31:-0.234542 32:-0.680833 33:-0.724564 34:-0.680833 35:-0.296089 36:-0.587888 37:-0.995066 38:-0.915778 39:-0.995066 40:-1 41:-0.478992 42:-0.875 43:-0.727273 44:-0.714286 45:-0.555556 46:-0.294118 47:-0.673469 48:-0.537415 49:-0.294118 50:-0.651163 52:0.093318 53:-1 54:-1 55:-0.110577 56:-0.25 57:-0.26009 58:-0.912249 
-8 1:-0.896354 2:-0.824416 3:-0.815981 4:-0.965351 5:-0.841031 6:-0.954373 7:-0.954247 8:-0.954373 9:-0.957195 10:-0.966667 11:-0.925734 12:0.867619 13:-0.887413 14:-0.967742 15:-0.979604 16:-0.967742 17:-0.967742 18:-0.916376 19:-0.796407 21:-0.769841 22:0.12 23:-0.978816 24:-1 25:-0.887413 26:-1 27:-0.946627 29:-0.859773 30:-0.875665 31:-0.850746 32:-0.927147 33:-0.797633 34:-0.927147 35:-0.832402 36:-0.775164 37:-0.999703 38:-0.983669 39:-0.999703 40:-1 41:-0.596639 42:-1 43:-1 44:-1 45:-0.703704 46:-0.882353 47:-0.877551 48:-0.863946 49:-0.882353 50:-0.860465 51:-1 52:-0.0197143 53:-1 54:-1 55:-0.8125 56:-0.75 57:-0.623318 58:-0.972997 
-8 1:-0.885005 2:-0.723436 3:-0.598063 4:-0.910968 5:-0.859878 6:-0.536122 7:-0.818242 8:-0.536122 9:-0.901436 10:-0.5 11:-0.920509 12:0.890772 13:-0.890549 14:-0.741935 15:-0.936243 16:-0.741935 17:-0.741935 18:-0.721254 19:-0.748503 21:-0.529101 22:-0.196347 23:-0.921386 24:-1 25:-0.890549 26:-1 27:-0.956943 29:-0.691218 30:-0.779959 31:-0.729211 32:-0.623591 33:-0.59145 34:-0.623591 35:-0.681564 36:-0.623394 37:-0.998157 38:-0.960437 39:-0.998157 40:-1 41:-0.579832 42:-1 43:-0.818182 44:-0.428571 45:-0.703704 46:-1 47:-0.469388 48:-0.809524 49:-0.764706 50:-0.837209 51:-0.5 52:0.285714 53:-1 54:-1 55:-0.4375 56:-0.1875 57:-0.556054 58:-0.926437 
-8 1:-0.891809 2:-0.796534 3:-0.820823 4:-0.940284 5:-0.832803 6:-0.931559 7:-0.960068 8:-0.931559 9:-0.926781 10:-0.8 11:-0.924469 12:0.86612 13:-0.889232 14:-0.806452 15:-0.928797 16:-0.806452 17:-0.806452 18:-0.874564 19:-0.832335 21:-0.624339 22:-0.0634921 23:-0.958734 24:-1 25:-0.889232 26:-1 27:-0.965487 29:-0.763456 30:-0.828221 31:-0.769723 32:-0.825672 33:-0.718251 34:-0.825672 35:-0.826816 36:-0.70408 37:-0.999881 38:-0.996199 39:-0.999881 40:-1 41:-0.630252 42:-0.875 43:-0.818182 44:-1 45:-0.851852 46:-0.882353 47:-0.693878 48:-0.768707 49:-0.882353 50:-0.767442 52:0.0676871 53:-1 54:-1 55:-0.639423 56:-0.3125 57:-0.699552 58:-0.954033 
8 1:-0.907854 2:-0.796534 3:-0.864407 4:-0.95789 5:-0.895018 6:-0.977186 7:-0.981155 8:-0.977186 9:-0.944241 10:-0.666667 11:-0.934972 12:0.915638 13:-0.907022 14:-0.870968 15:-0.932792 16:-0.870968 17:-0.870968 18:-0.864111 19:-0.94012 21:-0.724868 22:-0.030303 23:-0.960571 24:-1 25:-0.907022 26:-1 27:-0.93549 29:-0.830028 30:-0.868712 31:-0.863539 32:-0.828274 33:-0.607047 34:-0.828274 35:-0.899441 36:-0.733449 37:-0.999049 38:-0.95695 39:-0.999049 40:-1 41:-0.848739 42:-1 43:-0.818182 44:-1 45:-0.851852 46:-0.882353 47:-0.653061 48:-0.931973 49:-0.882353 50:-0.767442 51:-1 52:0.0859504 53:-1 54:-1 55:-0.826923 56:-0.75 57:-0.735426 58:-0.962475 
8 1:-0.881637 2:-0.605878 3:-0.782082 4:-0.901925 5:-0.787584 6:-0.634981 7:-0.870133 8:-0.634981 9:-0.88454 10:-0.733333 11:-0.921192 12:0.838623 13:-0.894939 14:-0.516129 15:-0.891452 16:-0.516129 17:-0.516129 18:-0.804878 19:-0.904192 21:-0.367725 22:-0.15493 23:-0.956652 24:-1 25:-0.894939 26:-1 27:-0.961914 29:-0.59915 30:-0.728834 31:-0.918977 32:-0.565481 33:-0.571763 34:-0.565481 35:-0.821229 36:-0.636925 37:-0.99352 38:-0.873687 39:-0.99352 40:-1 41:-0.394958 42:-1 43:-0.909091 44:-1 45:-0.481481 46:-0.882353 47:-0.632653 48:-0.945578 49:-0.882353 50:-0.790698 51:-1 52:0.130986 53:-1 54:-1 55:-0.615385 57:-0.587444 58:-0.931515 
-8 1:-0.924992 2:-0.979653 3:-0.970944 4:-0.995011 5:-0.835281 6:-0.969582 7:-0.796132 8:-0.969582 9:-0.995494 10:-0.933333 11:-0.967094 12:0.91346 13:-0.957325 14:-1 15:-1 16:-1 17:-1 18:-0.982578 19:-0.976048 21:-0.960317 22:-0.04 23:-0.991428 24:-1 25:-0.957325 26:-1 27:-0.994744 29:-0.966006 30:-0.984049 31:-0.978678 32:-0.989592 33:-0.806776 34:-0.989592 35:-0.988827 36:-0.920968 37:-1 38:-1 39:-1 40:-1 41:-0.932773 42:-1 43:-1 44:-1 45:-1 46:-1 47:-1 48:-0.959184 49:-1 50:-1 51:-1 52:0.0845714 53:-1 54:-1 55:-0.966346 56:-0.9375 57:-0.96861 58:-0.99622 
8 1:-0.770034 2:-0.986436 3:-0.995157 4:-0.99772 5:-0.89891 6:-1 7:-1 8:-1 9:-0.998874 10:-1 11:-0.802275 12:0.807322 13:-0.777793 14:-1 15:-1 16:-1 17:-1 18:-1 19:-1 21:-0.997354 22:-0.111111 23:-0.993755 24:-1 25:-0.777793 26:-1 27:-0.994182 29:-0.997167 30:-0.995501 31:-1 32:-0.989592 33:-0.59822 34:-0.989592 35:-0.994413 36:-0.941088 37:-1 38:-1 39:-1 40:-1 41:-1 42:-1 43:-1 44:-1 45:-1 46:-1 47:-1 48:-1 49:-1 50:-1 51:-1 52:0.390476 53:-1 54:-1 55:-0.990385 56:-0.9375 57:-1 58:-0.99777 
8 1:-0.881007 2:-0.675207 3:-0.476998 4:-0.917114 5:-0.804525 6:-0.505703 7:-0.792002 8:-0.505703 9:-0.903126 10:-0.933333 11:-0.920528 12:0.852629 13:-0.879436 14:-0.870968 15:-0.965764 16:-0.870968 17:-0.870968 18:-0.783972 19:-0.700599 21:-0.510582 22:-0.182222 23:-0.949795 24:-1 25:-0.879436 26:-1 27:-0.968121 29:-0.68272 30:-0.773415 31:-0.637527 32:-0.690373 33:-0.639085 34:-0.690373 35:-0.581006 36:-0.65927 37:-0.999287 38:-0.983553 39:-0.999287 40:-1 41:-0.428571 42:-1 43:-0.909091 44:-1 45:-0.555556 46:-0.647059 47:-0.795918 48:-0.741497 49:-0.647059 50:-0.72093 51:-1 52:0.18654 53:-1 54:-1 55:-0.490385 56:0.0625 57:-0.623318 58:-0.939504 
-8 1:-0.873895 2:-0.964582 3:-0.946731 4:-0.985166 5:-0.780967 6:-0.946768 7:-0.876403 8:-0.946768 9:-0.983103 10:-0.9 11:-0.908788 12:0.814559 13:-0.866727 14:-0.967742 15:-0.952774 16:-0.967742 17:-0.967742 18:-0.933798 19:-0.928144 21:-0.902116 22:-0.0243902 23:-0.983836 24:-1 25:-0.866727 26:-1 27:-0.987168 29:-0.943343 30:-0.961145 31:-0.96162 32:-0.947095 33:-0.659726 34:-0.947095 35:-0.927374 36:-0.862516 37:-0.999762 38:-0.969749 39:-0.999762 40:-1 41:-0.983193 42:-1 43:-1 44:-1 45:-0.777778 46:-0.529412 47:-0.979592 48:-0.972789 49:-0.529412 50:-0.837209 51:-1 52:0.220906 53:-1 54:-1 55:-0.918269 56:-0.5625 57:-0.923767 58:-0.989441 
-8 1:-0.917139 2:-0.510927 3:-0.447942 4:-0.905311 5:-0.856712 6:-0.840304 7:-0.941157 8:-0.840304 9:-0.902563 10:-0.533333 11:-0.941141 12:0.881403 13:-0.912725 14:-0.741935 15:-0.940043 16:-0.741935 17:-0.741935 18:-0.749129 19:-0.796407 21:-0.39418 22:-0.00296736 23:-0.93804 24:-1 25:-0.912725 26:-1 27:-0.95484 29:-0.524079 30:-0.691207 31:-0.692964 32:-0.918474 33:-0.916787 34:-0.918474 35:-0.486034 36:-0.621288 37:-0.989537 38:-0.788771 39:-0.989537 40:-1 41:-0.579832 42:-1 43:-0.636364 44:-0.714286 45:-0.777778 46:-0.764706 47:-0.44898 48:-0.85034 49:-0.882353 50:-0.674419 51:-1 52:0.138788 53:-1 54:-1 55:-0.528846 56:-0.1875 57:-0.399103 58:-0.925631 
8 1:-0.918941 2:-0.911078 3:-0.927361 4:-0.982381 5:-0.854425 6:-0.969582 7:-0.940394 8:-0.969582 9:-0.98423 10:-0.9 11:-0.963262 12:0.935923 13:-0.92618 14:-0.967742 15:-0.960143 16:-0.967742 17:-0.967742 18:-0.968641 19:-0.952096 21:-0.857143 22:0.0196078 23:-0.983347 24:-1 25:-0.92618 26:-1 27:-0.984204 29:-0.905099 30:-0.945603 31:-0.929638 32:-0.942758 33:-0.689285 34:-0.942758 35:-0.888268 36:-0.838796 37:-0.999465 38:-0.942557 39:-0.999465 40:-1 41:-0.89916 42:-1 43:-1 44:-1 45:-1 46:-1 47:-0.959184 48:-0.891156 49:-1 50:-0.976744 51:-1 52:-0.0798319 53:-1 54:-1 55:-0.932692 56:-0.625 57:-0.90583 58:-0.985723 
-8 1:-0.89831 2:-0.726451 3:-0.636804 4:-0.940312 5:-0.838607 6:-0.91635 7:-0.951172 8:-0.91635 9:-0.914954 10:-0.6 11:-0.931261 12:0.876781 13:-0.896149 14:-0.967742 15:-0.988127 16:-0.967742 17:-0.967742 18:-0.829268 19:-0.688623 21:-0.626984 22:0.00374532 23:-0.959958 24:-1 25:-0.896149 26:-1 27:-0.970982 29:-0.749292 30:-0.814724 31:-0.765458 32:-0.882914 33:-0.810679 34:-0.882914 35:-0.743017 36:-0.703163 37:-0.999584 38:-0.986691 39:-0.999584 40:-1 41:-0.361345 42:-1 43:-0.727273 44:-1 45:-1 46:-1 47:-0.857143 48:-0.809524 49:-1 50:-0.72093 51:-1 52:0.113162 53:-1 54:-1 55:-0.5625 56:-0.1875 57:-0.600897 58:-0.953756 
-8 1:-0.895087 2:-0.674454 3:-0.825666 4:-0.928061 5:-0.815043 6:-0.726236 7:-0.867327 8:-0.726236 9:-0.913264 10:-0.866667 11:-0.939641 12:0.885717 13:-0.907159 14:-0.516129 15:-0.852142 16:-0.516129 17:-0.516129 18:-0.850174 19:-0.712575 21:-0.539683 22:0.0666667 23:-0.970244 24:-1 25:-0.907159 26:-1 27:-0.971664 29:-0.68272 30:-0.767689 31:-0.712154 32:-0.728534 33:-0.635569 34:-0.728534 35:-0.776536 36:-0.681743 37:-0.999584 38:-0.98895 39:-0.999584 40:-1 41:-0.478992 42:-1 43:-0.818182 44:-1 45:-0.777778 46:-0.529412 47:-0.591837 48:-0.795918 49:-0.529412 50:-0.697674 51:-1 52:0.0382222 53:-1 54:-1 55:-0.596154 56:-0.0625 57:-0.565022 58:-0.947039 
8 1:-0.897411 2:-0.803316 3:-0.835351 4:-0.935762 5:-0.879297 6:-0.893536 7:-0.942242 8:-0.893536 9:-0.927344 10:-0.8 11:-0.930262 12:0.909762 13:-0.904004 14:-0.870968 15:-0.955861 16:-0.870968 17:-0.870968 18:-0.850174 19:-0.832335 21:-0.574074 22:-0.48538 23:-0.945632 24:-1 25:-0.904004 26:-1 27:-0.960742 29:-0.759207 30:-0.815542 31:-0.763326 32:-0.782307 33:-0.672848 34:-0.782307 35:-0.821229 36:-0.675086 37:-0.995006 38:-0.851567 39:-0.995006 40:-1 41:-0.89916 42:-1 43:-1 44:-1 45:-0.925926 46:-0.882353 47:-0.693878 48:-0.741497 49:-0.882353 50:-0.813953 51:-1 52:0.549039 53:-1 54:-1 55:-0.600962 56:-0.375 57:-0.641256 58:-0.94486 
-8 1:-0.893154 2:-0.725697 3:-0.641646 4:-0.927494 5:-0.84694 6:-0.771863 7:-0.890302 8:-0.771863 9:-0.908195 10:-0.733333 11:-0.92559 12:0.878428 13:-0.89808 14:-1 15:-1 16:-1 17:-1 18:-0.84669 19:-0.772455 21:-0.550265 22:-0.160745 23:-0.954203 24:-1 25:-0.89808 26:-1 27:-0.960873 29:-0.72238 30:-0.780777 31:-0.648188 32:-0.774501 33:-0.699639 34:-0.774501 35:-0.743017 36:-0.669195 37:-0.998752 38:-0.96711 39:-0.998752 40:-1 41:-0.714286 42:-1 43:-0.363636 44:-1 45:-1 46:-0.764706 47:-0.612245 48:-0.714286 49:-0.764706 50:-0.651163 51:-1 52:0.206962 53:-1 54:-1 55:-0.615385 56:-0.25 57:-0.690583 58:-0.942894 
-8 1:-0.894038 2:-0.529766 3:-0.549637 4:-0.884939 5:-0.828032 6:-0.787072 7:-0.935406 8:-0.787072 9:-0.840608 10:-0.5 11:-0.928102 12:0.867587 13:-0.895247 14:-0.387097 15:-0.882764 16:-0.387097 17:-0.387097 18:-0.759582 19:-0.724551 21:-0.283069 22:0.0189055 23:-0.948325 24:-1 25:-0.895247 26:-1 27:-0.956949 29:-0.526912 30:-0.635174 31:-0.63113 32:-0.730269 33:-0.773335 34:-0.730269 35:-0.564246 36:-0.590341 37:-0.988051 38:-0.801393 39:-0.988051 40:-1 41:-0.445378 42:-1 43:-0.636364 44:-1 45:-0.62963 46:-0.882353 47:-0.632653 48:-0.809524 49:-0.764706 50:-0.860465 51:-1 52:0.0272921 53:-1 54:-1 55:-0.552885 56:0.0625 57:-0.331839 58:-0.91327 
8 1:-0.903847 2:-0.953278 3:-0.961259 4:-0.986778 5:-0.882543 6:-0.946768 7:-0.86159 8:-0.946768 9:-0.987609 10:-1 11:-0.931327 12:0.903061 13:-0.908781 14:-1 15:-1 16:-1 17:-1 18:-0.979094 19:-0.904192 21:-0.912698 22:0.00900901 23:-0.982489 24:-1 25:-0.908781 26:-1 27:-0.988183 29:-0.949008 30:-0.950511 31:-0.880597 32:-0.941023 33:-0.575215 34:-0.941023 35:-0.916201 36:-0.857642 37:-0.999287 38:-0.898371 39:-0.999287 40:-1 41:-1 42:-1 43:-0.909091 44:-1 45:-1 46:-0.764706 47:-0.979592 48:-0.823129 49:-1 50:-1 51:-1 52:0.127413 53:-1 54:-1 55:-0.951923 56:-0.5625 57:-0.928251 58:-0.988722 
-8 1:-0.914685 2:-0.947249 3:-0.951574 4:-0.964674 5:-0.882751 6:-1 7:-1 8:-1 9:-0.971839 10:-0.933333 11:-0.949283 12:0.931234 13:-0.913934 14:-0.870968 15:-0.919969 16:-0.870968 17:-0.870968 18:-0.961672 19:-0.964072 21:-0.769841 22:-0.566952 23:-0.955428 24:-1 25:-0.913934 26:-1 27:-0.942722 29:-0.835694 30:-0.913701 31:-0.872068 32:-0.882914 33:-0.680956 34:-0.882914 35:-0.960894 36:-0.756635 37:-1 38:-1 39:-1 40:-1 41:-0.915966 42:-1 43:-0.909091 44:-0.428571 45:-0.62963 46:-1 47:-0.918367 48:-0.632653 49:-1 50:-0.883721 51:-1 52:0.497436 53:-1 54:-1 55:-0.884615 56:-0.75 57:-0.573991 58:-0.968536 
-8 1:-0.819277 2:-0.990957 3:-0.990315 4:-0.995027 5:-0.817523 6:-1 7:-1 8:-1 9:-0.996057 10:-1 11:-0.854386 12:0.797899 13:-0.82645 14:-1 15:-1 16:-1 17:-1 18:-0.993031 19:-1 21:-0.981481 22:-0.666667 23:-0.974285 24:-1 25:-0.82645 26:-1 27:-1 29:-0.990085 30:-0.988548 31:-0.978678 32:-0.99046 33:-0.822321 34:-0.99046 35:-0.994413 36:-0.919817 37:-1 38:-1 39:-1 40:-1 41:-0.983193 42:-1 43:-1 44:-1 45:-1 46:-1 47:-0.979592 48:-1 49:-1 50:-1 51:-1 52:0.825 53:-1 54:-1 55:-0.980769 56:-1 57:-0.986547 58:-0.996119 
-8 1:-0.918334 2:-0.993971 3:-0.995157 4:-0.996672 5:-0.856552 6:-0.946768 7:-0.47661 8:-0.946768 9:-0.994368 10:-1 11:-0.930965 12:0.850981 13:-0.907463 14:-1 15:-1 16:-1 17:-1 18:-0.996516 19:-1 21:-0.97619 22:0.025641 23:-0.993388 24:-1 25:-0.907463 26:-1 27:-0.996955 29:-0.983003 30:-0.99182 31:-0.974414 32:-0.989592 33:-0.716535 34:-0.989592 35:-0.994413 36:-0.93344 37:-1 38:-1 39:-1 40:-1 41:-1 42:-1 43:-1 44:-1 45:-1 46:-1 47:-0.979592 48:-0.945578 49:-1 50:-1 51:-1 52:0.283516 53:-1 54:-1 55:-1 56:-0.875 57:-0.96861 58:-0.997228 
-8 1:-0.893278 2:-0.456669 3:-0.331719 4:-0.843334 5:-0.784823 6:-0.148289 7:-0.81014 8:-0.148289 9:-0.803999 10:-0.4 11:-0.915223 12:0.795386 13:-0.887867 14:-0.806452 15:-0.972795 16:-0.806452 17:-0.806452 18:-0.728223 19:-0.772455 21:-0.0238095 22:0.0149611 23:-0.94906 24:-1 25:-0.887867 26:-1 27:-0.898968 29:-0.212465 30:-0.636401 31:-0.571429 32:-0.583695 33:-0.742932 34:-0.583695 35:-0.513966 36:-0.541841 37:-0.995779 38:-0.948449 39:-0.995779 40:-1 41:-0.0588235 42:-1 43:-0.818182 44:-0.714286 45:-0.185185 46:-0.882353 47:-0.367347 48:-0.659864 49:-0.764706 50:-0.581395 51:-1 52:0.123365 53:-1 54:-1 55:-0.129808 56:-0.375 57:-0.515695 58:-0.891987 
8 1:-0.912434 2:-0.975132 3:-0.951574 4:-0.993112 5:-0.843872 6:-1 7:-1 8:-1 9:-0.992678 10:-1 11:-0.938183 12:0.871591 13:-0.896755 14:-1 15:-1 16:-1 17:-1 18:-0.993031 19:-0.988024 21:-0.944444 22:0.0666667 23:-0.991306 24:-1 25:-0.896755 26:-1 27:-0.996828 29:-0.966006 30:-0.975051 31:-0.959488 32:-0.96791 33:-0.56316 34:-0.96791 35:-0.932961 36:-0.903938 37:-1 38:-1 39:-1 40:-1 41:-0.94958 42:-1 43:-1 44:-1 45:-0.925926 46:-1 47:-0.897959 48:-1 49:-1 50:-1 51:-1 52:-0.499429 53:-1 54:-1 55:-0.961538 56:-0.9375 57:-0.932735 58:-0.994594 
-8 1:-0.872046 2:-0.986436 3:-1 4:-0.997065 5:-0.84286 6:-0.992395 7:-0.915948 8:-0.992395 9:-0.997184 10:-1 11:-0.89899 12:0.842598 13:-0.87214 14:-1 15:-1 16:-1 17:-1 18:-1 19:-0.988024 21:-0.984127 22:0.142857 23:-0.994 24:-1 25:-0.87214 26:-1 27:-0.997191 29:-0.991501 30:-0.989775 31:-0.987207 32:-0.987858 33:-0.628238 34:-0.987858 35:-0.988827 36:-0.937966 37:-1 38:-1 39:-1 40:-1 41:-1 42:-1 43:-1 44:-1 45:-1 46:-1 47:-0.979592 48:-0.972789 49:-1 50:-1 51:-1 52:0.191837 53:-1 54:-1 55:-0.980769 56:-0.9375 57:-0.991031 58:-0.997555 
1.740754200476122 1:-0.886696 2:-0.691032 3:-0.68523 4:-0.918112 5:-0.844139 6:-0.802281 7:-0.915789 8:-0.802281 9:-0.857505 10:-0.566667 11:-0.906224 12:0.835668 13:-0.881769 14:-0.774194 15:-0.939359 16:-0.774194 17:-0.774194 18:-0.696864 19:-0.844311 21:-0.492063 22:-0.0679612 23:-0.955428 24:-1 25:-0.881769 26:-1 27:-0.928887 29:-0.709632 30:-0.754192 31:-0.509595 32:-0.867303 33:-0.843441 34:-0.867303 35:-0.597765 36:-0.651073 37:-0.990488 38:-0.778037 39:-0.990488 40:-1 41:-0.697479 42:-1 43:-0.727273 44:-1 45:-0.333333 46:-1 47:-0.653061 48:-0.768707 49:-1 50:-0.813953 51:-1 52:0.113731 53:-1 54:-1 55:-0.524038 56:-0.5625 57:-0.641256 58:-0.936631 
8 1:-0.906094 2:-0.681236 3:-0.535109 4:-0.924348 5:-0.839486 6:-0.954373 7:-0.97897 8:-0.954373 9:-0.920586 10:-0.7 11:-0.942887 12:0.893626 13:-0.908775 14:-0.903226 15:-0.971875 16:-0.903226 17:-0.903226 18:-0.804878 19:-0.652695 21:-0.52381 22:0.00813008 23:-0.959346 24:-1 25:-0.908775 26:-1 27:-0.932701 29:-0.652975 30:-0.770143 31:-0.441365 32:-0.860364 33:-0.821717 34:-0.860364 35:-0.569832 36:-0.668037 37:-0.996433 38:-0.909924 39:-0.996433 40:-1 41:-0.680672 42:-1 43:-0.818182 44:-0.714286 45:-0.777778 46:-0.764706 47:-0.510204 48:-0.70068 49:-0.647059 50:-0.674419 51:-1 52:0.0343786 53:-1 54:-1 55:-0.451923 56:-0.5625 57:-0.542601 58:-0.942503 
-8 1:-0.89008 2:-0.819894 3:-0.7046 4:-0.943042 5:-0.806848 6:-0.65019 7:-0.786062 8:-0.65019 9:-0.928471 10:-0.533333 11:-0.9324 12:0.868941 13:-0.901861 14:-0.806452 15:-0.925363 16:-0.806452 17:-0.806452 18:-0.891986 19:-0.892216 21:-0.634921 22:-0.044316 23:-0.961673 24:-1 25:-0.901861 26:-1 27:-0.976878 29:-0.756374 30:-0.837628 31:-0.891258 32:-0.897658 33:-0.826618 34:-0.897658 35:-0.810056 36:-0.718831 37:-0.998989 38:-0.966136 39:-0.998989 40:-1 41:-0.680672 42:-1 43:-0.909091 44:-1 45:-0.851852 46:-0.882353 47:-0.857143 48:-0.863946 49:-0.882353 50:-0.813953 51:-1 52:0.145334 53:-1 54:-1 55:-0.697115 56:-0.125 57:-0.784753 58:-0.95838 
-8 1:-0.892194 2:-0.461191 3:-0.636804 4:-0.896701 5:-0.874319 6:-0.794677 7:-0.930636 8:-0.794677 9:-0.876654 10:-0.633333 11:-0.931839 12:0.919882 13:-0.90316 14:-0.83871 15:-0.965643 16:-0.83871 17:-0.83871 18:-0.787456 19:-0.688623 21:-0.402116 22:-0.259823 23:-0.939876 24:-1 25:-0.90316 26:-1 27:-0.916729 29:-0.628895 30:-0.691616 31:-0.784648 32:-0.590633 33:-0.616909 34:-0.590633 35:-0.743017 36:-0.588462 37:-0.993342 38:-0.87676 39:-0.993342 40:-1 41:-0.445378 42:-1 43:-0.818182 44:-1 45:-0.851852 46:-1 47:-0.387755 48:-0.959184 49:-1 50:-0.72093 51:-1 52:0.221293 53:-1 54:-1 55:-0.399038 56:-0.5 57:-0.569507 58:-0.912489 
8 1:-0.948714 2:-0.901281 3:-0.830508 4:-0.966827 5:-0.878433 6:-0.893536 7:-0.888526 8:-0.893536 9:-0.961701 10:-0.9 11:-0.962371 12:0.885833 13:-0.932772 14:-0.83871 15:-0.893515 16:-0.83871 17:-0.83871 18:-0.954704 19:-0.964072 21:-0.685185 22:-0.0724638 23:-0.979183 24:-1 25:-0.932772 26:-1 27:-0.976116 29:-0.708215 30:-0.891616 31:-0.842217 32:-0.898526 33:-0.705678 34:-0.898526 35:-0.865922 36:-0.778563 37:-0.996849 38:-0.819247 39:-0.996849 40:-1 41:-0.680672 42:-1 43:-1 44:-1 45:-1 46:-1 47:-0.959184 48:-0.768707 49:-1 50:-0.883721 51:-1 52:0.00759144 53:-1 54:-1 55:-0.850962 56:-0.4375 57:-0.762332 58:-0.973778 
-8 1:-0.891187 2:-0.895252 3:-0.859564 4:-0.969928 5:-0.812079 6:-0.908745 7:-0.894671 8:-0.908745 9:-0.957195 10:-0.933333 11:-0.92426 12:0.849046 13:-0.889861 14:-0.967742 15:-0.976523 16:-0.967742 17:-0.967742 18:-0.95122 19:-0.844311 21:-0.81746 22:0.244444 23:-0.973918 24:-1 25:-0.889861 26:-1 27:-0.963258 29:-0.873938 30:-0.901022 31:-0.778252 32:-0.930616 33:-0.778155 34:-0.930616 35:-0.837989 36:-0.797873 37:-1 38:-1 39:-1 40:-1 41:-0.882353 42:-1 43:-0.909091 44:-1 45:-1 46:-1 47:-0.714286 48:-0.863946 49:-1 50:-0.976744 51:-1 52:-0.0961905 53:-1 54:-1 55:-0.826923 56:-0.6875 57:-0.820628 58:-0.977999 
8 1:-0.909156 2:-0.929917 3:-0.878935 4:-0.976025 5:-0.850278 6:-0.923954 7:-0.890116 8:-0.923954 9:-0.967333 10:-0.9 11:-0.942058 12:0.894605 13:-0.90816 14:-1 15:-1 16:-1 17:-1 18:-0.961672 19:-0.892216 21:-0.838624 22:0.0464135 23:-0.976244 24:-1 25:-0.90816 26:-1 27:-0.978274 29:-0.889518 30:-0.918609 31:-0.846482 32:-0.91327 33:-0.652844 34:-0.91327 35:-0.905028 36:-0.813328 37:-0.999881 38:-0.990587 39:-0.999881 40:-1 41:-0.966387 42:-1 43:-0.818182 44:-1 45:-0.925926 46:-1 47:-0.918367 48:-0.863946 49:-1 50:-0.953488 51:-1 52:-0.0231465 53:-1 54:-1 55:-0.865385 56:-0.5625 57:-0.883408 58:-0.981112 
-8 1:-0.918015 2:-0.742276 3:-0.79661 4:-0.945945 5:-0.876604 6:-0.855513 7:-0.90691 8:-0.855513 9:-0.939735 10:-0.733333 11:-0.942742 12:0.901504 13:-0.922151 14:-0.870968 15:-0.947581 16:-0.870968 17:-0.870968 18:-0.839721 19:-0.868263 21:-0.611111 22:0.0187266 23:-0.966571 24:-1 25:-0.922151 26:-1 27:-0.961505 29:-0.749292 30:-0.834356 31:-0.729211 32:-0.791847 33:-0.628505 34:-0.791847 35:-0.72067 36:-0.710063 37:-0.994114 38:-0.792245 39:-0.994114 40:-1 41:-0.747899 42:-1 43:-0.727273 44:0.142857 45:-0.62963 46:-1 47:-0.816327 48:-0.972789 49:-1 50:-0.883721 51:-1 52:0.00770465 53:-1 54:-1 55:-0.658654 56:-0.4375 57:-0.58296 58:-0.955822 
-8 1:-0.922361 2:-0.979653 3:-0.995157 4:-0.995687 5:-0.827557 6:-0.984791 7:-0.882883 8:-0.984791 9:-0.996621 10:-0.966667 11:-0.954485 12:0.877201 13:-0.935476 14:-1 15:-1 16:-1 17:-1 18:-0.97561 19:-0.988024 21:-0.973545 22:-0.030303 23:-0.991306 24:-1 25:-0.935476 26:-1 27:-0.998188 29:-0.970255 30:-0.986912 31:-0.968017 32:-0.98699 33:-0.722494 34:-0.98699 35:-0.988827 36:-0.927278 37:-1 38:-1 39:-1 40:-1 41:-0.983193 42:-1 43:-1 44:-0.714286 45:-0.925926 46:-1 47:-1 48:-0.986395 49:-1 50:-1 51:-1 52:0.232468 53:-1 54:-1 55:-0.980769 56:-0.9375 57:-0.995516 58:-0.996749 
-8 1:-0.911238 2:-0.801055 3:-0.878935 4:-0.947494 5:-0.852617 6:-0.923954 7:-0.949565 8:-0.923954 9:-0.930161 10:-0.766667 11:-0.94019 12:0.887326 13:-0.910021 14:-0.83871 15:-0.932552 16:-0.83871 17:-0.83871 18:-0.857143 19:-0.856287 21:-0.632275 22:-0.100952 23:-0.962897 24:-1 25:-0.910021 26:-1 27:-0.964017 29:-0.753541 30:-0.811861 31:-0.633262 32:-0.856028 33:-0.7355 34:-0.856028 35:-0.810056 36:-0.720238 37:-0.997265 38:-0.900631 39:-0.997265 40:-1 41:-0.848739 42:-1 43:-0.818182 44:-1 45:-0.851852 46:-1 47:-0.612245 48:-0.659864 49:-1 50:-0.906977 51:-1 52:0.144163 53:-1 54:-1 55:-0.692308 56:-0.4375 57:-0.690583 58:-0.958783 
0.9023363006980775 1:-0.850835 2:-0.996986 3:-1 4:-0.999296 5:-0.774743 6:-1 7:-1 8:-1 9:-1 10:-1 11:-0.838555 12:0.66225 13:-0.8448 14:-0.967742 15:-0.237478 16:-0.967742 17:-0.967742 18:-1 19:-1 21:-0.997354 22:0.333333 23:-0.998531 24:-1 25:-0.8448 26:-1 27:-1 29:-0.998584 30:-0.997546 31:-0.997868 32:-0.995663 33:-0.549662 34:-0.995663 35:-1 36:-0.972375 37:-1 38:-1 39:-1 40:-1 41:-1 42:-1 43:-1 44:-1 45:-1 46:-1 47:-1 48:-1 49:-1 50:-1 51:-1 52:0.0428571 53:-1 54:-1 55:-0.995192 56:-1 57:-1 58:-0.999383 
6.265111140712657 1:-0.908855 2:-0.220799 3:-0.617433 4:-0.837275 5:-0.850831 6:-0.91635 7:-0.982046 8:-0.91635 9:-0.804562 10:-0.633333 11:-0.943075 12:0.898475 13:-0.908079 14:-0.193548 15:-0.890862 16:-0.193548 17:-0.193548 18:-0.703833 19:0.137725 21:0.145503 22:-0.020202 23:-0.937672 24:-1 25:-0.908079 26:-1 27:-0.918676 29:-0.253541 30:-0.421677 31:-0.420043 32:-0.534258 33:-0.723098 34:-0.534258 35:-0.0614525 36:-0.501546 37:-0.994352 38:-0.933588 39:-0.994352 40:-1 41:0.226891 42:-0.875 43:-0.909091 44:-0.428571 45:-0.481481 46:-0.764706 47:0.755102 48:-0.346939 49:-0.529412 50:-0.534884 51:-0.5 52:0.0507576 53:-1 54:-1 55:-0.293269 56:-0.1875 57:0.363229 58:-0.872532 
